{"shape": [128]}
0.011249743402004242,0.015366020612418652,-0.021999483928084373,-0.02681903727352619,-0.005028303246945143,-0.009514965116977692,-0.008119015023112297,0.018650665879249573,-0.008912153542041779,-0.010825994424521923,0.0035794174764305353,-0.012481262907385826,0.022274479269981384,0.026473820209503174,0.033616114407777786,0.000938086595851928,0.026521367952227592,0.009524940513074398,-0.006014457903802395,0.014460872858762741,-0.015450267121195793,-0.004700338002294302,-0.018250804394483566,0.012963724322617054,0.0008297645836137235,-0.006382700055837631,-0.0066633825190365314,0.02215457335114479,0.023501606658101082,0.025113899260759354,-0.0017926491564139724,-0.0014749590773135424,0.020465688779950142,-0.03235825151205063,-0.013331526890397072,0.024699537083506584,-0.013703149743378162,-0.004777975846081972,-0.028598349541425705,-0.005615058355033398,-0.0036699017509818077,-0.0007122484967112541,0.01718132570385933,-0.013972227461636066,-0.020483488216996193,0.01989508420228958,-0.02799701876938343,-0.05650249868631363,-0.0309214498847723,-0.021913059055805206,0.010263350792229176,0.025256728753447533,0.011449949815869331,0.017779506742954254,-0.012142028659582138,-0.017076153308153152,-0.032548777759075165,0.026014801114797592,0.016295088455080986,0.00439111702144146,0.012101680040359497,-0.002574738347902894,0.0232203621417284,-0.016817497089505196,0.012755487114191055,0.03335684910416603,-0.015967467799782753,0.024702508002519608,0.00878466572612524,-0.048162754625082016,0.049899447709321976,0.008033710531890392,-0.008851725608110428,-0.009447529911994934,-0.0160136129707098,-0.001496171928010881,0.013707960024476051,0.006049459334462881,0.02246219478547573,0.04922556132078171,0.03668579086661339,-0.0006346950540319085,0.012856829911470413,-0.023226052522659302,0.001362309674732387,-0.049800362437963486,-0.0009240142535418272,-0.005501179490238428,-0.019619716331362724,-0.049236319959163666,0.01940099522471428,-0.008249453268945217,-0.014145877212285995,-0.004969842731952667,-0.018488392233848572,-0.028388341888785362,-0.003985004965215921,0.01849399507045746,0.0125936483964324,0.012571863830089569,0.022767994552850723,-0.007071866653859615,-0.027515802532434464,-0.015506083145737648,0.01771102473139763,-0.044373538345098495,0.02288932166993618,0.006712591275572777,-0.03542418032884598,0.010146453976631165,-0.0032671578228473663,-0.01819113828241825,0.026017341762781143,0.028077000752091408,-0.03309748321771622,0.033175572752952576,0.005034276284277439,0.010753649286925793,0.0349280945956707,-0.00595835642889142,0.015992848202586174,-0.018632307648658752,0.022574162110686302,-0.020354291424155235,0.01892275922000408,-0.006594961974769831,-0.013774031773209572,-0.003383931238204241