{"shape": [128, 784]}
-0.01106239203363657,0.021197566762566566,0.03139854222536087,-0.02011207863688469,-0.02284507267177105,0.03459124267101288,0.016831636428833008,-0.014424686320126057,-0.026961661875247955,0.027107518166303635,-0.002018250059336424,0.011662318371236324,0.04218248650431633,0.006503182463347912,-0.014169663190841675,-0.0025959459599107504,0.010889953933656216,0.01399451307952404,0.03241566941142082,-0.023664085194468498,0.02636900171637535,0.035900913178920746,-0.02662281133234501,0.03882983699440956,-0.0061383494175970554,0.0344548225402832,0.03472519665956497,0.01543132122606039,-0.006554956082254648,0.023103617131710052,0.016724325716495514,0.026135437190532684,-0.01729702204465866,-0.008175226859748363,0.015002238564193249,-0.013320689089596272,0.005301027558743954,-0.01959262043237686,0.00288694491609931,0.022281434386968613,-0.0005837809294462204,0.01584651507437229,0.001014256034977734,0.04403761401772499,0.011284819804131985,0.012444891966879368,-0.012109664268791676,0.00010741609730757773,-7.447853568010032e-05,0.027085037901997566,-0.008682847954332829,-0.002266343915835023,-0.01648465171456337,-0.0002663961495272815,-0.0017459901282563806,-0.007176965940743685,0.010304739698767662,0.028041351586580276,0.033879414200782776,-0.01792103610932827,0.025952860713005066,0.019032377749681473,0.01875428669154644,0.004595878534018993,-0.002792855491861701,0.03467574715614319,0.07157723605632782,0.0371510274708271,0.024715641513466835,0.05003146827220917,0.06325942277908325,0.013457627035677433,-0.015571882016956806,0.031760819256305695,0.02038186974823475,0.050213586539030075,0.05336148664355278,0.035287462174892426,0.01655072346329689,0.04100598767399788,0.024411197751760483,0.021130749955773354,-0.017076954245567322,0.007939150556921959,0.020548129454255104,-0.008408465422689915,-0.01309092529118061,-0.0014320564223453403,0.026147086173295975,0.026621194556355476,0.01701163500547409,0.02431538701057434,0.030544202774763107,0.08337420970201492,0.027382565662264824,0.08618400990962982,0.024764850735664368,0.11545402556657791,0.09143423289060593,0.019287370145320892,0.06441915035247803,-0.027519436553120613,-0.005715084262192249,-0.0465974323451519,0.000922868843190372,0.0019386130152270198,0.0018914489774033427,0.04079852253198624,0.054245997220277786,0.00231020525097847,-0.021606232970952988,0.02491740509867668,-0.01153890322893858,-0.005242445971816778,0.01589174196124077,-0.0143442926928401,-0.0146337253972888,-0.007806266658008099,0.059789758175611496,0.060370542109012604,0.05864541232585907,0.0683555006980896,0.06822652369737625,0.08035603165626526,0.043551262468099594,0.027209600433707237,0.077207051217556,0.011555555276572704,0.027961490675807,0.012997424229979515,-0.013312162831425667,-0.0038033812306821346,0.013952568173408508,-0.025913996621966362,-0.04022781178355217,-0.046323005110025406,-0.049493033438920975,-0.017674526199698448,0.009583854116499424,0.01066132914274931,0.03529457002878189,-0.0035334087442606688,0.015716811642050743,-0.024559736251831055,0.005791300907731056,0.030265001580119133,-0.020200345665216446,0.012399177998304367,0.011272969655692577,0.03051058202981949,0.04585038870573044,-0.0229832474142313,-0.04720727726817131,-0.007559363730251789,-0.07308036088943481,-0.03796139732003212,-0.0030787959694862366,-0.03927241638302803,-0.031683649867773056,-0.0026772727724164724,-0.01859072595834732,-0.007419949863106012,-0.09607774019241333,-0.06938569992780685,-0.05882953107357025,0.0264126043766737,0.03818250820040703,-0.008531835861504078,0.028116848319768906,0.020881852135062218,0.013628377579152584,0.04047616198658943,-0.005306880455464125,-0.0035435755271464586,-0.03937677666544914,-0.031229518353939056,0.004791689570993185,-0.04366086795926094,-0.07789605110883713,-0.05834145471453667,-0.0978516936302185,-0.1381179690361023,-0.06817149370908737,-0.04609571397304535,0.0279109887778759,0.05738401040434837,0.027451155707240105,-0.04680180922150612,-0.032692212611436844,-0.06992130726575851,-0.04631493240594864,-0.021962812170386314,-0.0709519237279892,-0.016881205141544342,0.012563793919980526,-0.008893562480807304,0.024872835725545883,0.038516853004693985,0.04149100184440613,-0.01258393656462431,0.025166582316160202,0.011190762743353844,0.01847182959318161,-0.01784965768456459,-0.04335348308086395,-0.03401009738445282,-0.09739929437637329,-0.1392553746700287,-0.11897548288106918,-0.10690151900053024,-0.03298935666680336,0.08085992932319641,0.07375146448612213,0.0344698429107666,0.05833778530359268,-0.009556128643453121,-0.012487980537116528,-0.04562900587916374,-0.07533673942089081,-0.03189713507890701,-0.023182351142168045,-0.04342450946569443,-0.035679541528224945,-0.02364506945014,0.026642166078090668,-0.018318401649594307,-0.023519111797213554,0.011476178653538227,0.012460845522582531,0.008918918669223785,-0.0024832403287291527,0.013544526882469654,-0.04429739713668823,-0.09381213784217834,-0.06654435396194458,-0.06375781446695328,0.011394886299967766,0.03420324996113777,0.04848334565758705,0.07534950226545334,0.040168121457099915,0.058510445058345795,0.034044601023197174,0.0395452044904232,0.017617451027035713,0.002772013656795025,-0.01856425032019615,-0.06351672112941742,-0.037025708705186844,-0.028090910986065865,0.020841868594288826,-0.0022605201229453087,-0.017147360369563103,-0.020811665803194046,-0.021953312680125237,0.002411161782220006,-0.011691864579916,-0.012679093517363071,-0.01621393673121929,-0.010297983884811401,-0.0944305807352066,-0.07286809384822845,-0.053783416748046875,0.014824026264250278,0.05758721008896828,0.058671485632658005,-0.01727449707686901,0.004211397375911474,-0.028822118416428566,-0.04430823400616646,-0.032354943454265594,0.014054995961487293,0.08455895632505417,0.03493579477071762,0.01037922315299511,-0.002767048543319106,-0.06324182450771332,-0.03155277296900749,0.020791444927453995,0.0017927051521837711,0.036941587924957275,0.016103792935609818,-0.013392462395131588,-0.018327496945858,-0.019712192937731743,-0.040412455797195435,-0.013193721882998943,-0.0795518308877945,-0.12364601343870163,-0.022576717659831047,0.05450456216931343,0.04805782809853554,0.06342290341854095,0.012896107509732246,-0.027924587950110435,-0.06769934296607971,-0.050177138298749924,-0.038130953907966614,0.006911374628543854,-0.0024435636587440968,0.07272305339574814,0.035835448652505875,-0.01154650654643774,-0.022126903757452965,-0.07456381618976593,-0.06926213204860687,-0.01036472711712122,0.009892110712826252,0.02932463027536869,-0.02335600182414055,0.02895265817642212,-0.00687818881124258,0.0153947863727808,0.04527820646762848,-0.03771795704960823,-0.035716284066438675,-0.0431331992149353,0.04695891961455345,0.0491805300116539,0.06298217177391052,-0.03732471913099289,-0.07050692290067673,-0.012866021133959293,-0.0824664756655693,-0.03698780760169029,-0.007868281565606594,0.012603786773979664,0.04722348228096962,0.03838276490569115,0.08008184283971786,0.08281047642230988,-0.013428792357444763,-0.04200594127178192,-0.005696453154087067,-0.008379902690649033,0.029279502108693123,0.004839003551751375,-0.006886213086545467,0.003733572084456682,0.0018350312020629644,0.024814950302243233,0.05517994984984398,0.05257190391421318,0.00015715966583229601,-0.045378319919109344,0.03835142403841019,0.014456450007855892,-0.024586662650108337,-0.07723245024681091,-0.055555831640958786,-0.003977029584348202,0.031180063262581825,-0.0035235504619777203,0.009967698715627193,0.025796517729759216,0.023332543671131134,0.06744862347841263,0.049963388592004776,0.046407558023929596,0.11372114717960358,0.042172178626060486,-0.04258176311850548,-0.04691809043288231,0.008932317607104778,-0.012342202477157116,-0.016948414966464043,0.018955223262310028,-0.030332578346133232,0.011373075656592846,0.041350629180669785,-0.010933497920632362,-0.07262323051691055,0.0012764957500621676,0.021696733310818672,-0.038604509085416794,-0.023085059598088264,-0.006926099304109812,0.05115306377410889,0.04201763868331909,0.03451459854841232,-0.009938232600688934,-0.0073453462682664394,0.03717359900474548,0.0358472540974617,0.021374091506004333,0.055332329124212265,0.09683474153280258,0.09215714782476425,-0.025946790352463722,-0.019579019397497177,0.0015041572041809559,-0.019198384135961533,0.02968800626695156,0.029564138501882553,0.00964431744068861,-0.03545606508851051,0.01489983405917883,0.01772577129304409,-0.06362598389387131,-0.06254461407661438,-0.06505982577800751,-0.02329855225980282,0.02334456518292427,-0.012119576334953308,0.0735485777258873,0.11329270899295807,0.03505603224039078,0.02719304896891117,0.00961663294583559,-0.06895150989294052,-0.007503889035433531,-0.00534901162609458,0.015028968453407288,0.023884830996394157,0.05553869158029556,0.002862027147784829,0.03190363943576813,-0.021497448906302452,0.04605191946029663,-0.017702553421258926,0.0025338621344417334,-0.012422759085893631,-0.005525562912225723,-0.007744504138827324,-0.03275962546467781,-0.01892305724322796,-0.10751084983348846,-0.06941807270050049,0.001292856759391725,0.04960739240050316,0.024445217102766037,0.03747342526912689,0.052887581288814545,0.06542835384607315,0.027716277167201042,-0.03801301121711731,-0.017358243465423584,-0.04431961849331856,-0.05301227420568466,-0.02985396794974804,-0.03771241009235382,-0.039966948330402374,0.023221930488944054,-0.011066040955483913,0.046283524483442307,0.02447928860783577,-0.040179070085287094,-0.007217783015221357,0.021461280062794685,0.042591143399477005,0.030570214614272118,0.022591661661863327,-0.016386007890105247,-0.02173910290002823,-0.029844997450709343,-0.04857112094759941,0.027789060026407242,0.12157801538705826,0.08119059354066849,0.14273861050605774,0.050530463457107544,0.017781928181648254,-0.043074335902929306,-0.052717920392751694,-0.013823194429278374,-0.05763370171189308,-0.09650351852178574,-0.06164844334125519,-0.04454217478632927,-0.04125932976603508,-0.00382333155721426,-0.01909520849585533,-0.021368037909269333,3.1002422474557534e-05,-0.03267262876033783,0.031243354082107544,0.009612321853637695,0.03829065337777138,-0.011476431041955948,-0.015671616420149803,-0.03913287818431854,-0.046382419764995575,-0.11490707844495773,-0.005333240609616041,0.042881373316049576,0.10413485765457153,0.09063591063022614,0.08481292426586151,0.03370654210448265,-0.04833240434527397,-0.045503463596105576,-0.04448295757174492,0.010311808437108994,-0.007445115130394697,-0.023985667154192924,-0.008410748094320297,-0.0681803822517395,-0.0789380669593811,-0.06972511112689972,-0.033753518015146255,-0.040719710290431976,-0.02985120192170143,-0.00526533043012023,-0.011690099723637104,0.021618975326418877,0.0016075531020760536,0.025769757106900215,0.04144982248544693,-0.03971502557396889,-0.12838289141654968,-0.07446268945932388,-0.048738546669483185,0.02776552177965641,0.07538464665412903,0.10823870450258255,0.004424809943884611,-0.031706441193819046,-0.09938358515501022,-0.039402540773153305,0.02005522884428501,0.01866462081670761,0.017076710239052773,0.01453239656984806,-0.007007259875535965,-0.07122045010328293,-0.05645804852247238,-0.010793404653668404,-0.004828794859349728,-0.022092146798968315,0.021641593426465988,0.008382228203117847,0.011183957569301128,-0.01920834556221962,0.020834816619753838,0.0343681275844574,0.029298776760697365,-0.019586695358157158,-0.10380266606807709,-0.07820107042789459,-0.08812066167593002,-0.02435775101184845,0.03405545651912689,0.07511213421821594,0.042278729379177094,-0.040552686899900436,-0.07006830722093582,-0.004790361970663071,0.030458759516477585,-0.0145530691370368,0.014736884273588657,-0.0275528896600008,0.007747042924165726,-0.0634457990527153,-0.0033056631218641996,0.02451401576399803,0.026188312098383904,0.027448100969195366,-0.012704414315521717,-0.01509165670722723,0.0065015628933906555,-0.02234814316034317,-0.004790686070919037,0.01485816203057766,-0.026550503447651863,-0.01033545657992363,-0.08453667908906937,-0.10666170716285706,-0.05317920446395874,0.004643600434064865,0.011929798871278763,0.10335062444210052,0.004697452299296856,0.012402941472828388,0.0023642831947654486,-0.011338005773723125,0.00046400504652410746,-0.02545946277678013,-0.04175166040658951,-0.004553447011858225,0.019391005858778954,-0.00882262084633112,-0.01028190366923809,-0.018600448966026306,-0.01961861550807953,-0.012179343029856682,-0.03538583591580391,-0.014071506448090076,-0.014243257232010365,0.032868191599845886,0.014830918051302433,0.0014898955123499036,-0.016832327470183372,-0.006232127547264099,-0.09497399628162384,-0.06585854291915894,-0.03523392975330353,-0.006401061546057463,-0.013101254589855671,0.07694816589355469,0.06186661124229431,0.059594959020614624,0.07061469554901123,0.06768637895584106,-0.009515237994492054,-0.024778932332992554,0.0011202468303963542,-0.052043188363313675,0.023152492940425873,-0.0030252456199377775,-0.05830743908882141,0.007201764732599258,0.021596264094114304,-0.036602962762117386,-0.014676660299301147,0.03623223677277565,-0.026329657062888145,-0.007111045066267252,0.008562487550079823,0.025993583723902702,0.000343446183251217,-0.0055280039086937904,-0.050121892243623734,-0.0590234212577343,-0.06902986019849777,0.016124224290251732,0.06946559995412827,0.036113422363996506,0.07383780926465988,0.1124110147356987,0.08891911059617996,0.07836014777421951,0.013889502733945847,-0.035469185560941696,-0.03123265877366066,-0.030727041885256767,-0.028213873505592346,-0.02102047950029373,0.009272649884223938,-0.008306118659675121,-0.04242059588432312,-0.017313381657004356,-0.02643430233001709,0.012612593360245228,-0.012434793636202812,0.042696140706539154,-0.023945806547999382,-0.011620678938925266,0.026675302535295486,-0.02571052871644497,-0.01800720766186714,-0.07608532905578613,-0.04201497137546539,-0.005456550512462854,0.0006667566485702991,0.00682114576920867,-0.01777639426290989,0.03218779340386391,0.05646955966949463,0.009470793418586254,0.015642764046788216,-0.05965302884578705,-0.012562035582959652,0.04302489757537842,-0.010405553504824638,-0.06962081044912338,-0.021823318675160408,0.006705002393573523,0.05608846992254257,-0.03143887594342232,0.018047943711280823,-0.002039574319496751,0.0057280114851891994,0.006726121064275503,-0.0011809190036728978,-0.019271934404969215,0.03782445564866066,0.020096946507692337,-0.022180339321494102,-0.03974412381649017,-0.008645524270832539,0.016520844772458076,-0.01173352636396885,-0.009590568020939827,-0.07865892350673676,-0.042631980031728745,-0.03208262845873833,-0.03731722757220268,-0.04866459593176842,0.02559342421591282,-0.014209561049938202,-0.013724492862820625,-0.056565821170806885,0.012453514151275158,-0.028401054441928864,-0.008218226954340935,0.010428529232740402,-0.012350523844361305,0.011795748956501484,0.0022852537222206593,0.025392036885023117,0.019332444295287132,-0.021667849272489548,-0.016131801530718803,-0.025161566212773323,-0.012805416248738766,-0.030932119116187096,0.054195623844861984,0.051335468888282776,0.0519612655043602,0.029074400663375854,0.0191296748816967,0.006385133136063814,-0.015604485757648945,0.013945257291197777,0.055577605962753296,0.013668745756149292,0.04142966866493225,0.05267412215471268,0.06619418412446976,0.06346619129180908,0.056909218430519104,0.032455943524837494,-0.026236671954393387,-0.026456983759999275,0.027125315740704536,-0.0035038855858147144,-0.021174009889364243,0.020972466096282005,0.03187549486756325,-0.02639538235962391,0.010765107348561287,-0.022373462095856667,-0.0027308794669806957,0.009821186773478985,0.03149612993001938,0.05126883089542389,0.043357010930776596,0.08015201985836029,0.0688994899392128,0.05671299993991852,0.061882223933935165,0.025480255484580994,0.13312038779258728,0.02864203043282032,0.02090577967464924,-0.0029874041210860014,0.06930273026227951,0.07111899554729462,0.05773201584815979,0.020003311336040497,0.04281125217676163,-0.006622279528528452,-0.0016127226408571005,0.032700926065444946,0.004362164996564388,0.03663084656000137,0.019122039899230003,0.012140183709561825,-0.006909026298671961,0.039232153445482254,0.02008468098938465,-0.014019249938428402,0.04155486077070236,0.03756919130682945,0.03436059132218361,0.0011042212136089802,-0.001946696313098073,-0.018922600895166397,0.0031268822494894266,0.004816434811800718,0.00424961606040597,0.01630057580769062,0.024281956255435944,0.03322557359933853,-0.020826637744903564,0.0341835543513298,-0.011392451822757721,0.006824277341365814,0.01699511520564556,-0.025657406076788902,0.03240039944648743,0.035798270255327225,-0.014211787842214108,0.03956526890397072,0.0013159443624317646,-0.024529941380023956,-0.03771723806858063,0.004353699740022421,-0.047476522624492645,-0.02246355637907982,-0.021431170403957367,-0.017668841406702995,-0.0535702109336853,-0.0537949800491333,0.004282152745872736,-0.05572371929883957,-0.033306512981653214,0.013717295601963997,0.010052092373371124,-0.0332978330552578,-0.02265983819961548,0.0031194044277071953,-0.011968273669481277,-0.0018951133824884892,0.00034228211734443903,0.011476263403892517,-0.009563315659761429,-0.0013873274438083172,-0.04417838156223297,-0.03082243911921978,0.007792936637997627,-0.027220338582992554,-0.0398436039686203,0.005454393569380045,-0.011546993628144264,-0.005427461117506027,-0.025421399623155594,-0.019335422664880753,0.002690502442419529,-0.019017325714230537,-0.03646830841898918,0.00861348770558834,0.013807103969156742,-0.02202085591852665,-0.032937414944171906,-0.014047003351151943,-0.0022856094874441624,-0.014157063327729702,-0.02597053535282612,-0.004099731333553791,0.007743556052446365,0.003471239935606718,-0.019777799025177956,-0.03172663599252701,0.011486630886793137,-0.012501410208642483,-0.012327883392572403,-0.048410169780254364,-0.0028766230680048466,-0.01469813846051693,0.012173516675829887,-0.04900616407394409,0.010271778330206871,-0.044909656047821045,-0.002028088318184018,-0.0024566047359257936,-0.0028677433729171753,-0.011075661517679691,-0.03434949740767479,0.005633726250380278,0.038883619010448456,0.025617096573114395,0.04360923543572426,-0.01050978247076273,-0.012529327534139156,-0.008053216151893139,-0.06316915899515152,0.006616732105612755,-0.0009366483427584171,-0.024167608469724655,0.005757089704275131,0.012399070896208286,-0.04161656275391579,-0.012156940065324306,-0.02100745402276516,-0.0017611542716622353,-0.004463990218937397,-0.03125990927219391,0.013139527291059494,0.006780990865081549,0.007208455353975296,-0.04793957248330116,-0.028536219149827957,-0.03808175399899483,-0.020781997591257095,0.024424776434898376,-0.026773465797305107,0.08975432068109512,0.05959959328174591,0.07467814534902573,0.010961592197418213,0.026079151779413223,0.038062043488025665,0.05922055244445801,0.02071474865078926,0.022560272365808487,-0.03405386954545975,-0.05824406445026398,-0.011168199591338634,-0.014700548723340034,-0.012841246090829372,0.009586046449840069,0.0014325319789350033,-0.026347799226641655,-0.03956520929932594,0.011818775907158852,-0.05207662284374237,-0.02084675058722496,0.000475780718261376,-0.006200387608259916,-0.009820685721933842,0.010498943738639355,0.002204765100032091,0.03339621052145958,0.024732859805226326,0.09419503062963486,0.12348297238349915,0.08530312776565552,0.07029447704553604,0.01086471974849701,0.034221235662698746,0.036759622395038605,0.06328526884317398,0.07131536304950714,0.004657483194023371,-0.015211966820061207,0.0056358082219958305,0.010064289905130863,-0.016643980517983437,-0.01367127150297165,0.02943623624742031,-0.019147828221321106,0.01436772570014,0.011748316697776318,-0.03495024889707565,0.005869045853614807,-0.008547941222786903,-0.038015298545360565,-0.03872969374060631,-0.03341662511229515,-0.004664022941142321,0.0032871607691049576,-0.005853855982422829,0.0032617072574794292,0.061149124056100845,0.010378462262451649,-0.010276530869305134,-0.09666522592306137,-0.035621482878923416,-0.038081225007772446,-0.015766611322760582,-0.016246017068624496,-0.030479056760668755,-0.006907632574439049,-0.012779579497873783,0.017131133005023003,0.03933335095643997,0.010006418451666832,-0.008943405002355576,0.021557582542300224,-0.01623118668794632,-0.01895049959421158,-0.03529486805200577,-0.030371634289622307,-0.03793470561504364,-0.002785374876111746,-0.01677899807691574,0.05646757781505585,0.02467002347111702,0.08201567083597183,0.07530058920383453,0.06801631301641464,0.06694153696298599,0.04277028143405914,-0.03371738642454147,-0.09819278120994568,-0.06395560503005981,-0.09465884417295456,-0.062129102647304535,-0.10124096274375916,-0.09060951322317123,0.01107503566890955,-0.060440558940172195,-0.07732761651277542,-0.029367167502641678,-0.04855012148618698,0.011533819139003754,-0.010476546362042427,-0.02909296378493309,0.012045756913721561,-0.04516739770770073,0.011035135947167873,-0.027511516585946083,-0.06269978731870651,0.07356857508420944,0.06555181741714478,0.03269610553979874,0.09250795841217041,0.11956477910280228,0.015682637691497803,0.03671659156680107,-0.005282012280076742,-0.03657074272632599,-0.117843858897686,-0.096743144094944,-0.1006205603480339,-0.08729841560125351,-0.11479456722736359,-0.116836778819561,-0.0682540312409401,-0.06254055351018906,-0.03145437315106392,-0.024639012292027473,-0.14502575993537903,0.007503316272050142,0.035672035068273544,0.009263047948479652,-0.022762274369597435,-0.028007924556732178,-0.0033859636168926954,-0.03190275654196739,0.011972797103226185,-0.0026955557987093925,0.03883366286754608,0.05929696187376976,0.06624282896518707,-0.019952809438109398,0.03250918537378311,-0.021860964596271515,-0.00686555216088891,-0.0375223271548748,-0.0812205895781517,-0.11147566884756088,-0.05528728663921356,-0.00381735828705132,-0.042048294097185135,-0.04214975982904434,-0.06461275368928909,-0.07938969135284424,-0.008028215728700161,-0.08621448278427124,0.0005838764482177794,0.0042610191740095615,0.05997020751237869,0.014662651345133781,-0.00394116947427392,-0.010623958893120289,-0.04624047502875328,-0.011909064836800098,-0.022443728521466255,-0.024861885234713554,0.008002533577382565,-0.044946447014808655,-0.003444097703322768,0.011194919236004353,-0.022230925038456917,-0.011744624935090542,0.011677415110170841,-0.04612455144524574,-0.11904400587081909,-0.08955702185630798,-0.04424457252025604,0.042667169123888016,0.015620086342096329,0.025448650121688843,0.00707740755751729,0.011026609688997269,0.013692198321223259,-0.014528818428516388,-0.06045489013195038,0.029145872220396996,0.03741812705993652,0.0021625470835715532,-0.024750370532274246,-0.011486700735986233,-0.025322912260890007,-0.042253006249666214,-0.054428182542324066,-0.05871407315135002,0.03769097477197647,0.045100048184394836,0.04277860000729561,0.05417894944548607,-0.02782837487757206,-0.0076871830970048904,-0.010658866725862026,-0.037439025938510895,-0.18088564276695251,-0.10928084701299667,-0.05064445734024048,0.0006575516890734434,0.0028737750835716724,-0.0025427702348679304,0.010091765783727169,0.008669761009514332,-0.014180980622768402,-0.07794860005378723,0.003572531044483185,0.04542098566889763,0.015302937477827072,-0.009965911507606506,-0.007051643915474415,-0.03515968099236488,-0.004586425609886646,-0.03643233701586723,-0.07466066628694534,-0.05545118451118469,-0.037332724779844284,0.008504031226038933,0.0045103877782821655,0.024048037827014923,0.030706897377967834,0.034442171454429626,0.031300514936447144,-0.14719894528388977,-0.2554835081100464,-0.1899556815624237,-0.10273478925228119,-0.03765978291630745,-0.04385789483785629,-0.025365730747580528,0.015278658829629421,-0.08569803833961487,-0.06261315196752548,-0.10647010803222656,-0.017630059272050858,0.027815619483590126,0.036227934062480927,0.007256779819726944,0.010746936313807964,0.0020622597075998783,-0.04842892661690712,-0.04610190540552139,-0.0714149922132492,-0.040446583181619644,-0.0323023684322834,-0.007752784062176943,0.008518395014107227,-0.04553821682929993,0.051118310540914536,0.07996369153261185,0.055086638778448105,0.03583647310733795,-0.13313202559947968,-0.18342183530330658,-0.15817569196224213,-0.02535940520465374,-0.054406773298978806,-0.06054024398326874,-0.018198449164628983,-0.058778949081897736,-0.026694511994719505,-0.0516326017677784,-0.07161619514226913,0.016157547011971474,0.0017464886186644435,-0.033142801374197006,-0.028669236227869987,-0.011713651940226555,-0.006390300579369068,0.002999931573867798,-0.06837700307369232,-0.12664523720741272,-0.04785900563001633,-0.015921058133244514,-0.0064452579244971275,0.021002383902668953,-0.017438795417547226,0.04148942232131958,0.08450339734554291,0.12922927737236023,0.04088180512189865,-0.05750667676329613,-0.04426778107881546,0.0039016033988445997,-0.037850722670555115,-0.014506583102047443,0.00046279397793114185,0.005428516771644354,-0.02106981910765171,-0.07781367003917694,0.007041519973427057,0.05902467668056488,0.013753683306276798,-0.008659591898322105,0.021756840869784355,-0.04592791199684143,-0.03630634769797325,-0.039882976561784744,-0.02784605138003826,-0.03877241909503937,-0.024125786498188972,0.044652197510004044,-0.007040540222078562,0.0038790362887084484,0.008287244476377964,0.06636378914117813,0.09548577666282654,0.07867351919412613,0.05942052975296974,0.02174351178109646,0.08844691514968872,0.07315898686647415,-0.029227400198578835,0.03061525709927082,-0.07199643552303314,-0.06895095109939575,-0.029035018756985664,-0.01922387257218361,0.012463598512113094,0.03179578483104706,0.05164952203631401,-0.017786750569939613,-0.032909080386161804,-0.007480277679860592,-0.056745998561382294,0.008350138552486897,0.016359563916921616,0.00201838044449687,0.04827352613210678,0.01028702687472105,0.048197370022535324,0.012464214116334915,-0.011201417073607445,0.039394136518239975,0.0974820926785469,0.10429010540246964,0.05907759070396423,0.06795059889554977,0.07146220654249191,0.03442167118191719,-0.04045480489730835,0.025922957807779312,0.007116575259715319,-0.0585210807621479,-0.006106986198574305,-0.042487457394599915,0.06018265709280968,0.06705367565155029,0.07488030195236206,0.0016203522682189941,-0.04571279138326645,0.0008399257203564048,-0.02403012104332447,-0.022835245355963707,0.04583064466714859,0.038054320961236954,0.0047828201204538345,0.03931053727865219,0.014445038512349129,-0.07492682337760925,-0.022206639871001244,-0.005069694947451353,0.032129865139722824,0.05388401076197624,0.05242953822016716,0.0903225913643837,0.029138386249542236,0.02722715400159359,-0.014150132425129414,-0.025121143087744713,0.03405279293656349,-0.008743584156036377,0.04510309547185898,0.035385116934776306,0.06115930899977684,0.037357110530138016,0.07763507962226868,0.026477431878447533,0.004443718586117029,-0.05645599216222763,-0.05343408137559891,-0.005949012935161591,0.004043709486722946,0.006035520229488611,0.0020470244344323874,0.042064208537340164,-0.0033315697219222784,-0.013617459684610367,-0.03200094401836395,0.00834962259978056,0.013898939825594425,0.03842249885201454,0.07935182005167007,0.038460906594991684,-0.04091082885861397,0.01220250129699707,-0.0032057580538094044,-0.03824490308761597,-0.020122935995459557,0.01802230253815651,-0.019417988136410713,0.0652022510766983,0.06767378002405167,-0.006146296858787537,0.05310434848070145,0.009118377231061459,-0.04691064730286598,0.009193985722959042,-0.010918045416474342,0.009750968776643276,-0.015228849835693836,0.01809237338602543,0.022446760907769203,0.04566580429673195,0.011334475129842758,-0.028548749163746834,-0.04397307708859444,-0.028119046241044998,-0.003577359952032566,0.13859286904335022,0.09376697987318039,0.03062957525253296,-0.05211472883820534,-0.02191169373691082,-0.04206132888793945,-0.06548137217760086,-0.07247714698314667,-0.03375544771552086,0.009524165652692318,0.06921420246362686,0.10281805694103241,0.04409978538751602,0.009085302241146564,-0.023641834035515785,-0.025568868964910507,-0.010046763345599174,-0.04816644638776779,0.010996349155902863,-0.007172483019530773,0.04393903166055679,0.01865147426724434,0.01670372299849987,-0.014545924961566925,-0.04496237635612488,-0.057290270924568176,-0.021125875413417816,0.059348560869693756,0.09768079966306686,0.11351331323385239,0.03888864070177078,-0.01658748835325241,-0.04446517303586006,-0.06388696283102036,-0.054870110005140305,-0.060207463800907135,-0.04055537283420563,0.009548387490212917,0.06487970799207687,0.06895249336957932,-0.02114156447350979,0.016019431874155998,-0.008625469170510769,0.0004607943119481206,-0.011976484209299088,0.0002417643554508686,-0.024172767996788025,0.043891094624996185,0.030571412295103073,0.0440918505191803,-0.02524595707654953,-0.009047781117260456,-0.024854455143213272,-0.03498290851712227,0.010488464497029781,0.12122325599193573,0.05857387185096741,0.0676857978105545,0.01516563817858696,0.03075491450726986,-0.027884364128112793,-0.04909561201930046,-0.01971365511417389,-0.01149042323231697,-0.010883212089538574,0.051122501492500305,0.04107079654932022,0.03416142240166664,-0.02856539562344551,-0.027264637872576714,0.009779231622815132,-0.01181147899478674,-0.02933521941304207,-0.007114363834261894,0.023822292685508728,0.009289580397307873,0.004859521519392729,-0.08287695795297623,-0.027959341183304787,-0.049910370260477066,-0.05169203132390976,0.052249643951654434,0.04733259603381157,0.10594930499792099,0.08203138411045074,0.09364940971136093,0.018751950934529305,-0.03141842782497406,-0.011934270150959492,0.005536205135285854,0.05981103330850601,0.028772462159395218,0.010928884148597717,0.04136565327644348,0.0959550067782402,0.09084464609622955,-0.013610277324914932,-0.009772730991244316,0.013142839074134827,0.006611489225178957,-0.01934402994811535,-0.010807611979544163,-0.038857221603393555,-0.03060019388794899,0.00176488165743649,-0.04641585052013397,-0.0686398297548294,-0.09335055202245712,-0.08465476334095001,-0.04242195934057236,-0.013327796943485737,0.0016863096971064806,0.035613514482975006,0.006900985725224018,0.00834999792277813,0.005131268873810768,0.01990700140595436,0.08662360906600952,0.033441342413425446,0.08284176141023636,0.05671962723135948,0.09923356771469116,0.08400920033454895,0.06103387847542763,-0.013833376578986645,-0.05139046907424927,0.00491035683080554,-0.011843504384160042,-0.019956257194280624,-0.052751727402210236,-0.043095607310533524,0.006896303966641426,-0.016249211505055428,-0.10527689009904861,-0.11973123252391815,-0.14788535237312317,-0.12574318051338196,-0.08548546582460403,-0.07829436659812927,-0.10672980546951294,-0.09191026538610458,-0.07106541097164154,0.03355996683239937,0.07941590994596481,0.06111229956150055,0.08962084352970123,0.049653925001621246,0.0776645690202713,0.11021360009908676,0.08468041568994522,0.09033789485692978,0.03581547737121582,-0.058017805218696594,-0.03662353381514549,-0.04335560277104378,-0.010255904868245125,-0.038637518882751465,0.001952464459463954,-0.03176495432853699,0.00041273358510807157,-0.04358420521020889,-0.11517645418643951,-0.13548094034194946,-0.17187418043613434,-0.18906109035015106,-0.22336556017398834,-0.13585422933101654,-0.1169179156422615,-0.07122570276260376,0.031046459451317787,0.06813381612300873,0.12797307968139648,0.1712767630815506,0.1330110728740692,0.0952906608581543,0.010964332148432732,0.04756583645939827,0.0019986634142696857,0.006597027648240328,-0.0274326354265213,0.04521051049232483,-0.026929961517453194,-0.016995156183838844,-0.03937918692827225,-0.05339452624320984,-0.0029718796722590923,-0.02055473066866398,-0.028759337961673737,-0.007852496579289436,-0.0534222386777401,-0.06177196279168129,-0.07533132284879684,-0.10761730372905731,-0.13761861622333527,-0.08991225808858871,-0.046973902732133865,-0.008444639854133129,0.008636725135147572,0.04891830310225487,0.05591814965009689,0.05107368901371956,0.03583216294646263,0.007490899879485369,0.005941163282841444,-0.02909156121313572,-0.05537871643900871,0.021342778578400612,0.010072714649140835,-0.034959107637405396,-0.015900718048214912,-0.015366711653769016,-0.011461097747087479,0.010353196412324905,-0.03966981917619705,-0.010530900210142136,-0.0341387577354908,-0.040131378918886185,0.0032425513491034508,-0.05259371176362038,-0.04448245093226433,-0.01834193244576454,-0.08521756529808044,-0.06837572902441025,-0.022356918081641197,-0.005804759915918112,-0.023450154811143875,-0.10437766462564468,-0.07254312932491302,-0.13226163387298584,-0.04234148561954498,-0.08709365874528885,-0.0425945445895195,-0.06549572944641113,-0.055258166044950485,-0.043611183762550354,-0.04741685092449188,-0.04057655110955238,-0.013747438788414001,-0.027178313583135605,0.00041064375545829535,0.0003828596090897918,0.003739283187314868,-0.011866753920912743,0.012456070631742477,-0.05176261439919472,-0.002041046041995287,-0.026961568742990494,0.006834217347204685,-0.010118785314261913,0.0022004982456564903,-0.04363114759325981,-0.05355411022901535,-0.03312285244464874,-0.01883077621459961,-0.04137784242630005,-0.036052968353033066,-0.006248755380511284,-0.05180047079920769,-0.061688102781772614,-0.05199760943651199,-0.06050620600581169,-0.05243956670165062,-0.05046390742063522,-0.014298219233751297,-0.047372788190841675,-0.0037965718656778336,-0.0007468261173926294,-0.028331970795989037,-0.006653617601841688,-0.0398063138127327,-0.0409112349152565,0.01866147667169571,4.6325971197802573e-05,0.018409524112939835,-0.028978504240512848,-0.0006657714839093387,-0.03585167974233627,0.01940220221877098,0.021309077739715576,-0.0226035974919796,0.016881147399544716,-0.04252030327916145,0.018928272649645805,-0.0025144258979707956,-0.005836531985551119,0.022285010665655136,-0.025559768080711365,0.024169009178876877,0.007921120151877403,-0.01303128432482481,0.02645329013466835,-0.005247601307928562,-0.012532821856439114,0.0163393747061491,-0.038019925355911255,-0.04019714891910553,-0.030432915315032005,-0.039749257266521454,-0.005706962663680315,0.004701703321188688,-0.013272115029394627,-0.009309358894824982,0.01392444409430027,-0.024148011580109596,-0.02590634860098362,-0.005787215195596218,0.021495860069990158,-0.013319091871380806,-0.0039108567871153355,-0.04168180376291275,-0.03729864954948425,-0.03549676761031151,0.024582218378782272,-0.04275108501315117,-0.03763313964009285,-0.004183967597782612,-0.017826637253165245,-0.014206722378730774,0.009270287118852139,0.008972001262009144,0.007872483693063259,0.008481902070343494,-0.04151957482099533,0.020045630633831024,0.016963966190814972,0.012845278717577457,0.010144025087356567,0.016399869695305824,-0.009772403165698051,-0.03005540743470192,0.0037376987747848034,0.0049776616506278515,-0.016336003318428993,0.033789392560720444,0.016821594908833504,0.012525335885584354,0.023907195776700974,0.006239877548068762,-0.016946932300925255,0.0009004409075714648,-0.008931955322623253,0.0022675395011901855,0.018259594216942787,-0.05266439542174339,-0.01330979447811842,-0.00499233603477478,-0.04680587351322174,-0.03203992545604706,0.019446272403001785,-0.01117548905313015,0.027131736278533936,0.011456923559308052,0.0036151541862636805,0.027875050902366638,-0.03149741142988205,0.021213605999946594,0.004652106668800116,-0.00992041639983654,-0.005436720792204142,-0.009790856391191483,-0.015286976471543312,0.044585518538951874,-0.016326621174812317,0.017247768118977547,0.07434151321649551,0.03720168396830559,0.0025758096016943455,-0.05287843197584152,-0.021680600941181183,0.019693981856107712,-0.019855186343193054,0.014061984606087208,-0.00213642162270844,-0.04113335534930229,-0.022466395050287247,-0.0652693584561348,-0.01791161298751831,0.02477618120610714,-0.020752200856804848,0.003205088432878256,0.01911567896604538,0.0022855447605252266,-0.009045586921274662,0.022445697337388992,-0.0004471212159842253,0.008195926435291767,-0.022412315011024475,-0.02098265290260315,-0.010264777578413486,-0.017750000581145287,0.05651205778121948,0.05723375082015991,0.03518662601709366,0.04386918991804123,0.01994517631828785,0.0034534926526248455,-0.01777585968375206,0.002834574319422245,0.006872023921459913,-0.016581261530518532,-0.019106073305010796,-0.09670726209878922,-0.07490336894989014,-0.04303479567170143,-0.012432352639734745,-0.004134627524763346,-0.004973964765667915,-0.023061586543917656,0.006733049638569355,-0.015041119419038296,0.010346065275371075,0.020080117508769035,-0.03354911878705025,0.013380619697272778,-0.031679265201091766,-0.03255356848239899,-0.0337519608438015,-0.06546422094106674,-0.06800088286399841,-0.027204133570194244,0.0056156436912715435,-0.024993719533085823,-0.03801679611206055,0.014237340539693832,-0.08428367227315903,-0.027112290263175964,-0.04466451704502106,-0.025812195613980293,0.0023641230072826147,-0.04911047965288162,-0.025185545906424522,-0.015586497262120247,0.008073021657764912,-0.0031881278846412897,-0.024186551570892334,-0.01370229758322239,-0.03793235123157501,0.00689027551561594,0.020396554842591286,-0.030141595751047134,-0.020146207883954048,-0.030283598229289055,-0.022149816155433655,-0.0679047629237175,-0.1261729598045349,-0.15987658500671387,-0.13150711357593536,-0.07014026492834091,-0.08374810963869095,-0.10910605639219284,-0.02138596400618553,-0.008215744979679585,0.018567146733403206,-0.010904533788561821,0.066216379404068,0.0032872501760721207,0.05950254574418068,0.07107151299715042,0.009840214625000954,-0.010935904458165169,-0.01466284692287445,0.032355837523937225,-0.0028910022228956223,-0.02524605765938759,-0.029433775693178177,-0.03459482640028,-0.010980837978422642,-0.01963595114648342,-0.06193467602133751,-0.0907755047082901,-0.08940929919481277,-0.14377520978450775,-0.13293521106243134,-0.09355875104665756,-0.11445655673742294,-0.05687933415174484,-0.07901868224143982,-0.050611868500709534,-0.011704533360898495,0.018095223233103752,0.055824026465415955,0.01792253367602825,0.06637454032897949,0.023150302469730377,0.06620464473962784,0.09252076596021652,0.06071725860238075,0.009372721426188946,0.0006913412362337112,-0.032176606357097626,0.04201645031571388,-0.00812036357820034,-0.020297419279813766,-0.019066231325268745,-0.03586556017398834,-0.004250162281095982,-0.11335615813732147,-0.1479916125535965,-0.1238977387547493,-0.17662563920021057,-0.13296538591384888,-0.1127115786075592,-0.11301399022340775,-0.03984186425805092,-0.021001609042286873,-0.010180923156440258,-0.012476583942770958,-0.006073848344385624,0.015941403806209564,0.027739157900214195,-0.0239883866161108,0.024749111384153366,0.0027349682059139013,0.02101089619100094,0.06853654235601425,0.013751963153481483,-0.009799592196941376,0.018293695524334908,-0.012314597144722939,-0.03721877560019493,-0.029665589332580566,-0.009030244313180447,-0.021518904715776443,0.01363449078053236,-0.09443952143192291,-0.14808371663093567,-0.162392720580101,-0.09180187433958054,-0.10105795413255692,-0.0522976852953434,-0.011616731993854046,0.022207118570804596,0.022214487195014954,0.034535977989435196,0.004290468525141478,0.018001919612288475,-0.018216228112578392,-0.057790763676166534,-0.06538961827754974,-0.015631718561053276,-0.05815829709172249,-0.09171003103256226,-0.049406424164772034,-0.06322066485881805,-0.02769799716770649,-0.03544613718986511,-0.005359084811061621,0.0027110835071653128,-0.021686488762497902,-0.023147625848650932,-0.009809186682105064,-0.017986813560128212,-0.03657013177871704,-0.12132252752780914,-0.06502018868923187,-0.04491797089576721,-0.030986139550805092,0.020323172211647034,0.03980310261249542,0.00949940551072359,0.004631023854017258,-0.030434729531407356,-0.049850255250930786,0.03323552384972572,0.0018600168405100703,-0.10706981271505356,-0.06035607308149338,-0.0745391920208931,-0.0881441980600357,-0.06129627674818039,-0.12778151035308838,-0.04418381676077843,0.01096164807677269,-0.006476646289229393,-0.025342129170894623,-0.02403082512319088,-0.025148527696728706,0.02266465127468109,-0.04714500531554222,-0.034598227590322495,-0.015150978229939938,-0.07799095660448074,-0.005654528271406889,-0.03658497333526611,0.007002966478466988,-0.04786789417266846,-0.0014000649098306894,0.03736918047070503,-0.002376013435423374,-0.032868705689907074,-0.004420950077474117,-0.01754472777247429,-0.019321832805871964,-0.059401970356702805,-0.03451380878686905,0.03253134712576866,-0.006554162595421076,-0.08430153131484985,-0.07042038440704346,-0.09577998518943787,-0.01314337458461523,-0.02711612544953823,-0.026347236707806587,0.021694298833608627,-0.03161771222949028,-0.03516079857945442,-0.021285299211740494,-0.007630669977515936,-0.004046562127768993,-0.06333288550376892,0.03195004165172577,-0.005619984120130539,0.003885536687448621,-0.0045520537532866,0.0028463234193623066,-0.042690377682447433,0.0046841297298669815,0.018610477447509766,0.09672317653894424,0.018372120335698128,-0.011911218985915184,-0.0434131883084774,-0.03263632580637932,0.0010460406774654984,-0.05953400582075119,-0.09165854752063751,-0.0904921144247055,-0.1046585962176323,-0.09953722357749939,0.01579633168876171,0.014472727663815022,-0.020806409418582916,0.0010554922046139836,-0.03448060154914856,0.007674495689570904,-0.002483492949977517,0.02604798413813114,-0.049915362149477005,-0.025263343006372452,0.1243516132235527,0.036216530948877335,-0.001401794608682394,0.04179428145289421,0.004974158015102148,0.05406499654054642,0.10515009611845016,0.046834446489810944,0.002087415661662817,0.007038394454866648,0.004159274511039257,-0.0057320562191307545,-0.0390726774930954,-0.13815094530582428,-0.1446889340877533,-0.13755816221237183,-0.13602374494075775,-0.09420552104711533,0.00759412907063961,-0.004656319972127676,0.00071979861240834,0.02749677747488022,0.010861274786293507,-0.04046773910522461,0.0628136619925499,0.049674104899168015,-0.022299570962786674,0.03604847937822342,0.10765598714351654,0.04923449084162712,0.06447573006153107,0.000520292145665735,-0.010422082617878914,0.02528192289173603,0.00957001093775034,-0.0032829074189066887,-0.014743167906999588,0.07244769483804703,0.042992688715457916,0.04476821795105934,-0.05578695610165596,-0.14957207441329956,-0.16545888781547546,-0.11469711363315582,-0.07033976912498474,0.03121650032699108,0.04998278245329857,0.05028926208615303,-0.008063970133662224,-0.03467235341668129,-0.00774426618590951,-0.010278481990098953,0.05433904007077217,0.08899916708469391,0.030484354123473167,0.07283416390419006,0.045810189098119736,0.04639961197972298,0.03899926692247391,0.023555094376206398,-0.024088775739073753,0.004395385272800922,-0.005908851511776447,-0.01321862917393446,0.005196192301809788,0.07629172503948212,0.060407817363739014,0.014331411570310593,-0.10393135249614716,-0.18999002873897552,-0.14674216508865356,-0.09654130786657333,-0.06411103159189224,0.0042417775839567184,0.04219485819339752,-0.014388135634362698,0.0002918408717960119,0.02347993478178978,-0.011188246309757233,-0.03125317767262459,0.06658350676298141,0.09740303456783295,0.11885307729244232,0.03195840120315552,0.1100616455078125,0.06815772503614426,0.05979064106941223,0.04487280547618866,0.030085185542702675,0.04913629963994026,0.060111310333013535,0.03689020499587059,0.04683477059006691,0.09237116575241089,0.06949058920145035,-0.012682466767728329,-0.12127896398305893,-0.11352773755788803,-0.0538124144077301,0.0057106283493340015,-0.012501056306064129,0.002053579781204462,0.051856376230716705,0.04714391008019447,-0.0004912108997814357,-0.008138694800436497,-0.011488987132906914,-0.0375213585793972,-0.00467963982373476,0.034686069935560226,0.11080889403820038,0.05809658393263817,0.07111100852489471,0.06960630416870117,0.12010914832353592,0.1449279934167862,0.12800830602645874,0.11712546646595001,0.06638506054878235,0.08818454295396805,0.07247885316610336,0.0347227044403553,-0.0881558284163475,-0.07994154840707779,-0.09817684441804886,-0.0693100318312645,-0.04506982862949371,-0.0211801677942276,-0.012121266685426235,-0.018040167167782784,0.07975438982248306,0.01831064559519291,0.0003898192080669105,0.013439074158668518,-0.036505717784166336,-0.023385945707559586,-0.003222390543669462,0.1092209741473198,0.056124236434698105,0.08661824464797974,0.08675549924373627,0.1455831378698349,0.15083695948123932,0.13313205540180206,0.10508697479963303,0.06520865112543106,0.08136720210313797,0.11456059664487839,0.025080600753426552,-0.045124754309654236,-0.021953700110316277,-0.08865146338939667,0.030747704207897186,-0.035929035395383835,-0.01907755248248577,0.027605075389146805,0.07102344185113907,0.07081770896911621,0.05243396759033203,-0.040735337883234024,0.013340631499886513,0.028819169849157333,-0.016992749646306038,0.009680789895355701,0.047905176877975464,0.025944137945771217,0.03193771094083786,-0.0007047840626910329,-0.005634633358567953,-0.03232134133577347,0.02840292826294899,0.06260813772678375,0.12224491685628891,0.056322209537029266,0.0336313359439373,0.0519736185669899,-0.016156306490302086,0.027578121051192284,0.005612518638372421,0.05920160189270973,0.03654908388853073,0.06674667447805405,0.042620446532964706,0.10990898311138153,0.11925967782735825,0.09633026272058487,0.032387781888246536,-0.010169382207095623,-0.015434419736266136,-0.001984897768124938,-0.024178819730877876,0.024139130488038063,0.039494048804044724,0.10052225738763809,-0.013466978445649147,-0.04880721867084503,-0.0798453614115715,-0.024133991450071335,-0.03457404300570488,0.030497677624225616,0.04291331768035889,0.0007162994588725269,-0.048422280699014664,-0.05771784484386444,-0.03448893502354622,-0.0006350845796987414,-0.0019640629179775715,0.06262637674808502,0.09480492770671844,0.059898491948843,0.037855152040719986,0.10293050855398178,0.1206396296620369,0.14751334488391876,0.06970418244600296,-0.011903621256351471,0.02696795016527176,-0.0010325043695047498,-0.040254924446344376,-0.011406764388084412,0.036386847496032715,0.10408137738704681,0.00784195214509964,-0.07458428293466568,-0.08708441257476807,-0.10358407348394394,-0.038531772792339325,-0.0834701731801033,-0.1261095553636551,-0.11326850205659866,-0.14055481553077698,-0.0657811388373375,-0.0826362669467926,-0.007041573990136385,-0.02466745860874653,0.02100740373134613,0.029064645990729332,0.06993232667446136,0.11336290091276169,0.09459679573774338,0.0626116469502449,0.13217316567897797,0.04500773176550865,0.008052334189414978,-0.0342801958322525,0.001804043771699071,0.000316658231895417,-0.0035563053097575903,-0.024544013664126396,0.02566332183778286,0.019860809668898582,-0.05603931099176407,-0.11689326167106628,-0.12743830680847168,-0.11485724151134491,-0.16160739958286285,-0.17000022530555725,-0.17696478962898254,-0.16921786963939667,-0.14692342281341553,-0.10708097368478775,-0.06595694273710251,-0.07562071084976196,0.013703692704439163,-0.03453141450881958,0.08787796646356583,0.08782701194286346,0.08453898876905441,0.09969240427017212,0.07008039951324463,-0.0008411476155743003,-0.00909573957324028,-0.02813664823770523,-0.04085708409547806,-0.03942736238241196,-0.03820154443383217,-0.017125234007835388,-0.010167030617594719,-0.056733712553977966,-0.0876670703291893,-0.1023135855793953,-0.09532276540994644,-0.04461423307657242,-0.13323529064655304,-0.16932453215122223,-0.11555376648902893,-0.11147728562355042,-0.1347484588623047,-0.07658137381076813,-0.10715113580226898,-0.02560311183333397,-0.0772731751203537,0.0034571343567222357,0.030956370756030083,0.049284934997558594,0.05293219909071922,0.0733180046081543,0.05992588400840759,-0.015895722433924675,0.00505466153845191,-0.020104840397834778,-0.011979377828538418,0.02260696142911911,0.028373710811138153,0.0012749542947858572,0.006677020341157913,-0.09113579988479614,-0.06707510352134705,-0.04832698032259941,-0.04886731505393982,-0.08376055210828781,-0.11559980362653732,-0.1219349205493927,-0.09398655593395233,-0.09945136308670044,-0.1227366030216217,-0.10429085046052933,-0.09986704587936401,-0.01617053523659706,-0.0030372347682714462,-0.014735240489244461,0.026331987231969833,0.008251565508544445,0.09068819880485535,0.08446013182401657,0.0010615738574415445,-3.258389187976718e-05,0.006050773896276951,0.012869683094322681,0.016784880310297012,-0.0015210299752652645,0.02358376421034336,-0.013353223912417889,0.0001233092334587127,-0.050928566604852676,-0.02068754844367504,0.0295577235519886,-0.0018451530486345291,-0.008323519490659237,-0.0472593680024147,-0.018423018977046013,-0.02115832082927227,0.014065558090806007,0.02873319573700428,-0.008697054348886013,0.03608514741063118,0.006079702638089657,-0.028842216357588768,-0.02398056536912918,-0.007498677354305983,0.05531298369169235,0.011424120515584946,0.04793395847082138,-0.025037353858351707,-0.037995509803295135,0.015395933762192726,0.015578224323689938,0.013036641292273998,-0.00508528109639883,0.025663070380687714,0.019841643050312996,-0.0020550668705254793,0.025072280317544937,0.039894312620162964,0.03134075924754143,0.02647147700190544,-0.04070371761918068,0.019934434443712234,0.06754983216524124,0.06739119440317154,0.016116369515657425,0.10574959963560104,0.07631479203701019,0.07309749722480774,0.060161344707012177,0.022384321317076683,-0.019590327516198158,0.04317786172032356,-0.004777640104293823,0.01213257946074009,0.0038913574535399675,0.013347851112484932,0.0013079819036647677,0.01687384396791458,-0.023796964436769485,-0.035596929490566254,-0.03642909973859787,0.0237756185233593,-0.01927882805466652,0.01482945866882801,-0.016069278120994568,-0.01586609147489071,-0.0087290583178401,-0.0033582502510398626,-0.025579962879419327,-0.006125639192759991,0.005158816464245319,0.02581169083714485,0.007594645023345947,0.0386447049677372,0.027949804440140724,0.020565170794725418,0.022489124909043312,-0.014006256125867367,-0.005721601191908121,0.010249233804643154,-0.029445145279169083,-0.005073511973023415,0.013759184628725052,0.011077074334025383,0.01216959860175848,0.028654560446739197,-0.033772554248571396,-0.024409590288996696,0.04212242364883423,0.0028951121494174004,0.014123538509011269,-0.0012265127152204514,-0.019838813692331314,0.027644220739603043,0.03203638270497322,-0.01088338065892458,0.005373958498239517,-0.0021342881955206394,0.027052517980337143,0.023478388786315918,0.03751203417778015,-0.005571907386183739,0.043829597532749176,0.010817890986800194,0.0435016006231308,-7.006587111391127e-05,-0.023568660020828247,0.006011739373207092,-0.01693693734705448,0.03222844749689102,0.01108988095074892,0.0060769934207201,0.023986585438251495,0.025508936494588852,-0.02534983679652214,-0.009111767634749413,-0.004142196848988533,-0.005982489325106144,0.0032397068571299314,-0.023984376341104507,-0.013680468313395977,-0.02305438742041588,0.000141058539156802,-0.00923064723610878,-0.022852228954434395,0.026148345321416855,0.02168866991996765,0.012294848449528217,-0.009038758464157581,-0.0026349718682467937,-0.004723815713077784,0.027084216475486755,0.01008280087262392,0.004909982904791832,-0.005918977782130241,-0.0030831038020551205,0.03870471566915512,0.015205162577331066,0.023655714467167854,-0.021434567868709564,-0.02242562174797058,0.01788228005170822,0.03989030420780182,0.024088436737656593,-0.0014888443984091282,0.01907905377447605,-0.009399679489433765,-0.011623216792941093,0.0025497563183307648,0.031177517026662827,0.025935767218470573,-0.03718817979097366,0.0038572773337364197,-0.04601661115884781,-0.006789224222302437,-0.016453765332698822,-0.02879692055284977,-0.00839364156126976,-0.0011485652066767216,-0.018411235883831978,-0.014506729319691658,-0.022491609677672386,-0.00922096986323595,-0.003676330205053091,-0.0009687753627076745,-0.02371465601027012,-0.008198375813663006,-0.005652629304677248,0.01931695081293583,0.04335395246744156,0.02487112395465374,0.03341185301542282,-0.014860900118947029,-0.0038176316302269697,0.039240553975105286,0.012851477600634098,0.02493412047624588,-0.0002389182336628437,-0.025304924696683884,-0.0454382486641407,-0.07958121597766876,-0.03456750139594078,-0.0355081632733345,-0.02853442169725895,-0.04439300298690796,-0.022578656673431396,0.01887437142431736,-0.013102698139846325,0.027518710121512413,0.049128882586956024,0.03493870422244072,0.03204452246427536,0.009312917478382587,-0.018784714862704277,0.010354763828217983,-0.0036086987238377333,0.00391874834895134,-0.0186206866055727,0.007853358052670956,0.04163818806409836,0.008278529159724712,0.024457354098558426,-0.0036493956577032804,0.031273405998945236,0.01187104918062687,0.00322667695581913,0.004003193695098162,-0.008808808401226997,-0.06190701946616173,0.05266566202044487,0.03708731755614281,0.05072023347020149,-0.013541054911911488,-0.07681029289960861,0.008092612959444523,0.016211574897170067,-0.01680094376206398,0.004620698280632496,0.08823887258768082,0.11010102182626724,0.10170021653175354,0.04734280705451965,0.00011848026770167053,0.024925388395786285,0.006053832825273275,-0.002641865750774741,0.02388635464012623,-0.018872298300266266,0.010241369716823101,0.0015762620605528355,0.017718352377414703,-0.011974134482443333,0.05481931194663048,0.07822292298078537,0.026697244495153427,-0.02749660797417164,-0.0017662752652540803,0.04274855926632881,0.04023575410246849,0.06282371282577515,-0.04405541718006134,-0.0581124909222126,-0.05839446187019348,-0.07691893726587296,0.027370510622859,0.03140053153038025,0.04175111651420593,0.04029522463679314,0.06124304234981537,0.08669343590736389,0.02111009694635868,-0.022853001952171326,0.026037903502583504,-0.0001901929936138913,0.011636078357696533,0.008274073712527752,-0.01902017928659916,0.01889263652265072,-0.025376223027706146,0.006166660692542791,0.07212065905332565,0.04102412238717079,0.007626892998814583,0.0732731968164444,0.11196750402450562,0.03490345925092697,-0.012860534712672234,0.0090259974822402,-0.028694583103060722,-0.0793854221701622,-0.11683499068021774,-0.08767540007829666,-0.023404205217957497,-0.014570096507668495,0.0734923779964447,0.13183574378490448,0.08444377779960632,0.020147306844592094,0.05798479542136192,-0.022952603176236153,0.004442914389073849,-0.007647570688277483,0.03476313129067421,0.02911115437746048,-0.024718686938285828,-0.01898323744535446,-0.004820049740374088,-0.007234444376081228,0.08700795471668243,0.046607714146375656,0.006181675009429455,0.08732140064239502,0.052685607224702835,0.01814420334994793,0.033357735723257065,-0.036445070058107376,-0.08806095272302628,-0.09673013538122177,-0.08640410006046295,-0.04469047859311104,-2.56572529906407e-05,-0.029331140220165253,0.051048677414655685,0.08768280595541,0.065348781645298,-0.02097439207136631,-0.013359460048377514,-0.021408410742878914,0.05009115859866142,0.02920791134238243,-0.007928048260509968,-0.003949470818042755,0.012984511442482471,-0.006040994077920914,0.006182359531521797,0.012862592935562134,0.0663391724228859,0.006195199675858021,0.0517253614962101,-0.019252656027674675,0.0027310040313750505,-0.01270244736224413,0.03334441035985947,0.015172711573541164,-0.05096612498164177,-0.14450004696846008,-0.1356315165758133,-0.03495654836297035,0.048037875443696976,0.061568815261125565,0.0532863512635231,0.08471687138080597,0.04130038619041443,-0.039184149354696274,-0.06907446682453156,-0.03144280984997749,0.04315951466560364,0.018854888156056404,0.012981133535504341,-0.012321187183260918,0.03645980730652809,0.03367139399051666,-0.00473770359531045,-0.007322031073272228,0.020986147224903107,0.003103445516899228,0.023263808339834213,0.0028210091404616833,-0.010435200296342373,-0.03226185962557793,0.011235399171710014,0.02540796995162964,-0.019058968871831894,-0.10350622981786728,-0.15393321216106415,0.010731556452810764,0.038475871086120605,0.055341824889183044,0.0886700451374054,0.10691959410905838,0.023211399093270302,0.013152070343494415,-0.007480739150196314,-0.08305531740188599,0.013757416047155857,0.011107189580798149,0.005792210344225168,0.028810620307922363,-0.026690401136875153,-0.03956662118434906,-0.007840657606720924,0.04365018010139465,0.020035209134221077,-0.0022527354303747416,-0.01130356453359127,-0.04627867788076401,-0.022638192400336266,-0.03537081554532051,0.05070863291621208,0.04194050282239914,-0.08952528983354568,-0.19897229969501495,-0.11993861943483353,-0.007311825640499592,0.017183789983391762,0.048986755311489105,0.020964480936527252,-0.023102283477783203,-0.04783209040760994,-0.02754749171435833,-0.021730612963438034,-0.03032594732940197,0.017555037513375282,-0.02693256363272667,-0.014667009003460407,0.03336044028401375,0.015068954788148403,-0.05393373593688011,-0.013647342100739479,-0.008043412119150162,0.038370344787836075,-0.024296754971146584,-0.03388224169611931,-0.005330252461135387,0.010724062100052834,-0.04030803591012955,0.03170238435268402,-0.03658905252814293,-0.13645917177200317,-0.18086138367652893,-0.0325467512011528,0.011517356149852276,0.04937135800719261,0.02685786783695221,-0.01527523435652256,-0.055631063878536224,-0.1048298105597496,-0.12939105927944183,-0.0609590969979763,-0.05038006603717804,-0.040089141577482224,0.02806311473250389,0.016966577619314194,0.006898797117173672,0.035183895379304886,-0.04652821645140648,-0.07929077744483948,-0.05046892911195755,-0.017110226675868034,0.024166438728570938,-0.03614454343914986,-0.032946906983852386,-0.04119563102722168,0.05435677245259285,0.008151836693286896,0.010756413452327251,-0.02206074818968773,-0.01653801091015339,0.014464953914284706,0.04573289677500725,0.05715719982981682,0.02946462295949459,0.009731526486575603,-0.023068899288773537,-0.05389611795544624,0.005285969004034996,0.018067684024572372,-0.00932704471051693,-0.02882799692451954,-0.00284767453558743,0.010661611333489418,-1.2430085917003453e-05,0.02809663489460945,0.020872490480542183,-0.046581558883190155,-0.06377824395895004,-0.014093521982431412,0.018938269466161728,0.00982146430760622,0.01870749518275261,-0.002888502785935998,0.029813408851623535,0.026266904547810555,0.08507703244686127,0.03351421281695366,-0.028806352987885475,0.044306062161922455,0.04620939493179321,0.07931995391845703,0.0513671338558197,0.041399046778678894,0.003176177619025111,0.05516969412565231,0.01812494546175003,0.06542439758777618,0.06488172709941864,-0.03918788582086563,0.017809752374887466,0.01024143397808075,0.0394105389714241,0.01312973815947771,-0.02852989174425602,-0.01492859423160553,0.0010164743289351463,0.06372779607772827,0.005125473719090223,0.021458828821778297,0.02249232307076454,0.09609150141477585,0.07569519430398941,0.07120035588741302,0.09268110990524292,0.07691123336553574,0.03358494117856026,0.1031181812286377,0.12386340647935867,0.08118078857660294,0.008587579242885113,-0.00930952001363039,-0.005103907082229853,0.06296145915985107,0.026475243270397186,0.05095285177230835,0.02898576855659485,-0.014194874092936516,-0.028270360082387924,0.02759922668337822,-0.012663097120821476,0.0370265431702137,0.028831813484430313,0.03579067811369896,0.041757386177778244,0.051637448370456696,-0.03525085374712944,0.033755771815776825,0.016404449939727783,0.02601895108819008,0.11305117607116699,0.06187417358160019,0.10185860097408295,0.07001680880784988,0.10023975372314453,0.13059674203395844,0.06976757198572159,0.013632168062031269,0.03159065917134285,0.021051209419965744,-0.0566893145442009,-0.019430825486779213,0.06687947362661362,0.028998561203479767,0.0522272028028965,-0.026250863447785378,0.022533398121595383,-0.011440780013799667,-0.024694332852959633,0.002739115385338664,0.045472729951143265,0.07301918417215347,0.025962648913264275,-0.05421888083219528,-0.04611174017190933,-0.0220443457365036,-0.028422795236110687,0.00788864865899086,-0.00813090056180954,0.04406551644206047,0.05508406087756157,0.0926445797085762,0.08608070015907288,0.04761452600359917,0.032266244292259216,0.04406467452645302,0.02488292194902897,0.014650274999439716,-0.07434035837650299,-0.016375742852687836,0.04161212593317032,0.05546819046139717,0.0811932310461998,0.03404137119650841,-0.008929184637963772,0.0007499515195377171,0.012017573229968548,-0.0011411855230107903,-0.0054463716223835945,0.02804693952202797,-0.02747075818479061,-0.0659775510430336,-0.04806651547551155,-0.014483540318906307,-0.033988114446401596,-0.08595243096351624,-0.08333709836006165,-0.07799722254276276,-0.06240399181842804,-0.058800630271434784,-0.04724273085594177,-0.03928752616047859,0.03132801875472069,0.02138819918036461,0.020391326397657394,-0.047874338924884796,-0.032351862639188766,0.06143314018845558,0.06892416626214981,0.032656703144311905,0.03755142167210579,-0.02266797423362732,0.017756273970007896,0.02931048907339573,-0.012367096729576588,0.028458962216973305,0.05023645982146263,0.033476993441581726,-0.054148510098457336,-0.08578810840845108,-0.09592176973819733,-0.1048751175403595,-0.12080632150173187,-0.14697842299938202,-0.1594042330980301,-0.10730678588151932,-0.10003610700368881,-0.1609778255224228,-0.09166735410690308,-0.05467655882239342,0.016578849405050278,-0.0069472393952310085,-0.007090191822499037,0.008578456938266754,-0.043007608503103256,0.05999304726719856,0.005104600917547941,0.00373060442507267,-0.026153916493058205,0.023878268897533417,0.022001493722200394,0.020273109897971153,0.04448079317808151,-0.014994844794273376,-0.017833178862929344,0.003139897482469678,-0.04577326029539108,-0.04108201712369919,-0.0759267508983612,-0.023540955036878586,-0.06800157576799393,-0.07161358743906021,-0.06897655874490738,-0.11858339607715607,-0.14768242835998535,-0.17013420164585114,-0.11117337644100189,-0.034270938485860825,0.012115949764847755,0.062050655484199524,0.006344974040985107,0.02734088897705078,0.04514920711517334,0.09679052978754044,-0.014734255149960518,-0.007966688834130764,-0.025007935240864754,-0.016777897253632545,0.025622740387916565,0.036851949989795685,0.019171418622136116,-0.012098324485123158,-0.019679009914398193,0.01566174067556858,0.011682098731398582,-0.06664947420358658,-0.02173498459160328,0.02879469282925129,0.00905491504818201,0.04444703832268715,-0.04912015423178673,-0.02403400093317032,-0.09907104820013046,-0.12489944696426392,-0.06952016800642014,-0.014680693857371807,0.0374939851462841,0.10990729182958603,0.12552806735038757,0.03898230567574501,0.047083593904972076,0.08427289128303528,0.02883167751133442,0.027882292866706848,0.012179169803857803,0.0014740839833393693,-0.002444284502416849,-0.010448313318192959,-0.008900624699890614,0.04312184825539589,-0.014675087295472622,-0.0031495338771492243,0.013506701216101646,0.049625445157289505,0.02741587720811367,0.07302257418632507,0.10028695315122604,0.0175759419798851,0.029918603599071503,0.045732636004686356,0.06636076420545578,0.050736650824546814,-0.006167047191411257,0.003469484858214855,-0.006819454487413168,0.053394582122564316,0.13165484368801117,0.047421008348464966,0.12918709218502045,0.10335542261600494,0.02105891704559326,0.03311918303370476,0.033584751188755035,0.006233809981495142,-0.025153949856758118,0.004578026011586189,-0.01998140662908554,0.028758395463228226,0.022227933630347252,-5.896677612327039e-05,0.036709461361169815,0.07577504217624664,0.03274305909872055,0.0009471429511904716,0.016860343515872955,0.013601940125226974,-0.023891784250736237,0.013779486529529095,0.02628467231988907,0.01287244912236929,-0.009593824855983257,-0.02042480558156967,0.021259162575006485,0.03319936990737915,0.06277032941579819,0.09929066896438599,0.12051047384738922,0.03803578019142151,-0.019390422850847244,0.030382394790649414,0.01017476711422205,0.017719151452183723,0.03295040875673294,-0.012129909358918667,-0.00897281151264906,-0.0015507177449762821,-0.012448176741600037,0.04972400888800621,0.041922297328710556,0.07119022309780121,0.060949742794036865,0.05631314590573311,0.006728715728968382,0.014354469254612923,0.025011340156197548,-0.009569801390171051,-0.023204894736409187,0.03474597632884979,0.04022499918937683,0.015918096527457237,-0.035706907510757446,0.043997183442115784,0.04950716719031334,0.09374194592237473,0.06126077100634575,0.04741191118955612,0.038129888474941254,0.010127155110239983,-0.03627170994877815,-0.018874812871217728,-0.012216351926326752,0.041910141706466675,0.0274755097925663,0.025369569659233093,0.033878397196531296,0.02293788269162178,-0.001470885588787496,-0.032483164221048355,0.026933565735816956,0.04118086025118828,0.005689351353794336,0.029694216325879097,0.018514253199100494,-0.023938719183206558,-0.01495041698217392,0.051427457481622696,0.020231131464242935,-0.019229479134082794,0.03419233486056328,0.0042457678355276585,0.02171468734741211,-0.04487139359116554,0.03550688922405243,0.06750762462615967,0.024602677673101425,-0.011216403916478157,0.008744870312511921,0.014204353094100952,0.015195180661976337,0.01965247094631195,-0.01928946003317833,0.03908140957355499,0.015361055731773376,-0.010411612689495087,-0.03301876410841942,0.007414720486849546,0.014677117578685284,-0.002748234663158655,0.009435650892555714,0.033836472779512405,0.0032138675451278687,0.006964423228055239,0.038399677723646164,0.09917467087507248,-0.025138573721051216,-0.04541829973459244,-0.10493955761194229,-0.045810118317604065,-0.06409035623073578,-0.08758599311113358,-0.07548683136701584,0.004214612767100334,0.04439667612314224,0.026188021525740623,-0.0238502100110054,0.04460335522890091,0.015002522617578506,-0.017910387367010117,0.0059399958699941635,0.01766360178589821,-0.015057244338095188,0.014029469341039658,0.008738053031265736,0.009094254113733768,-0.02385270968079567,-0.001304406556300819,-0.005926933605223894,-0.057625334709882736,-0.01180221512913704,-0.03268124535679817,-0.0668426901102066,-0.10074349492788315,-0.0698670744895935,-0.0881715640425682,-0.10354605317115784,-0.11794976890087128,-0.10896415263414383,-0.08940567076206207,-0.019321024417877197,-0.005316972266882658,-0.012794326059520245,0.03564930334687233,0.023934034630656242,0.029180394485592842,0.025598693639039993,-0.007829154841601849,0.0036579917650669813,-0.006539138965308666,-0.01115527842193842,0.00772814592346549,0.028813518583774567,-0.010281885042786598,0.0423177108168602,0.01221338752657175,0.013332948088645935,-0.029045984148979187,-0.02804790437221527,-0.007219870574772358,0.01990506611764431,0.014195237308740616,-0.030353333801031113,0.028348449617624283,-0.02329631708562374,0.00025471841217949986,0.014017432928085327,-0.005086824297904968,-0.02718997374176979,0.028527624905109406,-0.01852097176015377,0.0305397380143404,0.002097944961860776,0.04171687364578247,0.007772555109113455,-0.009056868962943554,-0.0009485746850259602,0.02735499106347561,0.023153023794293404,-0.035358987748622894,-0.01202363707125187,0.02298981137573719,-0.023911448195576668,0.020490409806370735,-0.01681709848344326,0.023313870653510094,-0.010578788816928864,0.01570279896259308,0.01648988202214241,-0.0031179641373455524,-0.017674695700407028,-0.016947656869888306,-0.0011394573375582695,-0.03314434736967087,0.005823049228638411,-0.020191075280308723,-0.03220677003264427,0.01456401590257883,-0.01328076422214508,0.016956370323896408,0.02463146112859249,-0.017857922241091728,0.014652795158326626,-0.006896983366459608,0.007260277401655912,-0.03068220615386963,0.026694314554333687,-0.01716783083975315,0.016115577891469002,0.003047810634598136,-0.02279573678970337,0.022781293839216232,-0.02770712599158287,-0.004323724657297134,0.030063901096582413,-0.011641074903309345,0.03854638338088989,0.005955170374363661,-0.020747439935803413,0.0037458324804902077,-0.012392408214509487,-0.02813532017171383,-0.026554949581623077,-0.017118778079748154,0.017233189195394516,-0.010561658069491386,-0.037678077816963196,0.03004029393196106,0.026253921911120415,0.014535845257341862,-0.006966440472751856,0.025170041248202324,0.012672653421759605,-0.008809955790638924,-0.0008248817175626755,-0.00983614195138216,0.016599632799625397,-0.03191713988780975,-0.027415942400693893,-0.012237749993801117,-0.0073978290893137455,0.006845681928098202,-0.01564502902328968,0.05493215098977089,0.057805392891168594,0.0959739238023758,0.06926505267620087,0.06924622505903244,0.010533653199672699,0.05401221662759781,-0.007391759660094976,0.023299243301153183,0.009725376032292843,0.027492832392454147,0.015794817358255386,0.015714038163423538,-0.02026023343205452,-0.01778150536119938,-0.031691957265138626,-0.0036851654294878244,-0.00843515433371067,4.375196294859052e-05,0.018758781254291534,-0.010660187341272831,-0.012395371682941914,-0.02918817661702633,-0.016094934195280075,0.014156406745314598,-0.021355468779802322,-0.0068654268980026245,-0.01751485839486122,0.010664940811693668,0.016629153862595558,0.028879625722765923,0.044221214950084686,0.02304486744105816,0.016689693555235863,-0.022442737594246864,0.03878558799624443,0.06829217821359634,-0.027517596259713173,-0.0014232484390959144,-0.04249503090977669,-0.018524305894970894,-0.030875271186232567,-0.01879456825554371,-0.03724260628223419,-0.03741458058357239,-0.0034013192635029554,-0.01110166683793068,0.024006972089409828,0.007465010043233633,0.018625829368829727,0.03754211962223053,0.04124881699681282,0.0033981972374022007,0.04171757400035858,0.025850964710116386,0.017609409987926483,-0.014044406823813915,-0.026178371161222458,0.026481837034225464,0.0199742428958416,-0.04838905856013298,-0.020934760570526123,0.027293458580970764,0.008425792679190636,0.03752122446894646,-0.02358561009168625,-0.04404698684811592,-0.10172248631715775,-0.10109536349773407,-0.05990612506866455,0.018062829971313477,-0.0179684329777956,0.00022015550348442048,-0.018405800685286522,-0.00277277291752398,0.005370083265006542,-0.03763699531555176,-0.027404608204960823,0.015751957893371582,0.0553218238055706,0.054638877511024475,0.07196119427680969,0.01403785590082407,-0.03588787093758583,-0.01759227365255356,0.032006800174713135,0.01403653435409069,-0.09462401270866394,-0.0725579634308815,-0.08364491909742355,-0.05056958273053169,-0.006509499158710241,-0.0040153744630515575,-0.0025513782165944576,-0.08620720356702805,-0.09519066661596298,-0.05880127474665642,-0.05793837457895279,0.008895422331988811,-0.015488752163946629,-0.017919693142175674,-0.008978337049484253,0.01572561077773571,-0.014139559119939804,0.00398536492139101,-0.030912291258573532,-0.042535752058029175,-0.01540006697177887,-0.010410119779407978,-1.742289896355942e-05,-0.009245301596820354,0.03716764971613884,-0.012100037187337875,0.046755868941545486,-0.015933163464069366,-0.002189207123592496,0.02690182439982891,-0.018482869490981102,0.039294321089982986,0.08605002611875534,-0.025589225813746452,-0.04432915523648262,-0.043704915791749954,-0.10470009595155716,-0.0654374286532402,-0.05700213834643364,-0.0654371976852417,-0.03922214359045029,-0.014829997904598713,0.018605515360832214,-0.034831780940294266,0.021036073565483093,0.008166099898517132,-0.012943515554070473,-0.06321116536855698,-0.06578414142131805,-0.02617514133453369,0.021300606429576874,0.03363892436027527,0.037600092589855194,0.0035613500513136387,0.058912381529808044,0.05553232878446579,0.03495258837938309,0.06124749779701233,0.05451567471027374,0.003053535707294941,0.03241777420043945,0.02211872674524784,-0.012401931919157505,-0.017630180343985558,-0.08354944735765457,-0.08777628093957901,-0.08603944629430771,-0.052929092198610306,0.01591750979423523,0.02558278478682041,0.022947395220398903,-0.028075480833649635,-0.020412614569067955,-0.012992175295948982,0.010033753700554371,0.010267036035656929,0.014261705800890923,-0.0007017129100859165,0.06245248019695282,0.024479852989315987,0.008656722493469715,-0.02019582688808441,0.022244535386562347,-0.01570778526365757,0.045302554965019226,-0.016097228974103928,-0.05276474356651306,-0.0561106838285923,-0.05348900333046913,0.026478996500372887,-0.001965755131095648,-0.048278555274009705,-0.080105260014534,-0.11765391379594803,-0.06762124598026276,-0.05746454745531082,-0.011480581946671009,0.008679910562932491,-0.005641381721943617,0.014061950147151947,-0.03504231572151184,0.01622243970632553,-0.007021420169621706,0.015385343693196774,-0.0017441348172724247,0.011189808137714863,0.040501371026039124,-0.01360820047557354,-0.028262121602892876,-0.01639760658144951,-0.054347652941942215,-0.06272169947624207,-0.0018399663968011737,-0.024722762405872345,-0.0731232687830925,-0.034600794315338135,-0.07537756860256195,-0.057230908423662186,-0.07354094088077545,-0.06403196603059769,-0.05184948816895485,-0.07547755539417267,-0.05566232651472092,-0.03114127926528454,-0.01688125915825367,-0.017169374972581863,0.015306193381547928,0.018466921523213387,-0.02452753484249115,-0.014640173874795437,-0.025200869888067245,-0.012289055623114109,0.015074694529175758,0.018106825649738312,-0.009200585074722767,-0.04655832797288895,-0.04668423905968666,-0.04512852057814598,-0.03361585736274719,-0.07340265810489655,0.031158143654465675,0.011914245784282684,-0.005118931643664837,-0.04349526762962341,-0.06669113039970398,-0.027815017849206924,-0.0463068000972271,-0.022034090012311935,-0.02362878806889057,-0.10641912370920181,-0.032900817692279816,-0.05730249732732773,-0.05036076903343201,0.012221717275679111,0.000166400772286579,-0.016551688313484192,-0.0186709463596344,-0.029866961762309074,-0.004955399315804243,-0.008543822914361954,-0.010767975822091103,0.03387172147631645,0.033254388719797134,-0.05916409194469452,-0.01916656829416752,-0.005977884400635958,-0.06552980095148087,-0.0482952818274498,0.029756637290120125,-0.005125593394041061,0.0028647352010011673,-0.03647390753030777,0.005478979554027319,-0.04056623950600624,-0.029452089220285416,0.016121724620461464,-0.03938312456011772,-0.026605691760778427,-0.027708278968930244,-0.007056578062474728,-0.01022622361779213,0.024019161239266396,0.0034770274069160223,-0.03075622208416462,-0.03242853283882141,0.007431636564433575,0.02328353002667427,-0.037172168493270874,-0.0008319186745211482,-0.012715272605419159,0.040322162210941315,-0.048135675489902496,-0.060568563640117645,-0.07212582230567932,-0.14165803790092468,-0.07823599874973297,0.04627234861254692,0.03216802701354027,0.004917289596050978,0.017837436869740486,0.034669116139411926,-0.034169167280197144,-0.022790102288126945,0.018176695331931114,-0.025954607874155045,0.0070215011946856976,-0.07023059576749802,-0.04224655404686928,-0.04476612061262131,-0.040074385702610016,-0.040072452276945114,-0.01213992852717638,0.01965346187353134,0.016720114275813103,0.04422030597925186,0.010745514184236526,0.017632022500038147,-0.016827095299959183,0.013728935271501541,0.010267950594425201,-0.013943854719400406,0.007811989169567823,-0.10141646862030029,-0.02914254739880562,-0.009500984102487564,0.0007338870200328529,0.05135846138000488,-0.0051874336786568165,-0.008687431924045086,0.01077505573630333,-0.009638677351176739,0.0011030889581888914,-0.03471923992037773,-0.017603902146220207,-0.053880639374256134,-0.033185627311468124,-0.024110395461320877,-0.004278427921235561,-0.012255264446139336,0.0007265702006407082,-0.03727659583091736,0.023393811658024788,-0.026827329769730568,0.005209419876337051,-0.025842128321528435,-0.030966632068157196,-0.04307328537106514,0.003315563779324293,0.01517826970666647,-0.02245236746966839,-0.08416694402694702,-0.020583489909768105,0.0048461370170116425,-0.016248878091573715,0.03898243606090546,0.023416217416524887,0.029285406693816185,-0.05075674131512642,-0.038779277354478836,-0.005933001171797514,-0.003948688972741365,-0.02073933556675911,0.013766173273324966,0.01532608363777399,0.0018114910926669836,-0.03916839510202408,-0.022077834233641624,0.02494259737432003,0.005111535545438528,0.009732769802212715,-0.0028536950703710318,-0.023853423073887825,-0.04190570488572121,-0.0403628945350647,-0.05776822194457054,-0.02726813405752182,-0.04064824432134628,-0.05255082994699478,-0.07483606040477753,-0.017155542969703674,0.07382360845804214,0.04447893798351288,0.09450244903564453,0.003710977965965867,-0.020268727093935013,-0.021045271307229996,-0.06328186392784119,-0.07190271466970444,-0.011366184800863266,0.0023309760726988316,-2.324464003322646e-05,0.013802106492221355,-0.023491259664297104,0.028971798717975616,0.011461866088211536,-0.028595060110092163,-0.007299422286450863,-0.007008123677223921,0.0165079515427351,0.016718067228794098,0.004456016700714827,-0.06886724382638931,-0.024504130706191063,-0.05687784031033516,-0.07200735807418823,0.0117249246686697,-0.05805051326751709,-0.011543908156454563,0.08984886109828949,0.06597759574651718,0.08643192797899246,0.007963483221828938,-0.06378499418497086,-0.09981659799814224,-0.08105046302080154,-0.03138677403330803,-0.05431390553712845,-0.0356261171400547,0.030972959473729134,0.042745914310216904,-0.022485697641968727,0.01674753427505493,-0.03333735466003418,0.02603195607662201,-0.011826612986624241,-0.009917865507304668,-0.06863333284854889,0.0018690024735406041,-0.059600185602903366,-0.0806334838271141,-0.09361637383699417,-0.12412917613983154,-0.07317931950092316,-0.005002143327146769,0.006925362627953291,0.026430461555719376,0.05375180020928383,0.05574021860957146,0.02652413584291935,-0.026054680347442627,-0.005090437829494476,-0.10687600821256638,-0.039886463433504105,-0.017220215871930122,-0.018436918035149574,-0.06603171676397324,0.02276204526424408,0.04522760584950447,0.031086159870028496,0.02051643654704094,0.011041630059480667,0.03015887178480625,-0.04452444612979889,0.0026339301839470863,-0.057971447706222534,-0.050569407641887665,-0.06890220940113068,-0.07170336693525314,-0.08272340148687363,-0.1394025683403015,-0.07971013337373734,-0.055236540734767914,-0.010246271267533302,0.06382469832897186,0.06387761980295181,0.07344132661819458,-0.04528040066361427,-0.01936950348317623,0.007420429028570652,0.01168313529342413,-0.04337836056947708,0.0008867097203619778,-0.020059259608387947,-0.015381601639091969,0.0019022957421839237,-0.01026186253875494,0.029658017680048943,-0.027199313044548035,0.0031799564603716135,-0.03680514171719551,-0.02408384531736374,-0.026009434834122658,-0.06756431609392166,-0.07206404209136963,-0.061060693114995956,-0.07963643968105316,-0.11245129257440567,-0.09168759733438492,-0.0008067481103353202,0.0798729956150055,0.11336138844490051,0.05203397572040558,0.0332065187394619,0.04660963639616966,0.011197885498404503,0.008659284561872482,0.030377762392163277,-0.008264807984232903,-0.03746926039457321,-0.085105761885643,-0.058859825134277344,-0.0010028865654021502,0.0006059349980205297,-0.008471386507153511,-0.024075040593743324,-0.013480658642947674,0.028100470080971718,0.0042632101103663445,-0.03640793263912201,-0.06217435002326965,-0.05487566813826561,-0.08387894928455353,-0.09788553416728973,-0.06753571331501007,-0.07028046995401382,-0.0803939625620842,-0.010063769295811653,0.0755910649895668,0.048105545341968536,-0.017302436754107475,-0.00953648891299963,0.03080645576119423,0.05010635405778885,0.0042372457683086395,0.043445561081171036,-0.023533323779702187,-0.058236975222826004,-0.07578583806753159,-0.08516522496938705,0.032641541212797165,0.009594564326107502,0.014000914990901947,0.02171720378100872,-0.022532885894179344,-0.039403244853019714,0.027809390798211098,-0.025053508579730988,-0.006155858281999826,-0.008266895078122616,-0.03734564036130905,-0.08969078212976456,-0.10038705915212631,-0.036818161606788635,-0.054129745811223984,-0.025753870606422424,0.015382226556539536,-0.011289471760392189,0.016646165400743484,0.04862302914261818,-0.001973532373085618,0.0015004526358097792,0.0075982604175806046,-0.025047408416867256,0.027878249064087868,-0.010536125861108303,-0.04788041114807129,-0.10251536220312119,0.024465307593345642,0.04449181258678436,-0.03789203613996506,-0.029534777626395226,-0.03671478480100632,-0.009638341143727303,-0.037405192852020264,0.0008372287265956402,-0.03047042153775692,-0.04397884011268616,-0.0026040198281407356,-0.005547875072807074,-0.08899466693401337,0.006643709726631641,0.01911669597029686,-0.04229775443673134,-0.10111997276544571,-0.026819268241524696,0.015327046625316143,0.013467952609062195,0.0025661650579422712,-0.02495662495493889,-0.031091809272766113,-0.009508645161986351,-0.025190873071551323,-0.01930646412074566,-0.03135821223258972,-0.024959877133369446,0.005622982047498226,0.033494655042886734,0.011877622455358505,-0.009865203872323036,0.00559618603438139,-0.025931047275662422,-0.026087960228323936,0.01960092969238758,0.002871420932933688,-0.006161746568977833,-0.048926256597042084,-0.058389682322740555,-0.09326208382844925,-0.06540215015411377,-0.05654660984873772,-0.06403353065252304,-0.0926194041967392,-0.020599886775016785,-0.008984261192381382,-0.046776182949543,-0.0026579517871141434,0.0014110638294368982,-0.0047467611730098724,0.007561220787465572,0.07667165994644165,0.04786355048418045,-0.012517319060862064,0.021690936759114265,0.013606499880552292,0.028737332671880722,0.018371455371379852,-0.017632868140935898,-0.00663788290694356,-0.026968495920300484,-0.011438041925430298,0.020850270986557007,-0.02538149431347847,-0.029841095209121704,0.016771871596574783,-0.08615510165691376,-0.10684411972761154,-0.06504260748624802,-0.11984752118587494,-0.09132697433233261,-0.06005944684147835,-0.04340600594878197,-0.08358655124902725,-0.10563158243894577,-0.028649933636188507,-0.029304450377821922,-0.03392362967133522,0.034671489149332047,0.028402002528309822,0.023807844147086143,0.004710077773779631,-0.009117960929870605,0.014966604299843311,0.01754254288971424,-0.002401657635346055,0.016071882098913193,0.03019622527062893,-0.02936922013759613,-0.007903928868472576,-0.036744870245456696,0.0023604724556207657,0.005970616824924946,0.03159560263156891,-0.021942244842648506,-0.02146141789853573,-0.040287841111421585,-0.06781945377588272,-0.06630732119083405,-0.052679162472486496,-0.0033490038476884365,-0.01144991535693407,0.050028037279844284,0.023243870586156845,0.0054106805473566055,0.05063952878117561,-0.017138680443167686,-0.026751652359962463,0.04180760681629181,-0.012227311730384827,-0.03572038933634758,-0.01997220888733864,0.009677390567958355,0.016689004376530647,0.00281994859687984,-0.00037178825004957616,-0.018431877717375755,-0.024676596745848656,-0.01395172905176878,0.02391759678721428,-0.009409358724951744,0.0223228856921196,-0.008771348744630814,0.024288825690746307,0.050328996032476425,0.05369017645716667,0.0522654727101326,0.02739023230969906,0.05225639417767525,0.04361841455101967,0.12362927198410034,0.0901840478181839,0.1106567308306694,0.07382399588823318,0.04167882353067398,0.053411323577165604,0.018731094896793365,0.02555970661342144,-0.02746925689280033,-0.03136471286416054,-0.03811518847942352,0.005507051944732666,-0.010675974190235138,-0.0024931395892053843,-0.03990482538938522,0.021871553733944893,-0.0344267264008522,-0.03052847646176815,-0.003070410341024399,0.010667714290320873,0.01866743341088295,0.03320252150297165,-0.01559958141297102,-0.022835204377770424,-0.0017622722079977393,-0.014919190667569637,-0.004559974651783705,0.024285299703478813,-0.00869540311396122,-0.014907799661159515,0.022353557869791985,-0.020114844664931297,0.004588410723954439,0.003123895265161991,0.0008056063670665026,-0.0004418757453095168,0.025754699483513832,-0.01889410987496376,0.007589055225253105,-0.026642458513379097,-0.0002170867082895711,-0.037202898412942886,-0.005262279417365789,0.0024602203629910946,-0.022191867232322693,-0.016729945316910744,-0.001014207024127245,0.03856737166643143,0.007158118765801191,0.021807368844747543,-0.018462691456079483,0.014961139298975468,0.029717588797211647,0.03793904930353165,0.0052359928376972675,-0.01860564760863781,0.01616319641470909,0.036779213696718216,0.03579035401344299,0.02775442972779274,0.008504015393555164,-0.010957597754895687,0.01372281089425087,0.0021218752954155207,-0.021796487271785736,0.01913611963391304,0.010570167563855648,0.02266008034348488,0.013310165144503117,0.03544355928897858,0.03004090115427971,0.03811011463403702,-0.019439764320850372,0.04551473259925842,0.018521934747695923,-0.013333369046449661,0.04127657786011696,0.041175223886966705,-0.0025390759110450745,0.02628013864159584,-0.01788569614291191,0.03386016935110092,0.042600855231285095,0.0005323097575455904,0.051775816828012466,-0.010610739700496197,-0.02795099839568138,-0.007158802356570959,0.012258944101631641,0.00898701697587967,0.030322240665555,-0.016426192596554756,0.019247205927968025,0.0022494730073958635,0.01370178535580635,-0.02005777880549431,0.040860600769519806,0.03448190540075302,-0.014051268808543682,-0.01949416846036911,-0.023445552214980125,0.04358846694231033,0.013940667733550072,0.037131406366825104,0.0432736873626709,0.04493222385644913,-0.009035924449563026,-0.029311101883649826,0.02051980048418045,-0.022758083418011665,0.04705810546875,0.026928450912237167,0.040297865867614746,0.03755103424191475,0.006070834118872881,0.03657398372888565,0.007026342675089836,0.013396904803812504,0.053690679371356964,5.464645801112056e-05,0.012865578755736351,0.01015346311032772,-0.003757345024496317,0.02274501696228981,0.015241894870996475,0.009783684276044369,-0.007626277860254049,0.0357603058218956,0.025701602920889854,-0.003263991791754961,0.03628275543451309,0.04345943406224251,-0.0204303078353405,-0.02716863714158535,0.010741343721747398,-0.02634042128920555,-0.03674357011914253,-0.04624147713184357,-0.052335646003484726,-0.004285196308046579,0.05026703700423241,0.032145094126462936,-0.022900786250829697,-0.04732156917452812,0.010534632951021194,0.06349111348390579,0.019900524988770485,0.095260851085186,0.07956458628177643,0.016851846128702164,0.047431282699108124,-0.023382507264614105,0.023685581982135773,0.02103530988097191,0.007358463015407324,0.04519189894199371,0.020943105220794678,-0.01759854517877102,0.0038756113499403,0.004137867596000433,-0.02595488540828228,-0.020459739491343498,-0.0006701367674395442,-0.04460419341921806,-0.017848776653409004,-0.007165372371673584,0.02129584178328514,0.009803608059883118,0.04138455539941788,-0.04102858155965805,-0.01773098111152649,-0.027490811422467232,-0.03171687200665474,-0.022019773721694946,0.02737484499812126,0.06511431932449341,0.09300438314676285,0.04496106132864952,0.07089348137378693,0.04438941180706024,0.004103462211787701,0.034861430525779724,0.04331843554973602,0.03724787384271622,0.02280954085290432,0.007820957340300083,-0.024254897609353065,-0.04814276844263077,-0.031310319900512695,-0.024665867909789085,-0.08483515679836273,-0.019549686461687088,-0.04315388202667236,-0.003989750985056162,0.06519890576601028,0.030652716755867004,0.04129193350672722,-0.05351083353161812,-0.05689030885696411,-0.036573030054569244,-0.045780595391988754,0.052991095930337906,0.06503195315599442,0.04510163143277168,0.04081122204661369,0.0902227833867073,0.06148399040102959,0.025556666776537895,0.007024545222520828,-9.857902477961034e-05,0.008244925178587437,-0.020888952538371086,0.0007205500733107328,0.0025248590391129255,-0.01710471697151661,-0.004883240442723036,-0.07058331370353699,-0.050893645733594894,-0.047167904675006866,-0.041270215064287186,-0.06570427119731903,-0.003936823457479477,0.0268188938498497,0.001711564022116363,-0.005729746539145708,-0.024514244869351387,-0.08417864888906479,-0.09375840425491333,-0.05525771528482437,0.01812496967613697,0.05223119258880615,0.02340133674442768,0.04072186350822449,0.1301097869873047,0.12222102284431458,0.08528771251440048,-0.0027093698736280203,0.033803705126047134,0.011927901767194271,-5.091881030239165e-05,0.00012463217717595398,-0.028047027066349983,-0.026201089844107628,-0.04070745408535004,-0.11406982690095901,-0.08726800233125687,-0.0611426942050457,0.018645640462636948,0.03662293404340744,-0.02591848559677601,0.008503005839884281,0.006866720505058765,0.027722006663680077,-0.022729335352778435,-0.036307480186223984,-0.020183103159070015,-0.0008528765756636858,0.028396371752023697,0.027264276519417763,0.03179914131760597,0.05773110315203667,0.13246914744377136,0.0861130803823471,0.007339692674577236,0.06522589176893234,0.03652594983577728,-0.007113341707736254,0.01033178623765707,0.0366402342915535,-0.034319519996643066,0.0006758538074791431,-0.02864764630794525,-0.04455164819955826,-0.057178620249032974,-0.08649387955665588,-0.020486442372202873,-0.03459767624735832,-0.02597631886601448,0.022106066346168518,0.05762774124741554,0.014125566929578781,-0.028287427499890327,-0.056472837924957275,-0.05226917937397957,-0.04211051017045975,-0.036832623183727264,-0.0016506857937201858,0.06408169865608215,0.04901954531669617,-0.009569384157657623,0.060509093105793,0.05077505484223366,0.05104620382189751,-0.00920953880995512,0.02449015900492668,0.04076273366808891,-0.01080243568867445,0.010727639310061932,-0.024174587801098824,-0.08589211851358414,-0.06673435866832733,-0.027376923710107803,-0.014391336590051651,0.02746414951980114,-0.05867509916424751,0.028863053768873215,0.00396208418533206,-0.037952229380607605,-0.07702764123678207,-0.12701767683029175,-0.09280437976121902,-0.08434594422578812,-0.06000933423638344,-0.05406300351023674,-0.019027281552553177,0.017237598076462746,-0.030292412266135216,0.008494547568261623,0.01783796027302742,0.042291492223739624,0.008852511644363403,-0.020505545660853386,-0.00941589567810297,-0.0029146610759198666,0.023678775876760483,-0.0524650476872921,-0.0005334106972441077,-0.0839395821094513,-0.0518164224922657,-0.038689590990543365,0.06244780495762825,0.05981261283159256,0.026489516720175743,0.014339069835841656,0.026235979050397873,-0.042024001479148865,-0.0952785387635231,-0.1371167004108429,-0.12622500956058502,-0.11260426044464111,-0.046636518090963364,-0.048402294516563416,-0.06597033888101578,-0.04461357370018959,-0.0485120490193367,-0.06082677096128464,0.03493211045861244,0.07815036922693253,-0.0019741349387913942,0.013775774277746677,-0.0017216347623616457,0.04089798405766487,-0.00795084610581398,-0.023336324840784073,-0.034546494483947754,-0.014027217403054237,-0.04398655146360397,0.053220923990011215,0.042542796581983566,0.11665090918540955,0.08252377808094025,-0.002016420243307948,0.05943285673856735,-0.04560374468564987,-0.01840774342417717,-0.08692359179258347,-0.03139520809054375,-0.1037665456533432,-0.06454957276582718,-0.08255090564489365,-0.09254631400108337,-0.09692849963903427,-0.023322394117712975,-0.0182664655148983,-0.005112910643219948,-0.0002640531165525317,0.026091957464814186,0.0316772423684597,0.035534560680389404,0.016938090324401855,-0.039224229753017426,0.009057918563485146,-0.014493172988295555,-0.019130537286400795,0.015561730600893497,0.03542065620422363,0.056881196796894073,0.02442825213074684,0.03407531604170799,0.04558417201042175,0.04502631351351738,0.0777561292052269,-0.019394947215914726,0.013087634928524494,-0.0022447165101766586,-0.06388380378484726,-0.09457215666770935,-0.04978865012526512,-0.05659014359116554,-0.05961286276578903,-0.017287956550717354,-0.022003620862960815,-0.0335647352039814,0.006814153399318457,-0.0025564050301909447,0.02796267531812191,0.015945270657539368,-0.003984083887189627,0.0010604426497593522,-0.029333053156733513,-0.0316074900329113,-0.03051501139998436,0.021891821175813675,0.1120646670460701,0.0927104502916336,0.10044224560260773,0.07076951861381531,-0.007770117837935686,0.026607763022184372,0.025517255067825317,0.04029512777924538,0.06212662160396576,0.08320549130439758,0.012342126108705997,-0.0015395801747217774,-0.012065968476235867,-0.022561460733413696,-0.04064193740487099,-0.04430851340293884,-0.054510317742824554,-0.03214339539408684,-0.060530729591846466,0.007433295249938965,0.028633175417780876,0.0318080298602581,0.02704680524766445,-0.01021297462284565,0.02986372634768486,-0.02313813380897045,-0.01565999910235405,-0.015856660902500153,0.06367553025484085,0.1039406880736351,0.06931447982788086,0.05927274748682976,0.04665292426943779,-0.00238887220621109,0.024449925869703293,0.05162965506315231,0.04592112824320793,0.04214503988623619,0.013183861039578915,-0.050279486924409866,0.003372189123183489,-0.02717735432088375,-0.014656081795692444,-0.054002780467271805,-0.0636930838227272,-0.027836231514811516,-0.04798084497451782,-0.01114985067397356,-0.0025342172011733055,0.04071406275033951,-0.017383581027388573,-0.00788384210318327,-0.010248254053294659,-0.03970938175916672,-0.032848719507455826,-0.05433211848139763,0.04345187917351723,0.0919095128774643,0.08463464677333832,0.048015449196100235,0.043051958084106445,0.014841368421912193,0.01753159612417221,0.10821673274040222,0.04508140683174133,0.07669961452484131,0.0094866082072258,-0.01613994687795639,-0.025709887966513634,-0.013323072344064713,-0.005259419791400433,0.02629542164504528,0.01077293511480093,-0.08824821561574936,-0.011677824892103672,-0.0005854226765222847,0.01143631525337696,-0.017901550978422165,0.020756132900714874,0.03434806689620018,0.02925056405365467,-0.0885656550526619,-0.05507327988743782,-0.022747507318854332,-0.029378380626440048,0.001890706131234765,0.0017170056235045195,0.017163626849651337,0.05910593643784523,0.05863429233431816,0.045916296541690826,0.05719120055437088,0.07491809874773026,0.07708478718996048,0.047860365360975266,-0.011566391214728355,-0.020545732229948044,-0.06451677531003952,-0.018601419404149055,-0.044554997235536575,-0.02687872014939785,-0.03172735124826431,-0.07182938605546951,-0.03939862549304962,0.007413164712488651,-0.01951669156551361,-0.002342729363590479,0.01457599364221096,-0.020062511786818504,-0.03522324934601784,-0.015296554192900658,0.020444000139832497,-0.0001511125301476568,-0.02531394734978676,0.0005097044631838799,-0.032137155532836914,0.06235409900546074,0.05771559104323387,0.014920080080628395,0.09280809760093689,0.03914375230669975,0.10212013870477676,-0.009356925264000893,-0.016337061300873756,-0.046956341713666916,-0.06435652077198029,-0.016237333416938782,-0.026253031566739082,-0.0004673228831961751,-0.05868547782301903,-0.08675878494977951,-0.04504963383078575,0.03181510791182518,0.0034103726502507925,0.02955271117389202,-0.011358649469912052,0.020398017019033432,-0.035479772835969925,-0.012042077258229256,0.008097246289253235,-0.013688643462955952,-0.05185578018426895,-0.07077694684267044,-0.06759221106767654,-0.005948629230260849,0.02554788626730442,0.05414668470621109,0.09241625666618347,0.09560509026050568,0.044626642018556595,0.006134120747447014,-0.0717952623963356,-0.017945758998394012,0.009260623715817928,0.018288174644112587,-0.010787186212837696,-0.0461975634098053,-0.050104208290576935,-0.027611954137682915,0.0027463887818157673,0.03565024957060814,0.029203595593571663,-0.013809248805046082,-0.022768013179302216,0.016686953604221344,-0.03344087675213814,-0.05231937766075134,-0.032773569226264954,-0.03034556470811367,-0.017651652917265892,-0.023607395589351654,-0.011197307147085667,-0.030817421153187752,-0.02311297319829464,0.0409943051636219,0.049502044916152954,0.07596410065889359,0.05359172821044922,0.00949012115597725,-0.00297576654702425,-0.04115321487188339,-0.03715306892991066,-0.05876007676124573,-0.055784497410058975,-0.023480907082557678,-0.02426794171333313,-0.018606530502438545,0.0019322170410305262,0.035027891397476196,0.010637116618454456,-0.024333834648132324,0.02034943923354149,-0.041971080005168915,-0.023048078641295433,-0.0505337119102478,-0.06563053280115128,-0.022761283442378044,-0.03961712121963501,-0.03346981108188629,-0.04001694545149803,-0.05033976212143898,-0.024040546268224716,0.000165962366736494,0.06246756389737129,0.08601899445056915,0.034372370690107346,0.05987129732966423,0.0065249050967395306,-0.03146065026521683,-0.03553399816155434,-0.010207424871623516,-0.021550005301833153,-0.04213784635066986,-0.028291575610637665,-0.012062743306159973,0.02693430706858635,0.04285622015595436,0.030584929510951042,0.018202224746346474,0.034401845186948776,0.030703449621796608,-0.0026307820808142424,-0.04770577326416969,-0.009622352197766304,-0.01574655808508396,-0.02565085142850876,-0.005858301185071468,-0.06592685729265213,-0.054119374603033066,-0.055504195392131805,0.043096136301755905,0.05995849147439003,0.04629550501704216,0.04845138266682625,0.09665676951408386,0.004939622711390257,-0.016185780987143517,0.008467081002891064,-0.05107077956199646,-0.03990757092833519,-0.05347726121544838,-0.010703632608056068,0.010257181711494923,0.018420565873384476,-0.016476189717650414,0.0307532399892807,0.00031999056227505207,0.030484849587082863,-0.0138627914711833,0.02492617256939411,0.011390474624931812,-0.08806357532739639,-0.05952560529112816,-0.025983110070228577,-0.021294353529810905,-0.04823027178645134,0.0002681536425370723,0.01089557446539402,0.024404354393482208,0.01920866221189499,0.027704322710633278,0.0677780732512474,0.10745932161808014,0.04612482339143753,-0.0044358111917972565,-0.01680140383541584,-0.08172160387039185,-0.052272479981184006,-0.03231336548924446,-0.020257489755749702,0.008991059847176075,-0.008842196315526962,0.005223550833761692,-0.012727825902402401,0.029021725058555603,0.0013530406868085265,0.011361323297023773,0.03961050882935524,0.012721638195216656,0.02695920132100582,0.015012138523161411,0.046776436269283295,-0.03237659111618996,-0.015287837944924831,-0.005316991358995438,0.04498589411377907,0.06613481044769287,0.09865150600671768,0.10289423912763596,0.1018575131893158,0.055007945746183395,0.06388594210147858,-0.02252715639770031,-0.06359994411468506,-0.07267187535762787,-0.042662814259529114,-0.03481937572360039,-0.007929942570626736,0.023545553907752037,0.02674465999007225,0.02600744366645813,0.0341809019446373,-0.004613917786628008,0.014054449275135994,0.004991095047444105,-0.0032974970526993275,0.03009653277695179,0.014363507740199566,0.06343735009431839,0.0464802123606205,0.07760249078273773,0.09360414743423462,0.06977595388889313,0.0803590714931488,0.07380408048629761,0.08789099752902985,0.05503000319004059,0.06440462917089462,-0.0010948743438348174,-0.015920128673315048,-0.023439818993210793,0.0021754358895123005,-0.021933285519480705,-0.04155484586954117,-0.02070525474846363,-0.014244225807487965,0.03670467808842659,0.03440958261489868,-0.023220915347337723,-0.01843119040131569,0.003266548505052924,0.01900624670088291,-0.020382359623908997,0.01904202811419964,-0.0395304411649704,0.017658868804574013,0.038095973432064056,0.03296087682247162,0.03489469736814499,0.07785028964281082,0.04705972224473953,0.07205750048160553,0.037194836884737015,-0.013026016764342785,-0.011972418054938316,-0.03130372613668442,-0.04197530075907707,0.028927376493811607,-0.022387927398085594,-0.027195896953344345,0.009280964732170105,0.04120248556137085,0.034385498613119125,0.0037402769085019827,0.028469916433095932,0.014595860615372658,0.03889454901218414,0.04324623942375183,0.006361145060509443,-0.0063076685182750225,-0.015727881342172623,0.013323027640581131,0.028669144958257675,0.02426042966544628,-0.008984634652733803,0.0038734162226319313,-0.037608079612255096,-0.012234498746693134,-0.004478521179407835,-0.04264093190431595,-0.06074162945151329,-0.06414595991373062,-0.0511527955532074,-0.07245931029319763,-0.04732928425073624,-0.009329712018370628,-0.024044763296842575,-0.0213315486907959,-0.015612578950822353,0.005433062557131052,0.014496604911983013,0.010269558057188988,0.02384183555841446,0.040677689015865326,0.016629990190267563,0.009606576524674892,-0.0026048030704259872,-0.021917372941970825,-0.00229463679715991,-0.003639745758846402,-0.003829315770417452,0.00015066462219692767,-0.02732129767537117,-0.008912461809813976,0.027856240049004555,0.01227598451077938,-0.023166725412011147,-0.005321469623595476,0.029531491920351982,0.005182897672057152,0.015840020030736923,0.029008634388446808,-0.0041258614510297775,-0.02430293895304203,0.0030436888337135315,0.030469145625829697,-0.01936102658510208,-0.0009623511577956378,0.02708580158650875,0.019417215138673782,0.020278193056583405,-0.024074576795101166,0.028567492961883545,0.003308077109977603,-0.02417910285294056,-0.0004275256651453674,0.019752677530050278,0.028354870155453682,-0.021672839298844337,-0.01206947024911642,0.0024697657208889723,0.03615206107497215,0.016993792727589607,0.03234875202178955,-0.01710408553481102,0.0369408093392849,-0.005239089485257864,0.004461710806936026,0.00446745241060853,0.04214925318956375,-0.01973922736942768,0.02526021935045719,0.004703516140580177,0.03913524001836777,0.02182699553668499,0.03232196345925331,0.04509792476892471,0.02937951870262623,-0.02001861296594143,-0.018255867063999176,-0.008018816821277142,0.010430739261209965,0.021122151985764503,0.030063482001423836,-0.01703866757452488,-0.012666146270930767,-0.01351074781268835,0.04656962677836418,-0.012373415753245354,0.034353889524936676,-0.010170047171413898,0.0010308623313903809,0.021586814895272255,0.01771857962012291,0.03917848318815231,-0.011253555305302143,0.0011595111573114991,