{"shape": [128]}
-0.030561985448002815,0.04765031486749649,-0.013347271829843521,-0.01936427690088749,-0.008208928629755974,0.017302967607975006,-0.011037331074476242,-0.010336245410144329,-0.036686819046735764,0.014277483336627483,-0.0017595667159184813,0.013619640842080116,-0.011761872097849846,0.016821209341287613,-0.006554542109370232,0.009523933753371239,-0.0160067118704319,-0.014627698808908463,0.00440856721252203,-0.026041507720947266,-0.03561907634139061,0.02380611002445221,-0.013190730474889278,-0.015604853630065918,-0.020339610055088997,0.027504317462444305,-0.011296768672764301,0.00033274944871664047,-0.006193526089191437,-0.026670139282941818,0.0018176597077399492,0.0009422728326171637,-0.016770366579294205,0.023693710565567017,-0.027756746858358383,0.006198061164468527,-0.020809356123209,0.02022998221218586,0.018287697806954384,-0.000915567681659013,-0.043691009283065796,-0.004598028026521206,-0.02833462879061699,-0.026374295353889465,0.019547143951058388,0.010686893947422504,-0.028194919228553772,-0.023540588095784187,-0.03637586161494255,-0.024237800389528275,0.01982293836772442,0.01641230471432209,0.01651778817176819,0.014329826459288597,-0.016578959301114082,-0.04112269729375839,-0.01326197199523449,-0.017799613997340202,0.0023482399992644787,0.011332076974213123,-0.008305104449391365,0.03189411759376526,-0.022262167185544968,-0.009848667308688164,-0.04519333690404892,-0.01466326043009758,-0.02089378423988819,0.017486492171883583,0.008385520428419113,-0.01094539649784565,-0.019079022109508514,0.016915753483772278,-0.03861074149608612,-0.0032300306484103203,0.02919100783765316,-0.03165252134203911,-0.0018364335410296917,0.025958416983485222,-0.02792215347290039,-0.02029198221862316,0.002065007807686925,0.031065596267580986,-0.03141073137521744,0.02940070442855358,0.0029468259308487177,-0.004835397936403751,0.016226751729846,0.02662505954504013,0.005220037419348955,0.03204263374209404,0.062472470104694366,-0.024562008678913116,0.027646716684103012,0.01965668983757496,0.009486512281000614,0.009061148390173912,0.010534770786762238,-0.03621257096529007,-0.011398888193070889,0.010678053833544254,-0.00494584534317255,0.011158512905240059,-0.00833151862025261,0.0007400453323498368,0.0003751748299691826,0.005489860195666552,-0.022054523229599,-0.012439511716365814,-0.030299494042992592,-0.0435124970972538,-0.02360323816537857,-0.012612935155630112,-0.0035426567774266005,-0.013372504152357578,-0.01171113085001707,-0.006042776629328728,-0.00016021481133066118,0.0019447609083727002,-0.024895362555980682,0.0016580569790676236,-0.0023743296042084694,-0.009112982079386711,0.025042515248060226,0.05183253064751625,0.009983797557651997,-0.02253926359117031,0.04139895737171173,-0.022360784932971