{"shape": [128]}
0.0011849544243887067,0.0009211914730258286,-0.014610158279538155,0.03116551972925663,0.025683769956231117,-0.011046717874705791,0.022252295166254044,0.016320055350661278,-0.0131527753546834,0.017390457913279533,0.028826666995882988,-0.03141710162162781,-0.011222725734114647,0.029087547212839127,-0.0246816985309124,0.03976815193891525,-0.02882985956966877,0.05772397667169571,-0.02613619714975357,0.02127295546233654,-0.027130329981446266,-0.04015856981277466,0.0013740976573899388,-0.013547125272452831,-0.05439690500497818,0.0006170563283376396,0.0038641225546598434,-0.003888239385560155,0.006539694033563137,-0.004141276702284813,-0.03370290994644165,0.011406753212213516,0.017439082264900208,-0.04570205882191658,-0.014655188657343388,-0.002338158432394266,-0.020429225638508797,-0.04411423206329346,-0.007408136501908302,0.026079924777150154,0.04709605872631073,-0.015562369488179684,0.019197162240743637,-0.036759763956069946,-0.019014207646250725,-0.014547660946846008,0.024887647479772568,-0.021485107019543648,0.008142172358930111,0.009902152232825756,-0.02126672863960266,0.023069234564900398,-0.00180636637378484,-0.02135463058948517,0.04238147288560867,-0.027543557807803154,-0.0004066323162987828,0.018380967900156975,-0.005795300472527742,0.012101211585104465,0.01511494442820549,0.02004248835146427,-0.03730624169111252,-0.008174468763172626,0.03866661339998245,-0.03960869461297989,-0.02998208813369274,-0.05348700284957886,0.03318777307868004,-0.010325892828404903,0.0076497383415699005,0.027487240731716156,-0.009133507497608662,0.019246814772486687,-0.03493797779083252,-0.00915524736046791,-0.03186706453561783,0.0015946910716593266,-0.04666820168495178,0.01793615147471428,0.029330920428037643,-0.027229806408286095,0.00036358737270347774,-0.0004944073734804988,0.024051859974861145,-0.03285963833332062,0.034246280789375305,0.018199225887656212,0.016880957409739494,-0.011417973786592484,0.022540239617228508,-0.007268697023391724,-0.0015794255305081606,-0.008591638877987862,0.009275381453335285,0.0003523568157106638,-0.0028616839554160833,0.020181238651275635,-0.033477555960416794,0.006327332928776741,-0.006448354106396437,0.010045784525573254,0.01983974128961563,0.04415079206228256,0.024450156837701797,-0.039059828966856,-0.026815474033355713,0.008615290746092796,0.04167332872748375,0.011102501302957535,-0.0041908323764801025,-0.027390213683247566,-0.005011990666389465,0.007837237790226936,-0.026745088398456573,-0.013695066794753075,0.028222257271409035,0.028025079518556595,-0.00783787202090025,0.01143408939242363,-0.00023237495042849332,0.024079367518424988,0.008830562233924866,0.017963433638215065,-0.04176759347319603,0.04449067637324333,-0.03744029626250267,0.04155781865119934