{"shape": [128, 784]}
-0.03672664240002632,0.00021730974549427629,0.023982640355825424,0.015104463323950768,-0.03535972163081169,0.019489960744976997,-0.010566872544586658,-0.009850419126451015,0.027424033731222153,0.007137187756597996,0.028591040521860123,0.03077801875770092,0.01382213644683361,0.02792428620159626,-0.027894699946045876,0.01590898633003235,-0.000770533224567771,-0.0396655835211277,-0.030479108914732933,-0.011436589993536472,-0.01975104957818985,-0.017157401889562607,-0.03224556893110275,0.00095637037884444,-0.018953312188386917,0.025861214846372604,-0.02144739031791687,0.002596632344648242,0.003433325095102191,0.023044943809509277,0.0232149176299572,-0.015666281804442406,-0.010424361564218998,-0.025818437337875366,0.017189446836709976,0.0036419653333723545,0.03071647696197033,-0.03331070393323898,-0.03659401088953018,0.014122232794761658,-0.008805097080767155,-0.005371197126805782,0.007228847127407789,0.004001634195446968,0.011461070738732815,0.032855015248060226,0.026321295648813248,-0.022011136636137962,0.019754117354750633,0.019139226526021957,-0.021730098873376846,-0.015810100361704826,0.030918102711439133,-0.0265665166079998,0.008198609575629234,-0.02630740776658058,0.028097286820411682,-0.037514593452215195,0.028569431975483894,-0.020347272977232933,0.0010961811058223248,-0.029748236760497093,0.011023107916116714,-0.002281597815454006,-0.015188596211373806,-0.02388438954949379,0.025811882689595222,0.007216982543468475,0.0040522911585867405,-0.04076053947210312,-0.09082169830799103,-0.08646349608898163,-0.010850757360458374,-0.03737220540642738,-0.00732080452144146,0.040753599256277084,0.04207506775856018,0.019893066957592964,0.016694096848368645,0.012158496305346489,-0.03897036984562874,-0.01586734689772129,-0.03835119679570198,0.012901336885988712,-0.01839965581893921,-0.020939040929079056,0.019534727558493614,-0.018062839284539223,-0.015540048480033875,-0.01173311471939087,0.01057475432753563,-0.03193660080432892,0.029819652438163757,0.006411347072571516,-0.03543610870838165,-0.020980101078748703,-0.03576688840985298,-0.010331683792173862,0.015724970027804375,0.02929415926337242,-0.005378215108066797,0.06257684528827667,0.11926645785570145,0.08175058662891388,0.13430964946746826,0.08257794380187988,0.043113067746162415,-0.013847945258021355,0.02200324274599552,-0.00700430478900671,0.025697382166981697,0.015401544980704784,0.027190007269382477,-0.01725863665342331,-0.0013092294102534652,-0.024952176958322525,0.0017527199815958738,-0.00023775870795361698,0.011010892689228058,0.029060475528240204,0.008923704735934734,0.045098043978214264,-0.018039684742689133,0.021148163825273514,0.02561786398291588,-0.028966061770915985,0.006401966791599989,0.014240553602576256,0.010160829871892929,0.02482752315700054,-0.005584342870861292,0.001582325086928904,0.02761879935860634,0.07790841162204742,0.08442511409521103,0.08638082444667816,0.0440841019153595,0.05207046493887901,0.02806631661951542,0.009912615641951561,-0.024809621274471283,0.003143834648653865,-0.028957029804587364,0.02564249001443386,0.0005011033499613404,0.008844075724482536,-0.03224775940179825,-0.011041832156479359,-0.03051835671067238,-0.005536769982427359,-0.04741235449910164,-0.03563663363456726,-0.06718473881483078,-0.04634026065468788,-0.052031151950359344,-0.07350757718086243,-0.06125811114907265,0.023552974686026573,-0.06164950504899025,-0.008197835646569729,0.033461347222328186,0.00310873962007463,0.007596465293318033,0.01926296018064022,0.06958256661891937,0.06327508389949799,-0.010537388734519482,-0.03402728587388992,-0.03387105092406273,0.02032971940934658,0.018761400133371353,-0.01997346058487892,0.023126505315303802,0.024433210492134094,-0.037627484649419785,0.008579886518418789,-0.01401527225971222,-0.07187169790267944,-0.028417596593499184,-0.06254065781831741,-0.060088980942964554,-0.06878567487001419,-0.07563033699989319,-0.022311240434646606,-0.042943160980939865,-0.026822423562407494,-0.05278727039694786,-0.020477762445807457,0.013077902607619762,0.026793668046593666,0.045795563608407974,0.09623526781797409,0.06986639648675919,0.0310128815472126,-0.0033730368595570326,-0.01732916198670864,-0.016832847148180008,0.022113298997282982,0.007746722549200058,-0.006847665645182133,-0.04748489707708359,0.002210737904533744,-0.04841960221529007,-0.0035740730818361044,-0.020008938387036324,0.007502546068280935,0.010279429145157337,0.0456278994679451,-0.04096059128642082,-0.0319233313202858,-0.032357219606637955,0.026127245277166367,0.003744331421330571,-0.03453518822789192,0.026802457869052887,0.005304766818881035,-0.03250904381275177,-0.06376245617866516,0.013376113958656788,0.09373441338539124,0.1331789195537567,0.04605936259031296,0.009960842318832874,0.015397511422634125,0.026300914585590363,-0.03658967837691307,-0.011862806044518948,0.004550350829958916,-0.06138952821493149,0.017508678138256073,0.0028742123395204544,-0.028588898479938507,-0.05268820375204086,-0.04050268605351448,0.003228787798434496,0.012425370514392853,0.03220308944582939,0.02890498749911785,0.00891169160604477,-0.0013332560192793608,0.04547056555747986,-0.012563965283334255,0.04509871453046799,-0.011564263142645359,0.03858888894319534,0.004862671718001366,0.03140471503138542,0.090157650411129,0.18025140464305878,0.03821922838687897,-0.0003759067039936781,-0.005837791599333286,0.027900192886590958,-0.018239891156554222,0.022214548662304878,-0.002505346667021513,0.01900898665189743,0.002193717285990715,0.02555321715772152,-0.026596810668706894,0.011063969694077969,0.0015265131369233131,0.02236367203295231,0.08903922885656357,0.08822641521692276,0.07189168781042099,0.05727251246571541,-0.035650286823511124,0.008331485092639923,-0.005941115785390139,-0.004348530899733305,0.02676185593008995,0.018469609320163727,0.014599033631384373,0.011474523693323135,0.08103936165571213,0.17481693625450134,0.08323781937360764,-0.015212907455861568,0.0009583156788721681,-0.038861263543367386,-0.0366172157227993,-0.025191396474838257,-0.0007917960174381733,0.01007899921387434,-0.0280020572245121,-0.03795177489519119,-0.0072019947692751884,-0.0206755381077528,0.016391733661293983,0.07869040966033936,0.019270744174718857,0.05741508677601814,0.09959910809993744,0.04171979799866676,-0.019500732421875,0.042871251702308655,0.01603410392999649,0.026183277368545532,0.019217628985643387,0.04064948111772537,-0.009269904345273972,0.046678826212882996,0.15322653949260712,0.12866106629371643,0.10575134307146072,0.03092488832771778,0.030903708189725876,0.012218942865729332,-0.014002748765051365,0.010951119475066662,0.028974877670407295,0.028584454208612442,-0.011937137693166733,-0.0037804858293384314,0.02402021549642086,-0.05773594230413437,-0.03685659170150757,-0.010731399990618229,0.027199529111385345,-0.00010957803169731051,0.09449353069067001,0.09937218576669693,0.05017807334661484,0.0737643912434578,0.09284483641386032,0.041534673422575,-0.014958485029637814,-0.014560184441506863,-0.002753515960648656,0.04142807424068451,0.07701191306114197,0.16902481019496918,0.08089525252580643,0.012953267432749271,-0.006117621436715126,-0.013257665559649467,0.020622164011001587,0.002572743222117424,0.023906204849481583,0.043269701302051544,0.021886708214879036,0.0021570869721472263,0.01920362003147602,-0.06756950169801712,-0.0068659293465316296,0.02097257226705551,0.02696456015110016,-0.03082258626818657,0.06771458685398102,0.07385123521089554,0.03839172050356865,0.03681755065917969,0.06977692246437073,0.055717986077070236,-0.01142225880175829,-0.003800433361902833,-0.03246729448437691,0.03402431681752205,0.09406726062297821,0.04518679901957512,-0.0033921822905540466,0.037062548100948334,0.023157089948654175,0.012571372091770172,0.0007732296362519264,0.024105198681354523,0.040593188256025314,0.017837660387158394,0.013966867700219154,0.032996561378240585,-0.04460395500063896,-0.013825222849845886,-0.003767990507185459,0.00103231321554631,0.004770055413246155,0.0015878350241109729,-0.006105609703809023,0.008205963298678398,0.03491715341806412,0.0033883866854012012,0.0003525943320710212,-0.025006726384162903,0.055460214614868164,0.003907406236976385,0.02011089026927948,-0.008194402791559696,0.05019868537783623,-0.01018643006682396,-0.014949863776564598,-0.04040912166237831,-0.03087477944791317,0.012438276782631874,0.004297922365367413,0.010799765586853027,-0.020339392125606537,-0.03721582144498825,0.019057661294937134,0.024109836667776108,-0.05766797438263893,-0.011470619589090347,-0.0007010572589933872,-0.014042274095118046,0.005548454821109772,-0.010469662956893444,-0.020142177119851112,-0.04583258554339409,0.031219739466905594,-0.09084508568048477,-0.06485940515995026,0.010884310118854046,-0.016809184104204178,0.004080435261130333,0.011987214908003807,0.07028094679117203,0.05446898192167282,0.022063545882701874,-0.012840279377996922,-0.01728779263794422,-0.011723392643034458,0.001141072134487331,0.02971685864031315,0.013655752874910831,-0.0451836884021759,0.02034495770931244,0.0628732219338417,0.04326802119612694,0.06063731387257576,0.03397466242313385,-0.032155320048332214,-0.03606858104467392,-0.07572943717241287,-0.04594441503286362,-0.09621774405241013,-0.09934495389461517,-0.0511644147336483,-0.08506590873003006,-0.04394151642918587,0.004399264696985483,0.010531201958656311,0.0030070776119828224,-0.04587158188223839,-0.0004405975923873484,0.09150868654251099,0.043353017419576645,-0.044551290571689606,-0.0235833041369915,0.012710963375866413,0.024961860850453377,-0.0020542212296277285,0.013502038083970547,-0.03851187974214554,-0.0287967287003994,0.05954539403319359,0.043251920491456985,0.040069665759801865,0.06394839286804199,-0.047402143478393555,-0.018309211358428,-0.07255969941616058,-0.0497952364385128,-0.09989377111196518,-0.08035990595817566,-0.08231332153081894,-0.04248503968119621,-0.021331660449504852,-0.032537661492824554,-0.020068448036909103,0.023782329633831978,-0.11976009607315063,-0.02442295290529728,0.03642183542251587,0.004294701851904392,-0.10244256258010864,-0.015162667259573936,-0.004236413165926933,0.0039167082868516445,-0.019071420654654503,-0.019074495881795883,0.012871741317212582,-0.02076702192425728,0.045843739062547684,0.07618171721696854,0.1382361501455307,0.0848255529999733,-0.002644572639837861,-0.011341741308569908,-0.06394971162080765,-0.0459054671227932,-0.10322358459234238,-0.10668687522411346,-0.0314212404191494,0.010833043605089188,0.09939248114824295,0.0017372722504660487,-0.03165192902088165,-0.045829009264707565,-0.06942720711231232,-0.045095160603523254,0.0683979019522667,-0.003594401990994811,-0.1059255376458168,-0.0058457679115235806,0.011533745564520359,-0.015564885921776295,0.01608269102871418,-0.004663760308176279,0.004458004608750343,0.021498778834939003,0.05337391421198845,0.0716380923986435,0.08568419516086578,0.09683927893638611,0.042393043637275696,0.022128749638795853,-0.015094529837369919,-0.05557718127965927,-0.11704656481742859,-0.06032758578658104,0.012696046382188797,0.02305496670305729,0.07729491591453552,0.003181673586368561,0.0006022373563610017,-0.04223483055830002,-0.06638818979263306,-0.028608722612261772,-0.04212166368961334,-0.020240172743797302,-0.08817233145236969,0.019704286009073257,-0.03103945404291153,-0.010353656485676765,0.017939629033207893,-0.002408524276688695,0.0007111300365068018,0.005128639284521341,0.0951373502612114,0.06341388821601868,0.05457698553800583,0.11224482208490372,0.08911009877920151,0.015077817253768444,0.008375420235097408,0.010577643290162086,-0.04169292002916336,-0.04073745757341385,-0.015057461336255074,-0.0009988518431782722,0.04899246618151665,0.021060582250356674,-0.032053541392087936,-0.02829195186495781,-0.07398544996976852,-0.05531005933880806,-0.03459624946117401,0.0014461773680523038,-0.05481322482228279,-0.0533783994615078,-0.003560218960046768,0.004589572083204985,-0.011978504247963428,-0.020488129928708076,-0.013023815117776394,-0.0010185055434703827,0.03674210608005524,0.007767828181385994,0.05855099484324455,0.05109111964702606,0.060139626264572144,0.05842456594109535,0.06636592745780945,0.05150841549038887,-0.009834615513682365,-0.015454480424523354,-0.008906475268304348,-0.01821940392255783,0.04334621876478195,0.03783116117119789,-0.08654416352510452,-0.13070420920848846,-0.15348781645298004,-0.061851147562265396,-0.07951099425554276,-0.04892153665423393,-0.034439198672771454,-0.016554217785596848,-0.002677482319995761,0.00897033791989088,0.029886748641729355,-0.06798727810382843,-0.06553450226783752,-0.08123107254505157,-0.020125169306993484,0.01872294582426548,2.74537960649468e-05,-0.011963864788413048,-0.030258694663643837,0.031806960701942444,0.08053658902645111,0.11534791439771652,0.03158123418688774,0.011496201157569885,0.014686085283756256,-0.00015492223610635847,0.04461546242237091,-0.05639319121837616,-0.10816147178411484,-0.09201744198799133,-0.07462721318006516,-0.10157491266727448,-0.04440575838088989,-0.08486661314964294,-0.0018509679939597845,-0.0206497460603714,-0.017259569838643074,-0.020142633467912674,-0.03842592239379883,-0.0037200229708105326,-0.0444566011428833,-0.06502240151166916,-0.15301178395748138,-0.08463248610496521,-0.027073416858911514,-0.05710134282708168,-0.023192880675196648,0.014896571636199951,0.051136959344148636,0.08322186768054962,0.06530162692070007,0.015463845804333687,0.027957992628216743,0.0338970310986042,-0.05546922609210014,-0.0946660041809082,-0.08892619609832764,-0.12501643598079681,-0.10813537985086441,-0.013448983430862427,-0.050644028931856155,-0.02339567244052887,-0.03700323775410652,0.016107890754938126,0.012953363358974457,-0.02827204205095768,0.0037586193066090345,-0.037103068083524704,-0.011139278300106525,-0.016260558739304543,-0.0387287400662899,-0.11448093503713608,-0.09700389206409454,-0.07630317658185959,-0.08858869969844818,-0.0380091518163681,0.023728573694825172,0.03577404096722603,0.005751235410571098,-0.002916279947385192,-0.0020678993314504623,-0.09731379896402359,-0.08042469620704651,-0.1194271370768547,-0.1190459132194519,-0.12909504771232605,-0.06594531238079071,-0.03771735355257988,-0.0017549979966133833,-0.05224526301026344,0.004454242996871471,0.011163365095853806,-0.02906256727874279,-0.008789880201220512,0.027546189725399017,-0.014782379381358624,-0.021418364718556404,-0.022808080539107323,0.023904433473944664,0.00205320306122303,-0.02893253229558468,-0.005800747778266668,-0.034359000623226166,0.01797669194638729,-0.0036321061197668314,0.10342888534069061,0.08167693018913269,0.05902332812547684,-0.03348947688937187,-0.010882279835641384,-0.07444115728139877,-0.11229254305362701,-0.09582642465829849,-0.02175012230873108,-0.05341261252760887,-0.015314063057303429,-0.0111565962433815,-0.011040790937840939,-0.019177423790097237,-0.00811430811882019,0.02290031686425209,-0.02206369861960411,0.007196520455181599,-0.003843968268483877,-0.03576572239398956,0.009299728088080883,-0.01601410284638405,-0.03742765262722969,0.043187785893678665,0.00789506547152996,0.04605984687805176,0.10553275048732758,0.06085732951760292,0.04591617360711098,0.0446915440261364,-0.0073471968062222,0.05652468651533127,0.0409250408411026,-0.030096156522631645,-0.0012655905447900295,-0.0017624588217586279,-0.016057904809713364,-0.014473817311227322,0.011209157295525074,0.009602364152669907,-0.001600388903170824,-0.02952510304749012,-0.01998172700405121,-0.0026225962210446596,-0.03380940482020378,-0.00606703944504261,0.011831998825073242,0.0005665103672072291,-0.03860760107636452,-0.02889583818614483,-0.006607013754546642,-0.009936722926795483,0.00981911551207304,0.0031064976938068867,0.03828245773911476,0.03497985005378723,0.014139370061457157,0.04327547550201416,-0.005746146664023399,0.02413744293153286,0.0452403724193573,0.028470657765865326,-0.02020837925374508,0.03516773506999016,0.0015644902596250176,0.030630510300397873,0.02665477618575096,0.0037132101133465767,-0.005352843087166548,0.01840561255812645,-0.03192150220274925,0.026333928108215332,-0.02949640154838562,-0.02794232778251171,0.008595047518610954,-0.027336420491337776,-0.01091083511710167,-0.014125708490610123,-0.021204499527812004,0.022549420595169067,-0.02247403934597969,0.009359252639114857,-0.009133193641901016,0.013444269075989723,0.0075647565536201,0.023098578676581383,-0.032935332506895065,-0.029108857735991478,0.022620121017098427,0.027431687340140343,0.02278466895222664,0.020763492211699486,-0.029217977076768875,-0.036022111773490906,-0.009749218821525574,0.0024733326863497496,0.031025556847453117,0.00202016974799335,-0.013246322050690651,-0.004134796094149351,-0.023628024384379387,0.00033271595020778477,0.03551146388053894,-0.006734607275575399,-0.01795201562345028,-0.0011766107054427266,-0.026783352717757225,-0.006582950707525015,-0.01671566069126129,0.029328593984246254,-0.008942315354943275,0.037265922874212265,-0.01885589025914669,0.00846491102129221,-0.025569966062903404,0.0373963825404644,-0.02675183303654194,0.005157968495041132,-0.021940404549241066,-0.022593295201659203,-0.026190703734755516,0.031025545671582222,-0.007365704979747534,0.005587754305452108,0.032495684921741486,-0.023984747007489204,0.03375771641731262,-0.015138247050344944,0.0069126286543905735,0.005894472356885672,-0.007343170698732138,-0.025886865332722664,0.01230748649686575,0.007554022129625082,0.039587732404470444,-0.002836732193827629,-0.0022822259925305843,0.02469564788043499,0.021687114611268044,0.0029071327298879623,-0.026444094255566597,-0.02534555085003376,0.032653577625751495,0.02701498754322529,-0.02225867658853531,0.00675014266744256,0.039397407323122025,0.013320649974048138,0.017445014789700508,-0.006030361633747816,-0.009021149948239326,0.01614825613796711,0.011093758046627045,0.013032968156039715,0.015365163795650005,0.012972798198461533,0.0389169417321682,-0.0023677325807511806,0.015015283599495888,0.010492016561329365,0.0006765761645510793,0.023080656304955482,0.008876589126884937,0.02380620874464512,-0.013765504583716393,0.0002479243266861886,0.01677200198173523,0.03675159439444542,0.029442986473441124,-0.003580445656552911,0.04420752450823784,0.033621251583099365,-0.002074564341455698,0.029605017974972725,-0.0048749628476798534,0.0371842198073864,0.03613189235329628,0.032394442707300186,0.03518836200237274,0.0025642402470111847,-0.0067076007835567,-0.006472873967140913,-0.005243286024779081,0.005289691034704447,0.029489541426301003,0.03165404871106148,-0.022131450474262238,-0.018482189625501633,0.02325729839503765,0.04339320585131645,0.032301243394613266,-0.003805742133408785,0.02543836645781994,0.035964373499155045,0.025021810084581375,-0.013657192699611187,0.010872215032577515,-0.014139399863779545,-0.004854364320635796,0.034222498536109924,0.0007546417764388025,0.0051659345626831055,0.018075287342071533,0.004093163181096315,0.026277823373675346,0.007610712666064501,0.02663702704012394,0.008359813131392002,-0.0019127478590235114,-0.00010978033242281526,0.027060797438025475,0.03460133820772171,0.03598981723189354,-0.013544267974793911,-0.008849868550896645,0.027838630601763725,0.01783692091703415,-0.014360413886606693,0.0306037999689579,-0.012947047129273415,0.03824924677610397,-0.010002258233726025,0.017284024506807327,-0.029364371672272682,0.02567359432578087,-0.031707003712654114,-0.02528882771730423,0.01748352311551571,0.01837410032749176,0.02284151315689087,-0.029660584405064583,-0.007922396995127201,-0.017851799726486206,0.03894082084298134,0.01669040136039257,-0.01724078692495823,-0.011320865713059902,0.006777184549719095,0.026044083759188652,0.0012174813309684396,0.033664628863334656,-0.021542606875300407,0.014381821267306805,0.02153610624372959,-0.01789241097867489,0.020809246227145195,0.01735217124223709,0.01800518110394478,0.005786509718745947,-0.011973163112998009,-0.038643915206193924,-0.0099038640037179,-0.03826997056603432,0.020308705046772957,0.01912234164774418,-0.044446911662817,-0.01784621737897396,0.013834006153047085,0.005113417748361826,-0.02606409229338169,0.02673509158194065,-0.014346335083246231,-0.009531698189675808,0.019404901191592216,0.010891346260905266,0.0443761982023716,0.001959908986464143,0.02399926818907261,0.005909828003495932,0.025402473285794258,0.006204842124134302,-0.014375085011124611,0.023393800482153893,0.02625838667154312,0.02277376502752304,0.03361997753381729,0.002808548975735903,0.006151339039206505,0.007731141522526741,0.010535811074078083,-0.029657607898116112,0.0003574470174498856,0.01915138214826584,-0.031247347593307495,0.023439886048436165,0.01565181463956833,0.008264835923910141,0.02216762863099575,0.020864322781562805,-0.02155819907784462,-0.0076912459917366505,0.02688463404774666,-0.005731061566621065,0.015420977026224136,0.04422135278582573,0.018225114792585373,0.0441824309527874,0.008422774262726307,0.03833331540226936,0.040104541927576065,0.023887639865279198,0.02689383551478386,0.0017310018884018064,0.016325920820236206,-0.012019820511341095,0.030927663668990135,-0.01667981781065464,0.0033433556091040373,0.022337812930345535,0.009911738336086273,-0.04389730095863342,0.015082920901477337,-0.04369179531931877,-0.03311581537127495,-0.009586614556610584,-0.00567526975646615,-0.04230857640504837,-0.0174784567207098,0.01039362233132124,0.03401060402393341,0.022824618965387344,0.018908614292740822,-0.015610677190124989,-0.005395847838371992,-0.01797569915652275,0.02822280488908291,0.031337905675172806,0.043986719101667404,0.04071136191487312,0.009475248865783215,-0.02545708604156971,-0.02462448738515377,-0.0008969675400294363,-0.02889443375170231,-0.018772605806589127,-0.0433630645275116,-0.021068615838885307,0.012800664640963078,-0.0011350892018526793,-0.0016773596871644258,-0.015071939677000046,-0.030137406662106514,-0.03468630462884903,0.019905660301446915,0.004543346352875233,0.010383357293903828,0.005825832020491362,0.033362168818712234,0.029139356687664986,0.007028880063444376,0.03797227516770363,0.018557101488113403,-0.006976516451686621,0.02590346150100231,0.028673307970166206,-0.0114615298807621,0.030120722949504852,0.0290591511875391,0.021012069657444954,-0.026852641254663467,0.028085773810744286,-0.013158428482711315,-0.01040568295866251,-0.037228479981422424,-0.015914440155029297,-0.02125401422381401,-0.03289328143000603,-0.04082653671503067,-0.001965870847925544,0.015867846086621284,0.028331128880381584,-0.012046310119330883,0.015086652711033821,-0.017773499712347984,0.005014791153371334,-0.015029019676148891,0.018829861655831337,0.027423640713095665,-0.015072387643158436,0.005929080303758383,0.004372904542833567,0.03249877318739891,0.038856904953718185,-0.012054452672600746,0.01709132082760334,0.03660755231976509,0.02071891352534294,-0.021112335845828056,0.02605242282152176,-0.04397992044687271,0.01128651574254036,-0.012385348789393902,0.006535792723298073,-0.03922045975923538,0.029342548921704292,-0.026148106902837753,-0.01788533478975296,0.020058967173099518,0.008158192969858646,-0.02813669852912426,-0.026493970304727554,-0.002257151296362281,-0.039457712322473526,0.02912512980401516,0.017904605716466904,0.007694700267165899,-0.021031944081187248,-0.024607887491583824,0.0216341745108366,-0.009926902130246162,0.020064333453774452,0.016961846500635147,0.0463743694126606,-0.002849324606359005,-0.025677956640720367,0.04145350307226181,-0.023454686626791954,0.006281366106122732,-0.004092128947377205,-0.014501849189400673,-0.028996029868721962,-0.02029646746814251,-0.033155426383018494,-0.023487824946641922,-0.04093074053525925,0.01207370962947607,-0.014469573274254799,0.01612141728401184,0.006866720970720053,-0.00015756247739773244,-0.006461203098297119,-0.024321267381310463,-0.021431904286146164,0.011687647551298141,0.03072422556579113,0.024059223011136055,0.017005549743771553,0.03554770350456238,0.0034424075856804848,0.031577300280332565,0.013806363567709923,0.042806968092918396,0.005142813548445702,0.009945280849933624,0.02469993196427822,-0.032762568444013596,-0.04041603207588196,0.03343291953206062,-0.03358292579650879,-0.003742650616914034,-0.008194916881620884,-0.03839341551065445,-0.03314723074436188,-0.002102490048855543,-0.018989572301506996,0.004312858916819096,-0.03023134358227253,-0.014874283224344254,-0.03909863904118538,-0.02475723996758461,0.004884918686002493,-0.01741485856473446,-0.021452315151691437,0.006027447525411844,-0.013446553610265255,0.020353736355900764,-0.01860717497766018,-0.017907969653606415,-0.0034487005323171616,0.012521876022219658,0.005749824456870556,0.016237173229455948,0.03303249552845955,0.011357753537595272,-0.020352251827716827,-0.014909258112311363,-0.02908131666481495,0.007313224487006664,-0.04075831174850464,-0.019528979435563087,-0.033200375735759735,-0.02432592213153839,-0.00915345549583435,0.02529509924352169,0.01957538351416588,0.010257775895297527,-0.01317194476723671,-0.008497370406985283,0.011830315925180912,0.03281508758664131,0.0028117357287555933,-0.026218412443995476,0.03601890429854393,0.041797082871198654,-0.015273642726242542,0.012259545736014843,-0.009226961061358452,0.03088202327489853,0.004026914481073618,0.003713316051289439,-0.0014793869340792298,0.012431923300027847,-0.008715569972991943,-0.03467368707060814,0.019947919994592667,0.018602263182401657,0.020056497305631638,0.00021547169308178127,-0.015116791240870953,0.019709095358848572,-0.030215417966246605,0.0009246683912351727,0.013733072206377983,-0.028937581926584244,0.02096245251595974,0.043885234743356705,0.03473268821835518,0.003393783699721098,0.02227620594203472,0.0016067293472588062,-0.011452648788690567,0.0034992890432476997,-0.015098066069185734,0.008377738296985626,0.02040584199130535,0.0017377345357090235,-0.016758155077695847,0.026325570419430733,0.030342115089297295,0.006924725603312254,0.00778751028701663,0.00571732223033905,0.026558127254247665,-2.4719924113014713e-05,-0.020108340308070183,-0.040111642330884933,-0.013006875291466713,-0.040241144597530365,0.001974275801330805,-0.015506340190768242,0.02556694485247135,-0.019053170457482338,-0.016195064410567284,-0.0037661332171410322,0.011926415376365185,-0.01141313835978508,0.01961667649447918,-0.025616122409701347,-0.0031218603253364563,0.019722921773791313,0.014034493826329708,-0.007210200652480125,0.03654436767101288,-0.01176576316356659,-0.04078853502869606,0.02039404958486557,-0.024166271090507507,0.007455420680344105,-0.030295560136437416,0.015679869800806046,0.025668436661362648,-0.013875115662813187,-0.008517877198755741,-0.01872638799250126,0.015862153843045235,-0.010794287547469139,-0.029608162119984627,0.015579355880618095,0.003548226086422801,-0.002296731574460864,0.029603222385048866,-0.02038762718439102,-0.003583087120205164,0.014494194649159908,0.013181856833398342,-0.01495928131043911,0.035551752895116806,0.003013709792867303,0.02333029918372631,0.041718240827322006,0.018491540104150772,-0.03145347163081169,-0.040886085480451584,-0.023927221074700356,-0.037643350660800934,-0.020554987713694572,-0.029748711735010147,-0.025636116042733192,-0.010315675288438797,-0.006351721938699484,-0.018301470205187798,0.0025468033272773027,-0.011838799342513084,-0.0268231350928545,0.013786092400550842,-0.012968426570296288,-0.022558802738785744,0.0018659974448382854,-0.028358442708849907,0.038260091096162796,0.01738905720412731,0.00950702279806137,-0.017124800011515617,0.016384227201342583,-0.021651150658726692,-0.013373258523643017,0.0127900131046772,0.03236456215381622,0.017570212483406067,-0.007461279630661011,-0.03222501650452614,-0.03611503541469574,0.005022738594561815,-0.0389234684407711,0.001700566615909338,-0.02571396343410015,0.010346520692110062,-0.0035599065013229847,-0.02801569178700447,-0.021993504837155342,-0.005380709655582905,0.010320320725440979,0.009623941965401173,0.002993381582200527,0.023518500849604607,-0.006384809967130423,0.003367057768628001,0.041059572249650955,0.040738921612501144,-0.020242199301719666,0.031502265483140945,-0.02085525542497635,0.026824211701750755,0.018872221931815147,0.00972462072968483,0.009790998883545399,-0.034018706530332565,-0.022398384287953377,-0.002403288148343563,-0.0007923243683762848,-0.009524823166429996,-0.0008021792164072394,-0.016842467710375786,0.006230945233255625,-0.010032926686108112,0.0035799527540802956,-0.03652976453304291,0.011805875226855278,0.008894328959286213,0.021906953305006027,-0.002474004402756691,-0.012541779316961765,-0.00721697136759758,0.010393097065389156,0.003116490552201867,-0.009734594263136387,0.025079889222979546,-0.0025041825138032436,0.023094115778803825,-0.02516409195959568,-0.010346796363592148,0.01824202761054039,0.015439941547811031,0.019615208730101585,-0.008964483626186848,-0.00896886084228754,0.024324771016836166,-0.031065750867128372,-0.04070400819182396,0.012419582344591618,-0.0006197363836690784,-0.031477414071559906,-0.008114941418170929,0.01985441893339157,-0.011899709701538086,0.006936413235962391,0.008449094370007515,0.004304234869778156,-0.0422496497631073,-0.029268385842442513,0.03596716746687889,0.009761783294379711,-0.01876322366297245,0.002498753136023879,0.0033069399651139975,0.037578318268060684,-0.015177304856479168,-0.0003479227889329195,-0.00574462441727519,0.04397528991103172,0.005900190677493811,-0.01792808622121811,0.004244055133312941,-0.0068173157051205635,-0.011589448899030685,-0.009403941221535206,-0.04396330565214157,-0.03949869051575661,0.00600676191970706,-0.005710800178349018,0.001078532892279327,-0.03681136667728424,-0.0005711769335903227,-0.03199348598718643,0.01500993687659502,0.01976393721997738,0.014011542312800884,-0.026874981820583344,0.00717150466516614,0.025949226692318916,-0.013465656898915768,0.01139058917760849,0.03129952773451805,0.037505488842725754,0.03749037906527519,0.012526754289865494,-0.00011211795208510011,0.02753397263586521,-0.01575513184070587,-0.024603869765996933,0.029652290046215057,-0.04407436400651932,-0.0027961598243564367,-0.020971259102225304,-0.020833751186728477,-0.03837575763463974,0.019399084150791168,0.012882387265563011,-0.013220514170825481,-0.005668557249009609,0.01906643807888031,-0.008814128115773201,0.023468825966119766,-0.011511247605085373,0.005389627534896135,0.021070022135972977,0.04093282297253609,-0.0055607338435947895,-0.022954430431127548,0.0029645285103470087,-0.008342329412698746,0.001269971253350377,0.004161047283560038,0.017015544697642326,0.030452603474259377,0.029468292370438576,-0.011747918091714382,0.04304337874054909,-0.013918627984821796,-0.01036799419671297,-0.004735277965664864,-0.03981434553861618,-0.000874211429618299,0.02167416177690029,-0.01327811274677515,0.019885672256350517,-0.03998862951993942,0.003934151493012905,-0.005998099222779274,-0.04058966413140297,0.011399506591260433,-0.017200808972120285,-0.011416751891374588,-0.022939585149288177,-0.00817989930510521,0.026544585824012756,-0.0022745514288544655,0.021417981013655663,0.034817617386579514,-0.01626496948301792,0.008539066649973392,-0.016972122713923454,0.040929023176431656,0.0037735067307949066,-0.020696084946393967,0.039496343582868576,0.03110201098024845,-0.0022219654638320208,0.039414312690496445,-0.0012702327221632004,-0.025351958349347115,-0.017018185928463936,-0.017384247854351997,-0.01700940914452076,-0.021900279447436333,-0.011073059402406216,0.007301370147615671,-0.02490568719804287,0.022869281470775604,-0.011860101483762264,0.03751794621348381,0.040376774966716766,0.04261797294020653,0.035573963075876236,-0.026938585564494133,0.004378230776637793,-0.0020731037948280573,0.02936735562980175,0.03621280565857887,0.010968111455440521,0.041723575443029404,0.013284820131957531,0.022743815556168556,0.03437969088554382,-0.00757218012586236,0.024220334365963936,0.023495281115174294,-0.013149748556315899,0.04417114332318306,0.020618537440896034,0.04416792467236519,0.04318318888545036,-0.025210460647940636,0.018822254613041878,0.0066599734127521515,-0.013091822154819965,0.03598645329475403,-0.02539113536477089,0.024149766191840172,0.019711824133992195,0.03620113432407379,-0.008366591297090054,0.021351126953959465,0.04155239835381508,0.03564904257655144,0.007402237970381975,-0.026490045711398125,0.015583229251205921,-0.00968843325972557,0.0012613546568900347,-0.02572767622768879,0.03681239113211632,-0.009981423616409302,-0.02510395459830761,0.025859804823994637,0.04410865530371666,-0.0018874568631872535,0.006469985004514456,0.02832864783704281,0.008785207755863667,-0.001694682752713561,0.031757693737745285,-0.009911712259054184,0.030457062646746635,0.010609304532408714,0.03092937357723713,0.005850204732269049,0.041657816618680954,-0.017581775784492493,0.0436900295317173,-0.008254791609942913,0.0032619594130665064,0.029868727549910545,0.024158714339137077,-0.014672212302684784,0.03932252153754234,-0.011351168155670166,-0.009770207107067108,0.023078611120581627,0.015609053894877434,0.02441621758043766,0.03182293102145195,-0.001664688577875495,0.020211966708302498,0.003102440619841218,0.010897652246057987,-0.019101252779364586,-0.018545961007475853,0.03752810135483742,0.01930796541273594,-0.002025834284722805,0.007590448949486017,0.010309373028576374,0.0359625481069088,-0.008870130404829979,-0.0035910981241613626,0.011033204384148121,0.036982107907533646,0.005252318922430277,0.004706201609224081,-0.01224675215780735,0.022356165573000908,0.04344474896788597,-0.008248883299529552,0.02581549435853958,-0.0033982580062001944,-0.0010343174217268825,0.009621583856642246,-0.02895388752222061,0.010038199834525585,0.025866258889436722,-0.014287048019468784,0.007420278619974852,0.0154852494597435,-0.0349402129650116,0.0274671483784914,0.01901748590171337,-0.015919623896479607,0.00655335932970047,-0.027507591992616653,-0.011821704916656017,-0.01033646147698164,-0.03670864924788475,-0.02530057355761528,0.0025769697967916727,0.025245800614356995,-0.022318251430988312,-0.01629498042166233,-0.02165937051177025,0.023379869759082794,-0.00984400324523449,-0.01770290918648243,-0.038487132638692856,0.008948990143835545,-0.028948266059160233,-0.03248303756117821,0.02377607300877571,0.0018757740035653114,-0.01564759761095047,-0.030628211796283722,0.007824869826436043,-0.020782707259058952,-0.03005196526646614,-0.03207877278327942,0.026897059753537178,-0.004319166764616966,0.001529355300590396,-0.006926373578608036,0.007868068292737007,-0.02881236933171749,-0.03529444336891174,0.025998178869485855,-0.02906733565032482,0.01242123544216156,0.026089366525411606,-0.018616734072566032,0.02648776024580002,0.0017238283762708306,-0.017709748819470406,-0.031012944877147675,-0.03097081184387207,-0.022408276796340942,-0.029429638758301735,0.023109516128897667,-0.006055048201233149,-0.020246557891368866,0.01831580325961113,0.0012106818612664938,-0.036302484571933746,-0.007023823447525501,-0.04378613829612732,-0.02395128458738327,0.029997002333402634,0.013340760953724384,-0.011462238617241383,-0.04862136021256447,0.00973453838378191,-0.04063788056373596,-0.03806574270129204,-0.03418821096420288,-0.04162963479757309,0.00913264136761427,0.014059949666261673,-0.016281234100461006,-0.03010837361216545,-0.02806307189166546,-0.01709764078259468,0.02350728213787079,-0.02860824391245842,-0.022533509880304337,0.013238628394901752,0.010529344901442528,-0.0009384376462548971,0.009561038576066494,0.012797892093658447,0.009455297142267227,-0.019499650225043297,0.001212050672620535,0.029099227860569954,0.05168735608458519,-0.019861048087477684,-0.023100346326828003,-0.004769989289343357,-0.004462380427867174,0.008381503634154797,-0.005807809066027403,-0.024357005953788757,-0.02041216753423214,-0.05370016023516655,-0.007883911952376366,-0.003557333955541253,0.03249988704919815,-0.0036492443177849054,-0.01685001514852047,0.007026036269962788,-0.02982202172279358,-0.02924211695790291,0.003168791299685836,-0.002357570920139551,-0.018178964033722878,0.024787627160549164,-0.03358585759997368,0.01179457176476717,0.024762053042650223,0.01542802806943655,0.01810905523598194,0.042970143258571625,0.009545163251459599,0.04154546558856964,0.07462657243013382,0.011109063401818275,-0.03370312601327896,0.010787463746964931,0.01905287429690361,-0.02763877436518669,0.01860509254038334,0.009797896258533001,0.01325220987200737,-0.024078944697976112,-0.06563840061426163,-0.05726965516805649,-0.005077715031802654,-0.03625471144914627,0.021320689469575882,-0.03291882574558258,0.017811667174100876,0.005398253444582224,-0.024183880537748337,0.030018946155905724,-0.037260834127664566,-0.021610531955957413,-0.023222582414746284,-0.025914357975125313,-0.015519428066909313,0.04344673827290535,-0.047814078629016876,-0.04675212875008583,-0.026814237236976624,0.044417642056941986,0.027546314522624016,-0.004923761822283268,0.053818970918655396,-0.003355280729010701,0.06876843422651291,-0.006553138140588999,0.034703824669122696,0.014182908460497856,0.02752019837498665,-0.035012781620025635,0.008009860292077065,-0.03324289619922638,-0.02260042168200016,0.011915243230760098,0.016382580623030663,-0.017189616337418556,-0.016069959849119186,-0.0006845113239251077,-0.04207877442240715,-0.011715611442923546,-0.0011374438181519508,-0.03336750343441963,0.02125484310090542,0.015695033594965935,-0.027789846062660217,-0.06686490774154663,-0.04751830920577049,-0.04808135703206062,-0.05080395191907883,-0.051912352442741394,-0.03686434030532837,-0.11077462881803513,-0.08903012424707413,-0.06558514386415482,-0.0593673437833786,0.036873072385787964,0.032029446214437485,-0.04365224391222,-0.0034804376773536205,-0.04310286417603493,-0.0003360234259162098,0.005636289250105619,0.015212120488286018,-0.015156544744968414,-0.039750177413225174,0.06654854118824005,0.04353102669119835,-0.006450017914175987,0.025096431374549866,0.010205516591668129,0.02450484037399292,0.02770909294486046,-0.00040501190233044326,-0.07235116511583328,-0.020167246460914612,-0.09953320771455765,-0.026833876967430115,-0.016009658575057983,-0.048025358468294144,-0.07443048059940338,-0.04425906762480736,-0.08273255825042725,-0.07993482798337936,0.023618265986442566,0.02990618348121643,-0.025941582396626472,-0.04939030483365059,-0.010398413054645061,-0.02833155356347561,0.0016567487036809325,0.014793181791901588,-0.006951230578124523,-0.03112005442380905,0.002478834241628647,0.03210161253809929,0.02367672510445118,-0.0226081945002079,0.0067915297113358974,0.015520707704126835,-0.015020966529846191,-0.05006304755806923,0.0005983512382954359,-0.01604798249900341,-0.013011915609240532,-0.018447870388627052,0.006298410706222057,0.025499174371361732,-0.046442948281764984,-0.04731959104537964,-0.06604641675949097,-0.061062850058078766,-0.04423212260007858,-0.08033844828605652,-0.059216465801000595,-0.034640416502952576,-0.029912365600466728,-0.0023564654402434826,0.006098889745771885,0.016900433227419853,-0.023340677842497826,-0.027075760066509247,0.016735607758164406,0.012177935801446438,0.012314841151237488,0.0069584655575454235,-0.009177223779261112,0.00042002418194897473,-0.08003352582454681,-0.021821243688464165,-0.028679216280579567,0.0003003738820552826,-0.056704577058553696,0.030283791944384575,0.029006309807300568,0.04461241513490677,-0.026039747521281242,0.0012768353335559368,0.017570603638887405,0.016675161197781563,-0.09068994969129562,-0.02040703035891056,-0.06329093873500824,-0.030304908752441406,-0.060001544654369354,-0.006516559980809689,0.0005325706442818046,-0.006806657649576664,-0.05021854117512703,0.002614957746118307,-0.021427836269140244,-0.01019697729498148,0.01781517267227173,0.01052894163876772,0.007355696987360716,-0.013629849068820477,-0.033733997493982315,-0.006429433822631836,0.005315849557518959,-0.041021257638931274,-0.06702810525894165,-0.026304105296730995,0.0017175355460494757,0.08705033361911774,-0.019611136987805367,-0.036763276904821396,-0.03092774748802185,-0.07256181538105011,-0.03069435805082321,-0.028719952329993248,-0.040179572999477386,-0.1081019937992096,-0.006941767875105143,-0.038900699466466904,-0.015103930607438087,-0.009288344532251358,-0.030362462624907494,-0.03664550930261612,-0.017968589439988136,-0.00744965486228466,0.06351238489151001,0.05883776769042015,-0.02579084411263466,-0.0034902053885161877,0.006275880616158247,0.02331189066171646,0.012212869711220264,-0.03980569913983345,-0.1274571716785431,-0.0620272234082222,-0.017914168536663055,0.012038340792059898,0.009794729761779308,0.017995493486523628,-0.020952343940734863,-0.009848563931882381,-0.046133968979120255,-0.025133974850177765,0.015889961272478104,-0.027442503720521927,0.002867753617465496,-0.01580677554011345,0.019839873537421227,-0.04336823895573616,0.002240869216620922,-0.05865725874900818,-0.016842467710375786,-0.015932392328977585,0.03182252496480942,0.05044399946928024,-0.0028393350075930357,-0.01123111043125391,0.03488586097955704,0.0003204288659617305,0.03834235295653343,0.017382491379976273,-0.08132003247737885,-0.10215922445058823,-0.0006782447453588247,-0.04428596422076225,-0.021903585642576218,0.06704097241163254,0.05302918702363968,0.04109816625714302,0.025670533999800682,-0.0019420168828219175,0.12198114395141602,-0.010201404802501202,0.0026289415545761585,-0.020363708958029747,0.025692779570817947,-0.025245215743780136,-0.013078209012746811,-0.036134880036115646,-0.03530262038111687,0.02894529514014721,0.06708814948797226,0.059807825833559036,0.05438670516014099,0.020025139674544334,0.018244383856654167,0.05810225382447243,0.0874083861708641,0.01872958429157734,-0.06076204404234886,-0.025653081014752388,-0.06119242683053017,0.00383578147739172,0.05023188889026642,0.03384023159742355,0.02217334881424904,0.04206620901823044,0.10550018399953842,0.08180945366621017,0.07284824550151825,0.02203204669058323,0.006860256195068359,-0.020290160551667213,-0.023523695766925812,-0.007981113158166409,-0.007055547088384628,0.01742042601108551,0.028501790016889572,0.09268809854984283,0.08471094816923141,0.047595154494047165,0.07782398909330368,0.020757298916578293,-0.004856330808252096,0.059033144265413284,0.05762810632586479,0.05051492527127266,0.018705913797020912,-0.01172563061118126,-0.011729320511221886,-0.018110360950231552,-0.029692746698856354,-0.006691463757306337,-0.00905029010027647,0.0587238110601902,0.0601360946893692,0.050187814980745316,0.0436299592256546,0.023217566311359406,-0.03323992341756821,-0.02920457348227501,0.025925345718860626,-0.008266418240964413,-0.014295391738414764,0.0002594680117908865,-0.006568285636603832,0.0287369042634964,0.0429907850921154,0.08799082040786743,0.05635818839073181,0.048303648829460144,0.040414467453956604,0.009803473949432373,0.043112702667713165,0.07329558581113815,0.019188297912478447,0.043474938720464706,-0.005067787133157253,-0.03187871724367142,-0.04686601087450981,0.029997840523719788,0.013720810413360596,-0.03330499678850174,0.0725085660815239,0.046459224075078964,0.08884339034557343,0.05451672151684761,0.018147790804505348,-0.015382157638669014,-0.012706403620541096,-0.03136469051241875,0.023165307939052582,0.0009273865143768489,-0.012225654907524586,-0.0020581071730703115,0.02583909220993519,0.057585638016462326,0.03368118777871132,0.019853129982948303,0.014345644041895866,0.015458637848496437,0.09724381566047668,0.036803457885980606,0.09412471950054169,0.08645926415920258,0.037245284765958786,0.024450045078992844,-0.031026771292090416,0.00909244455397129,0.030548812821507454,0.009238142520189285,0.07886958867311478,0.09644794464111328,0.05849624425172806,0.07740232348442078,0.019029373303055763,-0.003758094273507595,-0.033944834023714066,0.0194185059517622,0.019752955064177513,0.017373528331518173,0.052243832498788834,0.0272474717348814,-0.006320747546851635,0.02392839826643467,-0.006914389319717884,-0.013120412826538086,0.04697949439287186,0.01624985784292221,0.0770648643374443,0.0995040088891983,0.06600593775510788,0.022100301459431648,0.03810364380478859,-0.019572550430893898,0.030144890770316124,0.008283786475658417,-0.004568722564727068,0.09541632980108261,0.04605117067694664,0.0554785393178463,0.04635920003056526,0.0167185440659523,-0.006046042777597904,-0.03558740019798279,-0.010827402584254742,0.0039984299801290035,-0.010621199384331703,0.048917002975940704,0.04420170187950134,0.024527011439204216,-0.04972071200609207,0.015923116356134415,0.000340724567649886,-0.0007618258823640645,-0.02030610479414463,0.02432788722217083,0.061449725180864334,0.052113667130470276,0.056758005172014236,-0.016321001574397087,-0.015044261701405048,-0.07200909405946732,0.015472842380404472,0.010243179276585579,0.02738656848669052,0.05447375774383545,0.03624821454286575,0.12137551605701447,0.008169065229594707,-0.018893131986260414,-0.042250681668519974,-0.012006041593849659,0.021192409098148346,-0.029338166117668152,-0.034853458404541016,0.008529786951839924,0.06296468526124954,-0.013687978498637676,0.0049377987161278725,0.04174782708287239,-0.0322670117020607,0.003597563598304987,0.049412164837121964,0.05828997120261192,0.03108889050781727,0.03228679299354553,0.03537930175662041,0.0005641109310090542,0.02088441140949726,-0.0019833119586110115,0.023582039400935173,-0.030224209651350975,0.041396331042051315,0.07644962519407272,0.09989777952432632,0.05226299166679382,-0.044542185962200165,-0.015663687139749527,-0.03031424805521965,-0.02848348766565323,-0.03550880029797554,0.018535982817411423,-0.017932681366801262,0.052555568516254425,0.028106003999710083,-0.00414573447778821,-0.009687814861536026,-0.004011496901512146,-0.03700701519846916,0.03280254080891609,0.043674495071172714,0.06816481798887253,0.0508727990090847,-0.006145112216472626,-0.011578314006328583,0.028479574248194695,-0.026553882285952568,0.026077063754200935,0.08515562862157822,0.01318229641765356,0.07472332566976547,0.10731121897697449,0.06642905622720718,-0.013680864125490189,-0.04272180050611496,-0.06171569228172302,0.023176532238721848,0.024228477850556374,-0.023474160581827164,-0.01820335164666176,-0.011421171016991138,-0.0012343975249677896,0.030611291527748108,-0.008116567507386208,-0.0049946000799536705,-0.010634292848408222,0.019640514627099037,0.014149549417197704,-0.01482660323381424,0.06848404556512833,0.02831793949007988,0.039167746901512146,-0.017741777002811432,-0.03328290954232216,0.0028530776035040617,0.00960147101432085,0.01477089524269104,0.03416356071829796,0.024487972259521484,0.0016539013013243675,0.07962352782487869,5.407660501077771e-05,-0.04414524883031845,-0.0311159435659647,0.01686762645840645,0.015359075739979744,-0.021761633455753326,0.0007427430246025324,0.02385321445763111,0.026909727603197098,0.0483887642621994,-0.0070512262172997,-0.023455951362848282,-0.006689196918159723,0.004543390590697527,-0.001133618294261396,0.035867832601070404,0.01360715739428997,-0.021126460283994675,0.0499604269862175,-0.010892154648900032,-0.030778711661696434,0.0031017973087728024,0.04888557642698288,0.05720079690217972,0.09633787721395493,0.010511810891330242,0.08045193552970886,0.02613885886967182,0.009105108678340912,-0.009354883804917336,-0.033409036695957184,-0.005201258230954409,-0.019306901842355728,0.013681014068424702,-0.0008099281112663448,0.010005387477576733,-0.004761535208672285,-0.01577017456293106,-0.06656710803508759,-0.08712057769298553,-0.10228357464075089,-0.0015204272931441665,0.002281996188685298,0.04713033512234688,-0.0001756632118485868,0.008960357867181301,0.02710777521133423,0.02218615449965,0.02189105749130249,0.03703102469444275,0.03782867640256882,0.07974935322999954,0.05751947686076164,0.006748230196535587,0.04548092558979988,-0.019843492656946182,-0.004251442849636078,-0.04563041776418686,-0.014422640204429626,-0.020638711750507355,-0.029242578893899918,-0.040407102555036545,0.0046777185052633286,-0.0050255595706403255,0.018308499827980995,-0.03085295669734478,-0.07601256668567657,-0.1390414535999298,-0.14558251202106476,-0.07466959208250046,-0.046183038502931595,-0.08554233610630035,-0.057251062244176865,-0.0073836203664541245,0.03033595159649849,0.00036846636794507504,-0.006417193915694952,0.03144868463277817,0.013138548471033573,0.039730966091156006,-0.035821687430143356,-0.025406142696738243,-0.03232775256037712,-0.02267453633248806,-0.016552584245800972,-0.03942574933171272,-0.012808002531528473,-0.016474511474370956,0.0029964258428663015,0.021226555109024048,-0.03016139194369316,0.01573115773499012,-0.03032860718667507,-0.04019312188029289,-0.036196015775203705,-0.09649379551410675,-0.12068505585193634,-0.13503511250019073,-0.13411059975624084,-0.16471518576145172,-0.10927148163318634,-0.144996777176857,-0.1442568153142929,-0.10044749826192856,-0.0301157608628273,-0.06995024532079697,-0.0343603789806366,-0.02766118012368679,-0.08457045257091522,-0.0954558327794075,-0.12009713053703308,-0.06864869594573975,-0.025063470005989075,-0.032131582498550415,-0.0013230073964223266,-0.033348895609378815,0.021182991564273834,-0.002896843245252967,0.01198591385036707,-0.0007429767283611,0.013636945746839046,-0.0024621940683573484,0.01673555001616478,-0.02400898188352585,-0.057711485773324966,-0.054053060710430145,-0.12026681751012802,-0.11793791502714157,-0.08564406633377075,-0.1208333745598793,-0.16155458986759186,-0.17188088595867157,-0.1466745287179947,-0.08802647143602371,-0.10066381841897964,-0.06923846155405045,-0.11716508865356445,-0.0918896421790123,-0.040800563991069794,-0.015278222970664501,0.013020404614508152,-0.024718135595321655,0.02577720209956169,-0.04304572567343712,-0.013882574625313282,0.018124688416719437,0.026458553969860077,0.0238945409655571,0.005726091098040342,0.026038633659482002,-0.012335357256233692,-0.012218686752021313,-0.04638618230819702,0.010731733404099941,-0.006698690354824066,-0.015612374991178513,-0.037061907351017,-0.036733049899339676,-0.04093651846051216,-0.05053311586380005,-0.03887244313955307,-0.0028008567169308662,-0.028621239587664604,-0.03426683694124222,-0.026387488469481468,-0.020542457699775696,-0.04050905257463455,-0.024649498984217644,-0.04113594442605972,-0.022101785987615585,-0.01961929351091385,-0.030494702979922295,-0.03601471707224846,0.007772986311465502,-0.03459186106920242,0.009323145262897015,0.009328714571893215,-0.0474189892411232,-0.028994278982281685,0.020111938938498497,-0.03361741453409195,-0.033368438482284546,-0.03672260791063309,-0.02342638559639454,-0.026465190574526787,-0.030392548069357872,-0.03932633250951767,-0.01775953732430935,-0.03303573280572891,-0.025665847584605217,-0.0262515377253294,0.02048943005502224,-0.02232186682522297,-0.010409543290734291,-0.022608717903494835,0.006885223556309938,0.016921380534768105,-0.02902963198721409,-0.015605421736836433,0.014988318085670471,-0.03492153435945511,0.0043032532557845116,0.020930470898747444,-0.04761236160993576,-0.0006216071778908372,-0.021462896838784218,0.01506035402417183,-0.0023802004288882017,-0.04236927255988121,-0.0191781148314476,-0.0447978600859642,-0.02637258917093277,-0.012935428880155087,0.00017835941980592906,-0.030831092968583107,-0.03947516903281212,-0.0015799739630892873,0.013497019186615944,-0.04591979458928108,0.0007623039418831468,0.014802917838096619,-0.0008353806915692985,-0.010157241486012936,0.003555080620571971,-0.01658824272453785,-0.04284955561161041,-0.027698004618287086,-0.011741324327886105,-0.04430215805768967,0.007535556796938181,-0.0018979748710989952,0.013127644546329975,-0.004403724335134029,-0.04604856297373772,-0.04885575920343399,0.013309149071574211,0.0008871789323166013,-0.01091557927429676,-0.038734450936317444,-0.030648820102214813,-0.02491966262459755,0.010792865417897701,-0.012625370174646378,-0.03062046319246292,-0.04605884477496147,-0.0021665559615939856,-0.03681290149688721,-0.04924928396940231,-0.004616520833224058,-0.02008451521396637,-0.024113262072205544,-0.007842008024454117,-0.025946171954274178,-0.04892411455512047,-0.0008100079721771181,-0.01838611625134945,0.019613483920693398,-0.005307424813508987,-0.0184482354670763,0.009801661595702171,-0.04690883308649063,-0.024811148643493652,-0.021028971299529076,0.00750237749889493,0.033880725502967834,0.005758192855864763,0.009553159587085247,-0.015500123612582684,0.01586352288722992,0.08340422809123993,0.0800970271229744,0.028922228142619133,-0.034908268600702286,-0.08703926205635071,5.64950896659866e-05,0.002236667089164257,-0.01806112937629223,-0.008299819193780422,-0.05915694311261177,-0.0528683178126812,-0.019327454268932343,-0.04077441617846489,-0.04245900362730026,-0.004588065668940544,0.0019456013105809689,-0.04348432272672653,-0.005649523343890905,-0.04645359143614769,-0.0095719238743186,0.0186030101031065,-0.009699135087430477,0.037674430757761,0.057757072150707245,0.053813155740499496,0.046906325966119766,0.050055649131536484,0.1194530576467514,0.045670147985219955,0.019759152084589005,-0.018777580931782722,0.01800769940018654,-0.0583864226937294,-0.015452171675860882,-0.0011038754601031542,-0.004626648500561714,-0.07987052947282791,-0.04158822447061539,0.018458548933267593,-0.031253665685653687,-0.04797801002860069,-0.032663922756910324,5.307377432473004e-05,0.004889322444796562,0.011722262017428875,-0.026936108246445656,-0.015059477649629116,-0.0033208304084837437,-0.029740195721387863,0.04912334308028221,0.024019015952944756,0.08967491239309311,0.056842006742954254,0.07386677712202072,0.12970618903636932,0.06084303930401802,0.08343516290187836,0.05492326617240906,0.054144490510225296,-0.025318797677755356,0.0226183719933033,0.015828769654035568,-0.014752925373613834,0.012594545260071754,0.004438570700585842,-0.03866855055093765,-0.0287407785654068,-0.015204119496047497,-0.036594077944755554,0.0063942065462470055,0.003275303402915597,-0.03625026345252991,0.003811929142102599,-0.03354639932513237,-0.04883740469813347,0.002959954086691141,-0.004568132106214762,0.040655624121427536,0.02909564971923828,0.013805266469717026,0.04970838502049446,0.1064961701631546,0.1096457913517952,0.047453731298446655,0.020100081339478493,0.07011111080646515,0.07623442262411118,0.028452318161725998,0.05980401858687401,0.012583865784108639,0.08817955106496811,0.024387769401073456,0.08728164434432983,0.06675288081169128,0.06019770726561546,-0.031213652342557907,-0.0074613275937736034,0.02263694256544113,0.015929605811834335,-0.04828932136297226,0.017737669870257378,-0.01708970218896866,0.009553713724017143,0.0018734605982899666,0.031967081129550934,0.03806142136454582,0.029567917808890343,-0.009972856380045414,0.023637816309928894,0.012252334505319595,0.06671464443206787,0.03752695024013519,0.007553259842097759,0.057935699820518494,0.09605944901704788,0.02884773537516594,0.044203415513038635,0.03484963998198509,0.04839452728629112,0.07014569640159607,0.04571092128753662,0.06116965413093567,0.05482731759548187,0.01747463457286358,0.0385824516415596,-0.004833077546209097,-0.029614193364977837,0.013652796857059002,-0.02847733534872532,-0.03784961998462677,0.02137662284076214,0.019462719559669495,0.007234640419483185,-0.030701374635100365,-0.028835220262408257,-0.008414308540523052,-0.03702176362276077,-0.015504022128880024,-0.05273780971765518,-0.07928517460823059,-0.029750511050224304,0.026392772793769836,0.06118406355381012,-0.014309498481452465,0.009736866690218449,0.021778304129838943,0.014599245972931385,-0.03334569185972214,-0.00665429187938571,0.009111771360039711,-0.009546352550387383,-0.002138691022992134,-0.004756446927785873,0.0006343646673485637,-0.005436848849058151,0.008051691576838493,0.008896933868527412,0.008356630802154541,-0.02679617330431938,-0.021019205451011658,0.010321881622076035,-0.052052900195121765,-0.12239755690097809,-0.05881939083337784,-0.06467348337173462,-0.10024049133062363,-0.14276105165481567,-0.10078313946723938,-0.11686915904283524,-0.09747881442308426,-0.05957761034369469,-0.06508206576108932,-0.060720138251781464,-0.01928982138633728,-0.037031643092632294,-0.04794365167617798,-0.04717785492539406,-0.021730074658989906,0.01031605713069439,-0.0068129077553749084,-0.02105587162077427,0.02447204850614071,0.005714329890906811,0.0018983816262334585,-0.0440032035112381,0.014548350125551224,-0.03652865067124367,-0.031321361660957336,-0.05461926758289337,-0.11443895101547241,-0.08907223492860794,-0.06916557252407074,-0.021415190771222115,-0.10295725613832474,-0.13961489498615265,-0.14940468966960907,-0.09815944731235504,-0.09077072888612747,-0.13898254930973053,-0.14129579067230225,-0.08763256669044495,-0.052290380001068115,-0.07529878616333008,-0.1279154270887375,-0.054141223430633545,-0.03712817281484604,-0.04350605234503746,-0.020901227369904518,-0.020021528005599976,0.029651058837771416,-0.024768104776740074,-0.03611622005701065,-0.03928738459944725,0.004473289009183645,-0.04015231132507324,-0.045975930988788605,-0.09442760050296783,-0.1426371932029724,-0.08782681077718735,-0.10709531605243683,-0.08772019296884537,-0.1386827677488327,-0.06808686256408691,-0.08340423554182053,-0.03698655217885971,-0.0583440437912941,-0.11827796697616577,-0.1572260558605194,-0.08027760684490204,-0.07864078134298325,-0.022019481286406517,-0.04261701554059982,-0.04022443667054176,-0.06593140214681625,-0.04956749826669693,-0.013766040094196796,-0.031731557101011276,-0.03167271241545677,-0.006641035433858633,-0.04440511018037796,-0.0394526869058609,0.015086224302649498,-0.008620085194706917,-0.03728608414530754,-0.051019664853811264,-0.10015961527824402,-0.0824492797255516,-0.08517853915691376,-0.12050783634185791,-0.04887844994664192,-0.003856573486700654,0.00807577557861805,0.05271941423416138,0.002842624206095934,-0.07334201782941818,-0.12192516028881073,-0.13299983739852905,-0.10193679481744766,-0.056036967784166336,-0.10362730175256729,0.0014104575384408236,-0.050111010670661926,-0.041636448353528976,-0.014867602847516537,-0.0554221086204052,0.01082445029169321,0.02637666091322899,-0.044861603528261185,0.0075804139487445354,0.010500636883080006,-0.030918503180146217,0.011319641955196857,-0.034168269485235214,0.013694104738533497,0.003982048947364092,-0.005282101221382618,-0.022752324119210243,0.016488464549183846,0.015703974291682243,0.045847151428461075,0.010171153582632542,-0.02891906164586544,-0.040638186037540436,-0.07395988702774048,-0.07603190094232559,-0.06185377016663551,-0.0625353679060936,-0.015874871984124184,-0.03776086866855621,0.017688656225800514,0.0044342344626784325,0.020334850996732712,0.00967918336391449,-0.010163916274905205,0.0008504308061674237,-0.017984693869948387,-0.04279099777340889,-0.020194625481963158,0.002681666985154152,0.010761906392872334,0.023609880357980728,-0.03451903909444809,0.03170333430171013,0.09190932661294937,0.02209590934216976,0.048081181943416595,0.026611024513840675,0.027713533490896225,0.03185422345995903,0.02283974550664425,-0.001439708867110312,-0.04386153072118759,-0.08474961668252945,-0.10730835795402527,-0.05493375286459923,-0.07363424450159073,0.019207987934350967,0.056279901415109634,0.06980670243501663,0.02570001594722271,0.014062977395951748,-0.05254838243126869,-0.001287969178520143,0.013011915609240532,-0.034409042447805405,-0.0085871247574687,-0.00579120172187686,-0.00433945981785655,-0.019371982663869858,0.004494819324463606,0.030428409576416016,0.02898583561182022,-0.019957013428211212,0.015104657970368862,0.06494831293821335,0.0491207055747509,0.017225392162799835,0.019428379833698273,0.004749187268316746,-0.034815385937690735,-0.06150716170668602,-0.05946286767721176,-0.010935657657682896,-0.03820991516113281,-0.013071130029857159,0.07788608968257904,-0.009470033459365368,0.06494370102882385,0.05317562818527222,-0.021122051402926445,0.008237612433731556,-0.010433635674417019,-0.04152841866016388,-0.005498720332980156,-0.011531117372214794,0.035500843077898026,-0.006424987222999334,-0.005839192308485508,-0.08030350506305695,-0.09193605929613113,-0.10752805322408676,-0.05158885940909386,-0.04619976505637169,0.01676170341670513,0.08185205608606339,0.07005786895751953,-0.06699225306510925,-0.1017942726612091,-0.05377672612667084,-0.009302401915192604,0.05216413363814354,0.00021164293866604567,0.005627727601677179,0.06973905861377716,0.05445164814591408,0.017673734575510025,0.013853545300662518,-0.0012292455649003386,-0.024289114400744438,-0.014854682609438896,-0.020103497430682182,-0.031674403697252274,0.022133484482765198,-0.00840322021394968,-0.059271715581417084,-0.12781959772109985,-0.11832980811595917,-0.13452205061912537,-0.15290313959121704,-0.19429448246955872,-0.11846126616001129,-0.13301022350788116,-0.13391481339931488,-0.10787839442491531,-0.15024298429489136,-0.13175448775291443,-0.07538405060768127,-0.005450310185551643,0.044635873287916183,0.027300948277115822,-0.008506713435053825,0.038978155702352524,-0.018126633018255234,0.0037898181471973658,-0.029211461544036865,-0.03270557150244713,-0.006892162840813398,0.0008727936656214297,-0.003506725188344717,-0.026886645704507828,-0.0031705303117632866,0.05709446221590042,-0.05418921262025833,-0.12867577373981476,-0.1334015429019928,-0.0930025577545166,-0.13910998404026031,-0.17191872000694275,-0.16782857477664948,-0.2313230037689209,-0.1807459443807602,-0.15790915489196777,-0.15563298761844635,-0.08803115785121918,0.0515427365899086,0.040497563779354095,-0.007061162032186985,0.021718190982937813,-0.002796647371724248,0.0718458965420723,0.018226351588964462,-0.012375442311167717,-0.01784728839993477,-0.032587599009275436,-0.020394649356603622,-0.041424818336963654,-0.03015921264886856,-0.030194494873285294,0.019443698227405548,0.06324350833892822,-0.031378086656332016,-0.08581843972206116,-0.08142751455307007,-0.02614518813788891,-0.06873997300863266,-0.10709260404109955,-0.1670081615447998,-0.12847064435482025,-0.06151715666055679,-0.010685235261917114,-0.01678234338760376,0.044648583978414536,0.020842716097831726,0.004929188173264265,0.004147917032241821,-0.013406293466687202,0.02805280312895775,-0.006998184137046337,-0.0059127225540578365,-0.0015184127259999514,0.02817368507385254,-0.0012787037994712591,-0.03083118423819542,0.02072926238179207,-0.04021352529525757,0.0069513325579464436,0.0012730782618746161,0.08529873937368393,-0.03296047821640968,0.015834124758839607,-0.008534169755876064,-0.0076468815095722675,0.004965714178979397,0.000768998870626092,-0.03980368375778198,0.003151192096993327,0.0349956750869751,0.10925005376338959,0.13636648654937744,0.07197779417037964,0.017324643209576607,-0.04432956874370575,-0.02132275328040123,0.016982292756438255,0.007564287167042494,-0.05249295383691788,0.003064955584704876,0.0025963173247873783,-0.05119655653834343,0.023269329220056534,-0.011238625273108482,-0.01502467691898346,-0.02373904548585415,0.01895379088819027,0.021496443077921867,0.015159983187913895,-0.00550047867000103,-0.05939503759145737,-0.03856154903769493,0.014688572846353054,0.06555794179439545,0.024373065680265427,0.04142683371901512,0.048500560224056244,0.13863523304462433,0.1541706770658493,0.18641817569732666,0.11074059456586838,0.01908758096396923,-0.01478238869458437,-0.00486560445278883,0.010607699863612652,-0.015620277263224125,-0.00011483210255391896,0.0179765522480011,0.013184987008571625,-0.01035939622670412,-0.04036589711904526,-0.02051876299083233,-0.0022449421230703592,-0.025781428441405296,0.013737061060965061,-0.0028502000495791435,0.0485394112765789,0.011012165807187557,0.011395462788641453,-0.05704181641340256,0.019992291927337646,0.026774531230330467,0.07837220281362534,0.09964262694120407,0.12094759196043015,0.1183624193072319,0.09715956449508667,0.09797357767820358,0.08733128011226654,0.041925083845853806,0.012167846783995628,0.004411906003952026,0.06292802840471268,-0.008252647705376148,-0.05127214267849922,0.01995914615690708,0.04331888258457184,-0.0259948018938303,-0.036954931914806366,-0.04016194865107536,-0.029139092192053795,-0.03266817703843117,-0.028845785185694695,-0.03812915459275246,0.028073333203792572,0.04566321149468422,0.10586781799793243,0.08702310919761658,0.025490710511803627,0.05386938527226448,0.05042961612343788,0.09701250493526459,0.1204616129398346,0.06392377614974976,0.03431914374232292,0.08497041463851929,0.02493670955300331,-0.04585724323987961,0.028826087713241577,-0.02832370437681675,-0.014014340937137604,0.031232478097081184,0.04162543639540672,-0.025605952367186546,0.009268060326576233,-0.009087708778679371,-0.0016211275942623615,-0.02522997558116913,-0.0011367748957127333,-0.015709007158875465,-0.0019961856305599213,-0.03612983226776123,-0.014601522125303745,0.03276492655277252,0.07910054177045822,0.05427098274230957,0.1433284878730774,0.07456783950328827,0.0789773091673851,0.09079375863075256,0.05399063602089882,0.06071352958679199,0.04629579186439514,0.07237429916858673,-0.0009488817304372787,-0.04831862449645996,0.07002785056829453,0.009881977923214436,-0.028855927288532257,-0.01027011126279831,0.018222467973828316,0.034835271537303925,0.0085956621915102,-0.016699982807040215,-0.04322177544236183,-0.0029923231340944767,-0.0312940813601017,0.018488729372620583,-0.009180438704788685,-0.04610158130526543,-0.03714063763618469,0.018225081264972687,-0.006418640725314617,0.018646232783794403,0.062452856451272964,0.08844519406557083,0.0773472860455513,0.08981269598007202,0.019986817613244057,-0.017267873510718346,0.03758528083562851,-0.10590118914842606,-0.14329898357391357,-0.037930287420749664,0.010719913057982922,0.011324902065098286,0.0172311719506979,0.004971045069396496,-0.005650395527482033,0.022013628855347633,-0.0067525217309594154,-0.00489600095897913,-0.03409772366285324,-0.036526478826999664,0.016180263832211494,-0.03946509212255478,-0.02238360606133938,-0.03849257528781891,-0.023974277079105377,-0.03729318827390671,0.0072294254787266254,0.00690895551815629,-0.04187470301985741,-0.03195954114198685,0.0036298304330557585,0.04344475269317627,0.038210026919841766,0.056272756308317184,-0.006769717670977116,-0.018250515684485435,-0.015250728465616703,-0.01585441641509533,-0.004527009557932615,0.02109895460307598,0.01355702057480812,0.02446313016116619,-0.02348189800977707,-0.007869626395404339,-0.031218431890010834,0.0013113266322761774,-0.021909920498728752,-0.015785835683345795,-0.0016805676277726889,-0.020593466237187386,-0.03216945007443428,0.01800987683236599,-0.048991359770298004,-0.026778854429721832,-0.007502210792154074,-0.039044830948114395,-0.023778541013598442,0.014317075721919537,-0.005123142618685961,-0.044258132576942444,-0.02432851307094097,0.02061433717608452,-0.04783331975340843,-0.04282594844698906,-0.009514860808849335,0.0033957315608859062,-0.02328798919916153,-0.022047508507966995,-0.028213219717144966,-0.012445870786905289,0.018968822434544563,0.01584417000412941,-0.02264307253062725,-0.014170129783451557,-0.03085501678287983,-0.00696190819144249,0.009399066679179668,-0.035201262682676315,0.010922005400061607,-0.011545244604349136,0.02974691428244114,0.02904858998954296,-0.020568031817674637,0.013549396768212318,-0.02154817059636116,-0.015907438471913338,-0.011742644011974335,0.018368970602750778,-0.00205780565738678,-0.036393262445926666,-0.016988497227430344,-0.03408132120966911,-0.014013893902301788,-0.017295772209763527,-0.03158390894532204,-0.024938341230154037,-0.021128274500370026,-0.002845951821655035,-0.0070602549239993095,0.01146567240357399,-0.010163232684135437,0.026097778230905533,-0.015277491882443428,0.024851031601428986,0.014005365781486034,0.016400907188653946,-0.04015952721238136,-0.022577840834856033,0.026906289160251617,0.021187633275985718,-0.031674038618803024,-0.014854898676276207,-0.025787457823753357,0.02040543220937252,0.03237277641892433,-0.019427452236413956,-0.0211075060069561,0.025598891079425812,-0.02249755710363388,0.00972544215619564,-0.022253453731536865,0.0014692157274112105,0.027094315737485886,-0.005409965291619301,-0.00033601056202314794,-0.01984856091439724,-0.02980330027639866,0.019656477496027946,0.015611075796186924,0.015273656696081161,0.024145077913999557,0.02356434240937233,-0.024201136082410812,8.821493975119665e-05,-0.009124367497861385,0.02928357571363449,0.015704764053225517,0.0013942272635176778,0.017161991447210312,-0.03158972039818764,0.004879671148955822,0.015162540599703789,-0.008423687890172005,0.06325383484363556,0.04789034277200699,0.0352105014026165,0.04625532776117325,0.08847210556268692,0.07865343242883682,0.0035651701036840677,0.013710270635783672,-0.017890337854623795,0.012106149457395077,-0.02964978665113449,-0.012591302394866943,-0.024587756022810936,-0.001548247179016471,-0.02407415769994259,-0.004878130741417408,0.0260491780936718,-0.02360808104276657,-0.018853746354579926,0.02279069274663925,-0.03238433599472046,-0.026952775195240974,-0.025929220020771027,0.008435146883130074,0.022537998855113983,0.06536923348903656,0.037453945726156235,0.08080336451530457,0.02277236618101597,0.07311154901981354,0.04182671755552292,0.05834208428859711,0.032071810215711594,0.023103926330804825,2.759382186923176e-05,-0.059748850762844086,-0.08146703243255615,-0.06638123840093613,0.002324458910152316,-0.035807959735393524,0.022478999570012093,0.020260194316506386,0.02474931813776493,-0.005314971320331097,0.025703541934490204,-0.02243497595191002,-0.03145909681916237,-0.039085131138563156,0.003905137535184622,0.009375126101076603,0.008169308304786682,0.05108818784356117,0.06112866848707199,0.029352838173508644,0.05497807636857033,0.05627492815256119,0.003967562690377235,-0.010941656306385994,-0.020251547917723656,-0.06078696250915527,-0.11426248401403427,-0.14914697408676147,-0.20577891170978546,-0.1782837063074112,-0.08614053577184677,-0.04329885542392731,-0.10503640025854111,-0.04368221387267113,-0.08014096319675446,-0.03874855116009712,-0.008341793902218342,0.02298332192003727,0.0002636751451063901,-0.02713530883193016,0.004511630162596703,-0.007067049853503704,-0.006437114905565977,-0.020791983231902122,0.07231433689594269,0.09343640506267548,0.06110178679227829,0.026040196418762207,0.03993158042430878,0.008622603490948677,-0.0063871582970023155,0.01519875880330801,-0.025112120434641838,-0.05273105576634407,-0.09076905995607376,-0.09768303483724594,-0.15003474056720734,-0.13253441452980042,-0.11557294428348541,-0.05967046320438385,-0.056905124336481094,-0.10404200851917267,-0.06969417631626129,-0.0645325779914856,-0.0034316526725888252,-0.00828880351036787,0.008584262803196907,0.008294947445392609,-0.01317775622010231,0.027198385447263718,0.012019374407827854,0.033365532755851746,0.022919917479157448,0.017581699416041374,-0.0014863732503727078,-0.024796687066555023,0.005431228317320347,0.004458144772797823,0.07913254201412201,0.05767048895359039,0.030386246740818024,0.02496173419058323,0.023763801902532578,-0.0173798855394125,-0.035500165075063705,-0.07162274420261383,-0.04428983852267265,-0.11837980896234512,-0.1026618629693985,-0.09670492261648178,-0.1373804360628128,-0.10366592556238174,-0.09775079041719437,-0.05764308571815491,-0.030317725613713264,0.00601540319621563,-0.026340235024690628,-0.0186285562813282,0.028638439252972603,-0.005256107077002525,0.0709572285413742,0.0066803875379264355,0.06714238971471786,0.024700693786144257,0.00951224286109209,0.08566106855869293,0.09234727919101715,0.1155938133597374,0.12203089892864227,0.11038505285978317,0.12401833385229111,0.045519713312387466,-0.007458312436938286,-0.062265075743198395,-0.08449374884366989,-0.10553893446922302,-0.12877576053142548,-0.13216200470924377,-0.142623171210289,-0.1684724986553192,-0.04739821329712868,-0.037576667964458466,-0.023273861035704613,-0.010330959223210812,-0.0405321903526783,0.002026964910328388,0.03316687047481537,0.04417557641863823,0.10755070298910141,0.020373212173581123,0.017168309539556503,0.05789787694811821,0.07678017020225525,0.11065512150526047,0.14969585835933685,0.0905623733997345,0.09674890339374542,0.1041063442826271,0.0983300656080246,0.011102613992989063,-0.06532273441553116,-0.07787863910198212,-0.06462156027555466,-0.008868939243257046,-0.07049935311079025,-0.05136246606707573,-0.05515087768435478,-0.12694314122200012,-0.08424961566925049,-0.0794418528676033,-0.03358610346913338,-0.0035519753582775593,-0.03987984359264374,-0.011423246935009956,-0.007147310767322779,0.0749872475862503,0.12038213759660721,0.12230323255062103,0.06685350090265274,0.1289084255695343,0.1335705667734146,0.12996527552604675,0.1351441591978073,0.06486372649669647,0.08352343738079071,0.04209953546524048,0.01657123677432537,-0.02304787188768387,-0.034632474184036255,-0.010224989615380764,-0.025148378685116768,0.025945425033569336,-0.021327931433916092,-0.04807823523879051,0.007229131646454334,-0.049126531928777695,-0.10950515419244766,-0.02508426643908024,-0.02899211458861828,0.028754062950611115,-0.012613007798790932,0.02671206183731556,0.02562055177986622,0.05510185658931732,0.01509434450417757,0.1255543977022171,0.07360164821147919,0.11367866396903992,0.08992214500904083,0.02874082885682583,-0.010309157893061638,-0.003626424353569746,-0.07779018580913544,-0.01676192134618759,-0.0028040544129908085,-0.058568522334098816,0.011368031613528728,-0.0064701661467552185,0.021797535941004753,-0.012731228955090046,0.058268867433071136,-0.017931563779711723,-0.003713869024068117,0.018862862139940262,-0.07176605612039566,-0.022565152496099472,0.009842095896601677,0.011552153155207634,-0.010656588710844517,0.002487726742401719,0.02561868540942669,0.04423040151596069,0.06879410147666931,0.06321527808904648,0.013220631517469883,0.05870203301310539,-0.010929345153272152,-0.06459975242614746,-0.09546488523483276,-0.036399468779563904,-0.1282888501882553,-0.09901948273181915,-0.029646651819348335,-0.012291401624679565,0.0008939012186601758,0.0501556359231472,0.04908634349703789,0.07303550094366074,0.07702044397592545,0.06446610391139984,0.013237275183200836,0.06703481823205948,-0.044863346964120865,-0.06834973394870758,-0.04208409786224365,0.01083887554705143,-0.00585734099149704,0.02126956172287464,0.023442532867193222,0.00877369660884142,0.019155044108629227,0.029022756963968277,-0.03719615191221237,-0.0782211422920227,-0.07336019724607468,-0.13471199572086334,-0.1038176640868187,-0.1693364828824997,-0.1418146938085556,-0.137411430478096,0.009829589165747166,0.008233456872403622,0.045457351952791214,0.049030110239982605,0.056744467467069626,0.006401278078556061,0.03653576225042343,-0.02828635275363922,0.013570550829172134,0.07498975843191147,0.038616281002759933,0.002320085885003209,-0.008081218227744102,0.015647904947400093,-0.033005520701408386,0.020392216742038727,-0.012892221100628376,0.029081474989652634,0.013582478277385235,-0.07251346111297607,-0.0318809449672699,-0.12373623251914978,-0.128256693482399,-0.11361682415008545,-0.11418690532445908,-0.05858774110674858,-0.02878442406654358,0.00506292749196291,0.06237911432981491,0.026366110891103745,0.037928514182567596,0.05538341403007507,0.0059102969244122505,-0.014789273031055927,0.05257979407906532,-0.007873433642089367,-0.035988930612802505,0.0535530149936676,0.04186041280627251,-0.0023724213242530823,-0.031201878562569618,-0.02294011227786541,-0.027920592576265335,0.029152005910873413,0.0100373150780797,-0.012949812225997448,-0.08255856484174728,-0.11209855228662491,-0.12016364187002182,-0.09200098365545273,-0.08463700115680695,-0.08415805548429489,-0.009661157615482807,0.020822467282414436,0.007400727830827236,0.013395964168012142,0.058788809925317764,0.042664483189582825,-0.025272803381085396,-0.00294841849245131,-0.037069328129291534,-0.02663877047598362,0.005427510477602482,0.032711174339056015,0.06441845744848251,0.08725017309188843,0.06486549228429794,0.0072252219542860985,-0.003545104991644621,-0.028908202424645424,-0.02749534882605076,-0.005369221791625023,-0.0337621346116066,0.010283589363098145,-0.07829168438911438,-0.1278982013463974,-0.030781151726841927,-0.09136901050806046,-0.05686501786112785,0.031108979135751724,0.034326761960983276,-0.006616075057536364,0.0017470811726525426,0.0932900682091713,0.04662507772445679,0.04693090170621872,-0.009308387525379658,0.01121532078832388,-0.005965751595795155,0.04503334313631058,0.11814287304878235,0.07422540336847305,0.07827924191951752,0.02849259227514267,0.032995812594890594,0.029881447553634644,-0.019259899854660034,-0.021832413971424103,-0.006060521584004164,-0.03081458806991577,-0.011291982606053352,-0.03907053917646408,-0.013804939575493336,0.007481055334210396,-0.0032924653496593237,-0.0011316108284518123,-0.047264181077480316,-0.0019097469048574567,0.011546911671757698,-0.0007976919878274202,-0.030361680313944817,0.04812288656830788,0.07764995843172073,-0.03843620792031288,-0.040280625224113464,-0.03125981613993645,0.0437573567032814,0.02535269595682621,0.042691655457019806,0.0889887884259224,0.09403287619352341,0.06275248527526855,0.06173453480005264,0.026673348620533943,-0.0088855791836977,0.02446768432855606,-0.026688560843467712,-0.006075190845876932,0.021818341687321663,0.025724390521645546,-0.020279427990317345,-0.0132194384932518,-0.0018678313354030252,-0.00685789855197072,-0.015965938568115234,-0.024955933913588524,-0.013821154832839966,-0.03542999550700188,0.012080292217433453,0.04909435659646988,0.02020830661058426,0.04022539407014847,-0.0680072009563446,-0.015276511199772358,0.030589023604989052,0.012304303236305714,0.06871630251407623,0.05893782898783684,0.057618264108896255,-0.024579178541898727,-0.03702538460493088,0.04442419856786728,-0.019609056413173676,0.007478021550923586,-0.02824172005057335,0.011708281002938747,0.037763457745313644,0.009479121305048466,0.011911104433238506,0.013294476084411144,-0.03501741215586662,-0.04914607107639313,-0.03688354045152664,-0.0629226341843605,-0.021543672308325768,-0.010984597727656364,0.0032139276154339314,-0.00018831284251064062,-0.002459879033267498,0.020940428599715233,0.0332358181476593,0.04453292489051819,0.062370575964450836,0.04130634665489197,0.05014451593160629,0.050919413566589355,0.05860143527388573,-0.010221119038760662,-0.08100438863039017,0.013645733706653118,0.022228948771953583,-0.029860742390155792,-0.004187794402241707,-0.010255031287670135,0.0016491080168634653,-0.018925469368696213,0.03691202774643898,0.000705266953445971,-0.08948493748903275,-0.03226574882864952,-0.06275665014982224,-0.03574417158961296,-0.04690725728869438,-0.05765059217810631,-0.03613308072090149,0.014014109969139099,0.06187192350625992,0.04002877697348595,0.10614334046840668,0.06073705479502678,0.07574788480997086,0.04984181746840477,-0.026448437944054604,0.028505804017186165,0.042223043739795685,0.011377952992916107,-0.02468990720808506,-0.01571320742368698,0.01691102236509323,-0.01925017684698105,-0.03666442260146141,-0.01707892119884491,-0.05012451857328415,-0.013823522254824638,0.02067899890244007,0.009792386554181576,-0.029535481706261635,0.004953875672072172,-0.06275085359811783,-0.07185031473636627,-0.05089539662003517,-0.04754134267568588,-0.08277131617069244,-0.008132380433380604,0.06393039971590042,0.052384767681360245,0.07718650996685028,0.03463124483823776,0.05104006454348564,-0.004702011588960886,0.02493538148701191,-0.0082218823954463,-0.01893087849020958,-0.0196121446788311,-0.05395651236176491,0.0022181395906955004,-0.016233084723353386,-0.005460535641759634,0.02550397627055645,-0.008963208645582199,-0.005465721245855093,-0.0015517235733568668,0.03386864811182022,0.03076557070016861,0.008920388296246529,0.017659945413470268,-0.012666883878409863,-0.04894014447927475,-0.013826245442032814,-0.02002161741256714,0.015358208678662777,-0.006559155881404877,-0.0021784903947263956,0.013520903885364532,0.04980486258864403,-0.014111407101154327,-0.03757520765066147,0.015321768820285797,-0.0441492460668087,-0.06721269339323044,-0.04895632714033127,-0.09691130369901657,-0.029918532818555832,-0.03782770037651062,0.00869045965373516,0.002857671584933996,-0.015394366346299648,-0.03556078299880028,-0.011238835752010345,0.01439264602959156,0.039454586803913116,0.053433120250701904,0.04839680343866348,0.035482846200466156,0.01465148851275444,0.01766507886350155,0.008134357631206512,-0.014994258992373943,-0.04569350928068161,-0.0682041123509407,-0.04375484585762024,0.005537834949791431,-0.011365842074155807,-0.027744382619857788,-0.05650904402136803,-0.050076860934495926,-0.01223373506218195,-0.11681895703077316,-0.05052788555622101,-0.07667747139930725,-0.03192784637212753,0.012163341045379639,-0.0005170662770979106,-0.03838357701897621,-0.030896510928869247,-0.006643795408308506,-0.03213285282254219,-0.011356431059539318,0.004612595774233341,0.04631084203720093,0.050218068063259125,0.022599199786782265,0.008611630648374557,-0.00460225623100996,-0.005838904995471239,0.041305892169475555,-0.022724615409970284,-0.019698599353432655,0.016241824254393578,0.0011398892384022474,-0.08586740493774414,-0.09009883552789688,-0.0675264522433281,-0.0866205245256424,-0.07312123477458954,-0.06275363266468048,-0.044296763837337494,-0.06969716399908066,-0.040561456233263016,-0.043689072132110596,-0.023856591433286667,0.002047149231657386,-0.022541593760252,-0.012404071167111397,-0.03851361572742462,0.034112222492694855,0.00680136401206255,0.09413305670022964,0.04932795837521553,0.04312815144658089,0.03264981508255005,0.0008333792211487889,0.036495909094810486,0.005655145272612572,-0.03815178945660591,-0.045405928045511246,-0.026000674813985825,-0.03822570666670799,-0.06997837871313095,-0.017330516129732132,-0.0729362890124321,-0.07214415818452835,0.0012173261493444443,-0.0009776203660294414,-0.05152100324630737,-0.016296077519655228,0.00571871642023325,-0.03311026841402054,-0.030662525445222855,-0.028124623000621796,-0.02897622063755989,-0.03588328883051872,-0.01078864187002182,-0.03542809933423996,0.0165135245770216,0.03523240610957146,0.043132346123456955,0.06868521869182587,0.10837221890687943,0.03182957321405411,-0.02951253019273281,-0.05594206228852272,0.01404600776731968,0.020598087459802628,-0.0225294791162014,-0.048160724341869354,0.012635717168450356,0.02818245254456997,-0.021310944110155106,0.037711575627326965,0.050281282514333725,-0.043382808566093445,-0.019326159730553627,-0.047309424728155136,0.014003420248627663,-0.039216406643390656,0.02138310670852661,0.009735727682709694,-0.038271863013505936,-0.03112919256091118,0.00394601933658123,-0.005252249073237181,-0.0403890535235405,-0.059664465487003326,-0.05010824277997017,-0.013109088875353336,0.06917156279087067,0.041502781212329865,0.1080789864063263,0.04410991817712784,0.02995207905769348,0.083428755402565,0.1132153794169426,0.06500329077243805,0.09916942566633224,0.09763012826442719,0.13954897224903107,0.11345909535884857,0.09363166987895966,0.07347898185253143,0.001203858177177608,0.02253887616097927,0.030833318829536438,0.00134878174867481,-0.01004716008901596,-0.02046302706003189,0.014141550287604332,-0.035609837621450424,-0.030168622732162476,-0.03774042800068855,-0.02202988974750042,-0.03954062983393669,-0.0103340744972229,0.0009226196561940014,0.0352494902908802,-0.005852123256772757,-0.008132800459861755,-0.03362002596259117,-0.0028317924588918686,0.0074103823862969875,-0.002235851949080825,0.022783372551202774,-0.012405955232679844,-0.02025153674185276,0.04154173284769058,0.0357813686132431,-0.007559065241366625,0.010413345880806446,-0.016684161499142647,-0.00015599752077832818,0.030416961759328842,-0.0050860862247645855,-0.03821273148059845,-0.010843785479664803,-0.011060303077101707,-0.027978800237178802,-0.035320572555065155,-0.021416500210762024,0.010237174108624458,-0.0033345064148306847,0.01375825610011816,-0.029038360342383385,0.008548369631171227,-0.036726370453834534,-0.035807594656944275,-0.04535168409347534,0.009380177594721317,0.006106322165578604,-0.049028292298316956,-0.015860727056860924,0.015252453275024891,-0.017666049301624298,0.013812706805765629,-0.052083857357501984,-0.04945722222328186,-0.03556070476770401,-0.03828301280736923,0.007781036198139191,-0.031172476708889008,-0.022411901503801346,-0.04217983037233353,0.0025823372416198254,0.019229959696531296,0.013032852672040462,-0.027833987027406693,-0.014566121622920036,0.011765473522245884,-0.014698060229420662,-0.013820960186421871,-0.018437912687659264,-0.03053891658782959,-0.02005159482359886,-0.04517955705523491,-0.0009846900356933475,-0.001907550496980548,0.004759341012686491,0.005721631925553083,-0.04440096393227577,-0.018240774050354958,-0.023522445932030678,0.0024195921141654253,-0.04252494126558304,0.016277385875582695,-0.03905759006738663,0.017023518681526184,-0.015388602390885353,0.017377695068717003,-0.008610829710960388,-0.015349293127655983,-0.014633813872933388,0.004041166044771671,-0.03518141061067581,-0.05093720555305481,-0.04361080005764961,0.005576395429670811,-0.018369847908616066,-0.029873233288526535,-0.008279064670205116,-0.0008241297909989953,0.015201782807707787,-0.013340122997760773,0.015903575345873833,0.03418576717376709,-0.014422834850847721,0.007290632463991642,0.013771683908998966,0.036458924412727356,-0.02133038640022278,-0.021997399628162384,-0.019864555448293686,-0.019162798300385475,-0.04033226892352104,-0.006702863611280918,-0.012932592071592808,-0.00966596882790327,0.003346006851643324,-0.038781724870204926,0.009018708020448685,-0.04664810001850128,-0.020526506006717682,-0.02597799338400364,-0.050078973174095154,0.0046850042417645454,-0.013116889633238316,0.026518551632761955,-0.012511512264609337,0.04679396003484726,0.026802973821759224,0.049151547253131866,0.100290447473526,0.07998909801244736,0.015069124288856983,-0.01820369064807892,-0.0023458050563931465,0.0005448944866657257,0.00317033170722425,0.01961219497025013,0.06687097251415253,0.0278592798858881,0.0008487990126013756,0.01691867783665657,-0.02767881751060486,-0.00832336861640215,-0.004049359820783138,-0.030409175902605057,-0.021009445190429688,0.001704249414615333,-0.045682184398174286,0.008620205335319042,-0.028310811147093773,-0.03547928109765053,-0.01593717560172081,-0.017529897391796112,0.06530814617872238,0.06145594269037247,0.04533059895038605,0.08851489424705505,0.11535121500492096,0.04591113701462746,0.04232148826122284,0.044933684170246124,-0.030912255868315697,0.04365724325180054,0.0015519767766818404,0.02418477274477482,0.030833717435598373,-0.001767231384292245,-0.030881227925419807,-0.01097226981073618,-0.045536283403635025,0.012923579663038254,0.006862014997750521,0.006787601858377457,-0.016269179061055183,0.012685350142419338,-0.04112184792757034,-0.04080185294151306,-0.0022992470767349005,0.025219975039362907,-0.04382314532995224,-0.02232467569410801,-0.005855644587427378,-0.02322893589735031,-0.01873050630092621,0.01457215566188097,0.024646800011396408,0.021420003846287727,-0.018421843647956848,-0.05364501103758812,-0.018487660214304924,0.011907799169421196,0.030100142583251,0.021396895870566368,0.04649677500128746,0.08019746094942093,0.07728557288646698,0.05801660940051079,-0.014842023141682148,-0.0022189198061823845,0.020246928557753563,-0.021254148334264755,-0.017674051225185394,-0.007285662926733494,-0.02668377384543419,-0.015565368346869946,-0.03925640508532524,0.005834447685629129,-0.07473740726709366,-0.04682404547929764,-0.04230441525578499,-0.022491751238703728,-0.010961279273033142,0.0607416033744812,-0.01172326598316431,0.04105812683701515,0.03527268022298813,-0.016205398365855217,0.006804317235946655,-0.004482875112444162,-0.02951190620660782,-0.019519463181495667,-0.02906413935124874,0.011017096228897572,-0.011226183734834194,0.003555500414222479,0.0022785186301916838,-0.015424908138811588,0.022659583017230034,0.014536814764142036,-0.012941733002662659,-0.018818818032741547,-0.04869523644447327,-0.046846430748701096,-0.04259415715932846,0.0066837044432759285,0.010557121597230434,-0.014615007676184177,-0.014601465314626694,0.02675802633166313,0.023936888203024864,0.015613682568073273,0.07579875737428665,0.038644034415483475,0.019235216081142426,0.04450538754463196,-0.025171324610710144,-0.03305617347359657,-0.0762433335185051,-0.06454036384820938,-0.08143331110477448,-0.07377201318740845,-0.008106167428195477,0.010200822725892067,-0.05179331451654434,-0.04260789230465889,0.012719571590423584,0.015434040687978268,0.009955395013093948,0.016126394271850586,-0.01919996179640293,-0.01717761717736721,-0.05778862535953522,0.005531043279916048,0.00974828191101551,-0.002385194879025221,0.017595095559954643,0.005009083542972803,-0.019695816561579704,0.05785929411649704,0.05677028372883797,-0.004600036423653364,0.04840896278619766,-0.00914018228650093,-0.008521192707121372,-0.02467523328959942,-0.037054337561130524,-0.08760396391153336,-0.039666857570409775,-0.015763480216264725,-0.011564258486032486,-0.02688836306333542,-0.024534601718187332,-0.011963939294219017,-0.010477551259100437,-0.02875984087586403,-0.0011542986612766981,0.0035344846546649933,0.01056825090199709,0.009623539634048939,0.018383316695690155,-0.007760028354823589,0.00961599126458168,-0.04843075945973396,0.0076698800548911095,-0.004539155401289463,-0.004471265245229006,-0.013239429332315922,0.014672390185296535,0.012448270805180073,-0.02022823691368103,-0.013299142010509968,-0.0395393930375576,-0.028799869120121002,-0.01944931223988533,-0.059798214584589005,-0.023355958983302116,-0.051008351147174835,-0.017695870250463486,0.033142831176519394,-0.05841897428035736,-0.015269802883267403,0.010848915204405785,-0.020771270617842674,-0.05439853295683861,-0.011661275289952755,-0.03243529051542282,-0.05591341853141785,0.019022416323423386,-0.029969310387969017,0.02866898849606514,0.023753495886921883,0.038170184940099716,-0.04564704746007919,-0.08894535899162292,-0.036480024456977844,-0.003991527948528528,-0.012162026949226856,-0.008943947032094002,-0.04886455461382866,-0.08090000599622726,0.010159125551581383,-0.008580626919865608,-0.002210622187703848,0.006581794936209917,-0.027559341862797737,-0.05919569358229637,-0.039539143443107605,-0.04107131436467171,-0.015988418832421303,0.015610434114933014,0.0019358674762770534,-0.051987797021865845,0.016238411888480186,-0.01582728885114193,-0.020375823602080345,-0.0025268837343901396,0.06146741285920143,-0.006208500824868679,0.012673227116465569,-0.04598340764641762,-0.048390526324510574,-0.048871155828237534,-0.026159901171922684,0.009464059956371784,-0.0582275427877903,0.02160852774977684,-0.0006165195372886956,-0.0012376266531646252,0.01069454662501812,-0.029571540653705597,-0.017685282975435257,0.005420896224677563,-0.026866603642702103,-0.030001141130924225,-0.09820250421762466,-0.10629470646381378,-0.021136773750185966,-0.02647585980594158,0.010385647416114807,0.010309988632798195,-0.03238918259739876,-0.02968677505850792,0.005482268985360861,-0.009087677113711834,-0.024526480585336685,-0.03167925029993057,-0.04404027760028839,-0.08961977064609528,-0.062355633825063705,-0.05066270753741264,0.002944751176983118,-0.03462265059351921,-0.03304099291563034,0.05455981567502022,0.07467647641897202,-0.018001293763518333,-0.003024751553311944,-0.013320949859917164,-0.02135353535413742,0.029273753985762596,0.002814175561070442,-0.06050528958439827,-0.08343879878520966,-0.04909268021583557,-0.031885553151369095,-0.04445389285683632,0.0032286110799759626,-0.043999359011650085,-0.03258083760738373,0.011607905849814415,-0.006800373550504446,-0.025562025606632233,-0.08917759358882904,-0.025953762233257294,-0.08313868194818497,-0.0097645353525877,-0.025182105600833893,-0.052247513085603714,-0.07491574436426163,-0.021232638508081436,-0.011225085705518723,0.0711875706911087,0.06841745227575302,-0.021863147616386414,-0.04711964726448059,0.0038870861753821373,-0.029015300795435905,0.014330187812447548,-0.009241275489330292,0.003963191993534565,-0.030246170237660408,-0.02521269954741001,0.03748558834195137,0.012814443558454514,0.02469714730978012,0.0141216441988945,0.000837510684505105,-0.027199262753129005,-0.034311193972826004,0.004337390884757042,-0.12018837034702301,-0.12842367589473724,-0.013699346221983433,-0.0307734664529562,-0.055136386305093765,-0.04470626637339592,-0.06672752648591995,-0.022162966430187225,-0.039007946848869324,0.005450753029435873,0.006079162936657667,0.007525148801505566,0.001671560457907617,-0.01701425202190876,-0.0171358659863472,-0.003890358842909336,0.06652665883302689,-0.02363484352827072,-0.03587939217686653,-0.048413392156362534,-0.01820094883441925,0.03428562730550766,-0.006919447332620621,-0.008299299515783787,0.01929449290037155,-0.043327391147613525,0.019275231286883354,-0.04014712572097778,-0.07740776985883713,-0.10851650685071945,-0.04872945323586464,-0.04080658778548241,-0.07465387880802155,-0.012346095405519009,-0.04892291501164436,-0.01622081734240055,-0.025639813393354416,0.0830962136387825,0.02040264755487442,0.0003763723070733249,0.021214308217167854,0.002029543975368142,-0.04970291256904602,0.07132910937070847,0.067013680934906,0.014408120885491371,-0.005123349372297525,-0.0064216312021017075,0.0857144296169281,0.038819603621959686,-0.02905590832233429,-0.04080813005566597,-0.01340166013687849,0.00395180145278573,-0.018615299835801125,0.018857218325138092,0.01916443556547165,-0.030355172231793404,-0.0034201948437839746,-0.0337049663066864,-0.12353214621543884,-0.05267864465713501,-0.06281591206789017,0.011464610695838928,0.03864063695073128,0.049797173589468,0.03534982353448868,0.012612255290150642,-0.033018793910741806,-0.04194916784763336,0.014484685845673084,0.05893301963806152,0.06401420384645462,0.07200012356042862,0.08243273943662643,0.02306445688009262,0.09932153671979904,0.07949289679527283,0.038975395262241364,-0.023892290890216827,-0.025049641728401184,-0.027874790132045746,0.011476945132017136,0.07826829701662064,0.022892123088240623,-0.021154722198843956,0.01623823679983616,-0.038637399673461914,-0.005377014633268118,-0.07841301709413528,-0.03384772688150406,-0.05247095599770546,-0.008141828700900078,-0.00814636517316103,0.006888231262564659,-0.05030370131134987,-0.0033209696412086487,-0.005330533720552921,0.011510713957250118,0.012937149032950401,0.028276951983571053,0.06403088569641113,0.036520618945360184,0.010373903438448906,-0.026291487738490105,0.015084554441273212,-0.04056931659579277,-0.0342797115445137,-0.001712645753286779,-0.013818284496665001,-0.004070146940648556,0.04816499352455139,0.057475920766592026,0.01325390674173832,0.03725430741906166,0.007741508074104786,-0.0019330568611621857,-0.0830114334821701,-0.08221009373664856,-0.08411353081464767,-0.013023464009165764,0.017553551122546196,0.026325510814785957,-0.020085420459508896,0.05617338418960571,0.02373255416750908,-0.01973329484462738,0.008947161957621574,0.005447699688374996,0.041556522250175476,0.04410439729690552,0.049805451184511185,0.05880780890583992,0.041287895292043686,-0.03870129957795143,0.0021625449880957603,0.012063877657055855,-0.04098283126950264,-0.041135549545288086,0.041553422808647156,0.03808057680726051,0.0757511705160141,0.028728868812322617,0.01829085685312748,0.027550378814339638,0.03351154178380966,-0.020935045555233955,0.01033549290150404,-0.02598368003964424,-0.012433642521500587,-0.00013604923151433468,0.06263110786676407,0.07143300026655197,0.025239408016204834,0.03714132308959961,-0.023273635655641556,-0.0309571735560894,-0.013294639065861702,0.08445035666227341,0.11365946382284164,-0.0006192919099703431,0.015114959329366684,-0.011404880322515965,-0.044857509434223175,0.003236878663301468,0.012019076384603977,0.0223587304353714,0.06705603748559952,0.10291416943073273,0.09809621423482895,0.09051792323589325,0.11915382742881775,0.10725104808807373,0.10073921084403992,0.07762787491083145,0.004948046524077654,0.025088412687182426,0.06786757707595825,0.025333862751722336,0.0456504188477993,0.04220873489975929,0.03937883675098419,0.07679052650928497,0.0036264867521822453,0.03388984128832817,0.06726089864969254,0.06885754317045212,0.06586731970310211,0.018107332289218903,-0.023158378899097443,0.000229528101044707,-0.03754264488816261,-0.043852344155311584,-0.008947048336267471,-0.026583893224596977,0.022690031677484512,0.06040465459227562,-0.010841064155101776,0.012183338403701782,0.048321351408958435,0.0894753560423851,0.0726996660232544,0.05459672585129738,0.09321754425764084,0.04492614418268204,0.07099483162164688,0.07175764441490173,0.017390839755535126,-0.01751518063247204,0.041265763342380524,0.07876674830913544,0.1078524962067604,0.04890905320644379,0.030151888728141785,0.06642914563417435,0.05590255931019783,0.006218545604497194,0.008934137411415577,0.013497722335159779,-0.009629985317587852,-0.019453873857855797,-0.016752049326896667,-0.027531081810593605,0.016056029126048088,0.03853881359100342,0.014768621884286404,-0.04457439109683037,0.04661395773291588,0.06736405938863754,0.002458511618897319,0.06385387480258942,0.06007501855492592,-0.0038758781738579273,0.002715375041589141,0.03402736410498619,-0.044370826333761215,-0.033924322575330734,0.010580431669950485,0.0642218366265297,0.04836290329694748,0.0584576316177845,0.03321709483861923,0.026237212121486664,0.055144790560007095,0.045190345495939255,-0.020838787779211998,-0.03379504382610321,0.0032910441514104605,-0.021650224924087524,0.0036147097125649452,0.017477530986070633,0.009761495515704155,0.01000656932592392,-0.004773186519742012,-0.05800510570406914,-0.020249726250767708,0.025408737361431122,0.02431335113942623,-0.004235047847032547,-0.012672689743340015,-0.005191759672015905,0.013484139926731586,-0.03326839208602905,-0.025216221809387207,-0.03878320753574371,-0.0035491115413606167,0.031392015516757965,0.018716076388955116,0.025045251473784447,0.004669378511607647,0.06360401958227158,0.063028484582901,0.016818255186080933,-0.04093291237950325,0.0020996720995754004,-0.006819994188845158,0.0062136598862707615,0.017195498570799828,0.004226498305797577,0.033483073115348816,-0.027807964012026787,-0.052123554050922394,-0.03724103793501854,-0.027068190276622772,-0.05300508439540863,-0.02868497185409069,-0.021105505526065826,-0.0583178773522377,-0.005427382420748472,-0.06812137365341187,-0.020793799310922623,0.006154993083328009,0.03411969915032387,0.06797689944505692,0.06941629946231842,0.03298013657331467,0.013761727139353752,0.021613819524645805,0.028909923508763313,-0.006947194691747427,-0.008021959103643894,-0.03924991935491562,-0.04348284751176834,-0.016070757061243057,-0.044843509793281555,-0.0033541759476065636,-0.011219315230846405,-0.005597876384854317,-0.060314636677503586,-0.042113903909921646,-0.01060408167541027,0.037176597863435745,0.007545481435954571,0.004865915048867464,0.0774918645620346,0.016346992924809456,0.0895971730351448,0.10337281227111816,0.08982118219137192,0.10020188987255096,0.11773552000522614,0.11574948579072952,0.04769506677985191,0.058494169265031815,0.04007282108068466,0.0145415673032403,-0.023182319477200508,-0.02900705114006996,-0.02266746386885643,-0.028650159016251564,-0.005270908121019602,0.018781349062919617,-0.03860531002283096,-0.042819857597351074,-0.00968695804476738,-0.03426202014088631,-0.03026500903069973,0.013425885699689388,-0.02025304175913334,-0.049605593085289,-0.0579037107527256,-0.006962333340197802,-0.0002916906087193638,-3.142392233712599e-05,0.037742529064416885,0.015033512376248837,-0.022730683907866478,-0.001106353709474206,-0.007400155998766422,-0.0031202740501612425,-0.0287637859582901,0.0029114484786987305,-0.02982421964406967,0.006626120302826166,-0.008333219215273857,0.001410859520547092,0.015282569453120232,-0.021753573790192604,0.017658250406384468,-0.01815161667764187,0.0022193673066794872,-0.020532909780740738,-0.043516695499420166,-0.04818369448184967,-0.02088119648396969,0.0007077462505549192,-0.0024165986105799675,-0.030209355056285858,-0.038933251053094864,-0.05227253958582878,-0.05119963362812996,-0.004861334804445505,0.002358884084969759,-0.024323564022779465,-0.028215449303388596,-0.03526439145207405,-0.02573276311159134,-0.031162716448307037,-0.04166463762521744,-0.052737150341272354,-0.022463146597146988,0.008403372950851917,-0.04427412152290344,0.009283463470637798,-0.014587407000362873,0.0005460006068460643,-0.04445027559995651,-0.02257431484758854,0.03860193118453026,-0.016696294769644737,0.02918216399848461,0.006874598562717438,-0.00035655027022585273,0.03419426828622818,0.0011849672300741076,0.02478599362075329,0.00787324644625187,0.02453439123928547,0.0313427671790123,0.014103369787335396,0.0011117425747215748,0.025799036026000977,0.03156619518995285,-0.010950673371553421,0.028534414246678352,0.0013428537640720606,0.007988390512764454,0.009553616866469383,0.029338324442505836,0.02461330033838749,0.03207354620099068,0.03197756037116051,-0.014233674854040146,0.037173401564359665,-0.012422674335539341,0.0150983314961195,-0.0191668551415205,0.009286155924201012,-0.01605571247637272,0.027339404448866844,0.022722063586115837,0.01383901946246624,-0.010377718135714531,0.014517644420266151,