{"shape": [128]}
-0.03404732048511505,0.007093796972185373,0.018603261560201645,-0.027719279751181602,0.029442524537444115,-0.018124734982848167,0.03339282423257828,-0.01989291049540043,-0.0001538417855044827,-0.04547129571437836,-0.018226899206638336,-0.020464414730668068,0.027080416679382324,0.02939734049141407,0.03506658226251602,-0.013486617244780064,-0.04148644953966141,-0.016983704641461372,-0.017412763088941574,-0.021768158301711082,0.016699546948075294,0.028320418670773506,0.022704340517520905,-0.013983035460114479,0.007311190478503704,-0.003162538167089224,0.016717927530407906,0.0015795917715877295,-0.0070257894694805145,-0.018127277493476868,0.029218481853604317,-0.04189684987068176,-0.0035159923136234283,-0.028631465509533882,-0.012193293310701847,-0.01596672832965851,-0.03938094526529312,0.03848482668399811,0.00199639773927629,0.03968634828925133,0.022603454068303108,-0.04070132225751877,7.36262445570901e-05,0.034539394080638885,0.03839427977800369,0.01804099977016449,0.005712034646421671,0.008274467661976814,-0.02091355435550213,0.02829454280436039,0.014513347297906876,-0.01690816879272461,-0.04754282161593437,0.024404622614383698,-0.03701860457658768,-0.05709671601653099,0.02612491324543953,0.0060329558327794075,-0.03178723528981209,0.010903104208409786,-0.026618219912052155,0.009596406482160091,-0.004291960969567299,-0.028194967657327652,-0.04102606326341629,0.005892643239349127,-0.014898809604346752,0.016565794125199318,-0.02299664542078972,-0.013208630494773388,0.028740214183926582,-0.007533770054578781,-0.01297577191144228,0.010685870423913002,0.013019533827900887,0.026135185733437538,0.014433437027037144,0.03015541285276413,-0.012554822489619255,-0.023596184328198433,0.020790042355656624,-0.023794861510396004,-0.02947930432856083,0.029166050255298615,-0.031057214364409447,0.016494357958436012,-0.015853239223361015,0.03321493789553642,0.010629989206790924,0.014751356095075607,0.021271875128149986,-0.012795585207641125,0.0025063694920390844,0.018177896738052368,0.013329001143574715,-0.024780679494142532,0.02335870824754238,-0.037471238523721695,-0.002578611019998789,-0.0401538722217083,0.017565235495567322,-0.018488530069589615,0.029650194570422173,0.033113449811935425,-0.02041017636656761,-0.04537894204258919,0.039587441831827164,0.005700577050447464,0.027781851589679718,0.0320388562977314,-0.039143580943346024,-0.031000547111034393,0.009775696322321892,-0.05031032860279083,0.0018585907528176904,-0.006454923655837774,0.02259364351630211,0.028485560789704323,-0.008772289380431175,-0.02943912148475647,-0.017341621220111847,-0.009807058610022068,0.016539810225367546,-0.042959410697221756,-0.029716672375798225,-0.01886785961687565,0.026477279141545296,-0.026258938014507294