{"shape": [128]}
0.016182241961359978,-0.04275885969400406,-0.019069232046604156,0.014121864922344685,-0.024527058005332947,0.014614722691476345,-0.008320927619934082,-0.04230419173836708,0.05083513632416725,-0.019667532294988632,0.008327176794409752,-0.008926878683269024,-0.018042001873254776,-0.010698980651795864,0.029453210532665253,-0.01051884051412344,-0.03092886134982109,-0.010903749614953995,0.024617251008749008,-0.006288768723607063,-0.016097240149974823,-0.03275397792458534,-0.002225054893642664,0.008812343701720238,0.02250451222062111,-0.0014756005257368088,-0.012266146950423717,0.01894570142030716,-0.015849042683839798,-0.014310342259705067,0.02788107842206955,0.00908247847110033,0.017833121120929718,0.02002326399087906,-0.048245761543512344,-0.004203979391604662,-0.0343075729906559,0.00777865806594491,0.002423742786049843,0.018636487424373627,-0.020451409742236137,0.016250459477305412,0.030133923515677452,0.03764509782195091,0.032853346318006516,0.02876170538365841,-0.0010864576324820518,0.0020971326157450676,-0.05327755585312843,-0.013997954316437244,-0.021138397976756096,0.001408278476446867,0.0048262146301567554,-0.015218299813568592,0.008025306276977062,0.02316267229616642,0.0334526002407074,0.021808890625834465,0.03681359067559242,-0.005825097672641277,-0.021230807527899742,-0.005760642699897289,0.028282394632697105,-0.01060748565942049,0.04613432288169861,-0.00431685708463192,0.01729692704975605,-0.01930180750787258,0.034973014146089554,-0.029861798509955406,-0.04277624934911728,0.021188590675592422,0.01692691445350647,-0.04196712374687195,-0.019482294097542763,0.007519395090639591,0.020330939441919327,0.026866847649216652,0.05776509642601013,-0.017863301560282707,0.013778694905340672,0.011306846514344215,0.013007468543946743,0.052878353744745255,0.017355265095829964,0.020274655893445015,0.011202788911759853,-0.0021930134389549494,-0.0017568884650245309,-0.015749141573905945,-0.020401669666171074,0.014865797013044357,0.018177522346377373,0.01690658926963806,0.04628421366214752,0.003345763310790062,-0.018168747425079346,0.02444455586373806,-0.0065245842561125755,-0.020535744726657867,0.019446929916739464,0.028272217139601707,-0.0018151787808164954,0.003089673351496458,0.010287666693329811,-0.008295437321066856,-0.0429956391453743,0.02453705668449402,-0.0161234550178051,-0.005255337804555893,0.02544461376965046,0.009184673428535461,-0.027909768745303154,0.0020800780039280653,0.013561295345425606,0.05627499520778656,0.026087652891874313,0.004160702228546143,0.01598055474460125,-0.016128279268741608,0.019517837092280388,-0.02678348310291767,-0.01515688095241785,0.03926202654838562,-0.0229957178235054,0.034329853951931,-0.01357435341924429,0.032888013869524