{"shape": [128]}
-0.003925192169845104,-0.026505623012781143,-0.005957484245300293,-0.010466905310750008,-0.024306777864694595,-0.03713299706578255,-0.008589333854615688,0.04216163232922554,-0.01471007987856865,-0.025119690224528313,-0.008033713325858116,0.009315772913396358,-0.02063232660293579,0.02508801966905594,-0.014906431548297405,0.030081290751695633,0.008308636024594307,-0.013647780753672123,0.017258834093809128,-0.02924930490553379,-0.008468514308333397,0.018822476267814636,0.007683385629206896,-0.03397082909941673,0.00981916207820177,-0.003124429378658533,-0.014886539429426193,-0.021199526265263557,-0.00981423631310463,0.013898304663598537,-0.03516558185219765,0.021675553172826767,0.040150634944438934,-0.0002738216717261821,0.05451738089323044,0.022225230932235718,-0.003284526290372014,-0.03528909385204315,-0.018607690930366516,0.01697501167654991,0.008109294809401035,-0.024647247046232224,-0.02685091271996498,-0.0177188441157341,-0.003486820962280035,-0.025298617780208588,-0.031087417155504227,0.059641506522893906,0.01409149169921875,-0.03175870329141617,-0.02610151655972004,0.018336594104766846,0.002413389040157199,0.007692187558859587,-0.008023086935281754,0.02114776521921158,0.03264344111084938,-0.014892755076289177,-0.02180100977420807,-0.012752795591950417,0.024681758135557175,0.009538889862596989,0.01615040749311447,-0.01603195257484913,-0.004301452077925205,-0.002560132648795843,-0.022678488865494728,-0.023712901398539543,-0.03878752514719963,0.013654802925884724,-0.004107640124857426,0.016614656895399094,0.010947160422801971,-0.009959710761904716,0.014800283126533031,0.03412698954343796,-0.015683338046073914,-0.033942438662052155,0.020757123827934265,0.015216128900647163,-0.012918840162456036,-0.01072337944060564,0.04224186763167381,0.01407170295715332,0.00697704404592514,-0.012124343775212765,-0.03451741859316826,0.0016456469893455505,0.01024892833083868,0.008850482292473316,-0.00827797967940569,-0.0013451490085572004,-0.006549438461661339,0.008973417803645134,0.016445869579911232,0.02056986279785633,-0.018159467726945877,-0.018274957314133644,-0.015332644805312157,-0.0030467852484434843,-0.014446108601987362,-0.017002347856760025,0.0051310863345861435,-0.01502891257405281,0.038925763219594955,-0.012989924289286137,-0.020541153848171234,-0.004007005598396063,-0.004968063440173864,-0.028562108054757118,-0.03135249391198158,-0.031172826886177063,-0.012634437531232834,0.010601100511848927,-0.015292215161025524,-0.024631645530462265,0.017637088894844055,-0.014843801967799664,0.015946881845593452,-0.02802731841802597,-0.0022270656190812588,-0.026480376720428467,-0.008745534345507622,0.01802915334701538,0.02426302246749401,0.012756941840052605,0.0016560479998588562,-0.022508056834340096