{"shape": [128, 784]}
0.04186806455254555,0.026107637211680412,0.009129448793828487,-0.008307668380439281,0.036200087517499924,0.030126744881272316,0.045921776443719864,0.016146698966622353,0.039717238396406174,0.0016673881327733397,0.028217291459441185,-0.010497688315808773,0.02042306400835514,-0.019442224875092506,-0.018295161426067352,0.027919674292206764,-0.02071419171988964,-0.01699869893491268,0.011888311244547367,-0.006680982653051615,0.036724042147397995,-0.016098804771900177,0.04031815007328987,0.00625751493498683,0.0017610510112717748,0.006920914631336927,0.017019769176840782,-0.019151465967297554,0.04561210796236992,-0.0028779241256415844,-0.019406670704483986,-0.018224311992526054,-0.012122196145355701,-0.00926955696195364,0.028563011437654495,0.01032472774386406,-0.025329040363430977,-0.007468049880117178,-0.01483294740319252,0.015069249086081982,-0.017335444688796997,0.01587378978729248,0.03603149950504303,-0.021364500746130943,-0.004853677004575729,-0.03313949704170227,-0.009296300821006298,-0.014967410825192928,0.016814133152365685,-0.005085586104542017,-0.011511807329952717,0.03227606043219566,-0.01184105034917593,0.034880880266427994,-0.004389002453535795,-0.019467370584607124,0.008985004387795925,0.01857673190534115,0.016798654571175575,-0.02122901752591133,0.002801637165248394,0.04289598390460014,0.0016471671406179667,0.007427043281495571,0.021634859964251518,0.010874773375689983,-0.01148317102342844,-0.007479261606931686,0.012263940647244453,0.07938788831233978,0.05743754655122757,0.06706371903419495,-0.005702141672372818,0.007872240617871284,0.007236907724291086,-0.0002801815571729094,0.03197289630770683,0.009747178293764591,0.04782608523964882,-0.005853493697941303,0.0033172881230711937,-0.010055441409349442,-0.0008811476291157305,0.020545026287436485,-0.008852357976138592,0.006116580683737993,0.013341015204787254,0.013044150546193123,-0.019615599885582924,-0.01679786667227745,-0.01942640356719494,0.0207387525588274,0.008482617326080799,-0.03411100059747696,-0.012842707335948944,-0.0025521020870655775,-0.04777681455016136,0.015802713111042976,0.05720018595457077,0.023761067539453506,0.05108311027288437,0.043626174330711365,0.006970736663788557,-0.002170771127566695,-0.05303587764501572,-0.03782016038894653,-0.023785602301359177,-0.00888476986438036,0.026208091527223587,-0.0018581163603812456,0.0021499977447092533,0.013864672742784023,-0.023580169305205345,0.009653563611209393,0.04522771015763283,0.01091921515762806,-0.0033404214773327112,0.00996452011168003,0.03225724771618843,0.020426485687494278,0.018675129860639572,-0.0023692131508141756,0.019296618178486824,0.0018251597648486495,0.03537506237626076,0.04148228093981743,-0.014376357197761536,-0.016317620873451233,0.015190611593425274,-0.059323228895664215,-0.06771302223205566,-0.09591582417488098,-0.03464854881167412,-0.05536184832453728,-0.004994234070181847,0.040363166481256485,0.013891252689063549,0.0011861494276672602,-0.000938293756917119,0.017084678635001183,0.03908525034785271,0.01031660009175539,0.006230353843420744,-0.02286774292588234,-0.014612753875553608,0.04128842428326607,0.0032063829712569714,0.01242370530962944,0.00033232560963369906,-0.05381665751338005,-0.025427667424082756,0.040689412504434586,0.02161087468266487,0.01745719276368618,0.03589295223355293,0.0050389873795211315,-0.03507427126169205,-0.06335971504449844,-0.05690992251038551,-0.08382768929004669,-0.055310726165771484,-0.10888249427080154,-0.05005740374326706,0.03139529377222061,-0.006697938311845064,-0.0006725876592099667,0.00035375403240323067,0.009909022599458694,0.035376276820898056,0.017828920856118202,-0.023768894374370575,-0.02693524956703186,-0.019550908356904984,-0.03671808913350105,-0.0010541350347921252,-0.033723022788763046,-0.0083872489631176,-0.03421718254685402,-0.03736932948231697,0.027332797646522522,0.06902747601270676,0.033781010657548904,0.026123594492673874,-0.010251594707369804,-0.07705418765544891,-0.09828817844390869,-0.0531071200966835,-0.007844001054763794,-0.044206712394952774,-0.04568662494421005,0.012610390782356262,0.04293104633688927,-0.013255730271339417,-0.04520253464579582,-0.0177978053689003,0.03313688188791275,0.01937125064432621,0.01112304162234068,-0.0018864080775529146,0.02803650125861168,0.003870360553264618,-0.03958970308303833,0.00021180785552132875,-0.0939645990729332,-0.051673807203769684,-0.0032191178761422634,-0.0038753445260226727,0.061000291258096695,0.05632208660244942,0.07820877432823181,0.05083262547850609,0.02716459520161152,-0.07821636646986008,-0.10506777465343475,-0.13230590522289276,-0.04068354517221451,0.01568802259862423,-0.0020303414203226566,0.04441922530531883,0.04185612127184868,0.028082292526960373,-0.020932037383317947,0.014040172100067139,-0.011579649522900581,0.0225044097751379,-0.026861539110541344,-0.022180898115038872,-0.021448029205203056,0.016934659332036972,0.02898375317454338,-0.05021819472312927,-0.03454003855586052,-0.041747596114873886,-0.029744446277618408,-0.00807868130505085,0.04905577749013901,0.05685883387923241,0.0494665652513504,0.03390752151608467,-0.06347973644733429,-0.14460943639278412,-0.11433876305818558,-0.06089304760098457,-0.06840774416923523,-0.03291859105229378,0.03257489204406738,0.04366377368569374,0.013136652298271656,0.04027793928980827,0.06155165284872055,-0.013315095566213131,0.02733657881617546,-0.01772775873541832,-0.013510508462786674,-0.0348239429295063,-0.0072756377048790455,-0.013025956228375435,-0.04105962812900543,-0.06637226045131683,-0.024005530402064323,-0.035068389028310776,0.006408578250557184,0.006514436565339565,0.056100450456142426,0.01456801313906908,-0.023050086572766304,0.006820887792855501,-0.07415924966335297,-0.1252547800540924,-0.14667460322380066,-0.04937327280640602,-0.09393075108528137,-0.048173677176237106,0.05418916791677475,-0.017009463161230087,-0.027957187965512276,0.02670431137084961,-0.037804994732141495,-0.037941500544548035,-0.013873422518372536,0.007610965985804796,-0.025380123406648636,-0.034552596509456635,-0.00015779593377374113,-0.04766096547245979,-0.05172252282500267,-0.05975603684782982,-0.044091641902923584,-0.007804752793163061,0.0015229919226840138,-0.02431531250476837,0.038965221494436264,-0.0007770646479912102,-0.039218440651893616,-0.0589732863008976,-0.09993769228458405,-0.056613143533468246,-0.03882050886750221,-0.02448670193552971,-0.013090686872601509,0.027687670662999153,-0.006661681924015284,-0.027684025466442108,-0.035301581025123596,-0.0077579147182404995,-0.036998119205236435,-0.025741364806890488,0.014163084328174591,-0.014846608974039555,0.026776393875479698,-0.04786273464560509,-0.017597075551748276,-0.09235476702451706,-0.07252029329538345,0.008811358362436295,0.028375966474413872,0.05873767286539078,0.03830250725150108,0.025416353717446327,0.037772778421640396,0.03921576589345932,-0.06082993000745773,-0.04774611070752144,0.029208727180957794,0.013043195009231567,0.033276692032814026,0.07446908205747604,0.08405578881502151,0.062046945095062256,0.02352437749505043,-0.024663805961608887,-0.04358953237533569,-0.10107354819774628,-0.07414410263299942,-0.01133568026125431,0.040497075766325,-0.014254781417548656,0.036361828446388245,0.026787081733345985,-0.05478110909461975,-0.030678728595376015,-0.09220410883426666,0.04083818942308426,0.09259621798992157,0.10206317901611328,0.04030577093362808,0.057886261492967606,0.02132491208612919,-0.009870930574834347,-0.006367986090481281,0.015329611487686634,0.016038678586483,0.013765363022685051,0.05979756638407707,0.06478958576917648,0.07332178950309753,0.029869824647903442,0.0560627281665802,0.06354357302188873,-0.04018218815326691,-0.05277717113494873,-0.04156409576535225,-0.019551483914256096,-0.003433559788390994,0.006319883745163679,-0.015243032947182655,0.011042449623346329,-0.05664268508553505,-0.03899255394935608,-0.02812633290886879,0.03819743171334267,0.09214653074741364,0.0998227521777153,0.07700501382350922,0.04544387385249138,0.03541211783885956,-0.05390453338623047,0.025369638577103615,-0.005859298165887594,0.06254912912845612,0.08114714175462723,0.05562702938914299,0.0053344243206083775,0.030624719336628914,0.025073474273085594,0.07184324413537979,-0.018134554848074913,-0.07928893715143204,-0.06790055334568024,-0.031006652861833572,-0.05861998349428177,0.03070359118282795,0.021051723510026932,-0.016459528356790543,0.029641924425959587,-0.0012883275048807263,-0.046984169632196426,0.02970818616449833,0.04977702721953392,0.09293150156736374,0.06642646342515945,0.022116120904684067,0.006229867227375507,-0.02049402706325054,-0.03999039903283119,0.04133085161447525,0.06043609604239464,0.008455030620098114,0.12897706031799316,0.05209643766283989,0.024179205298423767,0.024651186540722847,0.05581167712807655,0.00281829247251153,0.02612200938165188,-0.11163298040628433,-0.017887772992253304,0.004343337379395962,0.023471275344491005,-0.0003645646502263844,0.023874269798398018,-0.017422212287783623,0.001059063128195703,-0.0010773796821013093,0.008203799836337566,-0.045999087393283844,0.03085564635694027,0.0832032784819603,0.055394358932971954,-0.009570686146616936,0.05131228640675545,-0.006356374826282263,-0.0526951365172863,-0.03697707876563072,-0.004278654232621193,0.028260530903935432,0.07261880487203598,0.06036266312003136,0.013832646422088146,-0.02780803292989731,-0.020427538082003593,0.014609821140766144,0.026436438784003258,-0.04986419528722763,-0.07858389616012573,-0.0007539576035924256,0.02841547690331936,-0.011373119428753853,0.0170049499720335,0.0024491294752806425,0.023677950724959373,-0.0001576129434397444,0.0012028570054098964,-0.06686524301767349,0.05209775269031525,0.07630851864814758,0.07344187051057816,-0.018814636394381523,-0.031099840998649597,0.01024798583239317,-0.03299028426408768,-0.036091793328523636,0.007068142760545015,0.06337538361549377,0.09206383675336838,0.03670567646622658,-0.009642361663281918,-0.07061901688575745,-0.019774049520492554,-0.044820886105298996,-0.045751769095659256,-0.04700677841901779,-0.019274616613984108,-0.038045357912778854,-0.02730708010494709,0.0053277513943612576,0.008629820309579372,0.03398514911532402,0.015748733654618263,0.017766792327165604,-0.013953699730336666,-0.09038111567497253,0.010735049843788147,-0.019133972004055977,0.05946756899356842,-0.038972239941358566,-0.008762533776462078,-0.07577531039714813,-0.11523781716823578,-0.12369096279144287,0.04758724197745323,0.06324328482151031,0.06134822964668274,0.006090432405471802,-0.023485124111175537,-0.07910770922899246,-0.08404609560966492,-0.05047135800123215,-0.1027711033821106,-0.024853471666574478,-0.03684166073799133,0.023482704535126686,-0.0369715541601181,-0.0326375812292099,-0.001561454264447093,0.028978833928704262,0.0375157929956913,0.00398437213152647,-0.025016242638230324,-0.04828657954931259,-0.01625264622271061,-0.025599056854844093,-0.052025314420461655,-0.029323449358344078,-0.11805945634841919,-0.1394348442554474,-0.09546752274036407,-0.03511742502450943,0.11436246335506439,0.07950303703546524,0.04840095341205597,-0.04661395028233528,-0.030409814789891243,0.013532137498259544,-0.05969150736927986,-0.004278590437024832,-0.06992842257022858,-0.02959378995001316,-0.018809687346220016,-0.020973410457372665,-0.013151071965694427,0.019253568723797798,0.03134899213910103,0.03987637534737587,0.0004086914414074272,0.03487066552042961,-0.058982521295547485,-0.07169799506664276,-0.056915897876024246,-0.0536845326423645,-0.01717011258006096,-0.06595071405172348,-0.06829728931188583,-0.09358297288417816,-0.07142001390457153,-0.0013258124236017466,0.11228538304567337,0.10857425630092621,0.04830276593565941,0.015756426379084587,0.02960784174501896,0.0396854467689991,-0.03963674604892731,-0.020609639585018158,-0.05327138304710388,-0.01998450607061386,-0.027561722323298454,-0.02458372712135315,-0.009050054475665092,0.018083559349179268,0.016413232311606407,-0.0052137128077447414,-0.010496461763978004,-0.035536982119083405,-0.004838299937546253,-0.023625055328011513,-0.04859503358602524,-0.06052862107753754,-0.03488457575440407,-0.0778224840760231,-0.14230628311634064,-0.1287560909986496,-0.06311602890491486,0.009328746236860752,0.13167954981327057,0.08443089574575424,0.08153470605611801,0.039662767201662064,0.029146404936909676,-0.026934975758194923,-0.0739278569817543,-0.018555549904704094,-0.002883482724428177,0.0017033215845003724,0.003163860645145178,0.0351930670440197,-0.02070182003080845,0.032992176711559296,-0.022060981020331383,0.015804050490260124,0.030094243586063385,0.01241539791226387,-0.03154049441218376,0.027269532904028893,0.01537448912858963,-0.06695810705423355,-0.03759918734431267,-0.028767667710781097,-0.06883133947849274,-0.05275891348719597,-0.02046615444123745,0.028636956587433815,0.06678619235754013,0.053239062428474426,-0.01467923168092966,0.03312063589692116,0.020185844972729683,-0.030702967196702957,-0.012415530160069466,-0.02651304379105568,-0.017977075651288033,0.0010823954362422228,0.01649901084601879,-0.0033707472030073404,0.014708740636706352,0.039093296974897385,0.0229309294372797,-0.011369158513844013,0.03332323580980301,0.028480855748057365,-0.026715345680713654,-0.0026000121142715216,0.02171422354876995,-0.0017471355386078358,-0.014245603233575821,-0.023614969104528427,-0.015440969727933407,-0.041692472994327545,-0.05566499009728432,0.013407041318714619,-0.03651817515492439,-0.012909073382616043,-0.03722672536969185,0.038685329258441925,0.0862666592001915,0.0073887743055820465,0.004432748071849346,0.0030434331856667995,0.02429324947297573,0.014923952519893646,0.0562044121325016,-0.018478378653526306,-0.0013404081109911203,0.03340237960219383,0.03652029111981392,0.022350816056132317,-0.019731484353542328,-0.027700811624526978,-0.014413190074265003,-0.06808936595916748,0.027136771008372307,0.01309315487742424,-0.028494706377387047,-0.03559308499097824,-0.0298777986317873,-0.06397832930088043,-0.015666835010051727,-0.06894488632678986,-0.029297662898898125,-0.05084928497672081,0.002000760054215789,0.03582277521491051,0.06609087437391281,0.08239582926034927,0.08412528038024902,0.054210733622312546,0.041106101125478745,0.04487503692507744,0.03976709395647049,0.017076881602406502,0.026054879650473595,0.013127626851201057,0.04048146679997444,0.039839696139097214,0.0355464369058609,-0.01591229997575283,-0.03466770797967911,-0.013547835871577263,0.034378781914711,0.012469091452658176,0.004800538066774607,0.012802792713046074,-0.0266842320561409,-0.022226251661777496,-0.07084878534078598,-0.06653786450624466,-0.06352483481168747,-0.06394914537668228,0.023634441196918488,0.008815898559987545,0.07425213605165482,0.05358448997139931,0.08063808083534241,0.06884751468896866,0.03436926752328873,0.048709940165281296,-0.021369561553001404,0.03870246186852455,0.012661256827414036,0.038236815482378006,-0.0009634877205826342,-0.011205693706870079,0.043991271406412125,0.028540562838315964,-7.859491597628221e-05,0.0009757858933880925,0.04160737246274948,0.019988680258393288,0.02692919783294201,-0.0025168240536004305,0.003162347711622715,0.046858612447977066,-0.0066773430444300175,-0.0014235543785616755,0.02857259288430214,-0.06724686175584793,-0.07871255278587341,-0.029274819418787956,0.03196487948298454,-0.02357107773423195,0.033232856541872025,0.006892362609505653,-0.01192531269043684,-0.008065981790423393,0.02741055376827717,0.022904183715581894,0.02849557064473629,-0.0029775449074804783,0.021792950108647346,-0.017401566728949547,0.026095082983374596,0.010178988799452782,0.02322419360280037,0.044890765100717545,0.02156689204275608,0.005784134846180677,0.002047912450507283,0.022893151268363,0.048999566584825516,0.014173155650496483,0.013951405882835388,-0.02350909821689129,-0.0031252524349838495,-0.024450333788990974,0.029584011062979698,0.022096099331974983,0.004560221917927265,-0.03080637939274311,0.010111519135534763,0.04160534217953682,0.02372528240084648,0.04727894812822342,0.015524657443165779,-0.002169366693124175,-0.016519712284207344,0.028291204944252968,0.02853657491505146,0.0009845002787187696,-0.0019916498567909002,0.04469628259539604,0.03261144459247589,-0.022551456466317177,0.0006421458092518151,0.02650020457804203,0.023385852575302124,0.02630509063601494,-0.017467418685555458,0.016029808670282364,0.0002316261816304177,0.035710904747247696,0.029712660238146782,0.035797812044620514,-0.010626665316522121,-0.024307871237397194,0.0265327300876379,0.04726477339863777,0.03416409716010094,-0.006336066871881485,0.00826808251440525,-0.015354221686720848,0.02523556910455227,0.021885203197598457,0.016635306179523468,-0.023606983944773674,0.016495434567332268,-0.031033296138048172,0.02191782556474209,0.013331684283912182,0.019463272765278816,0.0002422237885184586,-0.013472800143063068,0.001213826471939683,-0.024241646751761436,-0.015721803531050682,0.014976718463003635,-0.010727575980126858,0.012886595912277699,0.00729644438251853,-0.031165188178420067,0.01950528658926487,0.01875954307615757,-0.045688532292842865,0.01875329203903675,0.02074633352458477,-0.022688766941428185,0.005570973735302687,0.017068317160010338,0.009691049344837666,0.0059778387658298016,-0.047456175088882446,-0.03732039034366608,-0.044412918388843536,-0.01425874326378107,-0.01667904667556286,-0.004286725539714098,-0.02048000879585743,-0.02215869538486004,-0.010899157263338566,0.01810031197965145,-0.03909435495734215,0.012867245823144913,0.006488625425845385,0.01633753441274166,0.0002873249468393624,-0.024808648973703384,-0.03213563933968544,-0.03254406899213791,-0.030805202201008797,-0.041629258543252945,-0.04728667065501213,0.015043791383504868,-0.014021370559930801,0.016748148947954178,-0.00516258692368865,-0.02831127867102623,0.002640035469084978,0.006683340296149254,-0.01694570668041706,0.015077942050993443,-0.029857581481337547,0.001341214869171381,-0.031052391976118088,-0.030910495668649673,-0.011733581312000751,-0.008752779103815556,-0.04032053053379059,0.013286745175719261,0.00293469475582242,0.011457866057753563,0.0012700138613581657,-0.03128445893526077,-0.0318685919046402,-0.06244566664099693,-0.09558682888746262,-0.046243924647569656,-0.07024293392896652,-0.047404587268829346,-0.011896379292011261,-0.05200902372598648,-0.032376471906900406,-0.04288959130644798,-0.01774563081562519,-0.02410672791302204,0.022799169644713402,-0.028319193050265312,-0.025515886023640633,-0.010927709750831127,-0.03355536237359047,-0.04710788279771805,-0.007113743107765913,0.010320890694856644,-0.04021894186735153,0.0077093965373933315,0.021837936714291573,-0.03686799481511116,0.007462292443960905,-0.001325584831647575,0.04724770411849022,0.023949000984430313,0.04570472240447998,0.024859225377440453,-0.05209387466311455,-0.034450139850378036,-0.05316947400569916,-0.1169690489768982,-0.07282950729131699,-0.10993724316358566,-0.03923675790429115,0.008939807303249836,-0.01169226411730051,-0.03539686277508736,-0.004346887581050396,-0.04749220982193947,-0.009067350067198277,-0.041865259408950806,0.005920573603361845,-0.009031894616782665,-0.048403918743133545,-0.010901721194386482,-0.04439745470881462,-0.0439080111682415,-0.02295989729464054,0.0103737972676754,0.022947553545236588,0.005793475545942783,0.0448714941740036,0.043224889785051346,0.11395251005887985,0.048333555459976196,0.019625790417194366,-0.023515762761235237,-0.05911409109830856,-0.07988105714321136,-0.04034661874175072,0.0230249036103487,0.007990220561623573,-0.01393897458910942,-0.0048678237944841385,-0.008426818996667862,0.014246962033212185,0.00614887522533536,-0.015141451731324196,-0.029721248894929886,-0.0335380993783474,-0.03153018653392792,-0.0021214212756603956,-0.045687247067689896,0.012008905410766602,-0.03049830161035061,-0.027098624035716057,0.04388442635536194,0.02897515706717968,0.048469431698322296,0.04540904238820076,0.060946449637413025,0.17290183901786804,0.1416294276714325,0.11858764290809631,0.12599654495716095,0.09235470741987228,0.0895923599600792,0.0404658317565918,0.009904291480779648,0.0024284638930112123,0.019751757383346558,0.004447578452527523,-0.0216295775026083,-0.06109295040369034,-0.027827957645058632,-0.015477320179343224,0.014187434688210487,-0.013848809525370598,-0.039611026644706726,-0.015623207204043865,-0.0333695150911808,-0.011227181181311607,-0.012734104879200459,0.028174523264169693,0.06100760027766228,0.06068161502480507,0.11778640002012253,0.0884827971458435,0.1648649126291275,0.14617964625358582,0.13178473711013794,0.1719147264957428,0.17179328203201294,0.23588335514068604,0.17724937200546265,0.1581331193447113,0.07455196231603622,-0.0034472146071493626,-0.027247639372944832,-0.03364947438240051,-0.08057484775781631,-0.07409140467643738,0.00029282603645697236,0.019094431772828102,0.027297498658299446,-0.04320307821035385,-0.0038178267423063517,0.010755851864814758,-0.037019964307546616,-0.005728801712393761,0.02664121426641941,0.024969110265374184,0.04332081973552704,0.04972701892256737,0.13901357352733612,0.15055961906909943,0.1128614991903305,0.11563194543123245,0.14735378324985504,0.16318069398403168,0.17700433731079102,0.17173242568969727,0.0972089022397995,0.04681514948606491,0.04156039282679558,-0.033243995159864426,-0.035727083683013916,-0.10341441631317139,-0.09852909296751022,-0.12441478669643402,-0.09980328381061554,-0.04584440216422081,-0.0016704036388546228,0.00902535393834114,-0.03719445690512657,-0.02297300100326538,-0.03571194410324097,-0.017526693642139435,0.025867711752653122,0.03246341273188591,0.05166994780302048,0.01183952298015356,0.07172297686338425,0.08179333806037903,0.1224629208445549,0.07000425457954407,0.105841264128685,0.0563662126660347,0.05633629113435745,-0.005421040579676628,-0.023888371884822845,-0.0038338780868798494,0.050978321582078934,0.029135994613170624,-0.005889439024031162,-0.030448589473962784,-0.03198260813951492,-0.09248446673154831,-0.02443680539727211,0.001537594827823341,-0.018477926030755043,4.3744708818849176e-05,-0.03556207939982414,0.011436947621405125,-0.005962110124528408,0.01136614941060543,0.042143814265728,-0.013573093339800835,0.08356951177120209,0.03530948981642723,0.04361049458384514,0.047112949192523956,-0.010831412859261036,0.010710376314818859,-0.03773856163024902,-0.04919049143791199,-0.05627292022109032,-0.036470845341682434,-0.017427781596779823,0.004498061258345842,0.08383459597826004,0.06099892780184746,0.021110624074935913,-0.05216464400291443,-0.07396336644887924,-0.02101249247789383,-0.021640047430992126,0.001821500132791698,-0.03628113493323326,-0.012204679660499096,0.021229233592748642,0.005457220133394003,-0.02967631071805954,0.04371248185634613,0.037668097764253616,0.021576911211013794,0.08128305524587631,-0.00938700046390295,0.0401887409389019,-0.03156502917408943,-0.024894466623663902,-0.12751448154449463,-0.17797906696796417,-0.14126040041446686,-0.09686300903558731,-0.12200355529785156,0.038290172815322876,0.06843548268079758,0.08989835530519485,-0.005382020026445389,0.01045779325067997,-0.023653509095311165,0.011708692647516727,0.02802145853638649,0.016206951811909676,0.04040418565273285,0.026998212561011314,0.022373046725988388,-0.04493873938918114,-0.0433177687227726,-0.04173848032951355,0.01876523531973362,0.06802071630954742,0.01593264937400818,0.04224622622132301,-0.0044602323323488235,-0.011682613752782345,-0.01577760837972164,-0.07302983850240707,-0.07788339257240295,-0.11573775857686996,-0.0153342941775918,-0.028125127777457237,-0.0791713297367096,0.027972469106316566,0.07042275369167328,0.013382711447775364,0.023476023226976395,0.02587791532278061,-0.002041914965957403,-0.047739505767822266,-0.01851543039083481,-0.001618690206669271,0.007783181965351105,-0.02963254228234291,-0.03913634270429611,0.01386480312794447,0.022892821580171585,0.009925443679094315,0.017059294506907463,0.005345594137907028,-0.052607741206884384,-0.011967838741838932,-0.050987329334020615,-0.05738304927945137,-0.02703835256397724,-0.04503786563873291,-0.04550996795296669,-0.09081505239009857,0.018898332491517067,0.022645853459835052,-0.05996030196547508,-0.01859668828547001,0.007865272462368011,-0.005795225501060486,0.002501056529581547,0.0221073217689991,0.024725401774048805,-0.02791273407638073,-0.030063452199101448,-0.07738576829433441,-0.03298676013946533,0.016444001346826553,-0.04602952301502228,-0.030379772186279297,-0.03244094178080559,0.008572724647819996,0.031199388206005096,-0.01707657240331173,-0.06386502832174301,-0.0989573672413826,-0.004552346188575029,-0.08411048352718353,-0.0011387000558897853,-0.049577128142118454,-0.05023811012506485,-0.045312851667404175,-0.004470892250537872,0.024843605235219002,0.004971906542778015,-0.006337166763842106,-0.03252911940217018,0.03504842892289162,-0.024705618619918823,-0.005611196625977755,0.02649042382836342,-0.03402802720665932,-0.08142206072807312,-0.041288092732429504,-0.07588165253400803,-0.02996962144970894,0.006871000863611698,-0.030961332842707634,-0.004787067882716656,0.022295303642749786,-0.00395101448521018,-0.026320870965719223,-0.09191644936800003,-0.025943104177713394,0.0025053389836102724,-0.03515595570206642,-0.040509745478630066,0.0014703755732625723,-0.0527317151427269,-0.034412022680044174,0.0252887811511755,-0.028596114367246628,-0.027556082233786583,0.00812608189880848,-0.029556885361671448,0.022848637774586678,-0.0332452729344368,0.01829814910888672,-0.003627204801887274,-0.05962839722633362,-0.05157335475087166,-0.06411252915859222,-0.02871456928551197,-0.016074221581220627,-0.022737080231308937,-0.03156883269548416,0.018077747896313667,-0.0011992776999250054,-0.008708082139492035,-0.00897897593677044,-0.06584081798791885,-0.04190392792224884,-0.08913885802030563,-0.03148864954710007,-0.07415646314620972,-0.0025354756508022547,-0.08533874154090881,-0.017621800303459167,0.006363994907587767,-0.014071442186832428,0.02684199810028076,-0.01802489534020424,0.00891481526196003,-0.029102452099323273,-0.01919315941631794,0.01045684702694416,0.03289003670215607,0.014368563890457153,-0.0033805365674197674,-0.019934413954615593,-0.07044143229722977,-0.01583224907517433,-0.029260562732815742,-0.009528444148600101,-0.016198037192225456,-0.02412630058825016,-0.006438220385462046,0.012086530216038227,-0.06925255060195923,-0.016095906496047974,-0.061318572610616684,-0.06722920387983322,-0.041169051080942154,-0.03585914149880409,-0.031149979680776596,-0.023348957300186157,0.006576867774128914,-0.0035164481960237026,-0.047816064208745956,-0.011124324053525925,-0.0422227717936039,-0.016101036220788956,-0.021467085927724838,0.008355697616934776,0.0462765097618103,0.06264110654592514,-0.0009020972065627575,-0.00948135182261467,-0.04676976427435875,-0.07576508820056915,-0.03212015703320503,0.004702144768089056,0.01026623509824276,-0.026839401572942734,-0.01695656031370163,0.017021626234054565,-0.047412093728780746,-0.037708744406700134,-0.06894925981760025,-0.09554167091846466,-0.054417163133621216,-0.03677549585700035,0.0077492957934737206,0.027608396485447884,-0.0016958789201453328,-0.0351736843585968,-0.02113294042646885,0.003907055594027042,-0.007937426678836346,-0.015612438321113586,0.02057849057018757,0.028531018644571304,-0.005274724215269089,-0.007584644015878439,-0.029280683025717735,-0.04982864484190941,-0.08525288850069046,-0.059460319578647614,-0.03507189452648163,-0.04483625292778015,-0.022238116711378098,-0.036589231342077255,0.005284962244331837,0.04820990934967995,-0.046251554042100906,-0.07311824709177017,-0.11415106058120728,-0.05616934597492218,-0.06097583472728729,-0.009739365428686142,0.04296967014670372,0.03332943096756935,-0.009369625709950924,-0.0831184834241867,-0.04853001609444618,-0.022140920162200928,-0.015558607876300812,-0.032984472811222076,0.024129915982484818,0.03484988212585449,0.04171374812722206,0.028288226574659348,-0.03267975151538849,-0.001524072838947177,-0.05929776281118393,-0.023058326914906502,-0.0071784500032663345,-0.013098932802677155,0.008444988168776035,-0.007143366616219282,0.019140029326081276,0.03592545539140701,0.012212979607284069,-0.08243315666913986,-0.05351568013429642,-0.04597959667444229,-0.10934153944253922,-0.0037830588407814503,-0.016129055991768837,0.005696622654795647,-0.06756896525621414,-0.07248169928789139,-0.09899398684501648,-0.04770804941654205,0.03855296969413757,0.00890802126377821,0.08468865603208542,5.3502400987781584e-05,-0.0011002097744494677,-0.002536109881475568,0.019471140578389168,0.04037502035498619,-0.046148013323545456,0.015649862587451935,-0.007245609536767006,-0.019342167302966118,0.01430688425898552,-0.01116128172725439,-0.020462650805711746,0.05446555092930794,0.07539372146129608,-0.05311663821339607,-0.04779856279492378,0.0073826732113957405,-0.011424840427935123,-0.07919429242610931,-0.06310513615608215,-0.10895846784114838,-0.05032855644822121,-0.06783013045787811,-0.0609128437936306,-0.016645275056362152,-0.03593694418668747,0.015697671100497246,0.02057456597685814,0.0017845495603978634,0.017807547003030777,0.03026294894516468,0.027869801968336105,0.020233577117323875,-0.024273037910461426,0.010304050520062447,0.01298467256128788,0.020721279084682465,-0.01016759779304266,-0.021657776087522507,-0.0030312302988022566,0.041159361600875854,-0.002317685168236494,-0.008853936567902565,0.028731727972626686,0.03434902802109718,-0.05965675041079521,-0.020796922966837883,-0.043128907680511475,-0.021659309044480324,-0.051312901079654694,-0.013592846691608429,0.01642393320798874,0.043882887810468674,0.02737756446003914,-0.017677055671811104,0.03849067538976669,0.016211088746786118,-0.014331928454339504,0.0008784013916738331,-0.008489271625876427,0.036678608506917953,-0.028059693053364754,-0.004068784881383181,-0.006661053281277418,-0.007340282201766968,-0.025083158165216446,-0.04167136922478676,0.0021995450370013714,-0.001382868504151702,0.013349713757634163,-0.0009279721416532993,0.05807112902402878,0.006000466179102659,0.04695253446698189,0.03550505265593529,0.06585061550140381,0.00013669542386196554,0.01983634941279888,0.0316304937005043,0.05207182839512825,0.051419030874967575,0.05626056343317032,-0.028603196144104004,-0.054808810353279114,0.056368809193372726,-0.05253860354423523,0.014158550649881363,0.08126428723335266,0.020199332386255264,0.020737364888191223,-0.01445507537573576,0.020516550168395042,0.00898667611181736,-0.034371163696050644,-0.01090521365404129,-5.239588062977418e-06,0.007846583612263203,0.06039809435606003,0.05447514355182648,0.07131953537464142,0.060696639120578766,0.05005275830626488,0.12544572353363037,0.13214874267578125,0.0679636001586914,0.08307840675115585,0.06999605149030685,0.05462007224559784,0.04989692196249962,0.0050812517292797565,-0.010234496556222439,-0.011396010406315327,0.050401173532009125,-0.02471422590315342,0.06807737052440643,0.04819534718990326,0.03388552740216255,0.007000028621405363,0.0023086455184966326,0.013632622547447681,-0.03366358205676079,-0.004708708263933659,0.003709364915266633,0.008557426743209362,-0.004790375009179115,0.049967870116233826,0.09951452165842056,0.09991983324289322,0.05672088637948036,0.030726147815585136,0.06112246587872505,0.05832769721746445,0.054508715867996216,0.11460280418395996,0.09097743779420853,0.0672474354505539,0.06865447014570236,-0.025503944605588913,-0.0013069784035906196,0.041817259043455124,0.03677499294281006,-0.009151279926300049,0.005721018649637699,-0.0037420482840389013,0.03335696831345558,-0.013748209923505783,0.021183233708143234,0.01090956199914217,0.02198748104274273,0.0044977376237511635,-0.027725262567400932,0.0004903345252387226,-0.011607162654399872,0.02431681752204895,0.0389251708984375,0.04986119270324707,0.07722651958465576,0.05474913492798805,0.14893706142902374,0.09105289727449417,0.12469396740198135,0.08913236856460571,0.11180306226015091,0.10357625782489777,0.10332556068897247,0.10064065456390381,0.10256480425596237,0.14904557168483734,0.052522215992212296,0.04698614031076431,0.004609930794686079,-0.008926032111048698,0.02059403620660305,-0.029091952368617058,-0.042760469019412994,-0.007402547635138035,-0.005659815389662981,-0.005169036332517862,-0.035245440900325775,-0.003384701907634735,-0.04189039766788483,-0.037018053233623505,0.0008196171838790178,0.0038018710911273956,0.0012000069255009294,0.009159100241959095,0.042379431426525116,0.05731581896543503,0.06667155027389526,0.1181521788239479,0.09694448858499527,0.09473410248756409,0.06381599605083466,0.1160876527428627,0.1040276512503624,0.04372965544462204,0.05171822011470795,0.009633656591176987,-0.0040085650980472565,-0.03380616381764412,0.017373720183968544,0.01603444293141365,-0.01709047146141529,-0.028493942692875862,-0.0232426505535841,-0.04425760358572006,-0.035176075994968414,-0.03827616572380066,-0.013575064949691296,0.008995655924081802,-0.00037074816646054387,-0.002656899858266115,0.022917315363883972,-0.0470152422785759,-0.012486397288739681,-0.027537792921066284,0.015618594363331795,-0.03153472766280174,-0.0002542562142480165,0.021733243018388748,-0.00742821441963315,-0.00548976007848978,-0.03715391457080841,-0.03465237095952034,0.0062544988468289375,-0.015701578930020332,-0.03946686163544655,0.01906432770192623,0.002861092099919915,-0.047889214009046555,-0.03910231962800026,-0.005656315945088863,0.01038182619959116,-0.002150549553334713,-0.004143205936998129,0.007415295112878084,-0.008289194665849209,0.006598158273845911,-0.030460521578788757,-0.0342041552066803,-0.011256338097155094,-0.02371571585536003,-0.017272397875785828,-0.014742393977940083,-0.024538904428482056,-0.019605111330747604,0.006468293257057667,-0.008413824252784252,0.014298691414296627,-0.012371520511806011,-0.010320275090634823,-0.006245383992791176,0.015792671591043472,-0.044169001281261444,-0.00013869543909095228,-0.041308462619781494,0.0172484889626503,0.0030075509566813707,-0.016960762441158295,-0.029686957597732544,-0.04459809511899948,-0.037643738090991974,-0.028343774378299713,-0.02202177420258522,-0.03756755217909813,-0.005571696907281876,0.014872079715132713,-0.022502020001411438,-0.03594058379530907,-0.011755053885281086,0.013614695519208908,-0.02326854318380356,-0.01085706241428852,-0.007318074814975262,-0.014333406463265419,-0.010353359393775463,-0.022112688049674034,-0.04383126273751259,-0.029435062780976295,-0.038738276809453964,-0.0541163831949234,-0.00980036985129118,-0.027024291455745697,0.018007269129157066,-0.015142712742090225,0.0067365881986916065,-0.001863030600361526,-0.032515380531549454,-0.03199795261025429,-0.016754286363720894,-0.0110334986820817,0.0006458555581048131,-0.012339627370238304,-0.029692230746150017,0.00531509006395936,0.005366080440580845,-0.008055632002651691,-0.04316161572933197,-0.035620640963315964,0.0018618422327563167,-0.04764517396688461,-0.042766273021698,-0.04245802387595177,-0.05798104405403137,-0.00785214826464653,-0.06937413662672043,-0.02398327924311161,-0.05140550807118416,-0.014421474188566208,-0.032947003841400146,-0.03178856521844864,-0.049302153289318085,-0.014875447377562523,-0.01926068216562271,-0.04941920191049576,-0.03436720371246338,-0.01485038734972477,0.009489445947110653,-0.03394540399312973,-0.023244472220540047,0.007630087900906801,-0.0306952316313982,-0.056104447692632675,-0.04407033696770668,-0.048974376171827316,-0.04012010991573334,-0.012154240161180496,-0.08203621208667755,-0.04878895729780197,-0.09371840208768845,-0.04190608114004135,-0.00980144552886486,-0.06058463454246521,-0.0545259453356266,0.005058598704636097,-0.03362010791897774,0.01623651199042797,0.0016982837114483118,-0.02717471495270729,0.002883592853322625,-0.04040683060884476,-0.03669070824980736,-0.03799375146627426,-0.017276719212532043,0.0031301798298954964,-0.02222856692969799,-0.01879659853875637,-0.017089201137423515,-0.010405912064015865,-0.00503434706479311,-0.026957357302308083,-0.0658574104309082,-0.02079089730978012,-0.08718355000019073,-0.1127856969833374,-0.11776449531316757,-0.07567036896944046,-0.025391101837158203,-0.017451118677854538,0.016644785180687904,0.013137053698301315,0.044194355607032776,0.05959475785493851,0.028878996148705482,0.04232862964272499,0.0627041757106781,0.024748027324676514,-0.009745221585035324,0.022993290796875954,0.003211374394595623,-0.026120305061340332,-0.022901466116309166,-0.04682896286249161,-0.010516841895878315,-0.036538295447826385,0.0042289309203624725,-0.021828575059771538,-0.07779669761657715,-0.05829901620745659,-0.0997098982334137,-0.09344211220741272,-0.06434910744428635,-0.061297718435525894,0.014164733700454235,-0.03442864492535591,-0.009875859133899212,0.053528718650341034,0.06587646901607513,0.03898023068904877,0.105495385825634,0.06700252741575241,0.03746853768825531,0.08687892556190491,0.06442806124687195,0.03960033878684044,-0.011380765587091446,-0.009879947640001774,0.053776875138282776,-0.02646476961672306,0.003484289161860943,0.0009131539845839143,0.002978463191539049,0.013392065651714802,-0.0029895666521042585,-0.07587709277868271,-0.07432941347360611,-0.14272217452526093,-0.11251791566610336,-0.08551233261823654,-0.10263749957084656,-0.04821176081895828,-0.024484558030962944,0.017298970371484756,0.008769041858613491,0.094417504966259,0.06661589443683624,0.050295036286115646,0.04095810651779175,0.05918467417359352,0.04468608275055885,0.07452297955751419,0.02357456646859646,0.01300362590700388,-0.027128521353006363,-0.03237492963671684,0.024471184238791466,0.017409097403287888,-0.026580603793263435,-0.03551671653985977,0.007763412781059742,-0.0246546920388937,-0.05880693718791008,-0.0789451152086258,-0.10280989855527878,-0.06617692112922668,-0.12866544723510742,-0.06881700456142426,-0.02177526243031025,-0.025737985968589783,-0.010085560381412506,0.01370526198297739,0.06501354277133942,-0.014041725546121597,0.013126354664564133,0.058875199407339096,0.07314837723970413,0.045425895601511,0.0649859681725502,0.017014866694808006,0.01657399721443653,0.06101256608963013,0.04013989865779877,0.015893228352069855,0.05819482356309891,-0.044121019542217255,-0.05174778401851654,-0.02590286359190941,-0.03178426995873451,-0.03950997814536095,-0.06472901254892349,-0.08488970994949341,-0.10733374208211899,-0.014003820717334747,-0.10200769454240799,-0.057885296642780304,0.00770248007029295,0.029595661908388138,0.03543204441666603,0.05039278790354729,-0.029884450137615204,-0.013984468765556812,-0.010153527371585369,0.013628814369440079,0.026095036417245865,0.04008426144719124,-0.032751306891441345,-0.008003026247024536,0.03123929724097252,-0.0328989252448082,0.024398619309067726,0.10828111320734024,0.03735090419650078,0.01801580935716629,-0.022216567769646645,-0.03326944634318352,-0.02918262779712677,-0.011525968089699745,-0.04454944282770157,-0.1039992943406105,-0.0419645793735981,-0.004644652362912893,-0.07701973617076874,-0.06501148641109467,-0.013345997780561447,0.017525263130664825,0.0943371132016182,0.019949106499552727,-0.010614796541631222,-0.05802294611930847,-0.028364701196551323,-0.0007733427337370813,-0.03331991657614708,-0.009392810054123402,0.0028867244254797697,-0.02108200453221798,-0.0003709718585014343,-0.05345470830798149,0.01700296439230442,0.12409977614879608,0.09375578165054321,0.013287613168358803,-0.04155927151441574,-0.01760086975991726,-0.004028676077723503,-0.008002175018191338,-0.07298687845468521,-0.08461069315671921,0.02911083959043026,0.030495714396238327,0.011937473900616169,0.028567783534526825,0.03186767175793648,0.02963509038090706,0.084807850420475,0.05701993405818939,-0.04220116138458252,-0.06541819870471954,-0.051767922937870026,-0.045767892152071,-0.02396291494369507,0.0071107130497694016,-0.0004642970161512494,0.004890930373221636,0.01024799793958664,-0.003878397401422262,0.04120901972055435,0.1293279230594635,0.045212216675281525,0.0018289090367034078,-0.04836089909076691,-0.03387032449245453,-0.020739300176501274,-0.0721505731344223,-0.049613721668720245,-0.06028839945793152,0.0006187778781168163,0.05074653401970863,0.008627280592918396,0.02276979759335518,0.010198081843554974,0.01145150512456894,0.05449078232049942,0.04017665982246399,-0.024628791958093643,-0.0023120595142245293,-0.03480861708521843,-0.036119647324085236,-0.024939117953181267,-0.04611387848854065,0.03093229979276657,-0.026455607265233994,0.07012911885976791,0.04616142436861992,0.08801686018705368,0.08806992322206497,0.05307462811470032,-0.003765256144106388,-0.013379801996052265,0.00554256746545434,-0.005321280099451542,-0.05464158579707146,-0.05264217033982277,0.032265789806842804,0.046247709542512894,0.07034023106098175,0.010226456448435783,0.04205019026994705,0.05524956434965134,0.01814049296081066,0.028181198984384537,0.033727217465639114,-0.024090399965643883,-0.050094205886125565,-0.04577203094959259,-0.08553751558065414,-0.023029634729027748,-0.036457546055316925,0.07017125934362411,0.05201875418424606,0.0736829936504364,0.06926185637712479,0.06199266389012337,0.016793621703982353,-0.04120457544922829,0.029759258031845093,-0.042115215212106705,0.015074972994625568,-0.01400061883032322,-0.03194476291537285,-0.010234848596155643,0.02939755469560623,0.007020559627562761,0.0033038214314728975,0.09052463620901108,0.05318998172879219,0.05360045284032822,0.09406054019927979,0.07090135663747787,0.0784774199128151,0.03405177593231201,0.000949907349422574,-0.02452191151678562,-0.09475681930780411,-0.039226289838552475,-0.06525401771068573,0.02140294574201107,0.024127263575792313,0.04857372120022774,0.06878937780857086,0.04102782905101776,-0.01922687329351902,0.009446575306355953,-0.01842358149588108,-0.011159593239426613,-0.05061950534582138,-0.017085270956158638,-0.04390781745314598,-0.0296348724514246,0.016504153609275818,0.02608373761177063,0.04564094915986061,0.11137910187244415,0.029026919975876808,0.022091353312134743,0.02407100610435009,0.03905603662133217,0.011369372718036175,0.07241707295179367,0.02932041697204113,-0.04844803363084793,-0.05455118790268898,-0.015179729089140892,-0.021477529779076576,-0.023656602948904037,0.04232735559344292,0.03041056916117668,0.031094424426555634,-0.012043310329318047,-0.0018203851068392396,0.011246131733059883,-0.024966932833194733,-0.005441338289529085,-0.03387174382805824,-0.02270529419183731,-0.04704077169299126,0.017859678715467453,0.017221447080373764,0.08879346400499344,0.10000649094581604,0.07147663831710815,0.03117211163043976,-0.0031964608933776617,-0.005052297376096249,-0.004403239581733942,0.05582737177610397,-0.0009132206323556602,-0.01851680688560009,0.026875635609030724,0.010947437956929207,0.02891925908625126,0.015950527042150497,-0.0007033462170511484,0.012755783274769783,-0.019420767202973366,-0.07263907045125961,-0.03812386095523834,0.012283798307180405,0.025862477719783783,0.01621565967798233,0.011491677723824978,-0.005625019781291485,0.001147379749454558,-0.02058597281575203,-0.024932492524385452,-0.01031720545142889,0.04281558468937874,0.03084886446595192,0.0069998567923903465,0.018744897097349167,-0.03046024776995182,0.020749857649207115,0.030409375205636024,0.060103561729192734,-0.0586659200489521,-0.05341745540499687,0.03535129129886627,0.04655520245432854,0.08307258784770966,0.002181920688599348,-0.08151686191558838,-0.02498713880777359,-0.02973266877233982,-0.06144298240542412,-0.04806474596261978,-0.08203239738941193,0.019875697791576385,-0.03620531037449837,-0.010814686305820942,-0.02406994253396988,0.009841907769441605,-0.042980633676052094,-0.025917651131749153,0.025483496487140656,0.06555354595184326,0.09615849703550339,0.037068821489810944,0.0304181519895792,0.061662543565034866,-0.005032519809901714,-0.04426700621843338,-0.06786240637302399,-0.04577501863241196,-0.015702402219176292,0.010502343066036701,0.05371728911995888,0.012910965830087662,-0.04270131513476372,-0.0719698965549469,-0.007037078030407429,-0.019569892436265945,-0.05864472687244415,-0.05370324105024338,-0.0525580532848835,-0.015158534049987793,-0.04747958853840828,-0.020823603495955467,0.013546688482165337,-0.01700417883694172,-0.01931680738925934,-0.012041160836815834,0.04153762012720108,0.0674753412604332,0.14152158796787262,0.11078719794750214,0.048510510474443436,-0.0146788964048028,-0.044085774570703506,-0.015898922458291054,-0.06813830882310867,-0.1043582558631897,-0.00946603063493967,0.055553779006004333,0.06872203946113586,0.019046327099204063,-0.021133407950401306,-0.0074530052952468395,-0.009461470879614353,0.005280017387121916,0.007835396565496922,0.015255938284099102,0.002276532119140029,-0.06970363110303879,-0.05533308908343315,-0.039789408445358276,-0.029353762045502663,-0.03445181995630264,-0.053285159170627594,-0.0192062146961689,-0.0014618071727454662,0.03387313708662987,0.0815245658159256,0.0021869170013815165,0.06560822576284409,-0.027705175802111626,-0.062147725373506546,-0.053736671805381775,-0.08330561220645905,-0.05957861244678497,-0.03402272239327431,0.043632421642541885,-0.011645670980215073,-0.0065574003383517265,-0.0002133512607542798,-0.007649744860827923,0.007284541614353657,-0.017959071323275566,0.016209786757826805,0.03690870851278305,0.031240910291671753,-0.058750346302986145,-0.054212506860494614,-0.01388575043529272,0.011442839168012142,0.0005039580864831805,-0.0013236718950793147,-0.0024343833792954683,0.014645968563854694,0.07125361263751984,0.03218419477343559,-0.011783736757934093,0.020704101771116257,-0.008447809144854546,-0.0265483595430851,-0.022095834836363792,-0.07482551783323288,-0.03214587643742561,-0.0307831559330225,0.005168821197003126,0.005062837619334459,-0.0049062143079936504,-0.04058174788951874,-0.03850904479622841,-0.07855915278196335,-0.020901096984744072,0.04365020990371704,-0.005225760862231255,-0.015493958257138729,-0.0005798391648568213,-0.030225737020373344,-0.04990274831652641,-0.03359508141875267,0.00025722497957758605,-0.019106177613139153,-0.05130299553275108,-0.011672964319586754,0.05871618539094925,0.024411862716078758,0.02292483113706112,-0.00901266559958458,0.0647694393992424,-0.0018650972051545978,-0.03481132537126541,-0.05857788398861885,-0.024814879521727562,-0.023837629705667496,-0.016649939119815826,0.009119085967540741,-0.038313210010528564,-0.10766994208097458,-0.05122435837984085,-0.0784682184457779,-0.03855143114924431,0.03145913407206535,-0.010748831555247307,-0.026794089004397392,0.016699157655239105,0.001626132521778345,0.017560794949531555,0.0017003481043502688,-0.015119336545467377,0.01552946399897337,0.013996031135320663,0.010323869995772839,-0.012591715902090073,0.035845883190631866,0.03955073654651642,0.03542923927307129,0.06252175569534302,0.015635300427675247,0.019986888393759727,0.04450220987200737,-0.021654443815350533,0.02198825404047966,-0.015786178410053253,-0.03529497981071472,-0.04715244472026825,-0.044845182448625565,-0.11785769462585449,-0.11304221302270889,-0.09423436969518661,0.005523504689335823,0.003679232206195593,0.008707061409950256,0.026538994163274765,-0.01801176741719246,-0.039466507732868195,0.018853727728128433,-0.02337835729122162,-0.004910167772322893,-0.0011568053159862757,-0.026433397084474564,-0.07062689960002899,-0.048979856073856354,-0.02641119994223118,0.0758599117398262,0.06091172620654106,0.009964981116354465,0.05764864385128021,0.02462630532681942,-0.007877822034060955,-0.009846918284893036,-0.041599251329898834,-0.013527712784707546,-0.04847124591469765,-0.059650860726833344,-0.07965591549873352,-0.07363846153020859,-0.04176155850291252,-0.0009370816987939179,0.03685625270009041,0.01483879704028368,0.0070356945507228374,-0.030056238174438477,-0.027779527008533478,-0.003984916489571333,0.0010264869779348373,-0.010659970343112946,-0.0027779587544500828,-0.09558287262916565,-0.09737950563430786,-0.06808123737573624,-0.04135247319936752,0.020893322303891182,0.028293170034885406,-0.004165373742580414,0.07816781848669052,0.06413590908050537,0.042789243161678314,-0.017546730116009712,-0.04950714483857155,-0.03898110240697861,-0.04524202644824982,0.050634924322366714,0.04129005968570709,0.0201780516654253,0.020276637747883797,0.02427104115486145,0.023647135123610497,0.013483825139701366,0.0049963039346039295,-0.04944441840052605,0.0018752380274236202,-0.04003911465406418,0.00214610667899251,-0.019998863339424133,-0.04953382536768913,-0.013353412970900536,-0.050997477024793625,-0.018009137362241745,-0.033104974776506424,-0.06407897919416428,-0.01132185012102127,-0.007773339282721281,0.028913170099258423,-0.043528661131858826,-0.008880493231117725,-0.027242010459303856,0.03689160197973251,0.021073410287499428,0.045578423887491226,0.045263830572366714,0.05421961471438408,0.038752663880586624,0.006540727335959673,-0.014452713541686535,-0.009648293256759644,0.010652247816324234,-0.02478252723813057,0.013345475308597088,-0.003367434488609433,0.005506259389221668,-0.011349544860422611,-0.04308326542377472,-0.01500607654452324,-0.016887465491890907,0.006301981396973133,-0.011307574808597565,-0.03022753819823265,-0.011691760271787643,-0.001808170578442514,-0.008373180404305458,-0.0022049571853131056,0.036644961684942245,-0.009445863775908947,0.04790893569588661,-0.006039837375283241,0.03231184184551239,0.0012639615451917052,-0.012330057099461555,-0.027105413377285004,0.013556398451328278,0.013482581824064255,-0.05885380506515503,-0.012140477076172829,0.018573040142655373,-0.008414008654654026,-0.04878164827823639,-0.017142197117209435,-0.0017849713331088424,-0.0216970294713974,0.013367912732064724,-0.03750105947256088,0.005664908327162266,-0.005618778523057699,-0.024311767891049385,0.016440747305750847,-0.036517951637506485,-0.032470036298036575,-0.03531704843044281,0.005877346731722355,0.006601174362003803,-0.03641797602176666,-0.031902480870485306,0.01961572840809822,-0.006584607530385256,-0.003387890523299575,0.016093192622065544,0.0115397609770298,-0.0009637642651796341,-0.041378725320100784,-0.0432635098695755,-0.051340192556381226,0.018701020628213882,-0.004948012065142393,0.014999530278146267,0.013011221773922443,0.022738320752978325,0.031110309064388275,0.030876899138092995,-0.0043988823890686035,0.00676015904173255,-0.020313067361712456,-0.0018223264487460256,-0.010536502115428448,0.019116850569844246,-0.009742316789925098,-0.030589114874601364,-0.011901588179171085,6.797500827815384e-05,-0.006244256626814604,-0.03326021134853363,-0.01637130044400692,-0.021654633805155754,0.01137015875428915,0.01812085695564747,-0.023696446791291237,0.025229932740330696,0.008540184237062931,-0.018241068348288536,-0.034295715391635895,-0.030995657667517662,-0.028577877208590508,-0.001554214977659285,0.004506921395659447,0.00465964712202549,-0.03163475915789604,0.00882518570870161,0.023462900891900063,-0.027488425374031067,-0.02826847694814205,0.011191614903509617,-0.025934528559446335,0.00779228238388896,-0.014612940140068531,-0.03337526693940163,0.03189239278435707,0.04055286571383476,-0.01367295440286398,0.0029986270237714052,0.02580241858959198,-0.017461135983467102,-0.018976856023073196,-0.028639214113354683,-0.025813089683651924,0.006797048728913069,-0.019515061751008034,0.013428114354610443,0.027550198137760162,0.014478075318038464,-0.023681292310357094,-0.01594780944287777,0.018509091809391975,0.016312342137098312,-0.017948128283023834,0.006124214734882116,-0.000562469766009599,-0.017185529693961143,-0.004000507760792971,-0.027429362758994102,0.013107146136462688,0.012351162731647491,-0.010142299346625805,0.0253900233656168,0.05533083900809288,0.015477440319955349,0.045014165341854095,-0.0016989926807582378,0.05270066484808922,-0.024617858231067657,-0.031990423798561096,-0.0036620621103793383,0.007056218571960926,-0.006768814288079739,0.0385807640850544,0.0011181907029822469,0.012481767684221268,0.003666734555736184,-0.019091017544269562,-0.010380259715020657,0.01531327422708273,0.02606646902859211,0.014929003082215786,-0.015845781192183495,-0.018941767513751984,0.0367201529443264,0.020735984668135643,-0.02233026921749115,-0.03490205109119415,-0.033271219581365585,-0.010057119652628899,0.022571919485926628,0.06974728405475616,0.06934814155101776,0.06291377544403076,0.030624911189079285,0.007670290768146515,-0.07627396285533905,-0.0871255099773407,-0.05842243507504463,0.02228068932890892,0.06885656714439392,0.06451592594385147,-0.002679497003555298,-0.0005929740145802498,-0.009155524894595146,-0.028903428465127945,0.02637712098658085,0.019873881712555885,0.030988384038209915,-0.03176436573266983,-0.013061204925179482,0.0005458550294861197,-0.027053093537688255,-0.04777266085147858,-0.04779362305998802,-0.04047773405909538,-0.026090964674949646,0.059889521449804306,0.05519815534353256,0.09008745104074478,0.11769920587539673,0.05710079148411751,0.058648835867643356,-0.019684499129652977,-0.06201087683439255,-0.03694314509630203,-0.0541638620197773,-0.022468628361821175,0.03954020515084267,0.030800849199295044,0.08212846517562866,0.03452552855014801,0.056402236223220825,-0.012527312152087688,0.004012265242636204,0.015928518027067184,0.013699141331017017,0.02693338505923748,0.004460054449737072,0.02512170933187008,-0.01777026243507862,-0.04966627433896065,-0.06632421910762787,-0.026845335960388184,0.10351457446813583,0.15820802748203278,0.1999436318874359,0.12308669835329056,0.037932321429252625,-0.08367438614368439,-0.08343011140823364,-0.15073542296886444,-0.08373644948005676,-0.04825403168797493,-0.030637575313448906,-0.0018770352471619844,-0.017581326887011528,0.023601682856678963,0.061201076954603195,0.11677004396915436,0.0940074548125267,0.046642664819955826,0.005636851768940687,0.03509480133652687,-0.03570414334535599,0.009619317017495632,-0.021704908460378647,-0.0010138351935893297,-0.06354627013206482,0.009777951054275036,-0.06886406987905502,-0.034224364906549454,0.10877756774425507,0.14880657196044922,0.038652949035167694,0.05378172546625137,0.030927497893571854,-0.15675587952136993,-0.21431176364421844,-0.20213988423347473,-0.13534946739673615,-0.0861646831035614,-0.02189851924777031,-0.008832831867039204,-0.04226759448647499,-0.058952827006578445,0.052843961864709854,0.03887796774506569,0.10463101416826248,0.050139352679252625,0.0016578218201175332,-0.011410575360059738,0.010987511835992336,0.00849084835499525,0.025850381702184677,-0.04943918436765671,-0.08227884024381638,-0.0017408004496246576,-0.1302124559879303,-0.017260460183024406,0.08202049881219864,0.1129998117685318,0.09610608965158463,0.06455366313457489,-0.06286175549030304,-0.14550180733203888,-0.14554455876350403,-0.08514461666345596,-0.08269763737916946,0.0556911826133728,0.062275826930999756,0.00899404939264059,-0.05188004672527313,-0.03166789934039116,0.03030971996486187,0.008780631236732006,0.03491300716996193,0.027835143730044365,0.02160869911313057,-0.03363512456417084,-0.021801168099045753,-0.011412231251597404,0.01529932301491499,-0.026674145832657814,-0.056053563952445984,-0.08516096323728561,-0.10567139834165573,0.02922401949763298,0.066925548017025,0.1197810247540474,0.08559922128915787,0.10042468458414078,-0.02400834485888481,-0.16614896059036255,-0.18892870843410492,-0.1357177346944809,-0.02415037713944912,0.02062094770371914,0.05247432366013527,-0.04236274212598801,0.013099798001348972,0.049149952828884125,-0.0027947777416557074,0.012525356374680996,0.02017509751021862,0.052474502474069595,0.029568564146757126,0.02458367682993412,0.007110041566193104,-0.004914646036922932,0.016617614775896072,-0.0389263890683651,-0.022316638380289078,-0.15382696688175201,-0.08226367086172104,-0.04331517219543457,0.04345021769404411,0.11319752037525177,0.12985993921756744,0.07104060053825378,-0.04318604618310928,-0.22919923067092896,-0.2004600614309311,-0.1420254409313202,0.04490264132618904,0.010060238651931286,-0.04911582171916962,-0.01740208826959133,-0.01792093552649021,-0.03161000460386276,-0.0139668770134449,-0.03713345155119896,0.048700667917728424,0.06324122101068497,0.03354116156697273,0.0004480187490116805,0.003194974036887288,0.003596444148570299,-0.014795240014791489,0.002831127028912306,-0.04817178472876549,-0.08028637617826462,-0.16618408262729645,-0.08350462466478348,0.07533377408981323,0.1255744993686676,0.15567056834697723,0.12929971516132355,-0.013496038503944874,-0.2118351012468338,-0.17718736827373505,-0.03310743346810341,0.020215002819895744,-0.017947888001799583,-0.047551918774843216,-0.03504376858472824,-0.016466451808810234,-0.01844613626599312,-0.0036804915871471167,0.011200536042451859,0.04786685109138489,0.04719091206789017,-0.016031863167881966,-0.016562141478061676,-0.020637864246964455,0.00214419886469841,-0.040675729513168335,-0.04889807477593422,-0.04541000723838806,-0.09804855287075043,-0.1275005042552948,-0.08562599122524261,0.0049260081723332405,0.09995422512292862,0.14520005881786346,0.08093740791082382,0.004870529752224684,-0.151010662317276,-0.13417813181877136,-0.02811519056558609,0.0386497788131237,0.017152544111013412,-0.04363838955760002,-0.056456681340932846,-0.09486427903175354,-0.05307101085782051,-0.03855104744434357,-0.006025121081620455,0.018036050722002983,0.012918353080749512,0.030989287421107292,-0.022161511704325676,-0.0021816843654960394,-0.0032229251228272915,-0.0066431863233447075,-0.03543667867779732,-0.06359555572271347,-0.0528753437101841,-0.08179343491792679,-0.03673482686281204,-0.029346391558647156,0.007467355579137802,0.06685792654752731,0.10165916383266449,0.05270452797412872,-0.06917856633663177,-0.10071246325969696,-0.02938605658710003,0.020810924470424652,0.036487601697444916,-0.010893852449953556,0.036274656653404236,-0.03600989282131195,0.01386611070483923,-0.04833237826824188,-0.02409248799085617,0.050617702305316925,-0.03978874161839485,-0.04222105070948601,-0.03679529204964638,-0.033825501799583435,-0.011665119789540768,0.02038280852138996,0.015900835394859314,-0.029134763404726982,-0.040091659873723984,-0.02946384809911251,-0.015223149210214615,-0.011987840756773949,0.03031793422996998,0.011540167033672333,0.043199338018894196,0.04423775523900986,-0.0386398509144783,-0.10118582099676132,-0.01003186497837305,-0.05186401680111885,0.01170831173658371,-0.011088220402598381,0.06874539703130722,0.059733059257268906,0.028430813923478127,0.015612109564244747,-0.001290495740249753,-0.005711953155696392,-0.0830858051776886,-0.0520465187728405,-0.010767989791929722,0.010824860073626041,0.01886543072760105,-0.02177288755774498,-0.00939430296421051,0.009318356402218342,0.08639062196016312,0.008362624794244766,0.020182741805911064,-0.010320372879505157,0.0197723601013422,-0.0001675588428042829,0.08460766077041626,0.006800032686442137,-0.028890538960695267,-0.0228513665497303,-0.06352274119853973,-0.058256253600120544,0.047890275716781616,0.06379818171262741,0.0666143074631691,0.03035481460392475,0.06965992599725723,0.09011706709861755,-0.0085521275177598,0.029457231983542442,-0.03871478885412216,-0.017450479790568352,-0.009423951618373394,0.025481877848505974,0.0028702926356345415,-0.023479780182242393,0.023029230535030365,0.01069461926817894,0.0027577232103794813,0.018638910725712776,0.03318987041711807,0.018723849207162857,0.010711483657360077,0.020770451053977013,0.07880756258964539,0.05597010254859924,0.0541580431163311,-0.025380844250321388,-0.03053872287273407,-0.06009902432560921,-0.024417169392108917,0.02628963068127632,-0.026259904727339745,-0.011782481335103512,-0.016999930143356323,-0.01633511856198311,0.026822615414857864,-0.02445952780544758,-0.05853968858718872,-0.018415190279483795,-0.007174621801823378,-0.028919735923409462,0.03140471503138542,0.004962435457855463,-0.013191635720431805,-0.009454688988626003,-0.02268214337527752,-0.05109618976712227,-0.026006460189819336,-0.031189942732453346,0.008532106876373291,-0.04385143890976906,0.025380712002515793,0.07340116053819656,0.06365437805652618,0.02391086518764496,-0.0031428246293216944,-0.024312501773238182,-0.04335617274045944,0.006933919154107571,0.01565106399357319,-0.045085661113262177,-0.045373138040304184,-0.009828532114624977,-0.017821962013840675,-0.025873806327581406,-0.014703785069286823,-0.06625869870185852,-0.003782253246754408,-0.02084467001259327,0.034414440393447876,-0.004649307578802109,0.013821464031934738,0.0030402550473809242,-0.013957847841084003,-0.07753873616456985,-0.030949071049690247,-0.04690661281347275,-0.024891940876841545,-0.003715854836627841,0.0034039674792438745,0.025512835010886192,0.041904035955667496,0.0056954179890453815,-0.06032427400350571,-0.054895419627428055,-0.05114121735095978,-0.028669921681284904,0.003088305937126279,0.0027813250198960304,-0.03153049945831299,0.004955661948770285,0.0430491641163826,0.029987452551722527,-0.014371239580214024,-0.01660827361047268,-0.010548313148319721,-0.0315544530749321,0.008560718968510628,0.009424622170627117,0.024905649945139885,-0.04765962064266205,-0.029325570911169052,-0.0772654339671135,-0.12033538520336151,-0.05821271985769272,-0.018165098503232002,0.04694613069295883,0.0077092889696359634,0.10503306984901428,0.050264712423086166,0.03813961520791054,-0.08725876361131668,-0.07124940305948257,-0.056283410638570786,-0.02428974211215973,0.009464730508625507,0.0011530995834618807,-0.017375918105244637,-0.06429724395275116,-0.003234854666516185,0.05598932504653931,-0.0106846634298563,-0.03257252648472786,0.009413032792508602,-0.010590625926852226,-0.017405087128281593,0.0005994781386107206,-0.01094493642449379,0.001812079339288175,-0.04720577225089073,-0.07642033696174622,-0.056868985295295715,-0.050797369331121445,0.014902863651514053,0.013838625513017178,0.03988306596875191,0.0928669199347496,0.07622042298316956,0.07059604674577713,-0.019522789865732193,-0.051166582852602005,-0.05386190116405487,-0.02514498680830002,-0.01842546835541725,0.046968333423137665,0.026478715240955353,-0.041069261729717255,-0.04743332415819168,-0.00580358924344182,-0.028516409918665886,-0.022553186863660812,-0.03344612196087837,0.020627813413739204,-0.013580567203462124,0.01704063080251217,-0.01961059309542179,-0.06021060422062874,-0.07863254100084305,-0.05068165436387062,-0.04020965099334717,0.006882572080940008,0.04655162990093231,-0.03376049920916557,0.020811377093195915,0.08717948198318481,0.08833793550729752,0.05407462269067764,-0.011868995614349842,-0.020986048504710197,0.016214702278375626,-0.014725666493177414,-0.0026822902727872133,0.04801062494516373,-0.0024109971709549427,-0.0010249627521261573,-0.029435429722070694,-0.03756706044077873,-0.031599901616573334,-0.033497728407382965,0.026343274861574173,0.010331554338335991,0.01002159807831049,0.03405510634183884,-0.001409009681083262,-0.05634552612900734,-0.048708476126194,-0.02093764767050743,-0.03739939257502556,-0.033422403037548065,0.006071532145142555,-0.019025538116693497,0.017771728336811066,0.04016996920108795,0.04862223193049431,0.09245625138282776,0.07561418414115906,0.026354918256402016,0.059960443526506424,0.02679317444562912,0.005032449960708618,0.032646387815475464,0.01110655814409256,0.012641731649637222,-0.038655150681734085,-0.041269149631261826,0.02213769592344761,0.029253123328089714,-0.02117486111819744,0.012891119346022606,-0.013107859529554844,0.013716040179133415,0.03113614395260811,0.01567041128873825,-0.03785191848874092,-0.05702371895313263,-0.053602248430252075,-0.03551942855119705,-0.0308422539383173,-0.0015633981674909592,0.003742469707503915,-0.0014131574425846338,0.02389107272028923,0.056049201637506485,0.05727343261241913,0.062184080481529236,0.09036324173212051,0.01794673316180706,0.025814808905124664,-0.036171045154333115,0.004696004092693329,-0.06221626326441765,-0.02390129305422306,-0.042035263031721115,-0.019680162891745567,-0.004365480504930019,0.009479201398789883,-0.019341977313160896,-0.013215417973697186,-0.020016921684145927,0.044550806283950806,0.018074829131364822,-0.021262863650918007,-0.07014495879411697,-0.04741881415247917,-0.056109167635440826,-0.05708056688308716,0.003148962976410985,-0.002580581698566675,-0.012595107778906822,0.07515089958906174,0.10485225915908813,0.0632796436548233,0.14783938229084015,0.061211250722408295,0.004285064991563559,-0.03092258982360363,-0.011467058211565018,-0.04987306147813797,-0.04020104184746742,-0.06324993073940277,-0.05992820858955383,-0.03020399995148182,0.038728680461645126,0.0269730594009161,0.01653861254453659,0.030697140842676163,0.024625085294246674,-0.029976550489664078,-0.0054947747848927975,0.0015733047621324658,-0.02045849896967411,-0.08472215384244919,-0.06151114031672478,-0.00929654948413372,0.015103367157280445,0.044387854635715485,0.06754327565431595,0.05983180180191994,0.08507229387760162,0.027101755142211914,0.09953106939792633,0.008928610011935234,-0.011079213581979275,-0.02278345264494419,-0.08352012187242508,-0.06774686276912689,-0.024752462282776833,-0.04923844337463379,-0.053080808371305466,-0.03394722938537598,-0.0336623415350914,-0.014180661179125309,-0.010503738187253475,-0.0269839558750391,0.02714541181921959,0.0357111319899559,-0.03512897342443466,-0.03798550367355347,-0.024570709094405174,-0.07099829614162445,-0.03741936385631561,-0.10322671383619308,-0.07008703052997589,-0.044414591044187546,-0.02316437102854252,-0.0076117911376059055,-0.032603126019239426,0.02330322191119194,0.020705251023173332,0.004773370455950499,-0.025792626664042473,-0.07093627750873566,-0.09723005443811417,-0.05383068323135376,-0.005591623950749636,0.0013991554733365774,0.0037412443198263645,0.02255009487271309,0.029369976371526718,0.02699938230216503,-0.0229919645935297,0.03486083820462227,0.032846398651599884,-0.030992714688181877,-0.03519684076309204,0.015043304301798344,-0.013199537992477417,-0.03589792549610138,-0.019146306440234184,-0.03325206786394119,-0.057867631316185,-0.02472858689725399,-0.022008849307894707,-0.09551912546157837,-0.14468145370483398,-0.14126867055892944,-0.09642181545495987,-0.08643900603055954,-0.02799709141254425,-0.06187014654278755,-0.020931154489517212,-0.028849158436059952,0.02175913378596306,-0.016808345913887024,-0.009721669368445873,-0.021732768043875694,0.01928635872900486,0.033805567771196365,0.022326523438096046,0.01990402676165104,-0.0017924924613907933,0.006146345287561417,0.025526346638798714,0.0030586449429392815,0.031120428815484047,-0.011608285829424858,0.007212062831968069,-0.013315223157405853,-0.035213664174079895,-0.006837138906121254,0.00835343636572361,-0.029762720689177513,0.00014703739725518972,-0.011605324223637581,-0.004513001535087824,-0.0014789283741265535,0.018284330144524574,0.009902368299663067,0.008621922694146633,-0.00045193047844804823,-0.03191989287734032,0.01492922380566597,0.000517416512593627,-0.03071877546608448,-0.015004632994532585,0.0066602798178792,-0.018989134579896927,0.028863949701189995,-0.007676861248910427,0.032382287085056305,0.01383412815630436,0.02124166488647461,0.008151115849614143,-0.0024300874210894108,0.03241385519504547,0.021968841552734375,0.024622954428195953,-0.008102881722152233,0.023159557953476906,-0.01949530839920044,0.014466415159404278,0.03478091210126877,-0.011280838400125504,0.002098880475386977,0.03448326140642166,0.028668222948908806,0.01658836007118225,-0.013776212930679321,-0.02955428510904312,-0.03328588977456093,-0.010769769549369812,0.022657863795757294,-0.007074553519487381,-0.018255647271871567,-0.007235044613480568,-0.005323485471308231,0.016622934490442276,0.019411824643611908,-0.02300761640071869,0.011293221265077591,0.0052073015831410885,0.03331010416150093,-0.024222614243626595,0.010087612085044384,0.03360946103930473,-0.0054368977434933186,-0.013279782608151436,-0.006284295115619898,0.0011797086335718632,-0.007627784740179777,-0.012176763266324997,0.005595889408141375,-0.011127914302051067,-0.019977163523435593,-0.0038371782284229994,-0.011825045570731163,-0.031204363331198692,-0.010860607028007507,0.016069445759058,-0.03234020993113518,-0.0026056154165416956,-0.013790890574455261,-0.02578478306531906,-0.03128497302532196,0.014135129749774933,-0.03089773654937744,0.015159854665398598,-0.012001737020909786,0.0019233932252973318,0.02675558626651764,-0.005163558758795261,0.057990167289972305,0.010124262422323227,0.0469837561249733,0.022094741463661194,0.034514058381319046,0.0159938745200634,-0.005101549439132214,-0.03935328871011734,0.005534128285944462,-0.0028806186746805906,0.03475646674633026,-0.004998309537768364,0.021806588396430016,-0.005253688432276249,0.03915700688958168,0.0009298734948970377,0.03528985753655434,0.03303159028291702,-0.027162395417690277,0.013204606249928474,0.005884360522031784,-0.013255678117275238,-0.008819429203867912,0.03364247828722,0.023088032379746437,0.02320612594485283,-0.002461144467815757,0.021113039925694466,0.027332963421940804,0.025418292731046677,0.027251338586211205,0.031239524483680725,-0.050878893584012985,-0.07989581674337387,-0.09877307713031769,-0.06598958373069763,-0.09515752643346786,-0.10911659896373749,0.00348623632453382,-0.029093530029058456,0.02990567870438099,0.026723213493824005,-0.012900158762931824,0.03867579251527786,-0.016797488555312157,0.004505956545472145,-0.0354645736515522,0.010640786960721016,-0.003916044253855944,-0.005452136974781752,-0.03463582694530487,-0.0016129553550854325,0.06540299206972122,0.032822638750076294,0.046251650899648666,0.09597347676753998,0.13100329041481018,0.09975617378950119,0.05360988527536392,0.03947179764509201,-0.04857809469103813,-0.07714346051216125,-0.0823248028755188,0.011554490774869919,-0.015838200226426125,-0.05039329454302788,0.023149512708187103,0.01977081224322319,0.05946772173047066,0.03770101070404053,0.005953094456344843,-0.02252061292529106,-0.0173016469925642,-0.024670422077178955,0.023821614682674408,0.004719177260994911,-0.02902752161026001,-0.0029539403039962053,0.025023605674505234,0.03315472602844238,0.054905518889427185,0.07206407189369202,0.1652473509311676,0.2311529815196991,0.21175728738307953,0.15435130894184113,-0.02504424750804901,-0.12199952453374863,-0.21820373833179474,-0.20824770629405975,-0.15435338020324707,-0.001515091978944838,0.13190673291683197,0.1443060338497162,0.09987300634384155,0.03630295395851135,0.00590540561825037,-0.1052895039319992,-0.06588726490736008,-0.06465145200490952,-0.016096264123916626,-0.006561893504112959,-0.009042337536811829,-0.00785174872726202,-0.030717823654413223,-0.022128403186798096,0.005308385007083416,0.009355448186397552,0.15268933773040771,0.13686057925224304,0.06373343616724014,0.16700947284698486,0.10862725973129272,0.005107571836560965,-0.0893499031662941,-0.1530718356370926,-0.3285069465637207,-0.3075200617313385,-0.07281746715307236,0.10938096046447754,0.1835935413837433,0.13836273550987244,0.15191930532455444,0.07958395034074783,-0.07184769213199615,-0.13814391195774078,-0.06914296746253967,-0.03906000405550003,-0.05715085193514824,-0.026822684332728386,0.014155471697449684,-0.031924888491630554,-0.006916150916367769,-0.002611767966300249,0.02659211866557598,0.05171579495072365,0.09511417895555496,0.034487321972846985,0.046888936311006546,0.07611273229122162,0.034877900034189224,-0.018052658066153526,-0.06020522490143776,-0.11998788267374039,-0.3653945326805115,-0.24616189301013947,0.023919271305203438,0.12031354010105133,0.16841967403888702,0.09259944409132004,0.08602628856897354,0.0035772814881056547,-0.033515565097332,-0.058397140353918076,-0.05277063697576523,-0.05421369522809982,-0.00975002720952034,-0.011487873271107674,-0.029460571706295013,0.002333241980522871,-0.025157781317830086,0.0044632647186517715,0.03862718865275383,0.09135248512029648,0.10151716321706772,0.06430266797542572,0.12956111133098602,0.06544362753629684,0.1675058752298355,0.14111202955245972,0.013605702668428421,-0.17791862785816193,-0.28751951456069946,-0.1019490510225296,0.03680270537734032,0.14017510414123535,0.12356985360383987,0.012285932898521423,-0.05773429945111275,-0.0757521241903305,-0.029912201687693596,-0.042264174669981,-0.059826627373695374,-0.03413689136505127,0.00246728234924376,-0.0022461609914898872,0.02308528497815132,0.0328790508210659,0.017941687256097794,0.03337160497903824,0.03085014969110489,0.05164719372987747,0.045693859457969666,0.06649203598499298,0.035722747445106506,0.10691165924072266,0.1129012256860733,0.062061384320259094,-0.05257534235715866,-0.14803557097911835,-0.22919872403144836,-0.12616516649723053,0.04418085888028145,0.13982327282428741,0.03768536075949669,-0.03385880962014198,-0.05095670744776726,-0.03723929822444916,-0.03712327405810356,-0.006540523376315832,-0.04159298539161682,-0.014045833609998226,0.0027956273406744003,-0.02392362803220749,0.033250387758016586,0.025570321828126907,-0.013559329323470592,0.06614597141742706,0.003499148180708289,-0.001322876545600593,0.014704041182994843,-0.028959840536117554,0.0031022110488265753,0.08589044213294983,0.11153224855661392,0.01839180290699005,-0.04508448392152786,-0.06961887329816818,-0.19046102464199066,-0.13312062621116638,-0.03175390511751175,0.04315727949142456,0.04321301728487015,-0.0546376034617424,-0.03359636664390564,-0.0012181475758552551,-0.01513450313359499,-0.006701305974274874,-0.025189366191625595,0.057745303958654404,-0.022315695881843567,-0.021644312888383865,-0.03168328478932381,-0.005639759823679924,0.01759970374405384,0.06612899899482727,0.01368661504238844,-0.021205898374319077,0.0974976196885109,0.014145717956125736,-0.0011834100587293506,0.055946748703718185,0.07729184627532959,0.04330054670572281,-0.001840016571804881,-0.12472205609083176,-0.19181378185749054,-0.07606680691242218,-0.06524280458688736,0.1254427284002304,0.018024805933237076,-0.05760829150676727,-0.018550267443060875,0.008737888187170029,-0.02645803801715374,-0.10432279855012894,-0.020940212532877922,-0.036962930113077164,0.008635946549475193,-0.03895395249128342,-0.013887820765376091,0.017487257719039917,-0.00434556370601058,0.038157545030117035,0.04259037971496582,-0.034391164779663086,0.053580764681100845,-0.009774723090231419,0.03331713378429413,0.012497622519731522,0.009775013662874699,-0.034811507910490036,-0.08740535378456116,-0.1508563905954361,-0.10905302315950394,-0.10066111385822296,0.008259541355073452,0.11343344300985336,0.011542893946170807,0.020486848428845406,-0.062016941606998444,0.03134213015437126,0.07876963168382645,0.009187604300677776,-0.07394004613161087,0.030418815091252327,-0.001695225015282631,0.004287558142095804,-0.0038625290617346764,0.030725650489330292,-0.007103511597961187,0.028624651953577995,-0.023541662842035294,-0.011843666434288025,0.07769010961055756,0.024334542453289032,0.017292102798819542,-0.02930503711104393,-0.05584542080760002,-0.16018761694431305,-0.1186114102602005,-0.16636766493320465,-0.07065168023109436,-0.056864459067583084,0.031164294108748436,0.02341325767338276,0.04244986176490784,-0.04152657836675644,-0.07997579127550125,2.450007013976574e-05,0.057198964059352875,-0.03807926923036575,-0.0027621218468993902,0.01193195953965187,-0.01369687169790268,0.019508861005306244,-0.012959655374288559,0.0044633494690060616,0.025877801701426506,0.028319353237748146,-0.03742530569434166,0.05174659565091133,0.1327749639749527,0.004182926844805479,-0.007798725739121437,-0.030105717480182648,-0.07174353301525116,-0.1173398569226265,-0.09112073481082916,-0.12635870277881622,-0.13251632452011108,-0.03214742988348007,0.06669379770755768,0.02884518727660179,0.07539480179548264,0.005339374765753746,0.062043286859989166,-0.026184512302279472,-0.05483883619308472,-0.02548048086464405,0.018617471680045128,-0.015350250527262688,0.02333914116024971,0.008594263345003128,0.026586253196001053,0.021374475210905075,-0.02158716879785061,-0.0020717070437967777,0.060391705483198166,0.0669342651963234,0.007837159559130669,-0.021676864475011826,-0.05456648766994476,-0.06554561108350754,-0.06983707845211029,-0.07512729614973068,-0.06128353625535965,-0.026025760918855667,-0.0364384762942791,-0.020371213555336,0.04751792922616005,-0.011198937892913818,0.0344390943646431,-0.016022946685552597,0.00762392720207572,0.0326080359518528,-0.0585048608481884,0.013689673505723476,0.037610553205013275,-0.028884483501315117,0.03260799124836922,0.06025848537683487,-0.015518365427851677,-0.006899448577314615,-0.016732558608055115,0.0022149523720145226,0.04945995658636093,0.0038010883145034313,-0.04410788416862488,-0.038396138697862625,-0.0242281723767519,-0.025837527588009834,-0.033058181405067444,-0.030134130269289017,-0.07603605091571808,-0.08950524032115936,-0.09286325424909592,0.053329724818468094,0.11040540784597397,0.0657971203327179,0.025475528091192245,-0.03565070405602455,0.066431924700737,0.04865472391247749,0.0941038727760315,0.013152451254427433,-0.02673797868192196,0.0005311741842888296,0.07642358541488647,0.0683305561542511,0.002752729458734393,0.004007205367088318,-0.012413622811436653,0.022280944511294365,-0.02934165857732296,-0.024173393845558167,0.014735582284629345,-0.011835267767310143,-0.06863559782505035,-0.04580402374267578,-0.04413409158587456,-0.07554631680250168,-0.06785230338573456,-0.15817095339298248,-0.096514992415905,0.072067029774189,0.13691793382167816,0.03381311520934105,0.024085428565740585,0.036615900695323944,-0.009790738113224506,0.04401920363306999,0.0741165280342102,0.058029383420944214,0.006611112970858812,0.02807978168129921,0.08541462570428848,0.03377925604581833,0.02052430994808674,0.027948301285505295,-0.011560740880668163,-0.024190416559576988,-0.022639833390712738,-0.021565815433859825,0.02578897774219513,-0.04680066555738449,0.026059815660119057,0.0018520628800615668,0.01618587225675583,-0.05528205260634422,-0.12429841607809067,-0.1979467123746872,0.012379834428429604,0.12389405071735382,0.11561499536037445,0.0342094749212265,0.05335458368062973,0.08713094890117645,-0.01516780350357294,0.04418714717030525,0.1204124316573143,0.0764254480600357,-0.06887004524469376,0.02888646349310875,0.06362393498420715,-0.034367635846138,-0.009962320327758789,-0.025700261816382408,-0.01289277896285057,-0.02177615649998188,-0.024683531373739243,-0.044615238904953,-0.03988152742385864,0.04554987698793411,0.03433750569820404,-0.005368832498788834,0.00678714644163847,-0.10114654898643494,-0.25777414441108704,-0.18113665282726288,0.038277484476566315,0.17079724371433258,0.12041230499744415,0.05172967165708542,0.07936207950115204,0.05354342609643936,0.07867804169654846,0.0605475939810276,0.051751963794231415,0.08771461248397827,-0.0257098488509655,0.006892342120409012,0.004667678382247686,0.028797080740332603,-0.015149444341659546,-0.032388392835855484,0.029364991933107376,0.004431768786162138,0.010739937424659729,-0.0517616830766201,-0.08302099257707596,-0.015145497396588326,0.05263383314013481,0.03554477170109749,0.0023683279287070036,-0.13371001183986664,-0.19195489585399628,-0.07879927009344101,0.08421602845191956,0.13582274317741394,0.1021435484290123,0.04465991258621216,0.11023471504449844,0.1370425522327423,0.09409134089946747,-0.011679149232804775,-0.010627889074385166,-0.012921206653118134,-0.02724531479179859,-0.048801030963659286,0.01151307299733162,-0.002500379690900445,0.01878676749765873,0.03261101245880127,-0.019279412925243378,0.03764301910996437,0.0021985380444675684,0.02579260990023613,-0.0036682295612990856,-0.022899923846125603,-0.044944752007722855,0.054898012429475784,-0.0005493393400683999,0.009498482570052147,-0.009386672638356686,-0.014650498516857624,0.08352748304605484,0.08551635593175888,0.07253777980804443,0.06148697808384895,0.0843191146850586,0.047170527279376984,0.023796886205673218,-0.02172604203224182,-0.013614093884825706,-0.0021586723159998655,-0.0796578973531723,-0.057060036808252335,-0.024282537400722504,0.026591867208480835,0.0030217471066862345,-0.013828185386955738,0.002810252597555518,-0.005121041554957628,0.0002460993709973991,-0.004113362170755863,0.06811490654945374,-0.0026826253160834312,-0.05078159645199776,-0.025817273184657097,0.0241618063300848,-0.08333101868629456,-0.00379167590290308,-0.04196745157241821,0.05026480555534363,-0.00025273236678913236,0.017483066767454147,-0.02990645542740822,-0.017923777922987938,-0.0046681188978254795,0.019952479749917984,-0.03598083183169365,0.016061605885624886,-0.04062976688146591,-0.06412126123905182,-0.07200457900762558,0.02976171299815178,-0.03228086978197098,0.024399925023317337,0.01310695894062519,-0.015302788466215134,-0.009186812676489353,-0.033046215772628784,-0.027653712779283524,0.005779053550213575,-0.026684781536459923,-0.019360173493623734,-0.04722214117646217,-0.05717070400714874,-0.05589298903942108,-0.06357437372207642,-0.009852000512182713,0.028154335916042328,-0.013467681594192982,0.009499233216047287,-0.0031698301900178194,-0.039038632065057755,-0.04199443385004997,-0.009209397248923779,-0.08830569684505463,0.033851440995931625,-0.04433940723538399,-0.09688831865787506,-0.06577176600694656,0.01795017346739769,-0.021365685388445854,0.019938383251428604,-0.016337314620614052,-0.03340703621506691,0.015370011329650879,0.0026079362723976374,-0.006964133121073246,-0.04575531929731369,-0.023857900872826576,-0.005444322247058153,-0.026976902037858963,-0.04859171807765961,-0.11707913130521774,-0.1307053118944168,-0.10270462930202484,-0.027978133410215378,-0.045455630868673325,0.017216872423887253,0.021876007318496704,0.05836386978626251,0.050272196531295776,-0.033293217420578,-0.01988748274743557,-0.045634400099515915,-0.06331473588943481,-0.030167805030941963,-0.04914141818881035,-0.02403157204389572,0.011691667139530182,0.0027156563010066748,-0.00774898286908865,-0.018168598413467407,0.003556350478902459,0.01647556573152542,-0.02918476238846779,0.01206117682158947,-0.014081032946705818,-0.007141252048313618,0.06350833922624588,-0.026718351989984512,-0.09112366288900375,-0.04563359543681145,-0.031757816672325134,-0.09031563252210617,-0.051696211099624634,-0.031009336933493614,0.015897195786237717,0.04662333056330681,0.058972544968128204,-0.049968186765909195,-0.11445269733667374,-0.05064403638243675,-0.01627901941537857,0.008333425968885422,0.023543167859315872,-0.015921298414468765,0.03134065121412277,0.0016268559265881777,-0.022592589259147644,-0.02223243936896324,-0.013593778945505619,0.01192077063024044,0.00665252935141325,-0.02519739232957363,0.027447959408164024,-0.0019999626092612743,-0.018265623599290848,-0.05939794331789017,-0.051848214119672775,-0.10225163400173187,-0.07291701436042786,-0.05842027813196182,-0.14710581302642822,-0.12206156551837921,-0.16711390018463135,-0.1344851553440094,-0.04606469348073006,-0.021575801074504852,-0.09097394347190857,-0.0756484717130661,0.01914796605706215,-0.02656993456184864,-0.011878807097673416,0.02336850017309189,0.024840891361236572,0.007538995705544949,0.003057679394260049,0.010692136362195015,-0.011992942541837692,0.03450419008731842,-0.03473281487822533,0.017152586951851845,0.030111156404018402,-0.01101408340036869,-0.007310538087040186,0.03898216784000397,0.013575741089880466,0.011743402108550072,0.012804127298295498,-0.0036063585430383682,-0.043630048632621765,-0.0275619737803936,-0.039920344948768616,-0.009735682047903538,-0.025737609714269638,-0.007351293694227934,0.003727781353518367,0.029471347108483315,-0.01826281100511551,-0.0025013855192810297,0.03036944754421711,0.02794473245739937,-0.011879552155733109,0.017784129828214645,-0.012126133777201176,0.012393246404826641,0.017300335690379143,0.03776044771075249,0.024101445451378822,-0.0018080576555803418,0.030466711148619652,0.029335444793105125,-0.0008761008502915502,0.029735209420323372,-0.005351069383323193,0.03224066644906998,-0.025643503293395042,0.024023378267884254,0.0043222252279520035,0.03635778650641441,0.04280782863497734,0.019495723769068718,0.006845470052212477,0.03362071514129639,0.015829941257834435,-0.011915751732885838,-0.017199991270899773,0.02389628253877163,-0.0003964529314544052,0.03563627228140831,0.03516336530447006,0.023076649755239487,-0.016775386407971382,-0.0217861570417881,0.03700919821858406,-0.0038610801566392183,0.03166684880852699,0.02036377228796482,-0.007958953268826008,0.033289287239313126,0.03208986297249794,-0.02529500238597393,-0.019573407247662544,-0.02258208394050598,-0.003938306588679552,0.007375555112957954,0.018577471375465393,0.030323244631290436,0.025995783507823944,-0.017867350950837135,0.025597134605050087,-0.023418676108121872,-0.02554660104215145,0.04479091987013817,0.017832666635513306,0.030071130022406578,-0.005046281032264233,0.037735093384981155,-0.0066347201354801655,0.011910089291632175,0.03988630697131157,-0.015968305990099907,-0.0027169862296432257,0.03490675613284111,0.012506271712481976,0.012667597271502018,-0.02515343204140663,0.033076513558626175,0.04428413137793541,-0.013611232861876488,-0.0008574111852794886,0.005036627873778343,-0.004634204786270857,-0.025891412049531937,-0.010804192163050175,0.027527159079909325,0.011995113454759121,0.00416977284476161,-0.012518022209405899,0.008339662104845047,-0.021290935575962067,0.03575565293431282,-0.002958822762593627,-0.00565899396315217,0.018291600048542023,0.031338855624198914,0.012655769474804401,-0.015676800161600113,-0.02201099880039692,-0.0017222864553332329,0.014701527543365955,-0.010473801754415035,0.021052207797765732,-0.0019963488448411226,0.028448013588786125,0.014352832920849323,-0.013345986604690552,0.0227267574518919,0.02791067212820053,-0.001797651988454163,-0.03345748782157898,-0.03406756371259689,0.0010859904577955604,-0.005477364640682936,0.02721460349857807,-0.005499841179698706,0.044690199196338654,-0.008139691315591335,0.018816063180565834,0.02940998040139675,-0.007782542612403631,-0.023169245570898056,0.024878958240151405,0.04410677030682564,-0.023110676556825638,-0.003880281699821353,-0.01663793809711933,-0.013359085656702518,0.041177112609148026,0.0399506650865078,0.023120112717151642,-0.017092430964112282,0.025261174887418747,-0.01736902818083763,0.015599636361002922,0.029650740325450897,0.010755002498626709,-0.017624666914343834,0.008200361393392086,-0.026670299470424652,0.025810303166508675,-0.04102763533592224,-0.000562553177587688,-0.009001020342111588,-0.0020007144194096327,-0.01395752839744091,-0.002365667372941971,-0.017788633704185486,-0.01567796990275383,0.012567411176860332,0.041799455881118774,0.04177366569638252,-0.013569541275501251,0.036036498844623566,0.0276974905282259,0.016092054545879364,0.01433387491852045,0.0019020072650164366,0.00760781392455101,-0.005479250103235245,0.0137642165645957,0.04572787508368492,-0.010897355154156685,0.007731115445494652,0.02101060003042221,-0.01938800886273384,0.012540875002741814,-0.0022508869878947735,0.00035718013532459736,0.02098402939736843,-0.021394304931163788,-0.009451399557292461,0.013376530259847641,-0.00540422135964036,-0.008130962960422039,-0.0037675134371966124,0.01761949062347412,0.025030603632330894,0.013786478899419308,-0.010554463602602482,0.033586423844099045,-0.006236105225980282,-0.0199343990534544,-0.0054789879359304905,0.03473480045795441,-0.02443336509168148,0.03293123096227646,0.044584501534700394,-0.00804385170340538,0.05440888553857803,0.016521643847227097,-0.02564430795609951,0.00661291042342782,-0.010301750153303146,-0.004086178261786699,-0.04022116959095001,-0.03845779225230217,0.022369546815752983,-0.0001468359841965139,-0.023434704169631004,-0.004153078887611628,-0.023649390786886215,-0.01038171537220478,-0.017557840794324875,0.026488589122891426,0.022822683677077293,0.043002281337976456,0.023735778406262398,-0.0076334066689014435,0.031759366393089294,-0.0038808740209788084,0.027989769354462624,0.005366792436689138,0.022317543625831604,-0.019487110897898674,-0.021682025864720345,-0.007972042076289654,0.02335304394364357,-0.012486382387578487,0.008032605983316898,-0.007347149774432182,0.019512789323925972,-0.01387681532651186,-0.04632077366113663,0.003863409161567688,-0.014496373012661934,-0.001419524080120027,-0.011896123178303242,0.02400815300643444,-0.027693787589669228,-0.04015875607728958,-0.04139632359147072,0.028110556304454803,0.0015593892894685268,0.007141666486859322,-0.020981483161449432,0.018550574779510498,-0.002353537129238248,-0.010850385762751102,0.01563609577715397,0.03554660826921463,0.02510935254395008,-0.023673024028539658,-0.0034054627176374197,0.004952155519276857,-0.0008974145166575909,-0.005153831094503403,0.005825811065733433,-0.027177704498171806,0.01683160290122032,-0.0028831837698817253,-0.0396747887134552,-0.013373123481869698,-0.0077926465310156345,-0.027193740010261536,-0.020209133625030518,0.016539042815566063,0.027371974661946297,-0.024657072499394417,-0.026020076125860214,0.006906391587108374,-0.013154184445738792,0.019937539473176003,-0.011702451854944229,0.014401903375983238,0.015453441999852657,0.01612105220556259,-0.004781177267432213,0.01362121943384409,0.03282804787158966,0.0016866223886609077,0.0018338615773245692,0.027090687304735184,-0.029889775440096855,-0.04035647213459015,0.017540588974952698,-0.008260536007583141,-0.043316345661878586,-0.03393831104040146,0.002994708949699998,0.015464358031749725,-0.024537447839975357,0.026358135044574738,0.012824833393096924,-0.020711800083518028,0.02573523484170437,0.007959998212754726,0.030219992622733116,-0.006939122918993235,-0.024878015741705894,-0.019751034677028656,0.023258617147803307,-0.026067329570651054,-0.004785242956131697,0.00806636642664671,-0.013464776799082756,-0.0055418070405721664,-0.022888116538524628,-0.018965881317853928,0.029353605583310127,-0.007135148625820875,-0.017435047775506973,-0.022174382582306862,-0.002934759948402643,-0.030495263636112213,-0.016352979466319084,0.026220574975013733,0.03882715106010437,0.015663310885429382,-0.02588130161166191,0.014034672640264034,0.011499039828777313,0.007503308821469545,-0.010957484133541584,-0.020090574398636818,0.03021916374564171,-0.01925252564251423,-0.012351452372968197,-0.0064504812471568584,-0.005353777203708887,0.0020659705623984337,-0.0023671400267630816,-0.02034803293645382,-0.01047374214977026,0.00258116633631289,0.0009414585074409842,-0.005558883771300316,-0.00969271082431078,0.025486283004283905,-0.035620853304862976,-0.028967905789613724,0.003237485885620117,-0.03582686185836792,0.006092242430895567,0.00631371047347784,0.00925398338586092,0.010493537411093712,-0.0007823007763363421,-0.039381347596645355,0.006721445359289646,0.014635913074016571,0.02643550932407379,0.017346762120723724,0.021398261189460754,-0.026866858825087547,-0.02139643393456936,0.028298210352659225,0.006839844863861799,0.01783367246389389,0.016111498698592186,-0.00729395542293787,-0.010650337673723698,-0.00436395313590765,0.037435196340084076,-0.001236689742654562,0.02617053873836994,9.787132148630917e-05,-0.006389947142452002,-0.005995908752083778,-0.009512417018413544,0.006942393258213997,-0.028812767937779427,0.02163645438849926,0.030319852754473686,-0.012869248166680336,0.027314845472574234,-0.022040478885173798,-0.013767275959253311,0.008291693404316902,-0.018559530377388,-0.022275544703006744,-0.03153783828020096,-5.5416978284483775e-05,-0.024646177887916565,0.014304526150226593,0.02918407879769802,-0.011999550275504589,-0.02525738812983036,0.02240099385380745,0.0416615791618824,0.017190691083669662,-0.003569302847608924,0.03420537710189819,-0.024009842425584793,0.02969166822731495,-0.0064089493826031685,-0.008285260759294033,0.015632372349500656,0.008124449290335178,-0.03362133726477623,-0.033804409205913544,-0.020250387489795685,-0.030094852671027184,-0.03530056029558182,0.0015436280518770218,-0.003652642946690321,-0.008999602869153023,-0.019942045211791992,-0.019289273768663406,-0.013712345622479916,0.0168127603828907,0.03587774932384491,-0.01511193998157978,-0.026380470022559166,0.008100214414298534,0.00730760395526886,-0.008342917077243328,0.006796307396143675,0.030413918197155,-0.013358227908611298,0.018255967646837234,-0.0007450775592587888,0.02153836376965046,0.0011655396083369851,-0.003685571486130357,0.009143101051449776,0.0012535142013803124,-0.013774667866528034,0.026546044275164604,0.016312025487422943,-0.004336816258728504,0.009384709410369396,-0.017758620902895927,0.01553945429623127,-0.0037093348801136017,-0.00748775340616703,-0.013899781741201878,-0.005245984997600317,0.012716789729893208,-0.00071270193438977,-0.00787372887134552,0.0014181635342538357,0.013046656735241413,0.005565314088016748,-0.022047409787774086,0.019843867048621178,-0.001508901477791369,-0.010857628658413887,0.005932166241109371,0.0014762384817004204,-0.038226980715990067,0.007494126912206411,-0.0345255471765995,-0.03686586767435074,0.021959861740469933,-0.02373298816382885,-0.00034374973620288074,-0.043379463255405426,-0.0022369606886059046,-0.033924397081136703,-0.045824483036994934,-0.0280033927410841,-0.011415805667638779,0.0030858302488923073,0.025931231677532196,0.016620732843875885,0.02454284578561783,-0.022281957790255547,-0.011072334833443165,-0.014336088672280312,0.025765417143702507,0.02310270071029663,-9.656142356107011e-05,0.0003347930614836514,0.016516271978616714,0.0042673093266785145,0.024527408182621002,-0.02410005033016205,-0.02013728767633438,0.025621645152568817,-0.024133868515491486,-0.024222223088145256,-0.003952713217586279,-0.03861615061759949,0.010927428491413593,0.015086567029356956,-0.010879097506403923,-0.030772197991609573,0.002202289178967476,-0.02512037754058838,-0.004779184237122536,0.028001556172966957,-0.030369486659765244,0.0016322940355166793,0.02166029065847397,-0.01764436811208725,-0.007880712859332561,-0.00011127199104521424,-0.008955840952694416,0.038852088153362274,-0.015745600685477257,-0.0014764051884412766,-0.01956278830766678,-0.010460377670824528,0.03388478606939316,0.022317832335829735,0.011636807583272457,0.015328225679695606,0.010672027245163918,-0.03409207612276077,-0.0132105378434062,-0.0031465506181120872,-0.0017035246128216386,-0.004030597861856222,-0.014195897616446018,-0.014705047942698002,-0.03184345364570618,0.002960879821330309,-0.012723185122013092,-0.017985347658395767,-0.021890690550208092,-0.01483232993632555,0.026369158178567886,-0.003881884040310979,0.02857176773250103,0.032661162316799164,-0.010738505981862545,0.0030642200727015734,0.03972673788666725,0.01707800291478634,-0.013897144235670567,0.0018360087415203452,0.03724505379796028,0.023910583928227425,-0.011468649841845036,-0.03633365407586098,-0.012710039503872395,0.021762682124972343,0.013611894100904465,0.014906750991940498,-0.04376549646258354,0.0003275958588346839,0.000382115482352674,-0.02577119506895542,-0.0037459912709891796,0.003101347479969263,-0.02056277170777321,-0.022432226687669754,-0.03141498193144798,-0.031060373410582542,0.012439318932592869,-0.004792896099388599,0.0015369739849120378,-0.021450038999319077,0.003996760584414005,0.02503061480820179,0.028627684339880943,0.025174764916300774,-0.02116018906235695,-0.013460975140333176,-0.024914713576436043,0.004406218882650137,0.03728870674967766,-0.0043553076684474945,-0.015114202164113522,-0.0017886018613353372,0.004589952528476715,0.023303445428609848,-0.024999568238854408,-0.015993036329746246,-0.029767893254756927,0.018124422058463097,-0.022890308871865273,-0.012149984017014503,0.026448912918567657,0.02482803724706173,0.004617246333509684,-0.030704841017723083,0.005416703876107931,0.007081250194460154,0.0058906241320073605,0.005245034117251635,-0.020858295261859894,0.04226166382431984,0.0030031425412744284,-0.006103713531047106,0.02600575052201748,0.019238507375121117,0.030946776270866394,0.002153018256649375,0.019276130944490433,0.017648054286837578,-0.01355366688221693,0.00043341738637536764,-0.026250716298818588,0.013413588516414165,0.006668421905487776,-0.03304609656333923,-0.019458485767245293,0.027262432500720024,-0.04092506691813469,0.008755197748541832,-0.02884318307042122,-0.011141751892864704,-0.03967200592160225,-0.017570318654179573,0.04366287589073181,0.0020220682490617037,0.04386483505368233,0.01550839189440012,0.04374956712126732,0.023385532200336456,0.0223044753074646,0.030030569061636925,-0.007217565085738897,-0.019677864387631416,0.03430326282978058,-0.009301334619522095,-0.018092628568410873,0.0021451259963214397,0.0021809551399201155,-0.0004397528828121722,-0.010612407699227333,0.001243772218003869,-0.026172751560807228,0.023384876549243927,-0.028377264738082886,-0.008566485717892647,-0.034092195332050323,-0.03274524211883545,0.02009078860282898,-0.011416048742830753,-0.018730780109763145,0.046404507011175156,-0.01660207100212574,-0.015437917783856392,0.011820374056696892,0.013836981728672981,0.024459360167384148,0.04088765010237694,-0.008277864195406437,-0.008580616675317287,-0.009616035036742687,0.028599413111805916,0.03863096237182617,-0.02231096476316452,0.01814497821033001,0.019667822867631912,-0.0305235143750906,-0.031404364854097366,0.003225127002224326,0.009636658243834972,-0.015165737830102444,-0.01999931037425995,-0.03801966458559036,-0.03263698145747185,0.0029273093678057194,0.003172936849296093,0.0009274694602936506,-0.00033973410609178245,-0.02588113583624363,0.023302968591451645,0.010573288425803185,0.031039733439683914,0.03757432848215103,0.043569061905145645,0.023364461958408356,0.03861897438764572,0.03716008737683296,0.03089769370853901,0.011093837209045887,0.00686251325532794,-0.0070178997702896595,0.033667195588350296,-0.0004538775538094342,0.008562171831727028,-0.030739452689886093,-0.012243974022567272,0.017811527475714684,-0.010590944439172745,-0.010380861349403858,-0.018407177180051804,0.004140767734497786,-0.031352024525403976,0.02234724536538124,0.02770380862057209,0.023405510932207108,0.02442384511232376,-0.028651630505919456,-0.004802385810762644,-0.023816728964447975,0.0031752039212733507,0.025855200365185738,0.013658286072313786,0.015349692665040493,0.020952735096216202,-0.007779621984809637,-0.007724096532911062,0.031130952760577202,0.021665949374437332,-0.0031846920028328896,-0.006067164242267609,0.025608574971556664,0.04265590384602547,-0.005956517532467842,0.0013629478635266423,0.01924026571214199,-0.025079816579818726,0.010763179510831833,-0.0046065803617239,-0.019681598991155624,0.0204471442848444,0.00424635224044323,-0.007789865601807833,0.023455968126654625,0.003989554010331631,-0.017122354358434677,0.024402396753430367,-0.005458728410303593,0.008708725683391094,0.004350611474364996,-0.0045465994626283646,0.02478167600929737,0.04116002097725868,0.024912448599934578,0.010949698276817799,0.0015072462847456336,-0.009680922143161297,-0.006172332912683487,-0.017648344859480858,0.0077979834750294685,-0.019313175231218338,-0.0005642458563670516,0.04212893173098564,-0.01792360469698906,-0.01144979614764452,-0.01307602971792221,0.016360335052013397,0.03570210188627243,-0.009862303733825684,0.04452298954129219,0.0095766456797719,0.011274809949100018,-0.015535020269453526,0.01611022651195526,0.039879970252513885,0.003915769048035145,0.027251243591308594,0.008735895156860352,-0.012585422955453396,0.0314057394862175,0.0006061991443857551,0.007378581911325455,-0.017284957692027092,0.01355713326483965,0.010248991660773754,0.010270517319440842,-0.019934071227908134,0.030477596446871758,0.012595969252288342,0.04113982990384102,0.03800111263990402,0.005122041795402765,-0.020029332488775253,-0.010839689522981644,0.011827699840068817,-0.00553259439766407,-0.017050543799996376,-0.014094723388552666,0.01889583095908165,-0.017840107902884483,0.007958309724926949,-0.025096766650676727,0.028169816359877586,0.03429334983229637,0.04202479496598244,0.0025899081956595182,0.018631041049957275,-0.00549340108409524,-0.02608431689441204,0.03657122328877449,0.014207654632627964,0.003097274573519826,-0.006250512786209583,0.013414536602795124,0.028725000098347664,0.04019073024392128,0.0294953603297472,-0.02108696848154068,0.014208507724106312,0.006581395398825407,0.04426446929574013,-0.021655354648828506,-0.02185235172510147,-0.01666410081088543,-0.00027980844606645405,-0.0029222017619758844,0.03208290785551071,0.03679724782705307,-0.004201533272862434,0.02560318633913994,0.00950327143073082,0.03687450662255287,-0.0008123614825308323,-0.017896102741360664,-0.017661085352301598,-0.014446261338889599,-0.023078564554452896,0.0016567772254347801,0.022632379084825516,-0.03978673741221428,-0.019303403794765472,-0.023708678781986237,-0.03327341005206108,-0.021209627389907837,-0.007294918410480022,0.02106846123933792,0.020665140822529793,-0.0077295186929404736,-0.02482311800122261,-0.043106842786073685,-0.04036848619580269,-0.021654397249221802,-0.02055421471595764,-0.0014425786212086678,-0.017893996089696884,0.01841977797448635,-0.0328233428299427,-0.04184635356068611,-0.019584231078624725,-0.03473890200257301,-0.0034802723675966263,-0.03407442197203636,-0.006092051509767771,-0.023085106164216995,0.0029420596547424793,-0.014145052060484886,-0.01098519004881382,-0.03722694143652916,-0.03360692039132118,-0.01341191679239273,0.026483947411179543,-0.006364790257066488,