{"shape": [128, 784]}
-0.007458755746483803,-0.0036583682522177696,-0.010568906553089619,-0.007168367505073547,0.01518881507217884,-0.010399862192571163,-0.04309418424963951,0.025871463119983673,0.015209229663014412,-0.00967653002589941,0.023680679500102997,-0.026586636900901794,0.02616007998585701,-0.03620873764157295,0.015682490542531013,-0.00177119264844805,-0.010444161482155323,0.012697461061179638,0.022414997220039368,0.02516261860728264,0.007083156146109104,-0.007156118750572205,-0.023526091128587723,-0.01665123924612999,0.022926263511180878,-0.03866466507315636,0.020622193813323975,-0.0019623772241175175,-0.015798009932041168,-0.027282707393169403,-0.03444300964474678,-0.03371316194534302,0.024591101333498955,-0.04307688772678375,0.012699776329100132,-0.0120126036927104,0.0036077811382710934,0.004061858169734478,-0.009748678654432297,0.022386459633708,-0.024224713444709778,-0.022824876010417938,-0.012959888204932213,-0.010174575261771679,-0.019935354590415955,-0.010121411643922329,-0.014444642700254917,0.01269921101629734,-0.0031942003406584263,-0.026396559551358223,0.0149140739813447,-0.00098075729329139,-0.0013909228146076202,-0.0012744958512485027,-0.007320636883378029,-0.016387004405260086,-0.039997879415750504,-0.0018965615890920162,-0.007036304567009211,-0.009733197279274464,0.01230752281844616,0.011022907681763172,0.00044817934394814074,0.030022839084267616,0.03470013290643692,0.04323588311672211,-0.0014407053822651505,-0.002270990051329136,-0.01490477193146944,-0.013362730853259563,0.08628422766923904,0.08187659084796906,0.03671858087182045,-0.03249562531709671,-0.04337171092629433,-0.05399031192064285,0.013821195811033249,-0.03685186430811882,-0.011048625223338604,0.006175092421472073,-0.00420712772756815,-0.02191189117729664,0.02442260831594467,0.006203058175742626,-0.014122535474598408,-0.026539765298366547,0.019325047731399536,-0.03705210983753204,0.013051285408437252,-0.031064096838235855,0.009250055067241192,-0.0011730153346434236,0.013035678304731846,0.09463810920715332,0.030031047761440277,0.04837849736213684,0.04993491992354393,0.03658776730298996,0.026391595602035522,-0.026038572192192078,0.01730586402118206,-0.05874474719166756,-0.0463724285364151,-0.04282062500715256,-0.009905466809868813,-0.011343160644173622,-0.048909418284893036,0.007917237468063831,0.012081894092261791,-0.010580373927950859,-0.02634441666305065,-0.0028640939854085445,0.010789255611598492,-0.010817713104188442,0.009657258167862892,-0.024432867765426636,-0.032278839498758316,-0.02270115166902542,0.031713325530290604,0.05231829360127449,0.10995557904243469,0.03818293660879135,0.010441873222589493,-0.020584266632795334,-0.0012239383067935705,0.04161999002099037,0.025934215635061264,-0.014989363960921764,-0.0459328219294548,-0.04447668418288231,-0.06671633571386337,-0.0535522922873497,-0.035082850605249405,-0.03943698853254318,-0.060217369347810745,-0.061406444758176804,-0.06025044247508049,-0.022868793457746506,-0.02513938769698143,-0.027781380340456963,-0.025354962795972824,-0.013521838933229446,0.0232025645673275,-0.009910921566188335,0.0015444329474121332,0.005673298612236977,0.02392069809138775,0.05645851418375969,0.06635002046823502,0.011978879570960999,-0.01328941248357296,0.02652144990861416,0.017803190276026726,-0.019178040325641632,-0.05383340269327164,-0.0805957093834877,-0.04253138601779938,-0.07273545861244202,-0.020046589896082878,-0.013719964772462845,-0.019654925912618637,-0.032033152878284454,-0.0376146137714386,-0.05931534245610237,-0.06458894163370132,-0.04021032527089119,-0.01261900644749403,-0.01237355824559927,-0.0378464050590992,0.02409968338906765,0.0168986227363348,-0.020971357822418213,0.04154468700289726,0.010573439300060272,0.05563686788082123,0.05361410230398178,0.011131441220641136,0.054061971604824066,0.057141728699207306,0.05497833341360092,0.0024806871078908443,-0.00013752083759754896,0.03068438358604908,0.011128397658467293,-0.014313330873847008,-0.03748350590467453,-0.02944047562777996,-0.08820781111717224,-0.12686607241630554,-0.045928455889225006,-0.07495759427547455,-0.051508378237485886,-0.06812890619039536,-0.0016062450595200062,0.013351643458008766,0.014684848487377167,-0.020788289606571198,0.026003343984484673,-0.025863058865070343,0.020093020051717758,0.0461956262588501,-0.037892021238803864,-0.011626222170889378,-0.025143852457404137,-0.006315110716968775,-0.0003979466564487666,0.03284643962979317,0.03155212104320526,0.0625252053141594,0.05966142937541008,0.05775828659534454,-0.016642175614833832,-0.05642671510577202,-0.11581132560968399,-0.10834875702857971,-0.0482264868915081,-0.05008406937122345,-0.053631819784641266,-0.05029723420739174,-0.12093303352594376,-0.04608917236328125,-0.024645177647471428,-0.00436481973156333,-0.03274037316441536,-0.007526740897446871,-0.011989256367087364,0.01566499099135399,-0.02491786889731884,0.017400354146957397,-0.01888042874634266,-0.05816517025232315,-0.023534590378403664,0.018095608800649643,0.014362147077918053,0.08839382231235504,0.06466307491064072,0.016575012356042862,0.01830681972205639,0.04314666986465454,-0.001810722635127604,-0.09215965121984482,-0.12675772607326508,-0.09668760001659393,-0.04978061839938164,-0.06332442909479141,-0.09698869287967682,-0.058528076857328415,-0.08275577425956726,-0.05258895456790924,-0.08574531227350235,-0.039931487292051315,-0.03473195061087608,-0.02384337969124317,0.005763281136751175,0.0045303767547011375,-0.025131605565547943,-0.0037624314427375793,-0.03490375354886055,-0.07895289361476898,-0.015725668519735336,0.006053494289517403,0.060708221048116684,0.1082102507352829,0.04056240990757942,0.006589602213352919,0.02011476270854473,0.05971779301762581,-0.04935314133763313,-0.11434957385063171,-0.06803139299154282,-0.08016844838857651,-0.06782764196395874,-0.1523204892873764,-0.0663689449429512,-0.011662492528557777,-0.07367722690105438,-0.10328852385282516,-0.048376161605119705,-0.010236239992082119,0.001399448374286294,0.017052236944437027,0.023514460772275925,0.0077468762174248695,0.019703960046172142,-0.03823486343026161,-0.056882593780756,-0.046330925077199936,0.001203564228489995,-0.016854403540492058,-0.03341972827911377,-0.022023120895028114,-0.037899937480688095,-0.04401959851384163,-0.023595619946718216,-0.0594499297440052,-0.0691906288266182,-0.00103195256087929,-0.04494753107428551,-0.020937440916895866,-0.08435774594545364,-0.1316855400800705,-0.027046892791986465,-0.06936746835708618,-0.07906868308782578,-0.05251940339803696,-0.04422686621546745,0.021070953458547592,-0.004593438468873501,-0.0046625020913779736,0.011591088026762009,-0.011914695613086224,0.004162055905908346,-0.02806067280471325,-0.043954379856586456,-0.057925034314394,-0.060845304280519485,0.008860084228217602,-0.038239408284425735,-0.012635338120162487,-0.019148249179124832,-0.09829805791378021,-0.09233154356479645,-0.04074498265981674,-0.05984194204211235,-0.024466462433338165,0.0356808677315712,-0.0027873748913407326,-0.07318682968616486,-0.022749492898583412,-0.054305676370859146,-0.05746584013104439,-0.03630606830120087,-0.02425447106361389,0.008966286666691303,-0.009145094081759453,-0.004952289629727602,-0.030775800347328186,-0.028549639508128166,0.006251629441976547,-0.029901567846536636,-0.04226706176996231,0.020373037084937096,-0.02000501938164234,-0.04341769963502884,-0.006256272085011005,-0.023790104314684868,-0.04824863746762276,-0.08240313082933426,-0.10521553456783295,-0.09712661057710648,0.029358547180891037,0.022297950461506844,0.036885812878608704,0.03172148019075394,0.025552431121468544,-0.02640216238796711,-0.12181878834962845,-0.07516221702098846,-0.08030502498149872,-0.015872575342655182,-0.011277751065790653,0.0562070868909359,0.044802673161029816,0.011090388521552086,-0.0015045590698719025,0.014700343832373619,-0.014238011091947556,0.020951565355062485,-0.024297108873724937,-0.04775335267186165,0.010699369013309479,-0.0406106673181057,-0.047143157571554184,-0.11004407703876495,-0.04499216377735138,-0.06432429701089859,-0.051497966051101685,0.015749644488096237,0.0775623619556427,0.0384516566991806,0.06284545361995697,0.029677730053663254,-0.0006818643305450678,-0.05727620795369148,-0.10923691838979721,-0.09456676989793777,-0.05746426805853844,0.04254261031746864,0.10732641816139221,0.07540632039308548,0.0017447161953896284,-0.018751544877886772,-0.026162799447774887,-0.02079707197844982,-0.04092441499233246,-0.019790269434452057,-0.040630850940942764,-0.05923037976026535,0.04199977591633797,-0.011577003635466099,-0.03846016153693199,-0.03148512914776802,0.005149305332452059,-0.01472445297986269,-0.018093978986144066,0.10726480931043625,0.010937325656414032,0.02259913645684719,0.017053119838237762,0.0005005113780498505,-0.022039011120796204,-0.0674673393368721,-0.07486273348331451,-0.062145065516233444,-0.01530210766941309,0.009068225510418415,0.024187900125980377,0.030595984309911728,0.030257448554039,-0.0019216155633330345,-0.0025781625881791115,0.02690458856523037,0.010252904146909714,0.01728920266032219,-0.0030929571948945522,-0.023108189925551414,0.049717385321855545,-0.008277760818600655,-0.008801838383078575,0.008798985742032528,-0.01849670708179474,0.041042473167181015,0.04346928000450134,0.07124210894107819,0.017115578055381775,0.02212887443602085,0.013439027592539787,-0.04211815446615219,0.002259976463392377,-0.06803223490715027,-0.023731937631964684,-0.053006693720817566,0.007302209734916687,-0.0029692284297198057,0.06246158853173256,0.1068267747759819,0.03835761547088623,-0.03658958524465561,-0.030146224424242973,-0.03760784491896629,0.020669255405664444,-0.018606994301080704,-0.0057643502950668335,0.008574604988098145,0.00366059853695333,0.0038465503603219986,-0.04429011791944504,-0.008419020101428032,0.043234292417764664,0.07450292259454727,-0.03725433349609375,0.037115346640348434,0.050945013761520386,0.01677066460251808,-0.00853133387863636,-0.02315531298518181,-0.0585402250289917,-0.03164459019899368,-0.006939256563782692,0.008766631595790386,0.050560612231492996,0.05658264458179474,0.0905032679438591,0.12158742547035217,0.018370922654867172,-0.027523905038833618,0.024414844810962677,-0.027188939973711967,0.018878258764743805,0.02691192552447319,0.04435863718390465,0.0043720402754843235,0.033128950744867325,0.001395907485857606,-0.06263750046491623,-0.04862096533179283,0.013040656223893166,0.0370781384408474,0.10184480994939804,0.06650839745998383,0.06671936810016632,0.027023525908589363,-0.050551485270261765,-0.030451366677880287,-0.08878076076507568,-0.015258094295859337,-0.016558974981307983,0.043013859540224075,0.01857624016702175,0.05772563815116882,0.0568045899271965,0.10812783241271973,0.03485967591404915,0.02415895275771618,-0.0336529016494751,0.025010107085108757,0.011907902546226978,0.009659825824201107,0.00545125687494874,-0.037749722599983215,-0.02072852849960327,-0.03823821246623993,-0.04759642854332924,-0.05373628810048103,0.02077792026102543,0.027848968282341957,0.08584000915288925,0.05025254562497139,0.008510234765708447,0.024912359192967415,0.001074082450941205,-0.04396548122167587,-0.03379606828093529,-0.08867409080266953,-0.041782621294260025,-0.016567213460803032,0.05221863090991974,0.04893007129430771,0.04284559562802315,0.09654107689857483,0.03573482483625412,-0.02077898010611534,-0.0174790658056736,-0.043025027960538864,-0.025282204151153564,0.006437417585402727,0.0037789831403642893,-0.005849845707416534,-0.04298149794340134,-0.023745767772197723,-0.037985045462846756,-0.011638298630714417,0.028761308640241623,0.0279673021286726,0.02938293293118477,0.05133198946714401,-0.0019492475548759103,-0.01679292879998684,0.017803138121962547,-0.03544795140624046,-0.048441365361213684,-0.079325370490551,-0.012309003621339798,0.012766783125698566,0.046791255474090576,0.08102729171514511,0.03629765287041664,0.0022248916793614626,-0.008942956104874611,0.023619435727596283,-0.037283096462488174,-0.009345808997750282,-0.0018217514734715223,0.03509696200489998,0.05541536584496498,-0.03228191286325455,-0.018925117328763008,-0.03604597970843315,-0.045201320201158524,-0.05712025240063667,-0.023571345955133438,-0.0006159576587378979,-0.03295817971229553,-0.027953647077083588,-0.010646280832588673,-0.051250189542770386,-0.023361744359135628,-0.05046785995364189,-0.055212102830410004,-0.04094233736395836,-0.024329500272870064,-0.008522003889083862,0.06099272891879082,0.026477454230189323,0.03377025946974754,0.01114601455628872,-0.013628055341541767,0.007608680985867977,0.025239350274205208,0.011585600674152374,0.022555513307452202,0.03013317473232746,-0.0031082737259566784,0.017275506630539894,-0.03682780638337135,-0.062087684869766235,-0.03132932633161545,-0.03616446256637573,-0.06449683010578156,-0.04894024506211281,-0.04127126187086105,-0.0549451969563961,-0.04339917376637459,-0.03856663405895233,-0.05987708270549774,-0.04098816215991974,-0.03749263286590576,0.01421142928302288,0.035471297800540924,0.029964886605739594,0.0387195460498333,0.01629960909485817,0.0321749746799469,-0.01786818727850914,0.019903870299458504,0.021931277588009834,0.01859079673886299,-0.028322700411081314,-0.03502897173166275,0.017726948484778404,-0.015155320055782795,0.03832191601395607,-0.033640000969171524,0.0008530773338861763,-0.021032659336924553,-0.06599099189043045,-0.09101167321205139,-0.1092212051153183,-0.09788890182971954,-0.0483093336224556,-0.050068195909261703,-0.06872740387916565,-0.07576331496238708,-0.06103968992829323,0.025506459176540375,0.014109168201684952,0.024521255865693092,0.01949225924909115,-0.046074822545051575,-0.03790580481290817,0.00605674646794796,-0.010209568776190281,-0.0030744713731110096,-0.027670763432979584,0.009490573778748512,-0.03454011678695679,0.023311762139201164,-0.00376229383982718,-0.027432922273874283,-0.00029982838896103203,0.021724559366703033,-0.04446621239185333,-0.022794336080551147,-0.08526736497879028,-0.10083693265914917,-0.06165986508131027,-0.06088852509856224,-0.05122043192386627,-0.049072299152612686,-0.019699668511748314,-0.02127974107861519,-0.011839471757411957,0.005038072355091572,0.0060730199329555035,0.02708248235285282,-0.0217006653547287,-0.04694415256381035,-0.05121029540896416,-0.009911750443279743,-0.05810551345348358,0.012058001942932606,0.016924777999520302,0.005417298525571823,0.004655566997826099,-0.030325617641210556,0.011386197991669178,-0.010583069175481796,0.019586825743317604,0.04145286604762077,-0.013725624419748783,-0.05992724746465683,-0.12335800379514694,-0.10691355913877487,-0.0807989165186882,-0.0658659040927887,-0.06409650295972824,-0.0691763237118721,0.01512951124459505,-0.03816079720854759,-0.024377096444368362,-0.01817968674004078,-0.04736778512597084,-0.015975825488567352,-0.02207755297422409,-0.06726543605327606,-0.008114347234368324,-0.004684116691350937,0.0224749855697155,-0.04052570089697838,-0.026199229061603546,0.01306897308677435,-0.01586255431175232,0.014085476286709309,-0.02929488942027092,-0.022877300158143044,0.02641265280544758,-0.012279958464205265,-0.026586920022964478,0.013912862166762352,-0.009770603850483894,-0.10836660861968994,-0.035719435662031174,-0.04772166535258293,-0.04837483912706375,-0.025024089962244034,0.023547686636447906,0.04251738265156746,0.059923525899648666,0.023091353476047516,-0.029643725603818893,-0.02904745563864708,-0.011971316300332546,-0.08499717712402344,-0.07490930706262589,-0.01023187581449747,-0.020056962966918945,0.02136615291237831,0.008107385598123074,-0.017977993935346603,0.006990891881287098,0.005189602263271809,-0.0240780096501112,0.026695314794778824,-0.0332365445792675,-0.040469251573085785,0.012708486057817936,0.016169371083378792,0.0030626789666712284,0.02421916462481022,-0.008751948364078999,0.06523800641298294,0.025904420763254166,0.0519741028547287,0.07269157469272614,0.03909407556056976,0.002336015459150076,0.058090317994356155,0.058390431106090546,0.04152528941631317,0.0008868215372785926,0.019990894943475723,-0.01024493109434843,-0.0030510255601257086,-0.000830924604088068,-0.036347102373838425,0.012810650281608105,0.013379658572375774,-0.018230561167001724,-0.007932450622320175,-0.02591574937105179,-0.010619444772601128,0.0014808872947469354,0.012226534076035023,0.015446355566382408,-0.013117704540491104,-0.00870178546756506,0.008803143166005611,0.0057256221771240234,0.006853811908513308,-0.01742166467010975,0.003528167959302664,-0.041007332503795624,-0.021209584549069405,0.01908482052385807,0.020671725273132324,0.010993647389113903,-0.04031940922141075,-0.040098827332258224,-0.019806932657957077,-0.010976577177643776,-0.019538765773177147,-0.009839965030550957,-0.007102219387888908,0.014212742447853088,0.02356295846402645,-0.010956190526485443,0.003710363991558552,-0.01086483895778656,-0.02722855471074581,0.008856745436787605,0.03497805818915367,0.01064736396074295,0.028496889397501945,-0.016361096873879433,0.0162739809602499,0.04284432530403137,-0.020924217998981476,0.025470323860645294,0.010075203143060207,-0.0013068044790998101,-0.023486236110329628,0.002958898665383458,-0.0013345765182748437,0.01964629255235195,0.030853448435664177,0.004590633325278759,0.004998699761927128,-0.020693989470601082,-0.025073880329728127,0.016297917813062668,-0.01472634170204401,0.02408496104180813,0.015364296734333038,0.010021241381764412,0.015985701233148575,0.033232398331165314,-0.0255389753729105,0.012711421586573124,-0.004861465189605951,-0.008426753804087639,0.013096854090690613,0.04001045599579811,0.02390795201063156,0.017602303996682167,0.014385461807250977,-0.010860207490622997,-0.023899512365460396,0.020555909723043442,0.014577037654817104,-0.006348432973027229,-0.01730143278837204,0.05124273523688316,0.006225692108273506,0.009224429726600647,0.006891030352562666,0.02642972767353058,0.03532661497592926,0.00115710380487144,-0.023908166214823723,-0.026934480294585228,0.02934582717716694,0.0033630060497671366,0.004294818267226219,-0.027651572600007057,-0.0032487125135958195,0.03485052287578583,0.02863040193915367,0.04244399815797806,0.019753025844693184,-0.000262544141151011,0.015500461682677269,0.05821946635842323,0.01707800291478634,0.025163499638438225,0.060622312128543854,0.01660705916583538,0.0493277832865715,0.019520115107297897,0.07762758433818817,0.06796365976333618,0.021039048209786415,0.030130714178085327,0.017155030742287636,0.03636745363473892,-0.0037639134097844362,0.023045487701892853,0.01626378297805786,-0.026826096698641777,0.013859352096915245,-0.023540334776043892,-0.02381274104118347,-0.024051807820796967,0.002992628375068307,0.03473563864827156,0.013890308327972889,0.052436940371990204,0.03810909017920494,0.014229262247681618,0.0378623902797699,0.08232830464839935,0.05664370208978653,0.058764636516571045,0.055052898824214935,0.02113688364624977,0.04115554317831993,-0.03642367944121361,-0.03198062628507614,0.051970914006233215,-0.0019906305242329836,0.07735256850719452,0.05620647594332695,0.07618461549282074,0.039645109325647354,-0.021156668663024902,0.01041856687515974,0.019704079255461693,0.03361248970031738,0.030033888295292854,0.002546901348978281,-0.023079916834831238,0.010689785704016685,0.004945423919707537,0.02912798710167408,0.03875754028558731,0.006505102850496769,0.0311089176684618,0.014377940446138382,-0.010670015588402748,0.009049879387021065,-0.024332629516720772,-0.026967056095600128,-0.049025241285562515,-0.009689239785075188,-0.06336646527051926,-0.05594467744231224,-0.009885444305837154,0.0024625281803309917,0.03595093637704849,0.02138206921517849,0.03975993022322655,0.0008193394169211388,0.0040205055847764015,0.024180671200156212,0.0423886738717556,0.011411645449697971,0.02122528664767742,0.030785445123910904,-0.027392450720071793,0.026570124551653862,0.05275898799300194,0.06685005128383636,0.065626360476017,0.1113034337759018,0.015300102531909943,0.02629663236439228,-0.01624828577041626,0.008504355326294899,-0.016928112134337425,0.005975575186312199,-0.06928602606058121,0.006731015630066395,-0.0394403375685215,-0.11866167932748795,-0.041993312537670135,-0.033230286091566086,0.007026383653283119,-0.038751404732465744,0.021382998675107956,0.009408464655280113,0.028809504583477974,-0.021028703078627586,0.02097008004784584,0.00026178971165791154,0.0197939220815897,-0.0037862788885831833,0.025141999125480652,0.023534471169114113,0.05597610026597977,0.04410144314169884,0.0362219475209713,0.07181227952241898,0.05207805335521698,-0.01400068774819374,-0.024578461423516273,-0.03556421026587486,-0.12198325246572495,-0.08538706600666046,-0.07057347893714905,-0.0531739741563797,-0.09395944327116013,-0.16882926225662231,-0.15497808158397675,-0.10932905226945877,-0.09842932224273682,-0.00833328440785408,0.04095373675227165,0.001669753692112863,0.02388276532292366,0.035308435559272766,0.01586388796567917,-0.01388645637780428,0.03735299035906792,0.04039701074361801,0.019799690693616867,0.05865873023867607,0.07271823287010193,0.05796683952212334,0.07213962078094482,0.038348209112882614,0.04623173549771309,0.04047363996505737,-0.024005966261029243,-0.0554715059697628,-0.04949532449245453,-0.10515128076076508,-0.08525242656469345,-0.07269229739904404,-0.015679750591516495,-0.1471041887998581,-0.22336798906326294,-0.15851956605911255,-0.059021368622779846,-0.0498494990170002,-0.006455345544964075,0.01630125194787979,0.013468724675476551,-0.0023544388823211193,-0.020718317478895187,0.005881960503757,-0.004243182484060526,0.03140876442193985,0.03882941976189613,0.07064442336559296,0.10549546778202057,0.020600195974111557,0.05934593454003334,-0.008568395860493183,0.08963626623153687,0.060960542410612106,0.014966734685003757,-0.07718019187450409,-0.06564958393573761,-0.10836445540189743,-0.08438403159379959,-0.06061253324151039,-0.08652292191982269,-0.10536647588014603,-0.14082808792591095,-0.0695221871137619,-0.04537306725978851,-0.04906081780791283,-0.062339965254068375,-0.06171411648392677,-0.02442958950996399,-0.013926157727837563,0.016649099066853523,0.019592823460698128,0.012610352598130703,0.048095203936100006,0.005347957834601402,0.03038077801465988,0.07571753114461899,-0.07643226534128189,-0.007906650193035603,0.04886733740568161,0.02214847318828106,-0.057658471167087555,-0.03224740922451019,-0.0176574494689703,-0.06162041425704956,-0.07639970630407333,-0.02878868393599987,0.014340439811348915,-0.004892675206065178,-0.08746244758367538,-0.0842999666929245,0.014760353602468967,-0.020862076431512833,-0.057063668966293335,-0.040834102779626846,-0.03312993794679642,-0.010578039102256298,0.00036399130476638675,0.029972825199365616,-0.020135799422860146,0.02560954913496971,0.030107051134109497,0.01827414706349373,-0.008109825663268566,-0.0205046646296978,-0.04072760418057442,-0.019108224660158157,-0.05756049603223801,-0.037599116563797,-0.06076127290725708,-0.009258615784347057,-0.024313868954777718,0.005070489831268787,0.004734179470688105,0.029826272279024124,0.032221049070358276,0.013672668486833572,-0.020848968997597694,-0.027078550308942795,-0.008145378902554512,-0.003924722783267498,-0.05139368027448654,-0.05564039573073387,-0.03519955277442932,-0.04261825978755951,0.017544472590088844,0.020182959735393524,0.010034587234258652,-0.015102331526577473,-0.019751718267798424,0.009985637851059437,-0.052568648010492325,-0.05472048744559288,-0.09569264203310013,-0.07242514193058014,-0.008660132065415382,-0.01454002596437931,0.013811050914227962,-0.04344336315989494,0.014429120346903801,-0.007461011875420809,-0.008046313188970089,0.04108095169067383,0.07609187066555023,0.03054674156010151,0.005300768185406923,-0.025012362748384476,-0.0392475388944149,-0.02109374850988388,-0.05554184690117836,-0.050922103226184845,-0.053790364414453506,-0.02851380780339241,-0.05191272497177124,-0.003704096656292677,0.026764018461108208,-0.013418478891253471,0.024778300896286964,-0.001963577000424266,-0.1003095954656601,-0.13957127928733826,-0.10292155295610428,-0.009293296374380589,0.025187507271766663,-0.013691114261746407,0.020058372989296913,0.09017708897590637,0.05480773374438286,0.02724795788526535,-0.02815348282456398,-0.0020580522250384092,0.08485748618841171,-0.005504251923412085,-0.027211641892790794,0.014359823428094387,0.03913884982466698,0.06486984342336655,0.05861293151974678,-0.04864438250660896,0.03859555348753929,-0.005871689412742853,-0.048551544547080994,-0.02281743660569191,0.02784033678472042,0.040837839245796204,0.03127828240394592,-0.01829485595226288,-0.0701151192188263,-0.09125939756631851,-0.06973596662282944,-0.06932130455970764,-0.01806981861591339,0.013837294653058052,0.024885984137654305,0.05381220951676369,0.05195237696170807,0.025810787454247475,-0.06327085196971893,0.00886533409357071,0.0718953013420105,0.03267746418714523,0.013333381153643131,0.021889448165893555,0.07171442359685898,0.07306856662034988,0.04687981307506561,0.06469683349132538,0.07253257930278778,-0.017025575041770935,0.0129469633102417,-0.004416057839989662,-0.018739745020866394,0.04159165918827057,0.04209117963910103,0.004377281758934259,-0.12185052782297134,0.0058319829404354095,-0.029975855723023415,0.030526358634233475,0.04875940456986427,0.008497343398630619,-0.0009817907121032476,0.03671160712838173,0.018561072647571564,-0.0281632412225008,0.011082325130701065,0.05573197081685066,0.08385360985994339,0.04493418708443642,0.002273460617288947,0.053768351674079895,0.004269980825483799,0.12866704165935516,0.11313457787036896,0.08534643054008484,0.07001475244760513,0.046986911445856094,-0.025042153894901276,0.04231450334191322,0.00837209913879633,0.03833657503128052,-0.009777874685823917,0.024801021441817284,-0.0734555572271347,-0.027615608647465706,0.045810505747795105,0.03403402492403984,0.05549366772174835,0.00012607774988282472,0.014695269986987114,0.037717562168836594,0.010039386339485645,0.015199274756014347,0.036861661821603775,0.012233889661729336,-0.005109177436679602,0.04820792004466057,0.029120760038495064,0.04520796984434128,0.06836556643247604,0.1440795660018921,0.13266621530056,0.06374400854110718,0.035369984805583954,0.045973360538482666,0.01999080181121826,-0.004319685976952314,-0.02517910860478878,0.02147681824862957,-0.009107783436775208,0.003699381137266755,-0.0314750075340271,0.023958304896950722,0.09769129753112793,0.07636824250221252,0.09990078955888748,-0.010948351584374905,-0.04560960456728935,-0.02232569083571434,-0.004389679525047541,0.015090149827301502,0.08348999172449112,0.06533205509185791,0.055180180817842484,0.04364226758480072,0.028689157217741013,0.10460270196199417,0.04869819059967995,0.12504702806472778,0.05754093453288078,0.11448555439710617,0.020675644278526306,0.06321759521961212,-0.0025099136400967836,-0.026870928704738617,-0.01575169526040554,-0.024574903771281242,0.005373106338083744,-0.03135572373867035,-0.0030686070676892996,0.05418428033590317,0.05666990578174591,0.037020981311798096,0.06409987062215805,-0.013401907868683338,-0.027486369013786316,-0.008447770960628986,-0.01160525158047676,0.019495803862810135,0.017859594896435738,0.030732261016964912,0.031990811228752136,0.021466560661792755,0.08796224743127823,0.04687816649675369,0.009590886533260345,0.13240428268909454,0.08509235084056854,0.060108866542577744,0.07320042699575424,0.0732818990945816,0.030488569289445877,0.010325164534151554,0.025069108232855797,-0.015567852184176445,0.009395723231136799,-0.025692101567983627,0.05738038942217827,0.021236982196569443,0.0007970003061927855,0.028022650629281998,0.008605015464127064,-0.042016323655843735,-0.07934188097715378,-0.015729578211903572,0.1044377014040947,0.11616653203964233,0.000538852356839925,0.04219706356525421,0.02312639355659485,0.028388721868395805,0.0667913556098938,0.04550141468644142,-0.0001242734579136595,0.08278919011354446,0.03274760767817497,0.059455666691064835,0.013499231077730656,0.0356733500957489,0.03580091893672943,-0.010289489291608334,-0.0019238411914557219,-0.014816162176430225,0.013928447850048542,0.0061987643130123615,0.0006728098378516734,-0.00600317632779479,0.011473512277007103,-0.016787372529506683,-0.0147457430139184,-0.009898398071527481,0.0048109907656908035,0.04524046182632446,0.04873350262641907,0.008135276846587658,0.0353715717792511,0.009522606618702412,0.03142790123820305,0.02152187190949917,0.053528811782598495,-0.06175617128610611,-0.03498420864343643,-0.03298056125640869,-0.05374365672469139,-0.058942779898643494,-0.04094105586409569,-0.012593576684594154,0.03980172425508499,0.02815326116979122,-0.005107170436531305,-0.007748868782073259,0.021040474995970726,0.0011797570623457432,0.016401292756199837,-0.012128292582929134,-0.05414905399084091,0.04460408538579941,-0.027004435658454895,0.02139497734606266,0.03422359749674797,0.0032300034072250128,0.03323912248015404,-0.00889530498534441,0.05596041679382324,0.00841352716088295,0.017533674836158752,0.0039444174617528915,0.04044114053249359,-0.031333308666944504,-0.049990687519311905,-0.021081605926156044,-0.12273743748664856,-0.07345017790794373,-0.026502802968025208,0.0016873420681804419,-0.005519399885088205,-0.02343938499689102,-0.006499005015939474,0.03986482322216034,0.00217831926420331,-0.03566582873463631,-0.008708014152944088,-0.05151953920722008,-0.06368120014667511,-0.02632390707731247,0.0329381488263607,0.01329149678349495,-0.028469044715166092,0.028907332569360733,0.034056223928928375,0.06008371710777283,0.06287228316068649,0.03687051311135292,0.035303082317113876,0.019145028665661812,-0.017702316865324974,0.001005327794700861,-0.06807003170251846,-0.09162665158510208,-0.0985066220164299,-0.09171262383460999,-0.08252347260713577,0.003620738396421075,-0.0068052783608436584,-0.008987425826489925,0.018691135570406914,0.004817434586584568,-0.018144365400075912,-0.004353784024715424,-0.022820308804512024,-0.02300836145877838,-0.023534368723630905,-0.04224962368607521,-0.02501753531396389,-0.0002863917616195977,0.05438408628106117,0.009691924788057804,0.013464936055243015,-0.0036616341676563025,-0.05144328624010086,0.0021321862004697323,0.025529194623231888,-0.034198518842458725,-0.06312806904315948,0.009546080604195595,-0.061274729669094086,-0.03547883778810501,-0.09290985763072968,-0.05047784000635147,-0.021977607160806656,0.015627505257725716,0.03984255716204643,0.0395367369055748,-0.005105140153318644,0.0214287918061018,-0.002543139038607478,-0.003763924352824688,-0.0021138708107173443,0.015390848740935326,0.0030881636776030064,-0.0033771314192563295,-0.016515890136361122,0.00973566249012947,-0.005032878369092941,-0.02629346400499344,-0.031140200793743134,-0.03844141215085983,-0.0753069818019867,-0.021348731592297554,-0.05256045237183571,-0.08972204476594925,-0.0701574981212616,-0.0756538137793541,-0.08123105019330978,-0.047244492918252945,-0.018720198422670364,-0.06231842190027237,-0.07900156825780869,-0.04010329768061638,-0.027579139918088913,-0.003495690179988742,-0.0015214799204841256,-0.01925572194159031,0.02716824971139431,-0.010474620386958122,0.03100193291902542,-0.010118410922586918,0.018001651391386986,-0.03209014609456062,-0.09257695823907852,-0.03090573474764824,-0.06844546645879745,-0.04809471592307091,-0.015806809067726135,-0.0737437903881073,0.013220463879406452,-0.023040754720568657,-0.016072360798716545,-0.06795445829629898,-0.011877755634486675,-0.05042525753378868,-0.04692225903272629,-0.025356154888868332,-0.030230602249503136,0.0014691574033349752,-0.012716174125671387,0.019211582839488983,0.019071180373430252,0.0005084032309241593,-0.016795208677649498,-0.01363918837159872,-0.015971805900335312,0.032950080931186676,0.015911398455500603,-0.034554995596408844,-0.06249120086431503,-0.02091931365430355,-0.05858026072382927,-0.054317131638526917,-0.07025172561407089,-0.01399438176304102,-0.06810160726308823,-0.016040261834859848,-0.056462060660123825,-0.025005066767334938,-0.07278542965650558,-0.05692962929606438,-0.05332774296402931,-0.12188737839460373,-0.04083719477057457,-0.04527566581964493,0.002719203708693385,0.01029979344457388,-0.012124652974307537,0.032857708632946014,0.03764814883470535,0.029224863275885582,-0.024551967158913612,-0.013479625806212425,0.02389381267130375,-0.021304825320839882,0.00029947649454697967,-0.041099078953266144,0.012598714791238308,-0.029772723093628883,-0.06169182062149048,-0.01416089478880167,-0.05694171413779259,-0.03348710387945175,-0.05111009627580643,-0.021986469626426697,-0.06533729285001755,-0.03707510605454445,-0.035342879593372345,-0.05229875072836876,-0.04896910488605499,-0.05518728122115135,-0.011408190242946148,-0.03252631798386574,-0.006907175295054913,0.004182137548923492,0.01972649060189724,0.041118018329143524,-0.008954602293670177,-0.018331794068217278,-0.007118284702301025,0.022483056411147118,-0.009436099790036678,0.005171698518097401,0.01911053992807865,-0.01799331046640873,-0.017436539754271507,0.0006579288165085018,-0.018801001831889153,-0.01489979401230812,-0.02564217895269394,0.01729639805853367,-0.01867847703397274,0.024148622527718544,-0.0005759534542448819,-0.00968838483095169,-0.009686287492513657,0.0025110566057264805,-0.0022171479649841785,-0.002336985431611538,0.027116684243083,0.018078433349728584,0.027495043352246284,-0.0017663082107901573,-0.00652181776240468,-0.002665880136191845,0.020917044952511787,-0.02429194562137127,-0.009970806539058685,0.007153453305363655,-0.028491472825407982,0.01547188963741064,-0.040783319622278214,-0.004354583565145731,0.021106990054249763,0.018461650237441063,0.007368577644228935,-0.00884865503758192,-0.00024588892119936645,0.0051989308558404446,-0.01277719996869564,0.0003243102109991014,-0.01910702884197235,-0.019073760136961937,0.011187028139829636,0.0038271816447377205,0.017466681078076363,-0.036442313343286514,-0.013953988440334797,-0.016544213518500328,-0.018114494159817696,-0.04433811828494072,0.016667751595377922,-0.034343622624874115,-0.040630269795656204,-0.004033503122627735,-0.01041398011147976,-0.03155863285064697,-0.028657136484980583,0.020148122683167458,-0.014468674547970295,-0.01912630721926689,0.01934194378554821,0.02743498794734478,0.011735975742340088,-0.006350111216306686,-0.019012844190001488,0.027730798348784447,-0.016278743743896484,0.01461097039282322,0.018232211470603943,-0.004324125591665506,0.016965603455901146,0.010388550348579884,-0.022824080660939217,-0.008930888958275318,-0.03798220306634903,0.0010593037586659193,-0.024112209677696228,-0.008712553419172764,-0.04444316402077675,0.018841436132788658,0.0127719072625041,0.02090819738805294,-0.014140705578029156,-0.03549247607588768,-0.04174705594778061,0.0029220227152109146,-0.010633527301251888,0.017033297568559647,0.0005790291470475495,0.023539185523986816,0.029967837035655975,-0.009948533028364182,0.03825760632753372,0.014144398272037506,0.01890646293759346,0.06282886117696762,0.012206435203552246,0.08019999414682388,0.10619879513978958,0.09913863241672516,0.07546418905258179,0.07743483781814575,0.042340606451034546,0.048271726816892624,0.04199871048331261,0.0011653073597699404,0.019419832155108452,-0.024501923471689224,-0.02647032029926777,0.005455994512885809,0.005475265439599752,-0.03206511214375496,-0.04338324815034866,-0.03480890020728111,0.003796773962676525,-0.031818632036447525,-0.0191488154232502,0.025420809164643288,-0.016881229355931282,0.04251353442668915,0.02171454206109047,-0.007455567829310894,-0.01989695616066456,0.1011568084359169,0.05311121791601181,0.0407954566180706,0.041470933705568314,0.02074100263416767,0.07493451237678528,0.06193111836910248,0.002320291940122843,0.059790488332509995,0.03456776961684227,0.041085466742515564,-0.023753207176923752,-0.0511089563369751,0.01630447804927826,-0.022012123838067055,-0.010150783695280552,0.01013241894543171,-0.009744939394295216,-0.008749275468289852,-0.036830928176641464,-0.006722667254507542,0.0037156506441533566,-0.015628065913915634,-0.027052536606788635,0.007189061958342791,0.010889120399951935,-0.01153543870896101,-0.024631427600979805,-0.025364931672811508,0.043998535722494125,0.04288177192211151,0.069058857858181,0.06025920808315277,0.02703215554356575,0.061998311430215836,0.06757786870002747,0.05839373543858528,0.009899066761136055,0.02745172567665577,-0.05327564477920532,-0.00021830442710779607,0.009587555192410946,0.013205091468989849,-0.01621050387620926,-0.018410729244351387,-0.017510125413537025,-0.03402104601264,0.03468666598200798,-0.05379466339945793,-0.016816815361380577,-0.04758681729435921,-0.09033150970935822,-0.04715048894286156,-0.02948615700006485,-0.042431481182575226,-0.005502933170646429,-0.01012432761490345,-0.004704909864813089,0.008600106462836266,-0.008525981567800045,0.001153350342065096,-0.011458557099103928,0.041169505566358566,0.11603808403015137,0.09184052795171738,0.07234157621860504,0.009547727182507515,-0.006594016216695309,-0.020114818587899208,-0.02360495738685131,0.012112298049032688,-0.005926883313804865,-0.03105403669178486,-0.029787983745336533,-0.009659234434366226,-0.019784988835453987,-0.06632822006940842,-0.05182657763361931,-0.05801207572221756,-0.10562822967767715,-0.09521854668855667,-0.019245833158493042,0.007291687652468681,-0.025575578212738037,-0.02666604146361351,-0.045627348124980927,-0.02880861796438694,-0.0773751512169838,-0.0717187449336052,-0.06959963589906693,-0.02312532812356949,-0.042149391025304794,-0.024210311472415924,0.037888843566179276,0.005194704048335552,0.007615125738084316,0.034292932599782944,0.02253829315304756,0.00687910383567214,-0.023936612531542778,-0.0421639159321785,-0.01775764487683773,-0.0063303071074187756,-0.01267896220088005,-0.0958845466375351,-0.11966537684202194,-0.09373984485864639,-0.0674830749630928,-0.058595962822437286,-0.012354670092463493,0.06022458150982857,0.00878540612757206,-0.0075432369485497475,-0.015528145246207714,-0.052368346601724625,-0.06300359219312668,-0.07071554660797119,-0.06695187091827393,-0.04200971871614456,-0.07463197410106659,-0.042551346123218536,-0.04751124605536461,-0.04213821142911911,-0.054158903658390045,0.021363992244005203,0.0056577082723379135,-0.022028187289834023,0.026993393898010254,-0.023758454248309135,0.009874324314296246,-0.04432633891701698,-0.08200560510158539,-0.10727541893720627,-0.026542868465185165,-0.010032734833657742,-0.055396758019924164,0.0035555672366172075,0.07440133392810822,0.04647323861718178,0.02555914968252182,0.0322297029197216,-0.03867768496274948,-0.06898714601993561,-0.07920406758785248,-0.04925919696688652,-0.05787636339664459,-0.05326765403151512,-0.010412219911813736,-0.061789434403181076,-0.07533663511276245,-0.004382045473903418,0.010625194758176804,0.012288765050470829,-0.027938736602663994,-0.037158939987421036,-0.029015151783823967,-0.03404202312231064,-0.025708073750138283,-0.04912811517715454,-0.06077910214662552,-0.054188381880521774,-0.06075361371040344,0.01633945107460022,-0.023066900670528412,-0.0016787454951554537,0.06973212212324142,0.01715182140469551,0.030523572117090225,0.01768559403717518,0.012607798911631107,-0.013402389362454414,-0.0781744122505188,-0.048257678747177124,-0.031269341707229614,-0.028489984571933746,-0.08389440178871155,-0.04293379560112953,-0.0689452663064003,-0.004618932027369738,0.029103130102157593,0.02549983747303486,-0.021355340257287025,-0.028413303196430206,-0.013514173217117786,0.02133330889046192,-0.029345029965043068,-0.04424279183149338,-0.04755803570151329,-0.02839864231646061,-0.006177991628646851,-0.05979178100824356,0.0039689079858362675,0.023820148780941963,0.0645347610116005,0.07415587455034256,0.053908925503492355,0.06578584015369415,0.10904242098331451,0.006528947968035936,-0.03847496211528778,0.007983054965734482,-0.04240207374095917,-0.04461277276277542,-0.04520808160305023,-0.06576262414455414,-0.04092644155025482,0.03855777904391289,0.09301380813121796,-0.007668581325560808,-0.02410726435482502,-0.01012622844427824,0.002790230792015791,-0.04132716730237007,-0.02718702331185341,-0.07073812931776047,-0.03169780969619751,0.001202021143399179,-0.003998721484094858,-0.03777528926730156,-0.0889909639954567,-0.04041314497590065,-0.05679294466972351,-0.01385832205414772,-0.02103355899453163,0.03710610046982765,0.08856738358736038,-0.0004976160125806928,-0.060434047132730484,-0.05248743295669556,0.0007095483015291393,-0.00914316438138485,-0.02679554745554924,0.010875638574361801,0.01779831200838089,0.09156394004821777,0.16634920239448547,0.05438535660505295,-0.0324430987238884,-0.0010302038863301277,0.019304288551211357,0.006498921196907759,-0.033452458679676056,-0.02797842212021351,-0.044288959354162216,-0.0293637253344059,-0.017399173229932785,0.028129199519753456,-0.0639394149184227,-0.006037605926394463,-0.011981748975813389,-0.015651676803827286,-0.011635559611022472,0.08694387227296829,0.06710109859704971,-0.020866889506578445,-0.01624557375907898,-0.0010222611017525196,-0.004041873384267092,-0.049801163375377655,0.01104835607111454,0.02543722838163376,0.0739675983786583,0.1073559820652008,0.16065062582492828,0.007631863467395306,-0.03043559566140175,-0.0185440331697464,-0.022591885179281235,-0.010722583159804344,0.01578734815120697,0.008474952541291714,-0.022678399458527565,0.0022886069491505623,0.018473239615559578,-0.037093307822942734,-0.035558152943849564,-0.0462426133453846,-0.08703980594873428,-0.04078136757016182,0.07457423955202103,0.09345041215419769,0.08213717490434647,-0.035232361406087875,-0.027999132871627808,0.021748309955000877,0.06017826125025749,0.009063627570867538,-0.027325382456183434,-0.011566880159080029,0.09561403095722198,0.1107775941491127,0.1276567429304123,-0.020118141546845436,0.013863672502338886,0.026077890768647194,0.02040308527648449,-0.01070439349859953,-0.014582610689103603,-0.001235270407050848,-0.06633017212152481,-0.03773878142237663,0.01700844243168831,-0.038810670375823975,-0.06925146281719208,-0.04616968706250191,-0.052992112934589386,0.024702778086066246,0.022964011877775192,0.0699106901884079,0.052095260471105576,-0.05258232727646828,-0.07883384078741074,-0.04336101934313774,0.0366203710436821,-0.03426947444677353,-0.007313335780054331,-0.013460219837725163,0.02257867157459259,0.06084652617573738,0.06326096504926682,0.03792596980929375,0.022787917405366898,0.011229358613491058,-0.029445774853229523,-0.01779657043516636,0.0232537928968668,-0.015511197969317436,-0.025888945907354355,-0.0005762065993621945,-0.029403507709503174,0.024385573342442513,-0.019633878022432327,-0.002592354780063033,0.019655419513583183,0.013807328417897224,0.08185289055109024,0.07624411582946777,0.01909087784588337,-0.059685301035642624,-0.048763204365968704,-0.04703947529196739,-0.031036509200930595,-0.07301972806453705,-0.018118763342499733,-0.03990865871310234,-0.055367644876241684,0.0227688979357481,0.08597779273986816,0.08916378021240234,-0.05125381425023079,-0.013895911164581776,-0.042943164706230164,0.019068948924541473,-0.03605927154421806,0.026952242478728294,-0.034277357161045074,-0.01965055614709854,0.006367981433868408,0.026314523071050644,0.008864912204444408,0.05302440747618675,0.0011125198798254132,0.051257118582725525,0.000605770037509501,-0.0031978031620383263,0.022863337770104408,0.030545944347977638,-0.01979285292327404,0.013303803279995918,-0.03393397107720375,-0.008305657655000687,-0.03173483908176422,0.026743948459625244,-0.022788792848587036,0.029659423977136612,0.03726017102599144,0.1070951297879219,0.027286704629659653,-0.04116630181670189,0.022739673033356667,0.02070055715739727,-0.0376194566488266,-0.030962666496634483,0.006109757348895073,0.009093640372157097,-0.01786171831190586,-0.011163145303726196,0.0010276464745402336,0.06987810134887695,0.04423244670033455,0.09974407404661179,0.0066065737046301365,0.007539908401668072,0.05486144497990608,0.025722865015268326,0.049206990748643875,0.009131437167525291,0.025930896401405334,0.016512539237737656,0.012736324220895767,0.014189830981194973,-0.003541266545653343,0.021243557333946228,0.04058964177966118,0.06061260402202606,-0.044224757701158524,0.008868512697517872,-0.003095666877925396,0.008301644586026669,-0.014428460039198399,-0.06237443536520004,0.031800344586372375,0.03876815363764763,0.0015534873818978667,0.022298945114016533,0.04456609860062599,0.061413876712322235,0.06996098160743713,0.0311665628105402,0.04977906122803688,-0.020573098212480545,0.0241299569606781,0.03025347925722599,0.030820755288004875,0.055107153952121735,0.06566944718360901,-0.026533372700214386,0.007377880625426769,-0.03838183358311653,-0.015116624534130096,-0.010601291432976723,0.007152972277253866,0.015466089360415936,-0.034552451223134995,-0.03504209220409393,-0.04696106165647507,-0.01430346630513668,-0.00835778284817934,-0.037499234080314636,-0.030242199078202248,-0.046234555542469025,-0.036723505705595016,0.057215575128793716,0.09369713813066483,0.10406917333602905,0.07587093859910965,0.04520593211054802,0.029852721840143204,0.04135686159133911,0.030349312350153923,0.06266994029283524,0.10035555064678192,0.09351550042629242,0.02960713393986225,-0.01668906770646572,0.02958562783896923,0.023840410634875298,-0.012472438625991344,0.014968497678637505,-0.02717154286801815,0.05179604887962341,-0.04214431345462799,0.020752720534801483,-0.017088182270526886,-0.012353237718343735,0.02837037481367588,-0.051928095519542694,-0.017499947920441628,-0.042251791805028915,-0.03775423765182495,0.06976446509361267,0.08340641111135483,0.06991682946681976,0.10849802941083908,0.09802909195423126,0.04783880338072777,0.02600705437362194,0.05741783604025841,0.055929023772478104,0.08348854631185532,0.11708852648735046,0.09081310778856277,0.033227261155843735,0.07828977704048157,0.04826785624027252,0.025166159495711327,0.0039470503106713295,-0.027689730748534203,0.019588839262723923,-0.012212969362735748,-0.00456832954660058,-0.005044990219175816,-0.003133742604404688,-0.011796938255429268,0.006954826880246401,0.08522345870733261,-0.004694931674748659,0.05731869488954544,0.0732179582118988,0.013115745037794113,0.05040021240711212,0.06706934422254562,0.050820328295230865,0.034854404628276825,0.07389789819717407,0.05408622324466705,0.09364348649978638,0.02985234744846821,0.08524252474308014,0.041096676141023636,0.01839570701122284,0.053955186158418655,-0.0035329789388924837,-0.10271262377500534,-0.0487733855843544,-0.02468067593872547,0.004121552687138319,0.017230097204446793,-0.020440449938178062,-0.004657226148992777,-0.0024815602228045464,-0.029205381870269775,-0.028851265087723732,0.03431027755141258,0.06317715346813202,0.010713125579059124,0.016335971653461456,-0.015078218653798103,0.005264767911285162,0.052960216999053955,0.02920725755393505,0.032921481877565384,0.0422685332596302,0.03237089514732361,0.06497059762477875,0.007158516440540552,0.020051300525665283,-0.04169827699661255,-0.052978962659835815,-0.011845518834888935,-0.1030648723244667,-0.08678053319454193,-0.1025468185544014,-0.041330356150865555,-0.007716843392699957,0.0066848332062363625,-0.017557738348841667,0.01984996162354946,-0.008191441185772419,-0.01217692345380783,-0.05125154182314873,0.006465021520853043,-0.02316749095916748,-0.044171299785375595,-0.11069212108850479,-0.06974710524082184,-0.0475442074239254,-0.04551815614104271,-0.036078643053770065,0.04135744646191597,-0.015492595732212067,-0.03228653967380524,-0.02476799488067627,-0.03149894252419472,-0.0538516491651535,-0.06498217582702637,-0.059648264199495316,-0.06386615335941315,-0.0718737319111824,-0.09781824797391891,-0.0572085902094841,-0.07697208970785141,0.00484921270981431,-0.019960787147283554,-0.02380499802529812,-0.0003034838300663978,-0.03692299500107765,-0.012019479647278786,-0.0210660919547081,-0.05736337602138519,-0.07892955839633942,-0.08916802704334259,-0.12314202636480331,-0.06586775928735733,0.01304876059293747,-0.02989565208554268,-0.014371327124536037,-0.0154292406514287,-0.05074286460876465,-0.05475875735282898,-0.12188007682561874,-0.1545058786869049,-0.1816435605287552,-0.10557486861944199,-0.05769278481602669,-0.07339809089899063,-0.06454715877771378,-0.09316927194595337,-0.06362259387969971,-0.04078162461519241,-0.007455195300281048,0.015194804407656193,-0.023431407287716866,-0.031394924968481064,0.019831659272313118,0.01460939459502697,-0.017420681193470955,-0.0230118278414011,-0.09104342013597488,-0.04387885332107544,-0.05375931039452553,-0.09618602693080902,-0.05824827030301094,-0.09707719087600708,-0.1381414532661438,-0.14115376770496368,-0.13501089811325073,-0.18149083852767944,-0.17853324115276337,-0.22089436650276184,-0.14010614156723022,-0.09748683869838715,-0.11836804449558258,-0.07334568351507187,-0.08518826216459274,-0.03761294484138489,0.004639714956283569,0.015978295356035233,-0.009438404813408852,0.021973364055156708,-0.03298644348978996,-0.03659577667713165,-0.04537088796496391,-0.0342467799782753,-0.0037809042260050774,-0.020132681354880333,0.00286542484536767,-0.05825603008270264,-0.05023179575800896,-0.015736006200313568,-0.075654037296772,-0.022592199966311455,-0.09187234938144684,-0.05562889948487282,-0.09542138129472733,-0.13197849690914154,-0.053440701216459274,-0.07151661813259125,-0.017190299928188324,-0.06388922035694122,-0.01936989650130272,-0.02630314975976944,-0.053608521819114685,-0.023630527779459953,-0.025844836607575417,-0.03702673688530922,0.02037656493484974,-0.010838106274604797,-0.015480736270546913,-0.013853995129466057,-0.03393058106303215,-0.0299235787242651,-0.03716322034597397,-0.0459686815738678,-0.022666357457637787,-0.03066929802298546,-0.013639152981340885,-0.010120679624378681,-0.042004071176052094,-0.006996728014200926,0.010611316189169884,-0.00021793649648316205,-0.0005206756759434938,-0.0019841743633151054,-0.012442532926797867,-0.027133921161293983,-0.037565987557172775,-0.04337615147233009,-0.03900844231247902,0.01107767503708601,0.012929931282997131,-0.05090649053454399,-0.020629609003663063,0.019133275374770164,-0.010528831742703915,-0.0076813483610749245,-0.04225381091237068,0.019186697900295258,-0.03395949676632881,-0.022380013018846512,0.012914315797388554,-0.02838096022605896,-0.018347786739468575,-0.03305429220199585,-0.022672157734632492,0.009965999983251095,-0.02624022588133812,-0.03424312546849251,-0.0076901791617274284,0.027134660631418228,0.007383862975984812,0.03404693678021431,-0.03215279057621956,0.00962724257260561,-0.03170086070895195,-0.010642868466675282,0.007872498594224453,0.02804870903491974,0.035348229110240936,0.03440602868795395,0.028006097301840782,0.028601236641407013,0.012673801742494106,-0.033210981637239456,-0.03323874995112419,-0.009377582930028439,-0.022242531180381775,0.028777681291103363,-0.00019182659161742777,0.011500170454382896,-0.03079037182033062,-0.0005933825741522014,-0.011174607090651989,-0.03192541375756264,-0.004269877448678017,0.013324400410056114,0.0014566418249160051,0.03555840253829956,0.028615182265639305,-0.02240147441625595,-0.02124883607029915,-0.030527038499712944,0.027751130983233452,-0.027377335354685783,0.007433460559695959,0.017319319769740105,0.024732423946261406,0.024970203638076782,0.017120342701673508,0.014646564610302448,0.00558810168877244,0.0006575150182470679,0.015519116073846817,0.02024056762456894,-0.033530544489622116,0.025741247460246086,0.0037428317591547966,0.029358113184571266,0.03222300857305527,-0.02911408059298992,0.028767863288521767,0.01599840447306633,0.011419347487390041,0.03604811057448387,0.038473498076200485,0.046596817672252655,0.016618261113762856,0.09969563037157059,0.09079289436340332,0.037249866873025894,0.019752763211727142,-0.017526734620332718,-0.004905725829303265,0.0011631130473688245,0.026654832065105438,-0.020502854138612747,-0.0026705479249358177,-0.011412249878048897,0.012760262005031109,0.004582380875945091,-0.008183475583791733,-0.008972940035164356,0.03097769059240818,-0.01600201055407524,-0.015199393965303898,0.004532759543508291,-0.026295382529497147,-0.04002870246767998,-0.0015219219494611025,-0.0232661385089159,0.0029274991247802973,0.004162217956036329,-0.01573651283979416,0.00031725934240967035,0.02079056389629841,0.0142938531935215,0.010351872071623802,0.03946515917778015,-0.04724561423063278,-0.10037233680486679,-0.019077260047197342,-0.06151869520545006,-0.05250516161322594,0.010384881868958473,0.0320536233484745,0.01614927314221859,-0.012868001125752926,-0.037316035479307175,-0.013521593995392323,0.005112647544592619,0.011670144274830818,0.03346170485019684,-0.015805864706635475,-0.008446305990219116,0.02081102319061756,0.029263392090797424,0.07594714313745499,0.049682993441820145,0.06164649501442909,0.023213444277644157,0.011532232165336609,0.022861745208501816,0.03478619083762169,0.03386113792657852,0.013966240920126438,0.0040517267771065235,-0.00948390457779169,0.013156306929886341,-0.02332397922873497,-0.03739508241415024,-0.05761696770787239,-0.07095946371555328,-0.07404723763465881,-0.0761844664812088,-0.061507582664489746,0.003716849023476243,-0.0163771640509367,0.014823413453996181,-0.020366333425045013,0.008667918853461742,-0.0016426289221271873,0.028435485437512398,0.020884020254015923,0.005292787682265043,0.01439815852791071,-0.009103594347834587,-0.08039285242557526,-0.03441484645009041,-0.06036357209086418,-0.061295248568058014,-0.007289774715900421,-0.01959277130663395,0.01967749558389187,-0.02784162573516369,0.025425663217902184,0.0675654411315918,0.06362994015216827,0.02543964423239231,0.022026456892490387,-0.043928127735853195,-0.05806427821516991,-0.0806819424033165,-0.0643695518374443,0.016964677721261978,-0.02751975879073143,-0.01983167976140976,0.0033587883226573467,0.0031726881861686707,-0.024166986346244812,0.006669100373983383,-0.07135836780071259,-0.041816454380750656,-0.040334973484277725,-0.08703351020812988,-0.11187128722667694,-0.05499272421002388,-0.055846963077783585,-0.12094207853078842,-0.08606555312871933,-0.020656783133745193,-0.030650734901428223,-0.004691033624112606,-0.001950940815731883,0.048325829207897186,-0.014930268749594688,0.01940997503697872,-0.022345365956425667,-0.025089766830205917,-0.066773921251297,-0.11647064238786697,-0.036859896034002304,-0.045694828033447266,-0.0274194423109293,-0.03353341296315193,-0.015985339879989624,0.0011312138522043824,-0.05021534115076065,-0.007029564585536718,-0.0720692127943039,-0.08661651611328125,-0.12017542123794556,-0.14688409864902496,-0.07442586869001389,-0.12513943016529083,-0.0680677741765976,-0.020735079422593117,-0.0075434730388224125,0.01188927423208952,0.031414661556482315,0.057172179222106934,0.028750240802764893,-0.01146489754319191,0.052741680294275284,0.02443203330039978,0.06426914781332016,-0.012749842368066311,-0.03784654289484024,-0.08217000216245651,-0.022458679974079132,0.011142870411276817,0.009309431537985802,-0.004385930486023426,-0.013682615011930466,0.002067706547677517,-0.053257185965776443,-0.0023667747154831886,-0.03242009878158569,-0.11530879884958267,-0.11492911726236343,-0.1116744801402092,-0.11504808068275452,-0.01254308596253395,-0.019445059821009636,-0.004629605915397406,0.043601252138614655,0.006756830494850874,0.012778034433722496,0.020310305058956146,0.00964551791548729,-0.018000425770878792,0.01297345757484436,-0.014230754226446152,0.008469880558550358,0.02353963442146778,0.010822492651641369,-0.091728076338768,-0.06068139150738716,-0.008504552766680717,-0.018872050568461418,-0.007292438298463821,-0.014331313781440258,-0.04495204612612724,-0.028463341295719147,-0.00875622034072876,-0.04612627625465393,-0.09603817015886307,-0.08673495054244995,-0.08808944374322891,0.00431175297126174,0.004627815447747707,0.034790463745594025,0.03697519749403,-0.004084034822881222,0.016062118113040924,0.03175261989235878,0.02408275194466114,-0.02526380680501461,-0.03206038102507591,-0.03234126418828964,-0.054365336894989014,-0.028482889756560326,0.008996820077300072,0.007523415144532919,-0.039280880242586136,-0.06320522725582123,-0.02025727555155754,-0.0085451016202569,0.002433893270790577,-0.0175822414457798,-0.03506894409656525,0.017159419134259224,-0.006744000129401684,-0.05541232228279114,-0.08971159905195236,-0.09018318355083466,-0.07236269861459732,-0.03936780244112015,-0.0029955243226140738,0.016958892345428467,0.086614690721035,0.015275337733328342,0.041652947664260864,0.03621571883559227,-0.004838479682803154,-0.054574836045503616,-0.04434105008840561,-0.036909278482198715,-0.08833564072847366,-0.03230150043964386,-0.07726781815290451,-0.07195940613746643,-0.05611997842788696,-0.07192213833332062,-0.010081288404762745,-0.01773429661989212,0.023315630853176117,0.017029479146003723,-0.02997897006571293,-0.06532172113656998,0.008006640709936619,0.02687092311680317,-0.037535734474658966,-0.026400499045848846,-0.07936832308769226,-0.0531843900680542,-0.0068474723957479,0.05152273178100586,0.025775441899895668,0.023099180310964584,-0.001244851155206561,-0.026238426566123962,-0.032421745359897614,-0.040032852441072464,-0.007334742229431868,0.03509632870554924,0.02750101499259472,-0.02404540404677391,-0.0708213821053505,-0.12257406115531921,-0.12264220416545868,-0.0816936194896698,-0.009839113801717758,-0.01137995719909668,0.026885585859417915,0.028000280261039734,-0.02069922164082527,-0.01604650169610977,0.051497410982847214,0.04944942146539688,-0.03308815509080887,-0.029262563213706017,0.010243036784231663,0.04135332629084587,-0.038523267954587936,-0.015886547043919563,0.020068099722266197,0.004232387058436871,0.004082219675183296,-0.02033953368663788,0.015782689675688744,-0.0279698483645916,0.017827266827225685,0.04095703363418579,0.0020509485621005297,0.013741903938353062,-0.0021334628108888865,-0.08276649564504623,-0.09404230862855911,-0.07673752307891846,-0.02419564314186573,-0.003959953784942627,0.014217285439372063,0.003962413873523474,0.01437415648251772,0.011179382912814617,0.06997977942228317,0.042127687484025955,0.017027417197823524,-0.015433123335242271,0.051985133439302444,0.001986915245652199,-0.019238414242863655,-0.052157461643218994,-0.03224191069602966,-0.015143987722694874,-0.022319521754980087,0.01648848131299019,0.06945320963859558,0.022057998925447464,-0.013226930052042007,-0.007308394182473421,-0.011174950748682022,0.02701415866613388,-0.03158777579665184,-0.07037624716758728,-0.04551171883940697,-0.05787622183561325,-0.02579241245985031,-0.017577333375811577,0.012617175467312336,0.027247248217463493,-0.009811020456254482,0.011494753882288933,0.07458993792533875,-0.03621714562177658,-0.00501372991129756,0.06340933591127396,0.026347359642386436,0.03114146739244461,-0.022397605702280998,-0.07678508758544922,-0.08847220242023468,0.009427701123058796,-0.024715576320886612,0.01958589442074299,0.031503450125455856,0.005928168538957834,-0.015715187415480614,-0.06943531334400177,-0.09797296673059464,-0.026320930570364,-0.07369228452444077,-0.11487185955047607,-0.00971877109259367,0.05427154153585434,0.045391619205474854,0.011060092598199844,0.003407698357477784,0.030749520286917686,-0.02729196473956108,0.01662910170853138,0.022269684821367264,0.0023166623432189226,0.03025561384856701,0.02839910425245762,0.016343116760253906,0.01163901761174202,-0.01050293818116188,0.029991455376148224,0.0035489993169903755,0.06963007152080536,0.001230802503414452,-0.00046044233022257686,0.040055591613054276,-0.030904006212949753,-0.06399787217378616,-0.049924954771995544,-0.05365520715713501,-0.0979330912232399,-0.07275287806987762,-0.05653196945786476,-0.05023875832557678,0.01920359395444393,0.04492595046758652,0.021262427791953087,-0.015112334862351418,0.01745803840458393,0.004669688176363707,0.04501964524388313,0.04777446761727333,0.028326451778411865,-0.019639382138848305,0.02724478393793106,0.03685480356216431,0.02976277284324169,0.024804629385471344,0.09876485168933868,0.000655231298878789,0.026577316224575043,0.03982178121805191,-0.007382794748991728,0.05904855579137802,-0.03812894970178604,-0.09120965749025345,-0.04737992584705353,-0.07738298177719116,-0.020554300397634506,-0.026941929012537003,-0.05823064222931862,0.018930569291114807,0.0369383729994297,0.03485874831676483,-0.01981629990041256,0.023690558969974518,0.02831219509243965,-0.01181385014206171,-0.02798779122531414,0.046208739280700684,0.020124133676290512,-0.08639735728502274,-0.07539936900138855,0.026057329028844833,0.053271930664777756,0.12001120299100876,0.0668027326464653,0.05155733600258827,0.002865672344341874,0.03434460982680321,0.03907911479473114,-0.01330258883535862,-0.10209614038467407,-0.09914493560791016,-0.08749135583639145,-0.08443253487348557,-0.012159878388047218,-0.006452389992773533,0.01998862251639366,0.0017434053588658571,0.07081831991672516,0.06004637852311134,0.00847569853067398,0.02612418122589588,0.020375343039631844,-0.017257843166589737,0.029545610770583153,0.0241844542324543,-0.03122635930776596,-0.07971871644258499,-0.020250145345926285,0.01010084617882967,0.07672718167304993,0.08077343553304672,-0.022725943475961685,-0.0017728697275742888,0.02411208488047123,0.02165077067911625,-0.00856837723404169,-0.03725707158446312,-0.07799863070249557,-0.04068929702043533,-0.06407003104686737,-0.03434819355607033,0.02878796122968197,0.08198536187410355,0.06835111230611801,0.00128588592633605,0.04313134402036667,-0.01825081743299961,0.004922379739582539,0.028865957632660866,-0.031142735853791237,0.0013602460967376828,-0.008000011555850506,0.012015465646982193,-0.038618505001068115,-0.03767380863428116,-0.04186204448342323,0.024711215868592262,0.05439963564276695,0.05640822649002075,-0.0013266759924590588,0.014838160946965218,-0.00828617624938488,0.030539166182279587,-0.007641826290637255,-4.417562740854919e-05,-0.00433990266174078,0.0055328914895653725,-0.005710636731237173,-0.01437168288975954,0.05945871025323868,0.061176687479019165,0.0982472226023674,0.05414203926920891,0.03155277296900749,0.03804250434041023,-0.016525253653526306,0.003400272224098444,-0.03145989403128624,0.020676568150520325,-0.006747853010892868,0.04668683558702469,-0.005883616860955954,-0.05311618000268936,-0.06583097577095032,-0.0335429348051548,-0.038308437913656235,0.011053173802793026,0.038055259734392166,0.01955886371433735,-0.024272408336400986,-0.0240488164126873,0.025567220523953438,0.041702594608068466,0.07205117493867874,0.06153376027941704,0.08031389117240906,0.05054142326116562,0.07406650483608246,0.053826142102479935,0.019825641065835953,0.04602423682808876,-0.0056408243253827095,-0.0028434707783162594,0.007040972355753183,-0.015730341896414757,-0.016264615580439568,-0.002950852969661355,0.055812496691942215,0.03694969043135643,0.03799061477184296,-0.012292137369513512,-0.011846281588077545,-0.05476737394928932,-0.0025769523344933987,0.0012374143116176128,-0.04195891320705414,-0.020334551110863686,-0.0030317341443151236,0.001645906362682581,-0.0236574187874794,0.0453636571764946,0.041776418685913086,0.053673774003982544,0.08588125556707382,0.09494956582784653,0.11665783077478409,0.04055418819189072,0.06663886457681656,0.04610949009656906,0.0032773283310234547,-0.010464207269251347,-0.03163834661245346,-0.021928777918219566,-0.01969335973262787,0.0027410867623984814,0.029634550213813782,0.07496900111436844,0.08925805240869522,0.025186248123645782,-0.03680749982595444,0.046030253171920776,0.028276344761252403,-0.037559155374765396,-0.055008988827466965,-0.0422389917075634,-0.03995196148753166,-0.021188361570239067,0.0037798965349793434,0.045652780681848526,0.00740797771140933,0.0789133831858635,0.07430699467658997,0.0862349420785904,0.08966267853975296,0.05947384610772133,-0.025672800838947296,-0.04337294027209282,0.0018350740429013968,-0.04220636934041977,0.006083551794290543,0.02495919167995453,-0.02014624886214733,-0.027629747986793518,-0.039165377616882324,-0.010278673842549324,0.017217781394720078,-0.005627467297017574,-0.028504595160484314,-0.00013244152069091797,-0.003528430126607418,-0.009590120986104012,-0.03658480942249298,0.00791587121784687,0.00016043629148043692,-0.05974271148443222,0.03415676951408386,-0.020397303625941277,0.036761194467544556,-0.007124380674213171,0.08598262071609497,0.12066230177879333,0.059878718107938766,0.04754272848367691,-0.03299035504460335,-0.029844367876648903,-9.918090654537082e-06,-0.0021581610199064016,0.005310668144375086,0.0013362513855099678,-0.032103173434734344,0.03253791108727455,0.013074390590190887,-0.039444249123334885,-0.05529080331325531,-0.08136403560638428,-0.06918440014123917,-0.06098061427474022,-0.0756465494632721,-0.04674115404486656,-0.06706751137971878,-0.042004186660051346,-0.10482940822839737,-0.06270521879196167,-0.039831142872571945,-0.02617589943110943,-0.027111869305372238,-0.05457805097103119,-0.022797120735049248,-0.006594764068722725,0.01819463260471821,0.03214964270591736,0.04257495701313019,0.009434213861823082,0.013484077528119087,-0.00897645577788353,-0.02034549042582512,-0.03425629064440727,-0.004383796826004982,0.005456243641674519,-0.034493207931518555,-0.002013517776504159,-0.028489744290709496,-0.011633793823421001,0.026336314156651497,0.016789570450782776,-0.05027502030134201,-0.07420646399259567,-0.04037300869822502,-0.042080290615558624,-0.00665588304400444,0.005347794387489557,-0.05100511014461517,0.005171499215066433,-0.06555555015802383,-0.04068925604224205,-0.025206973776221275,0.03342757746577263,0.021230362355709076,0.005447476636618376,-0.010971233248710632,-0.0064214360900223255,0.021724432706832886,0.02041437290608883,-0.02009056694805622,-0.02203475683927536,-0.02971656806766987,0.0033310423605144024,-0.025079304352402687,0.018285440281033516,0.06280019134283066,0.06262478232383728,0.029415857046842575,0.00835542194545269,0.006721252575516701,-0.0193664338439703,0.018172603100538254,0.014262710697948933,0.014310621656477451,0.03457864001393318,0.04693860188126564,0.024625366553664207,0.029860910028219223,-0.0323520265519619,-0.007273152004927397,0.061716679483652115,0.047287311404943466,0.018347620964050293,-0.0008979575359262526,0.031175456941127777,-0.014337713830173016,0.009550646878778934,0.026512939482927322,0.0011112613137811422,-0.0046130395494401455,0.010596721433103085,0.03479719161987305,-0.03376946970820427,0.022735249251127243,-0.009534419514238834,0.039061933755874634,-0.010000894777476788,-0.0028592420276254416,-0.02838103659451008,0.0146259106695652,0.01847381517291069,0.006268504541367292,0.041707780212163925,0.033183664083480835,-0.03509635478258133,0.031175341457128525,-0.01061656977981329,-0.02711196057498455,-0.006801967043429613,-0.03489641845226288,-0.0068690478801727295,-0.015047614462673664,-0.01253986544907093,0.005272486247122288,0.0017834187019616365,0.01042371615767479,-0.0032006895635277033,-0.03879876434803009,-0.019185392186045647,0.01368657685816288,-0.0229759830981493,-0.017746388912200928,-0.027823777869343758,0.005750939715653658,-0.0336897149682045,-0.025792239233851433,0.018385546281933784,0.010098609142005444,-0.022006524726748466,0.007592088542878628,-0.041525937616825104,0.007110582198947668,-0.024421537294983864,-0.00040271144825965166,-0.0009628914995118976,0.006753941066563129,0.020644420757889748,0.024725036695599556,-0.0007118491921573877,0.0019002541666850448,-0.0065871840342879295,-0.022006263956427574,0.025066891685128212,0.006596924737095833,-0.0014783829683437943,-0.024384496733546257,-0.001167643116787076,0.016177112236618996,0.0009262263774871826,-0.004701852332800627,0.024549908936023712,-0.02953905612230301,-0.0097982631996274,-0.0108501510694623,-0.007624142803251743,-0.01693401113152504,0.028911713510751724,-0.025556271895766258,0.02254333719611168,0.0028558652848005295,0.005876512266695499,-0.0014729276299476624,-0.0019144039833918214,0.02402685023844242,-0.010474336333572865,-0.0115717938169837,-0.03083566389977932,-0.018671145662665367,-0.03838583827018738,-0.03733570873737335,0.009912904351949692,-0.04082740843296051,-0.01566956751048565,-0.009343285113573074,-0.020232511684298515,-0.025920595973730087,-0.026729436591267586,-0.0013472303980961442,0.01124609261751175,-0.00854878593236208,-0.016802338883280754,-0.007860659621655941,0.057682886719703674,0.02902146428823471,0.0705268532037735,0.02710678242146969,0.04525812342762947,0.07661490142345428,0.09763640910387039,0.08986899256706238,0.05511483922600746,0.0344042107462883,-0.004608383867889643,-0.006690225098282099,-0.020274216309189796,0.003205426735803485,0.010516821406781673,0.003321385011076927,-0.019760655239224434,-0.027450596913695335,-0.03453235328197479,-0.0018188966205343604,-0.024112386628985405,-0.03137395903468132,-0.006060590967535973,-0.0465218760073185,-0.0017750447150319815,0.015134383924305439,0.015364034101366997,0.043173015117645264,0.02078198827803135,0.020969701930880547,0.04575314372777939,0.05203556641936302,0.009660511277616024,0.04356656223535538,0.031338173896074295,0.06703508645296097,0.000109836008050479,0.026847515255212784,0.015248114243149757,0.018593011423945427,-0.04020913690328598,-0.03394731506705284,-0.029252268373966217,0.024484023451805115,0.023931168019771576,-0.0357208326458931,-0.0340663343667984,-0.027123253792524338,-0.033685266971588135,-0.022511087357997894,-0.03671812638640404,-0.008366442285478115,0.04869949445128441,-0.027835935354232788,0.05815281346440315,0.05058197304606438,0.1116592213511467,0.08148806542158127,0.07407918572425842,0.02237650752067566,0.07435055822134018,-0.023329053074121475,-0.030210863798856735,0.04114389419555664,-0.02256360463798046,0.06392823159694672,-0.020127778872847557,-0.04345579072833061,-0.08480610698461533,-0.0931214764714241,-0.06654518842697144,-0.04475387558341026,-0.025418972596526146,0.010885885916650295,-0.010552963241934776,0.012902992777526379,-0.028078235685825348,0.024134758859872818,0.03510480374097824,-0.05383347347378731,0.006494283210486174,-0.022172853350639343,-0.02043895423412323,0.026872960850596428,0.060876719653606415,0.02571883797645569,0.0193320419639349,-0.0036867617163807154,0.011592153459787369,-0.04731065034866333,0.02101844921708107,0.011906350031495094,0.022407658398151398,0.01471245288848877,-0.03117941878736019,-0.01491978857666254,-0.020066963508725166,-0.04283681884407997,-0.06337770819664001,-0.02242087759077549,0.004536197520792484,0.025747058913111687,0.005237962584942579,-0.017451729625463486,-0.04520537331700325,0.009284133091568947,0.005243375431746244,-0.021356841549277306,-0.04810532182455063,-0.011178984306752682,-0.10570763796567917,-0.017998289316892624,-0.003690636483952403,0.023788223043084145,0.0013806932838633657,-0.004095535259693861,-0.061079688370227814,-0.03227534145116806,-0.023384517058730125,-0.013369408436119556,0.026103604584932327,-0.03633292764425278,-0.040512748062610626,0.003933900501579046,-0.07370065152645111,-0.11178012937307358,-0.054866641759872437,-0.06067362427711487,-0.011148590594530106,-0.016422118991613388,-0.0012288156431168318,0.0249065812677145,-0.010331925004720688,-0.03655945509672165,-0.05390019342303276,-0.0619736984372139,-0.07760298997163773,-0.0832473486661911,-0.09650402516126633,-0.043006446212530136,0.015190104022622108,0.03744346648454666,0.06118352338671684,-0.01330786757171154,-0.004466827027499676,-0.07121719419956207,-0.08035268634557724,-0.041322655975818634,-0.024028005078434944,-0.09813844412565231,-0.04219437390565872,-0.02768714353442192,-0.09071000665426254,-0.11148112267255783,-0.09264568984508514,-0.06580699980258942,-0.012765476480126381,-0.012763582170009613,-0.01701340265572071,0.005182974971830845,0.016281411051750183,-0.05817277356982231,0.0012660821666941047,-0.024542035534977913,-0.09702959656715393,-0.08617490530014038,-0.003908350132405758,0.01581024006009102,0.11196403205394745,0.056762006133794785,-0.006778603885322809,-0.022865502163767815,-0.03763950616121292,-0.012548301368951797,-0.06971067190170288,-0.07982666790485382,-0.05664624273777008,-0.05514569208025932,-0.05408897250890732,-0.08311775326728821,-0.08986165374517441,-0.13110269606113434,-0.15860478579998016,-0.1094871386885643,-0.0014762512873858213,0.020796872675418854,0.01260071899741888,0.01645784266293049,-0.02178945019841194,0.010619156993925571,-0.03170917183160782,-0.039373837411403656,-0.0386507585644722,0.009542168118059635,0.035530850291252136,0.027626121416687965,0.040754012763500214,-0.02566247619688511,-0.05457589030265808,-0.04554831236600876,-0.012932801619172096,-0.010306667536497116,-0.03227394446730614,-0.07923435419797897,-0.08275778591632843,-0.07571490854024887,-0.03684061020612717,-0.04440959170460701,-0.09441670030355453,-0.09822303801774979,-0.10656468570232391,-0.040736712515354156,-0.039984602481126785,-0.03001963533461094,0.0025434105191379786,0.021998101845383644,-0.041919246315956116,0.003930758219212294,-0.08801060914993286,-0.04779403656721115,-0.018936820328235626,-0.018700137734413147,0.04021579772233963,-0.0317847765982151,-0.008007967844605446,0.016426607966423035,-0.06912185251712799,-0.07978323847055435,-0.03604669123888016,-0.054309193044900894,-0.034453269094228745,-0.04815597087144852,-0.019718974828720093,-0.04014073312282562,-0.007437096443027258,-0.013867122121155262,-0.05066970735788345,-0.09766598045825958,-0.07670741528272629,-0.03415551781654358,-0.0014109291369095445,0.0023095461074262857,-0.010308363474905491,-0.037701718509197235,-0.019964884966611862,-0.03754561021924019,-0.0756126120686531,-0.027201298624277115,-0.021234046667814255,-0.05635075271129608,-0.06627728790044785,-0.06564443558454514,-0.09223127365112305,-0.03231258690357208,-0.10038304328918457,-0.09088639914989471,-0.045155636966228485,-0.03678944706916809,-0.028806891292333603,-0.03253140673041344,-0.036679621785879135,-0.02219383232295513,-0.03629986196756363,0.03730865567922592,-0.020437492057681084,0.021215127781033516,0.01639028638601303,-0.04446638748049736,-0.03063463605940342,0.027899250388145447,-0.013126718811690807,-0.03648742288351059,-0.004143969621509314,0.0029995113145560026,-0.0018810108304023743,-0.05480547621846199,-0.029209177941083908,-0.09788747131824493,-0.037270497530698776,-0.07792960852384567,-0.07777141779661179,-0.08896628022193909,-0.07892566919326782,-0.09660877287387848,0.020401721820235252,-0.05274539813399315,-0.0028990781866014004,-0.08017881959676743,-0.07242590934038162,-0.01959763839840889,-0.053304027765989304,0.011469296179711819,-0.009212644770741463,0.043188147246837616,0.027412360534071922,0.023831287398934364,0.009963726624846458,-0.021978992968797684,-0.03906149044632912,0.009678347036242485,0.018759919330477715,0.009087604470551014,-0.0002049358736258,-0.09041697531938553,-0.05629020556807518,0.0070841629058122635,0.02714824490249157,-0.06319816410541534,-0.01979135535657406,-0.06888248771429062,-0.02231317199766636,0.0643756240606308,0.03180089592933655,0.012018241919577122,-0.030841393396258354,-0.05167534574866295,-0.07088723033666611,-0.04102468863129616,-0.07147065550088882,-0.010876434855163097,-0.03477625548839569,0.08074361085891724,0.04695071280002594,0.017282778397202492,0.012261014431715012,-0.011330700479447842,-0.013595560565590858,-0.011247004382312298,-0.010511820204555988,3.122353518847376e-05,-0.0031024140771478415,-0.04758767783641815,0.00918495561927557,-0.0023983954451978207,-0.011848225258290768,0.02787398360669613,-0.010240448638796806,-0.041249193251132965,0.015224368311464787,0.0977158471941948,0.05782036483287811,0.014874683693051338,-0.0542093887925148,-0.03906712681055069,-0.03808480128645897,-0.05259396880865097,-0.010406533256173134,-0.0008395131444558501,0.05267760157585144,0.09336815029382706,0.0983104482293129,0.0421605110168457,0.06761801987886429,-0.0065112365409731865,-0.02558872103691101,-0.005489852745085955,-0.017482779920101166,0.003199032275006175,-0.06260676681995392,0.019187355414032936,0.02569478377699852,0.010998235084116459,0.025395557284355164,0.02180897817015648,-0.04139437898993492,-0.006393115501850843,0.014173814095556736,0.07956740260124207,0.03985350951552391,0.012909027747809887,-0.0463087297976017,-0.048804860562086105,-0.031703922897577286,-0.05590019002556801,0.011043018661439419,0.04085385426878929,0.018558310344815254,0.04512612521648407,0.07898885756731033,0.11503943800926208,0.05055949091911316,-0.032454557716846466,-0.014906342141330242,0.010905385948717594,0.02259061485528946,0.0025768722407519817,0.006733836140483618,0.01634284108877182,0.06645571440458298,-0.014432540163397789,-0.011481473222374916,0.027147235348820686,-0.003990004304796457,0.013321527279913425,-0.012545348145067692,0.07492923736572266,0.09289766103029251,-0.0028374833054840565,-0.0762583315372467,-0.06382577121257782,0.002247339114546776,-0.036692552268505096,-0.043797433376312256,0.056408584117889404,0.06603337824344635,0.05883944407105446,0.07291126996278763,0.13345609605312347,0.0813223198056221,2.7344940463081002e-05,-0.018528873100876808,-0.031653326004743576,0.012509488500654697,0.03440063074231148,-0.033540401607751846,-0.01540206465870142,0.05462197586894035,0.0183730311691761,-0.010538690723478794,0.017235415056347847,0.06180872023105621,0.04870098829269409,0.019850291311740875,0.07526147365570068,0.028455596417188644,-0.02624160796403885,-0.056410692632198334,-0.044068530201911926,-0.014934675768017769,-0.009028088301420212,0.016724390909075737,0.0014625241747125983,0.009951455518603325,-0.011708934791386127,0.014823468402028084,0.10201412439346313,0.01464929711073637,0.03268496319651604,-0.04036841168999672,-0.036268629133701324,0.013591913506388664,0.03409719094634056,0.0453777089715004,0.06514132767915726,0.02089790627360344,0.052180998027324677,0.046514905989170074,0.06203687936067581,0.029607100412249565,-0.04272741079330444,-0.005850799381732941,0.05507278814911842,0.07696155458688736,-0.01562497392296791,-0.005915998015552759,0.04807675629854202,-0.010589920915663242,-0.02271260693669319,-0.04752674326300621,0.020513692870736122,0.02195964753627777,0.004799931310117245,0.06339379400014877,0.06112112104892731,0.040391381829977036,0.018103254958987236,-0.027155019342899323,-0.03849034383893013,0.029890866950154305,0.028730608522892,0.07097916305065155,0.012620259076356888,-0.01318024005740881,-0.00015990172687452286,0.001008837018162012,0.06367490440607071,0.04598701000213623,0.02398845925927162,0.04153211787343025,0.050326958298683167,0.04380277916789055,0.02155858650803566,0.057880427688360214,0.081230528652668,0.003864066209644079,0.04093874990940094,-0.026907922700047493,-0.031386371701955795,0.011453354731202126,0.10831085592508316,0.09342746436595917,0.08494768291711807,0.016756996512413025,0.029319101944565773,0.028270697221159935,-0.015523483045399189,0.03717212378978729,0.040332894772291183,0.05288161709904671,0.051685839891433716,0.0028637454379349947,0.0372810885310173,-0.023807482793927193,-0.035683296620845795,-0.015390823595225811,0.06192391738295555,0.07332026213407516,-0.008318974636495113,0.05838607996702194,0.012802636250853539,0.06264658272266388,0.0742655023932457,0.084145188331604,0.05113353580236435,0.016046777367591858,0.026358619332313538,0.007059518247842789,0.041112083941698074,0.11106479167938232,0.02447882480919361,-0.009250675328075886,-0.001857334515079856,-0.012608438730239868,0.029059061780571938,-0.0016367814969271421,0.024771424010396004,0.047038644552230835,0.008931261487305164,0.01835031434893608,0.02670864202082157,-0.01415536180138588,0.0008204228361137211,0.02543737180531025,-0.015172665007412434,-0.05250769481062889,-0.037763454020023346,-0.030644169077277184,-0.017798690125346184,0.0017996825044974685,0.02198125049471855,0.020756777375936508,0.06860220432281494,0.07657896727323532,-0.009566700085997581,-0.0040614972822368145,-0.006595551501959562,0.06687739491462708,-0.025059688836336136,-0.01915452629327774,-0.031373534351587296,0.015597408637404442,-0.0071668196469545364,-0.008893976919353008,-0.005801445338875055,0.030809571966528893,0.05448496714234352,0.05161057412624359,-0.027696238830685616,-0.018919803202152252,-0.004687993321567774,-0.045674972236156464,-0.05377977341413498,-0.1248745545744896,-0.11179643124341965,-0.09713932126760483,-0.0694492757320404,-0.019529225304722786,-0.06343230605125427,0.023097289726138115,0.053338680416345596,0.07098287343978882,-0.013531934469938278,-0.029761575162410736,-0.007848518900573254,-0.01848473586142063,-0.01021774485707283,-0.024307681247591972,-0.01424027793109417,-0.0182670745998621,-0.034798428416252136,-0.009727630764245987,-0.04133661836385727,-0.02439805306494236,0.007597080431878567,0.004289483651518822,-0.07386976480484009,-0.09248465299606323,-0.02334510162472725,-0.08254442363977432,-0.0813693106174469,-0.05969350412487984,-0.13102516531944275,-0.1220555528998375,-0.11685685068368912,-0.08890341222286224,-0.11391581594944,-0.10939417034387589,0.01066434197127819,0.011412904597818851,-0.007180462125688791,-0.007494078017771244,-0.016717253252863884,-0.02739369310438633,-0.008096577599644661,0.004538409877568483,0.01151079311966896,0.010558036155998707,-0.01718447543680668,-0.020279541611671448,-0.04177432507276535,-0.059407345950603485,-0.011293439194560051,-0.04580848664045334,-0.1086973026394844,-0.08996220678091049,-0.13628296554088593,-0.10656216740608215,-0.1044398844242096,-0.09900790452957153,-0.10931283980607986,-0.1711832731962204,-0.09523684531450272,-0.06949362903833389,-0.06256867200136185,-0.03418787568807602,-0.012884269468486309,-0.030929921194911003,0.015318520367145538,1.7009420844260603e-05,-0.0026989022735506296,-0.013137810863554478,-0.01603483408689499,-0.0021368893794715405,-0.021990174427628517,0.013065296225249767,-0.03193739056587219,0.01762617751955986,-0.00207020016387105,0.016475612297654152,0.0061590117402374744,-0.010481899604201317,-0.0273333340883255,-0.05791502445936203,-0.04141271114349365,-0.09954237192869186,-0.08063062280416489,-0.04553918167948723,-0.09392973780632019,-0.10182538628578186,-0.09884107112884521,-0.039473287761211395,0.03363223001360893,0.034603893756866455,-0.01869274489581585,-0.022003892809152603,0.002880836371332407,-0.03795892000198364,-0.0035933894105255604,-0.023485584184527397,0.0009252611780539155,0.0011835562763735652,0.00012665329268202186,-0.018178025260567665,-0.0333467461168766,0.015765836462378502,-0.01795613206923008,-0.010317539796233177,-0.04162890091538429,-0.03344697877764702,-0.03230002894997597,-0.007688441779464483,-0.04545455798506737,0.01313813030719757,0.0017834552563726902,-0.027659593150019646,0.021988755092024803,-0.008410133421421051,0.008989812806248665,-0.020430665463209152,-0.02601001039147377,0.04885149374604225,0.012023488990962505,0.0055546448566019535,0.008161935023963451,0.02641797997057438,-0.0089637516066432,-0.009600305929780006,-0.02870888076722622,0.02306649275124073,-0.006439587567001581,-0.024588866159319878,0.008976954966783524,-0.02361164055764675,0.01722625084221363,0.020995983853936195,-0.016903426498174667,0.025771398097276688,-0.040807295590639114,-0.03694606572389603,-0.025449709966778755,0.019736897200345993,0.023370616137981415,0.010468066670000553,-0.03555881604552269,-0.03994496911764145,-0.011315089650452137,-0.01282746996730566,0.01826908439397812,-0.010129873640835285,0.02042587846517563,-0.031162988394498825,-0.006248784717172384,0.020877890288829803,0.00799021776765585,0.029320839792490005,-0.011034012772142887,-0.019732078537344933,0.007137785200029612,0.025381704792380333,-0.015314172022044659,0.03484882041811943,0.028646007180213928,-0.02128448523581028,0.034912221133708954,-0.014588783495128155,0.009141017682850361,-0.010641677305102348,0.003073202446103096,0.03768683597445488,-0.009769528172910213,0.015191443264484406,0.043017685413360596,0.024348871782422066,-0.009613920003175735,0.002961684949696064,-0.0053833057172596455,-0.022290734574198723,0.011369211599230766,0.037039417773485184,0.02597927860915661,0.02022263966500759,-0.010475561022758484,0.02719905413687229,0.03618811443448067,-0.010097071528434753,0.030752846971154213,-0.0049784001894295216,0.007655508350580931,0.009469694457948208,0.007233191281557083,0.0250803604722023,-0.008697615005075932,-0.00659848703071475,0.029199210926890373,-0.004840443842113018,-0.014096125029027462,0.006402214057743549,0.0393020324409008,0.03009050525724888,0.020165706053376198,-0.005680281203240156,0.03971229866147041,-0.017235994338989258,0.028964318335056305,-0.0149209750816226,0.0006379475817084312,-0.007392990402877331,-0.010610794648528099,0.00779243977740407,0.0357537642121315,-0.0214132908731699,0.02213287726044655,-0.01523632276803255,0.03713067248463631,0.03292947635054588,-0.011977406218647957,-0.02589811570942402,-0.01059519499540329,0.02655605785548687,0.020166050642728806,0.038218557834625244,0.05017819628119469,-0.011154710315167904,-0.006903007160872221,0.04651625081896782,0.011417764239013195,0.04657476022839546,0.06465291231870651,0.03056962415575981,0.05624014511704445,0.07693888992071152,0.04408133774995804,0.10382469743490219,0.06433358788490295,0.02256573736667633,0.06323984265327454,0.0014701371546834707,0.014358737505972385,-0.005020103882998228,-0.010795925743877888,-0.010651012882590294,0.0031784712336957455,0.01706715114414692,0.018913310021162033,0.004583108704537153,-0.011092293076217175,0.017577337101101875,0.007459933403879404,-0.028905346989631653,-0.019454676657915115,-0.006697784177958965,0.034894853830337524,0.01889924518764019,0.021642398089170456,0.07151879370212555,0.10644885897636414,0.002843705005943775,-0.0023471491876989603,0.046314775943756104,0.01973014697432518,0.07526327669620514,0.06003638729453087,0.005161650944501162,0.058931611478328705,0.03826046735048294,0.004572105128318071,0.0030454129446297884,0.018651921302080154,0.01419051457196474,0.031337883323431015,0.0030030813068151474,0.018092472106218338,-0.026610899716615677,0.03852744773030281,0.01824301667511463,-0.014098143205046654,-0.021751899272203445,-0.025491254404187202,-0.033107902854681015,-0.049015313386917114,-0.048194754868745804,-0.0037558716721832752,0.0024376697838306427,0.024970319122076035,0.05029958114027977,0.035787999629974365,0.04273004084825516,0.07011619210243225,0.06316345930099487,0.04316400736570358,0.025181643664836884,0.019423171877861023,-0.01954817771911621,0.012158429250121117,-0.030480563640594482,0.008124670013785362,0.03404970467090607,0.01373613253235817,-0.01015486940741539,0.008750608190894127,0.008554654195904732,0.013716439716517925,0.008543171919882298,-0.014080573804676533,-0.07037483900785446,-0.08438892662525177,-0.08115695416927338,-0.08951134979724884,-0.06173461303114891,-0.04728405177593231,-0.06064779683947563,-0.06655461341142654,-0.02295108698308468,0.06444664299488068,0.028780918568372726,0.05266451835632324,0.027269620448350906,0.12945041060447693,0.09558583050966263,0.025100965052843094,0.0188435185700655,0.019764475524425507,0.0411122590303421,-0.029484553262591362,0.015377526171505451,0.016014588996767998,0.004730132408440113,0.0017793818842619658,0.026666350662708282,0.03624098747968674,-0.02668662928044796,-0.053094640374183655,-0.04209529235959053,-0.11616411060094833,-0.1285877227783203,-0.19521041214466095,-0.1836172342300415,-0.06133134663105011,-0.08703844249248505,-0.020900767296552658,0.017612358555197716,0.07946522533893585,0.10198192298412323,0.03514586016535759,0.016341591253876686,0.01716654933989048,0.028724897652864456,-0.0553722120821476,-0.05534956604242325,-0.007126863580197096,0.009347530081868172,0.04445667564868927,0.013950692489743233,0.03981277346611023,-0.027416054159402847,0.004130699671804905,-0.005019885487854481,0.02265465259552002,0.017837509512901306,-0.04882911220192909,-0.06548059731721878,-0.10245057195425034,-0.20650643110275269,-0.24292020499706268,-0.11631391197443008,-0.037227801978588104,-0.007559049408882856,0.043410129845142365,0.09346462786197662,0.1259276568889618,0.07906177639961243,0.03171073645353317,-0.0011474326020106673,-0.0057279025204479694,-0.017300786450505257,0.017990395426750183,0.0029031618032604456,0.006975515745580196,-0.02575049176812172,-0.013369840569794178,-0.012657255865633488,0.030782530084252357,-0.004183000419288874,-0.02241545170545578,0.012334536761045456,-0.023363634943962097,-0.0027807322330772877,-0.08508917689323425,-0.11711064726114273,-0.12335245311260223,-0.18104392290115356,-0.0771956667304039,-0.02764909714460373,0.04033776745200157,0.03301854431629181,0.026407938450574875,0.04802350699901581,0.016041988506913185,0.021757036447525024,0.029676325619220734,-0.04334620013833046,0.015265318565070629,-0.029107920825481415,-0.04192262142896652,-0.04310978949069977,-0.07255870848894119,-0.05246848613023758,0.0100701954215765,0.018414538353681564,-0.0034694429486989975,0.0397820845246315,-0.021095026284456253,0.006701806094497442,0.00890740379691124,-0.01268408726900816,-0.13436485826969147,-0.15263494849205017,-0.17931370437145233,-0.08435355126857758,0.0221142265945673,0.11194360256195068,0.10424172878265381,0.037900738418102264,0.06382287293672562,-0.039004135876894,-0.002223739167675376,-0.05171430483460426,-0.07079528272151947,-0.02362482249736786,-0.028106825426220894,-0.058066803961992264,-0.05996840074658394,-0.09541959315538406,-0.06934333592653275,0.003348086727783084,0.03401744365692139,0.002894872333854437,-0.0002647185465320945,-0.017210323363542557,0.02885403484106064,-0.0026993947103619576,-0.03462004289031029,-0.03588225319981575,-0.12991736829280853,-0.09692611545324326,-0.13482250273227692,-0.005580203142017126,0.04077398031949997,0.016956020146608353,0.05781642347574234,0.06269259750843048,0.008968135342001915,0.03926435858011246,-0.04901716858148575,-0.08449681103229523,-0.05619616433978081,-0.015211469493806362,0.0030393400229513645,-0.02284921333193779,-0.011959586292505264,-0.12245791405439377,-0.013299776241183281,-0.05374182388186455,-0.03583246096968651,0.02440306916832924,0.003499419894069433,0.012307337485253811,-0.013427521102130413,0.010040372610092163,-0.025537662208080292,-0.062318626791238785,-0.04750673100352287,-0.011949307285249233,-0.04690331593155861,0.023052595555782318,-0.009828410111367702,-0.012448287568986416,-0.02814258635044098,0.049621857702732086,0.05496729910373688,0.011683246120810509,-0.00351236155256629,-0.050669364631175995,-0.032138925045728683,-0.011565081775188446,0.024323586374521255,-0.009844898246228695,-0.03784337267279625,-0.04226744920015335,-0.02469560131430626,0.022960806265473366,0.029217571020126343,-0.001081347232684493,-0.019547995179891586,0.018001217395067215,0.016665497794747353,0.019830813631415367,-0.0499994158744812,-0.028252312913537025,-0.07042541354894638,0.01246695313602686,0.04681791737675667,0.0052254986949265,0.029394274577498436,-0.01819796860218048,0.040441710501909256,0.009781879372894764,0.04280538111925125,0.1087932214140892,-0.017539091408252716,-0.050928615033626556,-0.026822619140148163,0.010804242454469204,-0.004796785302460194,0.0019094098825007677,-1.2080294254701585e-05,0.02426048554480076,0.07591899484395981,-0.007953757420182228,0.01636529341340065,-0.012883487157523632,0.005489667411893606,-0.01622054912149906,-0.009185928851366043,0.020934538915753365,-0.052884019911289215,-0.06272440403699875,-0.06866279989480972,-0.006164512597024441,0.04326524958014488,0.0706336572766304,0.0635523796081543,-0.006612624041736126,-0.04724796116352081,-0.015025559812784195,0.052128929644823074,0.021953100338578224,0.0032466358970850706,-0.029480373486876488,-0.016371937468647957,0.014614112675189972,0.029230153188109398,-0.006890866439789534,0.0029414226301014423,0.021473353728652,-0.03302280977368355,-0.07722987234592438,-0.058859165757894516,0.03875365108251572,0.0031597448978573084,0.017650961875915527,0.009526106528937817,-0.011122466996312141,-0.048059895634651184,-0.02006760984659195,-0.07868579775094986,0.014495591633021832,-0.0035609910264611244,0.025010444223880768,-0.0050119697116315365,0.009826974011957645,-0.03393148258328438,-0.08382777869701385,0.009466010145843029,-0.0006734306225553155,0.0014963741414248943,-0.004600208718329668,0.005874823313206434,0.012872318737208843,-0.036392178386449814,0.034853991121053696,-0.025348719209432602,-0.07638470083475113,-0.12287097424268723,-0.05444376915693283,-0.0282584261149168,-0.013619313947856426,0.026569947600364685,0.0353076346218586,0.008179718628525734,0.03279612585902214,-0.03183605894446373,-0.051445212215185165,-0.0647921934723854,-0.010716317221522331,0.015455814078450203,0.048657871782779694,-0.0071790944784879684,-0.016240708529949188,-0.025669395923614502,0.055941224098205566,0.02963120862841606,0.019349774345755577,-0.022962715476751328,0.051716357469558716,-0.005789071321487427,-0.03403838351368904,-0.006651896983385086,0.018558474257588387,-0.00944520067423582,-0.10526873171329498,-0.12441370636224747,-0.04820019006729126,-0.0020112169440835714,0.02576381340622902,0.026704907417297363,0.0013867935631424189,-0.0022389860823750496,0.013704823330044746,-0.030192337930202484,-0.07129031419754028,-0.022597959265112877,0.013978171162307262,0.031372711062431335,-0.029098907485604286,-0.03790842741727829,-0.02936849743127823,0.03158619999885559,0.040875863283872604,0.015938980504870415,-0.02781013771891594,-0.030203690752387047,-0.00016854975547175854,-0.01796885021030903,-0.033161912113428116,-0.05656151846051216,-0.03653115779161453,-0.03844437748193741,-0.07479525357484818,-0.10931803286075592,0.00908658653497696,0.043153077363967896,-0.02409236878156662,0.028441861271858215,-0.02332751266658306,0.014284995384514332,-0.01705278642475605,-0.023140422999858856,-0.06353764235973358,-0.025036707520484924,-0.026644818484783173,0.005752201192080975,0.027998946607112885,0.027365945279598236,0.05887118726968765,0.059951603412628174,0.030614711344242096,-0.019250111654400826,-0.058564502745866776,-0.012684151530265808,0.016300924122333527,-0.0010106379631906748,-0.061874739825725555,-0.055999867618083954,-0.06465701758861542,-0.0699697881937027,-0.09959374368190765,-0.07986325025558472,-0.07524838298559189,-0.004617228172719479,-0.004921027459204197,0.021381719037890434,-0.0005187722854316235,-0.028599731624126434,-0.005446620285511017,-0.03544684499502182,0.018505549058318138,-0.0403238944709301,-0.024033723399043083,0.06726071238517761,0.03456510975956917,0.017995821312069893,0.03605322539806366,-0.08746492117643356,-0.06823902577161789,-0.0943632647395134,-0.012855949811637402,0.034978266805410385,0.019684290513396263,0.030453065410256386,-0.07092001289129257,-0.06164058297872543,-0.07152063399553299,-0.08337660133838654,-0.04753868281841278,-0.03610913082957268,-0.011762517504394054,-0.02090322971343994,-0.02816924639046192,0.00436842767521739,-0.026794541627168655,-0.005909288302063942,0.03724459558725357,-0.04885954409837723,-0.004289242904633284,-0.02210427261888981,-0.007682040333747864,0.054019175469875336,-0.016681058332324028,0.09084123373031616,0.033724457025527954,-0.023340381681919098,-0.02754405327141285,-0.037040580064058304,0.02391713857650757,0.03502418100833893,0.05611937493085861,0.023500530049204826,0.03803158923983574,0.004769095219671726,0.0073318807408213615,-0.0064104534685611725,0.040387701243162155,0.07884934544563293,0.04627630114555359,-0.008236072957515717,0.0160178504884243,0.011646042577922344,-0.024849217385053635,-0.01346159353852272,-0.009187390096485615,0.019399981945753098,0.02229049988090992,0.012027187272906303,-0.018478363752365112,0.01089143194258213,-0.0039039875846356153,0.0753239244222641,0.01872040331363678,-0.019279971718788147,-0.0006965121137909591,0.013718530535697937,0.05431031063199043,0.09272096306085587,0.08928224444389343,0.11034677177667618,0.05117439478635788,0.08203856647014618,0.058500148355960846,0.08403176069259644,0.08001339435577393,0.053087905049324036,0.017375962808728218,0.0050920117646455765,-0.024232063442468643,-0.02705666422843933,-0.015507322736084461,-0.007601141929626465,0.038790684193372726,0.03725031763315201,0.02795318141579628,0.015603839419782162,0.015011106617748737,-0.004514971747994423,-0.007337302900850773,0.05709485337138176,0.044354505836963654,0.016765430569648743,0.009032479487359524,0.10125355422496796,0.06576929241418839,0.12286687642335892,0.056232985109090805,0.1169152706861496,0.0819283053278923,0.0549800731241703,0.06418265402317047,0.05035298690199852,0.0036237058229744434,-0.006252259947359562,0.040606483817100525,-0.015910305082798004,-0.02939174324274063,-0.028725290670990944,0.03493810072541237,-0.024064522236585617,0.022921547293663025,0.06547253578901291,0.06720051169395447,0.018180670216679573,0.00021846883464604616,-0.026224836707115173,0.020200317725539207,-0.0009961794130504131,-0.002509066602215171,-0.014253121800720692,0.06851731240749359,0.08697525411844254,0.04712973162531853,0.05752655491232872,0.005589335225522518,0.033572662621736526,0.049800626933574677,0.020662106573581696,0.04747825488448143,-0.028778502717614174,-0.03365648165345192,-0.00981841329485178,0.003106183372437954,-0.02132800593972206,0.03848138079047203,0.04069016873836517,0.039603013545274734,-0.026518674567341805,0.01988016441464424,-0.009721850976347923,0.019515901803970337,-0.0020968185272067785,-0.025253836065530777,-0.02142404578626156,0.03552216291427612,0.011674758046865463,0.012920270673930645,0.03682994470000267,0.05028895288705826,0.029705867171287537,-0.04881679266691208,-0.021109357476234436,-0.004030581098049879,-0.02526111900806427,0.004771752282977104,0.03144420310854912,-0.041108276695013046,-0.035580482333898544,0.0019153592875227332,-0.005534674972295761,0.006169135216623545,0.018701128661632538,0.005196302197873592,0.018906187266111374,0.00805303081870079,0.011847777292132378,0.03385069593787193,-0.03591794893145561,-0.040031421929597855,-0.042512446641922,-0.005232566501945257,-0.006194105371832848,0.028346842154860497,0.04052002727985382,0.0557476282119751,-0.004050855524837971,-0.006587557028979063,-0.0772576779127121,-0.07670639455318451,0.029378967359662056,-0.01722550205886364,-0.03872162848711014,0.03448516130447388,0.003128903219476342,-0.0006172865396365523,0.015744997188448906,-0.03046192042529583,0.020058205351233482,0.029290821403265,0.029751742258667946,0.03301183134317398,0.038705382496118546,0.002717411145567894,0.026052383705973625,-0.02041136659681797,0.031279534101486206,-0.023162424564361572,-0.0027324464172124863,0.04048138111829758,-0.01022620964795351,0.00813648384064436,0.00625263899564743,0.02164234220981598,0.03032270073890686,0.012460373342037201,0.07011763751506805,0.06252433359622955,0.03512606769800186,0.07395077496767044,0.0891730934381485,0.024680370464920998,0.04462701827287674,0.012082170695066452,0.03346868231892586,-0.013929714448750019,0.021680008620023727,-0.020349759608507156,0.0012996572768315673,0.0006685297703370452,-0.021120233461260796,0.036017660051584244,-0.01803913712501526,0.03075573407113552,-0.011431842111051083,0.030144669115543365,0.04357945919036865,0.04954132065176964,0.014899471774697304,0.027546977624297142,0.07038910686969757,0.06245717778801918,0.12692120671272278,0.11925733834505081,0.02959035150706768,0.1445992887020111,0.10193739086389542,0.10596402734518051,0.06462876498699188,0.03492644056677818,0.0012975145364180207,0.062376827001571655,-0.015972711145877838,0.013924647122621536,-0.018410038203001022,0.00795415136963129,-0.0120319202542305,0.024854009971022606,0.028593681752681732,0.0031068786047399044,-0.019531546160578728,-0.012339353561401367,0.0003429280186537653,0.020732732489705086,0.007681162096560001,0.012927433475852013,0.018573209643363953,0.0004695849202107638,0.03324263170361519,-0.03185151144862175,-0.013757373206317425,0.021265611052513123,-0.016405008733272552,-0.0023286999203264713,0.00038771406980231404,0.01808079704642296,0.0070502134039998055,0.0344780758023262,0.007345474325120449,0.003271788591518998,-0.016025641933083534,-0.017054514959454536,0.03541663661599159,-0.0016364546027034521,-0.003113526850938797,0.017854927107691765,0.03777431324124336,-0.020803751423954964,-0.027446242049336433,0.018410852178931236,-0.026062874123454094,0.013133346103131771,-0.0017739483155310154,-0.018303660675883293,-0.030930373817682266,-0.03729439526796341,0.008997077122330666,0.015592501498758793,0.012341945432126522,-0.04056098684668541,-0.015041878446936607,-0.04146667942404747,-0.017767801880836487,-0.03204760700464249,-0.04557723551988602,-0.02592547796666622,0.008080393075942993,-0.01594635099172592,-0.03143754228949547,-0.044603005051612854,-0.011616854928433895,-0.013347853906452656,0.002006728667765856,-0.007602508645504713,-0.005846915766596794,0.00646456191316247,-0.04577091336250305,-0.004604954272508621,-0.011716418899595737,-0.019406484439969063,-0.030531639233231544,-0.0031716572120785713,-0.03893324360251427,0.014160207472741604,0.019363736733794212,0.005259407684206963,-0.004126871936023235,0.019532235339283943,