{"shape": [10, 128]}
0.04063895344734192,0.06627477705478668,-0.14338605105876923,0.08265481144189835,0.0531180240213871,0.06357454508543015,0.008563071489334106,0.062055639922618866,-0.18283236026763916,-0.0663837268948555,-0.06729170680046082,-0.0771234780550003,0.023598860949277878,-0.07311426103115082,-0.08069069683551788,0.13594160974025726,-0.10972221195697784,-0.1292390376329422,0.09997881948947906,0.05320436879992485,-0.06116098538041115,-0.01886621303856373,-0.02431219071149826,-0.15827752649784088,-0.17607198655605316,0.06172269955277443,0.0672440305352211,-0.11564631760120392,-0.014500889927148819,-0.032654184848070145,0.06014816462993622,0.0035862301010638475,0.010624602437019348,-0.0697309598326683,-0.08974888920783997,-0.19031526148319244,0.048277609050273895,-0.06102319434285164,0.08321439474821091,-0.09886600822210312,-0.08678898215293884,0.00024053908418864012,0.0051949890330433846,0.07347583025693893,-0.1763792335987091,0.11226336658000946,-0.08574698865413666,0.0908692479133606,-0.06714201718568802,-0.15024323761463165,-0.4026578962802887,-0.22888237237930298,0.10615985840559006,-0.04103695601224899,-0.16059018671512604,-0.14601857960224152,0.04854957014322281,-0.24659952521324158,0.11209531873464584,0.20610183477401733,0.10195642709732056,0.04527527093887329,0.009842894971370697,-0.23249562084674835,-0.010302338749170303,0.0742700845003128,0.04682638496160507,0.10101865977048874,-0.037923663854599,0.04046434536576271,0.06593483686447144,-0.001135295140556991,-0.07667577266693115,0.04793601483106613,-0.2788962721824646,-0.2518146336078644,0.08601269870996475,-0.12408150732517242,0.10457601398229599,0.1310153603553772,-0.11754055321216583,-0.10564613342285156,0.004647565074265003,0.05824272707104683,0.1257011592388153,-0.011655081994831562,-0.34974217414855957,-0.041789259761571884,0.08157223463058472,-0.024179838597774506,0.0603642500936985,0.07696430385112762,0.07067247480154037,-0.0497782938182354,-0.09541775286197662,-0.09485167264938354,-0.09606306999921799,-0.16261759400367737,-0.22581180930137634,-0.15620209276676178,0.04469171538949013,-0.35476619005203247,-0.01643604226410389,-0.04079284518957138,0.15837910771369934,-0.02565263770520687,-0.05316093936562538,-0.0777561366558075,0.1654287576675415,-0.11576364934444427,0.006245849654078484,-0.23020604252815247,0.08757366240024567,-0.1109154224395752,-0.08622469007968903,-0.010113289579749107,-0.14895810186862946,-0.16118358075618744,0.12348298728466034,0.05126474052667618,0.1029275581240654,0.016398029401898384,0.1350002884864807,0.013849548995494843,-0.23902785778045654,-0.07886697351932526,0.03249599039554596,0.060779403895139694,0.10814177989959717,-0.15842120349407196,0.07558948546648026,0.007182890549302101,-0.13358648121356964,-0.06154680624604225,0.23305943608283997,0.1098431721329689,0.10518234968185425,-0.05801752582192421,0.01914179138839245,-0.14649054408073425,-0.1840202659368515,-0.06934622675180435,-0.08273633569478989,0.21265429258346558,0.14785046875476837,0.027010655030608177,-0.11359526216983795,0.01567424274981022,0.0012383806752040982,0.04165080562233925,-0.03167536482214928,-0.12329285591840744,-0.19964493811130524,-0.0466800183057785,-0.08877480775117874,0.22049491107463837,0.021697312593460083,0.016671208664774895,-0.07903411239385605,-0.13711747527122498,-0.06926761567592621,0.08784086257219315,0.0685853585600853,-0.015297021716833115,-0.0831289142370224,0.011207847855985165,0.014508371241390705,-0.04217538610100746,0.0023354236036539078,0.12226327508687973,-0.04905117303133011,-0.18619781732559204,-0.05180777236819267,-0.2780628800392151,-0.03506690636277199,0.09979125112295151,0.12704876065254211,0.11630410701036453,0.08415631204843521,0.11761781573295593,-0.18964597582817078,-0.03342147916555405,0.10244840383529663,0.1382196694612503,0.01902492344379425,0.12564228475093842,-0.13442237675189972,-0.08821728080511093,-0.15557312965393066,0.013011041097342968,0.19367726147174835,0.2633037269115448,0.06247391179203987,-0.2097734808921814,-0.10384105890989304,0.03559916839003563,0.14012359082698822,0.030560046434402466,0.04788275063037872,0.018532244488596916,-0.052571311593055725,-0.23812298476696014,0.010225795209407806,0.05347511172294617,-0.09742603451013565,-0.027264641597867012,-0.02776714786887169,0.013288979418575764,0.07622089982032776,0.05817839503288269,-0.09532712399959564,0.027527447789907455,-0.1450161337852478,0.10159827768802643,0.05355066806077957,-0.08074638247489929,-0.19450488686561584,0.16485053300857544,-0.07929877191781998,-0.217071071267128,-0.24797335267066956,0.13658525049686432,0.020459923893213272,0.1611827164888382,-0.04130617529153824,-0.028327343985438347,0.0695284977555275,0.019368795678019524,-0.17092491686344147,0.05265897884964943,-0.19274842739105225,-0.061757128685712814,0.11387094110250473,0.13716337084770203,-0.01769143156707287,0.07912050187587738,-0.017891887575387955,-0.17753882706165314,0.1061328575015068,0.034006986767053604,0.046927329152822495,0.09188975393772125,-0.07529108971357346,0.13791720569133759,0.10422182083129883,-0.03648936748504639,0.08593980222940445,0.2506393492221832,-0.05507373809814453,-0.14807011187076569,0.09203993529081345,-0.10696028918027878,-0.13699586689472198,-0.005039141047745943,-0.12079697847366333,-0.17976970970630646,-0.10076011717319489,0.0776514858007431,-0.17109695076942444,0.17296576499938965,-0.05543538182973862,-0.23220209777355194,0.06221362203359604,0.14155437052249908,0.138836070895195,0.04075352102518082,0.12426184117794037,-0.08045586943626404,0.033798832446336746,-0.011189631186425686,0.09057039767503738,-0.18345017731189728,0.0009300322853960097,-0.06928957998752594,-0.07790573686361313,0.013470801524817944,0.040865708142519,0.042175326496362686,-0.038740597665309906,0.18975715339183807,-0.04112236574292183,0.14548121392726898,-0.06766367703676224,-0.08786960691213608,0.057072076946496964,-0.3295426070690155,-0.015349254943430424,-0.11519021540880203,0.04360006004571915,0.06832268834114075,0.015464979223906994,-0.08127317577600479,0.05436122789978981,0.05016666650772095,0.03966353461146355,0.1420365869998932,0.09198126941919327,0.19874854385852814,-0.04042448848485947,0.01931779459118843,0.02305412106215954,0.1263347566127777,0.22249169647693634,0.12963557243347168,0.15936750173568726,-0.0008745203376747668,-0.048994503915309906,-0.1083831712603569,-0.3807075619697571,-0.0256155114620924,0.07502225786447525,-0.0898493081331253,-0.016769347712397575,0.07966890186071396,0.1381784975528717,0.11235517263412476,0.08668120950460434,0.09985390305519104,0.15685361623764038,-0.21812596917152405,-0.04422677680850029,0.11206403374671936,0.017358602955937386,-0.0917041227221489,-0.12385140359401703,0.03061060979962349,-0.10592371225357056,0.09862952679395676,-0.062257204204797745,0.04294900596141815,0.055175356566905975,-0.12528887391090393,-0.07684502750635147,-0.04528599977493286,-0.03889521211385727,0.15062762796878815,0.17478208243846893,0.09715213626623154,-0.1872190535068512,-0.24946850538253784,0.09239321202039719,-0.22768534719944,0.028470691293478012,-0.006641947198659182,-0.013124767690896988,-0.17849528789520264,-0.06233937665820122,0.07318425178527832,-0.2773449420928955,-0.25245508551597595,-0.2502991259098053,0.08316081762313843,-0.2186308056116104,0.1421717405319214,0.1387058049440384,-0.05339726060628891,0.02465762384235859,-0.04909449815750122,0.0017448471626266837,-0.22964827716350555,0.12088381499052048,-0.12408331781625748,0.0169020127505064,0.09872494637966156,-0.1760229766368866,-0.0944170132279396,-0.08832091838121414,-0.0011237043654546142,0.1060122475028038,0.11571655422449112,0.08753428608179092,0.193948894739151,-0.16459126770496368,0.08494701236486435,0.06857313960790634,-0.2135435789823532,0.10180462896823883,0.02287042886018753,0.10767494887113571,0.04761955887079239,-0.07563694566488266,-0.011490501463413239,0.02356158383190632,0.09667396545410156,0.07600577920675278,-0.012300848960876465,0.06841133534908295,0.014219929464161396,-0.02898441255092621,0.12726405262947083,0.05224934220314026,-0.08652763068675995,-0.17830030620098114,-0.001234628725796938,0.11993372440338135,0.06684596091508865,-0.15754374861717224,0.05732084438204765,0.0991455614566803,-0.2638050317764282,0.2164047211408615,0.04774058610200882,-0.07299213856458664,-0.04914645850658417,-0.05492643639445305,0.08621127903461456,-0.000773288425989449,0.15193979442119598,0.0022005103528499603,0.0835699588060379,0.13420166075229645,0.023115916177630424,0.019642135128378868,0.0913514494895935,-0.19540785253047943,0.06159506365656853,-0.04038144648075104,0.0708196684718132,-0.15354399383068085,0.03385696932673454,-0.010720176622271538,-0.07281538844108582,-0.2968287169933319,-0.13767759501934052,0.04580605775117874,-0.07268418371677399,0.04374890774488449,-0.05137062817811966,0.13677869737148285,-0.05744405835866928,0.06545798480510712,0.06783425062894821,-0.11092042177915573,-0.1253686398267746,0.095997653901577,0.00668760109692812,0.05391760542988777,0.06919099390506744,-0.05923734977841377,0.06450245529413223,0.015148084610700607,0.01499822549521923,0.0007076022448018193,-0.020500529557466507,0.023021768778562546,-0.10804149508476257,-0.12714339792728424,0.007242581341415644,0.007826990447938442,0.14927905797958374,0.08389207720756531,0.10504227131605148,-0.3016124963760376,-0.2123294472694397,-0.09846420586109161,0.08035847544670105,0.06560910493135452,-0.08638142049312592,0.030684446915984154,-0.1457871049642563,0.051059823483228683,-0.09149372577667236,0.05715775862336159,-0.00047833059215918183,0.05044180154800415,-0.07996361702680588,-0.13569633662700653,0.10433562099933624,0.08816909790039062,-0.37749162316322327,0.02869030274450779,-0.06712865829467773,-0.05489211529493332,-0.17946013808250427,-0.044404301792383194,-0.09628891944885254,0.017380619421601295,0.0013947857078164816,0.0956394150853157,-0.17694434523582458,0.12663668394088745,-0.053909752517938614,0.08075784891843796,0.1495201289653778,0.0770200788974762,0.0948755294084549,-0.22581642866134644,0.15103529393672943,-0.06677307933568954,-0.030214887112379074,-0.01276414655148983,0.03232623264193535,0.015149067156016827,0.10316503047943115,1.8672981241252273e-05,-0.006540241185575724,0.17385047674179077,0.04055771604180336,0.13175420463085175,-0.2167220264673233,0.08053255826234818,0.08695703744888306,0.023974986746907234,0.157170370221138,-0.048580460250377655,-0.1569145917892456,0.049623604863882065,-0.1300758421421051,-0.010527489706873894,-0.016563046723604202,0.07264972478151321,-0.06814811378717422,-0.14640328288078308,0.09409750998020172,0.08840804547071457,0.013940073549747467,0.07536619156599045,-0.12917464971542358,0.21890991926193237,-0.14382681250572205,-0.03065493144094944,-0.08604080975055695,-0.4829130470752716,-0.07685483247041702,0.04548931494355202,0.060808829963207245,-0.42938220500946045,-0.04282762482762337,0.060375992208719254,0.035299915820360184,-0.22238698601722717,0.030293265357613564,0.03606659173965454,0.10272734612226486,-0.06578695774078369,-0.22472810745239258,0.10927820205688477,0.0718374028801918,-0.09292417764663696,0.1539037525653839,-0.14832083880901337,-0.0309305302798748,0.11821381002664566,-0.15682774782180786,0.06684897094964981,0.1415909081697464,0.03486514464020729,0.061014674603939056,0.0029688249342143536,0.06423524022102356,0.13196690380573273,-0.220237597823143,-0.06647124886512756,-0.07652651518583298,-0.06184643134474754,0.03595569729804993,0.1164838969707489,-0.002555344020947814,-0.15395434200763702,-0.031232185661792755,-0.21062853932380676,0.04775746166706085,0.001169092021882534,-0.040530428290367126,0.1670919805765152,-0.2743465006351471,-0.09833250194787979,-0.2736678123474121,-0.1517295390367508,-0.37009525299072266,-0.3528357744216919,-0.16569159924983978,0.0792006105184555,-0.10975681990385056,-0.15083450078964233,0.23369048535823822,-0.06532822549343109,-0.05358787626028061,-0.277404248714447,-0.1832348257303238,0.015696175396442413,0.06642749905586243,-0.3305782675743103,-0.025066165253520012,-0.01856573484838009,0.022481875494122505,0.0037852260284125805,0.1091146171092987,-0.0687195435166359,-0.024778157472610474,0.04110018163919449,-0.17039602994918823,0.1130433902144432,-0.09925063699483871,-0.0014511034823954105,-0.18616345524787903,-0.13013450801372528,0.09441017359495163,-0.14508579671382904,0.026379622519016266,0.06826721131801605,0.059592828154563904,-0.02339620515704155,0.03289061039686203,-0.2154245227575302,0.23506224155426025,0.040859419852495193,0.13094988465309143,-0.0022809042129665613,0.08754624426364899,-0.18846599757671356,0.09495604038238525,-0.2040695995092392,0.06256280094385147,0.08220329135656357,0.14477413892745972,-0.1449754685163498,0.11878886818885803,0.008373236283659935,-0.11528775095939636,0.10960967093706131,0.04420546069741249,0.024014880880713463,0.05376337096095085,-0.018416451290249825,0.10921874642372131,-0.35658174753189087,-0.03674406185746193,0.0752047672867775,0.13451789319515228,-0.12561514973640442,-0.21945463120937347,-0.10910212993621826,0.024340439587831497,-0.23996952176094055,0.10522832721471786,0.08616475760936737,0.01328274980187416,0.07977446913719177,0.08607405424118042,0.10204881429672241,0.07431298494338989,0.0717608854174614,-0.22981272637844086,-0.05236686393618584,0.16034993529319763,-0.28013965487480164,0.06794408708810806,0.11508851498365402,-0.23544654250144958,0.09316155314445496,0.012743525207042694,0.09453001618385315,-0.04976317286491394,0.20724855363368988,0.21369855105876923,-0.14747975766658783,-0.021194009110331535,0.11204309016466141,0.0037156282924115658,0.014429615810513496,-0.13904155790805817,0.04172266647219658,-0.1493285745382309,-0.014806991443037987,-0.08761048316955566,0.0014747498789802194,-0.5273481011390686,0.02987041510641575,0.14646196365356445,-0.0005119674024172127,0.0908239558339119,0.047809042036533356,-0.35811248421669006,0.08104897290468216,-0.0421593002974987,0.05966043472290039,-0.03888664394617081,-0.07642418891191483,0.07709655910730362,0.008360304869711399,-0.2088456153869629,-0.01531191635876894,-0.03871168568730354,-0.034256961196660995,-0.2533205449581146,-0.13866792619228363,-0.3245640993118286,-0.13878779113292694,-0.02677975222468376,0.02650761790573597,0.10834730416536331,-0.038516413420438766,0.007927271537482738,-0.017359917983412743,0.14990951120853424,-0.010539408773183823,0.2789924442768097,-0.020695781335234642,-0.2885441482067108,0.011748138815164566,-0.21583174169063568,-0.049319129437208176,-0.061183054000139236,-0.01959364488720894,-0.03323756903409958,0.0716729462146759,-0.053047798573970795,0.10432571917772293,-0.11637922376394272,0.07967417687177658,0.03596629574894905,-0.11431675404310226,-0.04701235517859459,0.04843272641301155,0.18812614679336548,0.03443074971437454,0.02565830573439598,0.0550844669342041,-0.00704510323703289,0.05810213461518288,-0.02296888269484043,0.054980456829071045,0.17465879023075104,0.07634106278419495,0.03204847499728203,0.19204169511795044,0.15757107734680176,-0.031113896518945694,-0.06767401844263077,0.08300060778856277,0.14582987129688263,0.17041295766830444,-0.20184922218322754,0.015784088522195816,-0.05607505515217781,0.12798543274402618,0.061283010989427567,0.04980054497718811,0.1441747397184372,-0.003332671243697405,0.0747743546962738,0.07317295670509338,0.1184423640370369,-0.15896382927894592,0.07795704156160355,0.03376712277531624,0.08413863927125931,-0.09479318559169769,-0.011278925463557243,-0.019765812903642654,-0.010152268223464489,-0.002496373374015093,-0.09727182239294052,-0.07470837980508804,-0.1942584216594696,0.12825462222099304,0.016287218779325485,0.0697271078824997,0.1588210165500641,-0.10526235401630402,-0.023085027933120728,-0.08566008508205414,0.055887721478939056,0.026084117591381073,0.037976957857608795,-0.01155130285769701,0.011555652134120464,-0.20890870690345764,0.03313283249735832,0.0014026847202330828,-0.3816354274749756,-0.0003725299029611051,0.01725778356194496,0.025055117905139923,-0.03016173467040062,0.15356813371181488,0.02396683394908905,-0.15363353490829468,0.04002648964524269,0.11338706314563751,0.11618746817111969,0.04256056994199753,0.0005319567280821502,0.10768616199493408,0.08598609268665314,-0.051594328135252,-0.021369125694036484,-0.042416781187057495,-0.312336802482605,-0.004629199858754873,-0.2059326022863388,-0.021135002374649048,0.1126134842634201,0.0802689641714096,0.14504075050354004,-0.027364540845155716,-0.07107868045568466,0.0789213627576828,0.030516836792230606,0.032837074249982834,-0.2973741590976715,0.06567595899105072,-0.14225280284881592,0.121065154671669,0.06040135771036148,-0.07606731355190277,0.24965141713619232,-0.15163439512252808,-0.005061252973973751,-0.02854648232460022,-0.11908712983131409,-0.2632176876068115,0.014944275841116905,0.029385007917881012,-0.34477606415748596,-0.035487763583660126,0.03354071453213692,-0.3373168408870697,-0.21694350242614746,0.020539995282888412,-0.16105373203754425,-0.024603039026260376,-0.032502181828022,0.039592523127794266,-0.13105052709579468,-0.07779186964035034,0.1004071831703186,-0.025963086634874344,0.16388742625713348,-0.07404737919569016,0.12101650983095169,0.015007980167865753,-0.12158525735139847,-0.06868965923786163,0.12127514183521271,0.19098295271396637,0.02979227341711521,0.10078553855419159,0.09363909065723419,-0.15616890788078308,-0.016113614663481712,-0.18370838463306427,-0.27829164266586304,0.017921902239322662,0.010806572623550892,-0.18199501931667328,-0.0033223440404981375,-0.06854905933141708,0.14689554274082184,0.05698588490486145,-0.019793713465332985,0.11659200489521027,0.08311785757541656,-0.08114723116159439,-0.12806634604930878,0.06291615962982178,0.12495248019695282,-0.059717416763305664,0.017391934990882874,0.19657333195209503,-0.13737250864505768,0.019439591094851494,-0.03530018404126167,0.029224073514342308,0.0729382187128067,-0.09954840689897537,-0.40718314051628113,0.07508819550275803,0.12157487869262695,0.13385087251663208,-0.10571321099996567,0.004204892553389072,0.09913203865289688,0.06989748030900955,-0.06505727767944336,0.12896865606307983,-0.17693419754505157,-0.03210240975022316,0.017514405772089958,0.0004766288329847157,-0.05156494304537773,-0.04013276472687721,-0.08608658611774445,-0.2593587338924408,-0.22072306275367737,0.0187715794891119,0.07398980110883713,0.08267167210578918,0.10964920371770859,-0.06147509068250656,-0.18272419273853302,-0.1765492558479309,0.0071271127089858055,0.027885841205716133,-0.0504646897315979,0.0424395427107811,0.10935055464506149,-0.070407934486866,0.11881580948829651,-0.0667916089296341,-0.19138769805431366,0.07561643421649933,0.1680527776479721,0.1601809859275818,-0.09898095577955246,0.07245725393295288,-0.0724969133734703,-0.12010243535041809,-3.134871076326817e-05,0.1678207367658615,0.0003209064598195255,-0.01704433001577854,-0.12589740753173828,0.031847432255744934,-0.24936161935329437,-0.011965781450271606,0.004955075681209564,0.010495551861822605,0.10425315052270889,-0.10413584858179092,-0.12219299376010895,0.1852542608976364,0.109505295753479,-0.1580667793750763,-0.09942378103733063,-0.08895671367645264,0.04453587532043457,-0.14816288650035858,-0.044255614280700684,-0.15523256361484528,0.0660589188337326,0.12946434319019318,0.01741284504532814,0.1310172975063324,0.12092538177967072,-0.1096697524189949,0.1770833134651184,0.0783361867070198,-0.041697610169649124,0.06513915210962296,-0.055879607796669006,0.11422163993120193,0.031364329159259796,-0.17812329530715942,0.0462149977684021,-0.22637492418289185,0.09526258707046509,-0.12975820899009705,0.1312209665775299,0.04094287008047104,-0.25169557332992554,-0.22330710291862488,-0.2036423683166504,-0.0014278999296948314,0.06721849739551544,-0.07243142277002335,0.06631285697221756,0.1132981926202774,-0.02380433678627014,0.07549142837524414,0.028121890500187874,-0.052071504294872284,-0.05639755353331566,0.0365116223692894,0.007709211204200983,0.07276294380426407,-0.08413205295801163,0.030248044058680534,0.0070492480881512165,0.08324485272169113,0.029320212081074715,-0.03176477178931236,-0.15645794570446014,0.07998209446668625,0.009617392905056477,-0.2052500694990158,-0.1269332617521286,-0.1282356232404709,0.12783244252204895,-0.15411153435707092,0.09051251411437988,0.06901609152555466,0.11254517734050751,0.0043221632950007915,0.12450531125068665,-0.05248238891363144,-0.2332768738269806,0.004455214831978083,0.1621609777212143,-0.15149305760860443,-0.011432093568146229,0.05233726650476456,-0.12150579690933228,0.3240664601325989,-0.011854374781250954,-0.15395426750183105,0.12262504547834396,-0.0039286366663873196,-0.1322043389081955,-0.04313015937805176,0.0680353194475174,-0.182508185505867,-0.191069096326828,0.02944217622280121,0.057898759841918945,0.10025684535503387,-0.04812367632985115,-0.025037134066224098,-0.06884324550628662,0.07526189833879471,0.03261421620845795,0.05883341655135155,0.005021682474762201,0.10868978500366211,-0.11255340278148651,-0.1846931427717209,0.07495507597923279,-0.021606888622045517,0.13472004234790802,0.04334203153848648,-0.013260632753372192,-0.025922805070877075,0.07467879354953766,-0.2045149952173233,0.05146254971623421,0.07812672108411789,-0.09521016478538513,0.0843348428606987,-0.13061845302581787,-0.09794826805591583,-0.3108008801937103,0.05212327465415001,0.053208641707897186,0.0811946764588356,0.04978639632463455,-0.016089601442217827,0.0587637796998024,-0.002985547762364149,-0.1952665150165558,-0.26114389300346375,0.11394263803958893,0.06253041326999664,-0.013860090635716915,0.00992545671761036,0.1119355633854866,0.06566260010004044,-0.037764351814985275,0.13118797540664673,-0.29187819361686707,-0.17624887824058533,-0.21012473106384277,0.06832978129386902,0.011985277757048607,0.08551067113876343,-0.008377192541956902,0.10152432322502136,-0.03853734955191612,0.05596408620476723,0.0038495648186653852,-0.2815490961074829,0.07528124004602432,-0.258031964302063,-0.018802519887685776,0.05190001800656319,-0.25833946466445923,-0.03481369465589523,0.09310302138328552,0.025790469720959663,-0.08160307258367538,0.23137055337429047,-0.023437799885869026,0.07748090475797653,0.08390428125858307,0.0339365229010582,-0.035425618290901184,-0.10358842462301254,0.04186110943555832,0.08969061821699142,-0.17245696485042572,0.0650777593255043,-0.10222429037094116,-0.006083852611482143,-0.024698805063962936,0.08320055902004242,0.11316287517547607,-0.20010818541049957,-0.003965799231082201,-0.024162808433175087,-0.05521029233932495,0.07173503190279007,0.08126778155565262,-0.010974974371492863,-0.308490514755249,0.016481412574648857,0.034560222178697586,0.0848650112748146,-0.011774341575801373,0.017268646508455276,0.06160059571266174,0.054742805659770966,0.06446047872304916,0.052505411207675934,-0.21650055050849915,-0.2386314570903778,0.029206397011876106,0.09768691658973694,-0.14168839156627655,-0.02510799653828144,0.03841524198651314,0.040305864065885544,0.05172023922204971,0.06372205913066864,-0.06910200417041779,0.04623408615589142,-0.0032681662123650312,-0.12505961954593658,0.007505178917199373,-0.10526155680418015,0.061120882630348206,0.0987033024430275,-0.11851666122674942,-0.3671976923942566,-0.18306846916675568,-0.05373576283454895,0.06219363212585449,0.12527327239513397,-0.03256107121706009,0.013060173951089382,-0.14332890510559082,0.0969420000910759,-0.13718362152576447,-0.024386126548051834,0.0772109404206276,-0.22280804812908173,0.03741470351815224,-0.25970566272735596,-0.010697715915739536,0.014132916927337646,0.21660186350345612,-0.12974464893341064,-0.14546114206314087,-0.28394293785095215,-0.2566486895084381,-0.018492644652724266,0.02480241097509861,0.09040289372205734,-0.05917825922369957,0.023748191073536873,-0.057797517627477646,0.06354131549596786,-0.13615399599075317,0.08043170720338821,-0.14238916337490082,-0.036798521876335144,0.05668151378631592,0.03112896904349327,0.05319908633828163,-0.18544729053974152,-0.27117106318473816,-0.16460156440734863,0.06015428900718689,0.1108856201171875,0.06730545312166214,0.08005858957767487,0.008514689281582832,-0.11827900260686874,0.10296844691038132,-0.07489638775587082,-0.0036188189405947924,0.08795736730098724,-0.11735837906599045,-0.049453314393758774,0.07172935456037521,-0.03444869816303253,0.06888268142938614,0.029709091410040855,0.10641027241945267,-0.19228368997573853,-0.17671464383602142,0.028660830110311508,0.14173077046871185,-0.13043133914470673,0.0377320796251297,-0.07461824268102646,0.11524484306573868,-0.01915098913013935,0.11551102250814438,-0.07069772481918335,0.023639125749468803,0.11661701649427414,-0.2187337875366211,-0.06564973294734955,-0.23655277490615845,0.043433282524347305,0.07766281068325043,0.07359793782234192,0.16777244210243225,-0.2731356918811798,-0.06131139397621155,0.12398675829172134,-0.12508520483970642,0.21780434250831604,0.01870713382959366,0.10821222513914108,-0.05269651487469673,-0.3154311776161194,-0.08077383786439896,0.03443916141986847,0.029621338471770287,-0.09243156760931015,0.1742478460073471,-0.13275717198848724,-0.08403738588094711,0.03851355239748955,-0.2281649112701416,-0.0617213137447834,-0.02128508873283863,-0.13097529113292694,0.039100777357816696,-0.11057606339454651,0.04825519025325775,-0.11704999953508377,-0.2770211696624756,0.08059744536876678,0.037996117025613785,-0.05286566913127899,0.01404308620840311,0.0469970740377903,0.015151959843933582,0.038224902004003525,-0.3818323612213135,0.07990904897451401,-0.2603592872619629,0.057405658066272736,0.040071435272693634,-0.2262190282344818,0.11738809943199158,-0.11821234971284866,0.11126986145973206,0.04106181859970093,0.06555043905973434,-0.0197776909917593,-0.1491263210773468,-0.07910699397325516,0.05215061828494072,0.13989754021167755,-0.08578232675790787,-0.011169003322720528,-0.07140624523162842,-0.5493204593658447,0.04054589942097664,-0.08475436270236969,-0.10390046238899231,-0.1341319978237152,0.1765095442533493,-0.3410024046897888,-0.06885883212089539,-0.028979530557990074,0.02542032301425934,0.047732021659612656,0.10142028331756592,0.12227266281843185,-0.01498884242027998,-0.10547951608896255,-0.34332573413848877,0.08743107318878174,-0.3718879818916321,0.06250417977571487,0.0954127311706543,-0.03400704264640808,-0.04528271034359932,0.07725390046834946,0.11634684354066849,0.04622340574860573,-0.011745734140276909,0.01518465019762516,-0.03044595941901207,-0.004447095096111298,0.04543277248740196