{"shape": [10, 128]}
-0.04431888461112976,0.031499288976192474,0.09364306181669235,0.027970029041171074,0.0955173522233963,0.09081163257360458,-0.007061201147735119,-0.14186549186706543,-0.23400166630744934,0.010403502732515335,-0.1401047706604004,-0.09583733975887299,0.10056212544441223,-0.04056398943066597,-0.17851732671260834,-0.14021006226539612,0.08407121151685715,-0.04012073203921318,-0.00015477376291528344,-0.06186552718281746,-0.05454413592815399,0.09526284039020538,-0.1496550291776657,0.12223100662231445,-0.08155464380979538,0.047907933592796326,0.015241850167512894,-0.2643318474292755,0.028179306536912918,-0.1769808828830719,0.1496802419424057,0.015140974894165993,-0.020959725603461266,-0.029313351958990097,-0.020019106566905975,0.03612840175628662,-0.25581035017967224,-0.18194876611232758,0.026947293430566788,0.1050945371389389,0.058974675834178925,-0.14130817353725433,0.05051339790225029,-0.15823078155517578,-0.05591653287410736,0.09084199368953705,-0.1188230961561203,-0.0948721170425415,-0.02502388134598732,0.05043202266097069,-0.19389252364635468,-0.11239609867334366,0.06422735005617142,0.08223940432071686,0.017963910475373268,0.07810362428426743,0.15169627964496613,0.029954709112644196,-0.04175335541367531,0.07432829588651657,0.023023314774036407,-0.056765198707580566,-0.24063192307949066,0.06626451015472412,-0.19010505080223083,0.0071127889677882195,-0.1707136482000351,-0.17404739558696747,-0.12144052982330322,-0.16813887655735016,-0.3639669120311737,-0.054750990122556686,-0.17378850281238556,-0.0929538682103157,-0.0743645504117012,0.12460950016975403,-0.27757930755615234,0.10734874755144119,0.14098063111305237,0.04598681256175041,0.0736805647611618,-0.050238486379384995,0.17127835750579834,0.007271519396454096,0.10495411604642868,0.014644758775830269,0.12248668074607849,-0.2891920208930969,-0.18031109869480133,0.1439746767282486,-0.2417147159576416,0.02872372418642044,0.13290859758853912,-0.1675325185060501,-0.02319827489554882,0.09378251433372498,-0.12110117077827454,-0.12678709626197815,-0.07229682058095932,-0.0019277548417448997,-0.010347986593842506,0.00022626732243224978,-0.062431029975414276,-0.052307210862636566,-0.08336298167705536,0.07190292328596115,0.049110233783721924,0.14290030300617218,-0.26941192150115967,-0.24481092393398285,-0.07431337237358093,-0.05148588865995407,0.1578742265701294,0.0929376557469368,-0.07845071703195572,0.1079288125038147,0.026021620258688927,0.0427580252289772,-0.07215650379657745,-0.03337514400482178,0.13957642018795013,0.1186879575252533,0.018298035487532616,-0.08058112114667892,-0.07322733104228973,-0.0006414755480363965,0.08761291205883026,0.08269251883029938,0.05112261325120926,-0.19193130731582642,0.12137805670499802,0.019182467833161354,-0.18929827213287354,-0.07110389322042465,0.11484048515558243,-0.10547788441181183,-0.05719723179936409,0.19646750390529633,0.0853675901889801,0.07431307435035706,-0.07536651194095612,0.07919305562973022,-0.04144543781876564,-0.006407640408724546,-0.04953532665967941,0.15217752754688263,-0.012730895541608334,0.10420417785644531,0.2563793361186981,-0.24027401208877563,0.023929305374622345,-0.05008751153945923,0.04852098226547241,0.09867701679468155,0.15506885945796967,-0.01825491338968277,-0.06614360213279724,-0.07662983238697052,-0.16767403483390808,0.03537597507238388,-0.07177193462848663,0.29375317692756653,0.006255332380533218,-0.18921756744384766,-0.258683443069458,0.1284305304288864,-0.08432560414075851,-0.08666855841875076,0.07281997799873352,0.07073643058538437,0.06840474158525467,-0.08360107988119125,0.04303357005119324,-0.21951426565647125,0.0846729576587677,0.027999354526400566,0.1065734401345253,0.06734362244606018,0.05014079064130783,0.08615497499704361,-0.12460949271917343,-0.15180902183055878,0.0773373618721962,0.15228010714054108,0.17204256355762482,0.10689283907413483,-0.04910631105303764,0.10208149999380112,0.05009058117866516,0.08863364905118942,-0.18158215284347534,0.016201598569750786,0.05455322191119194,-0.12538941204547882,0.01725347526371479,0.09054376184940338,-0.116428904235363,0.08130734413862228,0.12389693409204483,0.0644540786743164,0.007761423476040363,-0.031657688319683075,0.014932645484805107,-0.1434430480003357,-0.05039800703525543,-0.26719653606414795,0.07175780832767487,0.11927961558103561,-0.2115260809659958,-0.03408297896385193,0.04293312877416611,-0.3485887348651886,-0.08391949534416199,0.13232144713401794,-0.21854710578918457,-0.2178470343351364,0.041114043444395065,-0.29916349053382874,0.06566018611192703,0.0878579393029213,0.02340337261557579,-0.2132357656955719,-0.14101962745189667,-0.1271882802248001,-0.02436935342848301,-0.37851929664611816,-0.031008195132017136,-0.18726558983325958,-0.10912222415208817,-0.14668574929237366,0.1040099635720253,0.08330212533473969,-0.0010485714301466942,0.09853969514369965,-0.11995499581098557,0.19871774315834045,0.040850698947906494,0.017532499507069588,0.1229584589600563,-0.03914368897676468,0.11493968963623047,-0.18461112678050995,-0.06286034733057022,-0.029978351667523384,0.0017672544345259666,-0.23234595358371735,0.012160914950072765,-0.04342221841216087,-0.03256119787693024,-0.09724835306406021,-0.030557142570614815,-0.09079289436340332,-0.1328652799129486,-0.17532025277614594,0.25882381200790405,0.10644135624170303,-0.03701261430978775,0.017107242718338966,0.1730341911315918,0.04008275642991066,-0.06305205076932907,-0.24376042187213898,0.1380615085363388,-0.1191992536187172,0.06731443852186203,0.033157285302877426,-0.027041014283895493,0.0420672781765461,-0.02178078703582287,-0.11772830784320831,0.0720294639468193,0.03871850296854973,-0.19546611607074738,-0.21343398094177246,0.03156813234090805,0.14983566105365753,0.16590149700641632,0.030151627957820892,0.0904836505651474,-0.0869859904050827,-0.25892016291618347,-0.10942219197750092,-0.06596706062555313,0.27192309498786926,-0.03529293090105057,-0.1493566632270813,0.047840967774391174,-0.41830170154571533,0.010319705121219158,-0.17137469351291656,0.20088446140289307,0.09141159802675247,0.1711251586675644,-0.037292275577783585,0.07845857739448547,-0.1148567870259285,0.13021785020828247,0.027539541944861412,0.0035385468509048223,0.03942035138607025,0.0345904640853405,0.11835803836584091,0.08169320970773697,0.057755615562200546,-0.045807380229234695,0.14747583866119385,-0.02640252746641636,0.08950182795524597,-0.21664969623088837,-0.05340937152504921,-0.2838309407234192,-0.16919049620628357,0.014206220395863056,-0.1030217856168747,-0.022344395518302917,0.08825471997261047,0.08560623228549957,-0.17965060472488403,-0.1978525072336197,0.05945952609181404,0.1514759063720703,-0.11433989554643631,0.13577228784561157,-0.22068606317043304,0.06952393800020218,-0.10396242141723633,0.05937420576810837,0.052006907761096954,0.01590644009411335,0.04962177947163582,0.04299851506948471,-0.3056020140647888,-0.16005846858024597,0.02945106290280819,0.11604048311710358,0.07965906709432602,0.11446595191955566,0.09561026096343994,0.029963992536067963,-0.16131214797496796,0.040725983679294586,-0.024137375876307487,0.1962510645389557,0.08886156231164932,0.06986939162015915,0.07932285219430923,-0.07482311129570007,0.02466481737792492,0.08759864419698715,-0.11705055087804794,-0.1286076158285141,0.00033478805562481284,-0.06418395787477493,0.225508451461792,0.18571141362190247,0.09211032837629318,0.11104230582714081,0.0009220162755809724,-0.05098811909556389,0.014964014291763306,0.09971903264522552,0.141719788312912,0.05488967522978783,-0.060033198446035385,-0.0029838935006409883,-0.0638088658452034,-0.07340403646230698,0.12438075989484787,0.07802873849868774,-0.09864787757396698,-0.3798925280570984,0.021429819986224174,0.1144266352057457,-0.0014586008619517088,0.0827106311917305,0.05195458605885506,0.06053083762526512,0.06438961625099182,-0.11126667261123657,0.044626664370298386,-0.10905072093009949,0.15194782614707947,-0.035370294004678726,0.08563219010829926,0.003241304773837328,0.08151096105575562,-0.09281668812036514,0.04399371147155762,0.03851431608200073,0.2762976586818695,0.031195616349577904,0.009211617521941662,0.03683449700474739,-0.3489087224006653,0.00895671360194683,-0.09480635821819305,-0.12538327276706696,0.04102759808301926,0.06201237812638283,0.19699710607528687,0.05049508437514305,0.16141268610954285,0.009846167638897896,-0.11652764678001404,0.03807291388511658,0.13743890821933746,-0.15577340126037598,0.00912411417812109,-0.08363961428403854,0.0844327062368393,-0.28505954146385193,0.11510355025529861,0.0858258381485939,0.03454197570681572,0.1456983983516693,-0.016926534473896027,0.13878679275512695,-0.031061269342899323,-0.13260778784751892,0.05550139769911766,-0.026668166741728783,-0.013986388221383095,0.017537832260131836,-0.01678813248872757,-0.012068072333931923,0.08358044177293777,-0.029242487624287605,-0.044283922761678696,-0.03270750865340233,0.06901919096708298,0.04114961624145508,-0.001108698546886444,-0.08331144601106644,0.11506487429141998,0.03941242769360542,0.10603057593107224,-0.1611577868461609,-0.10173856467008591,0.09929335862398148,-0.011287003755569458,-0.1619628369808197,-0.13121655583381653,-0.1887132227420807,0.09854400902986526,-0.19505049288272858,0.17048954963684082,0.11774849891662598,-0.17369256913661957,-0.21610189974308014,0.03275613859295845,-0.16997377574443817,-0.15590783953666687,0.08214817196130753,-0.19794024527072906,0.0903778001666069,-0.02856268547475338,0.08984185010194778,0.04136732220649719,0.049614470452070236,-0.15759196877479553,0.06060321629047394,-0.08120472729206085,-0.192392960190773,0.06579343974590302,0.04363637417554855,0.2839546799659729,-0.10937073081731796,-0.03593210503458977,-0.14072076976299286,0.04696953669190407,-0.11493809521198273,-0.030002838000655174,0.05795620381832123,-0.1891583651304245,-0.02251429297029972,0.04362194240093231,-0.0037875452544540167,-0.12384291738271713,0.15939845144748688,0.010325957089662552,0.1488267332315445,-0.08653497695922852,0.1749419867992401,0.014557276852428913,-0.023021936416625977,-0.16178292036056519,0.10788272321224213,0.07076197117567062,0.05371453985571861,0.07332813739776611,0.07513453811407089,0.020823100581765175,0.22533176839351654,0.002127846237272024,-0.06562484800815582,-0.045984022319316864,0.08094240725040436,-0.07351736724376678,0.12193206697702408,-0.2199857532978058,-0.006585870869457722,-0.06709019094705582,0.06857530772686005,-0.2151016891002655,0.09359805285930634,-0.06775841861963272,0.0361202135682106,-0.02668597549200058,0.05083294212818146,0.16126705706119537,-0.13646557927131653,-0.055669888854026794,0.020454877987504005,-0.021062234416604042,0.09706731140613556,0.0701807290315628,-0.1500636786222458,-0.013750097714364529,-0.06466709077358246,0.07603270560503006,-0.053789813071489334,0.11292438954114914,-0.003555677132681012,-0.015650581568479538,-0.26177939772605896,-0.19956576824188232,0.09417003393173218,-0.12499183416366577,0.053399138152599335,-0.02511875331401825,-0.014915629290044308,0.11650211364030838,0.1225091889500618,-0.1541421264410019,-0.1609203815460205,-0.06154709309339523,-0.10697504132986069,-0.16994060575962067,0.12715597450733185,0.005882120691239834,-0.13483759760856628,0.061809927225112915,-0.3880841135978699,-0.15842871367931366,-0.1788979321718216,0.08426365256309509,-0.09069027006626129,-0.45480504631996155,0.13184277713298798,0.07547830045223236,0.09008738398551941,0.025455791503190994,-0.13467004895210266,0.15897074341773987,-0.04680366441607475,0.006207781378179789,-0.06773167848587036,-0.307704895734787,0.1251191645860672,-0.06918437778949738,0.06635452806949615,-0.00017508972086943686,0.04150395467877388,-0.02880067378282547,0.12222238630056381,0.0987718477845192,0.15071538090705872,-0.009999904781579971,0.02347075752913952,0.06339456886053085,0.08719667047262192,-0.24995024502277374,0.18714506924152374,-0.012244022451341152,0.16959157586097717,-0.12777693569660187,0.052680324763059616,0.02977890335023403,0.10164474695920944,0.07416673749685287,-0.310476690530777,0.1257641613483429,-0.03769056499004364,0.047157175838947296,0.07105863094329834,0.04400791600346565,0.04522092640399933,0.029059220105409622,0.09812543541193008,0.05846599116921425,0.16897805035114288,-0.04551180079579353,0.17276661098003387,0.04833273962140083,-0.16550996899604797,-0.026809386909008026,-0.16936349868774414,0.05035234987735748,-0.029165834188461304,0.05668768286705017,-0.11557543277740479,0.0868050828576088,0.012904043309390545,0.02583167888224125,-0.30740103125572205,0.10931696742773056,0.0020160451531410217,-0.17453834414482117,-0.3194412291049957,-0.1685737818479538,-0.6074640154838562,-0.04827415198087692,-0.0027229469269514084,-0.21430012583732605,-0.033521704375743866,-0.01532361563295126,-0.010385851375758648,-0.12754139304161072,0.07408428192138672,-0.05205409973859787,0.10816369205713272,0.06903570890426636,-0.028085384517908096,0.10251036286354065,-0.3062109649181366,0.07935183495283127,0.0913456529378891,0.14814981818199158,-0.41524818539619446,-0.09311150759458542,0.0008904102141968906,0.020544307306408882,-0.027607178315520287,-0.07588423788547516,-0.09982563555240631,-0.07877496629953384,-0.055016763508319855,0.050579734146595,0.12152322381734848,0.06273789703845978,-0.025030264630913734,0.067123182117939,0.030484404414892197,-0.03356272354722023,0.10435314476490021,-0.1015348732471466,0.016122283414006233,0.12104514986276627,-0.2592321038246155,-0.2357463538646698,0.06849401444196701,0.0035903439857065678,0.04873723164200783,0.19782811403274536,-0.0038829746190458536,-0.3118588924407959,0.009408445097506046,0.13703198730945587,0.043185945600271225,0.09833649545907974,0.10355881601572037,0.0810481607913971,0.050101444125175476,-0.06833944469690323,0.14358751475811005,-0.040211934596300125,-0.14174136519432068,0.16616390645503998,0.027606571093201637,-0.07866532355546951,0.08190733194351196,0.1641385853290558,0.14057184755802155,-0.08034586906433105,-0.15263289213180542,0.2623382806777954,-0.08757903426885605,0.05894370749592781,-0.007943883538246155,-0.028672682121396065,-0.10092265158891678,-0.3202657103538513,-0.07963994145393372,0.1610746681690216,0.04091190546751022,0.08150403946638107,0.03129851445555687,0.036567915230989456,-0.06687052547931671,0.011759884655475616,-0.2541409730911255,0.1724909096956253,-0.05241572484374046,-0.0018006606260314584,-0.10069597512483597,-0.2467748522758484,-0.21211467683315277,0.1252889484167099,0.013164276257157326,-0.07220477610826492,0.12070727348327637,0.056497972458601,0.08671637624502182,0.026277579367160797,-0.001616732683032751,0.06683675944805145,0.011946205981075764,0.13401350378990173,0.10465768724679947,-0.023203803226351738,0.1113942489027977,-0.04656330868601799,0.09704919904470444,-0.09609939903020859,-0.027395281940698624,0.1154773011803627,-0.009540601633489132,0.010642311535775661,-0.3136214017868042,-0.10055343061685562,-0.12253423035144806,-0.3555906116962433,-0.29692479968070984,0.04951193183660507,0.04878148436546326,-0.32121554017066956,-0.00682244636118412,0.07786216586828232,0.012158973142504692,0.1233978196978569,-0.04834377393126488,0.016788490116596222,0.09273714572191238,0.19062471389770508,0.005018029827624559,0.05009136348962784,0.1892072856426239,0.05394895002245903,-0.1360493153333664,0.15679198503494263,-0.1847781389951706,0.10435908287763596,0.07045567780733109,-0.05475577712059021,-0.07447346299886703,-0.17278102040290833,0.032765716314315796,0.1503651738166809,0.14663833379745483,-0.08068370819091797,0.05856921896338463,-0.03951317444443703,0.051120538264513016,0.07171779125928879,0.12139689922332764,-0.15372422337532043,0.0017118235118687153,-0.12010066211223602,-0.1994311511516571,-0.1753137856721878,-0.20710232853889465,0.00040267506847158074,-0.06830482184886932,0.013504466973245144,0.11401651054620743,-0.07551433145999908,0.009984442964196205,-0.09950114041566849,-0.015328182838857174,-0.25628185272216797,-0.1902610957622528,-0.05959697812795639,-0.10574554651975632,0.05165359750390053,0.11695926636457443,0.01652028039097786,0.04788168892264366,-0.07085691392421722,0.06877650320529938,0.06755769997835159,0.023538924753665924,0.2661193609237671,-0.16987256705760956,0.22677092254161835,0.016027942299842834,-0.20093446969985962,0.07811577618122101,0.026623329147696495,-0.16404512524604797,-0.1422947198152542,0.09938324242830276,0.06228034943342209,0.16314585506916046,-0.11599753797054291,0.04590696841478348,-0.20207111537456512,-0.19895827770233154,0.05547649413347244,0.05689059570431709,0.08503223210573196,0.003832839895039797,0.037882909178733826,-0.06921233981847763,-0.3391832709312439,-0.2112778127193451,-0.05803071707487106,0.05016987398266792,0.06358257681131363,0.053764183074235916,-0.2425452619791031,0.06274182349443436,-0.028787530958652496,0.1059664785861969,-0.053464338183403015,0.1045168936252594,-0.03827856853604317,-0.20488068461418152,0.10452590137720108,-0.07006214559078217,-0.03399762883782387,-0.01712317019701004,-0.0679563507437706,-0.03221391141414642,0.2054891586303711,-0.1299365758895874,-0.2103525698184967,0.10829906910657883,-0.03224169835448265,-0.012574182823300362,0.05540727078914642,-0.20037885010242462,0.10557198524475098,-0.09479355812072754,-0.030551768839359283,-0.0481635220348835,0.13593915104866028,-0.1057114452123642,0.04770827665925026,-0.40145960450172424,-0.0527452789247036,-0.2601805329322815,-0.11439087241888046,0.01642640493810177,0.12626205384731293,0.004989157430827618,0.11330656707286835,-0.22384870052337646,-0.07643598318099976,-0.03029545210301876,-0.19815963506698608,0.07305362820625305,0.10481788218021393,0.1449226289987564,0.0813368409872055,0.10654531419277191,0.0383288636803627,-0.11652331799268723,0.14341549575328827,-0.09712240099906921,-0.0025305780582129955,0.02571006864309311,-0.12530764937400818,-0.3103809952735901,0.033273737877607346,0.0962912067770958,0.18254132568836212,-0.18194669485092163,-0.24886351823806763,-0.1814958155155182,0.03540099412202835,-0.17162883281707764,0.023229407146573067,0.07446740567684174,0.032457128167152405,0.06594202667474747,-0.11531053483486176,-0.25858035683631897,0.04567619413137436,-0.014590146951377392,0.12082173675298691,-0.09331273287534714,0.028578678146004677,0.032433319836854935,0.06033172085881233,-0.13348624110221863,0.01333766058087349,-0.12825548648834229,-0.021997537463903427,-0.20596617460250854,0.06386514008045197,-0.022866874933242798,-0.0194565299898386,-0.08919113874435425,0.10999923944473267,0.09513107687234879,0.09251385927200317,0.052828289568424225,0.0843772292137146,0.03313278406858444,-0.18074652552604675,-0.03423267602920532,0.08778279274702072,0.058809466660022736,-0.13084664940834045,0.023186128586530685,0.0963708907365799,0.05614370480179787,-0.1869404911994934,-0.18220604956150055,0.1581181138753891,0.11338043212890625,0.06367769092321396,0.12862789630889893,-0.11027467250823975,-0.26163193583488464,-0.040428102016448975,-0.26692384481430054,-0.03844292834401131,0.14428070187568665,-0.10269317030906677,-0.09926518052816391,0.003085823729634285,0.07993043214082718,0.2067231982946396,0.07640331238508224,-0.0912255346775055,-0.10948662459850311,-0.07772916555404663,-0.21310670673847198,0.1876240223646164,0.12094707041978836,0.18273697793483734,-0.021135233342647552,0.08119823038578033,0.18056093156337738,0.02023751102387905,-0.057112403213977814,0.09577403217554092,-0.004432060290127993,-0.12602661550045013,-0.009283700957894325,0.012247594073414803,0.007574188522994518,-0.14750255644321442,0.11552003771066666,-0.01888134516775608,-0.12541262805461884,-0.012123926542699337,-0.02166856825351715,-0.0705002099275589,0.11765936762094498,-0.09321821480989456,0.12188874185085297,0.07200644165277481,0.10575773566961288,-0.0998561903834343,0.01081806793808937,0.15781639516353607,-0.21901439130306244,-0.07849691808223724,0.010810451582074165,-0.06973303854465485,0.05570067837834358,-0.034151166677474976,0.11115485429763794,-0.11572583764791489,-0.09978951513767242,0.08387431502342224,0.1084313616156578,0.08574925363063812,0.007502684835344553,-0.04149991646409035,-0.04223128408193588,0.04926826432347298,0.06818151473999023,-0.07491935044527054,-0.05792319029569626,-0.053811971098184586,0.017171021550893784,-0.041191473603248596,0.08802242577075958,0.12383540719747543,-0.013891959562897682,-0.13645756244659424,0.0849866196513176,-0.11417168378829956,0.07273745536804199,-0.11276061832904816,-0.2158506214618683,0.004078719764947891,0.04204719886183739,-0.13928945362567902,-0.1523047834634781,0.08845265954732895,0.17892146110534668,0.13045507669448853,0.05365193262696266,0.10399980843067169,0.05424385145306587,0.012785187922418118,-0.07932491600513458,0.128310889005661,-0.07288862764835358,0.1677142232656479,0.06074880063533783,-0.059961333870887756,-0.04002144932746887,-0.2611866891384125,-0.04362836852669716,-0.10345009714365005,-0.1327136605978012,0.15549039840698242,0.033724673092365265,-0.18506817519664764,0.21809132397174835,0.11936292052268982,-0.029752008616924286,0.04454895108938217,0.12251339852809906,-0.017469802871346474,0.02956370636820793,0.09616070240736008,0.14347022771835327,-0.13888689875602722,0.016514450311660767,-0.015501820482313633,-0.30045565962791443,0.07261862605810165,-0.08167435228824615,-0.2123444527387619,-0.006848225835710764,0.10399070382118225,0.0720520168542862,-0.1324326992034912,0.1047259196639061,0.08099941909313202,0.12423861026763916,-0.16025076806545258,0.11563555151224136,-0.044548723846673965,0.015003667213022709,-0.2103196531534195,0.02764451690018177,-0.2726815938949585,-0.39801156520843506,-0.11337999999523163,-0.059476133435964584,0.08840427547693253,-0.03861751779913902,-0.008699717000126839,0.042180757969617844,-0.1060459092259407,0.06251295655965805,0.06854647397994995,0.04497114568948746,-0.018702339380979538,0.015111926943063736,-0.25413623452186584,0.01701178029179573,-0.10738526284694672,-0.2922974228858948,-0.0424385666847229,-0.1030815839767456,0.0798596516251564,0.05644071474671364,-0.03208407759666443,-0.0024432193022221327,-0.15338896214962006,0.07551837712526321,0.0761575922369957,-0.16067750751972198,0.09489680081605911,0.05616314709186554,-0.13712280988693237,0.05122368037700653,-0.08777007460594177,-0.09383866935968399,0.0933181419968605,-0.24508130550384521,-0.1626945286989212,0.03223246708512306,0.053422365337610245,0.0744667574763298,-0.0023134455550462008,0.07620563358068466,-0.09705515950918198,0.08208732306957245,-0.029858047142624855,0.037507228553295135,0.0940491110086441,0.06385821104049683,0.10643719881772995,-0.10999097675085068,0.11425787210464478,-0.0009627422550693154,0.009604256600141525,-0.04651240259408951,0.05978069454431534,-0.0026022647507488728,-0.14712576568126678,0.05823642015457153,0.06382045894861221,0.023501334711909294,-0.022960228845477104,-0.17337875068187714,0.020518090575933456,0.11785493046045303,0.10054492950439453,-0.0024123722687363625,0.0018543482292443514,-0.04565683379769325,0.13330532610416412,0.04622216150164604,0.12418857216835022,0.05285705626010895,0.09859468042850494,-0.021914318203926086,0.14787927269935608,-0.22145414352416992,0.051637280732393265,-0.04762963578104973,-0.1773877888917923,-0.09762538969516754,-0.03287089243531227,-0.17421655356884003,0.09721998125314713,0.0889681950211525,0.06517982482910156,-0.0830799862742424,-0.12283975630998611,0.0833481103181839,-0.13147948682308197,-0.3642359673976898,0.09360325336456299,-0.036434486508369446,-0.05841599777340889,-0.26256388425827026,-0.1270321011543274,0.10441524535417557,-0.03131506219506264,-0.02470722235739231,-0.00481289392337203,0.02873380482196808,-0.18879961967468262,0.0714498981833458,0.05690360069274902,-0.08241929858922958,0.03169795125722885,0.05950488522648811,-0.20171895623207092,-0.15319031476974487,-0.0834045484662056,0.04188916087150574,0.02917758747935295,0.14688055217266083,-0.07667598873376846,-0.059653617441654205,0.07458680868148804,0.06812654435634613,-0.04759541153907776,-0.017291737720370293,0.07316774129867554,-0.12363880127668381,-0.026578601449728012,0.047184500843286514,-0.2597843110561371,-0.26503419876098633,0.026407545432448387,0.08749056607484818,0.10796595364809036,-0.04317522421479225,0.07513313740491867,-0.019729292020201683,0.09922047704458237,-0.3159726858139038,0.05926155298948288,0.04134692996740341,-0.001907643978483975,-0.1921127438545227,-0.19007745385169983,-0.03481326252222061,0.09326675534248352,-0.048550236970186234,0.15473732352256775,0.12876854836940765,0.0031424048356711864,-0.3794134259223938,0.09426776319742203,0.06880456954240799,-0.06809837371110916,-0.05127935856580734,0.08108018338680267,0.07925350219011307,-0.11365488171577454,-0.05398736894130707,0.19611571729183197,-0.24666661024093628,0.02777674049139023,-0.05360310524702072,0.051905930042266846,0.07012748718261719,-0.21983826160430908,0.125674769282341,-0.14884816110134125,0.1099119707942009,0.0805477648973465,0.14863817393779755,0.025458911433815956,0.0729483813047409,0.05942190811038017,0.08866646140813828,0.07444866001605988,-0.17875050008296967,-0.10316231101751328,0.09351982176303864,-0.07870733737945557,0.15520165860652924,0.04917953535914421,-0.09660587459802628,-0.09423822164535522,0.05597006529569626,-0.09195400029420853,0.1813507080078125,-0.0434999018907547,0.05173686891794205,-0.006575894542038441,-0.012959125451743603,0.1819714605808258,0.12502911686897278,-0.11245781928300858,0.10083029419183731,-0.09422378242015839,0.156642347574234,-0.10613919049501419,-0.07280299067497253,0.012695439159870148,-0.13558965921401978,-0.022703994065523148,0.06610125303268433,0.07365509867668152,-0.012814170680940151,-0.10439865291118622,0.01014475617557764,-0.08010327816009521,-0.007576438598334789,0.0650445818901062,0.12228783965110779,-0.06846378743648529,-0.06567040085792542,0.06941044330596924,-0.07136858999729156,0.08721498399972916,0.08725491911172867,-0.11051632463932037,0.0563693642616272,-0.17826411128044128,0.0355071984231472,-0.3058162331581116,-0.05458103120326996,-0.02311328612267971,-0.08185688406229019,-0.006687600165605545,0.06528899073600769,-0.021000416949391365,-0.14352665841579437,-0.2521703541278839,0.09954769164323807,-0.014849691651761532,-0.11008492857217789,0.13337667286396027,-0.31546154618263245,-0.03392889350652695,0.10260716080665588,0.046912435442209244,0.09427133947610855,-0.024825824424624443,0.07507715374231339,-0.32706519961357117,-0.301349401473999,-0.19745942950248718