{"shape": [10, 128]}
-0.24317006766796112,0.0461038313806057,0.054326944053173065,0.035777363926172256,-0.08653569221496582,0.020099777728319168,-0.1718166023492813,-0.13199783861637115,-0.031647901982069016,0.03852175921201706,0.0066800713539123535,0.045108404010534286,0.1138029545545578,0.01355435885488987,0.01372109167277813,0.0745042935013771,0.05811411887407303,-0.23693670332431793,0.11869806051254272,0.122339628636837,0.11569294333457947,-0.05992644652724266,-0.08711105585098267,-0.009339090436697006,-0.011386494152247906,0.1076929047703743,0.07345342636108398,0.03082844614982605,0.03804124891757965,-0.34350845217704773,-0.14433696866035461,-0.19416120648384094,-0.11996905505657196,-0.12498694658279419,0.0430341400206089,-0.05485467240214348,-0.01727958582341671,-0.21025601029396057,-0.011495866812765598,-0.08467233926057816,-0.15106704831123352,0.09534171968698502,0.11015181988477707,-0.06567361950874329,0.1098918467760086,0.06170499324798584,-0.1175955981016159,0.003961857408285141,0.06126291677355766,0.10325358808040619,0.06422062963247299,-0.10125207155942917,-0.026682231575250626,0.09273824840784073,-0.09612765163183212,0.11949670314788818,-0.07301294058561325,-0.23430529236793518,0.016246909275650978,-0.0021576322615146637,0.13597869873046875,0.026291292160749435,0.1496758759021759,0.006690531969070435,0.06074304133653641,-0.11162202805280685,-0.07751096040010452,-0.3729243278503418,0.04274033382534981,0.05514924228191376,0.0008403155952692032,-0.08020242303609848,0.09429335594177246,0.05563785135746002,-0.026295185089111328,-0.230433389544487,-0.030849693343043327,-0.26480817794799805,-0.023773644119501114,-0.17424911260604858,0.04051724448800087,-0.2500276267528534,0.01001695729792118,-0.12765321135520935,-0.01402988564223051,0.13044679164886475,0.11320815235376358,-0.21258410811424255,-0.19709160923957825,0.115148164331913,-0.05401305854320526,0.1000901460647583,0.11593768000602722,0.13949070870876312,0.12049896270036697,0.08019784837961197,-0.007424853276461363,-0.21829494833946228,0.03953922539949417,-0.13402089476585388,-0.13987073302268982,-0.0396711602807045,0.0747290849685669,0.05847817286849022,0.056219808757305145,-0.07344181835651398,-0.4384221136569977,0.14684489369392395,-0.07638724148273468,-0.027564287185668945,0.12797324359416962,0.058410365134477615,-0.2720099091529846,-0.08449917286634445,0.1122458204627037,0.09090770781040192,0.030726401135325432,-0.09273707121610641,-0.1945333182811737,-0.16322444379329681,-0.007539530750364065,-0.1849253922700882,0.06263002008199692,0.2309810221195221,-0.07291566580533981,-0.1886834353208542,-0.14741560816764832,-0.056335702538490295,0.04441196098923683,-0.17729176580905914,-0.2122815102338791,-0.08469904214143753,0.15838609635829926,0.059932295233011246,0.08043216168880463,-0.10424601286649704,0.23152858018875122,0.18398553133010864,-0.20358769595623016,0.0756710097193718,-0.21409273147583008,-0.23403188586235046,-0.21884427964687347,-0.14931133389472961,-0.12014785408973694,-0.09122102707624435,0.1722315102815628,-0.07119401544332504,-0.03540465235710144,-0.06744159758090973,-0.020224554464221,-0.22702059149742126,0.05672598257660866,-0.14722523093223572,0.05368848890066147,-0.18870557844638824,0.10893665999174118,0.01812281645834446,-0.15699660778045654,0.17342925071716309,-0.11507425457239151,-0.06738054752349854,0.10284058749675751,0.0826970636844635,-0.09826372563838959,-0.05709172412753105,0.03629336878657341,0.042291153222322464,-0.04653759300708771,-0.209377259016037,-0.032047711312770844,0.016798218712210655,-0.05471939221024513,0.007456320803612471,-0.06677186489105225,-0.14857204258441925,-0.04381506145000458,0.11816247552633286,0.27982833981513977,0.15106263756752014,0.04015175625681877,-0.12201625108718872,-0.04750373587012291,-0.08703747391700745,0.04633637145161629,0.05305976793169975,0.11049097776412964,0.10337311029434204,-0.03553367033600807,-0.22020559012889862,0.0938616544008255,-0.1391308754682541,-0.12226264178752899,0.1334175020456314,0.014785027131438255,0.11943164467811584,0.0028811399824917316,0.011850405484437943,0.020566921681165695,-0.11768510937690735,-0.04603379964828491,-0.010630493983626366,-0.11381043493747711,0.06444305181503296,-0.03864344209432602,-0.045789651572704315,0.0924287885427475,-0.07225554436445236,-0.09079849720001221,-0.27414241433143616,0.10632405430078506,0.03390207886695862,-0.05757827311754227,-0.049617018550634384,0.03591139242053032,0.06658785790205002,0.1068662479519844,0.007816338911652565,-0.16901461780071259,0.052538417279720306,-0.12327010184526443,0.19544874131679535,-0.17483356595039368,-0.07952847331762314,0.08468391001224518,0.11863365769386292,-0.22346605360507965,0.0659429207444191,-0.14420099556446075,0.12128116935491562,-0.16048160195350647,0.1221950501203537,-0.06837984174489975,-0.05670580267906189,-0.1085226759314537,0.19100704789161682,-0.22276347875595093,0.07767262309789658,0.18685486912727356,-0.05937296524643898,0.04754141345620155,0.15523692965507507,0.1734660565853119,-0.1839400976896286,-0.00676434300839901,0.027918174862861633,0.04905027896165848,0.11452033370733261,0.07723531872034073,0.1074148565530777,0.04926270991563797,-0.03688137233257294,0.028641588985919952,-0.005062176380306482,0.12383116036653519,-0.017221717163920403,-0.04966844245791435,0.0034059167373925447,0.04971053823828697,-0.0936703085899353,-0.16197073459625244,-0.07438462227582932,-0.06436891853809357,-0.07917768508195877,-0.13387182354927063,-0.04701890051364899,0.06560620665550232,0.0780448317527771,-0.030151186510920525,0.11728854477405548,-0.01730770245194435,0.02159254439175129,-0.038734447211027145,-0.04246411472558975,-0.09185507893562317,0.17227645218372345,0.09694831818342209,-0.20122194290161133,-0.07918288558721542,0.18838933110237122,-0.30762389302253723,-0.09753788262605667,-0.07260782271623611,0.03642963245511055,0.11154331266880035,-0.12375448644161224,-0.152963787317276,0.19634468853473663,-0.13340727984905243,0.14146964251995087,-0.12691964209079742,0.05751224607229233,0.09941208362579346,0.13509565591812134,0.06390684098005295,0.12098950147628784,-0.04696295037865639,0.08428723365068436,-0.007285103667527437,0.05779610574245453,-0.22621430456638336,0.07811865210533142,0.0425720177590847,0.09426094591617584,0.0743635967373848,0.08110560476779938,-0.10808981209993362,-0.031857289373874664,0.13008317351341248,0.08525148034095764,-0.02067127451300621,0.009527997113764286,0.010812819935381413,0.15456849336624146,-0.20577716827392578,-0.3286678194999695,0.13629698753356934,-0.18152454495429993,0.140362948179245,0.15130968391895294,0.07281829416751862,0.18848231434822083,0.100746288895607,-0.15545426309108734,0.10373555123806,0.018039453774690628,0.003227595705538988,-0.027632616460323334,-0.0705919936299324,-0.2991880476474762,-0.11524802446365356,0.03120769001543522,-0.13569584488868713,0.21242094039916992,-0.08008680492639542,-0.0005222081090323627,-0.30366280674934387,-0.16482585668563843,0.11366643756628036,-0.06757663935422897,-0.12593117356300354,0.10644370317459106,0.09644605964422226,0.12601101398468018,0.1022021472454071,0.0016124022658914328,0.0515974797308445,0.1053965836763382,0.0022074757143855095,-0.08781163394451141,0.14126308262348175,-0.10448043793439865,0.016724200919270515,0.146183580160141,-0.12602345645427704,-0.05215595290064812,-0.0015168738318607211,0.18137255311012268,0.12545539438724518,0.12815332412719727,0.13796670734882355,0.04526828974485397,-0.2843763828277588,-0.20813201367855072,0.0025782177690416574,-0.08739286661148071,0.16221822798252106,0.05473823845386505,-0.15656769275665283,0.15641053020954132,0.029272543266415596,0.07286734879016876,0.037683531641960144,-0.020448800176382065,-0.004016262013465166,-0.043410997837781906,0.07211102545261383,-0.004328615963459015,0.00024440124980174005,0.27425727248191833,-0.050373148173093796,-0.09756385535001755,0.03902692347764969,-0.07278914004564285,-0.13159070909023285,0.11176171153783798,-0.09988104552030563,-0.11361826956272125,-0.23569320142269135,0.04384395107626915,-0.17440195381641388,0.075199656188488,0.05233824998140335,0.13701051473617554,-0.1896626353263855,0.062586210668087,-0.11844722926616669,0.22092671692371368,0.05983104556798935,0.013492935337126255,-0.051333989948034286,0.049918241798877716,0.05765806511044502,0.044588662683963776,-0.07429585605859756,-0.2643934488296509,-0.039583269506692886,0.04842511937022209,-0.23722174763679504,0.030641717836260796,-0.017827298492193222,-0.07782525569200516,-0.19738303124904633,0.11484822630882263,0.08905462920665741,0.07039650529623032,0.05589635670185089,0.17274823784828186,0.0626925677061081,0.0553964339196682,0.12284038960933685,-0.051138680428266525,-0.03321089223027229,-0.11063612997531891,0.011929024010896683,0.03959915414452553,-0.06763000041246414,-0.014656580984592438,0.0963805541396141,0.07663451135158539,0.13725759088993073,-0.08862259238958359,0.06190156191587448,0.07450290769338608,0.15777693688869476,0.12915141880512238,-0.09097496420145035,0.0066521260887384415,-0.047837793827056885,-0.2368537187576294,0.01583274081349373,-0.1334744691848755,-0.0252575371414423,0.014516693539917469,0.04566774517297745,0.01710653118789196,-0.17892000079154968,0.060448598116636276,-0.28978264331817627,-0.19686643779277802,0.12566688656806946,-0.3445639908313751,-0.10999707877635956,0.02532019466161728,-0.2276192158460617,-0.03958062827587128,-0.03720667213201523,0.07769495993852615,-0.030711214989423752,0.053581368178129196,0.14163488149642944,0.03194965049624443,-0.16690374910831451,0.07509308308362961,0.03999493643641472,0.10568442940711975,0.10715228319168091,0.0852571502327919,-0.11419256031513214,0.15511469542980194,0.05642266944050789,0.15312808752059937,-0.009246659465134144,0.024996887892484665,0.014201991260051727,-0.11981657147407532,-0.006369432434439659,-0.06328883022069931,0.17986135184764862,0.019555456936359406,-0.1565905064344406,-0.036548592150211334,0.01917255111038685,0.11893311887979507,0.07894093543291092,0.0006430178764276206,0.10795921832323074,-0.17078432440757751,0.11192350089550018,-0.06776142120361328,0.14702071249485016,-0.1408402919769287,-0.12067031860351562,-0.020080965012311935,0.06594265252351761,-0.10292551666498184,0.11261384934186935,-0.016074499115347862,0.0877603143453598,0.03354509547352791,-0.0376710519194603,-0.00904243066906929,0.06303837150335312,-0.09678753465414047,0.07431979477405548,0.05917377397418022,0.005551571492105722,-0.0587744265794754,-0.09093067049980164,0.04243037849664688,0.11740987002849579,-0.03638986870646477,0.024666817858815193,-0.2803962528705597,0.015273282304406166,0.16319812834262848,0.24805526435375214,-0.024978848174214363,0.15312598645687103,0.1149744987487793,-0.08413014560937881,-0.4600355923175812,-0.013761792331933975,-0.09718713909387589,0.034580033272504807,-0.22709687054157257,-0.04449104890227318,0.059861794114112854,-0.09256719052791595,0.049112532287836075,-0.08122550696134567,-0.06206716597080231,-0.04454318806529045,0.07037221640348434,-0.06239966303110123,-0.03424058109521866,-0.16651491820812225,-0.03255677595734596,0.003037001471966505,-0.09503631293773651,0.003967209719121456,0.023964405059814453,-0.06078047677874565,-0.11498571932315826,0.07010649144649506,0.05926141142845154,0.015856726095080376,-0.10450486838817596,-0.22509606182575226,-0.09625594317913055,-0.0009771172190085053,-0.06277571618556976,-0.07140874117612839,-0.2007894515991211,0.06675144284963608,0.06489613652229309,-0.03369227051734924,0.08816026151180267,-0.0042407759465277195,0.04802389070391655,-0.006926402915269136,-0.1765156239271164,-0.03531163930892944,0.10753390938043594,-0.16159436106681824,-0.1229977086186409,0.10984637588262558,0.1289699226617813,-0.011799240484833717,0.06552305817604065,-0.018383091315627098,0.13309092819690704,-0.2244785726070404,-0.05585738644003868,0.11870221793651581,-0.030325571075081825,0.048866838216781616,0.12961110472679138,-0.18975386023521423,0.055028464645147324,0.03248532861471176,-0.20175385475158691,0.05242447182536125,0.05095026269555092,0.08056604117155075,-0.018694214522838593,0.11091743409633636,0.004223503638058901,-0.38087198138237,0.09744101762771606,0.05281304568052292,0.01989832893013954,0.185841903090477,-0.1996603161096573,0.1615334302186966,-0.0397462323307991,0.026599077507853508,-0.3305647373199463,-0.30116668343544006,-0.2147599160671234,-0.07825466245412827,-0.27597737312316895,-0.4124000072479248,-0.056679755449295044,-0.24479207396507263,-0.30330905318260193,0.04837562143802643,0.07579231262207031,0.06490223109722137,-0.07599435746669769,0.034206680953502655,0.025781096890568733,-0.3370680510997772,0.06225793808698654,0.00030706688994541764,0.1367042064666748,-0.004213818348944187,0.060462795197963715,0.10624758154153824,-0.017033414915204048,0.07769801467657089,-0.06954123079776764,0.04471408948302269,0.13520215451717377,0.12377546727657318,-0.11700477451086044,0.22955915331840515,0.07651908695697784,0.0786302238702774,-0.060231924057006836,-0.005120346788316965,-0.14376123249530792,0.07967634499073029,0.05482293292880058,0.050710588693618774,-0.23764151334762573,0.012846734374761581,0.08513981103897095,0.1325884759426117,0.01935259997844696,-0.12075489014387131,0.08812238276004791,0.07027659565210342,0.1753450185060501,-0.1324297934770584,0.022484583780169487,0.1065681055188179,-0.030577946454286575,0.10842199623584747,0.22507315874099731,0.16442829370498657,-0.08372435718774796,-0.058010149747133255,-0.20886573195457458,-0.019558947533369064,-0.08061137795448303,-0.052664633840322495,-0.0437052957713604,-0.12040743231773376,-0.38703760504722595,-0.18477162718772888,0.0076702553778886795,0.026835860684514046,0.065171018242836,0.24364612996578217,0.0814073234796524,-0.052232660353183746,0.11136883497238159,-0.04839110001921654,0.06732268631458282,0.1930447667837143,0.14371490478515625,0.060031238943338394,-0.10170991718769073,-0.046390336006879807,-0.15112847089767456,-0.035855330526828766,0.17259439826011658,-0.01165340282022953,0.0381237268447876,-0.039765551686286926,-0.16618670523166656,0.036576274782419205,-0.05635242536664009,0.14282789826393127,-0.22973822057247162,-0.016174504533410072,0.05556783825159073,-0.12876880168914795,0.12740229070186615,-0.10751938819885254,-0.21604089438915253,-0.353882759809494,0.08122321218252182,-0.10217484831809998,0.017963383346796036,0.05785226821899414,-0.10882993042469025,0.1744120866060257,-0.018335727974772453,-0.17175987362861633,0.03692159056663513,-0.2813577950000763,-0.16788311302661896,-0.03302854672074318,0.057006850838661194,0.03184951841831207,0.09047792851924896,-0.013640269637107849,0.0452120304107666,0.012559497728943825,-0.057635873556137085,-0.0035545825958251953,0.09171805530786514,0.15291063487529755,-0.0858674868941307,0.27196258306503296,0.08882088214159012,-0.018690327182412148,-0.19893592596054077,0.0022140450309962034,0.1888846457004547,-0.40852051973342896,-0.11666923761367798,-0.10577701032161713,-0.015346970409154892,0.10196138173341751,0.030123883858323097,-0.011884750798344612,0.05787928029894829,0.1722346991300583,0.03472039848566055,-0.15374131500720978,0.015459354035556316,-0.021255167201161385,0.04858893156051636,-0.11981280148029327,0.13360826671123505,0.02618008852005005,0.10167307406663895,0.26841646432876587,0.1239105835556984,-0.1082887127995491,-0.028840232640504837,0.011516711674630642,0.020983818918466568,0.06548981368541718,-0.10080521553754807,-0.021929364651441574,-0.0018009333871304989,-0.013770334422588348,0.06087204068899155,0.10155279189348221,-0.014287648722529411,-0.30323946475982666,-0.036141395568847656,0.024161189794540405,-0.007863810285925865,-0.12349499762058258,-0.010261541232466698,-0.17096705734729767,0.05261420086026192,-0.30063101649284363,0.06092102453112602,0.03090284951031208,0.04121708869934082,-0.21997679769992828,0.09536778181791306,0.01364956609904766,-0.1618189662694931,-0.046992816030979156,0.14437757432460785,0.20597955584526062,-0.06580249965190887,-0.16300629079341888,-0.06824037432670593,0.021878434345126152,-0.12592236697673798,0.10228641331195831,0.08336149156093597,-0.06023535132408142,0.02776823192834854,0.16883176565170288,-0.06719114631414413,0.03872673958539963,0.05228498950600624,0.07823831588029861,-0.22829720377922058,-0.00928251538425684,0.021442154422402382,0.019498245790600777,-0.23131442070007324,0.1360657811164856,0.08295679092407227,-0.004653191193938255,-0.38088735938072205,0.09554078429937363,-0.12510138750076294,0.07804620265960693,-0.1304253190755844,-0.2683795094490051,-0.14925432205200195,0.1028052568435669,-0.09130169451236725,-0.062350139021873474,-0.17341971397399902,-0.06399296969175339,0.00621331250295043,-0.1706748902797699,0.12975698709487915,0.08305312693119049,0.03504832088947296,-0.024855677038431168,-0.22041593492031097,-0.010307260788977146,-0.18343442678451538,0.14521819353103638,-0.15040716528892517,0.10276717692613602,0.06372198462486267,0.1446586698293686,-0.018634939566254616,0.05648534372448921,-0.011534531600773335,0.04308067262172699,-0.1666494607925415,0.10424415022134781,-0.058075644075870514,-0.11641988158226013,0.06524691730737686,-0.17737816274166107,0.028744854032993317,0.055959302932024,-0.12786807119846344,-0.3869333863258362,-0.12745226919651031,0.12431580573320389,-0.002190194558352232,0.1203698143362999,-0.15281438827514648,-0.053522225469350815,0.007554393261671066,-0.13824737071990967,-0.18319405615329742,0.22430674731731415,0.08185117691755295,-0.16692480444908142,0.08453640341758728,0.027739614248275757,-0.1320948451757431,-0.3776291608810425,-0.18682856857776642,0.04379424452781677,-0.3529941141605377,4.381584585644305e-05,-0.2515784502029419,0.07301387190818787,0.07700103521347046,0.03366868942975998,0.04353829845786095,0.06008186936378479,-0.12721504271030426,0.05818280205130577,-0.05200136452913284,0.09457188844680786,0.08591031283140182,-0.01563361845910549,0.08241090923547745,0.06953855603933334,-0.3039950728416443,-0.022642832249403,0.03459606692194939,0.0771908089518547,0.07135407626628876,-0.30933046340942383,-0.06851165741682053,0.0826466754078865,0.054179564118385315,-0.17415328323841095,0.12924377620220184,-0.30849993228912354,-0.03951143100857735,0.043891578912734985,0.08744993805885315,0.10392240434885025,0.008130067028105259,-0.08200192451477051,0.05465991795063019,0.11036255210638046,0.08230937272310257,-0.12409637123346329,-0.04364747181534767,-0.07516137510538101,-0.16062043607234955,0.1135891005396843,-0.09755787253379822,-0.059386156499385834,0.006526975892484188,-0.1090245395898819,-0.08600085973739624,0.14458461105823517,0.06322667747735977,0.2783914804458618,-0.014232954010367393,-0.20613336563110352,-0.2722012400627136,-0.03550276905298233,-0.10538369417190552,-0.032179076224565506,-0.21610137820243835,-0.15581417083740234,-0.01568538509309292,-0.18537062406539917,-0.020605910569429398,0.028625156730413437,0.06569048017263412,0.16740821301937103,-0.09202740341424942,-0.11558885127305984,0.10668165981769562,-0.12165183573961258,-0.16041234135627747,-0.051264550536870956,0.08268789947032928,0.09599313884973526,-0.17900350689888,0.10115506500005722,0.25616905093193054,0.026534058153629303,0.12093876302242279,0.25234466791152954,-0.04888850823044777,0.09932579100131989,0.1827266961336136,-0.028516622260212898,-0.15800075232982635,-0.04554233327507973,0.09675146639347076,-0.0993947833776474,-0.056746430695056915,0.06098742038011551,0.027093825861811638,-0.05450316518545151,0.06249117851257324,0.08260022848844528,0.05497875437140465,0.15056614577770233,0.0494442954659462,0.07194751501083374,-0.12512876093387604,-0.033354565501213074,0.1915951520204544,-0.14539875090122223,0.046064894646406174,0.060718197375535965,0.09481199830770493,0.10440713912248611,0.06904683262109756,6.254859908949584e-05,0.17933949828147888,-0.000834178295917809,-0.044452354311943054,0.06361625343561172,0.05708428844809532,-0.1301547884941101,-0.14368116855621338,-0.12015479058027267,0.09491462260484695,0.07843902707099915,-0.056612513959407806,0.09525272995233536,-0.14971859753131866,0.18760675191879272,0.058330267667770386,0.06413933634757996,0.0018719789804890752,-0.10050683468580246,0.13792112469673157,0.12228045612573624,0.09506873786449432,-0.0135040283203125,0.07308193296194077,-0.146739199757576,0.08936752378940582,0.08985913544893265,-0.18166501820087433,0.14207115769386292,-0.07691966742277145,0.09138191491365433,0.07288770377635956,0.1399158388376236,-0.0485059879720211,0.08334523439407349,0.09707744419574738,0.05761139839887619,-0.12533503770828247,-0.14009971916675568,-0.16434602439403534,-0.02607596665620804,0.018708448857069016,-0.27103421092033386,0.07756556570529938,-0.18100707232952118,0.09011207520961761,-0.14078831672668457,-0.05545654147863388,0.20475874841213226,-0.08686403185129166,-0.17945244908332825,0.04635017365217209,0.0010201043915003538,-0.1293269246816635,-0.19560807943344116,-0.01693728193640709,0.03815745562314987,-0.09478054195642471,0.13510382175445557,-0.028897341340780258,0.05264399200677872,-0.03276427835226059,-0.07456588745117188,0.09209053218364716,0.14379602670669556,-0.06519162654876709,-0.08117382973432541,0.09256451576948166,0.057951562106609344,0.11010908335447311,-0.10709156095981598,0.05682038888335228,-0.1203286424279213,-0.02368583343923092,-0.1841975301504135,-0.23941373825073242,0.0963674858212471,0.026597758755087852,-0.04541236162185669,0.10824312269687653,0.04552493616938591,0.0964229628443718,0.0681384801864624,0.06372616440057755,-0.16011643409729004,-0.08144155144691467,0.07057774811983109,0.05584927648305893,0.11854687333106995,-0.1428525596857071,-0.06434452533721924,0.06374412029981613,0.0680648535490036,0.07995609194040298,0.0962369292974472,0.01698300614953041,0.008063625544309616,-0.28336620330810547,0.0008574259118176997,-0.292884886264801,-0.16836397349834442,0.10135006904602051,-0.1552758663892746,-0.11347935348749161,0.07331661880016327,-0.058467406779527664,0.07047400623559952,-0.011339008808135986,0.059988219290971756,-0.035903189331293106,0.09449484199285507,0.05345582589507103,0.0859755426645279,0.012176040560007095,-0.3128848671913147,-0.12192893773317337,-0.1729448139667511,-0.2643132507801056,0.20921635627746582,0.07932193577289581,0.08389853686094284,-0.13704189658164978,0.04617249593138695,0.12706752121448517,-0.15103214979171753,-0.2236167937517166,-0.10688591003417969,0.016057124361395836,-0.09327901154756546,-0.12784172594547272,0.03273401036858559,0.011729896999895573,-0.02831791713833809,-0.052450161427259445,0.1083645224571228,0.04432211443781853,0.013547484762966633,-0.031695406883955,-0.05057677626609802,0.03198125958442688,-0.1259971261024475,0.08491096645593643,-0.1163472980260849,-0.1583167463541031,-0.2131056785583496,-0.19456078112125397,-0.3167772591114044,0.06282354891300201,-0.020931486040353775,0.021951070055365562,-0.0013824132038280368,-0.04621441289782524,-0.012170052155852318,0.06617389619350433,0.10465606302022934,0.09348820894956589,0.010433671064674854,0.0676523745059967,0.0682285949587822,-0.026708533987402916,-0.1390654742717743,0.0868469700217247,0.031374212354421616,-0.03691632300615311,0.008947347290813923,-0.24230289459228516,-0.09964960068464279,-0.33194154500961304,0.030788036063313484,0.15317201614379883,-0.07359065115451813,0.04901647940278053,0.03532591834664345,-0.04850845783948898,0.09716720134019852,0.0027390383183956146,-0.2771131694316864,-0.07233192026615143,0.018832935020327568,-0.10213486105203629,-0.12455956637859344,0.03048069216310978,0.05579454451799393,0.03588111326098442,-0.13058613240718842,-0.0406622588634491,0.045219603925943375,0.020328868180513382,0.026104265823960304,-0.3334110677242279,-0.020321650430560112,0.0995677188038826,-0.11951499432325363,0.03418279066681862,-0.012828953564167023,0.09826871752738953,0.06203046441078186,-0.18040437996387482,-0.27996087074279785,-0.06758719682693481,-0.13061952590942383,-0.06601826846599579,0.07734978944063187,-0.010500028729438782,-0.13780520856380463,0.01546271238476038,0.10998684167861938,0.20945453643798828,0.02243378758430481,-0.0010221569100394845,0.13768230378627777,0.014953898265957832,0.07230808585882187,0.13147427141666412,-2.332933945581317e-06,0.005971475970000029,-0.053412508219480515,0.11579691618680954,0.20219577848911285,0.06997887790203094,-0.03398934751749039,0.05636410042643547,-0.18757155537605286,0.11797478795051575,0.07428713142871857,-0.4603852927684784,-0.0078118350356817245,-0.028305819258093834,-0.2607559859752655,-0.02311883680522442,-0.1716732233762741,-0.15540197491645813,-0.013660027645528316,0.024946266785264015,0.08277316391468048,0.11834955215454102,-0.1548323631286621,-0.04278260096907616,-0.021550429984927177,0.0817079246044159,-0.1781635582447052,-0.018480760976672173,0.06925909966230392,0.08104141801595688,-0.2628787159919739,0.0278930701315403,-0.0825127512216568,-0.050413645803928375,0.019203688949346542,0.02130354940891266,-0.11294158548116684,-0.053616832941770554,-0.13047949969768524,0.08816725760698318,-0.06706232577562332,0.07351356744766235,0.04889625683426857,-0.1195996105670929,0.10169243067502975,0.017368601635098457,0.12681928277015686,0.03243356943130493,-0.03321664035320282,-0.008618706837296486,0.04168245196342468,0.039890166372060776,0.1049695536494255,0.06886379420757294,0.05706099048256874,0.06239224970340729,-0.1367398202419281,-0.048769544810056686,0.0312177874147892,0.09328628331422806,0.18571148812770844,-0.07376722246408463,0.02180335484445095,0.010133964940905571,0.006496016401797533,0.0596175342798233,-0.11011631041765213,0.007895021699368954,-0.22803066670894623,-0.08017788827419281,-0.09595760703086853,-0.16672392189502716,0.09513453394174576,0.031928326934576035,-0.3344965875148773,-0.027720993384718895,0.048599835485219955,-0.30221235752105713,0.07864357531070709,0.045922912657260895,0.003390998113900423,0.04246651008725166,0.06414009630680084,-0.33290234208106995,-0.352092981338501,0.07086868584156036,0.09326636046171188,0.08365155011415482,-0.010456274263560772,-0.044472601264715195,-0.1310318410396576,-0.038472730666399,0.01730530895292759,-0.06288459897041321,-0.12653383612632751,0.03276510164141655,-0.08205211907625198,0.07003862410783768,-0.045105598866939545,-0.08631635457277298,-0.2565649449825287,0.03806471452116966,0.1397072672843933,0.08069012314081192,0.03620114177465439,-0.03757043182849884,-0.17912524938583374,0.08561348170042038