{"shape": [10, 128]}
0.09575868397951126,-0.07241728901863098,0.05114753544330597,0.12091036885976791,0.09301680326461792,-0.11715298891067505,-0.06732630729675293,0.03975898027420044,0.005747427232563496,-0.10254309326410294,-0.12927153706550598,0.09735165536403656,0.06825991719961166,0.07389860600233078,-0.21524065732955933,0.1175965741276741,-0.05424303188920021,0.08070898801088333,0.11067338287830353,-0.04997514560818672,0.2216530740261078,-0.19510149955749512,0.04839466139674187,-0.05180931091308594,0.001737905782647431,0.017426200211048126,-0.19166085124015808,-0.024822726845741272,0.09071970731019974,-0.2841045558452606,0.07601292431354523,0.035252805799245834,0.032796960324048996,0.06439442187547684,0.055111199617385864,0.1269475370645523,-0.10618797689676285,0.054162029176950455,0.08995061367750168,-0.05248650163412094,0.06793811917304993,0.12877477705478668,-0.22455598413944244,0.0962429940700531,-0.17431791126728058,0.10858664661645889,0.1203734427690506,-0.1276146024465561,0.1800876259803772,-0.1366112232208252,-0.1533782035112381,-0.16503064334392548,0.07445083558559418,0.024000123143196106,-0.19243022799491882,0.09865354001522064,-0.06479305028915405,0.044636599719524384,-0.12346283346414566,-0.08051460236310959,-0.020191211253404617,0.03963847458362579,0.0895608440041542,0.10123089700937271,0.1355983316898346,0.18679402768611908,0.07025139778852463,0.011731688864529133,-0.13850410282611847,-0.03087450936436653,0.11572795361280441,-0.14048989117145538,-0.06021813303232193,0.2655726969242096,-0.09807748347520828,-0.11845732480287552,0.019657369703054428,0.0800149068236351,-0.12713350355625153,0.12411126494407654,0.12756334245204926,-0.0567408949136734,-0.03746066242456436,0.1648516058921814,0.07500151544809341,-0.03242894634604454,-0.047256339341402054,-0.11236685514450073,0.11816000938415527,-0.1746263951063156,-0.25030022859573364,0.03841496631503105,0.0023209687788039446,-0.24152131378650665,-0.3240332007408142,0.017658783122897148,-0.1954713612794876,-0.076195627450943,-0.002211833605542779,-0.07067079842090607,-0.3333905041217804,-0.02935156412422657,-0.0686408132314682,-0.20902670919895172,0.018496517091989517,0.05482937768101692,-0.09397514909505844,-0.12916797399520874,0.005556576885282993,-0.10454235225915909,-0.1386713832616806,0.11960805952548981,0.005935600958764553,-0.0943574458360672,0.040951840579509735,0.03236125037074089,0.10737357288599014,0.14180004596710205,-0.0714595764875412,-0.0246709156781435,0.12014679610729218,-0.13682438433170319,0.0737820491194725,-0.05091949924826622,0.07089746743440628,-0.04823866859078407,-0.1658608466386795,-0.0002761014620773494,-0.12166357785463333,0.06391280144453049,-0.014284730888903141,-0.03796936199069023,0.0699755847454071,-0.0329338014125824,0.10553896427154541,-0.03403632715344429,-0.08507230877876282,-0.002273358404636383,0.07471221685409546,-0.024425357580184937,-0.23306232690811157,0.00819956324994564,-0.17253752052783966,-0.10913261026144028,-0.1273428052663803,-0.23299208283424377,0.10192056745290756,0.027122652158141136,-0.1490052342414856,-0.23460938036441803,-0.0961662083864212,0.08647126704454422,0.23002059757709503,-0.14423130452632904,0.07378755509853363,0.019797619432210922,-0.055215705186128616,0.09793108701705933,-0.09537213295698166,-0.17505313456058502,-0.09623899310827255,-0.19370998442173004,-0.006803316064178944,-0.11522895842790604,0.07977500557899475,-0.18605822324752808,0.1428193598985672,-0.03322870656847954,-0.3793390989303589,-0.08323796093463898,0.017121782526373863,0.13578520715236664,0.04332880303263664,-0.12788988649845123,-0.0652826726436615,0.07053544372320175,-0.06988096237182617,0.05684869363903999,-0.048766303807497025,0.06121106818318367,0.19776517152786255,0.04665761813521385,0.0925249308347702,0.16456864774227142,-0.003375567262992263,-0.06182236596941948,-0.049202483147382736,0.11063281446695328,0.021280057728290558,0.011092654429376125,0.23612648248672485,0.08742967993021011,0.12199189513921738,0.06289396435022354,0.1448984444141388,-0.11200133711099625,0.06771963834762573,-0.01067915465682745,-0.046311765909194946,-0.059266675263643265,-0.2514513432979584,0.05865542218089104,-0.06703560799360275,-0.00716676190495491,0.03337237983942032,0.0772547498345375,-0.012672862969338894,-0.24187995493412018,-0.07401305437088013,0.13605748116970062,0.017288770526647568,0.16130900382995605,-0.15049196779727936,0.14794716238975525,0.01588042639195919,0.11030937731266022,0.0814417228102684,0.08997632563114166,0.06842317432165146,0.07533539086580276,0.07055067270994186,-0.2223827987909317,0.13815979659557343,0.05345746874809265,0.06218302249908447,-0.1004880741238594,-0.07001794874668121,-0.08041498810052872,0.02468787133693695,-0.09145192801952362,-0.01824798807501793,0.024012349545955658,-0.048706140369176865,-0.26557400822639465,0.2845359444618225,0.05569694563746452,0.08456001430749893,0.07129554450511932,-0.1857433170080185,-0.010640627704560757,-0.11553933471441269,-0.2718815803527832,-0.01985987275838852,-0.28924691677093506,-0.3121742904186249,-0.15806840360164642,0.2847851812839508,0.07730100303888321,0.1995345801115036,0.06663753092288971,0.05033566802740097,-0.11807136237621307,0.15193425118923187,0.08399088680744171,0.016960056498646736,-0.14362391829490662,-0.13504095375537872,-0.05633382499217987,0.011597171425819397,0.08410131186246872,0.10264906287193298,0.02780480496585369,0.2188282459974289,-0.07315141707658768,0.08897921442985535,0.06091424450278282,-0.05181630700826645,0.11027120053768158,-0.08335074037313461,-0.030437374487519264,0.16665424406528473,0.05139847472310066,0.12784382700920105,0.08064845949411392,-0.13173308968544006,0.06152227520942688,0.009599916636943817,-0.24482426047325134,0.08571495115756989,-0.08941411972045898,0.07967310398817062,-0.05535043030977249,-0.010933954268693924,0.04718988388776779,-0.030431659892201424,0.1411256641149521,0.017299868166446686,0.09529402107000351,-0.15878362953662872,-0.047198180109262466,-0.1265307068824768,-0.023468608036637306,-0.06699327379465103,-0.028890736401081085,0.12466517090797424,-0.0001697719271760434,-0.1203390583395958,0.11615509539842606,-0.028721055015921593,-0.1111740916967392,0.03928622230887413,0.09075292199850082,0.11185915023088455,-0.06055265665054321,0.012404724024236202,0.04572247341275215,-0.14221599698066711,-0.07850758731365204,-0.1292264312505722,-0.33794739842414856,0.0992652028799057,-0.21438786387443542,0.14022013545036316,0.06365345418453217,-0.10535471886396408,-0.07658589631319046,-0.09122319519519806,0.008981090039014816,-0.06272635608911514,0.028227925300598145,0.057219430804252625,-0.20992891490459442,-0.04619899019598961,0.07098022848367691,-0.10649259388446808,0.1307545006275177,0.02595178224146366,-0.015879184007644653,-0.1216595321893692,0.10383983701467514,-0.010709233582019806,0.05868895351886749,-0.03922358527779579,0.07876227796077728,0.060346513986587524,0.10982503741979599,0.13975198566913605,-0.07188663631677628,-0.032925795763731,0.09040043503046036,0.004988047294318676,-0.01991034299135208,-0.10326702892780304,0.035493358969688416,-0.3141319453716278,0.14281222224235535,-0.14896506071090698,-0.06061548739671707,0.11020383983850479,-0.02611830085515976,0.23996040225028992,0.33992668986320496,-0.2008015364408493,-0.04816113039851189,0.08432402461767197,-0.03784044831991196,-0.23022721707820892,-0.09225375950336456,0.14192059636116028,0.17528407275676727,0.14889904856681824,0.08008231222629547,-0.09036529809236526,-0.03922373428940773,0.06933867931365967,0.14019763469696045,-0.11095340549945831,0.0813862755894661,0.06366544216871262,0.0924268364906311,0.02062949351966381,-0.4380826950073242,0.0403108187019825,0.09012038260698318,0.04959516599774361,0.016791250556707382,0.039341483265161514,-0.06772656738758087,-0.005046567413955927,0.10212665796279907,-0.019426541402935982,0.045031823217868805,0.01730876788496971,-0.026098163798451424,0.06652046740055084,-0.07597599923610687,0.009599396958947182,0.13689927756786346,0.1675136536359787,0.037041690200567245,-0.16346296668052673,-0.034873418509960175,0.05565788596868515,-0.16157560050487518,0.2477359026670456,0.07088062912225723,-0.04199080541729927,0.044893428683280945,0.06320905685424805,-0.15815185010433197,-0.059351466596126556,-0.12710319459438324,-0.03197570890188217,-0.0690416768193245,0.03773319348692894,0.15316258370876312,0.111093670129776,0.03645341843366623,-0.025571981444954872,0.00723438523709774,0.06469973921775818,-0.02682838775217533,0.047290366142988205,-0.044412966817617416,0.23775789141654968,0.12408477813005447,-0.31929486989974976,0.007220523897558451,-0.10968753695487976,-0.11200577765703201,-0.13501040637493134,-0.0015176113229244947,-0.07046348601579666,0.04547635465860367,0.04901352524757385,0.0755729228258133,0.12189812958240509,-0.21037952601909637,-0.02257184498012066,0.04512174054980278,0.12194131314754486,-0.25141099095344543,-0.07464926689863205,0.10064726322889328,-0.1676793247461319,0.013008059933781624,-0.24076691269874573,-0.09013288468122482,0.18125759065151215,0.004861824680119753,0.12225641310214996,0.09553270041942596,0.07832161337137222,-0.023505834862589836,0.010355552658438683,-0.034916575998067856,-0.04108313098549843,-0.190362349152565,-0.15160436928272247,0.0805218517780304,0.14312489330768585,0.1659485548734665,0.05484349653124809,-0.19579285383224487,0.029386430978775024,0.0741579607129097,-0.007141402456909418,-0.060426466166973114,-0.013131837360560894,0.05569054186344147,-0.1063305139541626,-0.23853625357151031,0.07109386473894119,-0.03342287242412567,0.16627992689609528,-0.3062584698200226,0.023288223892450333,0.011394658125936985,0.11007189750671387,-0.17987024784088135,0.03548963740468025,-0.033298835158348083,-0.0239685270935297,0.036754921078681946,0.09976422786712646,0.10157651454210281,0.09568776935338974,-0.019524341449141502,-0.12551304697990417,-0.03630034625530243,-0.2358967512845993,0.11337992548942566,0.05178499221801758,0.1669786125421524,0.04998413845896721,-0.01415547076612711,0.029284244403243065,0.017000580206513405,-0.05786505341529846,-0.018359221518039703,0.08647920936346054,-0.12471237033605576,0.09138369560241699,-0.20641613006591797,-0.02595965750515461,0.08678016811609268,-0.08320630341768265,0.1468818634748459,0.0011228156508877873,-0.0035907230339944363,-0.18747073411941528,-0.1852264553308487,0.34101319313049316,-0.028019625693559647,-0.2113245278596878,-0.19096267223358154,-0.18675461411476135,0.02229238860309124,0.10031319409608841,0.06741016358137131,0.024436693638563156,-0.2274884730577469,-0.07250893115997314,0.08810544013977051,0.03898764029145241,-0.19028568267822266,-0.2528880536556244,-0.10744088888168335,0.10598653554916382,0.03646016865968704,-0.01485967356711626,0.0762355625629425,-0.023523319512605667,-0.19673578441143036,0.04611213877797127,0.03784296289086342,0.08698368072509766,0.05591011792421341,0.11110933870077133,0.11556501686573029,-0.08852173388004303,0.010427994653582573,-0.36258575320243835,-0.020709330216050148,-0.06115471571683884,-0.09458013623952866,-0.35296013951301575,0.03209541738033295,0.05864449590444565,0.005021492950618267,0.051077406853437424,-0.13169357180595398,-0.1060984879732132,0.11708378046751022,0.19947326183319092,-0.11193446815013885,-0.14169292151927948,-0.0711602121591568,0.06341268122196198,0.02380591817200184,0.12362304329872131,-0.23318086564540863,-0.013737916946411133,-0.25854265689849854,0.06695926189422607,0.12369521707296371,-0.16584527492523193,-0.17779262363910675,-0.11337825655937195,-0.06547978520393372,0.07259606570005417,0.07853791117668152,0.127000629901886,-0.13255144655704498,0.07472085952758789,0.014003955759108067,0.04374787211418152,-0.07722307741641998,-0.08098157495260239,0.0015459790593013167,-0.08515151590108871,0.16933628916740417,0.07676603645086288,0.0715467631816864,-0.10963094979524612,-0.01883278787136078,-0.18575341999530792,-0.2018999457359314,-0.13988065719604492,-0.11859825998544693,0.051705680787563324,0.1491415947675705,-0.01681414246559143,0.10120236128568649,0.07564128190279007,-0.1494797021150589,0.016193658113479614,0.04191082343459129,-0.19007374346256256,-0.08510515093803406,0.010466344654560089,0.0987401008605957,-0.015043972991406918,0.1253059059381485,0.04427309334278107,-0.24798448383808136,-0.034006886184215546,-0.022882476449012756,-0.05227673798799515,0.019481392577290535,0.0762806162238121,-0.1675511598587036,0.10991594195365906,0.012270569801330566,-0.0725054144859314,0.07349436730146408,-0.16165632009506226,-0.2679649889469147,-0.08261988312005997,-0.011627040803432465,-0.3502315580844879,0.054729294031858444,0.11979357153177261,0.005106758791953325,-0.18010106682777405,-0.22739695012569427,-0.10634434968233109,0.08803854137659073,0.38422128558158875,0.11827103793621063,0.025796642526984215,0.11042095720767975,-0.10933046787977219,-0.3794797956943512,-0.02598230354487896,0.03324862942099571,-0.061994899064302444,-0.18747951090335846,0.08186959475278854,0.14511124789714813,0.12501056492328644,0.014508400112390518,-0.021832000464200974,0.07044115662574768,0.11294211447238922,-0.05755041539669037,0.12860453128814697,0.007494933437556028,0.13307856023311615,0.07986438274383545,0.1032751053571701,0.0712091401219368,-0.03576722741127014,0.12207847833633423,-0.17171645164489746,0.012806982733309269,-0.1463330090045929,-0.04566855728626251,0.021095173433423042,0.13408072292804718,0.27318230271339417,-0.21351227164268494,-0.0991247221827507,-0.0660819262266159,-0.015453735366463661,0.14257141947746277,-0.15582896769046783,0.04346900433301926,0.16666600108146667,0.10154920816421509,0.020039916038513184,0.05352473258972168,0.11800781637430191,-0.0011456700740382075,0.21652287244796753,0.01040350366383791,-0.11892203241586685,-0.06278626620769501,-0.06675846129655838,0.05426005274057388,0.1798577755689621,-0.07727973163127899,-0.08690132945775986,0.06592708081007004,0.1685083508491516,-0.00536123663187027,-0.04059061408042908,-0.024368010461330414,-0.027691908180713654,0.11697205901145935,0.017185106873512268,0.002314710756763816,0.15378570556640625,-0.32496413588523865,0.14603747427463531,0.07712878286838531,0.1469256430864334,0.05943978577852249,-0.11906611919403076,0.0358145609498024,0.11642564088106155,0.07542416453361511,-0.06253307312726974,0.12046882510185242,0.04219309613108635,0.010619303211569786,-0.09639142453670502,0.07571473717689514,0.09672214090824127,-0.367360919713974,-0.05823511257767677,0.1270507574081421,0.011975730769336224,0.047093454748392105,-0.05812245234847069,-0.08923028409481049,0.03570535406470299,-0.17706747353076935,-0.09211580455303192,-0.16095104813575745,-0.013928567990660667,0.020295530557632446,0.03677473962306976,-0.34708380699157715,-0.0968378335237503,-0.07607142627239227,0.07675319164991379,-0.04363076761364937,0.02038218080997467,0.08206939697265625,-0.21565856039524078,-0.059779759496450424,-0.1385800540447235,0.13712960481643677,0.0889274999499321,-0.16194644570350647,0.03552008420228958,0.04989548772573471,0.020087100565433502,-0.05393879860639572,0.11632736772298813,-0.2424396276473999,-0.10463426262140274,0.15989398956298828,0.05173728987574577,0.03362979739904404,0.10643531382083893,0.019311198964715004,0.10044896602630615,0.15803851187229156,0.07608649134635925,-0.029701871797442436,-0.26590496301651,-0.03259662166237831,-0.26615118980407715,0.03022955358028412,-0.3808540105819702,-0.055426862090826035,-0.2016063928604126,-0.025999723002314568,0.2201865315437317,-0.01345590129494667,0.04153212532401085,-0.14628687500953674,0.017541280016303062,0.20870240032672882,-0.05558904632925987,-0.24524669349193573,-0.2286209762096405,-0.1355796903371811,0.04776262491941452,0.07902442663908005,0.028199149295687675,0.04601551592350006,0.022998850792646408,0.049573417752981186,-0.0765744149684906,-0.0002548620104789734,0.05119048058986664,0.027263371273875237,0.04505239054560661,-0.04185545817017555,0.16048595309257507,-0.018256505951285362,0.05041822791099548,-0.0078206742182374,-0.04371403157711029,0.13205383718013763,-0.23406460881233215,-0.010517698712646961,0.05894223228096962,-0.13554587960243225,0.02620687708258629,-0.08595121651887894,0.08743748813867569,0.07159942388534546,-0.08859360218048096,0.0687965601682663,0.00990417879074812,-0.27431607246398926,-0.07386472076177597,0.01124771498143673,-0.0934508815407753,0.020890770480036736,-0.05016721412539482,-0.036294642835855484,-0.12595964968204498,-0.26182857155799866,0.12152516096830368,0.06302947551012039,-0.14981751143932343,0.09039311110973358,0.14583979547023773,0.11848308145999908,0.018580399453639984,0.05969495326280594,0.10744920372962952,0.02270697057247162,-0.13144811987876892,0.026413345709443092,-0.27109211683273315,0.06646426022052765,0.11273182183504105,-0.03591722249984741,-0.022931141778826714,0.10062635689973831,0.031552959233522415,-0.14720946550369263,-0.02637568674981594,-0.15965092182159424,-0.07399136573076248,0.10819299519062042,-0.12836821377277374,-0.29366061091423035,-0.31647858023643494,-0.17119328677654266,-0.14498035609722137,-0.15639805793762207,-0.059614237397909164,-0.23502598702907562,0.14317210018634796,0.06860490143299103,-0.013549373485147953,0.14037974178791046,-0.11857906728982925,-0.18358449637889862,-0.23960275948047638,-0.12427651137113571,-0.03639074042439461,-0.18417471647262573,0.10563240945339203,0.014846999198198318,0.10483382642269135,0.05134168267250061,0.12582604587078094,0.04559628665447235,0.0015695184702053666,0.03051058016717434,-0.12220669537782669,0.13001295924186707,-0.013728723861277103,0.12975594401359558,-0.10690323263406754,0.1921616792678833,-0.20858053863048553,0.0984611064195633,0.16020934283733368,-0.06677594780921936,-0.22250182926654816,-0.2157212495803833,-0.1159023866057396,-0.21686850488185883,0.026011303067207336,-0.1497696042060852,0.1959911584854126,-0.17804951965808868,0.1384468674659729,0.07709716260433197,-0.2695873975753784,-0.014297546818852425,0.05058293789625168,-0.10531575232744217,-0.1322997510433197,0.09929770231246948,-0.09500210732221603,-0.007498305290937424,-0.07090514898300171,-0.27665454149246216,-0.06789932399988174,-0.19184055924415588,0.07496204972267151,-0.17874692380428314,0.1182866021990776,0.03753556311130524,0.11969181895256042,0.02522435411810875,0.0603301115334034,0.14315372705459595,0.16068525612354279,0.036186765879392624,-0.11089678108692169,-0.043307602405548096,-0.030451102182269096,0.04105003550648689,-0.0010110157309100032,0.13084951043128967,0.0003572644491214305,-0.08174591511487961,-0.16496260464191437,0.04757252335548401,0.10826849937438965,-0.11135169118642807,-0.06756995618343353,0.07488977909088135,-0.09247252345085144,-0.15078695118427277,-0.1370520293712616,-0.016862014308571815,-0.01375687774270773,-0.00935747753828764,-0.008920338936150074,-0.003722907742485404,-0.13932792842388153,0.025993669405579567,0.038645755499601364,-0.15898935496807098,-0.03348544239997864,-0.08735468983650208,0.1474648416042328,-0.20214024186134338,-0.07900051772594452,0.048142123967409134,-0.18680645525455475,-0.07265577465295792,-0.06203799322247505,0.17753064632415771,-0.15564021468162537,-0.05409425124526024,0.04064790904521942,-0.2128591388463974,-0.10217826813459396,-0.10147704184055328,0.029555197805166245,-0.16194185614585876,-0.15727537870407104,-0.2732527554035187,-0.11866269260644913,-0.10766639560461044,-0.21880675852298737,0.304090678691864,-0.1373528689146042,0.09232331067323685,-0.11831357330083847,-0.10730475187301636,0.10005269944667816,-0.11450061202049255,0.04655836522579193,0.03431932255625725,0.06153731048107147,-0.13436497747898102,0.1390244960784912,0.06401169300079346,0.06939036399126053,0.09806473553180695,0.0790354311466217,0.061722882091999054,-0.0037937862798571587,0.1525505781173706,-0.10846831649541855,-0.03864007070660591,0.05215906351804733,-0.05555567890405655,-0.09681858867406845,-0.09631990641355515,0.017842309549450874,0.0016128300921991467,-0.06200851872563362,0.06319677084684372,-0.04046909138560295,0.03913438692688942,0.07957819104194641,-0.047613076865673065,-0.014167362824082375,0.031241504475474358,-0.06039164215326309,0.047237906605005264,-0.025636890903115273,0.08862724900245667,0.0466015599668026,0.2557016909122467,0.08863022923469543,0.02711869403719902,0.06727159768342972,-0.08560377359390259,0.007800640072673559,0.20769408345222473,-0.08332347869873047,0.10847403109073639,-0.12927603721618652,0.09079871326684952,0.1334909051656723,-0.2529414892196655,-0.07892969250679016,0.058104876428842545,0.06888525933027267,-0.1325528919696808,-0.03142238408327103,-0.0559963658452034,0.03882164508104324,0.09298105537891388,0.021796826273202896,-0.14509470760822296,0.14325425028800964,0.06649184972047806,0.15183892846107483,0.09034256637096405,0.11065134406089783,0.18269988894462585,0.024809351190924644,0.03470170870423317,-0.22783493995666504,0.13771577179431915,-0.11835319548845291,0.04016503691673279,-0.06301802396774292,0.21069778501987457,0.09100519865751266,-0.018157487735152245,0.21264462172985077,-0.2670726776123047,0.03402114287018776,-0.15367615222930908,0.0611797496676445,0.008885458111763,0.07533025741577148,0.03306419774889946,0.027626710012555122,-0.24659262597560883,-0.11888830363750458,-0.009655648842453957,-0.1929944008588791,0.03385242447257042,0.11295217275619507,-0.07123277336359024,-0.17500458657741547,-0.016478003934025764,0.01591864787042141,0.016870489344000816,-0.07964616268873215,0.08381210267543793,-0.01905832439661026,-0.14422723650932312,-0.11008928716182709,0.04100412502884865,-0.041599106043577194,-0.12128244340419769,-0.018112340942025185,0.042203761637210846,-0.04030030965805054,0.02454335056245327,0.09406330436468124,0.07362944632768631,0.08682787418365479,0.02650362439453602,-0.05777166783809662,-0.02239796333014965,-0.09131356328725815,0.03738066181540489,-0.058120954781770706,0.02407141402363777,0.07334781438112259,0.06355626881122589,-0.09272288531064987,0.09840027987957001,0.10986746847629547,0.05298919230699539,0.06536445021629333,0.03860669583082199,-0.004316532053053379,-0.010066610760986805,-0.037017300724983215,0.07820253819227219,-0.3081291615962982,-0.004201856441795826,0.025635885074734688,-0.04517776519060135,-0.18036267161369324,0.0670478418469429,-0.08457551896572113,-0.18465037643909454,-0.10980892181396484,-0.16296325623989105,-0.0254263486713171,-0.05336298793554306,0.07149950414896011,-0.08631906658411026,-0.013810788281261921,0.037517283111810684,0.008506678976118565,0.020773867145180702,-0.11286728829145432,0.13614307343959808,0.06634905934333801,-0.19151674211025238,0.03201918676495552,-0.03135387971997261,-0.005566444713622332,0.01983487233519554,-0.2719457745552063,0.07724367082118988,0.09398099035024643,0.13209784030914307,0.10120388120412827,-0.09738219529390335,-0.2044312059879303,-0.13062793016433716,0.048372142016887665,-0.431560218334198,-0.006085412111133337,0.04362140968441963,0.06863163411617279,0.06529967486858368,-0.013842814601957798,-0.0002207436045864597,0.0727696567773819,-0.0030639260075986385,0.03192823752760887,0.1763487011194229,0.02510734274983406,-0.2589576542377472,-0.09546057134866714,0.09694118052721024,-0.09604169428348541,-0.18082395195960999,0.014459683559834957,0.06027679517865181,0.13002833724021912,0.039097417145967484,0.008673354052007198,-0.1587156504392624,-0.07579591125249863,0.04060473293066025,-0.23679977655410767,-0.02708662673830986,0.04555480554699898,0.03340129554271698,0.09334328770637512,-0.009230132214725018,0.06954246759414673,-0.01770653948187828,0.11708401888608932,0.1444883793592453,-0.12284932285547256,0.0636059045791626,-0.3273259401321411,0.0779147520661354,-0.3670174777507782,0.053201865404844284,-0.12688814103603363,-0.026883263140916824,-0.0081612728536129,0.11278289556503296,0.01808982342481613,-0.024345070123672485,-0.10838311165571213,-0.0021110428497195244,0.06055055931210518,-0.04208005592226982,0.12195930629968643,0.06806458532810211,-0.046290379017591476,0.11227016150951385,0.08454412966966629,0.10297977924346924,0.15151381492614746,0.014998653903603554,0.07121460884809494,0.05180450156331062,0.13024553656578064,0.027886154130101204,-0.031166013330221176,-0.07089675962924957,0.1316097378730774,0.09764383733272552,-0.11206742376089096,-0.03567567467689514,0.12319260090589523,0.03594565764069557,-0.11514181643724442,0.07929673045873642,0.039009567350149155,-0.14947083592414856,-0.26437637209892273,0.06941331177949905,0.08416680991649628,0.00780184892937541,0.07662028074264526,-0.012914896942675114,0.05501323193311691,-0.003057121764868498,-0.21657449007034302,-0.02037951350212097,0.2214968353509903,-0.040219783782958984,0.006157380994409323,-0.20032677054405212,0.1054457351565361,-0.0032511907629668713,-0.0032296411227434874,0.10003349184989929,0.026573369279503822,-0.027047613635659218,0.07152030616998672,0.1081075444817543,-0.008265001699328423,0.09292174130678177,-0.08709285408258438,0.14133992791175842,0.12066701799631119,-0.023868544027209282,0.07843358814716339,-0.024465065449476242,0.056448519229888916,0.008422416634857655,0.06838430464267731,0.07466594129800797,-0.22850532829761505,0.07954807579517365,-0.012634956277906895,0.13844777643680573,0.10318269580602646,0.1006031334400177,-0.018794788047671318,-0.01020191702991724,6.692291935905814e-05,0.07679537683725357,0.011699104681611061,0.023157566785812378,-0.11053884774446487,-0.2198633998632431,-0.04451144114136696,0.05271831527352333,0.22546158730983734,0.07209688425064087,0.10307314246892929,-0.3343164324760437,-0.021735645830631256,-0.25330230593681335,0.09882853925228119,-0.1516132801771164,-0.032656230032444,-0.39984601736068726,0.06128140538930893,0.10223281383514404,0.04786869138479233,0.08339201658964157,-0.4048834443092346,-0.04157187044620514,0.14204947650432587,0.09142573922872543,-0.10353901982307434,0.06810400635004044,0.0636589303612709,-0.06518100947141647,-0.08388286083936691,-0.3675404489040375,0.10140109062194824,-0.15057076513767242,-0.11337985098361969,0.06430046260356903,-0.11452889442443848,0.037818532437086105,-0.046720247715711594,0.05447416752576828,0.008380110375583172,0.1092134416103363,-0.029280606657266617,-0.0660005509853363,-0.024589845910668373,-0.06779780983924866,-0.15864458680152893,-0.3672805726528168,0.016481492668390274,-0.12696827948093414,-0.0024012112990021706,-0.018421348184347153,-0.0836704671382904,-0.1520230621099472,-0.14817288517951965,-0.08836351335048676