{"shape": [10, 196]}
0.01316693052649498,0.07305323332548141,0.09334560483694077,0.01651129685342312,0.08314935863018036,0.014364863745868206,0.11383246630430222,0.05091661587357521,0.15072350203990936,0.08159005641937256,0.03654549643397331,0.11092996597290039,0.08533445745706558,0.09424156695604324,-0.003949557431042194,0.015484706498682499,0.08263206481933594,0.03122037835419178,0.002859783824533224,-0.029676051810383797,-0.095493845641613,-0.11522344499826431,-0.1488836109638214,-0.2053229659795761,-0.15549375116825104,-0.07349991798400879,0.01081717386841774,0.06345870345830917,0.04056791961193085,0.11557266116142273,0.01594555750489235,-0.03613843396306038,-0.11798551678657532,-0.0320415236055851,0.04907198250293732,0.13957463204860687,0.153360053896904,0.08161945641040802,0.002557440660893917,-0.005531678907573223,-0.13683117926120758,-0.00299029890447855,0.049564462155103683,-0.014394410885870457,-0.05486363172531128,-0.1589808315038681,-0.16694608330726624,-0.07106953114271164,-0.04162634164094925,0.060673732310533524,0.1904970407485962,0.11079592257738113,0.008684734813869,0.06447888910770416,-0.11362291127443314,-0.06682733446359634,0.11289564520120621,0.021347634494304657,-0.1025359258055687,-0.06864173710346222,-0.044733282178640366,-0.01031911838799715,0.09089669585227966,0.049001410603523254,0.20541968941688538,0.22870062291622162,0.08861637115478516,0.03949161618947983,0.05200880393385887,-0.10900523513555527,0.12702402472496033,0.03927666321396828,-0.08279663324356079,0.015720823779702187,-0.08260709792375565,0.019470060244202614,-0.005730712786316872,-0.12871268391609192,-0.11801303178071976,0.10031390190124512,0.12140239775180817,0.18522270023822784,0.15775153040885925,-0.12298581749200821,0.022761356085538864,0.0422104187309742,0.01780175045132637,0.02256392501294613,0.05702003836631775,0.06057005375623703,-0.1007649227976799,-0.5286527276039124,-0.31363552808761597,-0.10358920693397522,0.07641628384590149,0.2409408688545227,0.29058724641799927,-0.005781121086329222,0.09516020864248276,-0.0711672306060791,0.11525525897741318,0.16700918972492218,0.1624039113521576,0.16229741275310516,-0.23404701054096222,-0.5115802884101868,-0.2273358553647995,-0.028009111061692238,0.04797450080513954,0.15169037878513336,0.1596566140651703,0.061231449246406555,0.041201796382665634,-0.09387075155973434,0.0800592452287674,0.06319361925125122,0.21404960751533508,0.04942445456981659,-0.35155603289604187,-0.3361729085445404,-0.14738063514232635,0.11622121185064316,0.1129937618970871,0.06470619887113571,0.06888239085674286,0.09321575611829758,0.06341689825057983,-0.12108419835567474,0.02515500597655773,0.07154606282711029,0.16660992801189423,0.16434721648693085,-0.16861987113952637,-0.10366414487361908,0.0819484144449234,0.040864039212465286,-0.0179243516176939,0.02894800528883934,0.005093666259199381,0.08766641467809677,0.12992006540298462,-0.0640745684504509,0.024505894631147385,0.010380017571151257,0.07332760840654373,0.29437482357025146,0.10471674799919128,0.02136962115764618,-0.010484730824828148,-0.13321617245674133,-0.01225524302572012,0.011230058036744595,-0.04781133309006691,0.035191796720027924,0.06364627927541733,-0.041758131235837936,-0.044703856110572815,0.06668809801340103,0.11766146868467331,0.23494626581668854,0.17297311127185822,0.15808545053005219,0.030026521533727646,-0.060600414872169495,-0.07809396088123322,-0.04947449266910553,0.020989054813981056,0.024034682661294937,0.11758439987897873,0.040571898221969604,-0.018523840233683586,-0.17475736141204834,0.0062583694234490395,-0.001976492116227746,0.1354617178440094,-0.0034731838386505842,-0.11445097625255585,-0.14117954671382904,-0.10943809896707535,0.02040771208703518,0.005401922389864922,0.020858535543084145,0.09942188113927841,-0.002569542732089758,0.07364460825920105,0.05891542509198189,-0.04086931422352791,-0.09360261261463165,-0.1376357078552246,-0.09171198308467865,-0.06940752267837524,0.028965037316083908,-0.02200908400118351,0.0014562230790033937,0.008882955648005009,0.12213184684515,-0.0005145969917066395,-0.06138215586543083,-0.03249921277165413,0.00014235514390747994,-0.07854212820529938,-0.01520035695284605,-0.03869599848985672,-0.02857349067926407,-0.09764239192008972,-0.008114337921142578,-0.03779342770576477,-0.01705307513475418,0.026560209691524506,-0.04885947331786156,-0.07637491077184677,0.005776483099907637,0.03210967779159546,-0.002271998440846801,-0.010806087404489517,-0.12009382247924805,-0.11154885590076447,0.01095737423747778,-0.0899536982178688,-0.17895212769508362,-0.22055767476558685,-0.04729345440864563,-0.025613026693463326,0.03176425024867058,-0.0916205570101738,-0.015309907495975494,0.0743262842297554,-0.019542071968317032,-0.18910329043865204,-0.11087329685688019,0.06701498478651047,0.12447500973939896,0.04014920815825462,0.09590515494346619,0.19020943343639374,0.14300140738487244,-0.10228852182626724,-0.10934240370988846,-0.08181577175855637,-0.01516212709248066,0.018899457529187202,-0.18083834648132324,-0.25500762462615967,-0.2014302760362625,-0.17804072797298431,-0.21836517751216888,-0.2015882283449173,-0.10130771994590759,-0.051628369837999344,-0.09134144335985184,-0.17448864877223969,-0.08696377277374268,0.0171226654201746,-0.09405408054590225,-0.050183217972517014,-0.14079631865024567,-0.15718130767345428,-0.11959115415811539,-0.1149507537484169,0.16411978006362915,-0.05044044926762581,-0.16486330330371857,-0.1572304368019104,-0.2706528306007385,-0.3569154739379883,-0.05595274642109871,-0.09453947097063065,-0.09357243031263351,-0.12526899576187134,-0.12482943385839462,-0.17642958462238312,-0.1387086808681488,-0.06923099607229233,0.3630598783493042,-0.0051788464188575745,-0.12719692289829254,-0.25500401854515076,-0.27280309796333313,-0.2476932406425476,-0.0818241611123085,0.031000521034002304,-0.05429548770189285,-0.04054880142211914,-0.0980805978178978,-0.10748688131570816,-0.34009820222854614,0.15604336559772491,0.2266307771205902,0.09348062425851822,-0.14462910592556,-0.1762697547674179,-0.15673823654651642,-0.013028149493038654,-0.028172578662633896,-0.028056642040610313,0.02406439557671547,-0.08912881463766098,-0.13250407576560974,-0.21192727982997894,-0.2695195972919464,0.07743790000677109,0.23892183601856232,-0.027751760557293892,-0.35308942198753357,-0.17003124952316284,-0.1521904319524765,-0.06084775924682617,-0.07951726764440536,-0.031494248658418655,0.01824461854994297,-0.26131951808929443,-0.2954149842262268,-0.16334742307662964,-0.156954824924469,0.06565289944410324,0.21684987843036652,-0.2541826665401459,-0.34377390146255493,-0.1778073012828827,-0.003696913132444024,-0.017311114817857742,-0.07560529559850693,-0.10388652980327606,-0.0018335352651774883,-0.2946113646030426,-0.18662269413471222,-0.07240793108940125,-0.06252680718898773,0.17814134061336517,0.1035652607679367,-0.18954899907112122,-0.05987650156021118,0.05453512445092201,-0.00822646077722311,-0.09985613822937012,-0.05774601921439171,-0.08419159799814224,-0.005356904119253159,0.040327038615942,0.014779107645154,0.04180111736059189,-0.07174932956695557,-0.02060052379965782,-0.10083240270614624,-0.08129934221506119,0.11599982529878616,0.09352777898311615,0.00246066739782691,0.0007217630045488477,0.01102040708065033,-0.03846416994929314,-0.0010091658914461732,0.20129311084747314,0.15414424240589142,0.08342386037111282,-0.12786021828651428,-0.22882744669914246,-0.03877900540828705,0.14880941808223724,0.1563408225774765,0.04113592579960823,-0.12124565988779068,0.018847547471523285,0.029561132192611694,-0.09086530655622482,-0.018113428726792336,-0.10154405981302261,-0.11340311914682388,-0.1235656663775444,-0.1440497189760208,-0.12697309255599976,-0.05756646767258644,-0.11751317232847214,-0.08360716700553894,-0.1125987321138382,-0.044593315571546555,-0.07376490533351898,-0.002798047149553895,-0.0072495280764997005,-0.09418442100286484,0.016328494995832443,-0.06744000315666199,-0.044424787163734436,-0.18047350645065308,-0.21615009009838104,-0.12116304039955139,-0.04374668002128601,-0.007896631956100464,-0.07820563018321991,0.031342003494501114,-0.06216396763920784,0.024657316505908966,-0.03578917682170868,0.005215880926698446,-0.10822369903326035,-0.1205730140209198,-0.07375801354646683,-0.07762645930051804,-0.016499901190400124,-0.06068430840969086,-0.0485321506857872,-0.05501937121152878,-0.0735076442360878,-0.0014034447958692908,-0.0897798165678978,-0.08465487509965897,-0.013669220730662346,-0.09918307512998581,-0.012626864947378635,-0.011962305754423141,0.0854184478521347,0.1995519995689392,0.1796722710132599,0.002556218532845378,0.059919826686382294,-0.09414342790842056,-0.1513596475124359,-0.08421280980110168,0.007285865023732185,-0.0906025841832161,-0.05032065510749817,-0.04148368537425995,-0.0344284288585186,0.09723484516143799,0.1321033388376236,0.09944020211696625,0.13216742873191833,0.17668654024600983,0.11666032671928406,0.07617459446191788,-0.030771618708968163,-0.14391575753688812,-0.22943133115768433,-0.028504716232419014,0.005086198914796114,-0.03251517564058304,0.09144074469804764,0.0675521194934845,0.04900724068284035,0.06332597881555557,-0.006109693553298712,0.04176633059978485,-0.010440094396471977,-0.013376829214394093,-0.05129149556159973,-0.10269725322723389,-0.33859890699386597,-0.0023311860859394073,-0.08754202723503113,0.004689779598265886,0.12066172063350677,0.08403128385543823,-0.010935168713331223,0.08072390407323837,-0.0016668775351718068,0.060548730194568634,0.003554381662979722,0.0013315863907337189,-0.005296679213643074,-0.0009024786413647234,-0.40349912643432617,-0.012247496284544468,-0.12161359935998917,-0.07345997542142868,0.0510544516146183,-0.22481776773929596,-0.16785244643688202,-0.2120676338672638,-0.4040603041648865,-0.24157533049583435,-0.06302287429571152,-0.03198249265551567,0.05324959009885788,-0.1054568812251091,-0.12841777503490448,-0.02637363225221634,-0.0742589682340622,-0.14909245073795319,-0.4284343719482422,-0.46906283497810364,-0.35000258684158325,-0.2610056698322296,-0.3051432967185974,-0.2120535969734192,-0.15849874913692474,-0.07389944046735764,-0.01652422733604908,-0.10961783677339554,0.06051408126950264,0.20292305946350098,-0.01809423416852951,0.003489017253741622,-0.1378248780965805,-0.09316862374544144,-0.06609243899583817,0.04474317282438278,0.16990359127521515,0.08716680854558945,-0.09796204417943954,-0.024726862087845802,-0.0685177743434906,-0.1919378787279129,0.27005642652511597,0.17915891110897064,-0.08788307756185532,0.09326338022947311,0.15975508093833923,0.07356677949428558,0.06155167520046234,0.06129959598183632,0.22134684026241302,0.12738683819770813,0.04603302478790283,0.002824289258569479,0.024822594597935677,0.12991170585155487,0.282636433839798,0.2477315366268158,-0.04708551988005638,0.1419103592634201,0.20338131487369537,0.12758640944957733,0.09011508524417877,0.17265301942825317,0.23117512464523315,0.09560096263885498,0.10859837383031845,0.03354840353131294,0.09572594612836838,0.166158989071846,0.3429659903049469,0.06765412539243698,-0.02521570213139057,0.027024097740650177,0.08779726922512054,0.1708853393793106,0.19426307082176208,0.1376674324274063,0.01397100742906332,0.07045385241508484,0.04769635945558548,0.15889383852481842,0.16834965348243713,0.16005434095859528,0.16179415583610535,-0.03555856645107269,-0.0777033120393753,0.044063080102205276,0.07942172884941101,0.09312989562749863,0.13504715263843536,0.02661585994064808,-0.0612185001373291,-0.15675948560237885,-0.018459567800164223,0.18377208709716797,0.16051924228668213,0.1980353146791458,0.05238259583711624,-0.09645583480596542,-0.08435634523630142,-0.062369901686906815,-0.17258678376674652,-0.28019511699676514,-0.14222174882888794,-0.16301655769348145,-0.028402576223015785,-0.03743628039956093,-0.08826293051242828,-0.07016003876924515,-0.0969737246632576,-0.010051771998405457,0.0023699861485511065,-0.04346310719847679,-0.11389025300741196,-0.10007505118846893,-0.0020126118324697018,-0.02203865721821785,-0.08267718553543091,-0.12109252065420151,-0.06527365744113922,-0.14093409478664398,-0.10635776817798615,-0.13889914751052856,-0.027531489729881287,0.007898765616118908,-0.00782693736255169,-0.09825772792100906,-0.07871817797422409,-0.046005237847566605,0.03004171885550022,-0.04646797850728035,-0.03737417235970497,0.04152706265449524,0.02440711110830307,-0.08841689676046371,0.025594482198357582,-0.04753171652555466,-0.06703819334506989,-0.07725893706083298,-0.0510384775698185,0.030860060825943947,-0.04887237772345543,-0.0057506076991558075,0.07360559701919556,0.040888648480176926,0.06677974760532379,0.10137420892715454,0.18260620534420013,0.1136421486735344,0.08981684595346451,0.01362078171223402,-0.036913350224494934,-0.07700849324464798,-0.05682612210512161,-0.07595394551753998,-0.07866428047418594,0.008506703190505505,0.21654018759727478,0.14966051280498505,0.08734572678804398,0.08083321899175644,0.023808112367987633,0.04667617753148079,0.050849977880716324,-0.037867702543735504,-0.11107097566127777,-0.2159491926431656,-0.10609541833400726,-0.03993579372763634,0.040678154677152634,0.01843104138970375,0.252743661403656,0.08432761579751968,0.15454784035682678,0.1329093873500824,0.11848193407058716,0.06449586153030396,0.045338939875364304,-0.03486785665154457,-0.017473071813583374,-0.22436104714870453,-0.2860668897628784,-0.06092095002532005,-0.027067143470048904,0.11294880509376526,0.21109454333782196,0.1408001184463501,-0.06185108423233032,-0.15158845484256744,-0.09922140091657639,0.14099514484405518,0.15789783000946045,0.11044055968523026,0.0761384442448616,-0.020664647221565247,-0.31730470061302185,-0.07537706941366196,0.04589178040623665,0.15642979741096497,0.038884248584508896,-0.1816340684890747,-0.22572961449623108,-0.32512393593788147,-0.0834612101316452,0.20099110901355743,0.11085887998342514,0.11701358109712601,0.11120697855949402,-0.07065720856189728,-0.22940529882907867,0.006953381467610598,-0.01797524280846119,0.03485915809869766,-0.15014156699180603,-0.3112896680831909,-0.17057660222053528,-0.045278310775756836,0.1366473138332367,0.2492399364709854,0.06709498912096024,0.06428548693656921,-0.1725819706916809,-0.32014626264572144,-0.11388463526964188,-0.05971236526966095,0.009081610478460789,-0.0037440485320985317,-0.10330759733915329,-0.19376817345619202,-0.12417975813150406,-0.0012858676491305232,0.045202143490314484,0.09360460937023163,-0.008230225183069706,0.08919896185398102,-0.0020747415255755186,-0.08295159786939621,-0.09332432597875595,-0.0817587599158287,-0.020267948508262634,0.236159086227417,0.05763030797243118,-0.0992884635925293,-0.24821022152900696,-0.19921155273914337,-0.17191609740257263,-0.06809175759553909,0.00551603501662612,0.15270188450813293,0.11406905204057693,0.12541702389717102,-0.05557801574468613,0.006948158144950867,-0.06866457313299179,0.34394553303718567,0.30876946449279785,0.0015203577931970358,-0.07359437644481659,-0.27805763483047485,-0.2273230254650116,-0.09948716312646866,0.15300120413303375,0.1204448863863945,0.1091001108288765,0.12572519481182098,-0.2414328008890152,0.0018100441666319966,-0.009829009883105755,0.2917085587978363,0.20507661998271942,0.22411969304084778,0.07560759782791138,-0.09161227941513062,-0.0754535123705864,0.08067429810762405,0.13301981985569,0.1338718980550766,0.07806066423654556,-0.1311136782169342,-0.20488809049129486,-0.005955193191766739,0.028924500569701195,0.14856138825416565,0.15520432591438293,0.09804677963256836,0.10749374330043793,0.12565726041793823,-0.013913814909756184,0.04176856577396393,0.02920449711382389,0.04394802451133728,0.008524531498551369,-0.1589629352092743,-0.06530114263296127,-0.04727315157651901,-0.07465703040361404,0.12210613489151001,0.18384315073490143,0.2582913339138031,0.13562221825122833,0.13005100190639496,0.1330500841140747,0.07047832012176514,0.019106581807136536,-0.07826833426952362,-0.07564655691385269,0.004590288270264864,-0.03121170587837696,-0.03513640537858009,0.013417324982583523,0.007275502663105726,0.010173044167459011,-0.0244680717587471,0.0029966658912599087,-0.02134530432522297,0.019206643104553223,-0.10524927079677582,0.011055639944970608,-0.025033505633473396,0.03896067291498184,-0.0009205267997458577,0.03835528716444969,-0.04724123701453209,0.0939301922917366,0.02814880944788456,0.06854330748319626,0.06547397375106812,0.07319551706314087,-0.004835987463593483,-0.05277969315648079,0.07651946693658829,0.004581820219755173,0.08996911346912384,-0.021908313035964966,0.09011051058769226,0.12010563164949417,0.08164519816637039,0.10733214765787125,0.02644788846373558,0.059566933661699295,0.026247378438711166,-0.19636355340480804,-0.26631873846054077,-0.382596492767334,-0.2853342294692993,-0.1762002855539322,-0.048043180257081985,-0.0009418909321539104,-0.02108229324221611,-0.03197205439209938,0.009885473176836967,0.07650858908891678,0.08950932323932648,0.07563654333353043,0.07907439768314362,0.08482902497053146,-0.07989510148763657,-0.03465797007083893,0.05844803526997566,0.1332848072052002,0.14685316383838654,0.15009915828704834,0.2698931396007538,0.1766156256198883,-0.01897035725414753,0.02673587016761303,0.022927580401301384,0.1469590663909912,0.05328354611992836,0.017360802739858627,-0.09149108827114105,-0.23499968647956848,-0.3207390606403351,-0.24994295835494995,-0.01992638409137726,-0.0008796253241598606,0.1656913161277771,0.14299634099006653,0.043484412133693695,0.07949145883321762,-0.0118261082097888,-0.12136466801166534,-0.05784597992897034,-0.14068946242332458,-0.05124026536941528,-0.14056554436683655,-0.35437771677970886,-0.15334919095039368,-0.03821223974227905,-0.040202029049396515,-0.02820960059762001,-0.05144766718149185,-0.043693721294403076,-0.008135819807648659,-0.07287973165512085,-0.146257221698761,-0.050168223679065704,0.0954117402434349,0.19772730767726898,-0.016942856833338737,-0.3201017677783966,0.18230478465557098,-0.035277046263217926,-0.10888068377971649,-0.11978787928819656,-0.2942720353603363,-0.03071277216076851,0.00796513818204403,-0.07075703144073486,-0.021078644320368767,0.1587957739830017,0.22263742983341217,0.34150198101997375,0.15249185264110565,-0.14089332520961761,0.2827095687389374,0.058039166033267975,0.1435290426015854,0.036548059433698654,-0.13678236305713654,0.03063233382999897,0.01342509314417839,-0.015256669372320175,0.06907719373703003,0.23764082789421082,0.21557970345020294,0.19917695224285126,0.07729127258062363,0.05931893736124039,0.289490669965744,0.19997790455818176,0.19014161825180054,0.05839257314801216,-0.10430248081684113,-0.038152601569890976,0.07223217934370041,-0.10321620106697083,0.02534560300409794,0.07534361630678177,0.10303465276956558,-0.019406648352742195,0.08736083656549454,0.28802067041397095,0.23696790635585785,0.07130566984415054,0.029279153794050217,-0.036226749420166016,-0.1684357225894928,0.023915385827422142,0.053019922226667404,-0.0688224509358406,-0.19250623881816864,-0.17708070576190948,-0.1977199912071228,-0.22336895763874054,0.021050043404102325,0.18108367919921875,-0.05158807709813118,-0.18659254908561707,-0.1264365166425705,-0.21476541459560394,-0.10820762813091278,-0.015531837940216064,-0.002692373236641288,-0.007872059009969234,-0.22650748491287231,-0.27931398153305054,-0.3482113182544708,-0.28051725029945374,-0.15572790801525116,-0.030862728133797646,-0.11833098530769348,-0.147690087556839,-0.1918463259935379,-0.19346217811107635,-0.05893348157405853,0.07195258140563965,0.051797207444906235,0.022814761847257614,-0.15197068452835083,-0.2501239776611328,-0.09367000311613083,-0.11569327861070633,-0.16242974996566772,-0.12699104845523834,0.02070809341967106,0.016670502722263336,0.1702452301979065,0.09971141070127487,0.0013394815614446998,0.12066562473773956,0.1125117614865303,0.06091190129518509,-0.04225151613354683,-0.052217334508895874,0.014799048192799091,-0.012817393988370895,-0.05299976468086243,0.0030518779531121254,-0.023900236934423447,0.0693540945649147,-0.0028351284563541412,0.09835672378540039,0.007598715368658304,0.035220809280872345,0.08814262598752975,0.0823962539434433,0.06807709485292435,-0.0839489996433258,-0.2733418047428131,-0.2797878682613373,-0.3853829503059387,-0.36988890171051025,-0.293995201587677,-0.17628125846385956,-0.06353181600570679,-0.00624036742374301,0.019099384546279907,0.10596255213022232,-0.14815329015254974,-0.13767261803150177,-0.15794144570827484,-0.18922054767608643,-0.16193048655986786,-0.08002806454896927,-0.08301577717065811,-0.09593653678894043,-0.1251300573348999,-0.09863878786563873,-0.13367736339569092,-0.11541631817817688,-0.18630455434322357,-0.1745060384273529,-0.08145458251237869,-0.0833130031824112,-0.1533784121274948,-0.07570898532867432,-0.14505381882190704,-0.21120625734329224,-0.16037559509277344,-0.19737404584884644,-0.021721916273236275,-0.024516040459275246,-0.012078946456313133,-0.07545405626296997,-0.09935297816991806,-0.094057098031044,-0.13191787898540497,-0.09598202258348465,-0.2449047863483429,-0.1775776743888855,-0.04782506078481674,-0.0442342646420002,-0.10726401209831238,-0.06329295039176941,-0.0009974457789212465,0.06814698874950409,0.07041577994823456,0.144887775182724,0.11498153954744339,-0.028956647962331772,-0.1967468112707138,-0.21712712943553925,-0.21829475462436676,-0.07259214669466019,-0.0034093803260475397,0.02597648836672306,-0.0598994679749012,-0.09938416630029678,-0.04199223592877388,0.10497624427080154,0.1042809933423996,0.1053837388753891,0.24092091619968414,0.08659101277589798,-0.08780664205551147,-0.2918567657470703,-0.22903840243816376,-0.07216726988554001,0.012344949878752232,0.1604059636592865,-0.019285375252366066,-0.21698684990406036,-0.2096918225288391,-0.09392617642879486,0.049747224897146225,0.24590514600276947,0.609804630279541,0.1780555099248886,-0.06080714985728264,-0.18131032586097717,-0.0752238854765892,0.12196661531925201,0.13300853967666626,0.13994912803173065,0.21008126437664032,-0.09042609483003616,-0.26800715923309326,-0.22052325308322906,-0.26813408732414246,-0.1505252867937088,0.4914524555206299,0.15555793046951294,-0.07453214377164841,-0.14118029177188873,0.04669911786913872,0.005953154526650906,0.03132772073149681,0.1906101256608963,0.15997344255447388,-0.03350403532385826,-0.20195654034614563,-0.18252137303352356,-0.19812503457069397,-0.5045258402824402,-0.3604980409145355,-0.1346820741891861,-0.11476641893386841,-0.15487070381641388,-0.16855856776237488,-0.09774657338857651,0.0170455202460289,0.1586281806230545,0.03629126772284508,-0.18248508870601654,-0.22367218136787415,-0.04697556421160698,0.005574514623731375,-0.14623047411441803,-0.13958004117012024,-0.19264784455299377,-0.1340973824262619,-0.023491250351071358,-0.029395144432783127,-0.1395028680562973,-0.16838695108890533,-0.22487880289554596,-0.22078655660152435,-0.1835322380065918,-0.12159383296966553,0.06889261305332184,0.033811841160058975,0.0006425075116567314,-0.02088785171508789,-0.20846733450889587,-0.17528127133846283,-0.04986586421728134,0.1533651500940323,0.11023247987031937,-0.0501154363155365,-0.16347859799861908,-0.08854714035987854,-0.07076995819807053,0.04296565428376198,0.050398435443639755,0.06361059844493866,0.11331404000520706,0.03711337968707085,-0.12004607915878296,-0.0742221549153328,-0.08378416299819946,0.07291536033153534,0.16397807002067566,0.1520603746175766,0.13179995119571686,0.061651699244976044,0.0883738175034523,0.05267789959907532,0.0818721130490303,0.06644212454557419,0.21418744325637817,-0.046440958976745605,-0.06625554710626602,-0.11887424439191818,-0.11847241222858429,-0.08008577674627304,-0.04014419764280319,0.05749714747071266,0.06771627068519592,0.03185540437698364,0.041569117456674576,0.035903703421354294,0.037829264998435974,0.11447512358427048,0.1326061338186264,-0.03699737787246704,-0.11909712851047516,-0.12710830569267273,-0.09994705021381378,-0.11115993559360504,-0.055721864104270935,0.11184574663639069,0.07669813930988312,0.16934266686439514,0.13608981668949127,-0.010062655434012413,0.025278249755501747,-0.004696949385106564,0.020708225667476654,-0.1565094143152237,-0.10567476600408554,-0.10877909511327744,-0.06916625052690506,-0.16193170845508575,-0.1637388914823532,-0.15927648544311523,-0.06388396769762039,-0.1106792539358139,-0.05446198210120201,-0.13499853014945984,-0.10779999941587448,-0.1362968534231186,-0.04473860189318657,-0.11044728755950928,-0.0842423364520073,-0.008717594668269157,0.06298863887786865,-0.020127171650528908,0.05255215987563133,0.10415348410606384,0.06786420941352844,0.11060097068548203,0.07592722773551941,-0.013822540640830994,0.0442553348839283,0.10641688853502274,-0.001065102987922728,-0.016962513327598572,0.039621125906705856,0.09393975138664246,-0.01566258817911148,0.012252596206963062,0.17576481401920319,0.17750678956508636,0.30073118209838867,0.20755627751350403,0.14935928583145142,0.1798490583896637,0.2294909507036209,0.25050997734069824,0.26356202363967896,0.15612883865833282,-0.012398461811244488,0.01814606785774231,1.983740003197454e-05,-0.04833667725324631,-0.014694604091346264,-0.025264279916882515,-0.08900319039821625,-0.16724294424057007,-0.010791754350066185,0.05211552605032921,0.1843838095664978,0.29730844497680664,0.21507613360881805,0.21922628581523895,0.07435299456119537,-0.002381228841841221,0.04277753084897995,-0.06334494799375534,-0.038418788462877274,-0.14386586844921112,-0.12793320417404175,-0.17575812339782715,-0.14325885474681854,-0.16147030889987946,-0.1659073680639267,-0.14617639780044556,-0.07415803521871567,-0.06532112509012222,-0.04038992524147034,0.012049122713506222,0.010326316580176353,-0.21885816752910614,-0.08189351111650467,-0.12437896430492401,-0.08663012087345123,-0.09228021651506424,-0.1556285321712494,-0.29187336564064026,-0.33890029788017273,-0.22376294434070587,-0.1789109706878662,-0.2901346981525421,-0.0395364910364151,0.05674745514988899,-0.028121864423155785,-0.16772745549678802,0.04785926267504692,0.019992705434560776,-0.058981753885746,0.03204778581857681,-0.2561284899711609,-0.30620357394218445,-0.2302747219800949,-0.08715689182281494,0.068044014275074,-0.09491612762212753,-0.09792452305555344,0.03350985795259476,-0.08718139678239822,-0.061838019639253616,0.078254334628582,0.0685148611664772,0.12495408952236176,-0.03198492154479027,-0.07724986970424652,-0.07076449692249298,-0.0642123892903328,0.12167992442846298,0.3032270073890686,0.29641133546829224,-0.09960509836673737,0.028523175045847893,-0.041003406047821045,-0.03729473054409027,0.07328765839338303,0.06407057493925095,0.24505744874477386,0.022672027349472046,0.1753942221403122,0.004600420594215393,-0.06435412913560867,0.07195350527763367,0.1718139946460724,0.0900205597281456,-0.09965893626213074,0.09036941826343536,-0.07880780845880508,-0.11395466327667236,0.028963740915060043,0.21622596681118011,0.23035256564617157,0.1504325270652771,0.07826321572065353,-0.09208935499191284,0.08789071440696716,0.08858109265565872,0.049650028347969055,-0.04650169983506203,-0.1318032294511795,0.10129118710756302,-0.06325713545084,-0.33883827924728394,-0.036872465163469315,0.09104149788618088,0.30246850848197937,0.17631420493125916,0.05564682185649872,0.17119289934635162,0.15509970486164093,-0.0052727931179106236,0.01187506876885891,-0.06217470392584801,0.03572795167565346,0.04320882633328438,-0.0006056088604964316,-0.3101174533367157,-0.17942623794078827,-0.03448914736509323,0.3106256127357483,0.32003054022789,0.34340909123420715,0.23608367145061493,0.11537318676710129,0.050603773444890976,-0.10372895002365112,-0.02953230030834675,-0.019551990553736687,0.04062196984887123,0.05798155441880226,-0.2203807532787323,-0.2756752073764801,-0.08625633269548416,-0.0720299780368805,-0.004596631042659283,-0.011153650470077991,-0.07357015460729599,-0.047999169677495956,-0.09184262156486511,-0.14669351279735565,-0.07348746061325073,0.0773637667298317,0.038624223321676254,0.020939817652106285,-0.019495362415909767,-0.08656653016805649,-0.2104017436504364,-0.24432344734668732,-0.25299352407455444,-0.2401183545589447,-0.22885137796401978,-0.1877756118774414,-0.01783679984509945,-0.016498878598213196,-0.0008098440011963248,0.07390287518501282,0.06452637165784836,0.011704396456480026,-0.018425947055220604,0.010510279797017574,0.005542607977986336,-0.04153171554207802,-0.061425503343343735,-0.0897822305560112,-0.02857338637113571,0.003219166537746787,0.035543400794267654,-0.005769644398242235,0.048211824148893356,-0.004696092568337917,-0.1058262288570404,-0.10125622153282166,-0.05265972018241882,0.0025016269646584988,-0.11243721842765808,-0.11444836109876633,-0.03762361407279968,-0.07748901844024658,-0.010532215237617493,-0.09481940418481827,-0.03519972041249275,-0.09386961907148361,0.00134781445376575,-0.03903405740857124,-0.1039295643568039,-0.11418168246746063,-0.008488766849040985,-0.11043670028448105,-0.1883147656917572,-0.10983476042747498,-0.16676796972751617,-0.19650447368621826,-0.09857325255870819,-0.17022322118282318,-0.12778340280056,-0.10378840565681458,-0.026369215920567513,-0.11075453460216522,-0.05673857033252716,-0.07027655094861984,-0.03855811804533005,-0.044869109988212585,-0.041644349694252014,-0.18442660570144653,-0.22950270771980286,-0.2046135663986206,-0.2764858305454254,-0.29194754362106323,-0.2439122498035431,-0.26161906123161316,-0.1129620224237442,-0.08706079423427582,-0.04248720034956932,-0.015852395445108414,0.201938197016716,0.19230268895626068,0.18356488645076752,0.05221325904130936,0.032422985881567,-0.12176566570997238,0.005832295399159193,0.04208402335643768,-0.019672276452183723,-0.12446681410074234,-0.18209443986415863,-0.13931722939014435,0.005409657023847103,0.2609694004058838,0.1482919156551361,0.1309395581483841,0.04949651658535004,0.1413121223449707,0.10172348469495773,0.18300065398216248,0.2605186104774475,0.08299362659454346,0.04924197867512703,-0.010008945129811764,-0.2743583619594574,-0.09868501871824265,-0.032403238117694855,0.2693457007408142,0.09338627010583878,0.003420314285904169,0.07959491014480591,-0.018361348658800125,0.016685310751199722,0.21928806602954865,0.3416385352611542,0.18572290241718292,0.11286977678537369,0.009032412432134151,-0.22280409932136536,-0.1039765402674675,-0.01162513718008995,0.2442605197429657,0.10470329970121384,0.029444795101881027,-0.020690592005848885,-0.197617769241333,-0.5051315426826477,-0.1341090351343155,0.14347021281719208,0.0649091973900795,0.036826830357313156,-0.08506932109594345,-0.17478370666503906,-0.09362243860960007,-0.004809791222214699,0.08273671567440033,0.04804248735308647,-0.03745800256729126,-0.07776465266942978,-0.3239552974700928,-0.5164117217063904,-0.1635419726371765,0.10995633900165558,0.2611686587333679,0.22268304228782654,0.11895006895065308,-0.052658725529909134,-0.06777137517929077,-0.10426372289657593,0.0156977828592062,-0.10262852907180786,-0.06022963300347328,-0.13960616290569305,-0.2533580958843231,-0.2132541686296463,-0.028036288917064667,0.03537869080901146,0.13176831603050232,0.13375665247440338,-0.05899292975664139,-0.05767381563782692,-0.0734199732542038,-0.10814910382032394,-0.12063243985176086,-0.14833788573741913,-0.2693324089050293,-0.27146947383880615,-0.21247264742851257,0.016304723918437958,-0.006426448002457619,-0.12138590216636658,-0.18655456602573395,-0.18132992088794708,-0.19215723872184753,-0.23309926688671112,-0.08435004949569702,-0.05464895814657211,-0.14607428014278412,-0.1524355113506317,-0.17557339370250702,-0.16977760195732117,-0.0694817453622818,-0.016066307201981544,-0.04986011981964111,-0.2421005368232727,-0.240967258810997,-0.30488088726997375,-0.36630094051361084,-0.05245229974389076,-0.0966336652636528,-0.002471843734383583,-0.09278443455696106,0.004413777496665716,0.05712897703051567,-0.012043878436088562,-0.06562589854001999,-0.06415893137454987,-0.07599780708551407,-0.08727728575468063,-0.3127121925354004,-0.28839898109436035,-0.2561971843242645,-0.1292904019355774,-0.09497182071208954,-0.0374298058450222,0.0046551283448934555,0.18038716912269592,0.23203499615192413,0.14958521723747253,0.11424016952514648,0.11233081668615341,0.17914104461669922,0.11081994324922562,-0.08139102905988693,-0.11045864969491959,-0.15279173851013184,-0.1345445215702057,-0.04562748596072197,-0.1121077686548233,-0.10681935399770737,-0.029395297169685364,0.0688665360212326,0.1940740942955017,0.1915903240442276,0.1739901602268219,0.231369286775589,0.2308768779039383,0.25418931245803833,0.011532395146787167,0.04325982555747032,-0.11920221894979477,-0.06881672143936157,0.05925752595067024,0.05720306560397148,0.16355325281620026,0.12883786857128143,0.15823954343795776,0.06504281610250473,0.15956036746501923,0.14344115555286407,0.17227815091609955,0.1324397623538971,0.13976432383060455,0.17695005238056183,0.06309020519256592,0.055087704211473465,0.06714431196451187,0.09993714839220047,0.07709860801696777,0.03088415041565895,0.025916090235114098,0.004862422123551369,-0.12314499914646149,-0.11664476245641708,-0.08229991048574448,-0.07183170318603516,0.018846912309527397,0.11361464858055115,0.09583284705877304,0.06375671923160553,0.13795782625675201,0.09518592059612274,0.035752370953559875,0.003414014121517539,0.0088655399158597,0.02115672454237938,0.14714907109737396,0.09555040299892426,0.16274648904800415,0.054573819041252136,0.09190090745687485,0.02610142156481743,0.010252725332975388,0.10581721365451813,0.13309688866138458,0.06894893944263458,-0.11682316660881042,-0.07223324477672577,-0.014645096845924854,0.011118329130113125,0.049447618424892426,0.14252504706382751,0.10314399749040604,0.08631154894828796,0.03417971357703209,0.02880769781768322,0.1864021122455597,0.07620126008987427,0.1310786008834839,0.10271836072206497,0.0073796166107058525,0.04050743579864502,0.10343670845031738,0.12062039226293564,0.014874889515340328,-0.16390706598758698,-0.0875556468963623,0.07681939005851746,0.10847080498933792,0.1032630056142807,0.11284566670656204,0.09099097549915314,0.10827603936195374,0.004139501601457596,0.06725014746189117,0.1982770711183548,0.1924431473016739,0.14956817030906677,0.17042824625968933,-0.04732358083128929,-0.09634131193161011,0.06635262817144394,0.15987122058868408,0.2516233026981354,0.1352580487728119,0.1064494401216507,0.11598587036132812,0.06330697238445282,0.10458061099052429,-0.013719958253204823,0.027707414701581,0.0454685240983963,0.28705188632011414,0.17083343863487244,0.105486661195755,-0.004727089311927557,0.137248232960701,0.1684141606092453,0.24205243587493896,0.15004876255989075,0.16081713140010834,0.13541023433208466,-0.19170691072940826,-0.2320466935634613,-0.21467769145965576,0.04796513915061951,0.31379348039627075,0.22225476801395416,0.03384654223918915,-0.11875903606414795,-0.20940518379211426,-0.23894459009170532,-0.06660852581262589,0.09429553151130676,0.046019334346055984,0.08705016225576401,-0.17811527848243713,-0.07967653125524521,-0.006767584476619959,0.1719149798154831,0.209791898727417,0.05572403967380524,-0.044467393308877945,-0.1385205239057541,-0.11507756263017654,-0.07041200995445251,-0.0018044669413939118,0.13850317895412445,0.15392331779003143,-0.05602534860372543,-0.04381362721323967,0.03675462678074837,0.15589456260204315,0.13750872015953064,0.07670547068119049,-0.13867034018039703,-0.08688396215438843,-0.0793924629688263,-0.01273388508707285,-0.015733757987618446,0.006707289721816778,0.06094330549240112,0.17483890056610107,-0.02882647141814232,-0.03742697834968567,0.08479969203472137,0.028138870373368263,-0.061646003276109695,-0.1044255942106247,-0.05794525146484375,-0.06052340567111969,-0.03268015757203102,0.025012431666254997,0.05200214684009552,-0.0828259214758873,0.036585744470357895,0.06271851807832718,0.0001334143162239343,-0.13803240656852722,0.04857169836759567,-0.058597974479198456,0.09106630086898804,0.27361392974853516,0.26535338163375854,0.1428229659795761,0.07814385741949081,-0.004978048615157604,0.028437700122594833,0.003964312840253115,0.03301352635025978,0.11151336878538132,0.08960271626710892,-0.18601363897323608,-0.27428215742111206,-0.023008206859230995,-0.027858780696988106,0.04543200507760048,0.04325726628303528,0.1049504280090332,0.13910667598247528,0.12059098482131958,0.01823587343096733,0.126846581697464,0.10775036364793777,0.15771767497062683,0.06473302841186523,0.04905998334288597,0.008620739914476871,-0.04229793697595596,-0.05408499017357826,-0.1402767151594162,-0.11176459491252899,6.226167170098051e-05,0.07245778292417526,0.15241774916648865,0.06358993798494339,0.1593826711177826,0.12824159860610962,0.047069814056158066,0.07315339148044586,-0.010016372427344322,0.03932839259505272,0.07469334453344345,0.08580679446458817,0.008938102051615715,0.038655225187540054,0.0026595788076519966,0.08165495842695236,-0.006868114694952965,-0.016206320375204086,-0.015670279040932655,0.06708361208438873,0.10111406445503235,0.12123361229896545,0.1050085723400116,0.01339248102158308,0.055383071303367615,-0.07546752691268921,-0.05045090243220329,-0.17917226254940033,-0.226301908493042,-0.07828919589519501,-0.0010693606454879045,0.04871350899338722,0.026269828900694847,-0.01748303696513176,0.008471895009279251,0.08275549113750458,0.027524303644895554,-0.0977880135178566,-0.13770492374897003,-0.0677904337644577,-0.04587231203913689,-0.1933833658695221,-0.22458317875862122,-0.20508888363838196,-0.19381071627140045,-0.2265118956565857,-0.08340337127447128,0.06580425798892975,-0.017412742599844933,-0.018040526658296585,-0.1992928385734558,-0.2539978623390198,-0.026299117133021355,-0.022700781002640724,0.17410539090633392,0.38086992502212524,0.31062886118888855,0.07024449110031128,-0.025901995599269867,-0.2836795747280121,-0.2632783353328705,-0.06236579269170761,-0.03994414582848549,-0.04004721716046333,-0.20245707035064697,-0.07404088973999023,-0.0695151537656784,0.07163674384355545,0.13496728241443634,0.09179209172725677,0.006864367984235287,-0.04005458950996399,-0.10342429578304291,-0.2033035010099411,-0.25067684054374695,0.017762068659067154,0.039467088878154755,-0.07153337448835373,0.07350783795118332,0.1293029487133026,0.1903935819864273,0.16672928631305695,-0.06741653382778168,-0.09813398867845535,0.037691909819841385,0.17347809672355652,0.17297999560832977,0.08419781923294067,-0.2868993878364563,-0.03052411414682865,-0.008860675618052483,0.03440331667661667,0.21756665408611298,0.16745375096797943,0.18689236044883728,0.06284641474485397,-0.04688534885644913,0.18820153176784515,0.16927897930145264,0.24333235621452332,0.23214533925056458,0.06070637330412865,-0.2196454405784607,-0.04505927860736847,0.02097943425178528,-0.04752364754676819,0.11296742409467697,0.07814411073923111,0.03951633721590042,-0.05165156349539757,0.06453944742679596,0.001929242629557848,0.19780796766281128,0.09467808902263641,0.01746402308344841,-0.20013712346553802,-0.2837753891944885,0.08477872610092163,0.11232943832874298,-0.017071861773729324,-0.015068965032696724,-0.02552424557507038,0.05800657719373703,0.07937148958444595,-0.1603330373764038,0.024788396432995796,0.1487204134464264,-0.06198816001415253,-0.14769576489925385,-0.2115781009197235,-0.281013160943985,-0.0018710978329181671,0.03911571204662323,-0.05038191378116608,-0.18761374056339264,-0.1134808287024498,-0.054473914206027985,-0.1788235902786255,-0.09526175260543823,0.0004271162033546716,-0.05351547524333,-0.14262272417545319,-0.04244530573487282,-0.28472235798835754,-0.15578964352607727,0.09524256736040115,0.027994854375720024,0.009743456728756428,-0.06888894736766815,-0.12727370858192444,-0.2383427619934082,-0.24386297166347504,-0.1657905876636505,-0.07216769456863403,-0.17297367751598358,-0.13562946021556854,-0.16618354618549347,-0.11080808937549591,0.03057127259671688,0.10658491402864456,0.02021152712404728,0.026597799733281136,-0.12014628201723099,-0.03300642967224121,-0.034234777092933655,-0.046572089195251465,-0.10424645990133286,-0.10842809081077576,-0.1627553254365921,-0.08867181837558746,-0.030990272760391235,0.12239184975624084,0.03154424577951431,0.05295811966061592,0.07520397007465363,0.04282164201140404,0.1300513595342636,0.05962926149368286,0.08646618574857712,0.026469867676496506,-0.012177511118352413,-0.05421635881066322,0.07486337423324585,0.11195608228445053,0.20407609641551971,0.23259572684764862,0.10469198226928711,0.11482490599155426,-0.014017890207469463,0.08149845898151398,0.09531397372484207,0.20377454161643982,0.16140449047088623,0.17850036919116974,0.14989152550697327,0.16945748031139374,0.1193508431315422,0.21031875908374786,0.17100168764591217,0.10802944004535675,0.02101588435471058,0.03839929774403572