{"shape": [10, 196]}
0.06986308842897415,0.12481081485748291,0.10439350455999374,0.1155441477894783,0.05746856704354286,0.02526373416185379,0.12096813321113586,0.0860220193862915,0.13251617550849915,0.012767736800014973,0.11950547248125076,0.010147149674594402,0.09779634326696396,-0.005052829161286354,0.046148933470249176,0.0072050197049975395,-0.028394736349582672,0.03501210734248161,-0.052706100046634674,-0.06443428993225098,-0.09414918720722198,-0.05802181363105774,-0.17599506676197052,-0.22900260984897614,-0.11159427464008331,-0.12233872711658478,-0.02770458348095417,0.09823650866746902,-0.009019414894282818,0.0360560268163681,-0.032897353172302246,-0.008932651951909065,-0.12114783376455307,-0.028757374733686447,0.08754409849643707,0.10179263353347778,0.14968056976795197,0.07523700594902039,-0.061664290726184845,-0.04752088338136673,-0.1081644743680954,0.03765854984521866,-0.008981246501207352,-0.013559755869209766,-0.07678354531526566,-0.1453782320022583,-0.10526788979768753,-0.03770934045314789,-0.017886580899357796,0.08991388976573944,0.17092908918857574,0.11818525195121765,0.036740005016326904,0.07040964812040329,-0.11241656541824341,-0.07060790061950684,-0.0007142621325328946,0.06459060311317444,-0.11553897708654404,-0.10312007367610931,-0.05502239242196083,-0.01921463944017887,0.08156935125589371,0.08485105633735657,0.20955714583396912,0.21335729956626892,0.08630502223968506,0.08841721713542938,0.08072242885828018,-0.08359751105308533,0.08033144474029541,-0.008582440204918385,-0.03141842409968376,0.07165371626615524,-0.08415360003709793,0.037295419722795486,0.037374526262283325,-0.1787266582250595,-0.09351224452257156,0.13478675484657288,0.09079406410455704,0.19025087356567383,0.15812338888645172,-0.06426490098237991,0.11901571601629257,-0.003945562988519669,-0.011252617463469505,0.09440439939498901,0.08429951220750809,0.07577542960643768,-0.11457088589668274,-0.43995410203933716,-0.3419308066368103,-0.1194726824760437,0.015363422222435474,0.18924324214458466,0.3146927058696747,-0.0017929396126419306,0.12387387454509735,-0.03658035025000572,0.14658893644809723,0.11490335315465927,0.16161327064037323,0.13809838891029358,-0.16947753727436066,-0.5379790663719177,-0.2803579270839691,-0.037980858236551285,0.06281180679798126,0.12975624203681946,0.16336841881275177,-0.01237743441015482,-0.010893690399825573,-0.08608420938253403,0.08769124001264572,0.12645657360553741,0.21585553884506226,0.10709107667207718,-0.3931083381175995,-0.36688628792762756,-0.09798853099346161,0.09529303759336472,0.04163537174463272,0.06465844810009003,0.07095377147197723,0.10629350692033768,0.1296509951353073,-0.22303226590156555,0.03783547878265381,0.06987600028514862,0.2164994478225708,0.12882906198501587,-0.12655693292617798,-0.1656876653432846,0.06319780647754669,0.06228737533092499,-0.002837661188095808,0.034327927976846695,-0.05844082683324814,-0.011119099333882332,0.02199098840355873,-0.047856371849775314,-0.0006711340975016356,-0.008458761498332024,0.0630354955792427,0.30260348320007324,0.10184559971094131,-0.0026070985477417707,-0.002905980683863163,-0.14485135674476624,-0.011497174389660358,-0.022051246836781502,-0.041602544486522675,0.021732741966843605,0.09626950323581696,0.0038468297570943832,-0.06672719120979309,0.07483967393636703,0.11639222502708435,0.19971875846385956,0.18642956018447876,0.10031840950250626,-0.0025047664530575275,-0.0848429873585701,-0.05283595994114876,-0.06192970648407936,0.020594162866473198,0.006634043995290995,0.07727748900651932,0.018585361540317535,-0.05160771682858467,-0.1230320930480957,-0.04669414460659027,0.038475848734378815,0.07453484833240509,0.018048422411084175,-0.13798505067825317,-0.16821345686912537,-0.1192438155412674,-0.04793313890695572,0.027185194194316864,0.02866813726723194,0.042583540081977844,0.08067820221185684,0.10391304641962051,-0.0031990627758204937,-0.05811336264014244,-0.13971027731895447,-0.08751652389764786,-0.17445319890975952,-0.010709065943956375,-0.0359867624938488,0.04440230131149292,0.08196652680635452,0.1173350140452385,0.0854782834649086,-0.08627565950155258,0.024091050028800964,-0.011316929943859577,-0.014730099588632584,0.018537791445851326,-0.09035487473011017,-0.05979163944721222,-0.06562232971191406,-0.013889980502426624,0.02718466706573963,-0.011638971045613289,0.04185878112912178,-0.003966260701417923,0.0295388363301754,-0.040231429040431976,-0.04990629479289055,-0.07238941639661789,-0.0763968676328659,0.01804644614458084,-0.17086829245090485,-0.06593495607376099,0.009763430804014206,-0.1129700094461441,-0.243558868765831,-0.2289109230041504,-0.09241128712892532,-0.008027981966733932,-0.08041782677173615,0.013281584717333317,0.009173051454126835,0.012288416735827923,-0.035809967666864395,-0.1723267287015915,-0.09374275803565979,0.014637910760939121,0.18052862584590912,0.03538712486624718,0.11653821170330048,0.17300057411193848,0.08143404871225357,-0.08486611396074295,-0.00521638710051775,-0.08612044155597687,0.0328812338411808,-0.022458961233496666,-0.1544555127620697,-0.21529285609722137,-0.16735288500785828,-0.1528896540403366,-0.21840019524097443,-0.22903650999069214,-0.13444022834300995,-0.013197837397456169,-0.10168744623661041,-0.20314374566078186,-0.05232025682926178,-0.04124841466546059,0.025434548035264015,-0.13448259234428406,-0.11867327243089676,-0.21012216806411743,-0.13493070006370544,-0.10042919218540192,0.1827920526266098,-0.04425157234072685,-0.11153516918420792,-0.14364883303642273,-0.20044560730457306,-0.3626045882701874,-0.04337974637746811,-0.04130071774125099,-0.08800380676984787,-0.09796659648418427,-0.05908583104610443,-0.12455502152442932,-0.1476622223854065,-0.044747721403837204,0.3362177014350891,0.010230302810668945,-0.17611362040042877,-0.19522586464881897,-0.2867733836174011,-0.32300078868865967,-0.07663080096244812,-0.02728997729718685,0.011522352695465088,-0.10578956454992294,-0.06318841129541397,-0.12874743342399597,-0.36959773302078247,0.17831727862358093,0.2552657425403595,0.08557357639074326,-0.12542922794818878,-0.182757169008255,-0.05207453668117523,-0.03998440504074097,-0.09260126203298569,0.041853614151477814,-0.015373645350337029,-0.029382677748799324,-0.09422288835048676,-0.15432611107826233,-0.2728275656700134,0.09919390827417374,0.27386894822120667,-0.03204715624451637,-0.2869564890861511,-0.16546346247196198,-0.1919873207807541,-0.12067185342311859,-0.05037686601281166,-0.08557119965553284,-0.020267706364393234,-0.23080118000507355,-0.2912348806858063,-0.16182056069374084,-0.14109669625759125,0.11902858316898346,0.1987631767988205,-0.21967238187789917,-0.33052849769592285,-0.1357731968164444,-0.07177285104990005,-0.05196332558989525,-0.049291711300611496,-0.05847323313355446,-0.02977508120238781,-0.3122715353965759,-0.18055322766304016,-0.03580179065465927,-0.07498905807733536,0.1325816959142685,0.09896742552518845,-0.23016691207885742,-0.05745081603527069,0.048242438584566116,-0.10372558236122131,0.008796202018857002,-0.03478683903813362,0.0035494929179549217,-0.07852120697498322,-0.010837962850928307,0.028889214619994164,0.019767045974731445,-0.037671737372875214,-0.0030465368181467056,-0.15639148652553558,-0.049051444977521896,0.10336821526288986,0.09618982672691345,-0.030153369531035423,-0.036138202995061874,0.01260207500308752,0.023437505587935448,-0.09952805936336517,0.2442692369222641,0.1007903665304184,0.06809218972921371,-0.13594359159469604,-0.2908594012260437,-0.011762082576751709,0.09687983244657516,0.100851871073246,0.08233597874641418,-0.041235774755477905,-0.04812683165073395,0.053123898804187775,-0.02688152715563774,-0.028695018962025642,-0.08456235378980637,-0.122217558324337,-0.14598692953586578,-0.147411048412323,-0.12064612656831741,-0.09566778689622879,-0.08924510329961777,-0.10441535711288452,-0.05923917517066002,-0.022905495017766953,0.03168299421668053,-0.015451900660991669,0.002845974639058113,0.02424357645213604,-0.07729537039995193,-0.05067349225282669,-0.10302072018384933,-0.11901187896728516,-0.16622860729694366,-0.1328815370798111,-0.1379641741514206,-0.11691882461309433,0.01071118749678135,0.012882718816399574,-0.031086113303899765,-0.01301044411957264,-0.10881859064102173,-0.09374383091926575,0.018139861524105072,-0.1186639666557312,-0.015728779137134552,-0.048711054027080536,-0.10793020576238632,-0.040283169597387314,0.02052799053490162,-0.06343506276607513,-0.12863263487815857,-0.009301898069679737,-0.025740893557667732,-0.0402677059173584,-0.07378394901752472,-0.0933464914560318,-0.06731657683849335,-0.03604639321565628,0.1302964836359024,0.11060415953397751,0.19676701724529266,0.033766008913517,0.07607626169919968,-0.13084569573402405,-0.123988576233387,-0.1609833836555481,-0.0807863101363182,-0.04640265554189682,-0.038582973182201385,-0.026602746918797493,-0.027033446356654167,0.0521564856171608,0.13693255186080933,0.09874285012483597,0.17702379822731018,0.14295299351215363,0.11823660880327225,0.08147744089365005,-0.0642828419804573,-0.19469577074050903,-0.13712316751480103,0.01353462878614664,-0.1147698312997818,0.037056371569633484,0.05611394718289375,0.08132144063711166,0.05609246343374252,0.065987229347229,0.025951819494366646,0.05294906347990036,-0.019980857148766518,-0.015177748166024685,-0.05988306924700737,-0.08050268888473511,-0.3387981653213501,-0.13301080465316772,-0.06535699218511581,-0.020475929602980614,0.16828177869319916,0.04574074223637581,0.02418273501098156,0.04549263417720795,0.02071969583630562,0.027987012639641762,0.027694597840309143,-0.0023595686070621014,0.04185505211353302,-0.02888275496661663,-0.39998748898506165,-0.1060519590973854,-0.012058669701218605,-0.08658195286989212,0.030263492837548256,-0.19618284702301025,-0.1491178274154663,-0.2516345679759979,-0.34743040800094604,-0.2162075638771057,-0.08085168898105621,-0.010797322727739811,0.023372460156679153,-0.10974445194005966,-0.1348072588443756,-0.009982701390981674,-0.060133643448352814,-0.07191911339759827,-0.410357266664505,-0.41898590326309204,-0.33532747626304626,-0.2748090922832489,-0.2900888919830322,-0.21756121516227722,-0.1402043253183365,-0.06407728791236877,-0.08428271859884262,-0.11014374345541,0.052364520728588104,0.15465621650218964,-0.04427585005760193,-0.040161240845918655,-0.1232118159532547,-0.11787645518779755,-0.048312269151210785,0.03686007112264633,0.16840144991874695,0.0776233971118927,-0.08681218326091766,-0.044504694640636444,-0.06831510365009308,-0.17557576298713684,0.22499288618564606,0.23590563237667084,-0.06434103101491928,0.1838802546262741,0.19186483323574066,0.08652791380882263,0.04663243144750595,0.07688996940851212,0.2489861398935318,0.13645659387111664,0.03159628435969353,-0.009542141109704971,-0.0047983089461922646,0.07393243908882141,0.3428097367286682,0.2726036608219147,-0.12152126431465149,0.042951300740242004,0.1461806446313858,0.18921539187431335,0.1304996758699417,0.16879138350486755,0.201932892203331,0.07152397930622101,0.09096106141805649,0.0718725249171257,0.09360486268997192,0.14209966361522675,0.36030805110931396,0.08811594545841217,-0.06328382343053818,0.09521006047725677,0.1341838240623474,0.13118158280849457,0.19148224592208862,0.15757746994495392,0.021431948989629745,0.04260047525167465,0.05801430344581604,0.14336130023002625,0.19386246800422668,0.18238121271133423,0.13853101432323456,-0.015798771753907204,0.004124031402170658,-0.04928223788738251,0.05487130209803581,0.1115620955824852,0.08997613191604614,0.023741625249385834,-0.06455589085817337,-0.19804251194000244,-0.0176008939743042,0.15561605989933014,0.16874147951602936,0.13551102578639984,0.11310526728630066,-0.051047082990407944,-0.10009978711605072,-0.0593176931142807,-0.15151241421699524,-0.2906087338924408,-0.16138103604316711,-0.1692773997783661,-0.057500846683979034,-0.047614503651857376,-0.082621730864048,-0.08479154855012894,-0.031897589564323425,-0.06106146052479744,0.0032851474825292826,-0.06423742324113846,0.00987723097205162,-0.04024187847971916,-0.10617196559906006,-0.085574671626091,-0.07989723235368729,-0.16490815579891205,-0.13907988369464874,-0.04216192662715912,-0.07687589526176453,-0.05303478613495827,-0.03312059864401817,-0.0037856963463127613,-0.05253322422504425,-0.09961579740047455,0.026698587462306023,-0.03189972788095474,-0.034886013716459274,-0.025938307866454124,-0.05515065789222717,-0.04245659336447716,0.001861446537077427,-0.08435988426208496,0.008270838297903538,0.055848438292741776,0.0348542146384716,0.022322243079543114,0.02231261320412159,-0.03977987915277481,0.050839319825172424,-0.05495782941579819,0.025461021810770035,-0.029837872833013535,0.07643259316682816,0.10075097531080246,0.18338660895824432,0.17501121759414673,0.07597092539072037,0.002815044019371271,-0.0722794309258461,-0.11667225509881973,-0.024133792147040367,-0.007946399040520191,-0.08321799337863922,0.07295715063810349,0.15737053751945496,0.1957651823759079,0.04844573140144348,0.07940791547298431,0.0467521958053112,0.03179219365119934,0.051228731870651245,-0.05032847076654434,-0.12350481003522873,-0.27129924297332764,-0.1687849909067154,-0.00947587564587593,-0.06187216565012932,0.057415951043367386,0.2125331610441208,0.10078887641429901,0.17112015187740326,0.180807426571846,0.12043128907680511,0.10964243859052658,0.04298008605837822,-0.046794045716524124,-0.015103683806955814,-0.21547521650791168,-0.21194781363010406,0.006220972631126642,-0.074578657746315,0.09519320726394653,0.24064184725284576,0.1477334350347519,-0.05208207666873932,-0.2026231437921524,-0.06809935718774796,0.1337418109178543,0.16706150770187378,0.12342696636915207,0.10828613489866257,0.006046672817319632,-0.306814581155777,0.0374467596411705,-0.06819521635770798,0.1833898425102234,0.07049334049224854,-0.20182594656944275,-0.2075197547674179,-0.3185362219810486,-0.07611896097660065,0.234360933303833,0.085810087621212,0.13854199647903442,0.0901549682021141,-0.09453821182250977,-0.14715491235256195,-0.016178246587514877,0.026962868869304657,0.06670423597097397,-0.20037329196929932,-0.23726655542850494,-0.15602760016918182,-0.05011361464858055,0.14170579612255096,0.2254856824874878,0.11465132981538773,0.04043997451663017,-0.21580404043197632,-0.3760209381580353,-0.10273762792348862,-0.08459462225437164,0.035321447998285294,0.07783012092113495,-0.08123531937599182,-0.2536678612232208,-0.13717781007289886,-0.010161641985177994,0.09141149371862411,0.07449676096439362,0.005170473828911781,0.08441897481679916,-0.0022886034566909075,-0.06478004157543182,-0.11242508888244629,-0.006742600817233324,-0.051530662924051285,0.17676948010921478,0.11017297953367233,-0.08964775502681732,-0.22840210795402527,-0.23322400450706482,-0.1119445338845253,-0.05568426847457886,-0.003948839381337166,0.10825458914041519,0.07134104520082474,0.10286147892475128,-0.046895161271095276,-0.04663349688053131,-0.05356082692742348,0.343099445104599,0.23567388951778412,0.08970793336629868,-0.11322718858718872,-0.2555275857448578,-0.28934258222579956,-0.12201733142137527,0.17570264637470245,0.15828868746757507,0.10617484897375107,0.05830585956573486,-0.2124781608581543,-0.062393102794885635,0.04052557796239853,0.25962182879447937,0.18102972209453583,0.18554387986660004,0.04446738585829735,-0.052166298031806946,-0.12448899447917938,0.060344018042087555,0.08833380788564682,0.09740804880857468,0.08335506916046143,-0.12921638786792755,-0.2111048549413681,-0.013327823020517826,0.05703016370534897,0.22353962063789368,0.18044689297676086,0.08213558793067932,0.10895663499832153,0.07176914066076279,0.013861490413546562,0.04037182778120041,-0.004958541132509708,0.027033472433686256,-0.015800153836607933,-0.19143196940422058,-0.11534435302019119,-0.025032542645931244,-0.036051757633686066,0.13281109929084778,0.20447416603565216,0.21700792014598846,0.1271180659532547,0.11480294913053513,0.08877263963222504,0.022230427712202072,0.007742157205939293,-0.06758682429790497,-0.09748107194900513,-0.06296989321708679,-0.04570936784148216,-0.014581521973013878,-0.062172841280698776,-0.00924841407686472,-0.02199432998895645,0.05137765407562256,-0.09761536866426468,0.01937413029372692,-0.020538073033094406,-0.030021360144019127,-0.0628231018781662,-0.004459391348063946,0.013899706304073334,-0.003302237717434764,0.005659807939082384,0.005156512837857008,-0.007038803305476904,0.11517611891031265,0.12094207853078842,0.09079986065626144,-0.010157119482755661,-0.025474773719906807,-0.0180002823472023,0.005342316813766956,-0.04268757998943329,0.09147627651691437,0.08586172759532928,0.0748610645532608,0.04200712591409683,0.04906211048364639,0.004340523388236761,0.03180079907178879,-0.003927897661924362,0.02509680949151516,-0.19072258472442627,-0.3279874920845032,-0.41173917055130005,-0.25262942910194397,-0.2544246315956116,-0.10831069201231003,-0.03780759871006012,0.036054495722055435,0.0693330317735672,-0.017414936795830727,0.05881663039326668,0.03841891512274742,0.1118728518486023,0.0767812430858612,0.05807804688811302,-0.054006680846214294,-0.04353467375040054,0.07331418246030807,0.08649035543203354,0.1313023865222931,0.10324066877365112,0.18910068273544312,0.1637403666973114,-0.024747787043452263,0.044281624257564545,0.09275544434785843,0.1012120172381401,0.01713177189230919,0.047377899289131165,-0.11663246154785156,-0.17611812055110931,-0.33306968212127686,-0.2460971623659134,-0.07059217244386673,0.017895136028528214,0.19407597184181213,0.1793462336063385,0.10589051991701126,0.0345829613506794,-0.10264740139245987,-0.05100757256150246,-0.06719809770584106,-0.07166288048028946,-0.05908626317977905,-0.19766287505626678,-0.35189807415008545,-0.1951378434896469,0.024774426594376564,-0.04471267759799957,-0.007358856033533812,-0.0692034363746643,0.0034851916134357452,0.07592321932315826,-0.13940931856632233,-0.1953011155128479,-0.0009048209758475423,0.06714604794979095,0.2555203139781952,-0.012355541810393333,-0.3274745047092438,0.1740797907114029,-0.0601336695253849,-0.1035139411687851,-0.16788098216056824,-0.2592422068119049,-0.05492973327636719,0.0580279715359211,-0.1397663801908493,-0.035894203931093216,0.16684825718402863,0.21411320567131042,0.3377329707145691,0.12508614361286163,-0.09778057783842087,0.25457763671875,0.08744905889034271,0.08495664596557617,0.04070981591939926,-0.09381837397813797,-0.02883608266711235,0.09294582903385162,-0.014003164134919643,0.103785939514637,0.25734975934028625,0.2218618392944336,0.2011881172657013,0.06628301739692688,0.08197347819805145,0.31672433018684387,0.22228556871414185,0.15274538099765778,0.02456711418926716,-0.15629912912845612,-0.04429495334625244,0.003959781490266323,-0.08090358972549438,-0.002029078546911478,0.10453224182128906,0.09645013511180878,0.030568594112992287,0.12663209438323975,0.2629494369029999,0.23190222680568695,0.022690797224640846,0.002599129918962717,-0.06449523568153381,-0.10874520987272263,-0.04810076951980591,0.06855595111846924,-0.12573187053203583,-0.22012704610824585,-0.16824711859226227,-0.17591558396816254,-0.23150470852851868,-0.02623104304075241,0.19448812305927277,-0.03814024105668068,-0.15932615101337433,-0.14112412929534912,-0.19555680453777313,-0.091980941593647,0.08098869025707245,0.0908512994647026,-0.04429738596081734,-0.20671811699867249,-0.33084025979042053,-0.28709232807159424,-0.2445954978466034,-0.14404015243053436,-0.06912308186292648,-0.08472879230976105,-0.15371590852737427,-0.1030549630522728,-0.2508597671985626,-0.13724949955940247,0.011678146198391914,-0.008079190738499165,-0.004159470088779926,-0.12080241739749908,-0.2732481360435486,-0.10479871928691864,-0.15214337408542633,-0.14057675004005432,-0.15024249255657196,-0.009924884885549545,0.04979618638753891,0.11635585129261017,0.0746009424328804,0.07859982550144196,0.1103842705488205,0.02623903751373291,0.0015965215861797333,-0.03928287699818611,-0.04333295300602913,0.015056803822517395,0.004533526953309774,-0.03501134738326073,-0.037114668637514114,0.029268372803926468,0.06504139304161072,0.08215954899787903,0.0591987706720829,0.060387760400772095,0.066136434674263,0.03706910461187363,0.09127337485551834,0.08662085235118866,0.01669817604124546,-0.2570347487926483,-0.3276817500591278,-0.37827080488204956,-0.30734071135520935,-0.30103686451911926,-0.2603391408920288,-0.08945324271917343,0.07631691545248032,0.010702326893806458,0.008528313599526882,-0.17969119548797607,-0.10111822187900543,-0.05704274773597717,-0.0726478174328804,-0.17708279192447662,-0.15156273543834686,-0.17903399467468262,-0.11364388465881348,-0.058523695915937424,-0.12339965999126434,-0.1805485337972641,-0.0981331542134285,-0.17600491642951965,-0.0997122973203659,-0.10522975027561188,-0.16417419910430908,-0.19309453666210175,-0.1974087357521057,-0.2237289994955063,-0.18169821798801422,-0.14197370409965515,-0.1778607964515686,-0.04511348158121109,-0.014349708333611488,-0.02067047357559204,-0.03394797071814537,-0.15844403207302094,-0.07057467103004456,-0.08888856321573257,-0.0858953595161438,-0.15804703533649445,-0.17142446339130402,-0.0744871273636818,-0.0259355790913105,-0.10435733944177628,-0.08037728071212769,-0.004027598071843386,0.03651254251599312,0.041004374623298645,0.08160175383090973,0.0957164540886879,-0.02388766035437584,-0.1085367500782013,-0.12254435569047928,-0.23810751736164093,-0.07244209200143814,-0.020332343876361847,0.05557979643344879,-0.04826716333627701,-0.05677597224712372,-0.05476871877908707,0.08702583611011505,0.1547224074602127,0.09320686012506485,0.2910041809082031,0.09293265640735626,-0.15186414122581482,-0.26618534326553345,-0.2308621108531952,-0.011000975966453552,0.043087106198072433,0.1177578791975975,-0.011337918229401112,-0.1813812404870987,-0.21971045434474945,-0.05200064927339554,0.04682004824280739,0.30028513073921204,0.6189482808113098,0.20890209078788757,-0.1838218718767166,-0.18754175305366516,-0.0983661413192749,0.12421667575836182,0.09534959495067596,0.16634246706962585,0.20311002433300018,-0.08011636137962341,-0.23143470287322998,-0.20939137041568756,-0.27874845266342163,-0.19787095487117767,0.5507943630218506,0.09817524254322052,-0.1611258089542389,-0.0762539803981781,0.044469717890024185,0.045924071222543716,0.05734032019972801,0.19935207068920135,0.20553509891033173,-0.03452521190047264,-0.2128978967666626,-0.1645159274339676,-0.268823504447937,-0.48697254061698914,-0.4130159616470337,-0.04314621537923813,-0.16768716275691986,-0.17103715240955353,-0.12545350193977356,-0.1293971687555313,0.01090087741613388,0.11999323964118958,0.054517682641744614,-0.15919049084186554,-0.2091989666223526,-0.03810500726103783,0.002495504915714264,-0.1619976907968521,-0.1693028211593628,-0.11060323566198349,-0.13961480557918549,-0.13471660017967224,-0.02156032994389534,-0.10004507750272751,-0.1541893482208252,-0.19976890087127686,-0.16894838213920593,-0.22585973143577576,-0.10388829559087753,0.041669029742479324,-0.03305992856621742,0.0255568940192461,-0.02825082093477249,-0.13463783264160156,-0.16275201737880707,-0.03811607509851456,0.14146709442138672,0.15127651393413544,-0.030378073453903198,-0.13791072368621826,-0.1549193114042282,-0.051427412778139114,0.0414598286151886,0.06300075352191925,0.06975582242012024,0.034849219024181366,0.1018579751253128,-0.11505892872810364,-0.1062566265463829,-0.12511803209781647,0.04675270617008209,0.1482187807559967,0.15697550773620605,0.12330249696969986,0.06805881857872009,0.05136184021830559,0.030680010095238686,0.09187764674425125,0.09567631781101227,0.19068643450737,-0.022958407178521156,-0.06574709713459015,-0.07054544985294342,-0.053761839866638184,-0.08185315877199173,-0.05726073682308197,0.04578776657581329,0.0577230304479599,0.03198269009590149,0.023772597312927246,0.026748308911919594,-0.007886671461164951,0.15112818777561188,0.12101732939481735,-0.08544491976499557,-0.11712373048067093,-0.05832987651228905,-0.08836528658866882,-0.06666238605976105,-0.025363296270370483,0.04470501467585564,0.0970732718706131,0.1357470005750656,0.11378519982099533,0.012446239590644836,0.020449820905923843,0.03059758059680462,-0.09171753376722336,-0.11053326725959778,-0.11433272063732147,-0.13145899772644043,-0.13579095900058746,-0.11934880912303925,-0.17687562108039856,-0.1355298012495041,-0.056402407586574554,-0.09814925491809845,-0.08705750852823257,-0.06877760589122772,-0.19646896421909332,-0.07752339541912079,-0.18326112627983093,-0.0908048152923584,-0.12998604774475098,-0.018544696271419525,0.018408622592687607,0.06386338919401169,0.05056346207857132,0.07758477330207825,0.07565220445394516,0.0906393751502037,0.0027806218713521957,0.07009120285511017,0.13468775153160095,0.0020617491099983454,0.0054140579886734486,-0.03598840534687042,0.0784706398844719,0.04100356251001358,0.09383036941289902,0.06736508756875992,0.1507355272769928,0.21978387236595154,0.25220510363578796,0.19152578711509705,0.20792533457279205,0.1364600956439972,0.18649455904960632,0.2673580050468445,0.2665458917617798,0.19175401329994202,0.05063740909099579,0.08602862805128098,0.053578104823827744,0.007987450808286667,0.029424520209431648,-0.058857470750808716,-0.0795862227678299,-0.16557517647743225,-0.04817657545208931,0.03607216104865074,0.19280306994915009,0.20247653126716614,0.16545571386814117,0.1874563992023468,0.062429606914520264,-0.002948892768472433,0.012110446579754353,-0.06850167363882065,-0.0904308632016182,-0.09959901869297028,-0.13072018325328827,-0.15143045783042908,-0.08374841511249542,-0.1724833846092224,-0.1852351576089859,-0.07833243161439896,-0.09534444659948349,0.030671367421746254,-0.03790835291147232,0.0752972960472107,-0.037753090262413025,-0.16948473453521729,-0.03959812968969345,-0.0865032821893692,-0.12263530492782593,-0.07253307104110718,-0.1957496851682663,-0.3154774606227875,-0.29168573021888733,-0.23255635797977448,-0.22513653337955475,-0.21234558522701263,-0.06632820516824722,0.03424017131328583,-0.12401998043060303,-0.19818629324436188,0.025533348321914673,0.007366509642452002,-0.050951480865478516,0.07164858281612396,-0.24321472644805908,-0.30901095271110535,-0.24293938279151917,-0.08526017516851425,0.03773917630314827,-0.11446443945169449,-0.11776400357484818,0.022140659391880035,-0.05772066488862038,-0.024188347160816193,0.09364420920610428,0.07313020527362823,0.09596578031778336,-0.01404122356325388,-0.08454233407974243,-0.05549496412277222,-0.076435387134552,0.0562237873673439,0.31969720125198364,0.3291834592819214,-0.10856615006923676,0.06276330351829529,-0.019346488639712334,0.03407646343111992,0.05042232200503349,0.10153485834598541,0.2014060616493225,0.04661756381392479,0.16515670716762543,0.024148887023329735,-0.06703781336545944,0.06513158231973648,0.14229987561702728,0.09725406765937805,-0.15650011599063873,0.029019491747021675,-0.07613424956798553,-0.12822934985160828,0.0837184265255928,0.20597389340400696,0.26201263070106506,0.1748705506324768,0.06371946632862091,-0.10008670389652252,0.07275944948196411,0.03413226455450058,0.02120649814605713,0.023464463651180267,-0.1494736522436142,-0.031652145087718964,-0.08015082031488419,-0.3580736815929413,-0.05561679229140282,0.1317661702632904,0.26209813356399536,0.1704021841287613,0.04828862473368645,0.19246447086334229,0.11948167532682419,0.05125207453966141,-0.02012249454855919,-0.04288916289806366,-0.04973877593874931,0.0072149597108364105,-0.027279280126094818,-0.30621251463890076,-0.18928611278533936,-0.009366784244775772,0.2879331111907959,0.339217871427536,0.25688692927360535,0.21746161580085754,0.14791429042816162,0.025349734351038933,-0.1147349625825882,-0.10646114498376846,-0.019916033372282982,-0.029617665335536003,0.06500197947025299,-0.1375357210636139,-0.22605355083942413,-0.16688820719718933,-0.05852808058261871,-0.010203874669969082,-0.02907692641019821,-0.08117792755365372,-0.11560225486755371,-0.051340118050575256,-0.06321510672569275,-0.02707386016845703,-0.005151702556759119,-0.04315395653247833,0.07053384184837341,0.06598185747861862,-0.12036459892988205,-0.1984047144651413,-0.3142460584640503,-0.26619550585746765,-0.2649124264717102,-0.22692592442035675,-0.15220822393894196,-0.060136958956718445,0.03611287102103233,0.0013496876927092671,0.04628054052591324,0.07378638535737991,0.04977109283208847,0.005583195015788078,0.020931793376803398,-0.06370329856872559,0.021939458325505257,0.013725140132009983,-0.031465064734220505,-0.05799226090312004,-0.04810022562742233,-0.01575748808681965,0.05645792558789253,0.06043200194835663,0.0032529558520764112,-0.10752267390489578,-0.026600129902362823,-0.01834114082157612,-0.012795096263289452,-0.08737946301698685,-0.03307555988430977,-0.036987945437431335,-0.0647701546549797,-0.01098242960870266,-0.026765605434775352,-0.01629943959414959,-0.04769435524940491,-0.12903524935245514,-0.00022165721748024225,-0.09359639137983322,-0.06124947965145111,-0.07934475690126419,-0.015460229478776455,-0.12282218784093857,-0.22450265288352966,-0.10850264877080917,-0.1718282252550125,-0.10369168221950531,-0.17652001976966858,-0.0722610354423523,-0.09270048141479492,-0.08922529965639114,-0.07892552763223648,-0.1362193077802658,-0.10380133241415024,-0.025318080559372902,-0.045409273356199265,-0.07939710468053818,-0.1920103281736374,-0.22432026267051697,-0.24004501104354858,-0.26059457659721375,-0.33941134810447693,-0.2781292796134949,-0.232432022690773,-0.12568800151348114,-0.07288859784603119,-0.04657765477895737,-0.00753822224214673,0.1439502239227295,0.20194073021411896,0.19088047742843628,0.10975400358438492,-0.006511026527732611,-0.051395054906606674,-0.00016448739916086197,0.001117234700359404,0.003122384659945965,-0.12102872878313065,-0.22260692715644836,-0.035234298557043076,-0.0649651363492012,0.12757453322410583,0.20365701615810394,0.13765276968479156,0.05128788575530052,0.11837620288133621,0.10690345615148544,0.19210360944271088,0.20446839928627014,0.18976521492004395,0.0716547966003418,0.027761947363615036,-0.17731040716171265,-0.05418187752366066,0.024242356419563293,0.2948465645313263,0.10340777039527893,0.059672094881534576,0.05455878749489784,0.013845342211425304,0.029652148485183716,0.21779735386371613,0.3585914969444275,0.12537412345409393,0.08793319016695023,-0.06158211827278137,-0.24002188444137573,-0.10570875555276871,-0.03937099501490593,0.21103811264038086,0.03053208440542221,0.038247957825660706,0.0006087222718633711,-0.25319617986679077,-0.44992369413375854,-0.16014191508293152,0.18942828476428986,0.10624624788761139,0.03669285029172897,-0.05219273641705513,-0.16171886026859283,-0.05898159369826317,-0.10241851955652237,0.10490965098142624,0.08274330198764801,-0.02530599571764469,-0.06572859734296799,-0.34199070930480957,-0.5046995282173157,-0.13965904712677002,0.07152920216321945,0.2674582600593567,0.186878502368927,0.0739007443189621,-0.09474574029445648,-0.05894976481795311,-0.11949149519205093,-0.06926342099905014,-0.056464388966560364,-0.04288095235824585,-0.13203763961791992,-0.2208581268787384,-0.16328147053718567,-0.030378615483641624,0.03288600221276283,0.08281993120908737,0.08727461844682693,-0.009544108994305134,-0.0737454891204834,-0.06963235139846802,-0.06882422417402267,-0.06117698922753334,-0.09925858676433563,-0.2908428907394409,-0.23315569758415222,-0.17090150713920593,-0.07261655479669571,-0.000710324093233794,-0.15155407786369324,-0.15138211846351624,-0.14676344394683838,-0.3167256712913513,-0.18862701952457428,-0.05459296703338623,-0.10626940429210663,-0.0819249153137207,-0.2217365801334381,-0.23363851010799408,-0.1798291951417923,-0.07014419883489609,0.038374967873096466,-0.09783017635345459,-0.23419339954853058,-0.2808910608291626,-0.3363431990146637,-0.3545500338077545,-0.06425321102142334,-0.13466109335422516,-0.08817332983016968,-0.14981672167778015,0.03156697005033493,0.09026113152503967,-0.013419879600405693,-0.05500831827521324,-0.09169574826955795,-0.0916154757142067,-0.10898365825414658,-0.29406633973121643,-0.25303298234939575,-0.2865016758441925,-0.07224752008914948,-0.07744170725345612,-0.03329290822148323,-0.05720321089029312,0.1784660816192627,0.2056707888841629,0.14511248469352722,0.08684125542640686,0.10869847983121872,0.12562108039855957,0.10102682560682297,-0.0963861420750618,-0.07185905426740646,-0.17933152616024017,-0.1450662910938263,-0.06920662522315979,-0.11089547723531723,-0.12807050347328186,-0.12959186732769012,0.10082938522100449,0.22877848148345947,0.14721834659576416,0.17144785821437836,0.2260836362838745,0.2790173590183258,0.1814257949590683,0.029996255412697792,-0.005741233471781015,-0.043864984065294266,-0.048695676028728485,0.16051512956619263,0.10643090307712555,0.05434614047408104,0.05313075706362724,0.14324897527694702,0.11692021787166595,0.11502671241760254,0.0755460187792778,0.1161881536245346,0.050047867000103,0.1551787257194519,0.09270494431257248,0.05732734873890877,0.12042073905467987,0.15880754590034485,0.11342399567365646,0.17101344466209412,0.019226914271712303,0.1126299798488617,-0.036938320845365524,-0.07524280250072479,-0.103754922747612,-0.10126187652349472,-0.06187891960144043,-0.06046747416257858,0.14532242715358734,0.04032931104302406,0.09819527715444565,0.1220901608467102,0.04878927767276764,0.041188910603523254,-0.020433928817510605,-0.02845892868936062,0.05553914234042168,0.110629141330719,0.14358986914157867,0.10927069187164307,0.06200060620903969,0.06622195243835449,-0.035804785788059235,0.039057645946741104,0.1014859676361084,0.14612558484077454,0.016462374478578568,-0.11607832461595535,-0.06318356841802597,-0.012142243795096874,0.030716894194483757,0.11512704938650131,0.14404386281967163,0.1200941726565361,0.08510535210371017,0.05567626655101776,0.03424735367298126,0.16870681941509247,0.1464892327785492,0.06094726547598839,0.03712838888168335,0.04275090992450714,0.06062116473913193,0.1253313273191452,0.08467043191194534,0.03177395835518837,-0.15625746548175812,-0.09466373175382614,0.08145081996917725,0.1267070770263672,0.14225567877292633,0.14524035155773163,0.11743706464767456,0.1517031043767929,0.07869548350572586,0.077641062438488,0.20259085297584534,0.2163306325674057,0.1479768604040146,0.1821300983428955,-0.01376115158200264,-0.09898516535758972,0.08105934411287308,0.1203470528125763,0.1754547655582428,0.15809284150600433,0.1634186953306198,0.15788021683692932,0.13407942652702332,0.09463556110858917,0.06989093124866486,0.013462609611451626,0.06400546431541443,0.2952782213687897,0.1631782501935959,0.10483182966709137,0.00923537090420723,0.12062840163707733,0.1929081529378891,0.23380032181739807,0.16397105157375336,0.06594791263341904,0.09934139996767044,-0.16482333838939667,-0.28215256333351135,-0.210603728890419,0.012210448272526264,0.3299373984336853,0.25445452332496643,0.042066022753715515,-0.13566476106643677,-0.22967995703220367,-0.2361697405576706,-0.0883927121758461,0.0717618465423584,0.04963180795311928,0.02702001854777336,-0.19657331705093384,-0.06978677958250046,-0.0020688751246780157,0.20484216511249542,0.25164806842803955,0.018414372578263283,-0.02349051460623741,-0.15175968408584595,-0.1415231078863144,-0.11487051099538803,0.04956890642642975,0.0571548193693161,0.0562615692615509,-0.0822095051407814,-0.05046181380748749,0.08787517994642258,0.16825012862682343,0.1269856095314026,0.030874136835336685,-0.15526320040225983,-0.09239476174116135,-0.05457871034741402,0.012607420794665813,-0.01865217834711075,-0.019143758341670036,0.15031887590885162,0.11946168541908264,-0.02682487480342388,-0.04871247708797455,0.05947645753622055,-0.0058759101666510105,-0.04314317926764488,-0.11190010607242584,-0.0701599270105362,-0.061558663845062256,-0.05384107679128647,0.027748024091124535,-0.012104746885597706,-0.028440143913030624,0.09656383842229843,0.0527280829846859,0.051030483096838,-0.15814518928527832,0.013780356384813786,-0.053722646087408066,0.0877167358994484,0.2649378478527069,0.24650068581104279,0.11826664954423904,0.07204772531986237,0.013658050447702408,-0.05804763361811638,0.037372320890426636,0.06443282961845398,0.08374737203121185,0.03408651426434517,-0.17939913272857666,-0.22570525109767914,-0.032980311661958694,-0.02016076073050499,0.05544779822230339,0.019596852362155914,0.12606903910636902,0.1499452441930771,0.12393169105052948,-0.009297680109739304,0.06706973165273666,0.14805912971496582,0.15200871229171753,0.16452424228191376,0.03283365070819855,-0.0017486101714894176,-0.0627964437007904,-0.09566246718168259,-0.07850213348865509,-0.08875817060470581,0.055329203605651855,0.12383019924163818,0.03372114524245262,0.06834044307470322,0.06051881983876228,0.13070698082447052,0.11418664455413818,0.08592258393764496,0.0167906042188406,0.07536602020263672,0.11608114093542099,0.0431896448135376,-0.007721617352217436,0.07990498840808868,0.07174305617809296,0.030797915533185005,0.04565789923071861,0.09587986022233963,0.04504420980811119,0.004949634429067373,0.023755662143230438,0.08451046794652939,0.04836316034197807,0.0675816461443901,0.09635840356349945,-0.08415913581848145,-0.14787788689136505,-0.17393623292446136,-0.19623441994190216,-0.12540464103221893,-0.016950340941548347,0.0867181345820427,0.062256310135126114,0.06781071424484253,0.019592540338635445,0.09837578237056732,0.013576531782746315,-0.036349546164274216,-0.23428618907928467,-0.030934588983654976,-0.0823071077466011,-0.14809663593769073,-0.27498167753219604,-0.180757537484169,-0.24266502261161804,-0.21744045615196228,-0.08034592866897583,0.0550837367773056,0.031074171885848045,-0.01935383304953575,-0.24645286798477173,-0.2359805554151535,-0.030741343274712563,-0.019509218633174896,0.18089307844638824,0.3790770471096039,0.3170745074748993,0.013940989039838314,-0.05144760385155678,-0.28525346517562866,-0.28138214349746704,-0.03725111484527588,0.06554605066776276,-0.07552590221166611,-0.1581735461950302,-0.06317955255508423,-0.03746699541807175,0.028640883043408394,0.14331881701946259,0.08511478453874588,0.00018916215049102902,-0.00603112205862999,-0.08151523023843765,-0.15973156690597534,-0.27210739254951477,0.020017491653561592,-0.040209777653217316,-0.10244268923997879,0.056987032294273376,0.19479434192180634,0.15053993463516235,0.2322169989347458,-0.07976532727479935,-0.06708423048257828,0.02197417989373207,0.15373584628105164,0.12300743907690048,-0.007049200125038624,-0.20537056028842926,-0.060002345591783524,0.014532849192619324,-0.008064615540206432,0.18498662114143372,0.18007279932498932,0.18445083498954773,0.043882306665182114,-0.006108506582677364,0.2099859118461609,0.15687306225299835,0.25080347061157227,0.19565841555595398,0.11430368572473526,-0.23245374858379364,-0.03784099593758583,-0.016850339248776436,0.03757492080330849,0.14008645713329315,0.07617146521806717,0.0601508729159832,-0.07524576783180237,0.034798432141542435,0.0576031431555748,0.21412642300128937,0.10127635300159454,-0.02776571549475193,-0.2333815097808838,-0.23829323053359985,-0.024029390886425972,0.02816026471555233,-0.009548641741275787,-0.021211883053183556,0.02474156953394413,0.040567878633737564,0.08758030086755753,-0.09547028690576553,-0.0520828515291214,0.1433860957622528,-0.09692488610744476,-0.13941733539104462,-0.2158900648355484,-0.26405155658721924,0.07924965769052505,0.02108170837163925,-0.07460274547338486,-0.18359844386577606,-0.10870036482810974,-0.04160205274820328,-0.1711396872997284,-0.1674758940935135,0.04862077534198761,-0.05303944647312164,-0.14635491371154785,-0.07316514849662781,-0.29550403356552124,-0.1411357820034027,0.10738875716924667,0.025323813781142235,0.035736750811338425,-0.09652772545814514,-0.15633012354373932,-0.1854400634765625,-0.2600121796131134,-0.15852035582065582,-0.11244441568851471,-0.15733177959918976,-0.08383749425411224,-0.1271641105413437,-0.1251601278781891,0.013481580652296543,0.05045052245259285,0.11851511895656586,0.03972258046269417,-0.06968127936124802,-0.0630335882306099,-0.08359532058238983,-0.08490189164876938,-0.10639199614524841,-0.14365756511688232,-0.16830939054489136,-0.11970286071300507,-0.03802426531910896,0.08344931900501251,0.03627742454409599,0.07079847902059555,0.028177138417959213,0.02719239890575409,0.05357794836163521,0.10072988271713257,0.053680118173360825,0.049154315143823624,-0.014536703005433083,-0.07908888906240463,0.10341703146696091,0.13764040172100067,0.24341118335723877,0.22517234086990356,0.11434683203697205,-0.02632581815123558,0.0708746612071991,0.005850424058735371,0.0805373266339302,0.17564798891544342,0.2200191766023636,0.0893205925822258,0.15843166410923004,0.1799432784318924,0.17197272181510925,0.14967221021652222,0.1207924485206604,0.06659498065710068,0.008285820484161377,-0.01911311224102974