{"shape": [10, 196]}
0.04485944285988808,0.02983897738158703,0.05711111053824425,0.05302540957927704,0.09567923843860626,0.07932613044977188,0.06422298401594162,0.09026749432086945,0.08762265741825104,0.014094631187617779,-0.021504519507288933,0.059706926345825195,-0.01968192495405674,0.04696562513709068,0.09355056285858154,0.006712331902235746,-0.02781108394265175,-0.04329679533839226,0.028803803026676178,-0.027881139889359474,-0.11179382354021072,-0.1297510415315628,-0.1529623568058014,-0.253322958946228,-0.13251902163028717,-0.1289702206850052,0.004902699030935764,0.11302968114614487,0.0737791359424591,0.010850826278328896,-0.10507606714963913,-0.02656335011124611,-0.08691816031932831,-0.07229185104370117,0.08561789989471436,0.11644446104764938,0.08037720620632172,0.07343260943889618,-0.010209484025835991,-0.03883669897913933,-0.06227387487888336,0.05597861483693123,0.0552775003015995,0.043261460959911346,-0.00282100192271173,-0.18350836634635925,-0.16935595870018005,-0.07831204682588577,-0.009914511814713478,0.059084177017211914,0.21006688475608826,0.12599864602088928,0.03023195080459118,0.0937221422791481,-0.10702209919691086,-0.08705665916204453,0.07922036200761795,0.04484918341040611,-0.10149683058261871,-0.07059494405984879,-0.03153165057301521,-0.05140042304992676,0.07377301156520844,0.0950358435511589,0.20774489641189575,0.23404476046562195,0.07409535348415375,0.03429325297474861,0.06139339506626129,-0.05485834926366806,0.07041177898645401,-0.02469690889120102,-0.03732322156429291,-0.006514555308967829,-0.03004777990281582,0.07867854833602905,0.03772139549255371,-0.19595085084438324,-0.11274195462465286,0.13499541580677032,0.08140414953231812,0.19550500810146332,0.14274971187114716,-0.07083120197057724,-0.012552907690405846,0.002988541731610894,0.06395343691110611,0.09948806464672089,0.03647257015109062,0.0550021193921566,-0.1271854192018509,-0.46098625659942627,-0.3043760657310486,-0.15536309778690338,0.06287294626235962,0.19473876059055328,0.2507244944572449,0.0007145400741137564,0.0336412638425827,-0.08099760115146637,0.15310341119766235,0.13453395664691925,0.1968642920255661,0.17761331796646118,-0.21206508576869965,-0.45997345447540283,-0.22629158198833466,-0.06874103844165802,0.07125438749790192,0.14559371769428253,0.21537502110004425,0.10960685461759567,0.08014658838510513,-0.09261702001094818,0.10112223029136658,0.14904716610908508,0.1557771861553192,0.07736631482839584,-0.3679991662502289,-0.3991085886955261,-0.08335236459970474,0.09990398585796356,0.04636566713452339,0.06661631166934967,0.08916836231946945,0.09605799615383148,0.05883045494556427,-0.13109077513217926,-0.015448606573045254,0.024603940546512604,0.13704365491867065,0.15664911270141602,-0.1064445748925209,-0.18513017892837524,0.08273057639598846,0.025982217863202095,0.002215656451880932,0.08204930275678635,-0.08508329093456268,0.0683584213256836,0.017768140882253647,-0.039202503859996796,0.03395631164312363,0.012649848125874996,0.12833479046821594,0.2617635130882263,0.05675651878118515,0.05970679223537445,-0.019646480679512024,-0.1161356195807457,-0.035269785672426224,-0.03463810682296753,-0.050933003425598145,0.11421868205070496,-0.001383801456540823,0.02243107743561268,-0.03076719492673874,0.06356901675462723,0.058211784809827805,0.23777717351913452,0.19286631047725677,0.0923813208937645,0.04115098714828491,-0.050602901726961136,-0.04467782750725746,-0.06246483698487282,0.0556473471224308,0.02389289252460003,0.04316476359963417,0.10069958865642548,-0.07065637409687042,-0.0991644337773323,-0.05127354711294174,0.011070657521486282,0.14155760407447815,0.000988784246146679,-0.15286140143871307,-0.13372589647769928,-0.15738442540168762,0.0006524063064716756,0.020258992910385132,0.033148545771837234,0.11181044578552246,0.10934483259916306,0.04915359988808632,-0.003358362475410104,-0.01800442859530449,-0.0626114159822464,-0.1668410301208496,-0.11824724078178406,-0.0024430921766906977,-0.029094332829117775,0.026317140087485313,0.07631810009479523,0.03013034164905548,0.1082029640674591,0.0269986093044281,-0.07955639809370041,-0.04531301185488701,-0.004610849544405937,-0.09370239078998566,-0.03885505720973015,0.014314274303615093,-0.0377284437417984,-0.06897507607936859,0.04315056651830673,-0.011606087908148766,0.03130865842103958,-0.06848175823688507,-0.038419950753450394,-0.04398293420672417,0.03242749720811844,-0.04907718300819397,0.02648603729903698,-0.057513635605573654,-0.11218390613794327,-0.1536872386932373,-3.347401070641354e-05,-0.13171584904193878,-0.20877686142921448,-0.2311936318874359,-0.07545068114995956,-0.008428631350398064,-0.05367815122008324,-0.048832327127456665,-0.03652806952595711,0.09707725048065186,-0.028153007850050926,-0.13115191459655762,-0.13453559577465057,0.07360541075468063,0.15770216286182404,0.01833411306142807,0.08836746215820312,0.18132412433624268,0.13174627721309662,-0.07616633176803589,0.020589962601661682,0.001415225793607533,-0.03065030463039875,-0.06895286589860916,-0.2190210074186325,-0.23787616193294525,-0.20056766271591187,-0.18081103265285492,-0.24808987975120544,-0.2138851433992386,-0.10778329521417618,-0.03370046243071556,-0.08501770347356796,-0.1948191076517105,-0.03527038171887398,-0.05485203489661217,-0.07680331915616989,-0.1575615108013153,-0.17012575268745422,-0.15382930636405945,-0.16046282649040222,-0.06266457587480545,0.17152221500873566,-0.04178694635629654,-0.14093974232673645,-0.1555899679660797,-0.2234044224023819,-0.4007416367530823,-0.021120484918355942,0.02620546519756317,-0.018296165391802788,-0.14775536954402924,-0.15190990269184113,-0.08814643323421478,-0.13806940615177155,-0.02263842150568962,0.31585782766342163,0.026927579194307327,-0.16578099131584167,-0.2360331267118454,-0.35425302386283875,-0.2990933358669281,-0.037415966391563416,0.03664891794323921,-0.055777985602617264,-0.10021709650754929,-0.03456087037920952,-0.12157461047172546,-0.3690667748451233,0.15616102516651154,0.29337912797927856,0.06624959409236908,-0.09677617251873016,-0.21600684523582458,-0.0942099317908287,-0.03655387461185455,-0.02295381762087345,0.006771237589418888,-0.07990804314613342,-0.08329227566719055,-0.1404285877943039,-0.23200607299804688,-0.22547759115695953,0.11694557219743729,0.282925546169281,-0.0032636455725878477,-0.37393978238105774,-0.1839788407087326,-0.0851127952337265,-0.1505545973777771,0.018787609413266182,-0.0042875357903540134,-0.010991760529577732,-0.24633175134658813,-0.24747075140476227,-0.13129912316799164,-0.18289914727210999,0.06657448410987854,0.2624071538448334,-0.23506802320480347,-0.36059048771858215,-0.14422236382961273,-0.04422952979803085,-0.05660427734255791,-0.10888312011957169,-0.016227567568421364,-0.07132937014102936,-0.32122331857681274,-0.253285676240921,-0.07970748096704483,-0.07678133249282837,0.1769227385520935,0.04673195257782936,-0.18988940119743347,-0.06015852093696594,-0.00047707674093544483,-0.07304632663726807,0.013518727384507656,0.029222521930933,0.008943184278905392,0.030714044347405434,0.089887835085392,-0.00010179470700677484,0.04937617853283882,-0.04044431075453758,-0.012484504841268063,-0.14683030545711517,-0.03819781169295311,0.13679149746894836,0.09885504096746445,-0.05526871606707573,-0.019620276987552643,0.014382782392203808,-0.07714176177978516,-0.0787215605378151,0.2106439173221588,0.12399879097938538,0.06657453626394272,-0.14828024804592133,-0.24219098687171936,0.000678673037327826,0.11677910387516022,0.10157465934753418,0.06988798081874847,-0.06838659197092056,-0.023047644644975662,-0.027345672249794006,-0.06962884217500687,-0.03373698890209198,-0.052716515958309174,-0.11984875053167343,-0.15358886122703552,-0.1349700391292572,-0.0944274365901947,-0.0810784175992012,-0.11481855064630508,-0.0806373581290245,-0.07320230454206467,-0.0955914855003357,-0.0329442135989666,-0.053610868752002716,-0.09457985311746597,-0.04156575724482536,0.02216794714331627,-0.06477820128202438,-0.13187351822853088,-0.14168138802051544,-0.2359110414981842,-0.18169815838336945,-0.04438239336013794,-0.0915813148021698,0.01726176217198372,-0.020706545561552048,0.01784512959420681,-0.001759250182658434,-0.09551744163036346,-0.08620060980319977,-0.05074016749858856,-0.08933690190315247,-0.03488047048449516,-0.08843925595283508,-0.10891219973564148,-0.0030756087508052588,-0.024893607944250107,-0.00598894851282239,-0.10741349309682846,-0.07338981330394745,-0.06194613501429558,-0.09099535644054413,-0.07561422884464264,-0.10555554181337357,-0.02629273384809494,0.02126653678715229,0.0685829296708107,0.15212386846542358,0.14734067022800446,0.026604052633047104,0.05881063640117645,-0.1084442138671875,-0.09653858840465546,-0.082112155854702,-0.10245217382907867,-0.08270164579153061,-0.10658571124076843,-0.05191504955291748,-0.06168941780924797,0.08797821402549744,0.159573033452034,0.08536336570978165,0.1928042322397232,0.10308991372585297,0.16697393357753754,0.020095795392990112,-0.0350450724363327,-0.1643332540988922,-0.11904094368219376,-0.08688802272081375,-0.06655703485012054,-0.03587891161441803,0.06515990197658539,0.027104543522000313,-0.007190030999481678,0.036412157118320465,0.022679729387164116,0.06317634135484695,-0.03135251998901367,0.012579750269651413,-0.01414218544960022,-0.06858912855386734,-0.31341665983200073,-0.0827263817191124,-0.0725233405828476,-0.006463473662734032,0.1574191302061081,0.05026239901781082,0.0176174845546484,0.0567045621573925,0.014224645681679249,0.06675098836421967,0.0344318188726902,0.01028509996831417,-0.017875388264656067,-0.03698338195681572,-0.3089641332626343,-0.018275292590260506,-0.0823483094573021,1.434875957784243e-05,0.02333247847855091,-0.22533534467220306,-0.1468585580587387,-0.2372819483280182,-0.3631559908390045,-0.2583290636539459,-0.06958900392055511,-0.00043836291297338903,0.04431129992008209,-0.09852253645658493,-0.1851959079504013,-0.07104069739580154,-0.059023600071668625,-0.16271966695785522,-0.3825885057449341,-0.45570722222328186,-0.347975492477417,-0.23176418244838715,-0.33397963643074036,-0.18993929028511047,-0.18772920966148376,-0.05585923418402672,-0.05710286647081375,-0.16697660088539124,0.0851433202624321,0.10140185803174973,-0.11877407133579254,-0.0005178377032279968,-0.12172707170248032,-0.10446866601705551,-0.0580873005092144,0.052071068435907364,0.19102254509925842,0.09473785012960434,-0.03575819730758667,-0.07468973845243454,-0.08477792888879776,-0.18326415121555328,0.25792446732521057,0.18031184375286102,-0.08124979585409164,0.18665699660778046,0.20735499262809753,0.08873721957206726,0.02757982537150383,0.05596238002181053,0.23987047374248505,0.09318596869707108,0.047803957015275955,-0.026678355410695076,0.007264821324497461,0.1125364825129509,0.3327087461948395,0.2432110756635666,-0.08553271740674973,0.07749488204717636,0.12175380438566208,0.1299777776002884,0.10479489713907242,0.14797987043857574,0.2117329239845276,0.09964357316493988,0.10761120915412903,0.03777498006820679,0.07179386168718338,0.1487104445695877,0.29783526062965393,0.004845212679356337,0.0038819988258183002,0.05353754013776779,0.15444573760032654,0.13873329758644104,0.1851387768983841,0.16712212562561035,0.004841519985347986,-0.016359126195311546,0.05812443420290947,0.1609155386686325,0.18000675737857819,0.13979871571063995,0.2115839570760727,0.029754048213362694,0.016959426924586296,-0.02097894437611103,0.09703289717435837,0.08195118606090546,0.12128987908363342,0.007042295299470425,-0.06440053135156631,-0.12648355960845947,-0.024520646780729294,0.13897565007209778,0.1887081116437912,0.20539972186088562,0.12313473969697952,-0.08065231144428253,-0.08976234495639801,-0.030898509547114372,-0.21333272755146027,-0.288396954536438,-0.16823846101760864,-0.12882451713085175,-0.0306315328925848,-0.07665204256772995,-0.08532731235027313,-0.040593523532152176,-0.10278496146202087,-0.044837310910224915,-0.009631037712097168,0.0022164059337228537,-0.008715654723346233,-0.06977159529924393,0.0037048794329166412,-0.0505220927298069,-0.099742591381073,-0.061554841697216034,-0.06284627318382263,-0.05554448068141937,-0.03898511081933975,-0.02024756744503975,-0.0925634503364563,-0.007881387136876583,-0.0706653818488121,-0.01487510371953249,0.04514697566628456,0.0159713514149189,-0.02461349591612816,0.030944382771849632,-0.059265926480293274,-0.05652400478720665,-0.06369680166244507,0.03047201596200466,-0.06670064479112625,0.03189608082175255,0.021556252613663673,-0.040548063814640045,-0.08134736120700836,-0.07467135787010193,-0.012749996967613697,0.0379924476146698,0.07724810391664505,0.034215666353702545,0.05479602515697479,0.08360543102025986,0.19709834456443787,0.14124706387519836,0.07594937831163406,0.05362783744931221,-0.029949968680739403,-0.0844942107796669,-0.009506041184067726,-0.05834916606545448,-0.03343525528907776,-0.024596352130174637,0.20689131319522858,0.15767841041088104,0.09709510207176208,0.028312332928180695,0.07956375926733017,0.04064188525080681,0.018958937376737595,-0.07588662952184677,-0.09406492859125137,-0.2558426260948181,-0.04520416632294655,0.008130013011395931,0.020102770999073982,0.05183947831392288,0.19968579709529877,0.09774764627218246,0.14187641441822052,0.11990123987197876,0.11816700547933578,0.07255793362855911,0.0582844503223896,0.014630356803536415,-0.021547673270106316,-0.20172443985939026,-0.25453877449035645,-0.06174878776073456,-0.017747705802321434,0.09144291281700134,0.23667633533477783,0.0965833067893982,-0.08054535835981369,-0.15647855401039124,-0.1060425266623497,0.17509891092777252,0.14363010227680206,0.10776687413454056,0.09571957588195801,-0.046481870114803314,-0.3418193757534027,-0.08311397582292557,-0.022995736449956894,0.18862676620483398,0.044790152460336685,-0.18522848188877106,-0.2200845628976822,-0.31979453563690186,-0.05713324248790741,0.15494287014007568,0.16678452491760254,0.10185506939888,0.10813542455434799,-0.08154339343309402,-0.243972048163414,0.016359157860279083,0.005176566541194916,0.034872252494096756,-0.19476120173931122,-0.2509097754955292,-0.15534086525440216,-0.0672302171587944,0.17497313022613525,0.17573775351047516,0.09065208584070206,0.0524824857711792,-0.23111088573932648,-0.3814634680747986,-0.06747230142354965,0.0335354283452034,0.02623232640326023,0.027191247791051865,-0.04400511831045151,-0.24246558547019958,-0.1428757756948471,0.008330398239195347,0.06043820083141327,0.13202202320098877,-0.004635908175259829,0.08369407802820206,-0.010690809227526188,-0.07909025996923447,-0.04989730194211006,-0.04188345745205879,0.04228835925459862,0.1933584064245224,0.09362046420574188,-0.09043382108211517,-0.2428310066461563,-0.23105594515800476,-0.14380215108394623,-0.10786358267068863,0.019778471440076828,0.06800498813390732,0.10719278454780579,0.09307501465082169,-0.07161753624677658,-0.08882860094308853,-0.008884653449058533,0.3933940529823303,0.25906339287757874,0.06749722361564636,-0.14649061858654022,-0.26656579971313477,-0.27188757061958313,-0.10930327326059341,0.16748078167438507,0.1785890758037567,0.08423121273517609,0.1062789261341095,-0.2117120325565338,-0.06732232868671417,0.012395148165524006,0.2739620506763458,0.20477509498596191,0.14218412339687347,0.10164326429367065,-0.0854380875825882,-0.11803440004587173,0.043310992419719696,0.09553763270378113,0.09375971555709839,0.06740037351846695,-0.14003771543502808,-0.16779932379722595,0.0045331791043281555,0.006914361380040646,0.13061122596263885,0.20443448424339294,0.11858699470758438,0.08997079730033875,0.09525229781866074,0.02893039397895336,0.019873447716236115,0.031838949769735336,0.054254330694675446,0.012332435697317123,-0.1635635644197464,-0.10428905487060547,-0.017428625375032425,-0.02977677993476391,0.12088567763566971,0.1657743901014328,0.2228749394416809,0.100252166390419,0.12330780923366547,0.10944660753011703,0.03645370528101921,-0.026833798736333847,-0.10789014399051666,-0.08661291748285294,-0.0453525148332119,-0.0947241261601448,-0.0663108304142952,-0.04298422858119011,-0.024643614888191223,0.025232605636119843,0.03869212418794632,-0.08747359365224838,0.00594958383589983,-0.05513860285282135,-0.04410542920231819,-0.00859998818486929,-0.06130749732255936,0.04439723491668701,0.04697798192501068,-0.0012526593636721373,-0.012373295612633228,0.031258437782526016,-0.008034962229430676,0.023923764005303383,-0.015912294387817383,0.04356838017702103,-0.01659422367811203,0.03128904104232788,-0.0021056958939880133,0.06182568520307541,0.0754438042640686,0.0005375277833081782,0.10850758850574493,0.0009971086401492357,0.017282428219914436,0.07985906302928925,0.04082272946834564,0.06882580369710922,-0.053145021200180054,-0.1698787659406662,-0.30424803495407104,-0.42952555418014526,-0.2862354815006256,-0.1868591457605362,-0.13345345854759216,0.015015278942883015,0.036499422043561935,0.07895703613758087,0.030834272503852844,0.0861617773771286,0.06784188002347946,0.09950998425483704,0.11560587584972382,0.071220763027668,-0.03897283598780632,-0.039035484194755554,0.05086435005068779,0.09068130701780319,0.12839850783348083,0.13782960176467896,0.23208840191364288,0.13486574590206146,0.011476997286081314,0.0638851672410965,0.026295918971300125,0.07226298004388809,0.07641415297985077,-0.024697881191968918,-0.13772884011268616,-0.1707460731267929,-0.3100503385066986,-0.2595539093017578,-0.018053380772471428,0.0039101578295230865,0.2526361644268036,0.19786033034324646,0.06263317912817001,0.03160474821925163,-0.03454313799738884,-0.027494661509990692,-0.0975986048579216,-0.0575794018805027,-0.10226500779390335,-0.1574217528104782,-0.3677709102630615,-0.12996546924114227,-0.037145424634218216,-0.030516913160681725,-0.08384842425584793,-0.062446944415569305,-0.06232619285583496,0.043197907507419586,-0.050664033740758896,-0.17390573024749756,-0.05298405513167381,0.09354960918426514,0.2347525954246521,0.009847681038081646,-0.32117289304733276,0.14036016166210175,-0.007418470457196236,-0.12513694167137146,-0.1412239670753479,-0.26960086822509766,-0.06273327767848969,0.05099337920546532,-0.07561077922582626,0.0047998889349401,0.18541857600212097,0.2274726778268814,0.3255707621574402,0.11584312468767166,-0.12227547913789749,0.26591598987579346,0.08444954454898834,0.059798963367938995,0.011056553572416306,-0.09933707863092422,-0.046543706208467484,0.060580503195524216,-0.055458471179008484,0.09685500711202621,0.27096664905548096,0.18006300926208496,0.2677495777606964,0.07658664882183075,0.08846662938594818,0.314055472612381,0.17005200684070587,0.16558243334293365,0.03937118873000145,-0.1254596710205078,0.02519047260284424,0.01638711243867874,-0.07785503566265106,-0.014165019616484642,0.10787389427423477,0.07737334817647934,-0.03810621052980423,0.10054158419370651,0.2666662633419037,0.20920047163963318,0.058547522872686386,0.0037105765659362078,-0.09101960808038712,-0.0639931857585907,0.012664020992815495,0.01853831671178341,-0.048834189772605896,-0.19788245856761932,-0.2158658504486084,-0.19471415877342224,-0.2241685837507248,-0.010374144650995731,0.17355158925056458,-0.020439689978957176,-0.2020723968744278,-0.14417167007923126,-0.19742654263973236,-0.14532330632209778,0.08254749327898026,0.05327275022864342,-0.07637578248977661,-0.19169801473617554,-0.3333381116390228,-0.2817806303501129,-0.2959641218185425,-0.1428121030330658,-0.10242746770381927,-0.12956969439983368,-0.09452579915523529,-0.15375937521457672,-0.22331003844738007,-0.0675349086523056,-0.006803958211094141,-0.014983659610152245,0.035638321191072464,-0.20130829513072968,-0.197257861495018,-0.12059041112661362,-0.13434161245822906,-0.10849621146917343,-0.11899445950984955,0.01770278438925743,0.017401518300175667,0.1539042592048645,0.12955348193645477,0.054707881063222885,0.1091194599866867,-0.016834205016493797,0.07671773433685303,0.051467668265104294,-0.10428483784198761,-0.005106091033667326,0.021977929398417473,-0.0776180699467659,-0.02598540484905243,-0.0008275051950477064,0.042222559452056885,0.03202623128890991,0.08000439405441284,0.020958811044692993,0.11164720356464386,0.08983232080936432,0.06790509074926376,0.013012668117880821,-0.04314179718494415,-0.2006131261587143,-0.2981913089752197,-0.2936007082462311,-0.34023091197013855,-0.283786416053772,-0.21911926567554474,-0.04880334436893463,0.038209035992622375,0.06377734988927841,-0.01636466756463051,-0.10055337846279144,-0.07152169197797775,-0.17013627290725708,-0.11341128498315811,-0.09626834094524384,-0.18641090393066406,-0.19101330637931824,-0.11835019290447235,-0.1486942321062088,-0.19410191476345062,-0.06562574952840805,-0.07273140549659729,-0.11765463650226593,-0.0747181624174118,-0.15008540451526642,-0.17550522089004517,-0.06036465987563133,-0.10266432166099548,-0.17096136510372162,-0.21334926784038544,-0.2276858687400818,-0.15720270574092865,-0.04111231863498688,-0.0020592964719980955,-0.014001177623867989,-0.06266801059246063,-0.17521166801452637,-0.11275942623615265,-0.05925054848194122,-0.1876002550125122,-0.23945771157741547,-0.17592878639698029,-0.07443656027317047,-0.08140356093645096,-0.067891925573349,-0.09562621265649796,-0.04809148237109184,0.041603993624448776,0.04600178077816963,0.10656030476093292,0.10792575031518936,-0.03676023706793785,-0.0852600485086441,-0.24864326417446136,-0.22195786237716675,-0.08408761769533157,-0.007946249097585678,-0.007847262546420097,-0.030775995925068855,-0.11049775034189224,-0.017008977010846138,0.1142730638384819,0.12755918502807617,0.13146226108074188,0.30048343539237976,0.044634781777858734,-0.11620307713747025,-0.23695439100265503,-0.26199328899383545,-0.08789893984794617,0.03756002336740494,0.10453606396913528,0.019594265148043633,-0.19768290221691132,-0.1901109218597412,-0.07499486207962036,0.051110122352838516,0.2230890691280365,0.5916378498077393,0.21799366176128387,-0.1660383939743042,-0.14624722301959991,-0.05671646445989609,0.09986694902181625,0.13663224875926971,0.1700085550546646,0.1962912380695343,-0.1084345355629921,-0.20783035457134247,-0.23603732883930206,-0.2551558017730713,-0.1306294947862625,0.5018740892410278,0.09089426696300507,-0.09984394907951355,-0.1582837551832199,0.007268285844475031,0.06334606558084488,0.05259031802415848,0.2202077955007553,0.1708454042673111,-0.024940885603427887,-0.22874078154563904,-0.13602589070796967,-0.24878357350826263,-0.5759865045547485,-0.46673646569252014,-0.045408979058265686,-0.057748425751924515,-0.15687139332294464,-0.0889919176697731,-0.10437635332345963,0.016070445999503136,0.16022071242332458,0.0848468467593193,-0.15317575633525848,-0.18309783935546875,-0.05727965384721756,-0.04750538244843483,-0.11697176098823547,-0.16344083845615387,-0.12912163138389587,-0.1877877563238144,-0.04774380102753639,-0.02319207973778248,-0.1259727030992508,-0.14471587538719177,-0.24144355952739716,-0.18291950225830078,-0.22256562113761902,-0.09105156362056732,0.029362814500927925,0.046965062618255615,-0.009593035094439983,0.048447608947753906,-0.1911190152168274,-0.18155257403850555,-0.07685422897338867,0.14847025275230408,0.14195384085178375,-0.08400863409042358,-0.15234826505184174,-0.11041828244924545,-0.0987972691655159,0.07066742330789566,0.05000663548707962,0.05433440953493118,0.06108756735920906,0.030245846137404442,-0.08919738978147507,-0.07161010056734085,-0.03318652883172035,0.0328286848962307,0.1375139057636261,0.15898723900318146,0.1361648291349411,0.022982170805335045,0.07276194542646408,0.04328953102231026,0.08022043853998184,0.08316974341869354,0.20737555623054504,-0.001196532160975039,-0.10509631782770157,-0.06661862879991531,-0.14427658915519714,-0.046782348304986954,-0.053325433284044266,0.04323335736989975,0.07044162601232529,0.06452015042304993,-0.005357325077056885,0.072111114859581,0.05203842371702194,0.14161981642246246,0.15161271393299103,-0.02769128791987896,-0.11514602601528168,-0.09845952689647675,-0.08673368394374847,-0.09904059022665024,-0.04398481920361519,0.0753358006477356,0.08342335373163223,0.178542360663414,0.12642163038253784,-0.025746125727891922,-0.005478247068822384,0.026467090472579002,-0.02803332544863224,-0.07292860746383667,-0.05695125460624695,-0.18633152544498444,-0.19571684300899506,-0.10959116369485855,-0.14776767790317535,-0.177845299243927,-0.10607647150754929,-0.0855676531791687,-0.030945997685194016,-0.10180643945932388,-0.15731485188007355,-0.0960782915353775,-0.14257892966270447,-0.12691935896873474,-0.0940534770488739,0.01999642886221409,0.08107602596282959,0.1054101213812828,0.01295092049986124,0.02765212580561638,0.049272168427705765,0.06977947801351547,0.028816957026720047,0.020576493814587593,0.1361556500196457,0.0330592580139637,0.02451605722308159,-0.009392138570547104,-0.02666240744292736,0.01568298414349556,0.09661095589399338,0.031161930412054062,0.20242354273796082,0.20541104674339294,0.24493902921676636,0.19279420375823975,0.15059886872768402,0.19199267029762268,0.18779398500919342,0.2755418121814728,0.30552181601524353,0.12958963215351105,0.02477768249809742,0.07504802197217941,0.010110856965184212,-0.023850368335843086,-0.030467543751001358,-0.020632905885577202,-0.07223214209079742,-0.09191092103719711,-0.09063275903463364,0.06472998857498169,0.15617525577545166,0.2617796063423157,0.26101651787757874,0.15159739553928375,0.05305970832705498,0.1014065146446228,-0.08775816857814789,-0.04730716347694397,-0.10084497183561325,-0.14127793908119202,-0.15548864006996155,-0.14989729225635529,-0.08904918283224106,-0.1663064807653427,-0.18114694952964783,-0.088935986161232,-0.09737247228622437,0.04654466360807419,0.07196293026208878,0.0713164210319519,0.01820124126970768,-0.20541222393512726,-0.11659359186887741,-0.10306844115257263,-0.13085214793682098,-0.0811237320303917,-0.1618153303861618,-0.26942312717437744,-0.2625495195388794,-0.22687433660030365,-0.2229582965373993,-0.25907862186431885,-0.031081024557352066,0.01598174124956131,-0.0002684368519112468,-0.22134517133235931,0.020175641402602196,0.006093485280871391,-0.03935570269823074,0.0233360156416893,-0.27898579835891724,-0.3461342751979828,-0.24203602969646454,-0.09153391420841217,0.034574832767248154,-0.09419050812721252,-0.06231042370200157,0.09169774502515793,-0.08098897337913513,0.024058546870946884,0.11245828121900558,0.07208861410617828,0.11842323839664459,-0.035185158252716064,-0.07444629818201065,-0.026117999106645584,-0.06639754772186279,0.05138356238603592,0.31619659066200256,0.26267391443252563,-0.09189529716968536,-0.004574508406221867,-0.03033125400543213,-0.03294193744659424,0.057279787957668304,0.08340620249509811,0.21871447563171387,0.0857449471950531,0.15325012803077698,0.014798259362578392,-0.08130636066198349,0.06055675446987152,0.1628303825855255,0.14190518856048584,-0.14515644311904907,-0.021482009440660477,-0.09226518124341965,-0.10943610966205597,0.03355922922492027,0.1868508756160736,0.2028636783361435,0.16243237257003784,0.05102115869522095,-0.060228168964385986,0.05644567683339119,0.0848727896809578,0.013122182339429855,-0.0008290962432511151,-0.10348273068666458,-0.02667292207479477,-0.04414328560233116,-0.34557363390922546,-0.09872675687074661,0.13711008429527283,0.267063170671463,0.16854795813560486,0.045834410935640335,0.14909197390079498,0.15617433190345764,0.019411124289035797,0.04577081277966499,-0.09243246167898178,-0.05272258445620537,0.044037919491529465,-0.10146673023700714,-0.38418012857437134,-0.14996010065078735,-0.06264909356832504,0.2914806604385376,0.30736368894577026,0.2637684643268585,0.233608677983284,0.11955466121435165,0.058656755834817886,-0.11275432258844376,-0.08724891394376755,0.04560181871056557,0.0925942212343216,-0.04688558354973793,-0.11862245947122574,-0.23061922192573547,-0.15385787189006805,-0.09077629446983337,0.029412448406219482,-0.024741938337683678,-0.03180043771862984,-0.10546082258224487,-0.036226943135261536,-0.06919558346271515,0.02972940169274807,0.007153187412768602,0.016307657584547997,0.09934337437152863,0.04460344463586807,-0.1095324456691742,-0.1928473860025406,-0.2725682556629181,-0.2612742483615875,-0.24451081454753876,-0.27884283661842346,-0.07754775136709213,-0.045753274112939835,0.051853377372026443,-0.008335628546774387,0.07499801367521286,0.06987819075584412,0.08408476412296295,-0.02249961718916893,-0.015950391069054604,0.06174488738179207,-0.05749845877289772,-0.05992919206619263,0.007866508327424526,0.05865052342414856,0.039534226059913635,0.005565770901739597,0.006215588189661503,0.042831629514694214,0.011984851211309433,-0.08226080983877182,-0.07271089404821396,-0.12935085594654083,-0.08717043697834015,-0.07496724277734756,-0.14981839060783386,-0.03326690196990967,-0.0847473293542862,-0.1333601325750351,-0.09723644703626633,-0.044112298637628555,-0.10476997494697571,-0.1420285999774933,-0.02743450179696083,-0.0198063924908638,-0.051328666508197784,-0.10178545862436295,-0.04338382929563522,-0.1305798590183258,-0.1164374127984047,-0.18784311413764954,-0.1662576049566269,-0.17942199110984802,-0.060156721621751785,-0.08379050344228745,-0.049719538539648056,-0.09178904443979263,-0.06219297647476196,-0.07026192545890808,-0.12230048328638077,-0.07925194501876831,0.0053778444416821,-0.10801714658737183,-0.14241981506347656,-0.26475852727890015,-0.2679343521595001,-0.2947915196418762,-0.3235875964164734,-0.24624735116958618,-0.22263364493846893,-0.15726767480373383,-0.15176375210285187,-0.0690164640545845,-0.029316145926713943,0.1606597900390625,0.1998382955789566,0.09857216477394104,0.10134324431419373,-0.00568397855386138,-0.03353206440806389,-0.016626663506031036,0.05335178226232529,-0.008590436540544033,-0.09540055692195892,-0.15142598748207092,-0.14235353469848633,0.0017525211442261934,0.22953945398330688,0.1684514582157135,0.14637908339500427,0.05893697589635849,0.11248200386762619,0.0877222791314125,0.19055064022541046,0.2299048900604248,0.13514631986618042,0.06953504681587219,-0.018574850633740425,-0.22386203706264496,-0.08508285135030746,0.036514706909656525,0.31063300371170044,0.07827653735876083,0.019817335531115532,0.06658846139907837,0.03546039015054703,0.041579604148864746,0.23452048003673553,0.3479190170764923,0.17582815885543823,0.0943964496254921,-0.004813380539417267,-0.2742827236652374,-0.08243431895971298,-0.04323114454746246,0.2909014821052551,0.12820227444171906,0.03624333068728447,0.01321066077798605,-0.22931696474552155,-0.5259149670600891,-0.2017611414194107,0.18501856923103333,0.07987183332443237,0.011759174056351185,-0.08257997035980225,-0.16049093008041382,-0.09641683846712112,-0.10794468969106674,0.06067299097776413,0.03120099939405918,0.012502660043537617,-0.09399490803480148,-0.3216096758842468,-0.4540438950061798,-0.13501350581645966,0.10134641826152802,0.21973317861557007,0.22019529342651367,0.08917803317308426,-0.024439865723252296,-0.15208867192268372,-0.03668375685811043,0.014117195270955563,-0.04204127565026283,-0.07237323373556137,-0.1362253874540329,-0.28732097148895264,-0.21995386481285095,-0.030375929549336433,0.06301134824752808,0.12576064467430115,0.061298057436943054,-0.0011824311222881079,-0.13341258466243744,-0.03394308686256409,-0.005270914640277624,-0.03555896505713463,-0.15704311430454254,-0.2835707664489746,-0.24320028722286224,-0.21307840943336487,0.014613712206482887,-0.084803007543087,-0.11919448524713516,-0.17748750746250153,-0.15636663138866425,-0.2922847867012024,-0.13900209963321686,-0.09412691742181778,-0.06156808137893677,-0.09658919274806976,-0.18977533280849457,-0.20667177438735962,-0.18229934573173523,-0.10766700655221939,0.039897531270980835,-0.09442872554063797,-0.25595900416374207,-0.30523449182510376,-0.3405943214893341,-0.2788848876953125,-0.10837885737419128,-0.020906493067741394,-0.07561028003692627,-0.15768086910247803,0.027554307132959366,0.009017925709486008,0.024332797154784203,-0.02688257023692131,-0.10608173906803131,-0.06271400302648544,-0.08144479244947433,-0.2198258340358734,-0.24946437776088715,-0.23033243417739868,-0.07372760027647018,-0.023544397205114365,-0.13042403757572174,-0.0430038757622242,0.15343357622623444,0.29640528559684753,0.0992797389626503,0.14410047233104706,0.11914804577827454,0.1594485342502594,0.06354037672281265,-0.129454106092453,-0.11513633280992508,-0.21463629603385925,-0.09408712387084961,-0.008816328831017017,-0.06763388961553574,-0.023499010130763054,-0.057407353073358536,0.02565516158938408,0.25835534930229187,0.1826489120721817,0.2197016328573227,0.233805313706398,0.3147825002670288,0.19987845420837402,-0.014930078759789467,-0.05672283098101616,-0.013047509826719761,-0.0917862132191658,0.07391699403524399,0.1687220335006714,0.06198469549417496,0.05303370580077171,0.11885915696620941,0.1245889663696289,0.07956328988075256,0.16196969151496887,0.07068992406129837,0.1619669497013092,0.04561999440193176,0.13641074299812317,0.06463158130645752,0.1414937674999237,0.12903140485286713,0.10436618328094482,0.12928415834903717,0.03738928586244583,-0.0003349378239363432,0.022750087082386017,-0.14211297035217285,-0.12067998200654984,-0.06804826110601425,-0.12068522721529007,0.0271278265863657,0.1087096780538559,0.1380397528409958,0.1280335783958435,0.037838637828826904,0.04719453305006027,0.01246266346424818,-0.007309471257030964,0.0036848236341029406,0.037763871252536774,0.12848129868507385,0.10793337225914001,0.10560982674360275,0.03746216744184494,0.08221457898616791,0.0030113423708826303,0.04839897155761719,0.16937671601772308,0.11070498824119568,0.07825774699449539,-0.10672877728939056,-0.06883466243743896,-0.06194477528333664,-0.027488507330417633,0.12238651514053345,0.09423977136611938,0.12232133001089096,0.10315695405006409,0.03984531760215759,0.05032475292682648,0.1880146712064743,0.07215869426727295,0.09908337891101837,0.045832641422748566,-0.0061611575074493885,0.027141578495502472,0.13318514823913574,0.06555256247520447,0.013397586531937122,-0.14378264546394348,-0.08845167607069016,0.06493470072746277,0.099616639316082,0.07506337761878967,0.11986680328845978,0.13176417350769043,0.17330539226531982,0.09061577916145325,0.11893168836832047,0.15668536722660065,0.22556085884571075,0.16328850388526917,0.1752861738204956,-0.05549898371100426,-0.08993081748485565,0.052128370851278305,0.11858334392309189,0.20922766625881195,0.13886265456676483,0.08456068485975266,0.13645677268505096,0.04546502232551575,0.08995722979307175,0.04710059612989426,0.002973883878439665,0.05075524374842644,0.2913462817668915,0.15892019867897034,0.10447337478399277,0.023050453513860703,0.09915590286254883,0.14392440021038055,0.2381455898284912,0.07188434153795242,0.1393440216779709,0.14587187767028809,-0.14693257212638855,-0.2482225000858307,-0.20988932251930237,0.056887488812208176,0.34476104378700256,0.24217522144317627,0.05943414196372032,-0.17851781845092773,-0.23609285056591034,-0.244361013174057,-0.05959445238113403,0.06636901944875717,0.14714570343494415,0.05805915594100952,-0.16559909284114838,-0.060724321752786636,-0.006586381234228611,0.14593736827373505,0.2588401436805725,-0.0050881714560091496,-0.0003313363413326442,-0.18488538265228271,-0.12636242806911469,-0.08581314235925674,0.020239483565092087,0.07151874154806137,0.04363643750548363,-0.03547532856464386,-0.09968985617160797,0.06010625511407852,0.1092061772942543,0.15288014709949493,0.06133614107966423,-0.15260997414588928,-0.09803804755210876,-0.051080550998449326,0.015543838031589985,-0.04405159875750542,-0.022774092853069305,0.11286882311105728,0.15291845798492432,-0.040091805160045624,-0.016262125223875046,0.060966651886701584,0.03705402463674545,-0.0766078382730484,-0.12054920941591263,-0.10524260997772217,-0.048685867339372635,-0.06744462251663208,0.015025638043880463,0.03569657728075981,-0.01750025898218155,0.04977194964885712,0.07728149741888046,0.029204733669757843,-0.11162564903497696,0.02057814411818981,-0.06920959055423737,0.09504512697458267,0.2970716655254364,0.27323344349861145,0.1393740326166153,0.08637383580207825,-0.009633604437112808,-0.01925382763147354,0.06344236433506012,0.13370393216609955,0.15385738015174866,0.045304086059331894,-0.17142166197299957,-0.2502715289592743,-0.06022742763161659,-0.00359267252497375,0.06465158611536026,0.02844035066664219,0.11294584721326828,0.14347441494464874,0.10652180761098862,0.03274485841393471,0.030240988358855247,0.15895633399486542,0.1556912064552307,0.049580104649066925,0.08367402106523514,-0.008436906151473522,0.007440619636327028,-0.08772559463977814,-0.10032986104488373,-0.027998588979244232,-0.004609900061041117,0.04083447530865669,0.049273569136857986,0.051883451640605927,0.1672774851322174,0.13503329455852509,-0.0011135304812341928,-0.004714225418865681,-0.015043307095766068,0.06662791967391968,0.09933241456747055,0.0168606024235487,0.06979450583457947,0.09253255277872086,0.07960978895425797,0.10393008589744568,0.07465946674346924,0.09101711213588715,0.006261239759624004,-0.004838702268898487,-0.03015431948006153,0.04295190051198006,-0.024920359253883362,0.0516611710190773,-0.01669241674244404,-0.01234389003366232,-0.12111826986074448,-0.2355169802904129,-0.13157257437705994,-0.12134010344743729,-0.02878987044095993,0.03906335309147835,0.0520150251686573,0.013507120311260223,0.004247766919434071,-0.030068648979067802,-0.011243090964853764,-0.10851317644119263,-0.17432166635990143,-0.06047231703996658,-0.03979389742016792,-0.2085506021976471,-0.24877198040485382,-0.2210811972618103,-0.18087860941886902,-0.2539720833301544,-0.08220264315605164,0.02890801802277565,0.09584291279315948,0.05498446151614189,-0.2154509574174881,-0.2375619262456894,-0.10703247785568237,-0.05508258193731308,0.20937177538871765,0.39176157116889954,0.27837038040161133,0.08183121681213379,-0.0655156597495079,-0.2247617393732071,-0.24269407987594604,0.015557569451630116,0.02050255984067917,-0.008295099250972271,-0.20341159403324127,-0.08440892398357391,-0.00688634580001235,0.01581769622862339,0.14915044605731964,0.09107613563537598,0.05262609198689461,-0.05569642409682274,-0.08204128593206406,-0.24059142172336578,-0.29868775606155396,-0.01952463388442993,0.015926148742437363,-0.09737768024206161,0.0727681890130043,0.08868599683046341,0.19256386160850525,0.21855005621910095,-0.07286146283149719,-0.08578430116176605,0.013031329028308392,0.19606178998947144,0.12168063968420029,0.06502500176429749,-0.22871218621730804,-0.05974291265010834,-0.045044198632240295,0.05741364136338234,0.24190038442611694,0.20909483730793,0.16779156029224396,0.07793683558702469,-0.05456019192934036,0.17048196494579315,0.16696064174175262,0.24898408353328705,0.1804812252521515,0.032821789383888245,-0.2337208241224289,0.06381823867559433,0.06369612365961075,-0.03975072130560875,0.093185193836689,0.09712903201580048,0.04885588958859444,-0.04352151229977608,0.07071415334939957,0.04439679533243179,0.19175218045711517,0.0625225305557251,-0.01464445423334837,-0.1996792107820511,-0.20401744544506073,0.016708021983504295,0.0051939343102276325,0.009883025661110878,-0.0011644401820376515,0.0030227748211473227,0.026956889778375626,0.05432221293449402,-0.13898049294948578,-0.02667337656021118,0.1276865005493164,-0.06738082319498062,-0.16840818524360657,-0.2784471809864044,-0.2207406908273697,0.03963719308376312,0.08795886486768723,-0.05684008076786995,-0.19337843358516693,-0.11478240042924881,-0.07078097015619278,-0.16018882393836975,-0.12465372681617737,-0.011229017749428749,-0.03374593332409859,-0.17838595807552338,-0.09296689182519913,-0.2374144196510315,-0.14811892807483673,0.009186296723783016,0.03653557598590851,0.022272655740380287,-0.04245396703481674,-0.14687275886535645,-0.2298479676246643,-0.2878848612308502,-0.14385180175304413,-0.10180477052927017,-0.1853758841753006,-0.10301205515861511,-0.1314273178577423,-0.12271679937839508,0.042217135429382324,-0.027604222297668457,0.01246908400207758,0.030058875679969788,-0.12556859850883484,-0.06870800256729126,-0.0654229074716568,-0.0388314388692379,-0.09507028758525848,-0.1265922635793686,-0.1519574373960495,-0.07976879924535751,-0.05617589130997658,0.12482767552137375,0.033354539424180984,0.06582897901535034,-0.003373833606019616,0.013925040140748024,0.07118795812129974,0.11058227717876434,0.05590832978487015,0.04949698597192764,-0.011962848715484142,-0.06125090643763542,0.0801815316081047,0.09136888384819031,0.22621048986911774,0.2474367767572403,0.05065435543656349,0.06118490546941757,0.10646779835224152,0.05380503833293915,0.09717696160078049,0.19407838582992554,0.1837005466222763,0.17242665588855743,0.19108228385448456,0.17770203948020935,0.1777830421924591,0.16996845602989197,0.10410771518945694,0.05819583311676979,0.11187253147363663,0.061698656529188156