{"shape": [10, 196]}
-0.011703967116773129,0.08638051152229309,0.062322746962308884,0.0017646912019699812,0.051426634192466736,0.12284108996391296,0.09390600770711899,0.10141304135322571,0.14949889481067657,0.03683965653181076,0.1225331500172615,0.08194871246814728,0.08712729811668396,0.01779063791036606,0.09142614901065826,0.01258634403347969,-0.032691825181245804,0.024752851575613022,-0.02742699347436428,-0.08994197100400925,-0.09410613775253296,-0.10733693838119507,-0.12103331089019775,-0.24230624735355377,-0.13861902058124542,-0.028921334072947502,-0.027832824736833572,0.068547323346138,-0.00015657958283554763,0.11099328100681305,0.00025116963661275804,-0.09251251816749573,-0.06618037819862366,-0.007909961976110935,0.03604383021593094,0.17057333886623383,0.08125332742929459,0.08565255999565125,-0.010273394174873829,-0.025488561019301414,-0.07389624416828156,-0.029705829918384552,0.018120592460036278,0.08025453239679337,0.005835114978253841,-0.1743929088115692,-0.14518369734287262,-0.051109571009874344,-0.039431940764188766,0.11748716980218887,0.18434534966945648,0.06889995187520981,0.05447689816355705,0.10043039172887802,-0.12215515971183777,0.0055664354003965855,0.10575394332408905,-0.012368331663310528,-0.12810693681240082,-0.06700175255537033,-0.02662942185997963,-0.02694348432123661,0.11870143562555313,0.07572738826274872,0.24727463722229004,0.26672109961509705,0.06645549088716507,0.04314731806516647,0.07728537172079086,-0.035368431359529495,0.08719313144683838,0.013868027366697788,-0.06577226519584656,0.009353520348668098,-0.09101825207471848,0.06976152956485748,-0.0009332841727882624,-0.13988780975341797,-0.07727647572755814,0.1210460513830185,0.09415329992771149,0.24519646167755127,0.10857121646404266,-0.018408067524433136,0.05938698723912239,-0.05382023751735687,0.05409691110253334,0.12112513929605484,-0.00562151987105608,0.10045286267995834,-0.12105212360620499,-0.4306451082229614,-0.3099147081375122,-0.09642724692821503,0.041671574115753174,0.18149162828922272,0.30788788199424744,0.022954219952225685,0.09950991719961166,-0.08132357150316238,0.125041663646698,0.10475456714630127,0.18622912466526031,0.14621132612228394,-0.24106845259666443,-0.48728907108306885,-0.28543180227279663,-0.05916851386427879,0.049250341951847076,0.21716102957725525,0.16504502296447754,0.01599128171801567,0.08360642194747925,-0.12056054919958115,0.08203466236591339,0.08404432982206345,0.19344399869441986,0.10097015649080276,-0.30284905433654785,-0.4092479646205902,-0.07848712056875229,0.12891216576099396,0.05677133426070213,0.049364928156137466,0.002197429770603776,0.07805941253900528,0.07913100719451904,-0.1984555870294571,0.013139070942997932,0.05358942970633507,0.16924388706684113,0.15776750445365906,-0.14064669609069824,-0.1614595651626587,0.09199389070272446,0.060867588967084885,0.016538821160793304,0.06384211778640747,0.023050768300890923,0.013762447983026505,0.009500467218458652,-0.08029261231422424,0.016861699521541595,-0.011587968096137047,0.12538543343544006,0.2371070384979248,0.07279041409492493,-0.004331418313086033,0.00210902513936162,-0.07862109690904617,-0.032922714948654175,-0.006035734433680773,-0.0726846307516098,0.09504273533821106,0.022026287391781807,-0.019707979634404182,-0.032362159341573715,0.07032136619091034,0.09073720872402191,0.1723155528306961,0.18941955268383026,0.1514938324689865,-0.028294485062360764,-0.03483445942401886,-0.1068795770406723,-0.04529108107089996,0.05479268729686737,0.01129875797778368,-0.005402917508035898,0.07775779813528061,0.00900334119796753,-0.14039981365203857,-0.07648183405399323,0.03938262164592743,0.085392527282238,-0.01716822199523449,-0.06833554059267044,-0.14963297545909882,-0.1861683875322342,-0.03237404301762581,0.058877114206552505,0.11955667287111282,0.02040628343820572,0.016380611807107925,0.08804483711719513,-0.04846200346946716,-0.10183071345090866,-0.13212072849273682,-0.12179093062877655,-0.10786762833595276,-0.029756881296634674,-0.06598186492919922,0.0637330710887909,0.05623304843902588,0.08254174143075943,0.11663772165775299,-0.0038614021614193916,-0.04176679253578186,0.027761396020650864,0.055375777184963226,0.04750977084040642,-0.023091327399015427,-0.005969402380287647,0.029413750395178795,0.03225952014327049,-0.008786754682660103,0.02937864139676094,0.0017430073348805308,-0.05391358211636543,-0.028349988162517548,0.05507364124059677,0.06868533790111542,0.032900433987379074,-0.06625870615243912,-0.02170371450483799,-0.14769604802131653,-0.12824217975139618,0.03503114730119705,-0.09276238083839417,-0.20617049932479858,-0.24183401465415955,-0.04589882865548134,-0.09835518896579742,-0.07965865731239319,-0.03505469858646393,0.010195666924118996,0.0876462534070015,-0.07374028116464615,-0.14712949097156525,-0.103732168674469,0.040855955332517624,0.15167354047298431,0.05956990271806717,0.07078845053911209,0.19707971811294556,0.10439086705446243,-0.04344640672206879,-0.09172194451093674,0.06534458696842194,-0.01095216441899538,-0.030856382101774216,-0.1377064734697342,-0.2574077248573303,-0.1928541362285614,-0.1779477894306183,-0.21582525968551636,-0.2524481415748596,-0.1311076134443283,-0.029863595962524414,-0.10055530071258545,-0.19677293300628662,-0.076900914311409,0.061578940600156784,-0.04880872741341591,-0.0901414006948471,-0.12167230993509293,-0.14083269238471985,-0.11267361789941788,-0.08375716209411621,0.17305545508861542,-0.014461077749729156,-0.14847059547901154,-0.1319359391927719,-0.24794548749923706,-0.4277992248535156,-0.09990082681179047,0.039104118943214417,0.014805048704147339,-0.1709313988685608,-0.17273637652397156,-0.18536818027496338,-0.16253286600112915,-0.05157189071178436,0.3695373237133026,0.020714880898594856,-0.11883693188428879,-0.25822576880455017,-0.304437518119812,-0.29206886887550354,-0.08291799575090408,0.028194496408104897,-0.03427518531680107,0.015818119049072266,-0.10198229551315308,-0.0757519006729126,-0.3178829848766327,0.1362275630235672,0.34084805846214294,0.06283561885356903,-0.14882715046405792,-0.17685070633888245,-0.08153557777404785,-0.026846950873732567,-0.030903983861207962,-0.05788719654083252,-0.04005919024348259,-0.05651093274354935,-0.06500957906246185,-0.19040364027023315,-0.24774415791034698,0.11225458234548569,0.28582653403282166,0.0004794448032043874,-0.36308756470680237,-0.21628767251968384,-0.11692812293767929,-0.08608438074588776,0.021752940490841866,0.007196197751909494,0.021878760308027267,-0.1539631187915802,-0.30745646357536316,-0.15846647322177887,-0.15045486390590668,0.1492329239845276,0.2496226280927658,-0.22507327795028687,-0.29274094104766846,-0.15255853533744812,-0.07108274847269058,-0.046148765832185745,-0.09948013722896576,0.031447671353816986,-0.05165183171629906,-0.36506590247154236,-0.18718810379505157,-0.046816740185022354,-0.09301301836967468,0.1695510745048523,0.06400731205940247,-0.21393391489982605,-0.01225322112441063,0.05014648661017418,-0.08210339397192001,-0.07102224975824356,0.013951033353805542,-0.07087503373622894,-0.03276672214269638,0.058004412800073624,0.03475172817707062,0.03343912959098816,-0.0685788094997406,-0.003743822453543544,-0.15239696204662323,-0.0405881293118,0.06473545730113983,0.1423605978488922,-0.0005120302084833384,0.015929462388157845,0.03206370025873184,-0.06610724329948425,-0.045396920293569565,0.22665229439735413,0.11402381956577301,0.06927890330553055,-0.08565670251846313,-0.27873995900154114,-0.012800570577383041,0.14958320558071136,0.13289740681648254,0.010374888777732849,-0.12165265530347824,-0.044311508536338806,-0.011833327822387218,-0.006562529597431421,-0.014636282809078693,-0.08921382576227188,-0.06918308138847351,-0.16004757583141327,-0.16123710572719574,-0.12660382688045502,-0.07462747395038605,-0.0959692969918251,-0.13073204457759857,0.003608035622164607,-0.09680426120758057,-0.05631192773580551,-0.06347926706075668,-0.009860574267804623,-0.015589553862810135,-0.004661113955080509,-0.05540882423520088,-0.03165092319250107,-0.09963972866535187,-0.1364508420228958,-0.18671515583992004,-0.06572514027357101,-0.09313108026981354,-0.06679977476596832,-0.041679564863443375,-0.050577312707901,-0.046322569251060486,-0.06907273083925247,-0.01476094126701355,0.007143070455640554,-0.002082073362544179,-0.05675036087632179,-0.11216778308153152,-0.037756532430648804,-0.01734999194741249,0.03754862770438194,-0.07180071622133255,-0.047516971826553345,-0.08961420506238937,-0.11152950674295425,-0.051056649535894394,0.006226262077689171,-0.03598255664110184,-0.07791054993867874,-0.05405056104063988,0.05372064933180809,0.11548198014497757,0.17789004743099213,0.028994418680667877,0.07306309789419174,-0.12394656240940094,-0.14414983987808228,-0.0917992889881134,-0.06490633636713028,-0.04291723668575287,-0.10616599023342133,-0.1032206267118454,-0.07072722911834717,0.07411393523216248,0.17254233360290527,0.1442381739616394,0.13931353390216827,0.14969517290592194,0.14224086701869965,0.05265611782670021,-0.017754342406988144,-0.14436210691928864,-0.2299467921257019,-0.026266267523169518,-0.06673648208379745,-0.024141017347574234,0.08515569567680359,0.10213626176118851,0.008557802997529507,0.059824563562870026,0.03212009742856026,0.07815475761890411,-0.014308944344520569,-0.06787648797035217,-0.07215633243322372,-0.04742836579680443,-0.2571193277835846,-0.030220774933695793,-0.008718898519873619,-0.03067990019917488,0.12975561618804932,0.05107605829834938,0.04411187395453453,0.07866962999105453,0.03530379757285118,0.059675831347703934,0.054852984845638275,0.03098142519593239,0.039014603942632675,-0.06616585701704025,-0.40999022126197815,-0.071087546646595,-0.12748168408870697,-0.029500136151909828,0.008270101621747017,-0.23274213075637817,-0.1792643666267395,-0.2254740446805954,-0.384184867143631,-0.1898757964372635,-0.05641543120145798,-0.01299886591732502,0.024196723476052284,-0.0811515524983406,-0.12205713242292404,-0.04298538714647293,-0.001771290204487741,-0.1008935198187828,-0.3413809537887573,-0.4641648828983307,-0.3463580012321472,-0.26284557580947876,-0.31433480978012085,-0.1764841377735138,-0.14430668950080872,-0.06866981834173203,-0.03512049466371536,-0.15429432690143585,0.07236704975366592,0.09286503493785858,-0.07824806869029999,-0.07706767320632935,-0.16505981981754303,-0.1411726474761963,-0.09618610143661499,0.05717625841498375,0.14800646901130676,0.07748068124055862,-0.05254071578383446,-0.07134959101676941,-0.09050559252500534,-0.12309093773365021,0.2413877546787262,0.22948144376277924,-0.08144433796405792,0.08894652873277664,0.13504405319690704,0.04329736530780792,0.024866236373782158,0.10647781193256378,0.2552017569541931,0.13326561450958252,0.007864703424274921,0.03270082175731659,0.03952944278717041,0.062318917363882065,0.32460325956344604,0.21558651328086853,-0.017677748575806618,0.10556183755397797,0.17665784060955048,0.17933447659015656,0.07773742824792862,0.1675313115119934,0.20661360025405884,0.10055026412010193,0.10499478876590729,0.039260610938072205,0.09616497904062271,0.17917825281620026,0.34171491861343384,0.08635986596345901,-0.12144123017787933,0.03801489621400833,0.11341472715139389,0.09658437222242355,0.1990244835615158,0.11434772610664368,0.020619485527276993,-0.006165617611259222,0.06799715012311935,0.20933878421783447,0.1483662724494934,0.1919591724872589,0.1889774352312088,-0.02819877490401268,-0.07365457713603973,-0.0321112684905529,0.033501364290714264,0.08678147196769714,0.09705927968025208,0.01333449687808752,-0.11178525537252426,-0.12124074995517731,-0.03310761600732803,0.1812785267829895,0.11958825588226318,0.1578439474105835,0.13178977370262146,-0.022875778377056122,0.0017084807623177767,-0.12508638203144073,-0.1539999097585678,-0.25388383865356445,-0.2044321447610855,-0.14413560926914215,-0.08450933545827866,-0.02627474069595337,-0.0685034990310669,-0.025466395542025566,-0.10018272697925568,0.000791722210124135,0.013287937268614769,-0.06606760621070862,-0.021764112636446953,-0.07473310828208923,-0.11432713270187378,-0.059351708739995956,-0.08223558962345123,-0.1393013745546341,-0.15474478900432587,-0.05495293810963631,-0.058601267635822296,-0.0809674859046936,-0.018760640174150467,-0.09459103643894196,-0.04819248989224434,-0.10457044094800949,-0.08423170447349548,-0.09352432191371918,-0.03387906402349472,0.0032555116340517998,-0.0639280378818512,0.03726351261138916,-0.0788169726729393,-0.053992368280887604,0.04081595316529274,-0.08808677643537521,-0.08034369349479675,-0.022236164659261703,0.04264111816883087,-0.08852297067642212,0.010417182929813862,0.01723163016140461,-0.04933770000934601,-0.008643907494843006,0.02122608944773674,0.08408118784427643,0.162515789270401,0.1533702164888382,0.09365788102149963,0.01930011250078678,-0.03865364193916321,-0.08498944342136383,-0.056394997984170914,-0.04594491049647331,-0.0803833156824112,0.006028867792338133,0.1433737426996231,0.16376972198486328,0.09133224934339523,0.04368182644248009,0.07311180979013443,0.03175625205039978,0.0316108763217926,-0.05659213289618492,-0.10574719309806824,-0.23847562074661255,-0.14079344272613525,0.0054413857869803905,0.05601554363965988,0.022252287715673447,0.21563997864723206,0.14171648025512695,0.17297743260860443,0.1628204733133316,0.0951126366853714,0.11357233673334122,0.0476565882563591,-0.022714009508490562,-0.023559385910630226,-0.18187406659126282,-0.23083266615867615,-0.0748959481716156,0.016918495297431946,0.14928652346134186,0.2224390208721161,0.06723812967538834,-0.044136907905340195,-0.2003483921289444,-0.07217998057603836,0.1680482178926468,0.15302728116512299,0.10632751137018204,0.1023445650935173,-0.033544737845659256,-0.3039284646511078,-0.004724122118204832,0.033293090760707855,0.15316422283649445,0.04899492487311363,-0.1607491821050644,-0.24454055726528168,-0.2765519917011261,-0.12399432808160782,0.23088625073432922,0.1445980966091156,0.1502700001001358,0.09744378179311752,-0.09429807960987091,-0.22266165912151337,-0.033453963696956635,-0.08391052484512329,-0.02593323588371277,-0.19723056256771088,-0.22081418335437775,-0.20348550379276276,-0.04256540164351463,0.18155616521835327,0.22418521344661713,0.10208603739738464,0.03328413516283035,-0.21285857260227203,-0.3085363805294037,-0.0750778317451477,0.012081916444003582,0.045891910791397095,0.04615532234311104,-0.11806584149599075,-0.25472673773765564,-0.1397702842950821,-0.004890400916337967,0.07028158009052277,0.08217433094978333,0.016572188585996628,0.08988199383020401,-0.006090441253036261,-0.05933793634176254,-0.07440280169248581,-0.015047048218548298,0.010009445250034332,0.22004695236682892,0.09070999175310135,-0.1124621108174324,-0.18967218697071075,-0.20668411254882812,-0.1012081503868103,-0.06726866215467453,-0.024884339421987534,0.10766954720020294,0.10123082250356674,0.10989890992641449,-0.09135087579488754,-0.042332280427217484,0.036142487078905106,0.3116624057292938,0.29921746253967285,0.05177246406674385,-0.1002223789691925,-0.2869103252887726,-0.26674050092697144,-0.12073375284671783,0.20708848536014557,0.16830182075500488,0.12534122169017792,0.05379479378461838,-0.2333919107913971,0.014542507007718086,-0.05391176789999008,0.2932758927345276,0.20197002589702606,0.1741713434457779,0.06511922180652618,-0.07500211149454117,-0.09265880286693573,0.006412666290998459,0.13381220400333405,0.13118040561676025,0.05982884392142296,-0.09119647741317749,-0.1983257234096527,0.015240306034684181,-0.017656054347753525,0.23039382696151733,0.15298186242580414,0.1272498518228531,0.1082233190536499,0.07871939986944199,-0.02082918956875801,0.07976338267326355,0.022842489182949066,0.04357166215777397,-0.07325232774019241,-0.12390585988759995,-0.08060082048177719,0.028711693361401558,0.04107940196990967,0.011189823038876057,0.23472175002098083,0.22651074826717377,0.13105450570583344,0.09157750755548477,0.13977670669555664,-0.0024876778479665518,0.02720792219042778,-0.06097293272614479,-0.11691779643297195,-0.11104986071586609,0.03612560033798218,0.004604837857186794,0.02613260969519615,0.0035469632130116224,0.04498450085520744,0.02645878680050373,-0.0018589223036542535,-0.03642314299941063,0.01750090718269348,-0.027464285492897034,0.012717088684439659,-0.06507483124732971,-0.00884965993463993,-0.03350906819105148,-0.028557835146784782,0.03757627308368683,0.008430030196905136,0.06155380606651306,0.034448131918907166,0.0781567171216011,-0.00870439037680626,-0.00427194545045495,-0.028338182717561722,0.028849059715867043,0.07130420207977295,-0.04112525284290314,0.06816417723894119,0.08351819217205048,0.06346794217824936,0.0569256991147995,0.07006200402975082,0.07575176656246185,-0.025965960696339607,-0.03151583671569824,-0.11203566193580627,-0.2585695683956146,-0.3750976622104645,-0.2637321949005127,-0.15746477246284485,-0.08785673975944519,0.03271278738975525,-0.019602082669734955,0.006261314731091261,-0.006177131086587906,0.08458860963582993,0.07319574803113937,0.039431504905223846,0.0798395574092865,0.06625519692897797,-0.04959535598754883,-0.0478072427213192,0.06521639972925186,0.09990740567445755,0.14020578563213348,0.1438954919576645,0.2754857838153839,0.11955096572637558,-0.012482570484280586,0.05613812804222107,-0.008391467854380608,0.132246732711792,0.05938633158802986,0.04700683802366257,-0.10498303174972534,-0.17413054406642914,-0.30041947960853577,-0.25803321599960327,-0.06745980679988861,0.03020043671131134,0.2275005280971527,0.1962587535381317,0.12075056880712509,0.06852401047945023,-0.025236718356609344,-0.06230027228593826,-0.07538598030805588,-0.09156953543424606,-0.05934445932507515,-0.1816258430480957,-0.3251369297504425,-0.1562659591436386,-0.019147492945194244,-0.035090334713459015,-0.04508587718009949,-0.10319057106971741,-0.017297830432653427,-0.05074891820549965,-0.07879240065813065,-0.17528454959392548,-0.058641254901885986,0.06382106244564056,0.26652488112449646,-0.04058327525854111,-0.28491395711898804,0.1821126490831375,0.024962732568383217,-0.14529412984848022,-0.14973725378513336,-0.2762628197669983,-0.053280506283044815,0.0775853767991066,-0.13804146647453308,-0.04149753600358963,0.2178969830274582,0.19741018116474152,0.37600797414779663,0.11353123188018799,-0.0856921374797821,0.24426975846290588,0.07501833885908127,0.06283602863550186,0.03731276094913483,-0.12614627182483673,-0.05949266627430916,0.010992437601089478,0.001969975419342518,0.1088576465845108,0.2542932331562042,0.14837607741355896,0.2561302185058594,0.06379852443933487,0.05987675487995148,0.314382404088974,0.18302732706069946,0.1874386966228485,0.06828523427248001,-0.12241371721029282,-0.01037268340587616,0.08683797717094421,-0.1289922297000885,-0.024899041280150414,0.07051356881856918,0.1264074146747589,-0.011921772733330727,0.12398166209459305,0.28550487756729126,0.2247297763824463,0.06661663949489594,0.03334546461701393,-0.08609727025032043,-0.17147715389728546,-0.025359082967042923,0.08964303135871887,-0.07570967823266983,-0.18055105209350586,-0.13206228613853455,-0.20901261270046234,-0.2307433784008026,0.030350487679243088,0.13671761751174927,-0.04949465021491051,-0.17096517980098724,-0.1422140896320343,-0.1971382051706314,-0.06544732302427292,0.043430693447589874,0.10856922715902328,0.01125330850481987,-0.19135472178459167,-0.3483121693134308,-0.3148494362831116,-0.2888578176498413,-0.15708740055561066,-0.06839822977781296,-0.04724012315273285,-0.1607218086719513,-0.17017494142055511,-0.20004543662071228,-0.1030653715133667,0.05597611889243126,0.06289473921060562,0.05416649580001831,-0.1140882670879364,-0.19972410798072815,-0.1439763307571411,-0.1388905942440033,-0.1504143625497818,-0.14181600511074066,0.027258284389972687,0.06441672146320343,0.12985432147979736,0.04635808616876602,0.05144890397787094,-0.003865063190460205,0.08195260912179947,0.050652410835027695,0.04129791632294655,-0.09107088297605515,-0.006977203767746687,-0.006773062516003847,-0.06608442217111588,-0.03102400340139866,0.015908092260360718,0.06784065067768097,0.035559073090553284,0.03481731563806534,0.07257931679487228,0.028290769085288048,0.08103039115667343,0.02612954191863537,0.026113899424672127,0.003791800234466791,-0.25840306282043457,-0.2604862153530121,-0.3155611455440521,-0.3464954197406769,-0.27354946732521057,-0.18980193138122559,-0.09140954911708832,0.05819465219974518,0.03937945514917374,-0.0172389168292284,-0.1906615048646927,-0.09589654952287674,-0.057509053498506546,-0.08010522276163101,-0.10838686674833298,-0.14220856130123138,-0.06364743411540985,-0.18361201882362366,-0.09911172837018967,-0.17023959755897522,-0.17927676439285278,-0.07961499691009521,-0.057640161365270615,-0.12749429047107697,-0.18688613176345825,-0.15493907034397125,-0.1389189213514328,-0.11969774961471558,-0.195760577917099,-0.19478581845760345,-0.19394157826900482,-0.14408907294273376,-0.0518714003264904,-0.017516378313302994,-0.01475576963275671,-0.07007895410060883,-0.06842567771673203,-0.09629351645708084,-0.14480438828468323,-0.06592385470867157,-0.249153733253479,-0.10743939131498337,-0.05643204599618912,-0.061769939959049225,-0.0917772725224495,-0.05641655996441841,-0.046313345432281494,0.06738581508398056,0.04249769076704979,0.14949695765972137,0.047254931181669235,-0.07371986657381058,-0.16792342066764832,-0.20798058807849884,-0.27664458751678467,-0.08875928819179535,0.010608380660414696,0.06510429829359055,-0.07406618446111679,-0.05359453335404396,-0.021285420283675194,0.05316002294421196,0.14333057403564453,0.12660513818264008,0.2852129638195038,0.030274953693151474,-0.13474057614803314,-0.2293688803911209,-0.21114185452461243,-0.06402824819087982,0.03611775115132332,0.11659160256385803,0.007595835253596306,-0.19006884098052979,-0.21301452815532684,-0.0369306355714798,0.0110823018476367,0.28148457407951355,0.5229194164276123,0.22666871547698975,-0.06556166708469391,-0.23999516665935516,-0.09799674153327942,0.13489121198654175,0.11689924448728561,0.18618592619895935,0.2105763703584671,-0.07920031249523163,-0.20985476672649384,-0.2222931832075119,-0.2591930627822876,-0.1527567356824875,0.5003772974014282,0.12481208890676498,-0.08948085457086563,-0.1075672060251236,0.03758450970053673,0.05849393084645271,0.012410654686391354,0.23319467902183533,0.18247105181217194,-0.007629910949617624,-0.1990804821252823,-0.1728246659040451,-0.28047072887420654,-0.5613688826560974,-0.4493657052516937,-0.017595112323760986,-0.13770878314971924,-0.08442937582731247,-0.15732455253601074,-0.14391450583934784,0.004333571996539831,0.12708117067813873,0.06886515021324158,-0.1648000329732895,-0.1982821673154831,-0.041900478303432465,-0.010698114521801472,-0.08451244235038757,-0.16496649384498596,-0.1267039030790329,-0.11815190315246582,-0.10866664350032806,-0.029352430254220963,-0.12913449108600616,-0.12580302357673645,-0.18964359164237976,-0.16916058957576752,-0.19062328338623047,-0.10639052838087082,0.051718924194574356,0.05771145597100258,-0.04403745010495186,-0.03248096629977226,-0.1712937355041504,-0.12135733664035797,-0.038016073405742645,0.1706005185842514,0.15275613963603973,-0.09904395043849945,-0.13786712288856506,-0.10070105642080307,-0.09730041772127151,0.06960581243038177,0.0883280336856842,0.061837904155254364,0.10031067579984665,0.02299337647855282,-0.1791008710861206,-0.15661150217056274,-0.06318602710962296,0.04863768443465233,0.13622604310512543,0.20812474191188812,0.09734737128019333,0.07145576179027557,0.05561339855194092,0.07294172048568726,0.1101604625582695,0.043784916400909424,0.2173117846250534,-0.007133725099265575,-0.129872128367424,-0.10045170038938522,-0.0653829574584961,-0.06194891035556793,-0.01940319873392582,0.020178550854325294,0.07300905883312225,0.02358211576938629,0.05132720619440079,0.04674836993217468,0.04596373811364174,0.09903443604707718,0.11273003369569778,-0.08576444536447525,-0.15678861737251282,-0.13883034884929657,-0.08757846057415009,-0.07556141167879105,-0.0610123872756958,0.053204961121082306,0.06910760700702667,0.14765416085720062,0.11974454671144485,0.03294738754630089,0.006507243029773235,0.05207693576812744,-0.08371087163686752,-0.1258532851934433,-0.18569712340831757,-0.10439910739660263,-0.16263651847839355,-0.08598561584949493,-0.13718895614147186,-0.19633173942565918,-0.11145789921283722,-0.07000153511762619,-0.10201738029718399,-0.09794280678033829,-0.12380476295948029,-0.08739951997995377,-0.11999398469924927,-0.11469883471727371,-0.07128945738077164,0.04599081352353096,-0.02184559963643551,0.0017873500473797321,0.09166660159826279,0.07076089084148407,0.04795191437005997,0.1495172530412674,0.10040377080440521,0.011904660612344742,0.03499248996376991,0.029799705371260643,0.11018522828817368,-0.0075888182036578655,0.057304803282022476,0.09759793430566788,0.06813311576843262,-0.003330700797960162,0.11544207483530045,0.16067226231098175,0.22969794273376465,0.20571058988571167,0.18103106319904327,0.1673516035079956,0.20157185196876526,0.2650374174118042,0.29228541254997253,0.13776089251041412,0.027033494785428047,0.07911834865808487,0.06438031792640686,0.023976396769285202,-0.0554325096309185,-0.029239078983664513,-0.09304887801408768,-0.15126989781856537,-0.027543751522898674,0.03822101652622223,0.1811199188232422,0.21702592074871063,0.24381394684314728,0.15499131381511688,0.005034336820244789,0.08923231065273285,-0.015375149436295033,-0.1443541795015335,-0.05141138285398483,-0.08514030277729034,-0.12236689031124115,-0.16629785299301147,-0.07604450732469559,-0.17564405500888824,-0.20853188633918762,-0.11964382976293564,-0.04465406760573387,-0.022579072043299675,0.03693203628063202,0.026260245591402054,-0.060752980411052704,-0.17621345818042755,-0.09471777081489563,-0.10437803715467453,-0.12542369961738586,-0.07757746428251266,-0.18353237211704254,-0.29657915234565735,-0.3127417266368866,-0.17949090898036957,-0.23521119356155396,-0.276611864566803,-0.09772783517837524,0.052538659423589706,-0.12461919337511063,-0.21802209317684174,0.03588913753628731,0.017051033675670624,-0.030564341694116592,0.04330478608608246,-0.2448839694261551,-0.28650325536727905,-0.2198910117149353,-0.1343110352754593,0.05259357765316963,-0.0774374008178711,-0.12415827810764313,0.026696091517806053,-0.053944967687129974,0.020697247236967087,0.06261008232831955,0.06834906339645386,0.13369667530059814,-0.02445126138627529,-0.07923435419797897,-0.04405690357089043,-0.08739705383777618,0.09039369970560074,0.326347291469574,0.26518869400024414,-0.06572811305522919,-0.03208993002772331,-0.017923789098858833,-0.012643089517951012,0.054853908717632294,0.06129465624690056,0.20773747563362122,0.027503706514835358,0.2008790373802185,-0.0018379662651568651,-0.08250745385885239,0.0784500315785408,0.1860305368900299,0.12819701433181763,-0.07566966116428375,0.03670607879757881,-0.16300147771835327,-0.12797868251800537,0.05598924681544304,0.2163526564836502,0.2875952422618866,0.18745636940002441,0.07230040431022644,-0.0987633615732193,0.10717572271823883,0.09306786209344864,0.053172703832387924,-0.031843479722738266,-0.16793619096279144,0.04377058148384094,-0.06269271671772003,-0.3331599831581116,-0.046988923102617264,0.09123407304286957,0.3147832751274109,0.15325143933296204,0.032041896134614944,0.18647344410419464,0.1747279316186905,0.004380561411380768,0.031682856380939484,-0.0340009443461895,-0.010025212541222572,0.056477468460798264,-0.06630445271730423,-0.3404228687286377,-0.17659999430179596,-0.032839614897966385,0.26008909940719604,0.357840359210968,0.31274980306625366,0.24791944026947021,0.1714528203010559,0.043824560940265656,-0.0909772738814354,-0.029087208211421967,0.06793960928916931,0.009570498019456863,0.004841100890189409,-0.23249399662017822,-0.2759327292442322,-0.11995279043912888,-0.054725341498851776,-0.03358800709247589,-0.023658012971282005,-0.015353207476437092,-0.06907704472541809,-0.08326413482427597,-0.14118880033493042,0.025021521374583244,-0.007875141687691212,0.048660729080438614,0.054718729108572006,-0.001785385305993259,-0.14292477071285248,-0.22193175554275513,-0.2900661528110504,-0.23981069028377533,-0.3424435555934906,-0.21225354075431824,-0.10216250270605087,-0.13404837250709534,0.006165396422147751,0.08072523772716522,-0.01691819354891777,0.10392413288354874,-0.028125692158937454,-0.002961397171020508,0.041887637227773666,0.06514528393745422,-0.02578950673341751,-0.0289619043469429,0.03842630982398987,-0.04755045473575592,-0.03021480329334736,0.09558741748332977,0.058325253427028656,0.10527355968952179,0.019801413640379906,-0.06783325970172882,-0.10621391236782074,-0.046515077352523804,-0.07421956211328506,-0.08188389241695404,-0.06403625011444092,-0.0073549943044781685,-0.032110605388879776,-0.13471125066280365,-0.014914775267243385,-0.06160882115364075,-0.04576312378048897,-0.056128427386283875,-0.07153990864753723,-0.06497587263584137,-0.10024592280387878,-0.11778666824102402,-0.11309566348791122,-0.12033714354038239,-0.18353979289531708,-0.11954500526189804,-0.1515154093503952,-0.07946733385324478,-0.1570204496383667,-0.06045239791274071,-0.020876213908195496,-0.06927324831485748,-0.022693229839205742,-0.010399495251476765,-0.07132693380117416,-0.013199575245380402,-0.04206844046711922,-0.07025133073329926,-0.13676729798316956,-0.24307596683502197,-0.2846193015575409,-0.22491569817066193,-0.3508639931678772,-0.27014854550361633,-0.18414627015590668,-0.08191156387329102,-0.04439697042107582,-0.0728682205080986,0.035748403519392014,0.10417595505714417,0.21898353099822998,0.18448364734649658,0.06981728971004486,-0.0006324799032881856,-0.0484524630010128,-0.025981536135077477,-0.0040366388857364655,-0.029818393290042877,-0.04417172074317932,-0.248099222779274,-0.10185462981462479,-0.05321802943944931,0.21599788963794708,0.23552566766738892,0.11048692464828491,0.06172864884138107,0.12921220064163208,0.13881677389144897,0.1876649558544159,0.2569604218006134,0.14887209236621857,0.11383503675460815,-0.05601178854703903,-0.2318398356437683,-0.05240209028124809,-0.0205522570759058,0.22444035112857819,0.08295249938964844,0.02219628356397152,0.07498370110988617,-0.0028215176425874233,0.02895227074623108,0.25618481636047363,0.3336714804172516,0.17697416245937347,0.03731226176023483,0.009457629173994064,-0.3037794828414917,-0.020287495106458664,-0.05051164701581001,0.309175968170166,0.09005920588970184,0.08092816174030304,-0.06596517562866211,-0.18139749765396118,-0.4847719967365265,-0.11913075298070908,0.21223655343055725,0.1003323569893837,-0.006757850758731365,-0.06956743448972702,-0.2035728096961975,-0.10325687378644943,-0.04603824019432068,0.13629937171936035,0.03546367958188057,-0.0204292181879282,-0.1187007799744606,-0.30489495396614075,-0.5010111927986145,-0.18694590032100677,0.06095054745674133,0.22872735559940338,0.22273726761341095,0.1384640336036682,-0.0861726850271225,-0.054185155779123306,-0.07596557587385178,0.02075846493244171,-0.08127864450216293,-0.06987819820642471,-0.10086167603731155,-0.26540663838386536,-0.15248721837997437,-0.019300181418657303,0.0359605997800827,0.11163277924060822,0.12170033156871796,-0.03233896568417549,-0.13688188791275024,-0.07525705546140671,-0.117161326110363,-0.11340591311454773,-0.14757652580738068,-0.29207244515419006,-0.2596885859966278,-0.20688164234161377,0.010147861205041409,-0.08890347927808762,-0.1280849426984787,-0.1390894502401352,-0.14818494021892548,-0.26158633828163147,-0.23198747634887695,-0.01510852761566639,-0.11680514365434647,-0.13186489045619965,-0.18228326737880707,-0.1920987367630005,-0.1345086544752121,-0.08377371728420258,0.013942171819508076,-0.07544353604316711,-0.23645161092281342,-0.325070858001709,-0.37323305010795593,-0.3321712613105774,-0.1212872564792633,-0.10219438374042511,-0.03631575033068657,-0.16175545752048492,0.015097690746188164,0.058013953268527985,-0.03802116587758064,-0.06688976287841797,-0.09304821491241455,-0.10349176824092865,-0.05069591850042343,-0.26602065563201904,-0.3182973265647888,-0.3484984338283539,-0.06318679451942444,-0.1121225655078888,-0.004482151009142399,-0.10040732473134995,0.22064749896526337,0.25984448194503784,0.11197195947170258,0.09916487336158752,0.10168728977441788,0.16157792508602142,0.11164049059152603,-0.07486181706190109,-0.08360631763935089,-0.13275334239006042,-0.054493583738803864,-0.007640734314918518,0.0006158878095448017,-0.0026384410448372364,-0.05306536331772804,0.07900715619325638,0.16991426050662994,0.20007748901844025,0.188057541847229,0.22690211236476898,0.2644352316856384,0.18293353915214539,0.0030525322072207928,-0.04075494408607483,-0.1195405051112175,-0.12141043692827225,0.07920753955841064,0.16463512182235718,0.044989824295043945,0.12769760191440582,0.12895230948925018,0.0668194442987442,0.14715886116027832,0.040840230882167816,0.10514169186353683,0.11032028496265411,0.058548152446746826,0.07491008937358856,0.08531032502651215,0.07433411478996277,0.09547683596611023,0.04948684945702553,0.06658907234668732,0.11703960597515106,0.005750295706093311,-0.010398739948868752,-0.09861904382705688,-0.1217811107635498,-0.09606727957725525,-0.06336066871881485,-0.021159818395972252,0.0907040536403656,0.13478191196918488,0.08744825422763824,0.1736154705286026,0.040920425206422806,-0.008625125512480736,0.012724730186164379,-0.020887557417154312,0.050693850964307785,0.1254957616329193,0.12606963515281677,0.12472590059041977,0.017764577642083168,0.08220435678958893,0.005795910023152828,0.03273295238614082,0.06711874157190323,0.09753209352493286,0.06373073905706406,-0.09391479194164276,-0.03002360835671425,-0.028348283842206,0.020423220470547676,0.08325209468603134,0.14867882430553436,0.10242959856987,0.049478039145469666,0.040996260941028595,0.04688766226172447,0.184652641415596,0.08832200616598129,0.1634882390499115,0.08513098955154419,-0.020631873980164528,0.0210211630910635,0.14984844624996185,0.06761901825666428,0.04441674426198006,-0.1426851600408554,-0.07996577769517899,0.08758004754781723,0.08750206232070923,0.11780513823032379,0.08618288487195969,0.10642389953136444,0.10820580273866653,0.08178489655256271,0.07811269909143448,0.18412993848323822,0.1890931874513626,0.19656656682491302,0.16072198748588562,-0.006448172032833099,-0.07338967174291611,0.08065637946128845,0.1433541476726532,0.20957347750663757,0.1474335938692093,0.10497558861970901,0.1813364177942276,0.08427499979734421,0.13448773324489594,0.04895505681633949,-0.007628955878317356,0.06310050189495087,0.3069452941417694,0.17767752707004547,0.12849432229995728,-0.005775172263383865,0.09589076787233353,0.1956997662782669,0.20170262455940247,0.17598795890808105,0.13040173053741455,0.047829750925302505,-0.17328833043575287,-0.27293676137924194,-0.2362213283777237,0.041122421622276306,0.2969686686992645,0.2929019331932068,0.018414199352264404,-0.11543157696723938,-0.22581768035888672,-0.20990152657032013,-0.08577147871255875,0.0438963808119297,0.1296938955783844,0.04216005653142929,-0.23149645328521729,-0.08626529574394226,0.010631490498781204,0.2108650505542755,0.2587829828262329,0.022021180018782616,-0.028550762683153152,-0.15337182581424713,-0.10707946121692657,-0.11539702117443085,0.028527891263365746,0.04313701391220093,0.08534875512123108,-0.047097496688365936,-0.018801961094141006,0.07616926729679108,0.1499779224395752,0.12711331248283386,0.09224265813827515,-0.16516228020191193,-0.058727897703647614,-0.06632076948881149,0.03539944812655449,0.025537073612213135,-0.03479740768671036,0.14603453874588013,0.045587338507175446,-0.049764566123485565,-0.029040973633527756,0.05281248688697815,0.024310071021318436,-0.08002498000860214,-0.08023087680339813,-0.11132864654064178,-0.044513095170259476,0.005960059352219105,-0.031603146344423294,0.004375411197543144,-0.0016092469450086355,0.04556281492114067,0.12047005444765091,0.05675054341554642,-0.1651996523141861,0.03498426452279091,-0.05747584253549576,0.1023838147521019,0.24962513148784637,0.3021244704723358,0.14857186377048492,0.058361250907182693,0.003865648526698351,-0.06580294668674469,0.07956937700510025,0.07999227195978165,0.13702310621738434,0.04399673640727997,-0.1544128954410553,-0.24597375094890594,-0.07603900879621506,-0.00826027151197195,0.03903908655047417,0.024785563349723816,0.15633657574653625,0.13708215951919556,0.12632569670677185,0.07176811993122101,0.03755468502640724,0.048038847744464874,0.17719076573848724,0.1281042844057083,0.110064297914505,0.03350958973169327,-0.04994863644242287,-0.0979178175330162,-0.07593483477830887,-0.06996633112430573,-0.030941780656576157,0.08408407121896744,0.10184546560049057,0.10894855111837387,0.08217775821685791,0.13061854243278503,0.06803765892982483,0.044463206082582474,0.06050547957420349,0.03670083358883858,0.00368520081974566,-0.013359786942601204,0.004908408038318157,0.02251342125236988,0.051938656717538834,0.10363505035638809,-0.011295288801193237,0.06996195018291473,0.05274607613682747,0.06910684704780579,0.12060125172138214,0.08614286780357361,0.014945143833756447,0.11173045635223389,-0.008610856719315052,-0.06487730145454407,-0.1508580446243286,-0.2162211835384369,-0.14404188096523285,-0.13562066853046417,-0.0027096429839730263,0.07219598442316055,-0.01941370777785778,0.07520186901092529,0.007636339403688908,0.08636297285556793,0.037845928221940994,-0.04729168862104416,-0.21263079345226288,-0.05114468187093735,-0.055642835795879364,-0.199251189827919,-0.24926906824111938,-0.21244043111801147,-0.18031062185764313,-0.2719150185585022,-0.027565112337470055,0.015687033534049988,0.06726023554801941,-0.0358276292681694,-0.23914164304733276,-0.20614470541477203,-0.0316493958234787,-0.03200017288327217,0.1828254908323288,0.4331350326538086,0.2770547568798065,0.01701967418193817,-0.051549285650253296,-0.24034032225608826,-0.2528780996799469,-0.053431540727615356,-0.03378584608435631,-0.10295257717370987,-0.18958552181720734,-0.08894813060760498,-0.03218695521354675,0.04858998581767082,0.13021734356880188,0.11648943275213242,0.04209194332361221,-0.023051872849464417,-0.07106835395097733,-0.2012133002281189,-0.3047996163368225,-0.03541351482272148,0.03506065532565117,-0.06971018761396408,0.07243344932794571,0.13836589455604553,0.14238977432250977,0.23489102721214294,-0.0894429013133049,-0.04990274831652641,0.019494690001010895,0.1897571086883545,0.13409198820590973,0.055474840104579926,-0.2850538194179535,-0.04988493770360947,0.0766734853386879,-0.04648777097463608,0.23074927926063538,0.2286476045846939,0.15027856826782227,0.09504986554384232,-0.05129718780517578,0.22237847745418549,0.18033911287784576,0.2698323130607605,0.15322522819042206,0.08554857224225998,-0.2649083137512207,-0.027847878634929657,0.02548403851687908,-0.019113222137093544,0.08564785867929459,0.0743429958820343,0.023366833105683327,-0.044313885271549225,0.04790668562054634,0.03980330377817154,0.16175398230552673,0.09477318823337555,0.014900417067110538,-0.1754201203584671,-0.24103227257728577,-0.008060207590460777,0.07769676297903061,0.055056132376194,-0.055877573788166046,-0.009555178694427013,0.07236927002668381,0.09146899729967117,-0.10013037919998169,-0.006998330820351839,0.1438387781381607,-0.07469050586223602,-0.12747855484485626,-0.2868824899196625,-0.25424301624298096,0.025669267401099205,0.03794345632195473,-0.05931583791971207,-0.16166076064109802,-0.0898561179637909,-0.09631176292896271,-0.14025643467903137,-0.11842706799507141,0.002592469798400998,-0.04461934417486191,-0.1187765896320343,-0.0705990120768547,-0.22828976809978485,-0.14809918403625488,0.03354319557547569,0.09746044129133224,0.033307213336229324,-0.08059198409318924,-0.14609970152378082,-0.18606889247894287,-0.2850319445133209,-0.13664759695529938,-0.11562997847795486,-0.12671571969985962,-0.13204026222229004,-0.14942024648189545,-0.18333804607391357,0.03766188398003578,0.04474610090255737,0.06276526302099228,0.03940584510564804,-0.12675470113754272,-0.04993824660778046,-0.06233654171228409,-0.049777086824178696,-0.10168003290891647,-0.14219026267528534,-0.12905330955982208,-0.07061915844678879,-0.09180407971143723,0.14678765833377838,0.059032849967479706,-0.015287934802472591,-0.011918017640709877,0.08272997289896011,0.12051055580377579,0.10763201117515564,0.04884734004735947,0.04840560629963875,-0.029814407229423523,-0.0776541605591774,0.11040015518665314,0.12849263846874237,0.23580703139305115,0.16746525466442108,0.028164690360426903,0.009922654367983341,0.020568972453475,0.09037800133228302,0.16861028969287872,0.18781384825706482,0.15656311810016632,0.17396801710128784,0.1744491308927536,0.189453586935997,0.1535302847623825,0.1766672283411026,0.1566571146249771,0.09911774098873138,0.025322429835796356,0.019460109993815422