{"shape": [10, 196]}
0.02997029945254326,0.014380240812897682,0.08262788504362106,0.09615527093410492,0.038332369178533554,0.057506248354911804,0.0908065065741539,0.08956357836723328,0.03612637147307396,0.03936542570590973,-0.007406910415738821,0.038313351571559906,0.016496697440743446,0.10187412798404694,0.06492909044027328,0.07465942949056625,0.06703820824623108,-0.03864814713597298,0.04316769167780876,-0.07718304544687271,-0.062315814197063446,-0.0937192514538765,-0.14376620948314667,-0.211237370967865,-0.10597841441631317,-0.11689961701631546,0.0017327842069789767,0.11374516785144806,0.052134450525045395,-0.010144418105483055,-0.027662917971611023,-0.034992676228284836,-0.08869508653879166,-0.03513198345899582,0.08002020418643951,0.13529036939144135,0.1254717856645584,0.06089377403259277,0.008229738101363182,-0.028054485097527504,-0.03258566930890083,0.019503626972436905,0.09282269328832626,0.04600423946976662,-0.03815701603889465,-0.1595510095357895,-0.12155961990356445,-0.06919319927692413,-0.013576686382293701,0.0754735991358757,0.1502082645893097,0.10953128337860107,0.08166954666376114,0.10135845094919205,-0.07159624248743057,-0.07607397437095642,0.02024940773844719,-0.004757114686071873,-0.10947158932685852,-0.07472404092550278,-0.0014346758835017681,0.015933485701680183,0.0873209536075592,0.10894054174423218,0.2678762376308441,0.20607393980026245,0.06435614824295044,0.03740479797124863,0.0765637755393982,-0.07603713124990463,0.05037230998277664,-0.04321160167455673,-0.04296859726309776,0.01339762657880783,-0.10148908942937851,0.03414585441350937,0.023079773411154747,-0.17051777243614197,-0.09284012019634247,0.1601952314376831,0.13454943895339966,0.2153824120759964,0.2181192934513092,-0.11097948998212814,0.06429337710142136,0.023053819313645363,0.01923534646630287,0.08761486411094666,0.0540887713432312,0.09975369274616241,-0.11520041525363922,-0.48321834206581116,-0.3757934868335724,-0.11788086593151093,0.05480840429663658,0.1448153406381607,0.26664432883262634,0.05371531471610069,0.07024136930704117,-0.03876843675971031,0.12930354475975037,0.08409257978200912,0.1577453911304474,0.1607542484998703,-0.24611645936965942,-0.5309881567955017,-0.27486878633499146,0.012589178048074245,-0.0033416396472603083,0.18063150346279144,0.18986448645591736,0.01546368096023798,0.1009504646062851,-0.11500539630651474,0.07823778688907623,0.09969177842140198,0.15615811944007874,0.15153305232524872,-0.40157854557037354,-0.3691650629043579,-0.10052987933158875,0.13832661509513855,0.07086560875177383,0.0795857384800911,0.030353322625160217,0.09721259027719498,0.014463519677519798,-0.19020232558250427,0.01641017571091652,0.034608758985996246,0.16126883029937744,0.14500175416469574,-0.14711956679821014,-0.10877937078475952,0.0534714050590992,0.04175536334514618,-0.03688271343708038,0.07727640867233276,-0.005744095891714096,0.028498392552137375,0.049410995095968246,-0.1385628581047058,0.030499471351504326,-0.019409311935305595,0.08610587567090988,0.2267989069223404,0.09194952994585037,0.021376948803663254,-0.015836920589208603,-0.04498714953660965,-0.07147841155529022,0.05368757247924805,-0.04973995313048363,-0.001524783088825643,0.057804446667432785,0.03366578370332718,-0.05538973584771156,0.07025841623544693,0.09189966320991516,0.14038610458374023,0.21228374540805817,0.10689257085323334,-0.03463960811495781,-0.0337081141769886,-0.08041425049304962,-0.014216423965990543,0.06994995474815369,0.0653393566608429,0.04841244965791702,0.06217186897993088,-0.05025200545787811,-0.11872594058513641,-0.07261336594820023,0.04542185366153717,0.10608355700969696,0.03364795818924904,-0.09854312241077423,-0.18640631437301636,-0.096603624522686,-0.03296632319688797,-0.006669350899755955,0.09660226851701736,0.03349343314766884,0.06849709153175354,0.047859981656074524,-0.06550206989049911,-0.0657326728105545,-0.07564617693424225,-0.07710582762956619,-0.10883528739213943,-0.005681963637471199,-0.02919634059071541,0.04854820296168327,0.04476417228579521,0.10396592319011688,0.04822785407304764,0.006366592366248369,-0.03624529764056206,-0.05901206284761429,0.00847854558378458,-0.07074224948883057,-0.06115645915269852,-0.04721580818295479,0.009807749651372433,0.0003248151042498648,-0.06286028772592545,-0.019538315013051033,-0.015067518688738346,0.009794638492166996,-0.06637252867221832,0.022687429562211037,-0.03399249538779259,-0.042457710951566696,-0.0292262751609087,-0.049624305218458176,-0.13578999042510986,-0.1382860243320465,0.06596370786428452,-0.07405521720647812,-0.24333412945270538,-0.19714011251926422,-0.06279680877923965,-0.06037921458482742,-0.06398545205593109,-0.05104205384850502,0.01587003841996193,0.04531806707382202,-0.10209798812866211,-0.13165557384490967,-0.12299691885709763,0.07471702992916107,0.12095102667808533,0.03129536658525467,0.08682125061750412,0.17189063131809235,0.12678371369838715,-0.038290493190288544,-0.06695909798145294,-0.021300723776221275,-0.015621157363057137,0.007386333309113979,-0.14248476922512054,-0.1938237100839615,-0.16877979040145874,-0.2061133086681366,-0.1968613862991333,-0.25777775049209595,-0.13414061069488525,-0.004160321317613125,-0.09913183748722076,-0.2347678691148758,-0.003268138039857149,-0.0013981172814965248,-0.009772103279829025,-0.14183834195137024,-0.18197180330753326,-0.14476986229419708,-0.11998976022005081,-0.07534457743167877,0.19040556252002716,-0.01911454275250435,-0.1205686703324318,-0.15713408589363098,-0.20265328884124756,-0.3772483766078949,0.006732564885169268,0.025572896003723145,-0.03752841055393219,-0.15038549900054932,-0.072394959628582,-0.1699056178331375,-0.1291801929473877,-0.02969563752412796,0.3273129165172577,0.0376262366771698,-0.19232474267482758,-0.17678096890449524,-0.2985387146472931,-0.2685832977294922,0.0038438295014202595,-0.014771874062716961,-0.02062397077679634,-0.05522824451327324,-0.01942928321659565,-0.16143594682216644,-0.2967008948326111,0.1261589080095291,0.23473989963531494,0.04337683320045471,-0.11003390699625015,-0.1710508018732071,-0.15100036561489105,-0.09183968603610992,0.00010842297342605889,-0.05058648809790611,-0.03108225017786026,-0.0657876506447792,-0.09474742412567139,-0.15716944634914398,-0.2805405557155609,0.09843231737613678,0.25910699367523193,-0.016588857397437096,-0.22798363864421844,-0.20196381211280823,-0.20284147560596466,-0.054915931075811386,0.008356332778930664,-0.06546807289123535,-0.00924415048211813,-0.2361200749874115,-0.24061596393585205,-0.17042961716651917,-0.12119024246931076,0.12286413460969925,0.2771911323070526,-0.22799038887023926,-0.34452787041664124,-0.12231273949146271,-0.11049658060073853,-0.022676369175314903,-0.07052836567163467,0.021504387259483337,-0.0678681805729866,-0.3669615685939789,-0.24233999848365784,-0.06917960941791534,-0.10641457885503769,0.1275409609079361,0.06495269387960434,-0.22121642529964447,-0.04372497275471687,0.021051757037639618,-0.06462566554546356,-0.019070757552981377,-0.017627941444516182,-0.05626223236322403,-0.03289814665913582,0.07437198609113693,0.046304382383823395,0.01457263994961977,-0.036495547741651535,0.02512340620160103,-0.11639198660850525,-0.06074518710374832,0.07341030240058899,0.09292025119066238,0.035719387233257294,0.08039253950119019,-0.013054526410996914,-0.0015038197161629796,-0.050949566066265106,0.20446018874645233,0.11364042013883591,0.060812484472990036,-0.17817018926143646,-0.25314176082611084,-0.018722644075751305,0.1411619782447815,0.12412988394498825,0.009793573059141636,-0.13289043307304382,-0.06312699615955353,-0.014235428534448147,-0.06948670744895935,-0.09165068715810776,-0.07770872861146927,-0.12529774010181427,-0.14831314980983734,-0.1608096957206726,-0.0877729132771492,-0.09309451282024384,-0.09349643439054489,-0.1441832184791565,-0.029782189056277275,-0.09058738499879837,-0.01690324954688549,-0.03074323758482933,0.044317346066236496,0.01759287714958191,0.0013798081781715155,-0.11521244794130325,-0.06577643752098083,-0.17700918018817902,-0.20636892318725586,-0.17252209782600403,-0.08214875310659409,-0.10617859661579132,0.0496477372944355,0.03692516312003136,-0.02346387878060341,0.044739220291376114,-0.10007544606924057,-0.0012590233236551285,-0.02201087959110737,-0.04461659491062164,-0.015116247348487377,-0.09262977540493011,-0.0463392548263073,-0.09390594810247421,-0.015765447169542313,-0.1024273931980133,-0.044603437185287476,-0.09220042079687119,-0.07046391814947128,-0.0720800831913948,-0.03564268350601196,-0.030141128227114677,-0.1098107323050499,-0.03078761138021946,0.1378963589668274,0.12202300876379013,0.18515796959400177,0.06730393320322037,0.049871042370796204,-0.06772149354219437,-0.1815720796585083,-0.07780363410711288,0.0030723141971975565,-0.07340166717767715,-0.1258169561624527,-0.07293988764286041,0.002346270950511098,0.056948788464069366,0.1436825543642044,0.13457174599170685,0.15355627238750458,0.14762619137763977,0.11047962307929993,0.030839689075946808,-0.020742099732160568,-0.15233154594898224,-0.1394343376159668,-0.019373325631022453,-0.04333290085196495,0.034743450582027435,0.07797414064407349,0.08044687658548355,0.07303095608949661,0.013399718329310417,0.05769642814993858,0.019459238275885582,0.020617928355932236,-0.014573482796549797,-0.027535635977983475,-0.08022022247314453,-0.2587593197822571,-0.028497397899627686,0.009872360154986382,-0.0351339690387249,0.09104294329881668,0.07651274651288986,0.05295649170875549,0.1001693606376648,0.015147191472351551,0.0946083515882492,0.009920342825353146,0.008685692213475704,-0.0007792047690600157,0.008487129583954811,-0.35830527544021606,-0.12445580959320068,-0.053787004202604294,-0.03868532180786133,0.048299193382263184,-0.26889514923095703,-0.17844024300575256,-0.26273810863494873,-0.35799869894981384,-0.20300379395484924,-0.01590809039771557,0.009927229955792427,0.0597950704395771,-0.13975860178470612,-0.1256306767463684,-0.07927519828081131,-0.08341815322637558,-0.12958164513111115,-0.4205555319786072,-0.44933852553367615,-0.3193606734275818,-0.21782974898815155,-0.3104555308818817,-0.25746405124664307,-0.19175924360752106,-0.05622684210538864,-0.04296603798866272,-0.1355305165052414,0.1021411269903183,0.06845370680093765,-0.07353720813989639,-0.00042827491415664554,-0.11939741671085358,-0.19265305995941162,-0.08789604157209396,0.015633437782526016,0.1465677171945572,0.10978483408689499,-0.07351060211658478,-0.01000650878995657,-0.104598268866539,-0.13467499613761902,0.1920885592699051,0.1683473140001297,-0.004131554160267115,0.15765497088432312,0.1895848959684372,0.0722188875079155,0.021955188363790512,0.12267281115055084,0.21569496393203735,0.1386214643716812,0.031902626156806946,-0.0007025462691672146,0.026191972196102142,0.0780177190899849,0.35885143280029297,0.21848461031913757,-0.04658975079655647,0.061892569065093994,0.1253109574317932,0.13014580309391022,0.08687887340784073,0.14389674365520477,0.23139174282550812,0.09223711490631104,0.10520705580711365,0.0904269888997078,0.06883858889341354,0.1731734722852707,0.32923460006713867,0.09979354590177536,-0.11306394636631012,0.061548925936222076,0.09617983549833298,0.11630886048078537,0.15553312003612518,0.12093139439821243,0.012201343663036823,0.0558357834815979,0.04905545338988304,0.16809867322444916,0.13378065824508667,0.22263051569461823,0.2443203628063202,-0.052880529314279556,-0.05081160366535187,-0.04641960933804512,0.08128894120454788,0.10569453239440918,0.08669064939022064,0.012002898380160332,-0.08988113701343536,-0.1710021197795868,-0.003375282045453787,0.1412843018770218,0.18462945520877838,0.171281099319458,0.1282820999622345,-0.0023197222035378218,-0.05782878398895264,-0.023783810436725616,-0.24152147769927979,-0.28475019335746765,-0.18406137824058533,-0.14513222873210907,-0.07471218705177307,-0.005542157683521509,-0.11989916115999222,-0.09943664819002151,-0.03216114267706871,-0.044152405112981796,-0.029817815870046616,-0.01635706052184105,-0.034961871802806854,-0.06732003390789032,-0.0938149094581604,-0.10163373500108719,-0.03879896178841591,-0.16624079644680023,-0.04825964197516441,-0.14695234596729279,-0.08658812940120697,-0.10421835631132126,-0.13562500476837158,-0.02722972072660923,-0.0864434614777565,0.014204863458871841,0.020499970763921738,-0.07086172699928284,-0.07334032654762268,0.03194834291934967,-0.06752804666757584,-0.031349439173936844,0.03247113898396492,-0.0796331986784935,-0.02171764336526394,-0.001408213283866644,0.020057765766978264,0.052181828767061234,0.031377844512462616,-0.03623928874731064,0.02141352742910385,0.0341305136680603,0.009992173872888088,0.032256294041872025,0.038197845220565796,0.10024391859769821,0.19314008951187134,0.19365926086902618,0.08052189648151398,0.0036125488113611937,-0.04585972800850868,-0.12453038990497589,-0.017290132120251656,-0.022210821509361267,0.05079605430364609,-0.03387238830327988,0.16223181784152985,0.18970665335655212,0.06879568845033646,0.0617220513522625,0.04707703739404678,0.056052763015031815,0.004418671131134033,-0.06202790513634682,-0.08113086223602295,-0.2239145189523697,-0.17049039900302887,-0.004684227053076029,0.0426589772105217,0.08302772790193558,0.27310910820961,0.0753650888800621,0.20036259293556213,0.1776604950428009,0.1006297692656517,0.06885349750518799,0.05818033963441849,-0.024879949167370796,-0.031529493629932404,-0.18437163531780243,-0.21044446527957916,-0.03966589644551277,0.03217018395662308,0.09356515109539032,0.1962672472000122,0.13553382456302643,-0.023831522092223167,-0.17806154489517212,-0.06246158480644226,0.19496777653694153,0.15794357657432556,0.09592664986848831,0.10349733382463455,-0.041390664875507355,-0.34555935859680176,-0.01413387805223465,-0.04260502755641937,0.18182575702667236,0.04949038848280907,-0.1941952109336853,-0.23916512727737427,-0.30767717957496643,-0.062256164848804474,0.21289411187171936,0.15555712580680847,0.15114258229732513,0.11126228421926498,-0.06745298951864243,-0.25164803862571716,-0.05918794125318527,-0.028865613043308258,0.0618443489074707,-0.150429829955101,-0.2826937139034271,-0.16719181835651398,0.00023531884653493762,0.1289689838886261,0.24259383976459503,0.021174123510718346,0.06678137183189392,-0.2493516355752945,-0.38644325733184814,-0.07163803279399872,-0.033058952540159225,-0.026029463857412338,0.03552868589758873,-0.061908453702926636,-0.2580585777759552,-0.14960609376430511,-0.012325741350650787,0.05308416113257408,0.08112242072820663,0.0030762588139623404,0.11280100792646408,-0.00033419422106817365,-0.046220071613788605,-0.14302635192871094,0.024175267666578293,-0.04217081889510155,0.19143736362457275,0.06556126475334167,-0.11139992624521255,-0.21529629826545715,-0.20841039717197418,-0.11792188882827759,-0.10322639346122742,0.031523481011390686,0.09621019661426544,0.0635027289390564,0.09262597560882568,-0.07549724727869034,-0.002934555057436228,-0.020037053152918816,0.37092480063438416,0.2936723530292511,0.020157042890787125,-0.12020372599363327,-0.2873154878616333,-0.24229802191257477,-0.08455144613981247,0.15088294446468353,0.19279496371746063,0.09858347475528717,0.07162229716777802,-0.20776396989822388,-0.06959427148103714,-0.024414388462901115,0.21766583621501923,0.21083194017410278,0.1898476928472519,0.08615192025899887,-0.10750047117471695,-0.08909948170185089,0.01737372763454914,0.12996123731136322,0.10200335085391998,0.07519733160734177,-0.08305437117815018,-0.13265912234783173,-0.003421307075768709,-0.058110274374485016,0.16670379042625427,0.17803360521793365,0.13722188770771027,0.053564656525850296,0.10725521296262741,-0.0286090224981308,0.06553002446889877,0.005058150738477707,0.025074059143662453,-0.01666465774178505,-0.14512111246585846,-0.12651565670967102,0.02535133808851242,0.011612589471042156,0.11121845990419388,0.22441764175891876,0.23353973031044006,0.10090198367834091,0.12217947095632553,0.10763153433799744,0.05840904265642166,-0.009565402753651142,-0.04778505489230156,-0.1499813050031662,-0.040530428290367126,-0.07925833761692047,0.01087469607591629,0.03246336802840233,-0.06687503308057785,-0.00675596296787262,-0.06805715709924698,0.003283477621152997,-0.05766439065337181,0.018390072509646416,-0.08140529692173004,-0.03907239809632301,-0.02696782909333706,-0.0074066719971597195,-0.08928589522838593,0.001601877622306347,-0.002863412257283926,0.09893028438091278,0.031095266342163086,-0.006575460080057383,0.01691340282559395,-0.027357980608940125,-0.05111478269100189,-0.06176083907485008,0.022022699937224388,-0.015096603892743587,-0.014940833672881126,0.011103103868663311,0.10490938276052475,0.0006814301596023142,-5.263997445581481e-05,0.08575260639190674,0.08081204444169998,0.031069116666913033,0.04898778721690178,-0.13840505480766296,-0.2807813286781311,-0.4129812717437744,-0.2578260898590088,-0.22275160253047943,-0.08573227375745773,-0.05315031111240387,0.013815428130328655,-0.03555865213274956,0.021056270226836205,-0.013088170439004898,-0.011465530842542648,0.08648111671209335,0.08966126292943954,0.07970152795314789,-0.03390906751155853,-0.025051316246390343,0.067145936191082,0.06470645219087601,0.13591210544109344,0.11412758380174637,0.26043179631233215,0.13719019293785095,-0.02386045828461647,0.022085275501012802,-0.007086451631039381,0.11039701104164124,0.06664589047431946,0.0175138209015131,-0.11886528134346008,-0.20231783390045166,-0.2750183343887329,-0.2589114010334015,-0.05616113170981407,0.037738509476184845,0.23041047155857086,0.15998871624469757,0.146766796708107,-0.007476281374692917,-0.06369886547327042,-0.027156196534633636,-0.08945436775684357,-0.05458977073431015,-0.010444769635796547,-0.1861112117767334,-0.3352048993110657,-0.150894895195961,-0.012365388683974743,-0.04592785984277725,-0.04191603884100914,-0.0641334056854248,0.007766880560666323,0.08492854982614517,-0.05757562443614006,-0.19389976561069489,-0.05198672413825989,0.08376004546880722,0.22029653191566467,0.02287333644926548,-0.28000083565711975,0.19523921608924866,-0.018804319202899933,-0.08228085190057755,-0.14425219595432281,-0.2804241478443146,0.01773025281727314,0.08210378140211105,-0.14485356211662292,-0.025249505415558815,0.21481278538703918,0.1916143149137497,0.3839099407196045,0.11581253260374069,-0.16414225101470947,0.23836208879947662,0.08848302811384201,0.06966831535100937,0.008991234004497528,-0.11042353510856628,-0.010191046632826328,0.07566129416227341,0.04186109080910683,0.13575567305088043,0.2069939374923706,0.21532228589057922,0.21747221052646637,0.04889943450689316,0.0982491597533226,0.2784461975097656,0.227929949760437,0.18711625039577484,0.007668022997677326,-0.10839803516864777,-0.02888723462820053,0.03142336383461952,-0.09653489291667938,-0.047632697969675064,0.07970762997865677,0.08128796517848969,0.03786703571677208,0.1079072654247284,0.2746853828430176,0.235072061419487,0.047997087240219116,-0.004391474183648825,-0.03216250240802765,-0.1453266441822052,-0.021036319434642792,-0.025210093706846237,-0.08728648722171783,-0.17855821549892426,-0.16081424057483673,-0.17592543363571167,-0.2356792688369751,0.008472796529531479,0.21629123389720917,-0.058261774480342865,-0.14309142529964447,-0.14901286363601685,-0.2329990565776825,-0.10159698873758316,0.011524375528097153,0.07825719565153122,-0.0077107567340135574,-0.2007288634777069,-0.2975493371486664,-0.3051278293132782,-0.226814866065979,-0.14433328807353973,-0.0896473303437233,-0.07065696269273758,-0.11429943144321442,-0.15257811546325684,-0.17331506311893463,-0.02624627761542797,0.026883510872721672,0.09483519941568375,-0.048748958855867386,-0.10708719491958618,-0.24164652824401855,-0.17169955372810364,-0.15545625984668732,-0.14006339013576508,-0.1121177226305008,-0.038454581052064896,0.017077455297112465,0.13150142133235931,0.0837189331650734,0.07290762662887573,0.0038305025082081556,0.03331728279590607,-0.017051665112376213,-0.030393613502383232,-0.04051373526453972,0.03010742925107479,0.004333281423896551,-0.027957776561379433,-0.035518795251846313,0.027179507538676262,0.018041351810097694,0.06117769703269005,0.052605390548706055,-0.021137923002243042,0.03885688632726669,0.07269276678562164,0.051837071776390076,-0.012978638522326946,0.00854247622191906,-0.23054936528205872,-0.25125741958618164,-0.3391346037387848,-0.31280750036239624,-0.28660523891448975,-0.20594821870326996,-0.08111885190010071,-0.05466027930378914,0.06464210152626038,0.007630250416696072,-0.14094147086143494,-0.0774599015712738,-0.17218858003616333,-0.11284055560827255,-0.12415887415409088,-0.061549220234155655,-0.1386699229478836,-0.1719258427619934,-0.14853736758232117,-0.12268149852752686,-0.14073394238948822,-0.0884137824177742,-0.13815909624099731,-0.13320285081863403,-0.0845009982585907,-0.15273283421993256,-0.15917816758155823,-0.09661123901605606,-0.18234750628471375,-0.18304204940795898,-0.1663593202829361,-0.1286560446023941,-0.07063764333724976,-0.003528069006279111,-0.0441112294793129,-0.028535638004541397,-0.14684432744979858,-0.06699304282665253,-0.0834803655743599,-0.1581881046295166,-0.21747040748596191,-0.11395195871591568,-0.10095090419054031,-0.051862187683582306,-0.07181361317634583,-0.11214764416217804,-0.01541904266923666,0.03221460059285164,0.08722816407680511,0.12517787516117096,0.12454519420862198,-0.08970562368631363,-0.085022933781147,-0.24711626768112183,-0.18982072174549103,-0.10503244400024414,0.040377479046583176,0.018870757892727852,-0.09189748764038086,-0.06066691875457764,-0.057408224791288376,0.08201486617326736,0.1474486142396927,0.14545272290706635,0.2932591140270233,0.07642627507448196,-0.14815597236156464,-0.16709208488464355,-0.25867515802383423,-0.056227248162031174,0.05785299837589264,0.1418321281671524,0.028144510462880135,-0.18587863445281982,-0.2039956897497177,-0.056649256497621536,0.018540723249316216,0.23844364285469055,0.5903916954994202,0.24209050834178925,-0.09648340940475464,-0.2610343098640442,-0.09463520348072052,0.12317506968975067,0.11294326931238174,0.1456741988658905,0.20705468952655792,-0.07149811834096909,-0.21358750760555267,-0.19812893867492676,-0.2311539351940155,-0.14651399850845337,0.5571988821029663,0.09515732526779175,-0.11652226746082306,-0.11083541810512543,0.04183322191238403,0.02844392880797386,0.050900839269161224,0.25156810879707336,0.17319095134735107,-0.048861220479011536,-0.24850881099700928,-0.14749133586883545,-0.2688665986061096,-0.5494167804718018,-0.4439533054828644,-0.056432049721479416,-0.1373024880886078,-0.13919956982135773,-0.08181516826152802,-0.14401808381080627,-0.02002052776515484,0.15877468883991241,0.029535003006458282,-0.1772463023662567,-0.1984446942806244,-0.0269622839987278,0.0023166993632912636,-0.13412243127822876,-0.09421145915985107,-0.09412457048892975,-0.07471664249897003,-0.1106577068567276,-0.07059188932180405,-0.1249268427491188,-0.13033051788806915,-0.20906926691532135,-0.16766057908535004,-0.23786094784736633,-0.08890298008918762,0.05019015073776245,-0.005507226102054119,-0.011854243464767933,-0.04851433262228966,-0.1375533640384674,-0.08550997823476791,-0.08899842947721481,0.17778243124485016,0.10638771951198578,-0.059651944786310196,-0.1665971428155899,-0.09308652579784393,-0.056953076273202896,0.04787885770201683,0.08399725705385208,0.04212360084056854,0.06396424770355225,0.09185830503702164,-0.18224795162677765,-0.17419923841953278,-0.1318628191947937,0.06568798422813416,0.15846437215805054,0.15930892527103424,0.1215209886431694,0.05052952840924263,0.05560063570737839,0.04001998528838158,0.11431006342172623,0.05098848417401314,0.24761556088924408,0.01984492875635624,-0.07674761861562729,-0.1776392012834549,-0.11386863142251968,-0.05988683924078941,-0.022405223920941353,0.01564018428325653,0.03307521343231201,0.03525517135858536,0.050053671002388,0.018963070586323738,0.011321009136736393,0.14071673154830933,0.10349691659212112,-0.02542511373758316,-0.1809493750333786,-0.1622197926044464,-0.17249992489814758,-0.1157551035284996,-0.0060274857096374035,0.034250300377607346,0.13146330416202545,0.1409585326910019,0.15188580751419067,0.003002973971888423,0.011488334275782108,0.010296843945980072,0.019726548343896866,-0.07720233500003815,-0.11472119390964508,-0.16417890787124634,-0.06206433102488518,-0.16721820831298828,-0.2151319682598114,-0.11387129873037338,-0.04922383278608322,-0.04478437453508377,-0.12009840458631516,-0.12482943385839462,-0.19354858994483948,-0.12323042750358582,-0.04249705374240875,-0.053627584129571915,-0.17127668857574463,0.08258270472288132,0.105177141726017,0.00930880382657051,0.11964841187000275,0.04813745245337486,0.10816175490617752,0.07309160381555557,-0.017207589000463486,0.10316802561283112,0.0731431245803833,0.011925025843083858,0.07446882873773575,0.05672954395413399,0.022452278062701225,0.013158159330487251,0.043980080634355545,0.02461346611380577,0.17451611161231995,0.1850174069404602,0.24904797971248627,0.22978679835796356,0.23376326262950897,0.12658947706222534,0.24111339449882507,0.2516429126262665,0.26293930411338806,0.11325253546237946,0.10020755231380463,0.06047388166189194,0.01472705788910389,-0.010946352034807205,0.006928067188709974,0.0038670606445521116,-0.09329727292060852,-0.1266152560710907,-0.05928903445601463,0.041764989495277405,0.1968231052160263,0.22400659322738647,0.2585132420063019,0.20197045803070068,0.11207995563745499,0.0489952452480793,0.01357895415276289,-0.07494296878576279,-0.10388456284999847,-0.08796504884958267,-0.14224137365818024,-0.15312349796295166,-0.10481178015470505,-0.13176347315311432,-0.21011249721050262,-0.07287555187940598,-0.0814712718129158,0.020328866317868233,0.052838996052742004,-0.00924524012953043,-0.07304228842258453,-0.23657335340976715,-0.07062578946352005,-0.03031897358596325,-0.11704502999782562,-0.06804407387971878,-0.1414792835712433,-0.3329480290412903,-0.2735346555709839,-0.19811882078647614,-0.23854480683803558,-0.24166443943977356,-0.026262909173965454,0.10684753209352493,-0.12635518610477448,-0.12097875773906708,0.034557174891233444,-0.01327571365982294,-0.02763482928276062,0.04635573923587799,-0.2207520604133606,-0.2636733651161194,-0.20877206325531006,-0.11615446954965591,0.04850969463586807,-0.07598473876714706,-0.11908873170614243,-0.027116311714053154,-0.06719828397035599,-0.028061363846063614,0.07100778073072433,0.07063830643892288,0.14741571247577667,-0.042771514505147934,-0.11640915274620056,-0.05305982381105423,-0.07041008770465851,0.11265288293361664,0.2801060676574707,0.31879833340644836,-0.06503566354513168,0.10654262453317642,-0.09470775723457336,0.001333567313849926,0.03803915157914162,0.11376766860485077,0.17870056629180908,0.060410186648368835,0.15214064717292786,0.007357439491897821,-0.04967080056667328,0.05076409503817558,0.18830475211143494,0.08681681007146835,-0.0567595474421978,-0.024770595133304596,-0.11151906102895737,-0.09190980345010757,0.015297472476959229,0.16958527266979218,0.3025020956993103,0.1487099528312683,0.08265098929405212,-0.09188828617334366,0.11526941508054733,0.03450937196612358,0.036440033465623856,0.011715715751051903,-0.14990709722042084,0.06662807613611221,-0.14762893319129944,-0.3609510362148285,-0.028722720220685005,0.13211508095264435,0.26312318444252014,0.19373337924480438,0.04098717123270035,0.1694713830947876,0.1671784371137619,0.008579391054809093,0.028413526713848114,-0.05356217548251152,-0.014177107252180576,0.02741723693907261,-0.018563272431492805,-0.30892983078956604,-0.18288926780223846,-0.08043038100004196,0.2748654782772064,0.3827670216560364,0.25726938247680664,0.25079435110092163,0.14763198792934418,0.042378321290016174,-0.1020488291978836,-0.0017339703626930714,0.01132301613688469,0.05241632089018822,0.05059695988893509,-0.1712172031402588,-0.28236690163612366,-0.1593194156885147,-0.06310494989156723,-0.03946685418486595,-0.0053217969834804535,-0.09692706167697906,-0.09558835625648499,-0.045424412935972214,-0.056937504559755325,-0.07167460769414902,-0.026267841458320618,0.11155901104211807,0.043868571519851685,-0.018323397263884544,-0.016293438151478767,-0.2244277000427246,-0.3290727436542511,-0.3039783239364624,-0.2387150377035141,-0.19246798753738403,-0.20497265458106995,-0.08482500910758972,-0.006125918589532375,-0.01654859073460102,0.010651123709976673,-0.004082494881004095,0.038320448249578476,-0.014021324925124645,0.06537783145904541,-0.02353844791650772,-0.05016864463686943,0.033160626888275146,-0.03402448073029518,-0.03958866372704506,-0.04779716208577156,0.013109634630382061,0.07936302572488785,0.028978103771805763,-0.011819183826446533,-0.09325741976499557,-0.024825045838952065,-0.0893351137638092,-0.05272103473544121,-0.09805800765752792,-0.1322856843471527,-0.11961459368467331,-0.10539152473211288,-0.035830628126859665,-0.14225533604621887,-0.13196992874145508,-0.030054496601223946,-0.06617506593465805,-0.02853899635374546,-0.0450819656252861,-0.0907440111041069,-0.017748631536960602,-0.040120936930179596,-0.14595924317836761,-0.1648891419172287,-0.18927237391471863,-0.15830235183238983,-0.1565578728914261,-0.17849192023277283,-0.10173462331295013,-0.010558435693383217,-0.03571600839495659,-0.107245072722435,-0.023574920371174812,-0.011195402592420578,-0.00022187698050402105,0.0044330451637506485,-0.08053258061408997,-0.15853403508663177,-0.183869406580925,-0.3033037781715393,-0.2689252197742462,-0.2740752398967743,-0.3295871615409851,-0.22346511483192444,-0.16663758456707,-0.11375201493501663,-0.12611933052539825,0.0026839871425181627,0.18583643436431885,0.18667729198932648,0.17014722526073456,0.09641209989786148,0.0018103031907230616,-0.08893576264381409,0.0336715392768383,0.003627593396231532,-0.001210519578307867,-0.05544586479663849,-0.2314593642950058,-0.05527734383940697,-0.02243698760867119,0.19154587388038635,0.22525916993618011,0.08611668646335602,0.10468606650829315,0.15655645728111267,0.11112843453884125,0.22692956030368805,0.27066391706466675,0.13193552196025848,0.13267935812473297,-0.020864222198724747,-0.22044987976551056,-0.13967272639274597,-0.01738741807639599,0.22714407742023468,0.09559852629899979,0.042784951627254486,0.07932330667972565,-0.018213637173175812,0.08405362814664841,0.26437562704086304,0.3513921797275543,0.18416400253772736,0.08616950362920761,-0.002957782940939069,-0.27236059308052063,-0.06400550156831741,0.07903855293989182,0.3077353835105896,0.0837467834353447,0.049523551017045975,-0.02434968389570713,-0.16729077696800232,-0.5338218808174133,-0.20807364583015442,0.21005742251873016,0.10535531491041183,0.03977052494883537,-0.1004231721162796,-0.14686106145381927,-0.08156878501176834,0.003836167510598898,0.13713358342647552,0.08405698835849762,-0.027634477242827415,-0.1310158371925354,-0.3143608570098877,-0.5156749486923218,-0.15331527590751648,0.0735229104757309,0.2666083574295044,0.18171103298664093,0.11220736801624298,-0.0955425575375557,-0.09190984070301056,-0.00981220230460167,-0.03277021646499634,-0.09921018779277802,-0.10016327351331711,-0.11477571725845337,-0.2262624055147171,-0.221418559551239,-0.030413998290896416,0.04335489124059677,0.11056774109601974,0.118010014295578,-0.058392755687236786,-0.08256307244300842,-0.04127807542681694,-0.015312422066926956,-0.023519039154052734,-0.09662973135709763,-0.31343957781791687,-0.20125097036361694,-0.24959975481033325,0.02391675114631653,-0.03877125680446625,-0.16429004073143005,-0.13235250115394592,-0.2295232117176056,-0.2626977562904358,-0.1586654633283615,-0.06461162120103836,-0.12162306904792786,-0.10864026099443436,-0.21028093993663788,-0.23993724584579468,-0.19166801869869232,-0.11653710901737213,0.02642204985022545,-0.10911048948764801,-0.18914957344532013,-0.3081700801849365,-0.3064800202846527,-0.3010334372520447,-0.13368527591228485,-0.00728992186486721,-0.029476476833224297,-0.089128278195858,0.03533551096916199,0.06475532799959183,0.0170765183866024,-0.06656043231487274,-0.11035732179880142,-0.0999392569065094,-0.12548191845417023,-0.278765469789505,-0.29349207878112793,-0.32343360781669617,-0.10402557253837585,-0.022258182987570763,-0.010572509840130806,-0.11100143194198608,0.1718471497297287,0.2384561151266098,0.11364008486270905,0.09827868640422821,0.13433128595352173,0.19443006813526154,0.08637072890996933,-0.1282399296760559,-0.06864148378372192,-0.22577768564224243,-0.11665966361761093,-0.042432643473148346,-0.07129452377557755,-0.0807875394821167,-0.10709472745656967,0.10606314241886139,0.1901114284992218,0.17000707983970642,0.16555945575237274,0.2645057439804077,0.2598760724067688,0.221997931599617,-0.012218908406794071,-0.0351535826921463,-0.031613290309906006,-0.09278246015310287,0.09208798408508301,0.1402403712272644,0.06672948598861694,0.156088724732399,0.06638354063034058,0.1546640247106552,0.15251266956329346,0.10471096634864807,0.04806103929877281,0.16390880942344666,0.16997650265693665,0.07612152397632599,0.15747997164726257,0.0833398699760437,0.12642644345760345,0.16465267539024353,0.10905679315328598,0.06619837135076523,0.007158758118748665,0.02930772490799427,-0.12175524979829788,-0.10522966086864471,-0.06979069858789444,-0.08658462017774582,-0.04225233569741249,0.08007556200027466,0.162602961063385,0.1436823159456253,0.06001422926783562,0.10887245833873749,-0.021340949460864067,0.008122703991830349,-0.01756136864423752,0.02950449101626873,0.1552303433418274,0.10700280219316483,0.11017679423093796,0.044902026653289795,0.11486552655696869,-0.01542374026030302,0.08098497986793518,0.09125574678182602,0.08312443643808365,0.012676756829023361,-0.026080245152115822,-0.11123733967542648,0.0006802155985496938,0.0011569008929654956,0.05809421092271805,0.13457109034061432,0.1355554610490799,0.054732389748096466,0.04593329876661301,0.058192431926727295,0.16117021441459656,0.08006543666124344,0.07760868966579437,0.08082778006792068,-0.0005979468114674091,0.07321245223283768,0.14339394867420197,0.10577983409166336,0.059414032846689224,-0.13319234549999237,-0.10288859158754349,0.1035013347864151,0.10218045860528946,0.0813729539513588,0.1334766298532486,0.1269964575767517,0.0662052184343338,0.09900929033756256,0.04571942985057831,0.15283013880252838,0.20777840912342072,0.1396402269601822,0.18837474286556244,-0.008229576982557774,-0.05947766453027725,0.06068321689963341,0.16044558584690094,0.21874114871025085,0.18284791707992554,0.10653103142976761,0.0584261529147625,0.055049266666173935,0.15320321917533875,0.020134592428803444,0.002308695577085018,0.10381599515676498,0.2690609395503998,0.14304155111312866,0.05469910055398941,0.042999424040317535,0.10799715667963028,0.10269089788198471,0.239897683262825,0.0720943808555603,0.08395680040121078,0.025852195918560028,-0.10679394006729126,-0.29561588168144226,-0.22032569348812103,0.024280639365315437,0.3154502213001251,0.2617018222808838,0.047146886587142944,-0.14157280325889587,-0.2140551209449768,-0.18468782305717468,-0.0810045525431633,0.113048255443573,0.1410353183746338,0.10210367292165756,-0.23471762239933014,-0.08307955414056778,-0.0037436899729073048,0.19927099347114563,0.23627059161663055,0.0015954645350575447,-0.026219798251986504,-0.1400241106748581,-0.16825923323631287,-0.12585772573947906,0.03997759148478508,0.04120577126741409,0.09090496599674225,-0.09828566014766693,-0.04734516516327858,0.04339740425348282,0.1592925786972046,0.12905201315879822,0.07933198660612106,-0.11711239069700241,-0.11090012639760971,-0.03279491886496544,0.008591590449213982,-0.022111933678388596,-0.019594162702560425,0.11876760423183441,0.10677886754274368,-0.009428444318473339,-0.0015472639352083206,0.06940407305955887,-0.01742292381823063,-0.08198363333940506,-0.10057040303945541,-0.10780417919158936,-0.01150990929454565,-0.028997493907809258,-0.018222779035568237,0.06759475916624069,0.02322489023208618,0.07178176939487457,0.07010725140571594,-0.030343763530254364,-0.15712781250476837,0.026413699612021446,-0.08547548204660416,0.09753149747848511,0.2413858324289322,0.28286147117614746,0.09936431050300598,0.059584084898233414,0.03835894539952278,-0.054786138236522675,0.06084231287240982,0.16331706941127777,0.1314060091972351,0.031026523560285568,-0.17338140308856964,-0.22273361682891846,-0.07491303235292435,0.005561014171689749,0.036944203078746796,0.08339353650808334,0.1046542078256607,0.13626207411289215,0.08308035135269165,0.06765668094158173,0.11007646471261978,0.13120892643928528,0.12615425884723663,0.07778313755989075,0.14726576209068298,0.037880659103393555,-0.048474498093128204,-0.08356504887342453,-0.06376057863235474,-0.11145234107971191,0.038051389157772064,0.099095918238163,0.0511915497481823,0.08052931725978851,0.062026672065258026,0.17606443166732788,-0.008625310845673084,0.034116607159376144,0.06398191303014755,0.05733322352170944,0.06788469851016998,0.0006200807401910424,0.08896218985319138,0.04294610396027565,0.020545154809951782,0.03436126932501793,-0.030323058366775513,0.03517603501677513,0.053173940628767014,0.048741329461336136,-0.020049123093485832,0.036529216915369034,-0.0008158001583069563,0.07517589628696442,0.014715145342051983,-0.04535474628210068,-0.09821873903274536,-0.13644784688949585,-0.12860813736915588,-0.050304755568504333,-0.011465656571090221,-0.016426360234618187,0.0827987864613533,0.08874774724245071,0.022829027846455574,0.0569559745490551,0.042541053146123886,-0.037853214889764786,-0.15558871626853943,-0.0617329366505146,-0.05851667746901512,-0.18311181664466858,-0.2754864990711212,-0.2263835221529007,-0.17318753898143768,-0.2236991971731186,-0.06704575568437576,0.07684613764286041,-0.022469526156783104,0.060468487441539764,-0.16986820101737976,-0.21781153976917267,-0.0479348748922348,-0.02088109217584133,0.17891216278076172,0.41621148586273193,0.29423823952674866,0.04346553608775139,-0.01854918710887432,-0.28384506702423096,-0.22730256617069244,-0.00038881745422258973,0.00043269136222079396,-0.12860547006130219,-0.1770431250333786,-0.09027151018381119,0.004051492549479008,0.06610456109046936,0.11023023724555969,0.11643262207508087,0.061067286878824234,-0.023558933287858963,-0.10328009724617004,-0.1822618842124939,-0.2971653938293457,0.01749466173350811,0.07395074516534805,-0.1124875470995903,0.09043115377426147,0.11498628556728363,0.16956211626529694,0.20733095705509186,-0.012753593735396862,-0.05695061385631561,0.041540682315826416,0.1701125055551529,0.17954513430595398,0.0496048629283905,-0.2344762235879898,-0.05594173073768616,0.07678239792585373,-0.023547660559415817,0.2215033322572708,0.20221203565597534,0.1649286299943924,0.07863099128007889,-0.06053902208805084,0.1497390866279602,0.16013014316558838,0.2975395619869232,0.17555618286132812,-0.00457414984703064,-0.2380807250738144,-0.05084642395377159,-0.014004303142428398,0.07960707694292068,0.09944462031126022,0.05967807397246361,0.01280080247670412,-0.008906224742531776,0.026163453236222267,0.05437849089503288,0.2123686522245407,0.09596237540245056,-0.006781484466046095,-0.18114055693149567,-0.23254084587097168,0.051868826150894165,0.07057829201221466,-0.05376431345939636,-0.033085864037275314,-0.029065733775496483,0.05999511852860451,0.09424804896116257,-0.12788985669612885,-0.040191225707530975,0.13490235805511475,-0.06453415751457214,-0.13930468261241913,-0.28910961747169495,-0.2868349552154541,0.04360942915081978,0.09245627373456955,-0.0796494334936142,-0.13982880115509033,-0.10174360126256943,-0.0741337314248085,-0.1584307700395584,-0.11727975308895111,0.05665157362818718,-0.07984064519405365,-0.12993544340133667,-0.12232764810323715,-0.22690217196941376,-0.12374464422464371,-0.014151759445667267,0.06528239697217941,-0.06544799357652664,-0.08036353439092636,-0.2001522183418274,-0.2313479632139206,-0.29416826367378235,-0.17444507777690887,-0.12096767872571945,-0.13391663134098053,-0.09165217727422714,-0.10461495071649551,-0.143952876329422,0.04699453338980675,0.04970257729291916,0.04860778898000717,-0.003106502816081047,-0.08873549103736877,-0.03765283524990082,-0.05768556147813797,-0.07171784341335297,-0.08836974948644638,-0.13919273018836975,-0.1812715083360672,-0.12293154746294022,-0.04296907037496567,0.10407406836748123,0.13512800633907318,0.10143691301345825,0.10934615880250931,-0.017941288650035858,0.11384942382574081,0.10292529314756393,0.03645982965826988,0.04693535342812538,-0.015983833000063896,-0.07331747561693192,0.0813571885228157,0.08416891098022461,0.23294000327587128,0.19860900938510895,0.03497588634490967,0.03553404286503792,0.02721712552011013,-0.0012816183734685183,0.0380726084113121,0.19827276468276978,0.20254532992839813,0.1258755326271057,0.1539025604724884,0.22167642414569855,0.13872301578521729,0.18509012460708618,0.09705184400081635,0.10683805495500565,-0.002968102227896452,0.03376896306872368