{"shape": [8, 1, 5, 5]}
-0.21077285706996918,-0.37745431065559387,-0.1629701554775238,0.1159328743815422,0.16549918055534363,-0.23193034529685974,-0.2235264927148819,0.0759672001004219,0.21705785393714905,-0.11117810010910034,-0.2935386002063751,-0.11453051120042801,0.2028735876083374,0.08602012693881989,0.24138838052749634,-0.14187194406986237,-0.12168126553297043,0.23458978533744812,0.10752049088478088,0.04131269082427025,-0.13062213361263275,0.17424681782722473,0.07410985976457596,0.048875849694013596,-0.03727620840072632,-0.15114015340805054,-0.3484928011894226,-0.34672918915748596,-0.23431111872196198,0.1270994246006012,-0.0101898442953825,-0.08615225553512573,-0.028953328728675842,-0.24270042777061462,-0.292925089597702,0.22351643443107605,0.2306004911661148,-0.12509262561798096,0.03527730703353882,-0.32474881410598755,0.17265944182872772,-0.06674269586801529,0.24807441234588623,-0.05822056531906128,-0.04137708991765976,0.13922196626663208,0.16210973262786865,0.1933937668800354,0.13389952480793,-0.028929609805345535,0.2488183230161667,0.18168598413467407,0.13047093152999878,-0.0733548104763031,-0.28191912174224854,0.14906933903694153,0.08284831792116165,-0.25521501898765564,-0.012310580350458622,-0.2656274735927582,-0.21405825018882751,-0.4469202160835266,-0.133766308426857,0.009728067554533482,0.25408732891082764,-0.32775500416755676,-0.19376598298549652,-0.048609472811222076,0.012740378268063068,0.06496438384056091,0.07502198219299316,0.31110015511512756,0.19641582667827606,0.19910453259944916,-0.05213090032339096,0.10388830304145813,-0.017700528725981712,-0.06024938076734543,-0.02955184131860733,0.16900479793548584,0.09928461909294128,-0.08421092480421066,0.08543315529823303,0.056899119168519974,-0.017109151929616928,0.10510323941707611,0.022023646160960197,-0.022190507501363754,0.21063737571239471,-0.16894757747650146,-0.14305776357650757,0.11512721329927444,0.1257915198802948,-0.04378722235560417,-0.3195578455924988,0.11546851694583893,0.16824199259281158,0.16476403176784515,-0.22326205670833588,-0.19236049056053162,0.20150648057460785,0.07690258324146271,0.056390270590782166,-0.20048390328884125,-0.3733178377151489,0.22516538202762604,0.0906943678855896,-0.22984395921230316,-0.2858917713165283,0.06404654681682587,0.08053618669509888,-0.18198895454406738,-0.32022252678871155,0.026327459141612053,-0.00215789582580328,-0.1536838412284851,-0.17290861904621124,-0.16686896979808807,-0.14808854460716248,0.09460681676864624,-0.08076991140842438,-0.24773681163787842,-0.0549624003469944,0.08895935863256454,0.07752884924411774,-0.0028647712897509336,0.08854876458644867,0.14844433963298798,0.058235373347997665,0.020441560074687004,-0.17035232484340668,0.20440736413002014,0.2459251880645752,-0.023992620408535004,-0.2053367644548416,-0.22238926589488983,0.1637144386768341,0.0722520500421524,-0.15219026803970337,-0.1462952345609665,-0.047945793718099594,-0.2720699906349182,0.03050035797059536,0.041336219757795334,0.2766171991825104,-0.11503104865550995,-0.22713026404380798,0.07749760895967484,0.09437402337789536,-0.058237407356500626,0.14963391423225403,0.11224069446325302,0.028542103245854378,0.12949417531490326,-0.027201805263757706,-0.01638062857091427,0.055545710027217865,-0.030464673414826393,0.1252451241016388,0.10169332474470139,0.13524463772773743,0.16694852709770203,0.0809493139386177,0.035054247826337814,0.15207122266292572,-0.2795407474040985,-0.08927694708108902,-0.11305224895477295,0.00028046261286363006,0.020878732204437256,-0.2427840679883957,0.008779765106737614,-0.2807387709617615,-0.06716474890708923,-0.2695547044277191,0.05567289516329765,0.09171164780855179,0.3378945589065552,0.268184632062912,0.19728145003318787,-0.19175399839878082,-0.24095851182937622,-0.3262295424938202,-0.3597056269645691,-0.24259702861309052,-0.0970703586935997,-0.2530515491962433,-0.13359925150871277,-0.24844211339950562,-0.18230469524860382,-0.0008052476332522929,0.20465731620788574,0.04512934014201164,0.18984241783618927,-0.07711343467235565,0.1771441400051117,0.004508905578404665,0.08327407389879227,0.15861813724040985,0.24052496254444122