{"shape": [8, 1, 5, 5]}
-0.20577077567577362,-0.2971041798591614,-0.2865348160266876,0.04283158481121063,-0.1668892651796341,-0.2597272992134094,0.02962038666009903,0.004936268553137779,0.09818615764379501,0.19643139839172363,-0.12416774779558182,0.021655412390828133,0.018835851922631264,0.10009594261646271,0.0868450328707695,-0.11602071672677994,0.13767781853675842,0.15372826159000397,-0.02916737087070942,-0.10308390110731125,0.19743263721466064,-0.0054353526793420315,0.08449450135231018,0.11451835185289383,0.03570690006017685,0.27942684292793274,0.07414977252483368,0.0846373438835144,-0.27308389544487,-0.3258724510669708,0.016167663037776947,0.099789559841156,0.044429898262023926,-0.37277308106422424,0.0017543209251016378,0.16865025460720062,0.19494444131851196,-0.265345960855484,-0.12602293491363525,-0.0927363708615303,0.22332113981246948,0.04521692171692848,-0.18621781468391418,-0.2799484431743622,0.01145290769636631,0.276378333568573,0.05604846030473709,-0.122941754758358,-0.23032796382904053,0.1103183701634407,-0.07803597301244736,0.09272176027297974,0.18496283888816833,0.05715278163552284,0.13487312197685242,-0.2971389889717102,0.117329441010952,0.15311366319656372,-0.12296301871538162,0.11211637407541275,-0.19235283136367798,-0.03170742839574814,-0.022046463564038277,0.049251291900873184,0.12156488746404648,0.04386652261018753,0.12976184487342834,0.10122359544038773,0.12080233544111252,0.03243989497423172,0.09448181092739105,0.042647067457437515,-0.18096165359020233,0.10220678895711899,0.14148066937923431,0.1705506294965744,0.03797600045800209,0.18817277252674103,-0.21692171692848206,-0.21201594173908234,0.16536465287208557,0.02254963293671608,-0.11730320006608963,-0.11312545090913773,0.1388387531042099,-0.09785724431276321,-0.06656120717525482,0.01782652921974659,0.08036439120769501,0.007934127002954483,-0.21068543195724487,-0.08148696273565292,-0.027344943955540657,0.11632797867059708,0.22474803030490875,0.1546485275030136,0.17521919310092926,0.018548093736171722,0.007651657797396183,-0.21283277869224548,-0.26236748695373535,-0.009954089298844337,-0.04312502220273018,0.26842001080513,0.20239529013633728,-0.17323318123817444,-0.1956428438425064,-0.022561538964509964,-0.047907862812280655,0.3372547924518585,-0.19476071000099182,-0.3146325945854187,-0.15103007853031158,-0.19930467009544373,-0.10853306949138641,0.0747922956943512,-0.2898044288158417,-0.24376846849918365,-0.32085859775543213,-0.06044723838567734,0.2013993114233017,-0.06998620927333832,-0.0331665500998497,-0.025444703176617622,-0.28269162774086,0.07002709060907364,0.03832598030567169,-0.15667064487934113,-0.12045453488826752,0.10832872986793518,0.16892161965370178,0.11865280568599701,-0.0863487496972084,0.240244060754776,0.26652708649635315,-0.0738169476389885,0.2054692953824997,0.33807727694511414,-0.006046206224709749,0.1079636886715889,0.002534065628424287,-0.13961927592754364,-0.18491823971271515,-0.1292528659105301,-0.3001118302345276,-0.23397184908390045,-0.1984786093235016,-0.135737806558609,-0.1958112269639969,-0.049198418855667114,-0.05743694677948952,0.10770408064126968,-0.10181737691164017,-0.26717421412467957,-0.14928071200847626,-0.04210973531007767,0.26382580399513245,0.25493156909942627,-0.10988038778305054,-0.3414560854434967,-0.11984419822692871,0.12779857218265533,0.42748260498046875,0.05431607738137245,-0.24721069633960724,-0.3312793970108032,0.12183205038309097,0.06612332165241241,0.2476527988910675,-0.128043994307518,-0.3579035997390747,-0.21082665026187897,0.07595264911651611,0.19035287201404572,0.15769332647323608,-0.37923145294189453,-0.1505315899848938,0.09441123157739639,0.28559109568595886,0.2267356514930725,-0.02400042861700058,-0.1516055464744568,-0.28104284405708313,-0.4413527250289917,-0.327044278383255,0.19010989367961884,-0.07739563286304474,0.007849938236176968,-0.08952253311872482,-0.37127336859703064,0.20844776928424835,0.03167600557208061,0.07506247609853745,0.06959998607635498,0.19653481245040894,0.11148213595151901,0.21365070343017578,0.05781124159693718,0.21390509605407715,0.04376661777496338