{"shape": [8, 1, 5, 5]}
0.20982623100280762,0.25985947251319885,0.06515946984291077,0.04529405012726784,0.12218059599399567,-0.002545345574617386,0.05132913589477539,-0.11924035847187042,-0.23887640237808228,0.02005321905016899,-0.36343011260032654,-0.003520159749314189,0.17190977931022644,0.056351449340581894,-0.11608897894620895,-0.2691262662410736,0.07299972325563431,0.24799153208732605,0.22205966711044312,-0.08027160167694092,0.19518283009529114,-0.26156148314476013,-0.25803279876708984,0.12243634462356567,0.13644100725650787,-0.25294554233551025,-0.006896360777318478,0.1545599400997162,0.14385637640953064,-0.05702386796474457,-0.20562785863876343,0.10474962741136551,0.13672052323818207,-0.057870328426361084,0.05894240364432335,-0.05752234905958176,0.06074134632945061,0.10376668721437454,0.04758346453309059,0.17038439214229584,-0.12349314242601395,0.1996278464794159,0.013631789945065975,0.055219318717718124,-0.08813713490962982,0.09726473689079285,0.09134439378976822,-0.12831920385360718,-0.048180148005485535,-0.09449503570795059,-0.17868714034557343,-0.3931320309638977,-0.3404988646507263,-0.12370565533638,-0.44523900747299194,-0.37480634450912476,0.056234221905469894,0.0886567234992981,-0.11055631935596466,-0.0784788578748703,0.06678599119186401,0.2154274731874466,-0.050889406353235245,0.2869594693183899,0.07388351857662201,0.31079208850860596,-0.09582139551639557,0.009145311079919338,-0.021979890763759613,-0.0912250429391861,0.09407798200845718,0.121183842420578,0.18353578448295593,0.024303419515490532,0.24504660069942474,0.14712604880332947,0.283003032207489,0.21827444434165955,0.08038505166769028,-0.40223121643066406,0.3049606382846832,0.028003104031085968,-0.20784518122673035,-0.3390042185783386,-0.28769195079803467,-0.09829086065292358,0.058847393840551376,-0.2668469250202179,-0.1868487000465393,0.2663753032684326,-0.014412017539143562,-0.08643604069948196,-0.3064895272254944,-0.1789340227842331,0.2696370780467987,-0.2264743596315384,0.12483926117420197,0.0714200958609581,-0.10178671777248383,0.2775513231754303,0.10510670393705368,0.0795501247048378,-0.12281068414449692,-0.01919088512659073,0.20063677430152893,0.06999122351408005,-0.029788002371788025,0.39678022265434265,0.3328283131122589,0.05265878885984421,-0.2173282504081726,0.16799068450927734,0.23969097435474396,0.13539426028728485,0.27974680066108704,-0.07803294062614441,-0.17617054283618927,-0.32031938433647156,-0.2897685170173645,-0.25209420919418335,-0.21106725931167603,-0.1775338351726532,-0.24996960163116455,-0.28321918845176697,-0.2520909011363983,-0.25375354290008545,0.11904873698949814,0.025384463369846344,0.050144121050834656,-0.24445685744285583,-0.05903792753815651,-0.15072286128997803,-0.07930862903594971,-0.09978672116994858,-0.06155617907643318,-0.2065400928258896,-0.05776991695165634,-0.01868915930390358,-0.12299187481403351,0.008098704740405083,0.06432431191205978,-0.146254763007164,-0.15678712725639343,-0.16618435084819794,0.04375487565994263,-0.016032010316848755,0.1925283819437027,0.019392823800444603,-0.1691966950893402,-0.1363258957862854,0.0975271463394165,0.07097674161195755,0.09590722620487213,0.05233720317482948,-0.3556293249130249,0.031000763177871704,0.06360634416341782,-0.05885061249136925,0.19905149936676025,-0.328022301197052,-0.030908804386854172,-0.039817195385694504,0.25864046812057495,0.14351849257946014,-0.10538395494222641,-0.15950828790664673,0.0010504788951948285,0.18532490730285645,0.16320109367370605,-0.06857303529977798,-0.32450246810913086,-0.13387784361839294,0.17342209815979004,-0.012465313076972961,0.13409364223480225,-0.06382737308740616,-0.03513143211603165,0.24211354553699493,-0.1115926057100296,0.03846219182014465,-0.11407802999019623,-0.14035865664482117,0.2548476755619049,-0.035143446177244186,-0.2612135708332062,-0.3050263226032257,0.10504638403654099,0.2966718077659607,0.1529683768749237,-0.3526703119277954,-0.254311740398407,0.1567004770040512,0.13201884925365448,0.019287383183836937,-0.14711463451385498,0.12833979725837708,0.13151824474334717,0.027779847383499146,-0.11368302255868912,-0.12350138276815414