{"shape": [8, 1, 5, 5]}
-0.04125087335705757,0.19638632237911224,0.09577196836471558,0.1341525912284851,0.12250295281410217,-0.013401465490460396,0.22334006428718567,0.28473109006881714,0.32385748624801636,0.3613290786743164,-0.1623372733592987,-0.1508249193429947,0.027522530406713486,-0.06738714128732681,-0.11928781867027283,-0.21760983765125275,-0.2481130212545395,-0.4526554048061371,-0.3286976218223572,-0.34449145197868347,-0.08537396043539047,-0.13193581998348236,-0.15314052999019623,-0.11072849482297897,-0.11892549693584442,0.28943926095962524,0.1705773025751114,0.016921551898121834,-0.15779423713684082,-0.3236786425113678,0.06400899589061737,-0.11456000059843063,-0.027150237932801247,0.03424260392785072,-0.12597091495990753,-0.3392202854156494,-0.2845718264579773,0.06612040847539902,0.2570413053035736,0.2655317187309265,-0.24584023654460907,0.13705399632453918,0.09997592866420746,0.02109741047024727,-0.011863709427416325,0.22720454633235931,0.08843650668859482,-0.17071454226970673,-0.03441954031586647,0.006131898611783981,-0.021390749141573906,-0.1684708595275879,-0.0445074662566185,0.12197058647871017,0.05722132697701454,0.18430854380130768,0.03138875588774681,0.19299431145191193,-0.17293979227542877,0.06283173710107803,0.015041803009808064,0.22108200192451477,0.20193971693515778,0.13808032870292664,0.04703332111239433,-0.1270783245563507,-0.17106600105762482,0.1656455099582672,0.16013796627521515,-0.09978355467319489,-0.2882198691368103,-0.28852492570877075,-0.2368612289428711,0.1063077449798584,0.03835635632276535,0.15737693011760712,0.20719125866889954,0.0947367250919342,-0.350452184677124,-0.13077351450920105,0.09553301334381104,0.19157466292381287,-0.08076448738574982,-0.31944960355758667,-0.28804728388786316,0.2041146159172058,0.09861955791711807,0.0674334317445755,0.07786893844604492,-0.20070621371269226,-0.1418612152338028,-0.08144785463809967,0.04894731566309929,0.0820559412240982,0.04190449416637421,0.08255897462368011,0.14626814424991608,0.026289163157343864,-0.06614319235086441,0.045295603573322296,-0.0014041296672075987,-0.16806069016456604,0.090232253074646,-0.08963121473789215,0.09196802973747253,-0.26024937629699707,0.06456144899129868,0.033271241933107376,-0.06840439885854721,-0.13742543756961823,-0.0022954836022108793,-0.23637190461158752,-0.041576359421014786,-0.11119146645069122,-0.04414476826786995,-0.20487570762634277,0.0665111243724823,-0.15414351224899292,-0.06294697523117065,-0.22599582374095917,-0.1322491317987442,-0.013463351875543594,0.013680266216397285,0.07849277555942535,-0.26069891452789307,0.24977681040763855,-0.15697157382965088,-0.2195800095796585,-0.1428673416376114,-0.17614436149597168,-0.21284066140651703,-0.2634161114692688,-0.25785911083221436,-0.33414426445961,-0.025904713198542595,-0.27522680163383484,-0.24570681154727936,-0.06609157472848892,0.060196250677108765,0.057968709617853165,-0.15321138501167297,0.15758202970027924,0.07888837903738022,0.09162910282611847,0.13667351007461548,-0.015106620267033577,-0.016900140792131424,0.14672909677028656,0.22324223816394806,0.3066568672657013,0.03369634598493576,-0.2189846634864807,0.04615345597267151,-0.0025291023775935173,0.07808210700750351,0.10740499198436737,-0.32067328691482544,-0.14486363530158997,-0.08840438723564148,-0.16840848326683044,-0.103586345911026,-0.18526668846607208,-0.1543787270784378,-0.22450125217437744,-0.3408730626106262,0.36525705456733704,0.015761947259306908,0.18714618682861328,-0.0860445499420166,-0.31052207946777344,0.18087932467460632,0.14599579572677612,0.3613833487033844,0.38357317447662354,-0.035784684121608734,0.19138473272323608,-0.059532806277275085,-0.07760930061340332,0.027317941188812256,0.12204014509916306,-0.0716005191206932,0.09837008267641068,-0.04782530292868614,0.11027389764785767,0.04293415695428848,0.15378712117671967,0.05455930531024933,-0.10018977522850037,-0.1438346654176712,0.18538381159305573,0.12207775563001633,-0.04184316098690033,0.17089270055294037,0.21202315390110016,0.019565463066101074,0.08538135886192322,0.06380991637706757,0.00859721377491951,-0.06258508563041687,-0.14519940316677094