{"shape": [8, 1, 5, 5]}
0.21062080562114716,0.20529253780841827,-0.0819476991891861,0.20351481437683105,0.14287935197353363,0.10070305317640305,0.1582140177488327,0.290205180644989,0.06848403811454773,0.18467502295970917,-0.1998899281024933,0.026264123618602753,-0.08819455653429031,-0.029685257002711296,0.17873267829418182,-0.2620810866355896,-0.17505879700183868,-0.14382211863994598,-0.3233637809753418,-0.19502191245555878,-0.2240159958600998,-0.1938604712486267,-0.05504174157977104,0.015302934683859348,-0.10616526007652283,0.08134646713733673,0.023350350558757782,-0.15070600807666779,-0.12220222502946854,-0.0032402751967310905,0.1304236799478531,-0.13459034264087677,-0.18171782791614532,0.06158256158232689,0.11170780658721924,-0.0847373679280281,0.018025550991296768,0.11789676547050476,0.10280709713697433,0.08264373987913132,0.046500012278556824,-0.20079948008060455,0.10507223755121231,0.17218725383281708,-0.11341071873903275,0.13278822600841522,-0.06626053899526596,0.1140078455209732,-0.007587920408695936,-0.24851179122924805,0.00010050578566733748,-0.007347053848206997,-0.0178068857640028,0.13307428359985352,0.028570087626576424,0.0651024878025055,0.18348608911037445,0.009039349853992462,0.12909063696861267,0.15531833469867706,-0.1185014620423317,0.07355479151010513,-0.04122253879904747,0.06269998103380203,-0.08390308171510696,0.09106636047363281,-0.031711988151073456,0.20990785956382751,-0.034379009157419205,-0.04329892620444298,-0.241485133767128,-0.190993532538414,-0.18205496668815613,0.20877902209758759,0.1952807605266571,0.40124186873435974,-0.10614333301782608,-0.10690055042505264,-0.3099612593650818,-0.010447787120938301,0.11937075108289719,-0.3107808828353882,-0.17601023614406586,-0.05315270274877548,-0.17261900007724762,-0.44504544138908386,-0.364676833152771,-0.004643089137971401,-0.07790980488061905,0.07236559689044952,-0.30832433700561523,0.08857604116201401,0.17908093333244324,-0.04406827688217163,0.09671588242053986,0.00961484108120203,0.14602623879909515,0.23505261540412903,0.13738879561424255,0.2368510663509369,-0.13704289495944977,-0.1344611793756485,-0.29434075951576233,-0.2534705698490143,-0.2236725389957428,0.2594819664955139,0.13318412005901337,0.13919448852539062,0.03677687421441078,-0.29432302713394165,-0.06521271914243698,0.2041473090648651,0.22202368080615997,-0.05954224616289139,0.09590867161750793,0.20532000064849854,0.004300327971577644,0.19977428019046783,0.031362589448690414,0.24299807846546173,-0.23194506764411926,-0.16691738367080688,0.20900782942771912,-0.04790767654776573,-0.1850256621837616,0.04677393287420273,-0.07306616753339767,0.24057281017303467,0.17337840795516968,-0.21488812565803528,-0.026181887835264206,-0.47998130321502686,-0.2726915180683136,0.1300019770860672,0.3269370198249817,-0.153013676404953,-0.27295592427253723,-0.016531160101294518,0.14522385597229004,0.2754543721675873,0.28863123059272766,0.22570839524269104,-0.24912531673908234,-0.37771010398864746,-0.2807151675224304,0.23388634622097015,0.19586974382400513,0.04946870729327202,0.03327249363064766,-0.24553892016410828,-0.14088910818099976,-0.2228373885154724,-0.2488793432712555,0.24891291558742523,0.09858714044094086,0.1324819028377533,-0.2558075487613678,-0.037063803523778915,0.013838430866599083,0.2592174708843231,-0.05117775499820709,-0.22217905521392822,-0.15276946127414703,0.19452382624149323,0.17432256042957306,-0.013788532465696335,-0.12240704149007797,-0.030660871416330338,0.09073925763368607,0.16555993258953094,-0.23732930421829224,-0.339059978723526,0.1532696932554245,-0.02089522033929825,0.08820328116416931,-0.10279550403356552,0.16465216875076294,0.14179375767707825,0.01642182469367981,0.27547144889831543,-0.26776257157325745,-0.1348138153553009,0.06314470618963242,0.061057284474372864,-0.11287430673837662,-0.36271125078201294,-0.2764029800891876,-0.35499295592308044,-0.04934314265847206,0.0082091661170125,0.10573410987854004,-0.1323765516281128,-0.29625773429870605,-0.3075440526008606,-0.31451770663261414,0.3076181709766388,0.010717283934354782,0.26434722542762756,0.017289800569415092,-0.09302005916833878