{"shape": [8, 1, 5, 5]}
-0.42119619250297546,-0.28373491764068604,0.19546037912368774,0.2846265137195587,-0.050093866884708405,-0.4192099869251251,-0.07027069479227066,0.12206926941871643,0.05862168222665787,0.1374911218881607,-0.32939285039901733,0.1254958063364029,0.2522622346878052,-0.03603871911764145,-0.03795502334833145,-0.29481640458106995,-0.10711150616407394,0.169251948595047,0.03263936936855316,0.19574391841888428,-0.3300478756427765,0.15823934972286224,0.17094206809997559,0.10958418995141983,-0.10258110612630844,-0.1944519281387329,0.1900867223739624,0.05589679628610611,0.2067316472530365,0.2670910656452179,0.15280449390411377,-0.06146018207073212,0.2040194571018219,0.014561399817466736,-0.18458446860313416,0.27529972791671753,-0.035887494683265686,0.270563542842865,-0.12230456620454788,-0.06716588884592056,-0.028056936338543892,0.1409318894147873,-0.0711042508482933,-0.12387368828058243,-0.3232700228691101,-0.008028215728700161,-0.3730224370956421,-0.22827978432178497,-0.2841666340827942,-0.045464616268873215,-0.15692628920078278,-0.1930641233921051,0.04041612520813942,-0.24324549734592438,-0.12299232184886932,0.1675066500902176,-0.13548792898654938,-0.17089876532554626,-0.0306742824614048,-0.13826489448547363,-0.19369378685951233,-0.020344508811831474,-0.09911272674798965,-0.1197178065776825,0.017644144594669342,0.02114546112716198,-0.18613918125629425,-0.14789685606956482,0.05162668973207474,0.008900568820536137,-0.31541380286216736,-0.1967669129371643,0.09089488536119461,0.08758222311735153,0.1740596890449524,-0.09517073631286621,0.03042716346681118,0.2152991145849228,-0.0025592672172933817,0.01372765377163887,0.17466412484645844,-0.009546540677547455,-0.08003684878349304,-0.1779366433620453,0.1533791720867157,0.02154873125255108,-0.0104658342897892,0.006627785041928291,0.12394404411315918,0.0612027533352375,-0.021309485659003258,-0.12965545058250427,0.13663113117218018,0.05983387306332588,0.006605760660022497,-0.16967637836933136,0.18323065340518951,0.06664146482944489,0.11286374181509018,0.10167662799358368,0.10630135983228683,-0.24479442834854126,-0.41811037063598633,-0.1483137458562851,0.1136746034026146,0.13581648468971252,0.1996610164642334,-0.13833680748939514,-0.1265450268983841,-0.03113977238535881,0.22872240841388702,0.27423661947250366,-0.08701752871274948,0.07625573873519897,-0.1608743518590927,-0.04918299987912178,0.047210775315761566,0.18937790393829346,-0.12019403278827667,0.027268772944808006,-0.04832093417644501,0.13680091500282288,0.017642609775066376,0.02596677653491497,-0.03406437113881111,-0.07618904858827591,-0.10814431309700012,-0.1685703843832016,0.11764171719551086,0.09014828503131866,-0.34156864881515503,-0.24844469130039215,0.1407366842031479,0.16929182410240173,-0.03583422303199768,-0.06611171364784241,0.1833994835615158,0.30543258786201477,0.12503252923488617,0.050985097885131836,0.002640395425260067,-0.0365881584584713,0.10168059915304184,-0.059384021908044815,-0.19969625771045685,0.15745887160301208,0.030833210796117783,0.02175123430788517,-0.16990821063518524,0.05063864588737488,-0.40185028314590454,-0.22096750140190125,-0.37232959270477295,-0.14713019132614136,-0.4147002398967743,-0.002253185724839568,-0.2562638521194458,0.08427969366312027,-0.05260974168777466,-0.17342129349708557,0.3466249704360962,0.27181321382522583,0.1355891078710556,-0.052680015563964844,0.19985747337341309,0.09867509454488754,0.08370034396648407,0.06901375949382782,0.17015889286994934,-0.01993865892291069,0.009321433492004871,0.09889555722475052,0.04208773374557495,0.04971063509583473,0.1455775797367096,-0.16723188757896423,0.21831944584846497,0.077327199280262,0.15919603407382965,-0.1293768584728241,-0.2023836374282837,-0.09145815670490265,-0.41962501406669617,-0.276788592338562,-0.3091502785682678,-0.16463157534599304,-0.22167956829071045,0.050843480974435806,-0.157644584774971,0.07029704004526138,-0.12552495300769806,-0.007841978222131729,-0.10963746905326843,0.2117530107498169,0.13323666155338287,0.051559530198574066,0.05866328626871109,0.2256355881690979,0.14012393355369568,0.03214871510863304