{"shape": [10, 4608]}
-0.008274102583527565,-0.00846757460385561,-0.0177412461489439,-0.013907593674957752,-0.008787380531430244,0.003029591403901577,0.0054337093606591225,-0.00589015893638134,0.03274672105908394,0.019210314378142357,0.02524452656507492,0.02456200309097767,0.040960006415843964,0.050779473036527634,0.02944495901465416,0.026928627863526344,0.012121983803808689,0.00878935493528843,-0.0036229307297617197,-0.004437729250639677,0.005967375822365284,-0.004429183900356293,0.007591240108013153,-0.008156582713127136,-0.0320473276078701,-0.0001645000302232802,0.00325443921610713,0.0018788606394082308,-0.0029368428513407707,0.00652976194396615,0.0027963081374764442,0.018339214846491814,0.007744564209133387,-0.003563622245565057,-0.004512135870754719,0.015075528994202614,-0.0007460882770828903,0.0006343052955344319,0.024895234033465385,0.019856911152601242,0.022196976467967033,0.005335713736712933,-0.009979523718357086,-0.009688439778983593,-0.006925911642611027,-0.0028547702822834253,-0.02119830995798111,0.004475616384297609,0.007131217047572136,-0.02011779136955738,-0.03242519870400429,-0.006023774389177561,-0.020718548446893692,-0.012876658700406551,-3.761486368603073e-05,-0.04045381397008896,-0.0379149466753006,-0.06745682656764984,-0.07213281095027924,-0.06466465443372726,-0.024094000458717346,-0.0403161346912384,-0.029786264523863792,-0.003225571010261774,0.021718217059969902,-0.04066992923617363,0.02979264222085476,-0.033964820206165314,-0.04718288034200668,-0.03141039237380028,-0.016567979007959366,-0.013436883687973022,-0.0011805904796347022,-0.02416234090924263,-0.016021812334656715,-0.046356312930583954,-0.08799007534980774,-0.06085065379738808,-0.03818094730377197,-0.046320840716362,-0.09680802375078201,-0.06727320700883865,-0.04458698257803917,-0.03469889983534813,-0.05427486449480057,-0.021022502332925797,0.011881701648235321,0.022017721086740494,0.03799990192055702,-0.017698507755994797,-0.03419225662946701,-0.08184140175580978,-0.11662683635950089,-0.06995157897472382,-0.04321352019906044,-0.030371086671948433,0.004212446976453066,-0.01636298932135105,-0.034201983362436295,-0.07749874144792557,-0.08284173160791397,-0.12626616656780243,-0.12257281690835953,-0.13605117797851562,-0.158610537648201,-0.1376207172870636,-0.09657281637191772,-0.04794856533408165,0.006733509711921215,0.01897095888853073,0.00326042459346354,-0.031847842037677765,-0.06822925060987473,-0.08584459871053696,-0.05102759227156639,-0.08042538166046143,-0.1095060184597969,-0.038243748247623444,-0.00777114974334836,-0.03615697845816612,-0.025788046419620514,0.024880632758140564,0.004948179703205824,0.0052035716362297535,-0.005748871713876724,-0.05211948975920677,-0.08120732009410858,-0.09747650474309921,-0.12259524315595627,-0.1054791510105133,-0.0679376944899559,-0.0607549324631691,-0.058125853538513184,-0.02822563610970974,0.001760181738063693,-0.023913536220788956,-0.05988876149058342,-0.04794714227318764,-0.0679970532655716,-0.1052718237042427,-0.10918918997049332,-0.03378590941429138,-0.018156880512833595,-0.06285945326089859,-0.05000368133187294,0.04081356152892113,0.04217031970620155,0.002339594531804323,0.007310452871024609,0.010104987770318985,-0.01735195703804493,-0.0290022362023592,-0.03786199539899826,-0.04564562067389488,0.010589216835796833,0.029208948835730553,0.011796626262366772,0.026898948475718498,0.027560165151953697,0.010582945309579372,-0.004386269487440586,0.011319207958877087,0.021357394754886627,-0.0674978718161583,-0.10056465119123459,0.013419588096439838,-0.003167659044265747,-0.03789576515555382,-0.07042911648750305,-0.038795679807662964,-0.03612501546740532,-0.06819094717502594,0.011920826509594917,0.013690175488591194,0.0035137790255248547,-0.018547067418694496,0.02567659690976143,0.017702238634228706,0.01326682511717081,-0.027824364602565765,-0.07595141977071762,-0.04543640837073326,0.00028921154444105923,0.018848389387130737,0.004244770389050245,-0.014413025230169296,-0.011101079173386097,-0.04567112773656845,-0.10333964973688126,-0.027998045086860657,-0.04451490938663483,-0.03855142369866371,-0.01982935331761837,-0.025766830891370773,-0.023533081635832787,-0.04674616828560829,-0.05056244879961014,-0.0455174520611763,-0.02756168320775032,-0.01880612224340439,0.0212884359061718,-0.016302265226840973,-0.05844060704112053,-0.0905117392539978,-0.08818449825048447,-0.03619871661067009,-0.02105770632624626,-0.03399323672056198,-0.008097697049379349,-0.037015847861766815,-0.03983756899833679,-0.07873354852199554,-0.09662897139787674,-0.04605824500322342,0.01287886779755354,0.012336946092545986,0.015898387879133224,0.038797903805971146,-0.0016894165892153978,-0.033413082361221313,-0.04970898479223251,-0.04417424276471138,0.0024057847913354635,0.025434156879782677,-0.0046068946830928326,-0.025569329038262367,-0.05569010227918625,-0.07676432281732559,-0.015178709290921688,-0.015226716175675392,-0.0008068280876614153,0.016354095190763474,-0.002111787209287286,-0.007968944497406483,-0.048057492822408676,-0.048595428466796875,-0.10209648311138153,-0.09893719106912613,-0.05072803050279617,0.01095825806260109,-0.05751871317625046,0.002678906312212348,-0.0017548913601785898,-0.05957118421792984,-0.058330945670604706,-0.032432153820991516,-0.0394708588719368,0.010609523393213749,0.0008398341597057879,-0.06299292296171188,-0.07297036051750183,-0.046774972230196,-0.007553061470389366,0.016174109652638435,0.021315312013030052,0.009923060424625874,-0.005885423626750708,-0.019393624737858772,-0.04244673252105713,-0.043857961893081665,-0.09862800687551498,-0.10379001498222351,-0.04847715049982071,-0.005538433790206909,-0.029806796461343765,-0.054363884031772614,-0.017326001077890396,-0.0559726282954216,-0.09303443133831024,-0.08051466196775436,-0.10897988080978394,-0.06318794935941696,-0.06185118108987808,-0.09986472874879837,-0.08907892554998398,-0.06851403415203094,-0.05457380786538124,-0.003965517971664667,-0.011352302506566048,-0.031993892043828964,-0.009709934704005718,0.01888979785144329,0.011709816753864288,-0.03809691220521927,-0.07089010626077652,-0.09752332419157028,-0.09025491774082184,-0.014071174897253513,-0.011272304691374302,-0.017411747947335243,0.028380386531352997,-0.03776216879487038,-0.1290629655122757,-0.1341732144355774,-0.10546081513166428,-0.11229197680950165,-0.05077588930726051,-0.07888369262218475,-0.061659835278987885,-0.09420114755630493,-0.10097989439964294,-0.06163005903363228,-0.050857458263635635,-0.04696851968765259,0.014205909334123135,0.016339188441634178,0.024431878700852394,0.022152159363031387,-0.02727903239428997,-0.038696832954883575,-0.02161947451531887,-0.009243495762348175,0.0077165402472019196,0.020191574469208717,0.01965298503637314,0.02818961627781391,-0.08745788782835007,-0.10664386302232742,-0.08362502604722977,-0.09159606695175171,-0.04388859122991562,-0.07039369642734528,-0.10291426628828049,-0.0929839015007019,-0.12867482006549835,-0.1061115711927414,-0.08131206035614014,-0.07611948251724243,-0.0728631541132927,-0.058170001953840256,-0.022240150719881058,-0.03400786221027374,-0.01589171215891838,0.0032911174930632114,0.01425821240991354,-0.016992805525660515,-0.0189773291349411,0.007278586272150278,-0.012989867478609085,0.0012071639066562057,-0.02265428937971592,-0.08360075205564499,-0.07972943037748337,-0.09649469703435898,-0.10390735417604446,-0.09996053576469421,-0.08599775284528732,-0.08860182762145996,-0.08580325543880463,-0.08601634204387665,-0.07004764676094055,-0.0922728031873703,-0.08262431621551514,-0.020853422582149506,-0.027521826326847076,0.023923465982079506,0.00916005577892065,0.027727965265512466,0.016096990555524826,0.027235405519604683,0.009335425682365894,0.025466885417699814,-0.02183116041123867,0.0013101235963404179,0.01656869798898697,-0.01560817938297987,-0.018596505746245384,-0.06058211252093315,-0.09733651578426361,-0.1395384967327118,-0.11929936707019806,-0.12192323058843613,-0.11514831334352493,-0.10808651149272919,-0.05128857493400574,-0.04164986312389374,-0.0019462795462459326,-0.008944219909608364,0.01795518584549427,0.0002478838141541928,0.008550435304641724,0.030028002336621284,0.01013964507728815,0.03426436334848404,-0.018135860562324524,0.02705376222729683,0.00010211019252892584,-0.02047710306942463,-0.02843964472413063,-0.012233148328959942,0.016389090567827225,0.007818912155926228,-0.020798631012439728,-0.06660342216491699,-0.058385733515024185,-0.0621422715485096,-0.07683397829532623,-0.08316008746623993,-0.024024304002523422,0.0018981578759849072,0.005556877236813307,0.028995927423238754,0.01980067603290081,0.028638528659939766,0.027394723147153854,0.01668139360845089,-0.0009857423137873411,0.02996883913874626,0.005795701872557402,0.01899597980082035,-0.02296082302927971,-0.022972391918301582,-0.019914759323000908,-0.016593528911471367,0.02188750170171261,0.036799147725105286,0.025431659072637558,0.011538430117070675,-0.040496859699487686,-0.05930301547050476,-0.03449077531695366,0.040980804711580276,0.05590857192873955,0.03251662477850914,0.01659003458917141,0.020975518971681595,0.04325927421450615,0.03248650208115578,0.03456972539424896,0.017740391194820404,0.00903688371181488,-0.007623469457030296,-0.004714440554380417,0.0002497294917702675,-0.015079296194016933,-0.003368911100551486,-0.03302640840411186,-0.018586033955216408,0.007439066655933857,0.009089257568120956,0.01260448805987835,0.001435520825907588,0.008559588342905045,0.01711576245725155,-0.005498467478901148,0.04345149174332619,0.0009410782949998975,-0.009166951291263103,0.00969638954848051,-0.015162575989961624,0.007453572936356068,-0.008696547709405422,0.010500200092792511,-0.015537962317466736,0.006703802850097418,-0.007602366153150797,0.012886318378150463,0.0012703071115538478,-0.010952601209282875,0.008948174305260181,0.0021220578346401453,-0.025300322100520134,-0.01956876367330551,-0.008421076461672783,-0.018458429723978043,-0.014895038679242134,-0.002915171906352043,-0.008306393399834633,-0.02477264776825905,-0.04037969186902046,-0.02961380034685135,-0.034325841814279556,-0.04400257766246796,-0.027833204716444016,-0.019022947177290916,-0.01633109152317047,-0.0012501367600634694,0.005452218931168318,-0.015447627753019333,-0.00953217875212431,-0.0050973487086594105,0.02704283967614174,0.017819175496697426,-0.009622749872505665,0.01445512380450964,-0.008513436652719975,-0.007031349465250969,-0.0010499758645892143,0.0058944933116436005,0.008870063349604607,0.007164353504776955,0.0281214639544487,-0.00610619131475687,-0.014172014780342579,-0.030395006760954857,-0.0401095375418663,-0.02560197375714779,-0.014248560182750225,-0.001135924132540822,-0.013487282209098339,-0.027168039232492447,-0.0037452683318406343,-0.04018454626202583,-0.034484513103961945,-0.009391436353325844,-0.000133790701511316,0.01378182414919138,0.03545771539211273,0.0122372442856431,0.007895534858107567,0.023298945277929306,0.029031962156295776,0.00281117158010602,-0.0011181971058249474,0.025460992008447647,0.006861243862658739,0.024197900667786598,0.0011066206498071551,-0.00712531479075551,6.618010229431093e-05,0.01656339503824711,0.008627906441688538,0.008922165259718895,0.019160784780979156,-0.009695526212453842,0.0024601316545158625,0.002016863552853465,-0.025809215381741524,-0.01864130049943924,0.005535229109227657,0.04612419009208679,0.02408149465918541,0.03151441738009453,0.059667475521564484,0.038416482508182526,0.022612368687987328,0.04903627932071686,0.037303511053323746,0.01865587942302227,0.0198676660656929,0.02146340161561966,0.042984895408153534,0.05273018032312393,0.0500127449631691,0.044383641332387924,0.03467648848891258,0.018391549587249756,0.031098807230591774,-0.003993299324065447,0.010022033005952835,0.030782245099544525,-0.04800724238157272,-0.024334844201803207,-0.020339062437415123,-0.008604153990745544,0.03393044322729111,0.016040541231632233,0.01695309393107891,0.024696800857782364,0.012246496975421906,0.0003622167860157788,-0.00018782721599563956,0.009274061769247055,0.014630813151597977,0.023475514724850655,0.028308970853686333,0.050962384790182114,0.027558276429772377,0.029880613088607788,0.04029498249292374,-0.01118813082575798,-0.047524143010377884,-0.025975046679377556,-0.010018277913331985,0.03076711669564247,-0.05127030611038208,0.014034352265298367,-0.009705235250294209,-0.04731195792555809,-0.04544730484485626,-0.054921120405197144,-0.09223019331693649,-0.08002332597970963,-0.1083655133843422,-0.03243894875049591,-0.06926552206277847,-0.04311886802315712,-0.020480571314692497,-0.05607565864920616,-0.0005240773898549378,-0.05291557312011719,-0.03682796284556389,-0.042889904230833054,0.002768035978078842,-0.03682344779372215,-0.009519604034721851,0.013214287348091602,-0.07530251145362854,0.030709506943821907,-0.00980339851230383,-0.016151852905750275,-0.027678746730089188,-0.05538065358996391,-0.048783089965581894,-0.08826232701539993,-0.1061071828007698,-0.07436589151620865,-0.03799771890044212,-0.03879481926560402,-0.01836381107568741,-0.004249971359968185,0.004191228188574314,0.0015267485287040472,0.00462729949504137,-0.019849933683872223,0.008746379055082798,-0.03396444395184517,-0.050204914063215256,-0.0668710246682167,0.07076096534729004,0.021610144525766373,-0.04012675583362579,0.04223457723855972,-0.010203161276876926,-0.011443772353231907,-0.02766546793282032,-0.08826345205307007,-0.04192807897925377,-0.04430031403899193,-0.04147077724337578,-0.00302244839258492,-0.02636965736746788,-0.012320643290877342,-0.002631206763908267,0.004367888439446688,0.0018299680668860674,0.011273568496108055,-0.014193589799106121,-0.0160964485257864,0.010638892650604248,0.0042816693894565105,-0.005385676398873329,-0.046659477055072784,0.03671061992645264,0.013439245522022247,-0.0095394067466259,0.028727658092975616,-0.02097405679523945,0.01305842213332653,-0.044755034148693085,-0.04354621469974518,0.003076310968026519,-0.02728889323771,-0.02278495579957962,0.0122738778591156,-0.016027875244617462,-0.011411886662244797,-0.005283787380903959,-0.01690879836678505,0.0047987354919314384,0.009215565398335457,0.021062612533569336,0.0034500430338084698,0.0058052861131727695,0.02350367233157158,-0.0030853301286697388,0.0330585278570652,0.01607341319322586,-0.0061945500783622265,-0.02731838822364807,0.06600933521986008,0.007056639064103365,0.032729215919971466,-0.024911778047680855,-0.01589813269674778,0.02758229710161686,-0.02830567955970764,-0.026586493477225304,-0.007674496155232191,-0.006114973220974207,-0.008501515723764896,0.010627892799675465,-0.0020946296863257885,0.01744312047958374,-0.01019966695457697,-0.007305886130779982,-0.007534717675298452,0.012709993869066238,-0.004396463744342327,-0.027352355420589447,0.0026885243132710457,-0.00153443799354136,0.013229266740381718,-0.007517002057284117,0.044528715312480927,0.01769804023206234,-0.0011671885149553418,0.008013668470084667,-0.005489288829267025,-0.010003401897847652,-0.03257771208882332,-0.048883143812417984,-0.002087158616632223,0.029001509770751,-0.012467371299862862,-0.011876416392624378,0.01917927712202072,-0.008930226787924767,-0.0029679432045668364,0.003619469003751874,0.009228861890733242,-0.01452613901346922,-0.006119064055383205,0.015588383190333843,0.01844480074942112,-0.01925472915172577,0.026913823559880257,0.011816740036010742,0.05436236411333084,0.03398933261632919,-0.03004549816250801,-0.016123073175549507,-0.015642603859305382,0.0026508017908781767,-0.00830912496894598,-0.017863458022475243,0.014852389693260193,0.0175094585865736,-0.006516624707728624,0.0031039658933877945,-0.011340652592480183,-0.00984153337776661,-0.006276323925703764,0.016678620129823685,-0.0004691882058978081,-0.024082839488983154,-0.0055547174997627735,0.05427613481879234,0.0049514733254909515,-0.02178385481238365,0.01776701770722866,0.03697760030627251,0.006026942748576403,0.06459873914718628,-0.006808732636272907,-0.0020378679037094116,0.008394237607717514,0.017397426068782806,-0.008263619616627693,0.014971290715038776,0.0012657513143494725,-0.014153452590107918,0.012002759613096714,0.01107128243893385,-0.02606811746954918,0.024651238694787025,-0.006005141884088516,-0.035744618624448776,-0.026186103001236916,-0.015026567503809929,-0.024739528074860573,0.019140221178531647,0.003388812066987157,-0.004622980952262878,0.018859507516026497,0.012330183759331703,-0.015288032591342926,0.03619953244924545,0.007424924988299608,0.026296421885490417,-0.013126897625625134,0.022143220528960228,0.015622513368725777,0.028426779434084892,0.005479584913700819,-0.0011534985387697816,0.024166321381926537,0.02739051543176174,0.010061058215796947,0.006798561662435532,-0.035227060317993164,-0.035771895200014114,-0.04728999361395836,-0.05679342895746231,-0.035024113953113556,-0.008489270694553852,-0.012395009398460388,0.022365381941199303,0.029000908136367798,0.05389619246125221,0.007545667700469494,0.04122084379196167,-0.02676742523908615,-0.02724723517894745,-0.0005104770534671843,0.030192751437425613,0.054895345121622086,0.007841508835554123,-0.003078506560996175,0.04812555015087128,0.00201903423294425,0.012050197459757328,0.02558370865881443,-0.009444095194339752,-0.05088755860924721,-0.05586175248026848,-0.045210085809230804,-0.032659247517585754,-0.018770676106214523,-0.0236021988093853,-0.023568090051412582,0.03599205240607262,0.03548738732933998,0.021149881184101105,0.01738479919731617,0.05130809545516968,-0.032345954328775406,-0.012098398059606552,0.017115512862801552,0.02468428947031498,0.02854967676103115,0.03170538693666458,0.024779649451375008,0.03019682876765728,0.008743207901716232,0.035230934619903564,0.009258275851607323,-0.049314793199300766,-0.0626138299703598,-0.044746819883584976,-0.027736522257328033,-0.002962148515507579,-0.021327685564756393,-0.01420509908348322,-7.015367737039924e-05,0.012767685577273369,0.00881627295166254,-0.014997393824160099,0.05179157108068466,0.0494011826813221,-0.03806926682591438,-0.0007387486984953284,0.03735046088695526,0.04523545876145363,0.023549431934952736,0.029582545161247253,0.03794892877340317,0.06546319276094437,0.03287080302834511,0.013698172755539417,-0.010196221992373466,-0.059929292649030685,-0.036662545055150986,-0.03572414070367813,-0.050380632281303406,0.01208767294883728,-0.027947258204221725,-0.027004610747098923,-0.015222752466797829,0.016957568004727364,0.007878364063799381,0.02926683984696865,0.02072196640074253,0.03985722362995148,-0.019664349034428596,-0.02924078144133091,0.030964910984039307,0.03660205379128456,0.025186434388160706,0.03347030282020569,0.05541452020406723,0.037004467099905014,0.0034038880839943886,0.013368519954383373,-0.019281864166259766,-0.044458772987127304,-0.05724034458398819,-0.025642029941082,-0.009699488058686256,-0.008906555362045765,-0.029040830209851265,0.006095216143876314,0.036259617656469345,0.009283613413572311,0.032011982053518295,0.053403813391923904,0.024224137887358665,0.026278937235474586,-0.049489181488752365,0.011679735966026783,0.0482732392847538,0.020812446251511574,0.00741938129067421,0.03370242565870285,0.028613125905394554,0.02889539673924446,0.017941925674676895,0.0019988249987363815,-0.02751966379582882,-0.07156391441822052,-0.013541712425649166,-0.029669031500816345,-0.0018517316784709692,-0.02673216164112091,-0.021622810512781143,0.03254061937332153,0.03047288954257965,-0.02060001529753208,0.044707853347063065,0.044099949300289154,0.04705546051263809,0.024435408413410187,-0.016087394207715988,0.03137282654643059,0.037807803601026535,-0.009120997041463852,-0.00740370387211442,0.015414807014167309,0.00796787440776825,0.017685269936919212,-0.005706341005861759,-0.04126891866326332,-0.0326465480029583,-0.05338127166032791,0.007308491040021181,0.007416271138936281,0.004180292598903179,-0.011029492132365704,-0.043289825320243835,0.012594849802553654,-0.02492254599928856,0.005336801987141371,0.03651677444577217,-0.0044298130087554455,0.014442607760429382,0.0025982053484767675,0.03219611570239067,0.03771422058343887,0.02921598218381405,-0.017382517457008362,0.007508260663598776,0.032642852514982224,0.020181605592370033,0.021071437746286392,-0.0003826658648904413,-0.01461353711783886,-0.025635024532675743,-0.01337193138897419,0.019277730956673622,0.030559642240405083,-0.013163664378225803,-0.014445680193603039,-0.008166734129190445,0.02520855702459812,-0.029080435633659363,0.03743882477283478,0.03048698417842388,-0.025622453540563583,0.014928537420928478,-0.005345182027667761,-0.010729950852692127,0.040123600512742996,0.01714060828089714,-0.015773002058267593,0.0050310841761529446,-0.005393906030803919,0.014271336607635021,0.024384742602705956,0.006471690256148577,-0.002636705758050084,-0.010086115449666977,0.02288130111992359,0.028377441689372063,0.008545528165996075,-0.0003567120002117008,-0.016210485249757767,0.011858632788062096,-0.0017336398595944047,-0.014788473024964333,0.031617239117622375,0.006414699833840132,-0.025643179193139076,0.0011474541388452053,-0.014667944982647896,0.0075722625479102135,0.028688888996839523,0.0073609077371656895,0.0015988836530596018,0.0016649657627567649,0.01625824347138405,-0.004012153949588537,-0.009713307023048401,0.005793154705315828,0.005502487998455763,0.020394759252667427,0.04284141585230827,0.007251872215420008,-8.292210986837745e-05,-0.02080712839961052,0.006200986448675394,0.0389428474009037,-0.026631910353899002,-0.015535262413322926,0.02136916108429432,-0.0016047601820901036,-0.050771281123161316,0.04815058410167694,0.02782352641224861,0.006571425590664148,0.004439136013388634,-0.022468745708465576,-0.031062692403793335,-0.011972269043326378,-0.013724502176046371,-0.008893349207937717,0.008818977512419224,0.026600155979394913,0.027570873498916626,0.02769613452255726,0.013562124222517014,0.01409259531646967,0.0033743917010724545,-0.01218360848724842,0.0230292659252882,0.02266632206737995,-0.006658816710114479,-0.01894458383321762,-0.008536959066987038,-0.0147896409034729,-0.060848455876111984,0.04772477224469185,-0.020552949979901314,0.031200330704450607,0.008584972470998764,-0.02815168909728527,-0.005313919857144356,-0.005322893615812063,-0.037369050085544586,-0.030591515824198723,-0.011376399546861649,-0.00250630103982985,0.008830688893795013,0.0016155485063791275,-0.00802753958851099,0.02324518747627735,-0.005841185338795185,0.01542119961231947,0.009562092833220959,-0.0438513308763504,-0.0005180328735150397,-0.020663868635892868,0.0519389733672142,-0.0013198398519307375,-0.022153282538056374,-0.011378983967006207,-0.00830182433128357,0.00968652218580246,-0.016654768958687782,-0.03122791461646557,0.022688524797558784,-0.0019265656592324376,-0.00430833688005805,-0.04837941378355026,-0.060242824256420135,-0.018369246274232864,-0.013070794753730297,0.001785515807569027,0.011543571949005127,0.007215223740786314,0.040094032883644104,0.008418594487011433,0.002821841975674033,-0.0071715074591338634,-0.032814960926771164,0.0025602546520531178,-0.00048600579611957073,-0.06690258532762527,-0.058391641825437546,-0.06111530959606171,-0.002967352978885174,-0.06410858780145645,-0.017663035541772842,0.027051839977502823,0.021386833861470222,-0.07319119572639465,-0.03209970146417618,-0.04150540754199028,-0.05916778743267059,-0.056505754590034485,-0.03441217914223671,-0.007847428321838379,-0.01332656480371952,0.0113675557076931,-0.00734876049682498,-0.023443397134542465,0.013172087259590626,-0.0005990409990772605,-0.03894881531596184,0.01722678728401661,-0.03943746164441109,-0.0732484683394432,-0.0650474801659584,0.0010666290763765574,0.014016025699675083,-0.023761406540870667,0.017046067863702774,0.03710835054516792,-0.018795376643538475,-0.10061484575271606,-0.08643217384815216,-0.06591688841581345,-0.09465956687927246,-0.07939876616001129,-0.05582656338810921,-0.03743124380707741,-0.019597193226218224,-0.029344385489821434,-0.02978416532278061,-0.07556091994047165,-0.0664534643292427,-0.05321989580988884,0.015100779943168163,0.0006745557184331119,-0.07587262243032455,-0.08468873053789139,-0.057546403259038925,0.027504079043865204,0.03509436175227165,0.007733191829174757,0.04161285236477852,-0.04137708991765976,-0.09894633293151855,-0.12871970236301422,-0.13702146708965302,-0.13978877663612366,-0.15243253111839294,-0.15094950795173645,-0.09468013048171997,-0.11530166119337082,-0.09734304249286652,-0.0761815533041954,-0.15600502490997314,-0.1502683013677597,-0.09818069636821747,-0.07658572494983673,0.03621135279536247,0.024993443861603737,-0.09272455424070358,-0.09765267372131348,-0.054313648492097855,0.018012765794992447,-0.0312708355486393,0.008752920664846897,-0.0951911062002182,-0.10272106528282166,-0.09342385083436966,-0.030738530680537224,0.03902826085686684,0.034465592354536057,-0.06749933212995529,-0.022280657663941383,0.08078145980834961,0.013441654853522778,-0.014709608629345894,0.019393853843212128,0.05462079122662544,0.03640998899936676,-0.06489870697259903,-0.0716855600476265,-0.09244046360254288,0.04674069955945015,-0.0571560375392437,-0.05342633277177811,-0.027793049812316895,-0.08193101733922958,0.0037491051480174065,-0.0798128992319107,-0.0539671890437603,-0.04185047745704651,0.004961642436683178,-0.06601332128047943,0.028085360303521156,-0.036163344979286194,-0.01072271354496479,-0.06811980903148651,-0.03516530245542526,0.02321905642747879,0.04801638424396515,-0.0351380929350853,-0.06229785829782486,0.07079565525054932,0.00994568970054388,-0.01782136969268322,0.006355941295623779,-0.03495897725224495,-0.03317340090870857,-0.07404899597167969,-0.06020495668053627,-0.01581461913883686,-0.0543719045817852,-0.04744260013103485,-0.054511647671461105,0.03876545652747154,-0.04638996720314026,-0.07600058615207672,-0.07450717687606812,-0.05850265547633171,-0.005982817616313696,-0.0859130322933197,0.0064099752344191074,0.0038572242483496666,-0.09493117034435272,-0.06596753746271133,-0.058494340628385544,-0.04891464114189148,0.0003128694661427289,0.000889659917447716,0.010275697335600853,0.012396864593029022,-0.00961802527308464,-0.1409713327884674,-0.06359957158565521,-0.06419111043214798,-0.009074589237570763,-0.054103560745716095,-0.08272156119346619,-0.07048943638801575,-0.03319719433784485,-0.04115922003984451,-0.013672906905412674,0.02178674004971981,-0.023845277726650238,-0.016828522086143494,-0.0010389381786808372,-0.023110827431082726,-0.05370534956455231,-0.05449437350034714,-0.027248619124293327,0.0013126489939168096,0.014655151404440403,0.025455476716160774,0.0015404107980430126,0.017912400886416435,0.027678873389959335,0.029870744794607162,0.011515511199831963,-0.04743925482034683,-0.03991023823618889,-0.06263010948896408,-0.14357727766036987,-0.02158324606716633,0.012732991017401218,-0.02112496830523014,0.02789190597832203,0.023345358669757843,-0.005298167001456022,-0.043541863560676575,-0.007956872694194317,0.005156858824193478,0.004671146627515554,-0.013492138125002384,-0.007312129717320204,-0.007430741563439369,0.01927352137863636,0.043103016912937164,0.047552689909935,0.05024460703134537,0.07214343547821045,0.015612195245921612,-0.0020554594229906797,-0.06728650629520416,-0.003960128407925367,-0.019140638411045074,-0.05972156301140785,0.019974220544099808,0.032822754234075546,0.02463347651064396,0.025152001529932022,0.02511170506477356,0.012990112416446209,-0.023587176576256752,-0.023791439831256866,-0.016953619197010994,-0.010876888409256935,0.003232428338378668,-0.0028711878694593906,0.007000788580626249,0.028951548039913177,0.054573480039834976,0.02488093636929989,0.03468068689107895,0.056726403534412384,0.05719214305281639,0.012567824684083462,-0.0654601901769638,-0.07774964720010757,-0.061847150325775146,-0.08449498564004898,-0.013534074649214745,0.013025518506765366,0.013360545970499516,0.008945496752858162,0.017354585230350494,0.011245887726545334,0.01770809479057789,0.01930234581232071,0.03455861285328865,0.03259076178073883,0.016320399940013885,0.015181315131485462,0.0099412240087986,0.00023901509121060371,0.017544731497764587,0.03672095760703087,0.042137935757637024,0.05413176491856575,0.04657137021422386,0.01658209227025509,-0.02915201149880886,-0.04870494082570076,0.003615695983171463,-0.10752013325691223,0.0009554480784572661,0.033523280173540115,-0.0010932190343737602,0.00806267186999321,-0.0010741702280938625,0.021657275035977364,0.012624560855329037,0.006768777966499329,0.007077878341078758,-0.009141666814684868,0.012009557336568832,0.027277305722236633,0.032920680940151215,0.0446794368326664,0.036460161209106445,0.03388866037130356,0.025495260953903198,0.033398304134607315,0.04221201315522194,0.01945864036679268,-0.04880750551819801,-0.06009789928793907,-0.013204486109316349,-0.051449187099933624,0.013173737563192844,0.030858272686600685,0.009957283735275269,0.00549022713676095,0.01725526712834835,0.015317928977310658,0.029383694753050804,0.020792268216609955,-0.01647740975022316,-0.03734372556209564,0.0026440219953656197,0.005323878955096006,-0.0010896919993683696,0.042986590415239334,0.031321220099925995,0.01723957434296608,0.009980103000998497,0.024913756176829338,0.03853240981698036,-0.009534156881272793,0.02954394370317459,0.004458563402295113,-0.012315500527620316,-0.023264234885573387,0.008715139701962471,0.04088301211595535,0.04009542241692543,0.025201059877872467,0.021699661388993263,0.033884353935718536,0.011323710903525352,0.0171667467802763,0.002783054020255804,-0.02088102325797081,0.0011981596471741796,0.026859154924750328,0.04930141568183899,0.023338742554187775,0.03826005011796951,0.012567375786602497,0.02999326027929783,0.04470677301287651,0.01699603535234928,0.022058354690670967,-0.033072330057621,-0.10000424087047577,-0.046032149344682693,-0.0191519632935524,0.03133780509233475,0.028119463473558426,0.029177064076066017,0.009981435723602772,0.021693147718906403,0.00748771708458662,0.0005084436852484941,-0.011685218662023544,-0.058313269168138504,-0.07020732015371323,-0.0534244105219841,-0.03574412316083908,0.02717982418835163,0.015074443072080612,0.02376701682806015,0.009358104318380356,0.03047945164144039,0.017786648124456406,0.036315035074949265,-0.0008177172858268023,-0.01812649518251419,-0.029063494876027107,-0.04745284840464592,0.003385139163583517,0.0391182005405426,0.03298061713576317,0.029213914647698402,0.009234595112502575,-0.005242747720330954,-0.0034566682297736406,-0.010714096017181873,-0.01850786805152893,-0.03927404060959816,-0.048207394778728485,-0.02041446790099144,-0.005343565717339516,-0.011815251782536507,0.002308189868927002,0.03176233917474747,-0.008538170717656612,0.027960510924458504,0.022824561223387718,0.06105761602520943,0.027964618057012558,-0.05212339013814926,-0.07606229931116104,0.008297796361148357,-0.0007528694113716483,0.016794582828879356,0.011624263599514961,0.0319211408495903,-0.0016978152561932802,0.009243891574442387,-0.004533423576503992,-0.010863402858376503,-0.05596397444605827,-0.06042487174272537,-0.0750637874007225,-0.059250909835100174,-0.04241037741303444,-0.031192613765597343,-0.0186310987919569,0.010922187939286232,0.0005332713481038809,0.027309857308864594,0.000544760434422642,0.0070802983827888966,0.015715409070253372,-0.00417868047952652,-0.01938920095562935,-0.03446701914072037,0.03037896379828453,0.025169849395751953,0.007046794984489679,0.021605081856250763,0.005925123579800129,0.03751032426953316,0.0006020339205861092,-0.00352096208371222,-0.0419493168592453,-0.051661428064107895,-0.06783220171928406,-0.04477618634700775,-0.03609341382980347,-0.020571425557136536,-0.032778434455394745,-0.019987333565950394,-0.007820486091077328,0.031363409012556076,0.006715232972055674,0.01943618804216385,0.04230077192187309,-0.015347066335380077,0.006031265947967768,-0.06735748797655106,0.009868871420621872,0.030041668564081192,0.022961853072047234,0.014078897424042225,0.016124987974762917,0.0256930124014616,0.002527392003685236,-0.03390763700008392,-0.04593800753355026,-0.057954393327236176,-0.03533859923481941,-0.040980033576488495,-0.06389977782964706,-0.03361618146300316,-0.012689434923231602,-0.017838239669799805,0.019054722040891647,0.01094468217343092,0.00303839985281229,0.013004384003579617,0.011983243748545647,0.007868298329412937,0.04106403887271881,-0.07040945440530777,0.03404366225004196,0.03132335841655731,0.025940697640180588,0.018773091956973076,0.006183365359902382,0.017712261527776718,0.0035697631537914276,-0.013678859919309616,-0.028902176767587662,-0.06869335472583771,-0.07296759635210037,-0.05773395299911499,-0.05147014185786247,-0.019541850313544273,-0.008739993907511234,0.01852416805922985,0.0010124270338565111,-0.006855474319308996,0.019192693755030632,0.030702589079737663,0.028169555589556694,-0.0262710340321064,-0.005952381528913975,-0.02706138789653778,0.04093237593770027,0.02393585443496704,0.010312085971236229,0.029836159199476242,0.017531519755721092,0.029546067118644714,0.0059741223230957985,0.01163652166724205,-0.013507241383194923,-0.04024443030357361,-0.04757014289498329,-0.04513464868068695,-0.027003003284335136,-0.030750220641493797,-0.025741707533597946,-0.015389666892588139,-0.027364127337932587,-0.018510205671191216,0.0018151826225221157,0.021041633561253548,-0.004599560052156448,-0.03163670375943184,-0.03722253441810608,-0.02340841479599476,0.005314387381076813,0.02422374300658703,0.014271020889282227,0.0039690094999969006,0.021750155836343765,0.009179803542792797,0.025425158441066742,0.010986628010869026,-0.022263934835791588,-0.02097078412771225,-0.03857407346367836,-0.029315629974007607,-0.014570504426956177,-0.02715865895152092,-0.033138759434223175,-0.033407505601644516,-0.02103462815284729,0.004884704481810331,0.04026154801249504,-0.01239197701215744,0.011325879022479057,-0.059664759784936905,0.010683808475732803,-0.032532401382923126,0.026346050202846527,0.02961665391921997,0.032674916088581085,0.03344317153096199,0.0074933720752596855,0.019322330132126808,-0.02294287271797657,-0.003373535117134452,-0.024562127888202667,-0.031554631888866425,-0.004179524257779121,-0.01656251959502697,-0.04102521389722824,-0.0529479905962944,-0.04135638475418091,-0.027568615972995758,-0.045421063899993896,-0.014579569920897484,-0.00293732900172472,-0.013591974973678589,-0.042260218411684036,-0.06924667954444885,-0.007899366319179535,-0.019735444337129593,0.019960787147283554,0.008340643718838692,0.04432925954461098,0.03687094897031784,0.034617990255355835,0.023458439856767654,0.016350409016013145,0.013855110853910446,0.009168995544314384,0.004532693885266781,0.005831077229231596,-0.0016583036631345749,-0.0109733697026968,-0.02160944789648056,-0.005402353126555681,-0.028932740911841393,-0.002128088613972068,-0.005560528952628374,-0.012504997663199902,-0.015940871089696884,-0.04210754856467247,-0.04213009402155876,-0.04081335663795471,-0.0008441350655630231,0.006346916779875755,0.021598415449261665,-0.00013527856208384037,0.028648385778069496,0.008997540920972824,0.00943605788052082,0.011261312291026115,0.017950816079974174,0.0012927416246384382,0.0002745478122960776,0.015441354364156723,-0.008312246762216091,-0.011061202734708786,0.002562315436080098,-0.0019974196329712868,-0.017726406455039978,-0.024729514494538307,-0.018907515332102776,-0.006099066697061062,-0.0105369221419096,0.0030357760842889547,-0.0605727918446064,-0.08450572192668915,-0.003149021416902542,-0.001198141137138009,0.02550814114511013,0.03145585209131241,0.010986369103193283,0.030045174062252045,0.0025388351641595364,-0.0078837675973773,0.003985526971518993,0.00048600335139781237,-0.007185608148574829,-0.0016416958533227444,0.016260340809822083,0.03450952470302582,0.04131308197975159,0.029186228290200233,0.03809261694550514,-0.0029865235555917025,0.002680850913748145,0.04162127524614334,-0.012443690560758114,0.004603042267262936,-0.00638415664434433,-0.07229898869991302,-0.01633143424987793,-0.03313795477151871,-0.011106066405773163,0.013940571807324886,0.00021371166803874075,0.011817429214715958,0.0238264761865139,0.02821730449795723,-0.0007723192102275789,-0.0001907821570057422,-0.005425197072327137,0.02410784550011158,0.03385308012366295,0.04794866219162941,0.03724168986082077,0.030828800052404404,0.00929940678179264,-0.026169300079345703,-0.02285727672278881,0.027110978960990906,-0.011101329699158669,-0.02422696352005005,-0.014599285088479519,-0.06349700689315796,0.014216667972505093,0.035980090498924255,0.02164015732705593,0.008234575390815735,0.02296416088938713,0.025918781757354736,0.006915769539773464,-0.02573399990797043,0.0069498601369559765,-0.017609821632504463,-0.026435812935233116,-0.002033584052696824,0.03990690037608147,0.05370735004544258,0.03919583186507225,-0.0036568602081388235,-0.033358246088027954,-0.06289927661418915,-0.043319400399923325,-0.010531546548008919,-0.022325551137328148,-0.040561530739068985,-0.04279303923249245,-0.08877428621053696,-0.0247645266354084,-0.02384764701128006,-0.08515576273202896,-0.1066659465432167,-0.07563366740942001,-0.03665395826101303,-0.02019396983087063,-0.0013983724638819695,0.007977377623319626,0.0002201747556682676,-0.005160907283425331,0.007504717446863651,-0.012710774317383766,-0.009090548381209373,0.0003539260942488909,0.004855221603065729,-0.01917920634150505,-0.02637321688234806,-0.00953865610063076,-0.017686164006590843,-0.002413771580904722,-0.04004839062690735,-0.03247303143143654,-0.050509728491306305,-0.05149660259485245,-0.02690364420413971,-0.0316765122115612,-0.035184890031814575,-0.0014886471908539534,0.00799575261771679,0.014251873828470707,0.0321151539683342,0.015278940089046955,-0.019038578495383263,-0.0007603722624480724,0.012181797996163368,-0.015672730281949043,0.008617067709565163,0.005074565298855305,0.016638711094856262,0.00509274285286665,0.015068617649376392,-0.0006679469370283186,0.03161138296127319,0.02433447539806366,-0.04992607980966568,-0.03707253932952881,-0.08202109485864639,-0.04713470861315727,0.004924725275486708,0.03671407327055931,0.030870560556650162,0.035034120082855225,0.012865236960351467,0.015196538530290127,0.005871954839676619,0.002943671541288495,0.0178470928221941,0.005463038105517626,-0.003533676266670227,0.004472832661122084,0.013129274360835552,-0.016066428273916245,-0.04120248556137085,-0.054238755255937576,-0.06326718628406525,-0.032038360834121704,-0.029709961265325546,-0.028716810047626495,-0.0701315701007843,-0.11567595601081848,-0.08599910140037537,-0.03878386691212654,-0.006584638729691505,-0.015753036364912987,0.015698814764618874,0.02468564175069332,0.008310660719871521,-0.003763359971344471,-0.012012859806418419,0.005104597192257643,0.004228284116834402,-0.01372615247964859,0.01033942773938179,0.004436342976987362,-0.023345574736595154,-0.02698107436299324,-0.04720894247293472,-0.05998590588569641,-0.07143628597259521,-0.07442555576562881,-0.020969431847333908,-0.02039804868400097,-0.05318935960531235,-0.02063542604446411,-0.02538776583969593,-0.06780559569597244,-0.03843104839324951,-0.009617572650313377,-0.01394534669816494,0.003572773654013872,0.004253729712218046,-2.5696135708130896e-05,-0.01744026690721512,0.0010568563593551517,-0.04723142087459564,-0.011949088424444199,0.006225233897566795,-0.027183260768651962,-0.04271567985415459,-0.0364094004034996,-0.021532664075493813,-0.022876188158988953,-0.03843234106898308,-0.04839591681957245,-0.07045844942331314,-0.0925925225019455,-0.09781111031770706,-0.06117966026067734,-0.008162678219377995,-0.06422331929206848,0.00057481654221192,-0.002956701908260584,-0.011022241786122322,0.032713305205106735,0.011338516138494015,-0.003355997381731868,0.013705801218748093,0.0028890229295939207,-0.006489959545433521,0.012386579997837543,0.011463606730103493,-0.031709663569927216,-0.020780785009264946,-0.05522827431559563,-0.0762253999710083,-0.07902801036834717,-0.11677060276269913,-0.12485961616039276,-0.14629407227039337,-0.1298302263021469,-0.03910187631845474,0.060725606977939606,-0.06936571002006531,-0.026545854285359383,0.032394252717494965,0.025979015976190567,0.04488402605056763,0.03737941384315491,0.021269354969263077,0.03804764524102211,-0.020100494846701622,0.0038304105401039124,0.06318487972021103,0.03405112400650978,0.00828326866030693,-0.013983243145048618,-0.042819734662771225,-0.052448373287916183,-0.08172225207090378,-0.09736058115959167,-0.1122724637389183,-0.12478046119213104,-0.09300418943166733,-0.07960110157728195,-0.0339495949447155,0.01630985550582409,-0.08501394838094711,-0.008697057142853737,0.016261866316199303,0.031649794429540634,0.016849253326654434,0.011121687479317188,0.009528001770377159,-0.007934676483273506,-0.0030962955206632614,0.04946185275912285,0.024806220084428787,-0.04536674916744232,-0.029801493510603905,-0.054519638419151306,-0.08057154715061188,-0.08816711604595184,-0.11925376951694489,-0.14958608150482178,-0.13199560344219208,-0.06862927973270416,-0.06336737424135208,-0.12529036402702332,-0.08999814838171005,-0.09842118620872498,-0.10026903450489044,-0.020170168951153755,0.025205066427588463,0.015592744573950768,0.02072661928832531,-0.0007551501621492207,0.018588341772556305,0.017298106104135513,0.03703869506716728,0.04011489823460579,0.014650631695985794,-0.005153084639459848,-0.060343608260154724,-0.06832713633775711,-0.08711447566747665,-0.14172175526618958,-0.11559198051691055,-0.14056308567523956,-0.09495294094085693,-0.12830016016960144,-0.1294798105955124,-0.11905116587877274,-0.10098087042570114,-0.0130097521468997,-0.012426657602190971,0.016636217013001442,0.0320625938475132,0.025064166635274887,-0.0014719401951879263,0.004074524622410536,0.029657864943146706,0.0679280236363411,0.05214142054319382,0.02816952019929886,0.003344941884279251,0.024097096174955368,-0.031123973429203033,-0.0432635098695755,-0.07180750370025635,-0.08933904767036438,-0.11137805134057999,-0.15415960550308228,-0.11335790157318115,-0.15415333211421967,-0.1336013376712799,-0.11439045518636703,-0.06885115802288055,-0.12671102583408356,0.03267780691385269,0.006894533522427082,0.029731066897511482,0.03656104952096939,0.006888861767947674,0.03371918946504593,0.061356328427791595,0.057999059557914734,0.03796777501702309,-0.019844533875584602,0.0020008222199976444,-0.005585863254964352,-0.05564408376812935,-0.09201058745384216,-0.09478682279586792,-0.12532714009284973,-0.083673395216465,-0.007925071753561497,-0.06399949640035629,-0.02631576545536518,-0.0807485356926918,-0.0679849237203598,-0.06066163256764412,-0.13791324198246002,0.04297400265932083,-0.025053294375538826,0.003080132883042097,-0.019832074642181396,0.0028562622610479593,0.0068528237752616405,0.04289282113313675,0.038826920092105865,0.013164426200091839,0.0029552148189395666,-0.009757645428180695,-0.028537094593048096,-0.04027398303151131,-0.10174372047185898,-0.07897959649562836,-0.09340106695890427,-0.0141964852809906,0.02212132327258587,0.00672378484159708,-0.018209028989076614,-0.015826035290956497,0.013340620324015617,-0.10196566581726074,-0.0350450798869133,-0.0417439304292202,-0.00881551019847393,0.01805451512336731,-0.01397732738405466,0.004773017019033432,-0.02961154468357563,-0.0005988188786432147,0.006750129163265228,0.021713271737098694,-0.018365977331995964,-0.06425917893648148,-0.07948251068592072,-0.06664250046014786,-0.0670512244105339,-0.007918245159089565,-0.0019424108322709799,-0.0036626101937144995,-0.011142515577375889,0.028118357062339783,0.017885256558656693,0.018634263426065445,-0.00415992783382535,-0.04013160616159439,-0.0505518838763237,-0.04281339794397354,0.03666696697473526,0.019602440297603607,0.010018298402428627,0.02547958306968212,-0.018382728099822998,-0.03137102350592613,0.03240174055099487,-0.03176558390259743,-0.060740984976291656,-0.06213736906647682,-0.03610185533761978,-0.04954216629266739,-0.02452375553548336,0.031679462641477585,0.017108820378780365,0.013841347768902779,-0.012759868055582047,0.035730358213186264,0.052954163402318954,-0.03212684392929077,-0.03697400912642479,0.010661251842975616,0.012839450500905514,0.03837447240948677,0.010279035195708275,0.00744680967181921,-0.013261155225336552,0.03231365978717804,-0.019396189600229263,-0.06484822183847427,-0.0900169238448143,-0.054503489285707474,-0.07504523545503616,-0.04033844545483589,-0.06831823289394379,-0.07691314816474915,-0.02283000387251377,0.03170463815331459,0.03441668674349785,0.036244671791791916,0.019408268854022026,0.031365785747766495,0.02295534312725067,-0.01707821898162365,0.031235460191965103,-0.03893640637397766,0.07189756631851196,-0.03761807456612587,0.02756287343800068,-0.012810706160962582,-0.0056155091151595116,0.0035441142972558737,-0.06432899832725525,-0.0985022708773613,-0.11008825153112411,-0.036647599190473557,-0.01731892302632332,0.039579808712005615,0.0017426400445401669,-0.028414513915777206,0.0421210341155529,0.05503839626908302,0.0335109643638134,0.02197270654141903,0.02947595901787281,0.02784557081758976,0.03432096540927887,0.00043150410056114197,0.0709468349814415,-0.023462951183319092,0.05373496562242508,-0.033133674412965775,0.027855265885591507,-0.02119213342666626,-0.024938935413956642,-0.025020066648721695,-0.054855797439813614,-0.11183571815490723,-0.07423917949199677,-0.05027386546134949,-0.047701820731163025,0.006435418035835028,-0.009616971015930176,0.0608486533164978,0.02447890304028988,0.02064383588731289,0.018399501219391823,0.05106605216860771,0.053040191531181335,0.04800304025411606,0.0662396028637886,0.0906229317188263,0.08032804727554321,-0.007024863269180059,-0.005312586203217506,0.0029328467790037394,0.037840086966753006,-0.016263166442513466,-0.015197527594864368,-0.00973922573029995,-0.07450240105390549,-0.10334347933530807,-0.12063540518283844,-0.08312290161848068,0.00857669860124588,-0.041373129934072495,0.008746878243982792,0.03475570306181908,0.018113719299435616,0.015426723286509514,0.024562997743487358,0.032255373895168304,0.039900340139865875,0.09687075763940811,0.029724936932325363,0.0833195298910141,-0.006144305225461721,0.010828693397343159,0.04675687104463577,0.06297485530376434,-0.019422128796577454,-0.04250115156173706,-0.041865717619657516,-0.07854639738798141,-0.11148158460855484,-0.13221478462219238,-0.1462441086769104,-0.10545235872268677,-0.042096950113773346,-0.008676435798406601,-0.020722152665257454,0.010164529085159302,0.027745766565203667,0.01633167639374733,0.07103012502193451,0.027088146656751633,0.05475582182407379,0.05883190035820007,0.09760986268520355,0.017050491645932198,0.05914967879652977,0.02294679917395115,0.08927342295646667,-0.01418440230190754,-0.01691356860101223,-0.05151953548192978,-0.04452930763363838,-0.07927627861499786,-0.05956258997321129,-0.16729363799095154,-0.17425714433193207,-0.18191632628440857,-0.05320063233375549,-0.011089848354458809,-0.01521577313542366,0.04199095442891121,0.059369832277297974,0.0715121477842331,0.08118855208158493,0.06798677891492844,0.05444718152284622,0.05548415705561638,0.08409769088029861,0.03070708177983761,0.07844963669776917,0.029209718108177185,0.0426492802798748,-0.07678072154521942,0.01429016049951315,0.05554114282131195,-0.019833434373140335,-0.019192447885870934,-0.10745657980442047,-0.1668691486120224,-0.18107785284519196,-0.11480051279067993,-0.07589895278215408,-0.09353416413068771,-0.08575036376714706,0.03719871863722801,0.0017857080092653632,0.10649430751800537,0.027812479063868523,-0.03997015953063965,0.024840697646141052,0.03904704749584198,-0.0431550033390522,0.09232445061206818,0.062174491584300995,0.022824956104159355,-0.01913488656282425,-0.03714888170361519,-0.004769937135279179,0.006981367245316505,-0.034770406782627106,-0.06875649839639664,-0.11653047055006027,-0.14273732900619507,-0.15412509441375732,-0.19866611063480377,-0.14152885973453522,-0.17143705487251282,-0.11631152778863907,-0.07738041877746582,-0.0018548949155956507,-0.010841935873031616,-0.13350023329257965,-0.01093965768814087,0.0349942147731781,-0.021321041509509087,0.0447140708565712,0.08025668561458588,-0.010329651646316051,-0.01950826123356819,0.008616412058472633,0.015322401188313961,-0.004426528234034777,0.003168996889144182,0.010613021440804005,-0.022684527561068535,-0.0057447440922260284,-0.022753022611141205,-0.06033618748188019,-0.0038893038872629404,-0.03776834160089493,0.0001997992512769997,0.010450567118823528,-0.056889668107032776,0.01359199732542038,-0.02505500428378582,-0.04000193998217583,0.03485402464866638,-0.00010134768672287464,0.0023746187798678875,0.03788197413086891,0.03096986562013626,-0.02044076845049858,-0.04109622538089752,0.05535702407360077,0.02307177521288395,-0.04046747833490372,-0.010218827053904533,0.028317352756857872,-0.0016009208047762513,0.005129467695951462,0.04623732343316078,0.044279634952545166,-0.0498487614095211,0.0254990067332983,0.11489340662956238,0.031216556206345558,0.010313664563000202,0.05827894061803818,-0.11859738081693649,-0.13865430653095245,-0.05372580885887146,-0.05656638368964195,0.07122818380594254,0.06554154306650162,-0.05921798199415207,-0.04574066027998924,-0.028630714863538742,0.03998051956295967,0.008342301473021507,-0.05885245278477669,0.02017986588180065,-0.07805230468511581,-0.07800237089395523,-0.11142204701900482,-0.1594161093235016,-0.1358574777841568,-0.008099260739982128,-0.07867539674043655,-0.06344003230333328,-0.029317790642380714,-0.05326313152909279,-0.060016095638275146,-0.0366981066763401,-0.022774236276745796,-0.08141084760427475,-0.09013911336660385,-0.04917315021157265,-0.034333229064941406,-0.08256776630878448,-0.0010255745146423578,-0.002067647874355316,-0.04074963182210922,-0.02095768228173256,-0.006385309621691704,-0.03512302041053772,-0.039187390357255936,-0.11625827103853226,-0.04963785782456398,-0.07600903511047363,-0.02055571973323822,-0.030225956812500954,-0.052953753620386124,0.03265317901968956,0.0028317731339484453,0.0034942880738526583,0.013040279969573021,0.0018643855582922697,-0.05957409739494324,-0.04603550583124161,-0.0387587808072567,-0.03957032784819603,-0.034894540905952454,-0.0679563656449318,-0.01133258081972599,-0.12273845821619034,-0.08569599688053131,0.03303998336195946,0.013563676737248898,-0.054199978709220886,-0.07518535107374191,-0.00221908837556839,0.00522381579503417,-0.016489164903759956,-0.03893173858523369,-0.023075027391314507,0.008672786876559258,-0.01812150329351425,-0.007930765859782696,0.05646736919879913,0.005566392093896866,-0.008348340168595314,-0.007350077852606773,0.024568233639001846,-0.024852178990840912,-0.04026174172759056,-0.03963536396622658,-0.019356509670615196,0.02120574563741684,-0.06887657940387726,-0.05239560827612877,-0.06741785258054733,-0.002241394715383649,0.03549041971564293,0.02935345657169819,0.04297999292612076,0.06294018030166626,-0.007726677227765322,-0.011909029446542263,0.011276662349700928,0.027322329580783844,0.006711925845593214,-0.014583551324903965,-0.03580046072602272,0.01104199979454279,0.001944675575941801,-0.013488191179931164,-0.005249209236353636,0.001983177848160267,0.016269110143184662,-0.0037556076422333717,0.006482680793851614,0.005367048550397158,0.017559334635734558,0.027602657675743103,-0.08748172223567963,-0.004927795380353928,0.08932797610759735,-0.07470188289880753,0.022087983787059784,0.03320537507534027,-0.030524255707859993,-0.03657155483961105,0.0033182480838149786,0.014279697090387344,0.013341519050300121,-0.006122985389083624,0.04707922413945198,0.04043487086892128,0.013046098873019218,0.009340985678136349,0.012969333678483963,-0.0009137540473602712,0.018919095396995544,0.03463205322623253,0.027606824412941933,0.06539946049451828,0.045172106474637985,-0.02248908020555973,-0.013094287365674973,-0.05469676852226257,-0.05301413685083389,-0.06641475856304169,-0.053210653364658356,-0.01789001189172268,0.010372568853199482,-0.050294190645217896,-0.026638677343726158,0.014790370129048824,-0.04615297541022301,0.0004421059275045991,0.005141054280102253,0.010151391848921776,0.04111894592642784,0.03487442433834076,0.0028153127059340477,0.008183490484952927,0.016468483954668045,-0.002005497459322214,-0.036977797746658325,0.0070413583889603615,0.09039806574583054,0.032594166696071625,-0.02434195578098297,-0.058709461241960526,-0.0007933390443213284,0.01579347997903824,-0.03166912496089935,-0.011041982099413872,-0.0216599702835083,-0.018671104684472084,-0.05674508959054947,-0.03735901042819023,-0.05601853132247925,-0.0816616341471672,-0.03879163786768913,-0.0011365222744643688,0.010215154848992825,0.01829035021364689,0.03150132670998573,0.029294824227690697,0.02778051607310772,0.031018728390336037,0.0378120094537735,0.030308639630675316,0.05309469252824783,0.05373067036271095,0.06661525368690491,0.056220412254333496,0.06104074791073799,-0.018587689846754074,-0.0011924384161829948,0.05152234062552452,0.030700432136654854,0.04234224930405617,0.00393053749576211,0.015248093754053116,0.029333142563700676,-0.03126747906208038,0.005811451002955437,-0.01570490188896656,-0.00634485250338912,0.02743014506995678,0.07386648654937744,0.0237725917249918,0.018881965428590775,0.024233218282461166,0.02235499769449234,-0.005949246231466532,0.04768139868974686,0.025943269953131676,0.031621385365724564,-6.285598647082224e-05,0.023622769862413406,-0.026684429496526718,-0.0019829743541777134,0.06830468773841858,0.02221296727657318,-0.06760125607252121,-0.007242034189403057,0.0033703981898725033,-0.011273915879428387,0.0014871363528072834,-0.05174371972680092,-0.11596009880304337,-0.042798444628715515,-0.05719779059290886,-0.001069443766027689,-0.026151780039072037,0.014834009110927582,-0.0037347041070461273,0.00480268057435751,0.007735228631645441,0.03024962916970253,0.004130945075303316,-0.022962652146816254,-0.09162992238998413,-0.003418857464566827,0.029442043974995613,-0.0419103167951107,0.018877021968364716,-0.012841549701988697,-0.057315438985824585,-0.0440351702272892,-0.018481578677892685,-0.017597872763872147,-0.058833442628383636,-0.12182319909334183,-0.08843187242746353,-0.04013358801603317,-0.007583918049931526,0.010590722784399986,-0.007847116328775883,-0.006823150906711817,-0.026751622557640076,0.010753612965345383,0.04521532356739044,0.014422851614654064,0.024555927142500877,0.02757026068866253,0.05453674495220184,-0.01675199717283249,0.04938093200325966,-0.03586094081401825,0.007148045115172863,0.021352795884013176,-0.05690819025039673,-0.03262095898389816,-0.025620995089411736,-0.13598527014255524,-0.08546619862318039,-0.10374237596988678,-0.10165602713823318,-0.17098860442638397,-0.12249663472175598,-0.05075116455554962,-0.033989232033491135,-0.009696869179606438,0.021089067682623863,0.037945620715618134,0.013555174693465233,0.014674259349703789,0.0372081883251667,0.03444813936948776,-0.008749520406126976,-0.0010304966708645225,0.024377264082431793,0.026359563693404198,-0.004619278013706207,-0.007156426087021828,-0.018815135583281517,-0.060744758695364,-0.10091891139745712,-0.04760119318962097,-0.024003060534596443,0.001120543573051691,-0.06470809876918793,-0.08365710824728012,-0.09718172252178192,-0.13215284049510956,-0.0394408293068409,-0.01937364600598812,-0.033034391701221466,0.0020435438491404057,0.015493142418563366,0.033830009400844574,0.018327482044696808,0.0008913755882531404,-0.11103329062461853,-0.0187532939016819,-0.03883370757102966,-0.003781986190006137,-0.09410782903432846,-0.06620685756206512,-0.024575864896178246,-0.0638374462723732,0.014940736815333366,-0.008330878801643848,0.006012073718011379,-0.08197648078203201,-0.09839403629302979,-0.07142804563045502,-0.10854479670524597,-0.10657642781734467,-0.04658155143260956,-0.0041313753463327885,-0.00984811969101429,-0.057189058512449265,-0.016739973798394203,0.009614360518753529,0.03823666647076607,-0.028030989691615105,-0.009075971320271492,-0.06429599970579147,-0.05894596502184868,-0.06690612435340881,-0.10519827902317047,-0.023234885185956955,-0.09357129037380219,-0.03946387395262718,-0.05631394684314728,-0.05305986851453781,-0.05235559865832329,-0.059309057891368866,-0.11805984377861023,-0.10594917088747025,-0.06469310075044632,-0.03495669364929199,-0.06974795460700989,0.0009917414281517267,-0.03547202795743942,-0.03121211752295494,0.009894177317619324,-0.010246607474982738,0.033772245049476624,0.013957807794213295,0.052109889686107635,-0.07762899994850159,-0.04852692410349846,-0.07957837730646133,-0.0711265429854393,-0.033666908740997314,-0.04332071170210838,-0.039964139461517334,-0.008929404430091381,-0.03582477197051048,-0.04518314450979233,-0.0877801701426506,-0.10396149009466171,-0.07232433557510376,-0.1174345538020134,-0.06086123362183571,-0.08076439797878265,-0.04314199835062027,-0.07845162600278854,-0.05464915931224823,-0.029101558029651642,-0.02080310508608818,0.013294472359120846,0.009986676275730133,0.013474089093506336,-0.019738905131816864,-0.060070376843214035,-0.018582651391625404,-0.06586982309818268,-0.015636829659342766,0.00620930315926671,-0.04200495034456253,-0.003042490454390645,-0.00016610960301477462,-0.0008278748136945069,-0.028194306418299675,-0.047689225524663925,-0.1136246994137764,-0.07802045345306396,-0.08651155233383179,-0.05612511560320854,-0.016764581203460693,-0.030683865770697594,-0.09097126871347427,-0.05980466678738594,-0.05161109194159508,0.0017032253090292215,-0.03292619809508324,0.008044052869081497,-0.14432987570762634,-0.09826379269361496,-0.088133804500103,-0.010027861222624779,0.02441222220659256,0.03470568731427193,9.041368321049958e-05,-0.022422602400183678,-0.004939412232488394,0.01759745553135872,-0.03125465661287308,-0.08514231443405151,-0.08949896693229675,-0.03501247987151146,-0.021118875592947006,-0.027857787907123566,-0.025470811873674393,-0.006037398241460323,-0.06788613647222519,-0.012206842191517353,-0.015396390110254288,0.030728178098797798,-0.029411887750029564,-0.06005081161856651,-0.004777398891746998,-0.07954907417297363,-0.07775403559207916,-0.05252620205283165,0.036405060440301895,0.03097538836300373,0.026786627247929573,0.024900292977690697,0.038634493947029114,0.03343389555811882,0.009783703833818436,-0.031890612095594406,-0.011708461679518223,-0.062125686556100845,-0.03915519267320633,-0.03308254852890968,-0.004038855899125338,-0.07982528954744339,-0.05783013254404068,-0.07096993923187256,-0.055610861629247665,-0.06891285628080368,-0.030076002702116966,-0.007822331972420216,-0.09020576626062393,-0.16151851415634155,-0.051488034427165985,-0.053032245486974716,-0.04068997502326965,0.03168952465057373,0.05502273514866829,0.011637427844107151,-0.0006536795990541577,-0.02687016874551773,0.0054817055352032185,0.013426424004137516,-0.03849563002586365,-0.010238340124487877,-0.040604110807180405,-0.006527546793222427,0.008383061736822128,-0.02824367955327034,-0.0312430988997221,-0.10189398378133774,-0.061103783547878265,-0.05918263643980026,-0.009657813236117363,-0.1103266030550003,-0.11183822154998779,-0.029619870707392693,-0.07583115249872208,-0.06778912246227264,-0.037481240928173065,0.015236567705869675,0.033830489963293076,0.04464932158589363,0.05771871656179428,0.010877126827836037,0.0041364883072674274,-0.011999126523733139,0.006006818264722824,0.006272448226809502,0.023745812475681305,-0.04315397888422012,-0.027539866045117378,-0.008622721768915653,-0.02018570341169834,-0.07084758579730988,-0.014517544768750668,-0.06683449447154999,-0.027843425050377846,-0.08333303034305573,-0.11551988124847412,-0.10895845293998718,-0.04132799431681633,-0.03883468732237816,-0.054347533732652664,-0.03641321882605553,0.00022164423717185855,0.029976943507790565,0.02056843601167202,0.029498619958758354,-0.01657319813966751,-0.05652493238449097,-0.022053783759474754,-0.0021670761052519083,0.01641487143933773,-0.013269246555864811,-0.060868311673402786,-0.024679232388734818,-0.05988120287656784,-0.06620887666940689,0.0025900451000779867,-0.031057078391313553,-0.07224702835083008,-0.01586299017071724,0.02500486746430397,-0.10198795795440674,-0.04007740691304207,0.008496368303894997,0.06236806884407997,0.04232850670814514,0.05458805337548256,0.09773743152618408,0.09537991136312485,0.09854454547166824,0.04358020797371864,-0.00468680914491415,-0.018192514777183533,-0.007362509611994028,0.0006226980476640165,0.003952943719923496,-0.061561018228530884,-0.07373108714818954,-0.13159242272377014,-0.09484004974365234,-0.03687112778425217,-0.010563729330897331,-0.04886823520064354,-0.007702157367020845,-0.03944762796163559,-0.07486218959093094,-0.09985144436359406,-0.0884874239563942,-0.014512419700622559,-0.028357073664665222,-0.0162672009319067,0.04717140644788742,0.019695155322551727,0.06414734572172165,-0.01678333804011345,-0.06686437129974365,-0.13591855764389038,-0.15571554005146027,-0.15416912734508514,-0.07765021920204163,-0.020978137850761414,-0.09576787799596786,-0.1191578283905983,-0.09104455262422562,-0.07706968486309052,-0.043485093861818314,-0.01832948811352253,0.0005387431592680514,-0.028834115713834763,-0.02005539834499359,-0.060882918536663055,-0.02639578841626644,-0.00939960777759552,0.007031402084976435,-0.002850669901818037,-0.04976315796375275,0.020769458264112473,-0.05544113740324974,-0.04739193990826607,-0.04625680297613144,-0.12075529992580414,-0.08736118674278259,-0.13766556978225708,-0.12005893141031265,-0.030075402930378914,-0.018015557900071144,-0.042383018881082535,-0.07017252594232559,-0.05458306148648262,-0.03184725344181061,-0.015366896986961365,0.006563941948115826,0.027390798553824425,0.05481640249490738,-0.05622187629342079,-0.10907287150621414,-0.0766148790717125,-0.12501487135887146,-0.09923109412193298,-0.07056878507137299,-0.04883075878024101,-0.004241577815264463,-0.02235134318470955,0.038743454962968826,0.049402251839637756,0.010512700304389,-0.026381732895970345,-0.01607552170753479,-0.015401868149638176,-0.03159535676240921,-0.01780070550739765,-0.04082833603024483,-0.01589111238718033,0.027813062071800232,-0.048058196902275085,-0.047714803367853165,-0.052722103893756866,-0.009626000188291073,0.05138804763555527,-0.05009474977850914,-0.07012534141540527,-0.05956414341926575,-0.10773368179798126,-0.07831162959337234,0.009334683418273926,0.04756474122405052,0.01623956486582756,0.04998546093702316,0.08289146423339844,0.04470443353056908,-0.0033505719620734453,-0.01969684474170208,0.04035567864775658,0.04711871221661568,0.007005962077528238,-0.0008175424882210791,0.03842569887638092,0.05299847200512886,-0.015508031472563744,0.0271659716963768,0.014756981283426285,0.022813379764556885,0.053136587142944336,0.00047464476665481925,-0.03855385258793831,-0.0844276025891304,-0.08613181859254837,-0.016099335625767708,-0.011928564868867397,0.048475321382284164,0.016851317137479782,0.004411846864968538,0.020402487367391586,0.08438669145107269,0.09781912714242935,0.042138028889894485,-0.015821892768144608,0.004537894390523434,-0.009194529615342617,-0.010167642496526241,0.04885994642972946,0.04627206549048424,-0.009671671316027641,0.05531948804855347,-0.07229554653167725,-0.05707656592130661,-0.09239261597394943,-0.16644014418125153,-0.11462611705064774,-0.08524185419082642,-0.05667433887720108,-0.09018068015575409,-0.005249430891126394,0.017286870628595352,0.0068875751458108425,0.038733989000320435,0.022199226543307304,0.055960770696401596,0.06807180494070053,0.06458321958780289,0.031152954325079918,0.023826660588383675,-0.01641049236059189,0.0011213463731110096,0.0422215573489666,0.06759000569581985,0.042348913848400116,0.061414819210767746,0.026047883555293083,-0.024730907753109932,-0.09878430515527725,-0.10732518881559372,-0.17633837461471558,-0.1328791081905365,-0.0880347192287445,-0.06244648993015289,-0.0135864969342947,0.07835275679826736,0.05646101385354996,-0.042457420378923416,0.009680608287453651,0.10248270630836487,0.11158601939678192,0.10278035700321198,0.14899107813835144,0.05917618051171303,0.08180016279220581,0.01826130598783493,-0.014819769188761711,0.03982727229595184,0.08699718117713928,0.03660658374428749,0.07586430758237839,0.01371345017105341,-0.06748761981725693,-0.08070280402898788,-0.08784846216440201,-0.07501216977834702,-0.051676422357559204,0.008010704070329666,0.06510506570339203,-0.009417659603059292,-0.032252226024866104,-0.05624198168516159,0.050273291766643524,0.1168120875954628,0.10265839099884033,0.07016295194625854,0.0998765230178833,0.08830837905406952,0.09253427386283875,0.06060749292373657,0.01641540601849556,0.0155176417902112,0.054537687450647354,-0.09213310480117798,0.0077657862566411495,0.050211645662784576,-0.019618144258856773,0.028030643239617348,-0.03413252905011177,-0.07606236636638641,-0.05958077684044838,-0.09687977284193039,-0.08577495068311691,-0.007358729839324951,0.0184436347335577,0.03645181283354759,0.14322644472122192,0.10007863491773605,0.0612025111913681,0.05710313096642494,0.053830038756132126,0.07782287150621414,0.05465925484895706,0.08548038452863693,0.017391907051205635,0.030276555567979813,0.050138406455516815,-0.10254855453968048,-0.09543293714523315,-0.027102191001176834,-0.029124708846211433,-0.031996600329875946,-0.04168489947915077,-0.06348555535078049,-0.041865404695272446,-0.08075500279664993,-0.04307284578680992,0.028662284836173058,0.020540820434689522,-0.0021264636889100075,-0.03197614103555679,0.0006377175450325012,0.11722727864980698,0.07452971488237381,0.03481730818748474,0.04403300583362579,0.02983281947672367,0.00036116293631494045,0.021181324496865273,0.037398360669612885,0.047150395810604095,0.026033340021967888,0.01462105754762888,-0.11575121432542801,-0.011273481883108616,-0.08860871195793152,-0.044419433921575546,0.02551906555891037,-0.041849445551633835,-0.09974946826696396,0.0068547422997653484,0.0916019156575203,0.11953914910554886,0.11214975267648697,0.09141962230205536,-0.04578312486410141,0.022936977446079254,0.057103656232357025,0.07598266005516052,-0.01431508082896471,0.05553227663040161,0.046233534812927246,0.017624344676733017,0.029599901288747787,0.07425328344106674,-0.01262674666941166,0.0019031234551221132,-0.20789095759391785,-0.057255201041698456,0.04438166692852974,-0.041993025690317154,-0.06186763197183609,-0.06176586449146271,-0.0024342318065464497,0.0057596368715167046,0.08041613548994064,0.14059655368328094,0.06773088872432709,-0.029111292213201523,-0.10048854351043701,-0.13638879358768463,-0.06911248713731766,0.05079198628664017,-0.015609050169587135,0.00848421547561884,0.05339653044939041,0.01656525209546089,0.029642421752214432,0.040267784148454666,-0.08539330214262009,-0.07669715583324432,-0.05041215568780899,-0.041932180523872375,0.06562764942646027,0.029964152723550797,-0.03900839015841484,0.011470024473965168,0.06001037731766701,0.03091421164572239,0.04492359235882759,0.0547802671790123,0.058335866779088974,-0.001795235788449645,0.05245796963572502,0.0030595522839576006,-0.16590945422649384,0.046329792588949203,0.012321488000452518,0.005707419943064451,0.015285070054233074,0.02768206223845482,0.00836552120745182,-9.475855040363967e-05,-0.04227900132536888,-0.11227941513061523,-0.12248995155096054,-0.19258321821689606,-0.03584415093064308,-0.026027459651231766,-0.04830912873148918,0.01041090115904808,0.029121508821845055,-0.016485586762428284,-0.07322094589471817,0.004215348977595568,0.11547695845365524,0.08412275463342667,-0.0967266634106636,-0.027425020933151245,-0.018324200063943863,-0.056331079453229904,-0.05052918195724487,0.04905499890446663,-0.00035687448689714074,0.02836020104587078,-0.05118395388126373,0.03946859762072563,0.02494620718061924,-0.050737038254737854,-0.07604797184467316,-0.12035179138183594,-0.0477726086974144,-0.08655193448066711,-0.020773787051439285,-0.005078252870589495,-0.011338882148265839,-0.01511714980006218,0.01681867055594921,0.0907106101512909,0.049412865191698074,0.026770979166030884,-0.015002358704805374,-0.039210692048072815,-0.016419386491179466,-0.02373666502535343,-0.01615816354751587,0.06290457397699356,-0.025417879223823547,-0.02313879504799843,0.003887159051373601,0.035702865570783615,-0.1252070665359497,0.03178141266107559,-0.009729503653943539,-0.0068701328709721565,-0.007498923223465681,-0.042916081845760345,-0.028120212256908417,-0.04742686450481415,-0.05113659426569939,-0.037239935249090195,-0.055070195347070694,0.0288340225815773,-0.06354358792304993,-0.05128808319568634,0.0034045001957565546,0.01147773489356041,0.012995818629860878,-0.08381722122430801,-0.05357027426362038,0.04094869643449783,-0.017696188762784004,-0.022996097803115845,-0.012330036610364914,-0.030334895476698875,-0.03506762161850929,-0.016296284273266792,-0.04493580386042595,0.0342850424349308,0.01595931500196457,-0.04317524656653404,-0.02615879662334919,-0.0033777360804378986,0.00480169290676713,-0.05794892832636833,0.033543478697538376,0.10169781744480133,0.08617109060287476,0.008114282041788101,-0.04035307466983795,0.0536276213824749,-0.03935477137565613,-0.08839494735002518,-0.04514683410525322,0.03659223020076752,-0.01155068539083004,-0.01831134594976902,-0.03252025321125984,-0.06815686076879501,0.03145338594913483,0.033310484141111374,-0.035535380244255066,-0.04155467823147774,-0.016659650951623917,-0.006116511765867472,-0.08688827604055405,0.001872038235887885,0.008654181845486164,0.04203805327415466,0.03260919824242592,0.0669136643409729,0.02272029221057892,-0.05091394484043121,-0.06375695765018463,0.0127969766035676,-0.07079829275608063,0.026422441005706787,-0.03069920837879181,-0.01314156036823988,-0.024678822606801987,-0.03697912022471428,-0.09651452302932739,-0.05501854047179222,-0.04756525158882141,-0.00787967536598444,0.005074451211839914,-0.07948332279920578,-0.0683763176202774,0.026344100013375282,-0.10634870827198029,-0.09041798114776611,-0.05642082914710045,0.025778377428650856,-0.01262658927589655,-0.0239779744297266,0.08155864477157593,0.0742223709821701,-0.03706863150000572,-0.06101306900382042,-0.037454742938280106,0.013739995658397675,-0.014536631293594837,-0.07516001909971237,0.0009650900028645992,-0.0796392410993576,-0.12956129014492035,-0.0730663612484932,-0.008951322175562382,-0.03251511603593826,0.0008919162210077047,-0.04676958918571472,-0.06391030550003052,0.006043876986950636,0.002747212303802371,-0.0561102069914341,-0.06802848726511002,0.006337203551083803,0.12600873410701752,0.12992830574512482,0.0800112783908844,-0.005624336190521717,-0.00887953583151102,-0.032519228756427765,-0.0663040429353714,-0.07145475596189499,-0.05590040236711502,-0.05286967009305954,-0.032547932118177414,-0.07900994271039963,-0.1520741581916809,-0.06720449775457382,-0.03360354155302048,0.0015609898837283254,-0.004068213514983654,-0.05727791413664818,-0.07268961519002914,-0.08541350811719894,0.013829361647367477,0.07283448427915573,0.10551530867815018,0.12138506025075912,0.08463253080844879,0.07885604351758957,0.04354162514209747,0.005014744587242603,-0.035893093794584274,0.00966474786400795,0.017727848142385483,-0.05388456583023071,-0.08284013718366623,-0.06451810151338577,-0.021809369325637817,-0.040030546486377716,-0.04154881462454796,0.000349021574947983,0.009565528482198715,-0.025544796139001846,-0.046128302812576294,-0.049409233033657074,-0.046074576675891876,-0.060045190155506134,-0.0343996062874794,0.10139504820108414,0.08152904361486435,0.08879981189966202,0.07908086478710175,0.11372346431016922,0.08957084268331528,0.010358752682805061,-0.035143569111824036,0.02874686010181904,-0.024574950337409973,-0.05309763923287392,-0.029328910633921623,-0.04887600243091583,-0.06955479830503464,-0.08388548344373703,-0.01577305607497692,0.023809542879462242,-0.02325555309653282,0.031216349452733994,0.014547549188137054,-0.020910635590553284,-0.010181202553212643,0.020469553768634796,-0.01628420129418373,0.01610269956290722,0.06713833659887314,0.129124253988266,0.175630122423172,0.15468484163284302,0.06778283417224884,0.0013349298387765884,-0.05677303299307823,-0.02816712111234665,-0.03407938778400421,-0.015056516975164413,0.04867881163954735,-0.11090187728404999,-0.12105213105678558,-0.0831068679690361,-0.05328847095370293,-0.07939783483743668,-0.057817306369543076,-0.0658835917711258,0.05695963650941849,0.06659185886383057,0.024041572585701942,0.02107541449368,0.0674600601196289,0.06392728537321091,0.08302687853574753,0.11480505764484406,0.10700587183237076,0.019593071192502975,-0.020033160224556923,-0.0463935025036335,-0.15058454871177673,-0.1660202145576477,-0.0647878497838974,-0.16035880148410797,-0.08059120178222656,-0.09344784915447235,-0.12772423028945923,-0.12543250620365143,-0.0475633405148983,0.009461352601647377,-0.008107753470540047,0.009753337129950523,0.007606261409819126,0.08190575242042542,0.024224044755101204,0.007129855919629335,0.04590611532330513,0.031096143648028374,0.013380915857851505,0.054388828575611115,0.09671410918235779,-0.029301537200808525,-0.1292780190706253,-0.11218046396970749,-0.06909384578466415,-0.12080516666173935,-0.1742163598537445,-0.09345684945583344,-0.05774785950779915,-0.019547995179891586,-0.10936789959669113,-0.12059811502695084,0.021057719364762306,0.019639208912849426,0.08081594109535217,0.043352726846933365,-0.033508386462926865,-0.06658951938152313,-0.04041292145848274,-0.019477736204862595,-0.022604430094361305,-0.08916452527046204,-0.02202575094997883,-0.0027657742612063885,-0.03240317106246948,-0.0860515683889389,-0.14755916595458984,-0.16982510685920715,-0.1180870309472084,-0.04418151453137398,-0.17550663650035858,-0.02369263395667076,0.00422228779643774,0.00026564300060272217,0.03790091350674629,-0.09442253410816193,-0.07945582270622253,0.010438879951834679,0.011762517504394054,0.0016105902614071965,-0.023033300414681435,-0.06416019797325134,-0.039856355637311935,-0.022348767146468163,-0.035550523549318314,-0.016108127310872078,-0.054285719990730286,-0.010961826890707016,-0.021527009084820747,-0.05683803930878639,-0.02422422170639038,0.009971188381314278,-0.03259216994047165,-0.07961049675941467,-0.10642106831073761,-0.05029347911477089,0.03223986178636551,0.04420008882880211,-0.00023862322268541902,0.02452109381556511,0.03659597411751747,0.04132385551929474,0.009086346253752708,-0.045244000852108,-0.04024575650691986,-0.05639370530843735,-0.03415894880890846,-0.03528687357902527,-0.016048356890678406,-0.027360618114471436,-0.06030087545514107,0.0031129110138863325,-0.023268332704901695,-0.003366420278325677,0.011311747133731842,0.009728043340146542,-0.061100222170352936,-0.017413664609193802,-0.10279545933008194,-0.011499874293804169,0.059838343411684036,-0.012859545648097992,-0.018708227202296257,-0.009083510376513004,0.0034436502028256655,0.028400441631674767,-0.029883401468396187,-0.009141813032329082,-0.00520864175632596,-0.015712901949882507,-0.012339098379015923,-0.019840950146317482,-0.01902518980205059,-0.04173688217997551,-0.023008476942777634,0.025503795593976974,-0.0063891042955219746,0.004431500565260649,-0.037900473922491074,-0.012112877331674099,-0.026752648875117302,-0.07597789913415909,-0.0475599579513073,0.01507195457816124,0.04880272224545479,-0.020813273265957832,-0.02318516932427883,-0.023383650928735733,-0.019408369436860085,0.021717708557844162,-0.013324196450412273,0.0028513309080153704,0.01749797724187374,-0.015253751538693905,-0.017792537808418274,0.005512129049748182,-0.02615257538855076,-0.003714049933478236,-0.044489361345767975,-0.02032969705760479,-0.04079399257898331,-0.039722319692373276,-0.050361499190330505,0.0040235635824501514,-0.017214521765708923,-0.04459359496831894,-0.04900332912802696,0.0028040653560310602,0.0016598714282736182,-0.02758331038057804,-0.058731935918331146,-0.016206752508878708,0.007941482588648796,0.02333865314722061,-0.05346084013581276,0.0022377315908670425,0.013245495967566967,-0.008673936128616333,-0.002354014664888382,-0.00260339817032218,-0.017020167782902718,-0.02025405317544937,-0.03447137773036957,-0.022048713639378548,-0.027179865166544914,-0.014975536614656448,-0.01183799933642149,0.021704919636249542,-0.04155951738357544,-0.06035294011235237,-0.07715372741222382,0.008607824333012104,-0.04937944933772087,-0.06762196868658066,-0.06670258194208145,-0.02273094281554222,-0.0013159518130123615,-0.01034943200647831,-0.08737597614526749,0.007300557103008032,0.03696947917342186,0.014178105629980564,-0.0015342074912041426,-0.01872568391263485,0.0020950925536453724,-0.049772243946790695,-0.02207108587026596,-0.04929420351982117,-0.03675856813788414,-0.018005885183811188,-0.003882898949086666,-0.042652737349271774,-0.016065705567598343,-0.06814119219779968,-0.029152370989322662,-0.003839378710836172,-0.030369427055120468,-0.08276296406984329,-0.03972214087843895,-0.02824016474187374,-0.02163693495094776,-0.027845993638038635,-0.041645314544439316,-0.021787745878100395,0.04115486890077591,0.020264701917767525,-0.015136758796870708,0.02289668843150139,0.0012017230037599802,-0.027506450191140175,-0.029119178652763367,-0.0038242312148213387,-0.004985975567251444,0.01606057584285736,-0.011621703393757343,-0.03213942050933838,-0.030851757153868675,-0.043986592441797256,-0.023097729310393333,0.03407059982419014,0.036965951323509216,0.019943367689847946,-0.02587401494383812,-0.010795270092785358,-0.02365195006132126,-0.004510518163442612,-0.061113350093364716,-0.011282539926469326,0.02370407059788704,0.023203888908028603,0.01603970304131508,0.008152795024216175,0.00275101768784225,-0.044925689697265625,0.028084831312298775,0.0047607263550162315,-0.030618220567703247,0.0016057437751442194,-0.04637809097766876,-0.057143669575452805,0.0007053152075968683,0.013614618219435215,0.028226550668478012,0.0449315644800663,0.06148572266101837,0.08817766606807709,0.07229096442461014,0.0612604059278965,-0.01577025279402733,0.005153928883373737,-0.058404792100191116,-0.01072784885764122,0.022178180515766144,0.059519194066524506,0.006510803941637278,0.006532553117722273,0.015117946080863476,0.023908814415335655,0.02506215311586857,0.0061651268042624,-0.036216851323843,-0.060415081679821014,-0.03499269858002663,0.017538145184516907,0.044493887573480606,0.063747838139534,0.11738958954811096,0.07880980521440506,0.061525292694568634,0.11024264246225357,0.08591212332248688,0.0656488910317421,-0.018283821642398834,-0.01934811845421791,-0.006426254753023386,-0.004916215781122446,0.05580128729343414,0.03730858862400055,0.017070336267352104,0.028144726529717445,0.0054520657286047935,0.05114277824759483,0.005846897605806589,-0.025278154760599136,-0.07525479793548584,-0.033496350049972534,0.04235664755105972,0.04761550575494766,0.06397553533315659,0.09005343914031982,0.10552562773227692,0.07810371369123459,0.10004334896802902,0.12102193385362625,0.15265321731567383,0.06345654278993607,0.0018057195702567697,0.05410163104534149,0.0027474130038172007,0.015387939289212227,0.042266394942998886,0.07212190330028534,0.023973464965820312,0.027818182483315468,0.024060826748609543,0.037606123834848404,0.020399631932377815,-0.01931755430996418,-0.11069151759147644,0.00836841482669115,0.041876170784235,0.05603213980793953,0.04954515025019646,0.07370634377002716,0.06148369982838631,0.07706630975008011,0.11170907318592072,0.10559037327766418,0.0945945680141449,0.08729161322116852,0.05875552445650101,0.03954485058784485,-0.00356854684650898,0.024056516587734222,0.0456702820956707,0.06911933422088623,-0.008256334811449051,0.03287481516599655,0.04863415285944939,0.033177342265844345,0.06055820360779762,0.016658389940857887,-0.03618821129202843,0.08598318696022034,0.026188842952251434,0.06753700971603394,0.11203312128782272,0.11211322247982025,0.033799316734075546,0.06412247568368912,0.10875210165977478,0.10197849571704865,0.11295425891876221,0.06750599294900894,0.033368706703186035,0.02499544993042946,0.03357858955860138,0.028409508988261223,0.03747083991765976,0.06875277310609818,0.017841827124357224,0.051927387714385986,0.044295113533735275,0.07965832203626633,0.06747259944677353,0.03366600349545479,0.020011890679597855,0.027152353897690773,-0.05952909588813782,0.06593767553567886,0.12074549496173859,0.059344518929719925,0.01971610262989998,0.07748381793498993,0.09366245567798615,0.058253269642591476,0.16981087625026703,0.06270169466733932,-0.005072983913123608,0.01706859841942787,0.02125902846455574,0.04573606327176094,0.046592827886343,0.05381854996085167,0.05706540867686272,0.0357477143406868,0.0487058162689209,0.06776456534862518,0.06815021485090256,0.0294074434787035,0.03303137049078941,-0.0395960807800293,-0.060933180153369904,0.06896623969078064,0.08622810989618301,0.04260752350091934,-0.004070032387971878,0.10423792898654938,0.09157581627368927,0.07295002043247223,0.10863565653562546,0.009082052856683731,0.0038707794155925512,0.08283989876508713,0.010998687706887722,0.050533123314380646,0.04479439556598663,0.029906010255217552,0.058702971786260605,0.029868166893720627,0.04815587028861046,0.05722075700759888,0.06324721872806549,0.03808651119470596,-0.03409462049603462,-0.038558635860681534,0.026741938665509224,0.04652169346809387,0.03961026668548584,0.011609484441578388,0.05255161225795746,0.09536377340555191,0.038342736661434174,0.06701380759477615,0.08225829899311066,0.007684782147407532,0.0015610770788043737,0.05280490592122078,0.01201937347650528,0.04494728147983551,0.04009509086608887,0.023019662126898766,0.0465761162340641,0.0404743067920208,0.030022725462913513,0.05370268225669861,0.02144504152238369,0.08964519202709198,0.025677751749753952,0.055854689329862595,0.025730453431606293,0.02660233899950981,0.004874115344136953,0.04510807618498802,0.06652893871068954,0.045563310384750366,0.02046114206314087,0.08057966083288193,0.019270841032266617,0.019004514440894127,0.02397008426487446,0.058685995638370514,0.040319450199604034,0.048781175166368484,0.036324549466371536,0.021877117455005646,0.03851289302110672,0.022028042003512383,0.034056492149829865,0.050079427659511566,0.047054536640644073,0.05663628876209259,-0.05873924121260643,0.019524656236171722,-0.008378596045076847,-0.0017596265533939004,0.010084552690386772,0.003923713695257902,0.0024387433659285307,0.038354307413101196,0.04530851170420647,0.04402556270360947,-0.00898053590208292,-0.007518317550420761,0.029480839148163795,0.06735379993915558,0.026231568306684494,0.03005002811551094,0.028116151690483093,-0.0027445219457149506,0.027901483699679375,0.017159655690193176,0.06961681693792343,0.07818717509508133,0.06387805938720703,0.008838745765388012,-0.11900872737169266,-0.08362583816051483,0.0006995804142206907,-0.0024331375025212765,-0.018444452434778214,-0.027994651347398758,-0.07920147478580475,0.023623626679182053,0.042111195623874664,0.008113089948892593,-0.02764514461159706,-0.07402559369802475,0.05300278589129448,0.04154381901025772,0.027700550854206085,0.0261215902864933,0.024677803739905357,0.022888153791427612,0.040811698883771896,0.015311137773096561,0.02898055501282215,0.04621231183409691,0.0778353363275528,-0.02065241150557995,-0.1638612449169159,-0.12109805643558502,-0.09569315612316132,-0.09282491356134415,-0.07679974287748337,-0.07041133940219879,-0.13903731107711792,-0.05912301689386368,-0.01659582182765007,-0.10166468471288681,-0.08863861858844757,-0.06595852226018906,0.05057523027062416,0.024807535111904144,0.028723491355776787,0.016305705532431602,0.024839043617248535,0.03371052443981171,0.040320079773664474,-0.004662713501602411,0.009984996169805527,0.03075813688337803,0.06269853562116623,-0.007676512468606234,-0.15814495086669922,-0.17297185957431793,-0.16605107486248016,-0.11509037762880325,-0.12379401922225952,-0.12970173358917236,-0.17043399810791016,-0.15051814913749695,-0.08524841070175171,-0.14614522457122803,-0.11673156172037125,-0.03640018403530121,0.05813823640346527,0.04819653928279877,0.015953030437231064,0.02608502097427845,0.04182988405227661,0.022948158904910088,0.01995970495045185,-0.02287801168859005,0.010708398185670376,0.008523902855813503,0.048465508967638016,-0.026759667322039604,-0.12036842852830887,-0.22272734344005585,-0.2607985734939575,-0.23616726696491241,-0.22871874272823334,-0.18915528059005737,-0.20535022020339966,-0.16239385306835175,-0.10598865151405334,-0.13823381066322327,-0.09971310198307037,-0.03365989401936531,0.06697715818881989,0.04760617017745972,0.011798483319580555,0.021695390343666077,0.03055560402572155,0.037381362169981,-0.0058668507263064384,-0.018079234287142754,-0.016445744782686234,-0.02237406000494957,-0.037900883704423904,-0.01690276898443699,-0.11100690066814423,-0.1995106190443039,-0.19996003806591034,-0.20236997306346893,-0.1957923173904419,-0.20633095502853394,-0.16718991100788116,-0.20207065343856812,-0.05481460317969322,-0.14620919525623322,-0.09424404799938202,-0.01879621483385563,0.05269583314657211,0.07185027748346329,-0.009907204657793045,-0.001707470160908997,0.040644630789756775,0.05904802307486534,-0.026904765516519547,-0.01917067915201187,-0.02178174816071987,-0.06280530244112015,-0.04978423938155174,-0.05054419860243797,-0.01948634721338749,-0.16306574642658234,-0.2515454590320587,-0.23231986165046692,-0.21915669739246368,-0.222518652677536,-0.14917443692684174,-0.13375413417816162,-0.04430636018514633,-0.08909358084201813,-0.06299655139446259,0.014694771729409695,0.052097924053668976,0.04529464989900589,0.030416080728173256,0.019879639148712158,-0.006438791751861572,0.02102779783308506,-0.033126868307590485,-0.06710878014564514,-0.035691965371370316,-0.030451932922005653,-0.04928373172879219,-0.0552554689347744,-0.03589985519647598,-0.12684209644794464,-0.19944848120212555,-0.16766805946826935,-0.17481163144111633,-0.19939060509204865,-0.10983772575855255,-0.10305430740118027,0.014040032401680946,0.040075235068798065,-0.013237593695521355,-0.022283777594566345,0.06203223764896393,0.05337104946374893,0.006472038105130196,-0.006165814585983753,-0.007985939271748066,0.017516667023301125,-0.002789656398817897,0.013641703873872757,0.0158417746424675,0.0026895985938608646,0.0020992178469896317,0.0003975965082645416,0.017106741666793823,0.007924322970211506,-0.002003342378884554,0.02075326442718506,0.040956880897283554,0.024428032338619232,0.026728546246886253,0.02710316888988018,0.006120429374277592,-0.014402348548173904,0.011742306873202324,-0.006648335140198469,0.012577418237924576,0.004951350390911102,-0.009227503091096878,0.004670548252761364,-0.002305893925949931,0.015186947770416737,0.01525291707366705,0.00023958385281730443,0.024529045447707176,0.021552691236138344,0.026392856612801552,0.025214098393917084,0.040468957275152206,0.053671080619096756,0.015728233382105827,0.021243272349238396,0.030558284372091293,1.968632568605244e-05,0.012631407007575035,0.041150737553834915,0.04301046207547188,0.04425268992781639,0.01068929024040699,0.005674649029970169,0.014485820196568966,0.008825757540762424,0.01238445844501257,-0.016122499480843544,-0.003826258471235633,-0.010436163283884525,0.006861465983092785,0.006034006830304861,0.003908870741724968,0.018910760059952736,0.015222515910863876,-0.01592753641307354,0.03419448062777519,0.02962871827185154,0.019461309537291527,-0.01825886406004429,0.026921425014734268,0.043465714901685715,0.052245479077100754,-0.010805166326463223,-0.02207390032708645,0.004259080160409212,-0.016921306028962135,-0.004766541998833418,0.010387422516942024,0.008157146163284779,-0.009459041059017181,-0.015925351530313492,0.008888807147741318,-0.01804918795824051,0.007459672167897224,0.00920911505818367,0.017319122329354286,0.012032559141516685,0.01265035942196846,0.029011862352490425,-0.00019032121053896844,-0.013170734979212284,0.03626285120844841,0.029122112318873405,0.02324637956917286,0.037641797214746475,0.04646602272987366,0.07826479524374008,0.05235474929213524,-0.0010968809947371483,0.018445728346705437,0.019122527912259102,0.03481820598244667,0.012670102529227734,-0.0103641701862216,0.009677797555923462,-0.0006457065464928746,-0.0056298766285181046,0.014457055367529392,-0.014906968921422958,-0.0012754080817103386,0.014465122483670712,0.03985476866364479,0.024651728570461273,0.03954692184925079,0.01232998725026846,0.09810172021389008,0.057376738637685776,0.07901041954755783,0.03853897377848625,0.030169777572155,0.07731064409017563,0.06853775680065155,0.020442431792616844,0.04406403377652168,0.015354827977716923,-0.0004576006322167814,0.015290427021682262,0.019873419776558876,-0.004553518258035183,-0.028037765994668007,0.008184845559298992,-0.0064508263021707535,0.0005093894433230162,-0.006289041135460138,0.024060741066932678,0.03072301484644413,0.0396355502307415,0.07913157343864441,0.06271817535161972,0.027458524331450462,0.060045357793569565,0.0415760837495327,0.008231410756707191,-0.030598804354667664,-0.023770492523908615,0.03594963252544403,0.033703602850437164,0.028852498158812523,0.009977387264370918,-0.032850876450538635,0.015020251274108887,0.007937137968838215,-0.005245707463473082,0.006597519852221012,-0.0014628279022872448,-0.008647048845887184,0.012728558853268623,-0.02595178596675396,-0.026227379217743874,-0.02130529284477234,-0.053786423057317734,-0.07322001457214355,-0.0462050586938858,0.023981548845767975,0.04746940732002258,0.029053550213575363,0.016923926770687103,-0.02014119178056717,0.013622352853417397,-0.028896356001496315,0.0010302093578502536,0.0009730000165291131,0.016062015667557716,0.00815073773264885,0.008516012690961361,-0.0026829352136701345,0.006351806223392487,0.0041573140770196915,-0.030632954090833664,-0.023650800809264183,-0.008846939541399479,-0.03667668625712395,-0.09713484346866608,-0.0543222613632679,-0.08776289224624634,-0.09577445685863495,-0.05285213142633438,-0.06382814794778824,-0.032796937972307205,0.04807211458683014,0.05245688557624817,0.002449793042615056,0.0043625785037875175,-0.02616439014673233,0.005269248969852924,-0.022456631064414978,-0.027257295325398445,0.006763866171240807,0.004051521420478821,0.006472077686339617,-0.01782691478729248,-0.02329593524336815,-0.04230998829007149,-0.016437536105513573,-0.04167262092232704,-0.06279222667217255,-0.09538544714450836,-0.1391891986131668,-0.0648399144411087,-0.05009421333670616,-0.007105785422027111,-0.005871920846402645,-0.040599700063467026,-0.01603330299258232,-0.03627519682049751,0.045777127146720886,0.059411708265542984,-0.024356592446565628,-0.04953440651297569,-0.017403073608875275,-0.003588076215237379,-0.017003754153847694,-0.017764631658792496,0.007231271825730801,-0.02142803557217121,-0.023852868005633354,-0.050785791128873825,-0.05063951760530472,-0.10695461928844452,-0.13936230540275574,-0.19849209487438202,-0.15431039035320282,-0.10298246890306473,-0.12924416363239288,-0.05455682426691055,-0.03787326067686081,-0.1136094257235527,-0.09500235319137573,-0.10671272873878479,-0.03040122054517269,-0.025607211515307426,0.008468310348689556,-0.06634237617254257,-0.05755303055047989,-0.02613559365272522,-0.006226591765880585,-0.029481766745448112,0.005576437339186668,-0.02168607898056507,-0.023346932604908943,-0.06198155879974365,-0.07663717865943909,-0.13990497589111328,-0.20225286483764648,-0.2672804892063141,-0.17435838282108307,-0.08947772532701492,-0.012266150675714016,0.05655990540981293,0.04282556474208832,-0.025164443999528885,0.0028604967519640923,0.019188307225704193,-0.0008981091086752713,-0.018204988911747932,-0.0010237762471660972,-0.028116116300225258,-0.028553150594234467,-0.049619730561971664,-0.013709303922951221,-0.05917948856949806,-0.02020232379436493,-0.03012809529900551,-0.044760849326848984,-0.0747465193271637,-0.122614786028862,-0.12570053339004517,-0.17216917872428894,-0.20801082253456116,-0.2095954418182373,-0.15855933725833893,-0.04487389698624611,0.015504512004554272,0.04988640546798706,0.06501170247793198,0.01348766777664423,0.02630520984530449,0.005845530424267054,-0.020655672997236252,-0.08297031372785568,-0.037502795457839966,-0.05379292741417885,-0.07381687313318253,-0.049601826816797256,-0.038502227514982224,-0.0037022014148533344,-0.017445489764213562,-0.023282717913389206,-0.10804339498281479,-0.1344987154006958,-0.0781807005405426,-0.20585085451602936,-0.10516200214624405,-0.14872488379478455,-0.08631370216608047,-0.05386891961097717,-0.02592327445745468,0.07082674652338028,0.09075440466403961,0.0840541198849678,0.09667029976844788,0.02584095112979412,0.03684372827410698,-0.056341156363487244,-0.11494303494691849,-0.04052680730819702,-0.06182095408439636,-0.05048979073762894,-0.019374515861272812,-0.0031703622080385685,-0.03455435857176781,-0.01275130920112133,-0.09310022741556168,-0.15038082003593445,-0.12263426184654236,-0.1852634996175766,-0.1050686240196228,-0.1437496691942215,-0.0577007420361042,-0.07058084011077881,-0.02368239127099514,0.0433538481593132,0.05165259540081024,0.09898583590984344,0.06292466819286346,0.02366791106760502,0.004230487160384655,-0.02165241725742817,-0.05451779440045357,-0.05973147973418236,-0.08674992620944977,-0.050052136182785034,-0.027671732008457184,-0.0149973900988698,-0.017859024927020073,-0.023256445303559303,-0.03857190161943436,-0.10384096205234528,-0.11712338030338287,-0.17957744002342224,-0.0798298642039299,-0.014375579543411732,-0.04267846420407295,-0.04054481163620949,0.04329336807131767,0.07064954191446304,0.09394759684801102,0.05226287990808487,0.05282674357295036,-0.008176040835678577,-0.08934427052736282,-0.05889187380671501,-0.08232291787862778,-0.08528011292219162,-0.034896571189165115,-0.017203623428940773,-0.030341435223817825,-0.025099072605371475,0.0072183310985565186,-0.02160598523914814,-0.013206188566982746,-0.04918307438492775,-0.07327915728092194,-0.0735686644911766,-0.09748822450637817,-0.008933229371905327,-0.027541229501366615,-0.0062571195885539055,0.018137255683541298,0.06406141817569733,0.034596920013427734,-0.007690208498388529,-0.0010000456823036075,-0.07486484199762344,-0.1001560166478157,-0.05073117837309837,-0.04776669293642044,-0.05579833686351776,-0.0004015719168819487,-0.005855191964656115,-0.031206510961055756,-0.0160411037504673,-0.013476485386490822,-0.005929099395871162,0.017079651355743408,-0.007758545223623514,-0.02184261381626129,-0.05147692933678627,-0.12728522717952728,-0.11221855133771896,-0.03467286378145218,-0.04013263061642647,0.005805058404803276,0.013302702456712723,-0.0035131527110934258,-0.007210704497992992,-0.018860507756471634,-0.02050958387553692,-0.04305381327867508,-0.007797255180776119,-0.013762792572379112,-0.009558829478919506,0.001919655129313469,-0.030848897993564606,-0.03627040982246399,0.006329345516860485,0.01399526558816433,-0.017092183232307434,-0.03608173877000809,-0.006936121266335249,0.010844447650015354,-0.027985116466879845,-0.08728696405887604,-0.09737517684698105,-0.026697607710957527,-0.021590745076537132,-0.00044100312516093254,-0.006644383072853088,-0.02504025772213936,-0.007203587796539068,-0.046891555190086365,-0.05813203379511833,-0.04199354350566864,-0.03628820180892944,-0.042563486844301224,-0.031462039798498154,-0.008537724614143372,-0.007465322967618704,0.004456059075891972,0.0040911417454481125,-0.0013495130697265267,-0.04285643249750137,-0.041222818195819855,-0.014448839239776134,-0.0016473770374432206,-0.010403033345937729,0.006771599408239126,-0.009559350088238716,-0.012699153274297714,0.04192109405994415,0.07923293858766556,0.08544502407312393,0.0411185696721077,-0.016542542725801468,0.023721816018223763,0.012360482476651669,-0.0006551729165948927,0.0043894886039197445,0.010678872466087341,-0.010174407623708248,0.003254903480410576,0.0058078039437532425,0.02775997668504715,0.0048102098517119884,-0.03151002898812294,-0.03259185701608658,-0.023646583780646324,-0.03034806437790394,-0.05201543867588043,0.003194741904735565,-0.004098694305866957,0.05206228792667389,0.04679562523961067,0.07848387956619263,0.09446058422327042,0.09521503746509552,0.08019205182790756,0.03940141201019287,0.04109932482242584,0.07408302277326584,0.053404636681079865,0.014950564131140709,-0.02190663479268551,-0.018647057935595512,0.005702081136405468,-0.012602312490344048,0.003680859925225377,-0.0030868733301758766,-0.00648454949259758,-0.028354734182357788,-0.012294077314436436,-0.02491072751581669,-0.019706392660737038,-0.023394769057631493,-0.047988347709178925,0.03589972108602524,0.05721643567085266,0.06440526992082596,0.04299150034785271,0.05944857373833656,0.046947184950113297,0.06390585005283356,0.027129363268613815,0.02237812429666519,0.025727929547429085,0.0235841516405344,0.008227993734180927,0.008481204509735107,-0.017608143389225006,-0.010035772807896137,0.005880107171833515,0.0002629019436426461,-0.023366929963231087,-0.005029801744967699,0.011614429764449596,0.004538256209343672,-0.004550759680569172,0.01748826541006565,0.027970585972070694,-0.03875081613659859,-0.01813461072742939,-0.025084180757403374,-0.012147381901741028,0.013043500483036041,0.022493522614240646,0.006922557484358549,0.007788007613271475,-0.031596578657627106,-0.048043400049209595,-0.035619597882032394,-0.02367134392261505,0.003858748124912381,-0.0016256405506283045,-0.01684214174747467,0.008882653899490833,-0.015496171079576015,0.008226661011576653,0.01466073002666235,0.006422602105885744,0.04220588132739067,0.02288110926747322,0.008337600156664848,0.01796518638730049,0.019892357289791107,0.03954111412167549,0.02592979185283184,0.035737574100494385,0.03311533108353615,0.032438259571790695,0.027749499306082726,0.012474988587200642,0.007807896472513676,-0.027486324310302734,-0.011638912372291088,0.0031032171100378036,0.014451253227889538,-0.01394270546734333,-0.020220089703798294,-0.0024516654666513205,-0.01712116412818432,-0.013619581237435341,0.018199540674686432,-9.894146933220327e-05,0.026013309136033058,0.0303928442299366,0.03720932826399803,0.023679865524172783,0.022439176216721535,0.03675607591867447,0.04543926194310188,0.05000792816281319,0.03463484346866608,0.07158443331718445,0.04153839871287346,0.03484801575541496,0.046337027102708817,-0.018427768722176552,0.01275833509862423,0.0014038672670722008,-0.0030945888720452785,0.017374346032738686,0.007111323997378349,-0.010732140392065048,-0.0012484933249652386,-0.004743552301079035,-0.01285005733370781,-0.0008550206548534334,-0.02658524177968502,-0.030008453875780106,-0.007876378484070301,0.009249110706150532,0.003580654738470912,-0.00921765435487032,-0.0012604848016053438,-0.013741234317421913,0.00105663959402591,-0.026969972997903824,0.012022816576063633,0.01564096286892891,0.015985403209924698,0.005578112322837114,0.011480194516479969,-0.008056063205003738,-0.004290588665753603,-0.02578458935022354,-0.014450098387897015,-0.005925993900746107,-0.02697412669658661,-0.022956466302275658,-0.019320551306009293,-0.02578977681696415,-0.029132254421710968,-0.013911738060414791,0.004019520245492458,-0.009674740023911,-0.00564203318208456,-0.0725661888718605,-0.0626097023487091,-0.05492410436272621,-0.04470321536064148,-0.042117707431316376,-0.024335622787475586,-0.01414710097014904,-0.008954623714089394,0.007764393463730812,-0.014044464565813541,0.010905824601650238,0.009144357405602932,0.001966626150533557,-0.02617255225777626,-0.004305274225771427,-0.0002718164469115436,-0.0034544437658041716,-0.005908888299018145,-0.027142569422721863,-0.022641977295279503,-0.04772477224469185,-0.031027959659695625,-0.019164947792887688,-0.025727244094014168,-0.05904439836740494,-0.11989082396030426,-0.1560686081647873,-0.13821133971214294,-0.15145465731620789,-0.186172753572464,-0.05209117755293846,-0.03340744972229004,-0.08035245537757874,-0.03722343221306801,0.04785139486193657,0.04948670417070389,-0.008846214972436428,-0.0011611483059823513,-0.009562727063894272,-0.0006399243138730526,-0.0016220632242038846,-0.023696143180131912,-0.04012220725417137,0.0296756811439991,0.017402388155460358,-0.024226659908890724,-0.11058735847473145,-0.11702752113342285,-0.1094251275062561,-0.08572118729352951,-0.09155892580747604,-0.06318232417106628,-0.053280506283044815,-0.0938795804977417,-0.05283905193209648,-0.06839166581630707,-0.10826213657855988,-0.08090214431285858,-0.016023827716708183,-0.045576196163892746,-0.050361618399620056,-0.039919592440128326,-0.01560145616531372,-0.007984700612723827,0.06131724268198013,0.039445534348487854,-0.011587661691009998,0.005686162505298853,0.05553435534238815,0.01956670917570591,-0.005226982291787863,-0.05345841497182846,-0.08430588245391846,-0.10082747042179108,-0.0823511928319931,-0.07084110379219055,-0.029674967750906944,-0.07729630172252655,-0.09830747544765472,-0.06803236156702042,-0.08941816538572311,-0.07636967301368713,-0.031834833323955536,-0.1020594984292984,-0.09008407592773438,-0.07524432986974716,-0.06270714104175568,-0.034802380949258804,0.04542579501867294,0.027336575090885162,0.03839363157749176,0.002875267993658781,0.005754146724939346,0.019839096814393997,0.0039885686710476875,-0.025836016982793808,-0.07758471369743347,-0.08436213433742523,-0.08712910115718842,-0.10833786427974701,-0.09454578161239624,-0.116278737783432,-0.11072010546922684,