{"shape": [10, 4608]}
0.016548141837120056,0.010429322719573975,0.019620943814516068,0.017574718222022057,0.0064004878513514996,0.005173294339329004,0.023288818076252937,0.027196494862437248,0.0100776432082057,0.00798279419541359,0.02813608944416046,0.0029670048970729113,0.0052863722667098045,0.007294426206499338,0.02404148317873478,0.04530106857419014,0.0356779508292675,0.017727253958582878,0.014492823742330074,0.009189539588987827,0.019712278619408607,0.01085065957158804,0.009968787431716919,-0.00786906760185957,0.0013122954405844212,0.01392547506839037,0.003557163290679455,0.010659581981599331,-0.008985951542854309,0.021638179197907448,0.01720351167023182,0.01353326067328453,0.03448665514588356,0.029259569942951202,0.0127200772985816,0.013715370558202267,-0.00432090787217021,0.006669734138995409,0.02114594727754593,0.05408349260687828,0.02774553745985031,0.03187309950590134,0.023057008162140846,0.007566570769995451,0.02479100599884987,0.027370167896151543,-0.00018745180568657815,0.0017313385615125299,0.011043115518987179,0.019339490681886673,0.013607685454189777,0.014706986956298351,0.010427381843328476,0.041841015219688416,0.01347246952354908,0.029904568567872047,0.02018127590417862,-0.003937826491892338,0.0068120453506708145,0.013975882902741432,0.03452161327004433,0.03217048570513725,0.0545404776930809,0.05101355165243149,0.03971434012055397,0.04175146296620369,0.020968681201338768,-0.00825275294482708,0.01734323427081108,0.030678384006023407,0.006638684775680304,0.019424475729465485,0.004691543988883495,0.0039934758096933365,0.007466788403689861,-0.0025457250885665417,0.02495066449046135,0.020351041108369827,0.004192304331809282,-0.002022018190473318,-0.008051075041294098,-0.016645966097712517,-0.00215206784196198,0.00448636244982481,0.03129378706216812,-0.002029279712587595,0.010738316923379898,0.03766488656401634,0.033309873193502426,0.035084210336208344,-0.0006599432090297341,-0.004668740089982748,-0.0020531148184090853,0.01601872220635414,-0.005999505519866943,0.023012610152363777,0.018895979970693588,0.002045959234237671,0.002798287896439433,-0.008168508298695087,-0.021084044128656387,-0.0273605827242136,-0.05094987526535988,-0.09105504304170609,-0.09608518332242966,-0.053072113543748856,-0.04418560862541199,-0.006232353858649731,0.04062562808394432,0.025734921917319298,-0.03633342310786247,-0.05858917161822319,-0.050655074417591095,-0.04754922166466713,-0.017730800434947014,-0.002224378054961562,0.02570490911602974,0.018124232068657875,-0.011354890652000904,0.011981958523392677,-0.0010339024011045694,-0.009053817950189114,-0.009103430435061455,0.0037225992418825626,-0.00962354987859726,-0.04697452858090401,-0.10021235793828964,-0.09691599756479263,-0.05297708883881569,-0.03991340845823288,-0.03370819240808487,0.011613152921199799,0.005304558202624321,0.015835659578442574,-0.03675878420472145,-0.05547148734331131,-0.06581846624612808,-0.05905536189675331,-0.027750061824917793,-0.048310328274965286,-0.014031808823347092,-0.026439711451530457,-0.02452387660741806,-0.009874185547232628,0.006316118407994509,0.027109960094094276,-0.001712862984277308,-0.009263994172215462,-0.0005275540752336383,-0.040400270372629166,-0.040107447654008865,-0.06048843264579773,-0.03720712661743164,-0.008870093151926994,0.022502705454826355,0.03293214365839958,0.02684575505554676,0.0038568838499486446,0.03080935589969158,0.03489429131150246,0.03079531155526638,-0.006538226269185543,-0.029138771817088127,-0.07957975566387177,0.0012287170393392444,0.009511853568255901,-0.0020440067164599895,-0.0011775268940255046,0.012210691347718239,-0.012450668960809708,-0.019258305430412292,-0.047691140323877335,-0.010516551323235035,0.005979996174573898,-0.00501226494088769,-0.006291898433119059,0.009024069644510746,0.0015215326566249132,-0.02784171886742115,-0.04135792702436447,-0.07285387068986893,-0.028191959485411644,0.020660370588302612,-0.006309522315859795,-0.02085784263908863,-0.010638241656124592,-0.06165523827075958,-0.0903870165348053,-0.04273601248860359,-0.033361613750457764,-0.03265026584267616,0.005209200084209442,-0.003212645649909973,-0.016522644087672234,-0.020743468776345253,-0.048673227429389954,-0.028067177161574364,-0.0520896390080452,-0.022929275408387184,0.007576098665595055,-0.022710388526320457,-0.07441521435976028,-0.11053755134344101,-0.07693613320589066,-0.06522900611162186,-0.05586782097816467,-0.061153244227170944,-0.08815307915210724,-0.09554216265678406,-0.10115393251180649,-0.10737477242946625,-0.06133046746253967,-0.030903080478310585,-0.03848716989159584,-0.01423550769686699,-0.019564099609851837,-0.00046306749572977424,0.005454101599752903,-0.020808549597859383,-0.0329294390976429,-0.07840221375226974,-0.05863798037171364,0.012947012670338154,-0.015532273799180984,-0.027867436408996582,-0.07030390948057175,-0.040994126349687576,0.015159521251916885,0.004639896098524332,-0.03523622453212738,-0.07457756996154785,-0.0852697491645813,-0.08776333183050156,-0.04058215022087097,-0.037984054535627365,-0.05616245046257973,-0.07739080488681793,-0.05575327202677727,-0.014131085015833378,-0.03028607740998268,0.014785693027079105,-0.025136003270745277,-0.06244870647788048,-0.07317022979259491,-0.03084072470664978,0.008210660889744759,-0.02093561738729477,-0.06715123355388641,-0.10068077594041824,-0.06932481378316879,-0.06802565604448318,-0.018389668315649033,0.005602636374533176,-0.03083251602947712,-0.06516488641500473,-0.0869884192943573,-0.09279134124517441,-0.07874263823032379,-0.05812932178378105,-0.0624108761548996,-0.09946201741695404,-0.07406135648488998,-0.044685859233140945,-0.02195984311401844,-0.008455854840576649,-0.046825259923934937,-0.07341749966144562,-0.08747339248657227,-0.08032006770372391,-0.06254031509160995,-0.04781290888786316,-0.06870266795158386,-0.0891534686088562,-0.07655809074640274,-0.04368029907345772,-0.07082962244749069,-0.02930559404194355,-0.06457256525754929,-0.06392796337604523,-0.054414454847574234,-0.028181297704577446,-0.02495146170258522,-0.04548250138759613,-0.10459468513727188,-0.12092017382383347,-0.09326446801424026,-0.07095436751842499,-0.00552799878641963,-0.0002880551037378609,-0.030496561899781227,-0.029399938881397247,-0.08264447748661041,-0.14892320334911346,-0.16182799637317657,-0.1119365245103836,-0.11819805949926376,-0.04963236674666405,-0.03807394951581955,-0.077799953520298,-0.11548607796430588,-0.15369246900081635,-0.10031883418560028,-0.06020737066864967,0.010394680313766003,-0.03235386312007904,-0.003439120715484023,-0.05480962246656418,-0.06230911612510681,-0.07784128934144974,-0.035025496035814285,-0.02794431895017624,-0.017722664400935173,-0.006380185484886169,0.0013605630956590176,-0.011816360987722874,-0.04781556501984596,-0.10517610609531403,-0.15048636496067047,-0.13614514470100403,-0.088779516518116,-0.05939362198114395,-0.057479795068502426,-0.10234727710485458,-0.14932189881801605,-0.16289356350898743,-0.11512503027915955,-0.10407556593418121,-0.09926947206258774,-0.041404981166124344,-0.011029519140720367,-0.038877423852682114,-0.03321532905101776,0.004205705597996712,-0.006100935861468315,-0.02831844985485077,-0.02031969092786312,-0.019942376762628555,-0.0010830988176167011,-0.023843813687562943,0.0029991469345986843,-0.034332770854234695,-0.09932328760623932,-0.11587046831846237,-0.15667150914669037,-0.09815407544374466,-0.0910271406173706,-0.11866069585084915,-0.12234018743038177,-0.10539793223142624,-0.08274271339178085,-0.1701599657535553,-0.10031609982252121,-0.032001711428165436,-0.028818465769290924,-0.013782250694930553,-0.0072559029795229435,0.0021239337511360645,0.030297843739390373,0.011865739710628986,-0.002929077483713627,0.010603692382574081,0.02562396042048931,-0.007901152595877647,0.00206159264780581,-0.003529271110892296,-0.062239840626716614,-0.12424281239509583,-0.17954060435295105,-0.18133029341697693,-0.16108274459838867,-0.14593587815761566,-0.13804768025875092,-0.12051118165254593,-0.09898620843887329,-0.048522938042879105,-0.02134617045521736,0.01810479536652565,0.005284763872623444,-0.0015046716434881091,0.0075288494117558,0.026437709107995033,0.040797874331474304,0.02361776866018772,0.007162340451031923,0.01003355998545885,0.01648588478565216,-9.768993186298758e-05,-0.04672342911362648,-0.059057995676994324,-0.02398025058209896,-0.046929627656936646,-0.04734424129128456,-0.09804288297891617,-0.0804702416062355,-0.051420681178569794,-0.022368652746081352,-0.028363365679979324,-0.004079914651811123,0.033317115157842636,0.054170526564121246,0.04864410310983658,0.0017177601112052798,0.006171856075525284,0.02406349405646324,0.022607803344726562,0.016853660345077515,-0.017721982672810555,0.015894552692770958,-0.01201409101486206,-0.006989071145653725,-0.03130360692739487,-0.02646194025874138,-0.05727791413664818,-0.05284754931926727,-0.01658162847161293,0.02575225755572319,0.018714696168899536,-0.005487350281327963,-0.03133363649249077,-0.0020869954023510218,0.01501968502998352,0.06823991984128952,0.07450418919324875,0.0548485703766346,0.04121513292193413,0.02219473011791706,0.054922133684158325,0.03752502426505089,0.02788003534078598,0.010316701605916023,-0.007372462190687656,-0.004233106505125761,0.01330444123595953,-0.008431434631347656,-0.024813493713736534,-0.02555154263973236,-0.0446365661919117,-0.047359198331832886,-0.014973355457186699,0.01582944393157959,0.01915634796023369,0.0037906314246356487,0.0038739931769669056,0.053799714893102646,0.07434533536434174,0.07462934404611588,0.08118047565221786,0.04600544273853302,0.01625022664666176,0.042445581406354904,0.02220669388771057,0.009205923415720463,0.0016705954913049936,0.012347627431154251,0.0017990157939493656,-0.006248807068914175,0.025898592546582222,-0.0022607981227338314,-0.031118975952267647,-0.053934626281261444,-0.048256658017635345,-0.07539848238229752,-0.07812001556158066,-0.023315835744142532,0.0053358860313892365,0.0465405210852623,0.03981973975896835,0.04165248945355415,0.019625457003712654,0.01802176982164383,0.0445002019405365,0.011507301591336727,0.021311338990926743,0.021022841334342957,0.006286765448749065,-0.0014648211654275656,-0.017967384308576584,-0.007641719654202461,-0.018835004419088364,0.018562326207756996,0.022347822785377502,0.01745380274951458,-0.014101511798799038,-0.026784026995301247,-0.04031292349100113,-0.04789366200566292,-0.03344462066888809,-0.004374257754534483,0.005721339024603367,0.03628915175795555,0.030155669897794724,0.030771153047680855,0.02823597937822342,4.725620965473354e-05,0.011810350231826305,0.007776872720569372,-0.001763436826877296,-0.004416108131408691,0.0008918768726289272,-0.024941060692071915,-0.01367996260523796,-0.014312492683529854,-0.017577053979039192,0.018052810803055763,-0.0022222010884433985,0.020087644457817078,0.03077719919383526,0.00219563371501863,0.028285957872867584,0.00804881937801838,0.002671692054718733,0.022161684930324554,0.04092952609062195,0.04434017464518547,0.04552552476525307,0.05696235969662666,0.03726417198777199,0.02479376085102558,0.03325430303812027,0.03053896874189377,0.006191409658640623,0.002815223764628172,0.03219565376639366,0.021101193502545357,-0.010147192515432835,0.0006036122213117778,-0.014993226155638695,0.005689471028745174,-0.005459867883473635,-0.010212955996394157,-0.0022174478508532047,0.015856413170695305,0.035786811262369156,0.030964331701397896,0.04241732135415077,0.03333226218819618,0.04591471701860428,0.03562791272997856,0.06298892199993134,0.06662923097610474,0.06015608832240105,0.048367179930210114,0.04604380577802658,0.009860292077064514,0.02307063527405262,-0.01008252240717411,0.004628126975148916,0.02632279135286808,-0.016248121857643127,-0.0013953346060588956,-0.03541693091392517,-0.026757605373859406,0.00763940392062068,-0.00574700441211462,0.006786788813769817,0.02951859124004841,0.031488120555877686,0.025373423472046852,0.028290152549743652,0.02700704149901867,0.01544914860278368,0.022213291376829147,0.02303999476134777,0.01760891079902649,0.03863544762134552,0.006851082667708397,-0.002372569404542446,-0.0351903960108757,-0.023659663274884224,-0.04781479388475418,-0.03058699704706669,-0.01172546111047268,-0.010680042207241058,0.012749050743877888,-0.0027748115826398134,-0.00885101780295372,0.014365624636411667,-0.008759590797126293,-0.0130967628210783,-0.006889726035296917,-0.0015090244123712182,-0.0006872675148770213,-0.017462780699133873,-0.007223009597510099,-0.02202276699244976,0.03624523803591728,-0.002206892939284444,-0.032167788594961166,-0.00677565997466445,-0.010137508623301983,-0.01621689274907112,-0.014369748532772064,-0.05217420682311058,-0.02192961797118187,0.0304349884390831,0.017853016033768654,-0.045943621546030045,-0.017179610207676888,0.038840170949697495,0.009642764925956726,-0.01182529516518116,-0.014369931071996689,-0.005852216389030218,-0.04353887587785721,-0.0470300056040287,-0.03235553577542305,0.012638376094400883,0.03274746984243393,0.014618937857449055,0.004762567114084959,0.011946234852075577,-0.019816430285573006,-0.043949343264102936,-0.06272091716527939,-0.027320759370923042,-0.028905348852276802,-0.05168156325817108,-0.046239059418439865,-0.02758042700588703,0.037783317267894745,0.017565568909049034,0.02739853411912918,-0.007710207253694534,0.026366641744971275,-0.007783959619700909,-0.01118711568415165,-0.011127649806439877,-0.019485877826809883,-0.011763294227421284,0.02809981070458889,0.04773278161883354,0.038832176476716995,-0.03662455454468727,0.00650751031935215,0.00639033829793334,-0.0214378759264946,-0.0029926314018666744,0.04214056581258774,0.01984376832842827,-0.013128765858709812,-0.03272658586502075,-0.04635860398411751,-0.0006340055260807276,-0.032563041895627975,-0.02916032262146473,0.01013856753706932,-0.014618320390582085,-0.05638926848769188,-8.118929690681398e-05,-0.006103463005274534,0.03794240951538086,0.03774352744221687,0.0356299914419651,0.02561260759830475,-0.0028882555197924376,-0.03529838100075722,-0.047724347561597824,-0.04373545944690704,0.004784806165844202,0.05242999643087387,0.03821684420108795,0.002913606120273471,-0.018277809023857117,0.0324719101190567,0.02121570333838463,-0.014868139289319515,0.00022274276125244796,0.0010804906487464905,-0.03185618296265602,-0.06849130988121033,-0.005673895590007305,-0.00042857465450651944,0.009990978986024857,0.005943959578871727,0.04181509464979172,0.025790730491280556,-0.004317429848015308,-0.025421928614377975,-0.01886242814362049,-0.0002433760673739016,-0.01346270926296711,-0.009632156230509281,-0.011355607770383358,0.0072364602237939835,-0.03141765296459198,-0.03032902628183365,-0.011150486767292023,-0.0015026468317955732,-0.01615068130195141,-0.004153689835220575,0.0009818545076996088,0.02950049191713333,-0.07064280658960342,-0.10421621054410934,-0.03989160805940628,-0.006028082221746445,0.003124750917777419,-0.020236453041434288,-0.016179967671632767,-0.024129942059516907,-0.016112154349684715,0.014343010261654854,0.024077849462628365,0.005603932309895754,-0.035024821758270264,-0.044722042977809906,-0.006170365493744612,-0.02813054993748665,-0.0344778448343277,0.023774389177560806,0.032490864396095276,0.03341088443994522,-0.01596166007220745,-0.0244744922965765,-0.019513804465532303,0.032540399581193924,0.011562895029783249,-0.046752408146858215,-0.0086177047342062,-0.04584089294075966,-0.015962347388267517,-0.03364565223455429,-0.02497853897511959,0.012427694164216518,0.03952649608254433,0.029164595529437065,0.01733357273042202,-0.048909761011600494,-0.03774246945977211,-0.006100899539887905,0.02418532781302929,0.01878410577774048,0.03424733504652977,0.016145411878824234,0.0005383800016716123,0.008916612714529037,0.03357725590467453,0.07634077966213226,0.022412283346056938,0.018680669367313385,-0.016983382403850555,0.0016789119690656662,0.01941055618226528,-0.02090146765112877,0.006324730347841978,0.031308021396398544,0.022630183026194572,0.04029488191008568,0.0001581684045959264,-0.04964579641819,0.019832611083984375,-0.005162965971976519,-0.0033603778574615717,-0.03883277252316475,-0.04332682862877846,-0.017985202372074127,-0.009773154743015766,-0.03503306582570076,0.02828502282500267,0.037718795239925385,0.010819860734045506,0.04909198358654976,0.03292560204863548,0.0013069958658888936,-0.028429064899683,-0.010923156514763832,-0.028697019442915916,0.008726214990019798,0.02320769615471363,-0.022847773507237434,-0.0019129820866510272,-0.008530404418706894,0.009853928349912167,0.013370368629693985,-0.02116495370864868,-0.019648464396595955,-0.05761553347110748,-0.04775482788681984,-0.015678582713007927,-0.023591792210936546,-0.02890773117542267,0.025263682007789612,0.012573804706335068,0.01205897144973278,0.012639089487493038,0.005426206160336733,0.0071191852912306786,0.004536226857453585,0.018033919855952263,-0.012569103389978409,-0.05460936203598976,-0.004149693995714188,0.0017184307798743248,-0.017159879207611084,-0.03795799985527992,0.018863460049033165,0.004636535421013832,-0.00011339422781020403,-0.0179339237511158,-0.0017832547891885042,-0.017116187140345573,0.008251272141933441,0.022763323038816452,-0.0342271514236927,-0.017915116623044014,-0.013425355777144432,0.025090493261814117,0.007438660133630037,-0.056981101632118225,-0.032617490738630295,-0.00498233875259757,-0.00023689912632107735,0.00887380912899971,-0.05284593626856804,-0.008242950774729252,-0.010588997043669224,-0.008707116357982159,0.01823095791041851,-0.010904654860496521,-0.02522912062704563,0.0026649299543350935,0.03318111598491669,0.01879005692899227,0.036586910486221313,0.05972657725214958,0.031244952231645584,-0.04692146182060242,-0.12331902980804443,-0.10122581571340561,-0.037069834768772125,0.0058087012730538845,-0.02712872251868248,-0.026839662343263626,-0.004449526779353619,-0.032173044979572296,-0.020468877628445625,0.0824282318353653,0.014745360240340233,-0.006219848524779081,-0.026041271165013313,0.02122417278587818,0.04690149426460266,0.005601746030151844,-0.006523780059069395,0.06133690103888512,0.03590679168701172,7.62805575504899e-05,0.05434891954064369,0.014077773317694664,-0.07594858109951019,-0.07239795476198196,0.009454760700464249,-0.08057812601327896,-0.10930617898702621,0.002397178905084729,0.017477497458457947,-0.06682080030441284,-0.0464712493121624,-0.02431236393749714,0.013327248394489288,0.027413448318839073,-0.017697231844067574,0.02350773848593235,-0.041558217257261276,-0.030405843630433083,0.025176072493195534,-0.008377588354051113,0.007344215176999569,0.03883562982082367,0.03205333277583122,0.009472179226577282,0.012563977390527725,0.020122196525335312,0.012809625826776028,-0.041373275220394135,-0.027033556252717972,-0.07060439139604568,-0.08609520643949509,-0.05263058468699455,0.00043135654414072633,-0.01225261203944683,-0.03050708770751953,-0.03119847923517227,0.017025118693709373,0.0014312260318547487,0.054820701479911804,-0.04212314635515213,-0.0295792818069458,-0.025394560769200325,0.01161158923059702,-0.009465038776397705,0.0011714963475242257,-0.0037004100158810616,-0.011290001682937145,0.051740746945142746,0.036158591508865356,0.018847789615392685,-0.0065379333682358265,-0.07427127659320831,-0.06138638034462929,-0.04799596220254898,0.006273137405514717,-0.011291030794382095,-0.06160560995340347,0.018458057194948196,-0.01787520758807659,-5.168277129996568e-05,0.031370699405670166,0.003443435300141573,0.035833846777677536,0.0532030314207077,-0.00035983629641123116,0.015267286449670792,0.008965067565441132,-0.02510184794664383,-0.013742937706410885,-0.010293952189385891,-0.004462999291718006,-0.02909582294523716,-0.03513021767139435,-0.05484193563461304,0.005214945878833532,-0.027944769710302353,-0.005954576190561056,0.04039960354566574,0.0067243571393191814,-0.04634127765893936,-0.03894023224711418,-0.021200748160481453,0.01890576258301735,0.0512310229241848,-0.01876608468592167,-0.012134106829762459,0.051680322736501694,0.037743501365184784,-0.04150547459721565,-0.0013672502245754004,-0.006625084206461906,0.0009735262137837708,-0.0037128254771232605,-0.024038728326559067,-0.021518627181649208,-9.940066956914961e-05,0.030054818838834763,0.01456483919173479,0.0002844303089659661,-0.024398082867264748,-0.04293582960963249,0.035670410841703415,0.026205003261566162,0.004600119311362505,-0.01688554510474205,-0.02982727251946926,0.014539449475705624,0.03677375614643097,-0.007406687829643488,0.011110197752714157,0.01998072676360607,-0.020448677241802216,0.00044456744217313826,-0.01009706687182188,-0.04530011862516403,-0.04446535184979439,-0.028789054602384567,0.008971785195171833,-0.007796758320182562,0.002515883184969425,-0.0009591804118826985,-0.04558996483683586,-0.024407271295785904,-0.03846731036901474,0.049136340618133545,0.062200091779232025,-0.02686566859483719,-0.030498741194605827,-0.014529835432767868,-0.016377918422222137,0.0021658670157194138,0.004687981214374304,0.04842298850417137,-0.026286808773875237,-0.009893396869301796,-0.02231610007584095,-0.013672389090061188,0.002161500509828329,-0.019345954060554504,-0.005157837178558111,-0.06332135945558548,-0.03775298595428467,-0.012997169978916645,-0.01748749241232872,-0.029217110946774483,-0.043302711099386215,0.020307142287492752,0.058191388845443726,0.004309655632823706,-0.04481591284275055,-0.05837677791714668,-0.03381362929940224,-0.01878196746110916,-0.023789305239915848,0.01764444261789322,0.008368812501430511,-0.0036724298261106014,-0.016584044322371483,-0.004413113929331303,0.007983239367604256,0.03195098415017128,-0.015479265712201595,-0.018884658813476562,0.009502227418124676,-0.06245607137680054,-0.08205484598875046,-0.03912355750799179,-0.01811663992702961,0.018918214365839958,0.03969091922044754,0.07001236826181412,0.04149817302823067,-0.010281364433467388,0.000648357265163213,0.011731934733688831,-0.0013424481730908155,-0.0007820602040737867,0.0016307056648656726,-0.005262470804154873,-0.0006869546486996114,-0.04929511994123459,0.01625499129295349,-0.01571309007704258,0.043057799339294434,0.006048364564776421,-0.03359304368495941,-0.08248517662286758,-0.0810791552066803,-0.04894321411848068,-0.07989984005689621,-0.05971594899892807,0.001828820793889463,0.0190313458442688,0.056077830493450165,0.055121488869190216,0.061417240649461746,0.05290580168366432,0.059693414717912674,0.029768873006105423,0.001312496024183929,-0.03387600556015968,-0.02828819863498211,0.001215982949361205,0.015448102727532387,0.06836102157831192,0.017431752756237984,-0.0013850787654519081,0.011155244894325733,-0.027121061459183693,-0.04668605327606201,-0.0680675357580185,-0.05030869320034981,-0.021641330793499947,-0.035198476165533066,-0.05293090268969536,-0.038338351994752884,0.02322874777019024,0.02109980583190918,0.06909951567649841,0.07849960029125214,0.08774649351835251,0.07982419431209564,0.05263745039701462,-0.027968458831310272,-0.028405869379639626,0.010470624081790447,-0.010923262685537338,0.003106647403910756,0.02265002764761448,0.01373235508799553,-0.013713413849473,-0.03810438886284828,-0.009025398641824722,-0.031579501926898956,-0.010571221821010113,-0.028010237962007523,-0.005794305354356766,-0.0238469447940588,-0.037531666457653046,-0.03986585512757301,0.015147858299314976,0.05537007004022598,0.0052049290388822556,0.08779416978359222,0.10339034348726273,0.04995506629347801,0.01539374515414238,0.015163760632276535,0.03553645685315132,-0.011044567450881004,-0.016131000593304634,-0.02047937922179699,-0.008685608394443989,-0.007341466844081879,-0.04162999242544174,-0.006365342531353235,-0.0022283405996859074,0.008008182980120182,0.01597757264971733,-0.008639435283839703,-0.03941205516457558,-0.029777050018310547,0.0026878931093961,0.03613842651247978,0.024794328957796097,0.03392123803496361,0.09138543158769608,0.1079290360212326,0.0864206850528717,0.043639425188302994,-0.00184529775287956,-0.0019596670754253864,0.001281260047107935,-0.004845422692596912,-0.02013072744011879,0.010105546563863754,0.006974404212087393,0.0045875501818954945,0.02097358927130699,0.044954437762498856,-0.011594688519835472,-0.009227784350514412,-0.013319886289536953,-0.02124069817364216,-0.03949951007962227,-0.04480515792965889,-0.10487422347068787,-0.13207386434078217,-0.018703490495681763,0.05841970071196556,0.02813345193862915,0.06700926274061203,0.03741798177361488,-0.039578475058078766,-0.053470462560653687,-0.03665922209620476,0.021551840007305145,0.03083130158483982,0.03310662508010864,0.00034332857467234135,-0.047925181686878204,-0.012097598984837532,-0.011708536185324192,0.014912690967321396,-0.024709919467568398,0.021960444748401642,0.015725964680314064,-0.030089356005191803,0.002284002024680376,0.009444927796721458,0.030037160962820053,-0.0002719186304602772,-0.08784454315900803,-0.07981089502573013,0.0010228315368294716,-1.4216679119272158e-05,-0.06520410627126694,0.011614319868385792,-0.016659295186400414,0.054004449397325516,-0.0493280403316021,0.009058743715286255,-0.03338495269417763,0.031410496681928635,-0.03284715488553047,-0.0772833377122879,-0.01885329559445381,-0.09181230515241623,-0.026818206533789635,0.03934602066874504,0.024816803634166718,-0.014460672624409199,-0.03380053862929344,-0.06241988390684128,-0.04338976368308067,-0.020173218101263046,-0.051543913781642914,-0.11843046545982361,-0.045915424823760986,-0.0013210021425038576,-0.04234207421541214,-0.0766034945845604,-0.04076876863837242,0.03289869427680969,0.0010592166800051928,-0.019497614353895187,-0.023332912474870682,-0.03388461843132973,-0.1071712002158165,-0.03974524140357971,-0.08080162107944489,-0.013294041156768799,0.03657441958785057,-0.05249723419547081,0.0018841959536075592,-0.07199295610189438,-0.016687676310539246,-0.05963738635182381,-0.0703931450843811,-0.032286953181028366,-0.0492202453315258,-0.05032261088490486,-0.07505664229393005,-0.05522751063108444,-0.054553233087062836,-0.018408287316560745,0.0014407263370230794,-0.011829869821667671,0.00652286084368825,0.019511422142386436,-0.017961816862225533,-0.03542030230164528,-0.10890476405620575,-0.15085123479366302,-0.05981303006410599,-0.02588706836104393,-0.014008024707436562,-0.006039704196155071,-0.04972507432103157,-0.03748449310660362,-0.0008488016901537776,-0.029198380187153816,-0.039403464645147324,-0.05109912529587746,-0.036036692559719086,-0.041275590658187866,-0.06396079808473587,-0.08387640863656998,-0.054312482476234436,-0.03458904102444649,0.00772371469065547,0.016650022938847542,0.011467907577753067,-0.001092978985980153,-0.04607520252466202,-0.0023390764836221933,0.010183494538068771,0.04382235184311867,-0.046447474509477615,-0.036861732602119446,-0.11444182693958282,-0.05102786049246788,-0.08632936328649521,-0.024565566331148148,0.006919842679053545,-0.0026141786947846413,-0.031086990609765053,-0.014399753883481026,0.01707623526453972,-0.02850293554365635,-0.027352942153811455,-0.06370193511247635,-0.041108909994363785,-0.03001895733177662,-0.011126335710287094,-0.026092009618878365,-0.0013488584663718939,0.0048227799125015736,0.027832679450511932,0.020043985918164253,0.073824942111969,0.031320322304964066,-0.041270531713962555,-0.0291119534522295,-0.07769252359867096,-0.01920211687684059,-0.08768818527460098,-0.05001115798950195,0.012269117869436741,0.010496873408555984,-0.007901351898908615,0.038299042731523514,0.040648773312568665,-0.0040247999131679535,-0.03475739806890488,-0.03590270131826401,0.02418414130806923,0.023944010958075523,0.037189699709415436,0.014601258561015129,0.026722358539700508,0.03699541464447975,0.06307307630777359,0.03867911174893379,0.05606306344270706,0.06969953328371048,0.02617606706917286,0.03462480381131172,-0.010976341553032398,-0.004011276178061962,-0.051997244358062744,-0.013373022899031639,0.0054965997114777565,-0.0008376619662158191,0.015068731270730495,0.013885943219065666,0.029818560928106308,0.011572225950658321,0.015660008415579796,0.007280644495040178,0.027654403820633888,0.006751961074769497,0.012865343131124973,0.029673749580979347,0.029760178178548813,0.04561858996748924,0.05186647176742554,0.07429181039333344,0.03227132558822632,0.04982805624604225,0.03454168885946274,-0.02477980963885784,-0.056280363351106644,0.017907526344060898,-0.002025894122198224,0.007588361389935017,0.01991870068013668,0.0055650025606155396,0.016948876902461052,0.009763795882463455,0.016390344128012657,0.023781945928931236,0.00846825260668993,-0.002753345062956214,-0.044871989637613297,0.016407372429966927,0.008819994516670704,0.041320789605379105,0.03993988782167435,-0.0019810283556580544,0.016669804230332375,0.034118276089429855,0.04132727161049843,0.04479698836803436,0.01833406277000904,-0.02694150060415268,-0.01516401581466198,0.03444423899054527,-0.02380005083978176,-0.011833591386675835,0.02527485229074955,0.026393264532089233,0.011273677460849285,0.01970735751092434,-0.0006491075619123876,0.011878622695803642,0.0004581453395076096,-0.012060161679983139,-0.044618669897317886,0.00598175311461091,0.011071027256548405,0.043580420315265656,0.043316733092069626,0.016844725236296654,-0.0010796005371958017,0.041364699602127075,0.0712258443236351,0.06442199647426605,0.051292166113853455,0.031423598527908325,-0.001726222224533558,0.023605134338140488,-0.03633972629904747,-0.027650659903883934,0.016299167647957802,0.023973451927304268,-0.009845443069934845,-0.011601313017308712,0.011809651739895344,-0.017386866733431816,0.0006971641560085118,-0.00942388828843832,-0.04883623495697975,-0.029467295855283737,0.029300058260560036,0.05396636575460434,0.051595550030469894,0.06543051451444626,0.025404198095202446,0.039751723408699036,0.015047863125801086,0.052618786692619324,0.08315964043140411,0.013848947361111641,-0.03784063830971718,-0.021647298708558083,0.002274142811074853,-0.0018485169857740402,0.018160302191972733,0.018485959619283676,-0.044000864028930664,-0.00512228487059474,0.000928975292481482,-0.010682355612516403,-0.0035973582416772842,-0.04522981122136116,-0.052396390587091446,-0.07142428308725357,-0.05154192075133324,0.004764699377119541,0.026952972635626793,0.01506649050861597,0.0017676845891401172,0.016858452931046486,0.026266686618328094,0.03230686113238335,0.034540075808763504,-0.016189370304346085,-0.07170279324054718,-0.04492457956075668,-0.026737522333860397,0.04805653169751167,0.024726632982492447,0.02522144839167595,-0.014667012728750706,-0.04982626810669899,-0.02433842420578003,-0.020844509825110435,0.0017227064818143845,-0.04741048067808151,-0.05227610468864441,-0.07533549517393112,-0.05518775433301926,-0.020934779196977615,0.023652980104088783,0.02323930151760578,0.007496337406337261,0.03280460089445114,0.012060027569532394,-0.0025777267292141914,0.05021831765770912,-0.04835696145892143,-0.0591595433652401,-0.05105084925889969,-0.017151672393083572,0.05025646090507507,0.018723569810390472,0.03355257958173752,0.01482975110411644,-0.017198650166392326,0.017241347581148148,-0.002705368911847472,-0.026423992589116096,-0.03945577144622803,-0.08164788037538528,-0.062845878303051,-0.03734583035111427,-0.026565032079815865,-0.025961343199014664,-0.015521887689828873,0.023638272657990456,-0.008261780254542828,0.011035577394068241,0.006790545303374529,0.04252641648054123,-0.029998552054166794,-0.051970165222883224,-0.033484894782304764,0.016755977645516396,0.03695395588874817,0.03846989944577217,0.02096206694841385,0.025438217446208,0.022433623671531677,-0.006359262391924858,-0.057730961591005325,-0.04841318354010582,-0.06767712533473969,-0.08839082717895508,-0.07993287593126297,-0.03866500407457352,-0.061118777841329575,-0.05687228962779045,-0.06703581660985947,-0.007402792107313871,0.01422890741378069,-0.0032992300111800432,0.011226627044379711,0.00010868278332054615,0.004980242345482111,0.005280815064907074,-0.02457336336374283,0.04255286604166031,0.02750283293426037,0.03514130413532257,0.02356177754700184,0.014888946898281574,0.010950513184070587,0.010695599019527435,-0.041039854288101196,-0.08343362808227539,-0.07076574862003326,-0.0644531399011612,-0.07860811054706573,-0.08278422057628632,-0.06128576025366783,-0.02782859094440937,-0.015361782163381577,-0.00964468251913786,-0.00229990785010159,0.009281610138714314,0.021997040137648582,-0.03934144228696823,0.03231383115053177,-0.00084143434651196,-0.006285699084401131,0.032254040241241455,0.048642635345458984,0.020309122279286385,0.01810009963810444,0.013468883000314236,0.01695937290787697,0.03834439441561699,-0.0008358430932275951,-0.026092737913131714,-0.07155110687017441,-0.07673804461956024,-0.04350947216153145,-0.024135887622833252,-0.05500031262636185,0.005154868587851524,-0.02368759736418724,-0.054917044937610626,-0.022873617708683014,-0.014308732002973557,0.003153799567371607,-0.02186734788119793,-0.038208652287721634,-0.09368642419576645,-0.03132546693086624,0.009583606384694576,0.026084747165441513,0.0005933709908276796,0.011612591333687305,0.02973911166191101,0.0035915409680455923,0.036842942237854004,0.03686157241463661,0.004662209656089544,-0.039043128490448,-0.0628146305680275,-0.04952544718980789,-0.04071265459060669,-0.029353009536862373,-0.00041971352766267955,-0.02904411591589451,-0.022855037823319435,-0.001031183055602014,0.002021500375121832,0.004085226450115442,-0.02125846967101097,-0.029132846742868423,-0.07349956035614014,0.008544668555259705,0.02635614201426506,0.023771440610289574,0.009677852503955364,-0.0037948796525597572,0.013469845056533813,0.014427888207137585,0.033006999641656876,0.038962092250585556,0.021428152918815613,-0.01176235917955637,-0.06188887730240822,-0.045329149812459946,-0.03231188654899597,-0.038961850106716156,-0.02738146297633648,-0.05014602094888687,-0.014792555011808872,0.0010380069725215435,-0.0029637631960213184,-0.029133161529898643,-0.04980812594294548,-0.07933858036994934,-0.04656299948692322,0.006978441961109638,0.011189019307494164,0.030381372198462486,0.025325169786810875,0.01039394922554493,0.007989645935595036,0.0019969455897808075,-0.018280239775776863,0.017215978354215622,0.0033645303919911385,0.017416244372725487,-0.015839695930480957,-0.04300159588456154,-0.04375029727816582,-0.06445837020874023,-0.054575223475694656,-0.023721802979707718,-0.0224485844373703,-0.008780677802860737,0.003029803279787302,-0.055183153599500656,-0.11565905064344406,-0.0546627938747406,-0.08578284829854965,0.014708375558257103,0.005149259231984615,-0.010509083978831768,0.011703920550644398,-0.005519041325896978,0.001451306976377964,0.00349929416552186,0.009129967540502548,0.013021585531532764,0.0038322051987051964,0.01760418713092804,0.043456438928842545,0.0013016550801694393,-0.014227371662855148,-0.014233077876269817,-0.02151571772992611,-0.044625040143728256,-0.030196690931916237,-0.023508721962571144,-0.005623057018965483,-0.06779126822948456,-0.10735523700714111,-0.0903700739145279,-0.10850334167480469,-0.002300723921507597,0.008489837870001793,0.007342523895204067,2.2918859031051397e-05,0.03645775467157364,0.03166571259498596,0.015882184728980064,0.006387316156178713,0.019970614463090897,0.023512691259384155,0.02496117539703846,0.03344793990254402,0.03275787830352783,0.011303398758172989,0.0170848798006773,-0.0002915567602030933,-0.01757633127272129,-0.0009242855594493449,0.0025693862698972225,0.006683738436549902,-0.015110914595425129,-0.04830862209200859,-0.07549019157886505,-0.04326711967587471,-0.02302766591310501,0.013062264770269394,-5.065740697318688e-05,-0.001891544321551919,0.00882555078715086,0.006029863376170397,0.019431570544838905,0.051029954105615616,0.027088971808552742,0.027082055807113647,0.030588293448090553,0.028287718072533607,0.04343302920460701,0.04570793733000755,0.003313018474727869,0.016615023836493492,0.02226400002837181,-0.012354469858109951,0.008103804662823677,-0.009985813871026039,-0.037719786167144775,-0.07797859609127045,-0.0847015529870987,-0.05796261876821518,-0.026987150311470032,-0.03029724210500717,0.040321316570043564,0.03993638604879379,0.014878179877996445,0.0072710528038442135,0.0241373460739851,-0.00634052325040102,0.01924043707549572,0.02632269635796547,0.027282804250717163,0.02295585721731186,0.006849738769233227,0.012886718846857548,-0.00813314039260149,0.0015527878422290087,-0.03838527202606201,-0.04883424565196037,-0.085735023021698,-0.07003253698348999,-0.1076839417219162,-0.14210335910320282,-0.09312611073255539,-0.06131399795413017,-0.048541825264692307,-0.034331705421209335,-0.06360646337270737,0.046018101274967194,-0.03372294083237648,-0.06243954971432686,-0.0421740785241127,-0.006587094161659479,0.015836277976632118,-0.06018447503447533,-0.005843966268002987,-0.06380472332239151,-0.06031228229403496,-0.065100759267807,-0.09397526830434799,-0.1319224089384079,-0.1395559161901474,-0.1603015661239624,-0.15705707669258118,-0.14417044818401337,-0.1542453169822693,-0.12926046550273895,-0.06424543261528015,-0.06487394124269485,-0.019966524094343185,0.010399587452411652,-0.011168408207595348,-0.03672938421368599,-0.07250871509313583,-0.09667926281690598,-0.05025499314069748,0.022611042484641075,0.06442398577928543,0.03366591036319733,0.004168742801994085,-0.004090864211320877,0.009095266461372375,-0.011208309791982174,-0.007417320739477873,-0.05241549387574196,-0.008346322923898697,0.0149071104824543,-0.00046377646503970027,-0.01772380992770195,-0.01050646137446165,0.03433336317539215,-0.015203995630145073,-0.0757032185792923,-0.030843306332826614,-0.06485157459974289,-0.012622487731277943,-0.02274809032678604,-0.03683951124548912,0.0011876312782987952,-0.001633396721445024,-0.0024123864714056253,-0.014217874966561794,-0.028856631368398666,0.03150156885385513,0.021308235824108124,-0.010217096656560898,-0.004310887306928635,0.00774985458701849,-0.011820660904049873,-0.044460974633693695,-0.05600322410464287,-0.024232273921370506,0.011944763362407684,0.009182136505842209,-0.019746333360671997,-0.044877249747514725,-0.028989888727664948,0.012160579673945904,-0.02989831380546093,-0.016876544803380966,-0.04965779557824135,0.006521365139633417,0.012943880632519722,0.00956078339368105,0.0019132287707179785,-0.01807805709540844,0.0025685166474431753,0.006847627926617861,0.010973420925438404,0.05356815829873085,-0.003355299821123481,-0.026360679417848587,-0.0033512823283672333,-0.002110424917191267,0.0026639036368578672,-0.03838614374399185,-0.030360139906406403,0.000326473789755255,0.009162559174001217,-0.0366058386862278,-0.1132776215672493,-0.00457379687577486,-0.023143069818615913,-0.034400664269924164,-0.03577178344130516,-0.031455785036087036,-0.04934348911046982,-0.06257498264312744,-0.0477975569665432,-0.05405101925134659,0.0002757408656179905,0.018964247778058052,0.011218283325433731,0.028364283964037895,0.01431305892765522,-0.007229299750179052,-0.038258083164691925,-0.014030263759195805,0.017491746693849564,0.010626669973134995,-0.0009702359093353152,-0.018385151401162148,0.030529092997312546,0.017434803768992424,-0.014921030029654503,-0.03262782096862793,-0.049474868923425674,-0.026748936623334885,-0.05275234952569008,-0.07797695696353912,-0.0311961080878973,-0.03299332782626152,-0.04139234498143196,-0.0459444634616375,-0.0528566911816597,-0.0493759922683239,-0.018860068172216415,0.006479877047240734,0.021367281675338745,0.029357511550188065,-0.01723511517047882,-0.034478627145290375,0.0006628744304180145,0.01654825732111931,-0.012237360700964928,0.02772771567106247,0.05133412778377533,0.0523579940199852,-0.029639869928359985,-0.039744675159454346,-0.009279116056859493,-0.015042975544929504,-0.023382041603326797,-0.06812404096126556,-0.04539179429411888,-0.024486135691404343,-0.04547746106982231,-0.05660589411854744,-0.028703946620225906,-0.01986299827694893,-0.0013671297347173095,0.029494842514395714,0.032108601182699203,0.020503971725702286,-0.012920125387609005,-0.004800889641046524,0.038339193910360336,0.004617178812623024,-0.004587610252201557,0.02474663220345974,0.038547467440366745,0.06345168501138687,0.022863293066620827,-0.0025224604178220034,0.003772865515202284,0.0151652367785573,-0.015382016077637672,-0.0528859980404377,-0.08316895365715027,-0.056913673877716064,-0.03911436349153519,-0.03739841282367706,-0.055703192949295044,-0.057040225714445114,-0.013601509854197502,-0.00754608353599906,-0.03794271871447563,0.003946337383240461,0.053093936294317245,0.03106561303138733,0.06360623240470886,0.01625927910208702,-0.01872331276535988,0.023651381954550743,0.04781864583492279,0.07376926392316818,-0.0004777454596478492,-0.004111262038350105,-0.023598894476890564,-0.05267927423119545,-0.07356326282024384,-0.09266231954097748,-0.045479584485292435,-0.03929828852415085,-0.05941152572631836,-0.03211270272731781,-0.03225317224860191,-0.013451180420815945,-0.019482841715216637,-0.05972915142774582,-0.041328687220811844,-0.032350070774555206,0.02013522759079933,0.04133709520101547,0.03306509926915169,0.029893677681684494,0.034871555864810944,0.02996920421719551,0.04845535382628441,0.052275385707616806,0.04913468658924103,-0.044242940843105316,-0.02156652882695198,-0.03338146582245827,-0.06386353820562363,-0.051650386303663254,-0.014961476437747478,-0.03836536779999733,-0.04788487032055855,-0.018781473860144615,0.013528140261769295,0.009432047605514526,-0.01830962859094143,-0.03046942874789238,-0.04347261041402817,-0.004372312221676111,0.038710352033376694,0.03869611397385597,0.033171396702528,0.02607649378478527,0.04035775735974312,0.03866824507713318,0.0459245927631855,0.0735592171549797,0.061314743012189865,0.006122061051428318,-0.036374371498823166,-0.015422619879245758,-0.08859755843877792,-0.04880230501294136,-0.0005368375568650663,-0.034259092062711716,-0.02575254812836647,0.043059881776571274,0.011172144673764706,-0.017640765756368637,0.0009581053745932877,-0.029700614511966705,-0.027241716161370277,-0.018201664090156555,-0.009702086448669434,-0.011335018090903759,0.04454585909843445,0.0391584113240242,0.03854263201355934,0.040643297135829926,0.04919002577662468,0.05621771141886711,0.06049748882651329,-0.003679615678265691,-0.027052730321884155,-0.04542560502886772,-0.007089054677635431,-0.008170951157808304,-0.0022214334458112717,0.0017462711548432708,0.03763779625296593,0.02077767252922058,0.0013464080402627587,-0.012070986442267895,0.03369845077395439,0.06773939728736877,0.01577114686369896,0.0007258245022967458,0.01318581122905016,0.00288020190782845,-0.0019928014371544123,0.01941361092031002,0.03314077481627464,0.046729475259780884,0.06674699485301971,0.05542891100049019,0.06403204053640366,-0.020059941336512566,-0.025978388264775276,-0.05642135441303253,-0.05067859962582588,-0.02335948869585991,0.012547744438052177,0.0643407478928566,0.05674825608730316,0.005624663084745407,0.05873916670680046,0.02826756238937378,0.047473564743995667,0.08240347355604172,0.030934536829590797,-0.026263760402798653,-0.006793567445129156,0.003190719522535801,-0.020128808915615082,-0.003893813816830516,0.008206862024962902,0.013566700741648674,0.04835487902164459,0.06998766213655472,0.06356825679540634,-0.03180396556854248,-0.08194227516651154,-0.1069430559873581,-0.07498092949390411,-0.012626777403056622,0.03556264191865921,0.025853371247649193,0.05108794942498207,0.049962207674980164,0.05377093702554703,0.08394332230091095,0.08533897250890732,0.05547914654016495,0.04132942482829094,-0.007932260632514954,-0.02811930887401104,0.011515618301928043,0.00793908629566431,0.00891984160989523,0.00986056961119175,0.017404964193701744,0.05098685622215271,0.06364226341247559,0.05278796702623367,-0.06121477112174034,-0.08937718719244003,-0.06295104324817657,-0.05139721930027008,0.02285977080464363,0.047750324010849,0.02073306404054165,0.03914743289351463,0.02822715789079666,0.07878509908914566,0.09756293892860413,0.10795645415782928,0.03280270844697952,-0.007330867927521467,-0.053450360894203186,-0.016584578901529312,0.00554902758449316,0.0323670320212841,0.0009266374399885535,0.008165963925421238,0.013934100978076458,0.04021257162094116,0.02361266314983368,0.0618741549551487,-0.09609673917293549,-0.05529603734612465,-0.021616002544760704,0.006861202884465456,0.03530807048082352,0.033593881875276566,0.027173709124326706,0.07455224543809891,0.04829764738678932,0.07071537524461746,0.07370718568563461,0.09310469031333923,0.018577583134174347,-0.013064595870673656,-0.048261988908052444,-0.020003488287329674,0.012045685201883316,0.011851378716528416,0.0006441468140110373,-0.0024046627804636955,0.04294317960739136,-0.0009213343728333712,0.016906922683119774,0.07391487061977386,-0.06570961326360703,-0.09117541462182999,-0.15394844114780426,-0.011886744759976864,0.08103077858686447,0.060367401689291,0.04950863495469093,0.06552664190530777,0.02234620973467827,0.04490288347005844,0.08296075463294983,0.09885431826114655,0.034082282334566116,-0.056082844734191895,-0.04959797486662865,0.002456359565258026,0.0035930899903178215,0.004642106592655182,-0.03258075937628746,0.02172825112938881,0.03436223044991493,0.00955859012901783,0.03518512099981308,0.08512811362743378,-0.01740129105746746,-0.12267986685037613,-0.06917960196733475,-0.00958230160176754,0.07188787311315536,0.0569789744913578,0.05592823401093483,0.07346706837415695,0.03551803156733513,0.051912155002355576,0.10433726757764816,0.08509297668933868,0.004292919300496578,-0.07056146115064621,-0.03266913443803787,-0.013459008187055588,-0.0061539351008832455,0.014913280494511127,-0.008373376913368702,0.0034134341403841972,-0.020646683871746063,-0.017102239653468132,0.038488298654556274,0.03327346593141556,-0.07771355658769608,-0.0858270525932312,0.020533310249447823,0.07325012981891632,0.031700558960437775,0.02025420218706131,0.07408305257558823,0.06162293627858162,0.05319715291261673,0.06143537908792496,0.08098096400499344,0.0369778648018837,-0.009580131620168686,-0.07112700492143631,-0.05310008302330971,-0.0057457806542515755,0.010676348581910133,-0.010073257610201836,-0.00290318694896996,-0.005339094437658787,-0.024708755314350128,0.0167059525847435,0.024650288745760918,0.0027552032843232155,-0.07582244277000427,-0.0787520706653595,-0.0008496078662574291,-0.01730995625257492,0.03483052924275398,0.01808491349220276,0.05472284555435181,0.0726170539855957,0.06881101429462433,0.06146429851651192,0.03019232116639614,0.028069062158465385,-0.02696266770362854,-0.06252047419548035,-0.016139712184667587,-0.009239401668310165,-0.0037742408458143473,-0.020120980218052864,-0.013558183796703815,-0.029840312898159027,-0.001964342314749956,0.02695287950336933,0.02187405340373516,-0.010550538077950478,-0.02606196142733097,0.02658962644636631,0.015657728537917137,-0.029534749686717987,0.08060833811759949,-0.0063868239521980286,0.01916651800274849,0.08413103222846985,0.05494867265224457,0.06103528290987015,0.036264948546886444,-0.024738231673836708,-0.03942560777068138,-0.020182864740490913,-0.012829063460230827,-0.03370920941233635,-0.04949599504470825,-0.02431354485452175,-0.00862763449549675,-0.03424478694796562,-0.02114194817841053,-0.01193762756884098,-0.014898320659995079,-0.056414537131786346,-0.015184950083494186,0.0074691977351903915,0.05345739424228668,0.05581654980778694,0.08399289846420288,0.03681604936718941,0.050177231431007385,0.10927342623472214,0.12733933329582214,0.04554346203804016,0.03422218933701515,0.029011866077780724,-0.02526705525815487,-0.05774056538939476,-0.0632682591676712,-0.02762211486697197,-0.042801257222890854,-0.010179885663092136,-0.05118265375494957,-0.03325561061501503,-0.02767805941402912,-0.004208558704704046,-0.00982926320284605,-0.08744235336780548,-0.025826843455433846,-0.019437581300735474,0.00635823467746377,0.005866828840225935,-0.04164396598935127,-0.0032424728851765394,0.04752306640148163,0.04397004097700119,0.0496852807700634,-0.013083881698548794,0.030562423169612885,0.028540482744574547,-0.053461313247680664,-0.051553744822740555,-0.03656366467475891,-0.04453663155436516,-0.037958551198244095,-0.04644732549786568,-0.05483679845929146,-0.08445180207490921,-0.07178804278373718,0.010954461060464382,0.007118981331586838,-0.10720489174127579,-0.005418214946985245,-0.007056628819555044,0.03269744664430618,0.06995391100645065,0.0031292736530303955,0.023525826632976532,-0.051357537508010864,-0.02932286262512207,0.03436024487018585,-0.016985833644866943,0.00269519304856658,-0.022721413522958755,-0.0649937242269516,-0.05955131724476814,-0.057726841419935226,-0.04723803699016571,-0.01703082211315632,-0.018042143434286118,-0.07675722241401672,-0.10015011578798294,-0.05895638093352318,-0.0066923764534294605,-0.006000985857099295,-0.11474822461605072,-0.0038006361573934555,-0.009540454484522343,-0.016568701714277267,-0.025797326117753983,-0.021212082356214523,-0.08241679519414902,-0.09572549909353256,-0.031094476580619812,0.04622310772538185,0.012821835465729237,0.022406112402677536,-0.004639932420104742,-0.033330038189888,-0.06906653940677643,-0.06491882354021072,-0.053031548857688904,-0.013287333771586418,-0.06027599424123764,-0.130410835146904,-0.11195141822099686,-0.09294027835130692,-0.06247837468981743,-0.11415934562683105,-0.10846538841724396,0.018738865852355957,0.020494993776082993,0.005037479568272829,0.01587904803454876,0.018246719613671303,-0.0007232266943901777,0.01492720004171133,0.005351502913981676,0.013456368818879128,-0.015454469248652458,0.014727307483553886,0.022869721055030823,0.03052191622555256,-0.010191221721470356,0.005052818451076746,0.04892371967434883,0.055799007415771484,0.03137182071805,0.013311836868524551,0.005841827020049095,0.020454907789826393,0.02216275967657566,-0.00039743605884723365,0.007348951417952776,-0.005551690235733986,0.012711968272924423,0.00926667544990778,0.021045684814453125,0.01612788438796997,0.017990658059716225,0.0052019343711435795,0.03152941167354584,0.04179046303033829,0.033933840692043304,-0.01529900636523962,-0.013313454575836658,0.025080649182200432,0.007417100947350264,-0.0018013028893619776,0.02485097013413906,0.04409869760274887,0.022512463852763176,-5.6913719163276255e-05,0.008611989207565784,0.008536226116120815,0.01722537726163864,0.0050995247438549995,-0.004423749167472124,0.006544835865497589,0.0018072151578962803,0.016098279505968094,0.015829043462872505,0.01384646911174059,0.015488211065530777,0.009074238128960133,0.026405300945043564,0.019863644614815712,-0.0071444883942604065,0.01890575885772705,0.034813303500413895,0.0018731114687398076,0.02205914445221424,0.04114431142807007,0.05177297443151474,0.023833826184272766,0.023755688220262527,0.040032267570495605,0.016756732016801834,0.03597886115312576,0.01791198179125786,-0.0013979144860059023,0.019608572125434875,0.0033454347867518663,0.011718937195837498,0.010695009492337704,0.005474966950714588,0.019372859969735146,0.0218228567391634,0.03869818523526192,0.038316480815410614,0.021863598376512527,0.05637773498892784,0.09390200674533844,0.09731069207191467,0.05287649855017662,0.025061463937163353,0.06816370040178299,0.06708917766809464,0.05706401914358139,0.041795067489147186,0.01962878927588463,0.029736358672380447,0.04584524780511856,0.030244015157222748,-0.015291018411517143,-0.0017856479389593005,0.02186407707631588,0.010809039697051048,0.011588241904973984,0.01760297454893589,-0.0036154398694634438,0.0054327091202139854,0.03738905116915703,0.04399265721440315,0.05104975402355194,0.1288502812385559,0.09317775070667267,0.06365427374839783,0.08682957291603088,0.04966958612203598,0.007683076895773411,-0.00606026453897357,0.040216635912656784,0.043049853295087814,0.039276670664548874,0.02614503912627697,0.01050691306591034,0.02018168568611145,-0.02332715131342411,0.004435467999428511,0.007979733869433403,0.014654540456831455,0.010715966112911701,0.00421588309109211,0.016823461279273033,0.03899577632546425,-0.011176086030900478,0.03296786919236183,0.07024049758911133,0.08676508069038391,0.07971254736185074,0.008372209966182709,0.07092519849538803,0.05197283998131752,0.005827414803206921,0.07760297507047653,0.03827016428112984,0.019307242706418037,0.027798110619187355,0.04735841602087021,-0.002349127782508731,-0.015492821112275124,-0.01614919677376747,0.002202271483838558,-0.002582577522844076,0.009421528317034245,0.0010652312776073813,0.0017411309527233243,0.005229356698691845,0.010362282395362854,-0.01267671212553978,0.014085035771131516,0.03125138208270073,0.013112395070493221,-0.05761055648326874,-0.012674463912844658,0.022266266867518425,0.028038064017891884,-0.023453855887055397,0.033322691917419434,-0.044554486870765686,-0.04773285984992981,0.00390883581712842,-0.055347755551338196,0.001468212460167706,-0.028191644698381424,-0.01134717371314764,-0.0203102920204401,0.026955658569931984,8.42794543132186e-05,0.010680251754820347,-0.03313653543591499,-0.005974418018013239,-0.013496903702616692,-0.006619349122047424,-0.04087476432323456,-0.018250688910484314,-0.13624344766139984,-0.10855725407600403,-0.01010122150182724,0.06991778314113617,0.11376859247684479,0.011307770386338234,0.010449079796671867,-0.06842377036809921,-0.13414239883422852,-0.04792354628443718,-0.0572204552590847,-0.010847198776900768,-0.03822777420282364,-0.05359821021556854,-0.03203807771205902,0.019386177882552147,0.010418182238936424,0.010763324797153473,-0.00847494788467884,-0.008463912643492222,-0.03968728706240654,-0.05045207217335701,-0.14931291341781616,-0.13717377185821533,-0.11720217764377594,0.005938286427408457,0.06043146923184395,0.06585079431533813,0.07401742041110992,0.08936473727226257,0.003673728322610259,-0.017907118424773216,-0.12922802567481995,-0.03143615275621414,-0.057527147233486176,-0.06332989037036896,-0.05926075205206871,-0.0396709106862545,-0.043778419494628906,0.007504791487008333,-0.0070597510784864426,0.0009441943257115781,-0.04516945779323578,-0.03545333817601204,-0.08063382655382156,-0.13206729292869568,-0.20377576351165771,-0.08371534943580627,-0.11239892244338989,-0.018704712390899658,0.0648309737443924,0.05006491020321846,0.07843726128339767,0.04748791083693504,0.03154916688799858,0.0643768459558487,-0.08852066844701767,-0.10625270009040833,-0.0780845507979393,-0.041667159646749496,-0.04100308194756508,-0.03917912021279335,-0.015955345705151558,0.0028965380042791367,-0.007426481693983078,-0.030432915315032005,-0.04819910600781441,-0.05986877530813217,-0.11207367479801178,-0.14122286438941956,-0.15351882576942444,-0.12665431201457977,-0.08001493662595749,-0.022212637588381767,-0.01220532227307558,0.006959501653909683,0.00335858971811831,0.009857003577053547,0.06505998224020004,0.0270275566726923,-0.0967680886387825,-0.16271793842315674,-0.09370867908000946,-0.055459193885326385,-0.031247518956661224,-0.05628781020641327,-0.006947116460651159,0.018651431426405907,-0.028238346800208092,-0.021163202822208405,-0.0253593847155571,-0.02496875263750553,-0.09700048714876175,-0.15001745522022247,-0.13959842920303345,-0.1290273219347,-0.08852921426296234,-0.01237572357058525,0.04437823221087456,0.034768447279930115,0.06472949683666229,0.055045053362846375,0.020028136670589447,0.008286899887025356,-0.09006928652524948,-0.1304745376110077,-0.09565947204828262,-0.08215343952178955,-0.035461511462926865,-0.039845213294029236,-0.0013764448231086135,-0.01277142483741045,-0.00955532118678093,-0.00329430028796196,-0.030009469017386436,-0.02132619358599186,-0.06907004863023758,-0.13489320874214172,-0.13663716614246368,-0.06914740800857544,-0.052578724920749664,-0.023914657533168793,0.02513210102915764,0.09579167515039444,0.07366640120744705,0.09386543929576874,0.032002925872802734,-0.060967545956373215,-0.11297508329153061,-0.11774271726608276,-0.1113557368516922,-0.0564778670668602,-0.022986553609371185,-0.019848911091685295,-0.022045837715268135,-0.015800099819898605,-0.009264624677598476,-0.0062257954850792885,-0.03646610677242279,-0.04464669153094292,-0.07376512140035629,-0.06992680579423904,-0.08299560844898224,0.007136513013392687,-0.00812138058245182,0.007165241055190563,0.0669393241405487,0.09309976547956467,0.09368495643138885,0.09263578057289124,0.016765328124165535,-0.02496962808072567,-0.10926839709281921,-0.07541392743587494,-0.04149407520890236,-0.04639747366309166,0.02302575297653675,-0.037246037274599075,0.010564818046987057,0.005376588087528944,-0.01867057755589485,-0.017311902716755867,-0.02935974672436714,-0.01783001236617565,-0.02339460887014866,-0.01749393716454506,-0.06564014405012131,0.005811796057969332,0.009767570532858372,0.057427581399679184,0.059449899941682816,0.06761014461517334,0.08123871684074402,0.06585430353879929,-0.011250782757997513,-0.05716782435774803,-0.10910563915967941,-0.08306864649057388,-0.002765212906524539,-0.027324246242642403,0.014803924597799778,-0.018038280308246613,0.007571073714643717,-0.01747956871986389,-0.009023956023156643,0.0085975406691432,0.011391988024115562,0.006463020108640194,0.010099568404257298,0.004083962645381689,0.018135957419872284,0.0291745662689209,-0.004171567969024181,0.003786938264966011,0.03357229381799698,0.03829449415206909,0.039466120302677155,0.025580817833542824,-0.027860000729560852,-0.08527784049510956,-0.12033393979072571,-0.01673108898103237,-0.017597410827875137,-0.012698587030172348,0.021574728190898895,0.006675458047538996,0.007888784632086754,-0.012840603478252888,0.007502323482185602,0.020012905821204185,0.032505523413419724,0.018692972138524055,0.014711259864270687,-0.017070936039090157,0.025817906484007835,0.0308261439204216,-0.0504230260848999,-0.020658642053604126,-0.02057945914566517,0.01198726799339056,-0.018065430223941803,-0.007535105105489492,-0.06471062451601028,-0.10792748630046844,-0.07967308163642883,-0.004356579389423132,0.0055382708087563515,0.012106120586395264,0.02272106520831585,0.01876281574368477,0.030462607741355896,0.022372020408511162,0.007481550797820091,0.033377181738615036,0.03917991742491722,0.059184059500694275,0.07266108691692352,-0.04495217278599739,-0.05993414297699928,-0.04760517552495003,-0.07831559330224991,-0.043968163430690765,-0.022919999435544014,-0.01770956441760063,-0.0647253766655922,-0.04968405142426491,-0.11401114612817764,-0.07927008718252182,-0.04584261775016785,-0.012544607743620872,0.01099068857729435,0.023889021947979927,0.02557455748319626,0.01384152751415968,0.010194304399192333,0.02165546454489231,0.018511062487959862,0.0036994731053709984,0.020008984953165054,0.040868647396564484,0.09499209374189377,0.02673647180199623,-0.04041523113846779,-0.036589525640010834,-0.0818198099732399,-0.036222852766513824,-0.03245246782898903,-0.03294912353157997,-0.03115767054259777,-0.06496512144804001,-0.0736115351319313,-0.016683155670762062,0.02909606322646141,0.013403349556028843,0.04739321768283844,0.020047100260853767,0.035224322229623795,0.03537030518054962,0.021273676306009293,0.011210115626454353,0.014889481477439404,0.009605685248970985,0.047085512429475784,0.03823750838637352,0.07000233978033066,0.04685955122113228,-0.03447793424129486,-0.0482948012650013,-0.0424068383872509,0.019427284598350525,-0.0066190361976623535,0.01419010292738676,-0.027050774544477463,0.011505539529025555,0.02136429026722908,0.05021388456225395,0.07026265561580658,0.04530221223831177,0.026398979127407074,0.05500885471701622,0.0363847091794014,0.04119158536195755,0.009058932773768902,0.028580911457538605,-0.0028627910651266575,0.008149705827236176,0.044048011302948,0.051470618695020676,0.046306073665618896,0.07507596164941788,0.04450004920363426,-0.045258644968271255,-0.015444893389940262,0.017101382836699486,0.02680899202823639,0.054726310074329376,0.0613664910197258,0.0988369807600975,0.09073392301797867,0.0663934126496315,0.07038725912570953,0.052630990743637085,0.03567945212125778,0.045538317412137985,0.020166940987110138,0.014654941856861115,0.011681423522531986,0.00579087482765317,0.010538812726736069,0.012286613695323467,0.007993469946086407,0.02480951137840748,0.02538445219397545,0.043725743889808655,0.05056000500917435,0.011593365110456944,0.01132076233625412,-0.009994530119001865,0.020134037360548973,0.060270167887210846,0.11046222597360611,0.10973172634840012,0.05192093551158905,0.06178823858499527,0.08028625696897507,0.02489546686410904,0.028884846717119217,0.021449388936161995,0.039456963539123535,0.017273643985390663,0.021915098652243614,0.004296773113310337,0.007230617571622133,0.010200027376413345,0.020768342539668083,0.03356671333312988,0.009993081912398338,-0.00034471636172384024,0.018202992156147957,0.01612015627324581,0.017206214368343353,0.015167162753641605,0.000884275883436203,0.05177921801805496,0.06681554019451141,0.02594335563480854,0.03990023955702782,0.05556455999612808,0.01980888843536377,0.014899823814630508,0.03413793817162514,0.01749112457036972,0.02729983441531658,-0.0036533758975565434,0.027950746938586235,-0.0018491707742214203,0.02134496532380581,0.01268092356622219,0.017001420259475708,0.015310159884393215,0.0235312320291996,0.02875000610947609,0.01759118214249611,0.009529766626656055,0.012806536629796028,-0.002018505008891225,0.0354778990149498,0.008361833170056343,0.044133175164461136,0.017136720940470695,0.041542164981365204,0.02012116089463234,0.02586149051785469,0.03412216529250145,0.03311324864625931,0.023290133103728294,0.013264717534184456,0.014263231307268143,0.014247064478695393,0.01775612309575081,0.005099972244352102,-0.004343441221863031,0.0003827702603302896,-0.00595158152282238,0.0058194235898554325,0.011040576733648777,0.007192893885076046,0.007886244915425777,0.01691877283155918,0.026638707146048546,0.02420305274426937,-0.012270883657038212,-0.01934961788356304,0.00753901107236743,0.01977158896625042,-0.007766492664813995,-0.04498643800616264,-0.0074904062785208225,0.02530760131776333,0.0030958056449890137,-0.0034487254451960325,0.014206336811184883,0.011493983678519726,0.006711800582706928,-0.004519242327660322,0.004342295695096254,0.0079726567491889,0.00999659113585949,0.030588466674089432,0.009628741070628166,0.019945060834288597,-0.0041033062152564526,0.0024019391275942326,0.022567324340343475,0.005266603082418442,-0.0012749864254146814,-0.021199077367782593,0.010499725118279457,0.027430815622210503,0.009584841318428516,-0.0036649545654654503,0.023380886763334274,0.003022650023922324,0.009358640760183334,0.015237709507346153,-0.011037983000278473,0.006715854629874229,-0.005438684020191431,-0.0056828842498362064,0.01586419716477394,0.009533514268696308,0.02442464977502823,0.006026232149451971,0.010695485398173332,0.00871405377984047,-0.0180192943662405,0.00829255674034357,0.008150564506649971,-0.017904220148921013,-0.028183380141854286,0.006229316350072622,0.012906141579151154,0.00032575061777606606,-0.029026873409748077,-0.026717545464634895,0.0026771132834255695,-0.027121301740407944,-0.021800698712468147,-0.027810528874397278,-0.0022158492356538773,-0.005498555023223162,0.012513842433691025,-0.0069772605784237385,0.01694270223379135,0.022841790691018105,0.01185701135545969,0.017276816070079803,0.004529342986643314,-0.015534755773842335,-0.003387981094419956,-0.029001334682106972,-0.025823181495070457,-0.002755658468231559,0.008542119525372982,0.002178964437916875,-0.017361631616950035,-0.036495231091976166,-0.07586254924535751,-0.06224687024950981,-0.07322753220796585,-0.02721954695880413,0.028433742001652718,0.007150356192141771,-0.018024863675236702,0.0076902396976947784,-0.0027206861414015293,-0.023736242204904556,0.03329063951969147,0.015027976594865322,0.026251433417201042,0.008009690791368484,0.016741884872317314,0.016611995175480843,0.002644540974870324,-0.015980519354343414,-0.025326909497380257,0.005269007291644812,-0.022091999650001526,-0.03669841215014458,-0.0632714033126831,-0.06984689831733704,-0.06378886103630066,-0.07163330912590027,-0.061532873660326004,-0.036150973290205,-0.053765919059515,-0.032083749771118164,-0.018600016832351685,0.0054559530690312386,-0.00930911023169756,-0.005767535883933306,0.01887642778456211,0.013031183741986752,0.022584013640880585,0.020688917487859726,0.03966650366783142,0.024009833112359047,0.015335692092776299,-0.013165321201086044,0.009692763909697533,0.021328674629330635,0.027073612436652184,-0.0219408106058836,-0.029398972168564796,-0.05966785177588463,-0.06443770974874496,-0.09654543548822403,-0.14812757074832916,-0.10971583425998688,-0.07246445119380951,-0.016778554767370224,-0.020758256316184998,-0.004198965150862932,0.016220375895500183,0.0018466556211933494,0.03615004941821098,0.013299399986863136,0.025110477581620216,0.03179159387946129,0.0028994609601795673,0.0071857646107673645,0.021318312734365463,0.03344275802373886,0.02660282328724861,0.0347454696893692,-0.010540847666561604,-0.03670297935605049,-0.049317024648189545,-0.06997795403003693,-0.11147341877222061,-0.13152247667312622,-0.11164571344852448,-0.08891629427671432,-0.021510176360607147,-0.05197792500257492,0.007755129132419825,0.00019068380061071366,-0.006446939427405596,0.010615822859108448,0.02810155227780342,0.0319104827940464,0.03350791707634926,-0.003585739526897669,-0.017833152785897255,0.0425921231508255,0.048580799251794815,0.018619215115904808,0.005473748315125704,-0.02817431464791298,-0.05352221429347992,-0.058257315307855606,-0.048402611166238785,-0.14222559332847595,-0.17291897535324097,-0.12015548348426819,-0.07352519035339355,-0.05042208358645439,-0.05070492997765541,-0.06378136575222015,-0.05871390551328659,-0.029843103140592575,0.0060538798570632935,-0.01219063252210617,0.03504897654056549,0.01866101659834385,-0.01197262667119503,0.01695595495402813,0.03597082197666168,0.04540735483169556,0.03355444595217705,0.013777736574411392,-0.029116148129105568,-0.07820838689804077,-0.07858452200889587,-0.06400681287050247,-0.09095964580774307,-0.12087133526802063,-0.10155916213989258,-0.1250210553407669,-0.12672553956508636,-0.08697834610939026,-0.0646643191576004,-0.06082361191511154,-0.049464959651231766,-0.0447237603366375,0.024970244616270065,0.01031922735273838,0.01915016770362854,0.004857438150793314,-0.010930059477686882,0.033250220119953156,0.06899840384721756,0.046876247972249985,0.013559706509113312,0.0017498150700703263,-0.03299817070364952,-0.02291421964764595,-0.03469042852520943,-0.09515824168920517,-0.076582171022892,-0.045273568481206894,-0.07937376201152802,-0.1297634094953537,-0.1455199122428894,-0.10496928542852402,-0.07892490178346634,-0.08683271706104279,-0.0699007511138916,-0.035785045474767685,0.005399263929575682,0.015582200139760971,0.03755488246679306,0.016734901815652847,0.01300235465168953,0.05073574185371399,0.07806795090436935,0.012735020369291306,0.0039034271612763405,-0.024739036336541176,-0.018793221563100815,-0.041472937911748886,-0.08932238072156906,-0.11979757249355316,-0.05966313183307648,-0.012384587898850441,0.004210243001580238,-0.0021134919952601194,-0.02964191883802414,-0.08310791105031967,-0.0971582904458046,-0.08882254362106323,-0.09667086601257324,-0.009946960024535656,0.016077162697911263,0.029385274276137352,0.04090631380677223,0.006745385471731424,0.0018862090073525906,0.021988049149513245,0.0449426993727684,-0.010896239429712296,0.027615239843726158,-0.03550693020224571,-0.02257702313363552,-0.03221404552459717,-0.12477590143680573,-0.11860192567110062,-0.026652667671442032,0.017047395929694176,0.019075114279985428,0.03464829549193382,0.0016878353198990226,-0.03873385488986969,-0.05738139525055885,-0.10785970836877823,-0.06067090481519699,-0.017255717888474464,-0.0035849460400640965,0.043042585253715515,0.02750988118350506,-0.0073234764859080315,-0.011719070374965668,-0.015291092917323112,0.0017197392880916595,0.03351527079939842,0.008161081932485104,-0.010346515104174614,-0.025415470823645592,-0.05212168022990227,-0.11292527616024017,0.010632770135998726,0.046887584030628204,0.0010258796392008662,-0.003309273859485984,0.04717542603611946,0.021073440089821815,0.003727703122422099,-0.01800990104675293,-0.0647670328617096,-0.0591815747320652,-0.01960955187678337,0.01274899486452341,0.04921933636069298,0.006775319576263428,-0.0036414610221982002,-0.014149477705359459,-0.014942719601094723,0.0070740580558776855,0.009034059941768646,-0.0364668034017086,-0.019130397588014603,-0.009935087524354458,-0.03869667276740074,-0.006226957309991121,0.04688941687345505,0.016679858788847923,-0.02309023216366768,0.004419106990098953,0.032002825289964676,0.05220805108547211,0.05908435955643654,-0.0779634341597557,-0.038326509296894073,-0.04571933671832085,0.014614067040383816,0.0023173277731984854,0.022641226649284363,-0.014392881654202938,-0.021457035094499588,-0.01148554589599371,-0.055537961423397064,-0.04447905719280243,-0.05367681756615639,-0.07575879991054535,-0.005447233561426401,-0.017694775015115738,-0.014940251596271992,0.022108713164925575,0.035209160298109055,0.024129074066877365,0.027862420305609703,0.05400701239705086,0.044674068689346313,0.019417699426412582,0.05939343944191933,0.012752784416079521,-0.03162512183189392,-0.01151198334991932,0.02029266580939293,0.01571710966527462,0.016437554731965065,-0.016204655170440674,-0.020492153242230415,-0.04771846532821655,-0.0946650356054306,-0.0841197669506073,-0.04454444721341133,-0.006900046486407518,0.026218680664896965,-0.0304472204297781,-0.042895637452602386,0.01877499558031559,0.05396314710378647,0.04157911613583565,0.07142981141805649,0.09712335467338562,0.05337833985686302,0.03452454134821892,0.05573773384094238,0.01104934886097908,0.006392613053321838,0.024622401222586632,0.0105526652187109,0.020293790847063065,0.008305510506033897,-0.022699296474456787,-0.06201137602329254,-0.06335515528917313,-0.0962754487991333,-0.07840654253959656,-0.037583597004413605,0.008884363807737827,0.029454166069626808,-0.0031535248272120953,0.004209739156067371,0.027494890615344048,0.05746939033269882,0.06253289431333542,0.09851410239934921,0.047652989625930786,0.04404965043067932,0.10516206920146942,0.05043701082468033,0.0136399632319808,0.03633642569184303,-0.005760263651609421,0.018125098198652267,0.009713930077850819,-0.009217307902872562,-0.010311235673725605,-0.03092248924076557,-0.04003625735640526,-0.10107914358377457,-0.11963502317667007,-0.06553411483764648,-0.0015559543389827013,0.03197794407606125,-0.002355556935071945,-0.009486343711614609,0.019379375502467155,0.05581668019294739,0.06909370422363281,0.050539497286081314,0.03750644624233246,0.09166911244392395,0.08935726433992386,0.07001211494207382,0.008416091091930866,0.021427014842629433,0.02616582252085209,0.030183890834450722,-0.009894362650811672,-0.022285085171461105,-0.006796769332140684,-0.05005905032157898,-0.07746855169534683,-0.08757837861776352,-0.11244341731071472,-0.059146948158741,-0.045404788106679916,-0.03939707577228546,-0.024388091638684273,-0.007091681007295847,0.0069814808666706085,0.06809910386800766,0.06354475021362305,0.021816719323396683,0.05368795618414879,0.07266142219305038,0.08355723321437836,0.051592353731393814,0.007162490859627724,0.012660492211580276,0.04967183619737625,0.04423905909061432,-0.021656721830368042,-0.027324402704834938,-0.020494451746344566,-0.04838605970144272,-0.0684942752122879,-0.08945748955011368,-0.14532282948493958,-0.13812334835529327,-0.10391532629728317,-0.06878478825092316,-0.05187634006142616,0.006844125688076019,0.05773993954062462,0.034108858555555344,0.010288401506841183,0.02501339092850685,0.09439435601234436,0.0751483365893364,0.06925855576992035,0.011786701157689095,0.06254734843969345,0.04413684085011482,0.03902769461274147,0.004985976964235306,0.0024823788553476334,0.0024743343237787485,0.013151428662240505,-0.031873900443315506,-0.08983712643384933,-0.11799587309360504,-0.1546761840581894,-0.10147565603256226,-0.05881963297724724,-0.0559961162507534,-0.010173150338232517,0.0010995676275342703,-0.018429109826683998,0.005725192371755838,0.03961263224482536,0.055160682648420334,0.06946126371622086,0.09114998579025269,0.035786572843790054,0.054175011813640594,0.035471487790346146,0.05922984704375267,0.04173209145665169,0.006862155627459288,0.019090408459305763,0.003211313858628273,0.012581094168126583,-0.028826186433434486,-0.03825708106160164,-0.0341198593378067,-0.059356674551963806,-0.11346852034330368,-0.13575124740600586,-0.11476690322160721,-0.0952293872833252,-0.03545553237199783,-0.04954763874411583,-0.003535922383889556,0.006885811686515808,0.042475808411836624,0.085434690117836,0.0651630088686943,0.057132232934236526,0.039403196424245834,0.04390786960721016,0.026745837181806564,0.017863595858216286,0.006787236779928207,0.012402870692312717,0.0008337616454809904,-0.0021025168243795633,0.0037774923257529736,-0.006256407126784325,-0.0066617270931601524,0.0017836150946095586,-0.016511283814907074,-0.038895729929208755,-0.06496433168649673,-0.0781274065375328,-0.06157509982585907,0.012087509036064148,0.028092684224247932,0.06965523213148117,0.0990583598613739,0.06333138793706894,0.044888969510793686,0.04408055543899536,0.040096789598464966,0.05110955610871315,0.0204487144947052,0.02070099487900734,0.007847028784453869,0.009044655598700047,0.02041536755859852,0.005832558963447809,0.030502134934067726,0.009564020670950413,0.020070981234312057,0.015851691365242004,0.012419244274497032,0.003010897431522608,0.0025206292048096657,0.014266196638345718,0.05645602568984032,0.03259743005037308,0.07563583552837372,0.060726337134838104,0.0338597297668457,0.025952493771910667,0.058312512934207916,0.045959554612636566,0.023110078647732735,0.008769991807639599,0.026975784450769424,0.006474237889051437,0.0076538692228496075,-0.0003140630142297596,0.006200559437274933,-0.01803956925868988,-0.013645547442138195,-0.021503474563360214,-0.03247252479195595,0.01893390342593193,0.01718914695084095,0.02014108933508396,9.52347181737423e-06,0.017984187230467796,0.039178475737571716,0.03781989589333534,0.03439886122941971,0.009551639668643475,0.02408676967024803,0.011715324595570564,-0.00037406798219308257,-0.04080836847424507,-0.023452991619706154,-0.027123933658003807,-0.050826091319322586,-0.014634314924478531,-0.019380193203687668,0.014093667268753052,0.014170641079545021,0.007682546973228455,0.012675716541707516,0.04221547767519951,0.010658002458512783,-0.006576513405889273,0.016755305230617523,0.02194240875542164,0.00029160609119571745,-0.023233702406287193,0.0058356281369924545,0.04304485768079758,0.028795143589377403,-0.006384008098393679,0.010981107130646706,0.03729510307312012,0.016341375187039375,0.01460008043795824,0.038144614547491074,0.013451162725687027,-0.007044467609375715,0.020184429362416267,0.009741315618157387,0.0004045993264298886,-0.003192926524206996,-0.008056404069066048,0.010219400748610497,0.01302371732890606,0.00408742344006896,-0.004586515016853809,-0.026611002162098885,-0.015917792916297913,-0.03445262834429741,0.0005380618968047202,-0.016833707690238953,-0.010975356213748455,0.013240023516118526,-0.014096960425376892,-0.009138988330960274,-0.005519040394574404,-0.0005707626114599407,-0.003068850841373205,0.02555816061794758,0.003425321076065302,0.023613056167960167,0.010381771251559258,-0.013029705733060837,0.010741488076746464,-0.0073783062398433685,-0.06200188025832176,-0.04341723769903183,-0.048864368349313736,-0.037059053778648376,0.0073937177658081055,0.022389210760593414,-0.007624054793268442,-0.05425499379634857,-0.03848221153020859,-0.012798151932656765,0.006562042515724897,0.015965338796377182,0.019997136667370796,0.026024477556347847,0.011839735321700573,-0.006524671334773302,0.0021292022429406643,0.023711184039711952,0.01620287075638771,0.037586577236652374,0.06450307369232178,-0.0035793273709714413,0.025345880538225174,0.008679614402353764,-0.042661067098379135,-0.0389183945953846,-0.04299084469676018,-0.018087856471538544,0.05088915675878525,0.016718586906790733,-0.01728561334311962,-0.0025309838820248842,-0.035771410912275314,-0.03148582577705383,0.02614467963576317,0.051334820687770844,0.06478288769721985,0.10287714004516602,0.05408644303679466,0.02563089318573475,0.03161681443452835,0.043259210884571075,0.038765110075473785,0.014410443603992462,0.04911360889673233,0.050710391253232956,0.03798755258321762,0.015923144295811653,0.008285940624773502,0.019213177263736725,0.004301959183067083,-0.028038840740919113,0.03820664808154106,0.035136930644512177,0.01132165640592575,-0.003178951796144247,0.004552600439637899,0.015505606308579445,0.009897882118821144,0.04136738181114197,0.012072976678609848,0.06747378408908844,0.054258622229099274,0.05487102270126343,0.06060046702623367,0.024622544646263123,0.03491637855768204,0.04859066754579544,0.023502515628933907,0.02996748685836792,0.037080973386764526,0.040553584694862366,0.038518860936164856,-0.028025396168231964,0.012386434711515903,0.02444634586572647,0.05381600931286812,0.06267117708921432,0.029982106760144234,0.02440478652715683,0.031257759779691696,0.00423341803252697,-0.0061273472383618355,0.05308874323964119,0.008518616668879986,-0.010644160211086273,0.022203801199793816,0.025896448642015457,0.04655518755316734,0.04879439249634743,0.05241924151778221,0.03313146159052849,0.0288524329662323,0.03762012720108032,0.035622935742139816,0.02675902284681797,-0.018231110647320747,-0.034494657069444656,-0.009442003443837166,0.031226037070155144,-0.023653676733374596,0.06718096882104874,-0.006842711940407753,-0.06148803234100342,-0.07281813025474548,-0.054771535098552704,-0.049483656883239746,-0.032184917479753494,-0.005118129309266806,0.006353245582431555,-0.011015402153134346,0.034675002098083496,0.005470098927617073,0.01061661634594202,0.04217193275690079,0.06835270673036575,0.0466456301510334,0.059989362955093384,0.011885583400726318,0.0179092176258564,-0.027584398165345192,-0.024411138147115707,-0.03258519247174263,-0.0027816472575068474,-0.01721022091805935,-0.001154163503088057,0.012053246609866619,-0.10640475153923035,-0.028116770088672638,-0.07111183553934097,-0.11594613641500473,-0.11523289233446121,-0.05345302075147629,-0.01766929216682911,-0.026176219806075096,0.0433138869702816,0.013392049819231033,0.011670077219605446,0.04627780616283417,0.043013717979192734,0.04172888025641441,0.048229996114969254,0.019364433363080025,0.014862684532999992,-0.017197994515299797,-0.04027854651212692,-0.014680136926472187,-0.03444990888237953,0.05465799942612648,-0.029998885467648506,0.010022805072367191,0.008977066725492477,-0.042472727596759796,-0.025090601295232773,0.001276554772630334,-0.06939546018838882,-0.08224005997180939,-0.06125260144472122,-0.013822820037603378,0.00822682585567236,-0.05723436176776886,0.020786959677934647,-0.004023712128400803,0.020651396363973618,0.027664680033922195,0.058925800025463104,0.0039749606512486935,-0.009026478976011276,-0.011801904998719692,-0.018106035888195038,-0.12195461243391037,-0.14735853672027588,0.0053540742956101894,-0.01690593548119068,-0.021394925191998482,0.006607197690755129,0.014255528338253498,0.001751670497469604,-0.010807744227349758,-0.06846505403518677,-0.05086371302604675,-0.09188764542341232,-0.07602941989898682,0.009767378680408001,-0.017711278051137924,-0.009403987787663937,-0.04659548029303551,0.0031734337098896503,0.032077714800834656,0.055800143629312515,-0.008794550783932209,-0.011286646127700806,-0.05440247431397438,-0.06456158310174942,-0.16611149907112122,-0.16308487951755524,-0.057034701108932495,-0.02259167842566967,-0.019456185400485992,0.052884217351675034,0.03643786162137985,0.016260527074337006,-0.022839004173874855,-0.11091355979442596,-0.06398642063140869,-0.039044857025146484,-0.06437911838293076,-0.024286983534693718,0.0023710390087217093,-0.022610129788517952,-0.033992476761341095,0.001688001793809235,0.04071754962205887,0.026479870080947876,0.007815406657755375,-0.06141410395503044,-0.06408880650997162,-0.10569208860397339,-0.10389181971549988,-0.11558715254068375,-0.0156172476708889,-0.0029703623149544,-0.027200710028409958,0.013699748553335667,-0.02577836811542511,-0.015715260058641434,0.005033461377024651,-0.09166069328784943,-0.07233769446611404,-0.03153612092137337,-0.09728452563285828,-0.08288458734750748,-0.04856957122683525,-0.05596346780657768,-0.04288524016737938,-0.0001991759636439383,0.007482433225959539,0.003145424881950021,-0.025932958349585533,-0.0498625785112381,-0.011655882932245731,-0.05508255213499069,-0.0316607691347599,-0.016691124066710472,-0.021032588556408882,-0.022174783051013947,-0.05076691508293152,0.024766109883785248,-0.014004380442202091,0.010939418338239193,0.022632507607340813,-0.032283175736665726,-0.03424276039004326,-0.068617083132267,-0.11395274847745895,-0.04221891239285469,-0.07900010794401169,-0.047271061688661575,-0.06559363752603531,-0.015230704098939896,-0.0028125918470323086,-0.012174769304692745,-0.00310037424787879,-0.052146658301353455,-0.11805588006973267,-0.10388564318418503,-0.11628011614084244,0.0025402898900210857,0.007142351008951664,0.01832047663629055,-0.021066749468445778,-0.014225365594029427,-0.006769924890249968,0.002638667356222868,-0.02639426477253437,-0.0385919027030468,-0.03731321915984154,-0.003109630895778537,-0.09649696201086044,-0.026539741083979607,-0.06442704796791077,-0.09455692768096924,-0.022175924852490425,0.007941707968711853,0.0008335360325872898,-0.03160383552312851,-0.014641636051237583,-0.012023353949189186,-0.025231821462512016,-0.0903453454375267,-0.15169210731983185,-0.04070325195789337,0.002759368857368827,0.023626182228326797,0.012353912927210331,-0.008245955221354961,0.017217962071299553,0.028799379244446754,-0.01024615578353405,-0.06102253124117851,-0.019057804718613625,-0.03531157225370407,-0.0810619443655014,-0.0026625599712133408,-0.06917551904916763,-0.08333443850278854,-0.02713250182569027,-0.016587264835834503,-0.0025187358260154724,-0.02205733396112919,-0.01208801381289959,-0.010494756512343884,-0.025898229330778122,-0.030401716008782387,-0.01726529560983181,-0.029316958039999008,0.023984067142009735,0.04784737154841423,0.0455188974738121,0.00048421768588013947,0.021663326770067215,0.026097076013684273,0.04772702232003212,-0.0005569735658355057,0.020627664402127266,-0.021741880103945732,-0.057315196841955185,-0.02591080777347088,-0.02943350002169609,-0.03196336701512337,0.008318494074046612,-0.048844702541828156,-0.029680535197257996,-0.05378126725554466,0.025020111352205276,0.015991762280464172,-0.0012381663545966148,0.01591307669878006,-0.04073641076683998,-0.011192907579243183,0.0036272278521209955,0.018757343292236328,0.041124794632196426,0.005492185242474079,0.034753672778606415,0.00039117818232625723,0.009629323147237301,0.024179264903068542,-0.020210737362504005,-0.03001340664923191,-0.0425337515771389,-0.03646497800946236,-0.0620809905230999,-0.05581995099782944,-0.037270307540893555,-0.039613042026758194,0.01794031262397766,-0.028196843340992928,0.011643359437584877,0.034216318279504776,-0.02024260349571705,0.003326230915263295,-0.03857727721333504,0.008482645265758038,-0.024828525260090828,-0.011324983090162277,0.06219605356454849,0.04345570504665375,0.047634873539209366,0.04481973871588707,0.02068215236067772,-0.016562767326831818,-0.07381508499383926,-0.04413217678666115,-0.035796988755464554,-0.061259541660547256,-0.07316408306360245,-0.07080408185720444,-0.014324753545224667,-0.07560776174068451,-0.004887293558567762,0.007539453916251659,0.008449279703199863,0.02847225032746792,0.006450517103075981,-0.027188625186681747,0.06827957183122635,0.08442562818527222,0.09305185079574585,0.04887929558753967,0.08919037133455276,0.10713683068752289,0.09809385240077972,0.06330911070108414,0.023284034803509712,0.014329180121421814,-0.02981732040643692,-0.01513204537332058,-0.01079500187188387,-0.07980181276798248,-0.07669881731271744,-0.08878815174102783,-0.037099968641996384,-0.051573172211647034,0.015789052471518517,-0.03394714370369911,0.0075293369591236115,0.01028253324329853,0.00690481485798955,0.040237706154584885,0.08091641217470169,0.05362944304943085,0.018275896087288857,0.0697946697473526,0.07894129306077957,0.10485652089118958,0.09298963844776154,0.04891948029398918,0.01937994360923767,0.01566132716834545,-0.04131031408905983,-0.047303009778261185,-0.035878848284482956,-0.059802886098623276,-0.05114574730396271,-0.056700240820646286,-0.07290027290582657,-0.05347885563969612,-0.021149739623069763,-0.0021643280051648617,0.013094768859446049,-0.03295907750725746,-0.007175731472671032,0.0012190897250548005,-0.032269712537527084,-0.004630915820598602,0.03626487776637077,-0.0043505472131073475,-0.01012448687106371,0.04184158518910408,-0.006867134943604469,-0.045824501663446426,-0.007636254653334618,-0.003816489828750491,-0.07074762880802155,-0.06141556426882744,-0.01282515749335289,-0.06685879081487656,-0.026553379371762276,-0.008869032375514507,-0.031199859455227852,-0.028725072741508484,-0.007055413909256458,0.019368961453437805,0.02524413913488388,0.02150602452456951,0.017104405909776688,0.006710755173116922,0.011402403004467487,0.0491051971912384,-0.07357929646968842,-0.0069237761199474335,-0.04603405296802521,-0.005312578286975622,0.05094242841005325,0.029982000589370728,0.040062837302684784,0.0068410905078053474,-0.009626269340515137,7.945608376758173e-05,-0.00998175609856844,-0.013690851628780365,0.010303274728357792,-0.03521512821316719,-0.035448107868433,-0.03435137867927551,-0.0024092502426356077,0.030021585524082184,-0.004607074894011021,0.00895986519753933,0.019513722509145737,0.016393650323152542,-0.006816633511334658,-0.03402166813611984,0.0193424541503191,0.012579395435750484,0.011803187429904938,0.013491795398294926,0.04069393128156662,-0.004014629404991865,0.040623024106025696,0.020566143095493317,-0.00895224791020155,-0.0058785900473594666,-0.044619105756282806,-0.014857989735901356,0.020141446962952614,-0.01195459719747305,-0.04608068987727165,-0.028605790808796883,0.004463448189198971,-0.0020003297831863165,0.011533788405358791,-0.009531380608677864,-0.007741227280348539,-0.0019317707046866417,-0.006950508803129196,-0.028277870267629623,-0.06802689284086227,-0.09304600954055786,-0.011403036303818226,-0.0026197745464742184,-0.00547894136980176,0.01442685630172491,-0.032623954117298126,-0.027596252039074898,-0.03867817297577858,-0.05695969983935356,-0.08943470567464828,-0.05655158683657646,-0.08436974883079529,-0.061660286039114,-0.07442767918109894,-0.05017223209142685,-0.006316165439784527,-0.027289288118481636,-0.013114740140736103,0.006731061264872551,-0.009833655320107937,-0.013643799349665642,-0.02287297695875168,-0.016686683520674706,-0.011351747438311577,-0.0017917139921337366,-0.0209190770983696,0.0074027664959430695,-0.016610827296972275,-0.017168277874588966,-0.017657741904258728,-0.0001366790966130793,-0.03250977769494057,-0.015831124037504196,-0.02518744021654129,-0.01318314764648676,-0.03509711101651192,-0.04388657212257385,-0.02035953477025032,-0.028960511088371277,-0.004071264527738094,-0.04285445436835289,0.001752311596646905,-0.0009792441269382834,-0.027463238686323166,-0.018359947949647903,-0.016952041536569595,-0.030163856223225594,-0.00566463265568018,-0.011756219901144505,-0.019134512171149254,0.008528185077011585,-0.0003385614836588502,0.0030326698906719685,-0.01527540385723114,-0.009906490333378315,-0.011348561383783817,-0.02333097904920578,-0.021066227927803993,0.026118166744709015,0.017231324687600136,0.0065865591168403625,0.000379974371753633,0.023650040850043297,0.02659805305302143,-0.004350830800831318,-0.019561896100640297,-0.010334745980799198,-0.030267631635069847,-0.05262337625026703,0.006226929370313883,0.007989409379661083,0.009079654701054096,0.0010836765868589282,-0.004661851562559605,0.033716410398483276,0.03404366970062256,0.0031786158215254545,-0.03254398703575134,0.0060264114290475845,0.011693904176354408,-0.00898896623402834,-0.02010803110897541,0.007429684977978468,0.007439215201884508,0.00023855199106037617,-0.016931850463151932,0.017645137384533882,0.02652115747332573,-0.0010007849195972085,-0.01846325770020485,-0.07507834583520889,-0.04694266989827156,-0.004267113283276558,-0.0004098160134162754,0.00458129309117794,0.024678288027644157,0.027871297672390938,0.027058115229010582,0.04245436564087868,0.020610954612493515,-0.005020718555897474,0.00789313018321991,0.004831855650991201,0.010818840004503727,0.025516962632536888,0.006088972091674805,0.014046397991478443,0.01850097067654133,0.0031266643200069666,0.01672050729393959,0.03920990228652954,0.0533517561852932,0.00979393906891346,-0.022163718938827515,-0.06347556412220001,-0.013994516804814339,0.034722909331321716,0.019977279007434845,-0.002731004264205694,0.04241747036576271,0.036285024136304855,0.035647716373205185,0.01871071755886078,0.03323402628302574,0.02931646630167961,0.0280647873878479,0.021183084696531296,0.005169531796127558,0.000323347543599084,-0.022352389991283417,0.020357592031359673,0.04132197052240372,0.011218633502721786,0.038589879870414734,0.0010405723005533218,0.03821354731917381,0.059103090316057205,-0.021744798868894577,-0.025451017543673515,0.03535356745123863,0.0233200341463089,-0.002932145493105054,0.011700847186148167,0.04142681509256363,0.03812780603766441,0.03065560571849346,0.003645892720669508,0.02997448295354843,-0.015719149261713028,-0.0037666866555809975,-0.006171408575028181,0.01268838532269001,-0.0020817131735384464,0.010960307903587818,0.021979153156280518,0.008614049293100834,-0.00030510564101859927,0.027988528832793236,0.036847129464149475,0.04799629747867584,0.055236153304576874,-0.009794709272682667,-0.012657364830374718,0.028547074645757675,0.008498866111040115,-0.0200934037566185,0.03822658956050873,0.04579189047217369,0.028642898425459862,0.0011536249658092856,0.01308689545840025,0.005797938909381628,0.03444205969572067,0.018664870411157608,0.02420041896402836,-0.0045007942244410515,-0.013010922819375992,-0.021415797993540764,-0.005092515144497156,-0.0019862791523337364,0.04504681006073952,0.034864649176597595,0.028748922049999237,0.05703776702284813,0.06029714643955231,-0.03615204244852066,-0.03253582492470741,-0.020819593220949173,0.02466680109500885,0.03759993240237236,0.02759638801217079,0.02816101163625717,-0.004095444455742836,0.005742265842854977,-0.0011720912298187613,-0.0021095387637615204,-0.002202616771683097,-0.01836535707116127,-0.04393550008535385,-0.029239675030112267,-0.028992315754294395,0.003631054889410734,0.0033565727062523365,-0.000980141805484891,0.030536066740751266,0.007258869241923094,0.03520507737994194,0.04828805476427078,0.05379274860024452,-0.016650155186653137,-0.027509918436408043,0.018995683640241623,0.052498385310173035,0.033799152821302414,-0.0024659885093569756,0.04701979458332062,0.02929142862558365,0.002784397918730974,0.022871535271406174,0.029621990397572517,-0.001190022099763155,-0.03038266859948635,-0.05124813690781593,-0.050160590559244156,-0.06983141601085663,-0.010164898820221424,-0.014941789209842682,-0.012748495675623417,0.032671745866537094,0.03368266671895981,0.03457967936992645,0.04043812304735184,0.03152522072196007,-0.039948802441358566,-0.016246356070041656,0.025944318622350693,0.04210618883371353,0.020676294341683388,-0.003350005717948079,0.032735832035541534,0.015985343605279922,-0.004219497088342905,0.0004912877921015024,-0.010966003872454166,-0.026093482971191406,-0.03944867476820946,-0.06471940129995346,-0.06521499156951904,-0.06201457604765892,-0.04818427935242653,-0.002125704661011696,0.009449409320950508,0.019074641168117523,0.01789165288209915,0.00976005382835865,0.03482312336564064,0.05656331405043602,-0.04450616240501404,-0.04195024073123932,0.04242265224456787,0.06276989728212357,0.003720887703821063,0.028339549899101257,0.02932288497686386,0.027096547186374664,-0.0018790417816489935,0.008872127160429955,-0.023538127541542053,-0.037343449890613556,-0.054081764072179794,-0.05083686485886574,-0.05833759158849716,-0.03845378756523132,-0.08030690997838974,-0.0024796563666313887,0.019402306526899338,-0.0008790630381554365,0.0033047867473214865,0.02095389924943447,0.050520289689302444,0.04903616011142731,-0.014147765003144741,0.006786693818867207,0.06219688430428505,0.04727289080619812,0.017424842342734337,0.027749625965952873,0.019771834835410118,0.013182109221816063,0.01609055884182453,-0.031977977603673935,-0.02982170321047306,-0.06548206508159637,-0.06604918837547302,-0.048911821097135544,-0.046099528670310974,-0.056731563061475754,-0.07601664960384369,-0.0022120780777186155,0.005780887324362993,-0.011363465338945389,0.028923431411385536,0.03737984225153923,0.0306293573230505,0.0409855991601944,-0.009221001528203487,0.019145077094435692,0.05028904229402542,0.029465792700648308,0.03463209420442581,0.030634600669145584,0.01595308631658554,-0.008664233610033989,-0.0055587333627045155,-0.026227334514260292,-0.050443384796381,-0.03810746967792511,-0.058915283530950546,-0.0462321937084198,-0.046734411269426346,-0.04921848699450493,-0.05455857142806053,-0.008403872139751911,0.007065848913043737,0.0015455223619937897,0.0017744514625519514,0.030049556866288185,0.00032840255880728364,0.05212182179093361,0.004537988919764757,0.03782911226153374,0.05734075605869293,0.0024727596901357174,0.018339982256293297,0.00346020283177495,0.005534681491553783,0.006519890855997801,0.01691788248717785,-0.02717834897339344,-0.0510132871568203,-0.035453975200653076,-0.03733531013131142,-0.039363469928503036,-0.02947607822716236,-0.04119829833507538,-0.04388030245900154,-0.01618938334286213,-0.010593404062092304,-0.007457011844962835,0.02693006582558155,-0.0045262351632118225,0.007803045678883791,0.03441169112920761,0.0015023043379187584,0.02136438526213169,0.037601273506879807,-0.01287237461656332,0.011359136551618576,0.011727473698556423,-0.005768603645265102,0.01316088531166315,0.008842581883072853,-0.04636167362332344,-0.0437471829354763,-0.02464698813855648,-0.008072039112448692,-0.034245170652866364,-0.041819214820861816,-0.04266747459769249,-0.021487435325980186,-0.03081151656806469,-0.026006268337368965,-0.0011515639489516616,0.01878870651125908,-0.018466729670763016,-0.008129832334816456,0.0345989353954792,-0.021038483828306198,0.05828477814793587,0.029678422957658768,0.008860098198056221,0.02425052598118782,-0.007106003351509571,0.0003414446546230465,-0.018159952014684677,-0.022402271628379822,-0.03632846847176552,-0.016928253695368767,0.0018508394714444876,0.001963882241398096,-0.033027347177267075,-0.04536101222038269,-0.017480598762631416,-0.016016865149140358,-0.008398082107305527,-0.01266227476298809,-0.014202233403921127,-0.008013543672859669,-0.027031350880861282,0.0010381260653957725,0.014418019913136959,0.0028051312547177076,0.04359159246087074,-0.002971639158204198,0.02046654373407364,0.010541210882365704,0.02703261375427246,-0.009862161241471767,-0.003601837670430541,0.007672836538404226,-0.02682933397591114,0.0057732416316866875,0.0015456747496500611,0.015351423993706703,0.007161850109696388,-0.01036024373024702,-0.007535170763731003,-0.009453573264181614,-0.016406843438744545,-0.02618071250617504,-0.027297958731651306,-0.011591228656470776,-0.025560302659869194,-0.02438940852880478,-0.02510523609817028,0.004962010774761438,0.033485252410173416,-0.016764042899012566,0.0136716915294528,0.005449051037430763,-0.013422041200101376,-0.029581476002931595,-0.007441137917339802,0.005081701558083296,-0.023341430351138115,-0.004619009327143431,0.0015361366095021367,0.0033953795209527016,0.00838039256632328,0.004339473322033882,0.006059916689991951,0.004038412123918533,-0.007146085612475872,-0.012158947996795177,-0.018946969881653786,-0.04892360791563988,-0.03883486986160278,-0.017088569700717926,-0.04337122291326523,0.03250103071331978,0.033343277871608734,-0.007054034620523453,0.02571457251906395,0.013824591413140297,0.00775130046531558,0.025354275479912758,0.009698026813566685,0.009962048381567001,0.008521401323378086,0.023642273619771004,0.03618122637271881,0.0215135645121336,0.017437497153878212,-0.0028775327373296022,0.00567041477188468,0.014925476163625717,0.0013037812896072865,-0.00012725369015242904,-0.04939623177051544,-0.0474015548825264,-0.023084620013833046,0.03286757692694664,-0.04879078269004822,0.01474549900740385,0.027728313580155373,0.02062748745083809,-0.01959872618317604,-0.007977832108736038,0.027730632573366165,-0.015640193596482277,0.023116327822208405,0.032198645174503326,0.021575622260570526,0.0021000774577260017,0.01879189722239971,0.030928712338209152,0.019680911675095558,0.03014286234974861,-0.00195878348313272,0.0009169221157208085,0.0067706056870520115,-0.012372571974992752,-0.07325379550457001,-0.13521380722522736,-0.07788998633623123,0.02408744767308235,-0.0847172886133194,-0.008576435036957264,-0.026987208053469658,0.082036592066288,0.03882067650556564,0.01573335938155651,0.038187719881534576,0.019172029569745064,0.01307217963039875,0.010573795065283775,-0.009397801011800766,0.0014406702248379588,0.018671857193112373,0.03403465449810028,-0.0027281076181679964,-0.002018631435930729,-0.03633273020386696,-0.05482248589396477,-0.023412218317389488,-0.06771857291460037,-0.11555757373571396,-0.16186699271202087,-0.11856703460216522,-0.011251311749219894,-0.09411533921957016,0.005807939916849136,-0.0032902441453188658,0.02931864745914936,0.022378671914339066,-0.0517292357981205,-0.005836289841681719,-0.03383850306272507,-0.07330717146396637,-0.040599510073661804,-0.03186923265457153,-0.07594200223684311,-0.0453149639070034,-0.0554702989757061,-0.023740867152810097,-0.0706331878900528,-0.12127319723367691,-0.09393364936113358,-0.09145595878362656,-0.09871945530176163,-0.154633566737175,-0.15176868438720703,-0.08553425967693329,-0.050476666539907455,-0.052980419248342514,-0.021556785330176353,-0.011383382603526115,-0.003862702287733555,-0.04597916826605797,-0.051117271184921265,0.004363552667200565,-0.03862340748310089,-0.053661830723285675,-0.08165404945611954,-0.04692815989255905,-0.06030156835913658,-0.0449073351919651,-0.06030068174004555,-0.01276598870754242,-0.07859060913324356,-0.10886578261852264,-0.1317761242389679,-0.1253230720758438,-0.15150755643844604,-0.0699419155716896,-0.1323099285364151,-0.07426715642213821,-0.03284774348139763,-0.046300943940877914,-0.0023264456540346146,0.001547480234876275,-0.016062211245298386,0.004275712184607983,-0.007426975294947624,0.0019131958251819015,-0.0077912574633955956,-0.008391059003770351,-0.032506369054317474,-0.03664249926805496,-0.01418138574808836,-0.019618690013885498,-0.02276766113936901,-0.016140157356858253,-0.027909597381949425,-0.008939309045672417,0.0002328865957679227,-0.018071305006742477,0.0021644022781401873,0.007130586542189121,0.008911238051950932,0.017229188233613968,0.01784178800880909,0.012334221042692661,-0.01946471445262432,-0.008712063543498516,-0.004276590421795845,0.007512250915169716,0.0007243326399475336,0.009578432887792587,0.016077252104878426,0.005986955948174,-0.0005110148922540247,-0.005973877385258675,-0.018449723720550537,-0.06772960722446442,-0.023096229881048203,-0.0003888974606525153,-0.02523651346564293,-0.01499063428491354,0.00015944999177008867,0.009326574392616749,0.021890239790081978,0.02258620411157608,0.020114459097385406,-0.011405708268284798,-0.008613498881459236,0.003898375201970339,-0.016733583062887192,-0.01101649459451437,-0.01464074943214655,0.021240243688225746,0.010330939665436745,0.003429667791351676,-0.0074173458851873875,-0.0016888674581423402,0.010721471160650253,-0.030305828899145126,-0.09469766169786453,-0.0922122374176979,-0.03503331169486046,-0.013700444251298904,-0.009785830043256283,0.0009609321714378893,-0.022331973537802696,-0.006499158218502998,-0.007628747262060642,-0.0009040109580382705,-0.007776276674121618,0.004493235610425472,-0.0008480169926770031,0.0072730290703475475,-0.00990927591919899,-0.005128799006342888,-0.004886253271251917,-0.0036771802697330713,0.031162217259407043,-0.007331752683967352,-0.021393444389104843,-0.025829294696450233,-0.07594792544841766,-0.048570483922958374,-0.06038384512066841,-0.0788620188832283,-0.007065384648740292,0.002176926238462329,-0.048460088670253754,-0.0452144630253315,-0.06068222597241402,0.006097344681620598,-0.041375648230314255,-0.04120654985308647,-0.02174401842057705,-0.022932883352041245,-0.007146906107664108,-0.01239913422614336,-0.015503950417041779,0.01566413603723049,0.017707325518131256,0.002877953462302685,0.024654777720570564,0.0064833941869437695,0.01348548661917448,0.0015946293715387583,-0.07582521438598633,-0.10429128259420395,-0.08623587340116501,-0.09082312881946564,-0.05900511518120766,-0.048078298568725586,-0.10300653427839279,-0.0539451502263546,-0.028249230235815048,-0.0011408549034968019,-0.056051284074783325,-0.050337594002485275,-0.04740748181939125,-0.03589516505599022,-0.026670625433325768,-0.024750694632530212,0.008392811752855778,0.02707495540380478,0.023805128410458565,0.01661931537091732,0.019279347732663155,-0.005859502125531435,0.004796994850039482,-0.03141407668590546,-0.07147204875946045,-0.08962702751159668,-0.10831020027399063,