{"shape": [10, 4608]}
-0.005553218070417643,-0.011514012701809406,-0.09900952130556107,-0.10788516700267792,-0.13052575290203094,-0.097784623503685,-0.0818413570523262,-0.03527316451072693,-0.025381453335285187,-0.03362814709544182,-0.0358843058347702,-0.03971583768725395,-0.08798771351575851,-0.08309490978717804,-0.06674839556217194,-0.018160255625844002,-0.014884792268276215,-0.013975489884614944,-0.025281982496380806,0.012440831400454044,0.02814635820686817,0.01190683338791132,-0.015322381630539894,-0.0787942185997963,-0.09496036916971207,-0.08371500670909882,-0.11554593592882156,-0.10586663335561752,-0.07736903429031372,-0.044490840286016464,-0.04194624722003937,-0.0025751942303031683,-0.01986854337155819,-0.03336845710873604,-0.026689710095524788,-0.06527216732501984,-0.04860558733344078,-0.021411780267953873,-0.03477386385202408,0.012898053042590618,-0.01357301790267229,-0.025311365723609924,0.02445041574537754,0.022634118795394897,0.01935386471450329,-0.021173231303691864,-0.04893460124731064,-0.05241212248802185,-0.031444329768419266,-0.12133996933698654,-0.058826278895139694,-0.027846189215779305,-0.015790676698088646,-0.005804565269500017,-0.03543497622013092,-0.013079941272735596,-0.021448200568556786,-0.06178643926978111,-0.013320076279342175,-0.02095171809196472,-0.009339690208435059,-0.003040469018742442,0.01334510836750269,0.01790689490735531,-0.02236711047589779,-0.024322528392076492,0.008887828327715397,0.003910279367119074,-0.01470175851136446,-0.05745137482881546,-0.07534827291965485,-0.13688665628433228,-0.10289303213357925,-0.10270853340625763,-0.034015532582998276,-0.03704911097884178,-0.022384341806173325,-0.012489759363234043,-0.024846360087394714,-0.004044088535010815,-0.03381027281284332,-0.032843463122844696,-0.015279514715075493,-0.01705588959157467,0.00718926265835762,-0.032733555883169174,-0.024871699512004852,0.016679294407367706,-0.006134133320301771,-0.03797929361462593,-0.019304843619465828,-0.007920030504465103,-0.030106982216238976,-0.04571550339460373,-0.08799708634614944,-0.11774308234453201,-0.1070726066827774,-0.03780640289187431,-0.03528332710266113,-0.009100517258048058,-0.004532587714493275,-0.010492173954844475,-0.009830317460000515,-0.011080017313361168,-0.017371051013469696,-0.028317473828792572,-0.03569634631276131,-0.011669036000967026,0.005670882295817137,-0.0024699775967746973,-0.00504263723269105,-0.009192992933094501,-0.059078142046928406,-0.045541469007730484,-0.03870294615626335,-0.03543592244386673,-0.018275685608386993,-0.10462227463722229,-0.11131458729505539,-0.12347851693630219,-0.08657462149858475,-0.07890886068344116,-0.01786893792450428,0.0006480528973042965,0.011114428751170635,0.010621348395943642,-0.014677110128104687,-0.018394511193037033,-0.049770843237638474,-0.030683813616633415,-0.021566318348050117,-0.022472424432635307,-0.01322268322110176,-0.028154034167528152,0.008686549961566925,-0.026180919259786606,-0.06830792874097824,-0.0509379580616951,-0.044021718204021454,-0.059334903955459595,-0.09074777364730835,-0.13257162272930145,-0.08713090419769287,-0.05914553999900818,-0.08363556116819382,-0.015439720824360847,-0.007705803494900465,0.01061123888939619,0.0038198537658900023,-0.027757491916418076,-0.0018635977758094668,-0.019109992310404778,-0.030263807624578476,-0.027995320037007332,-0.029371771961450577,-0.006580290850251913,0.018643444404006004,0.01689758151769638,-0.02427126280963421,-0.047185078263282776,-0.055003419518470764,-0.022608447819948196,-0.018058549612760544,-0.08628945052623749,-0.10314401984214783,-0.1470755934715271,-0.13377146422863007,-0.10642292350530624,-0.0032265482004731894,-0.036063168197870255,-0.0043379561975598335,-0.004508793354034424,0.005902450531721115,-0.007447577081620693,0.014248449355363846,0.0029782115016132593,-0.0324108861386776,0.004450794775038958,-0.03751911222934723,-0.0023713111877441406,0.01509417686611414,-0.04895729571580887,-0.06538154184818268,-0.02697928436100483,-0.06912025809288025,-0.055036235600709915,-0.04790807515382767,-0.03150980547070503,-0.032979998737573624,-0.07939285039901733,-0.07243417203426361,-0.1028146892786026,-0.019671551883220673,-0.03137652203440666,-0.008008874952793121,0.02017233893275261,0.016486871987581253,0.030944792553782463,-0.02390730008482933,-0.007733400445431471,0.02521331049501896,0.00019962617079727352,-0.003189475741237402,0.0004765953926835209,-0.029181787744164467,-0.05123394727706909,-0.04560878872871399,-0.05274343863129616,-0.04958675056695938,-0.01943715661764145,0.0033198948949575424,0.04133814573287964,0.0410006158053875,0.05029399320483208,0.0035968837328255177,-0.0769650861620903,-0.05839180201292038,-0.00644622091203928,0.005151316523551941,0.01382896676659584,0.0362720713019371,0.016397442668676376,0.006896830163896084,0.030138881877064705,0.03945333883166313,0.0035233348608016968,-0.00430274149402976,-0.05123934894800186,-0.03474058210849762,-0.04144992306828499,-0.0010317653650417924,-0.03141673281788826,-0.007878340780735016,0.024392081424593925,-0.0013431560946628451,0.04379265010356903,0.0841318666934967,0.1102454885840416,0.00911463238298893,-0.09937569499015808,-0.014783384278416634,-0.020429546013474464,0.012433079071342945,0.032839130610227585,0.03581654652953148,0.02366602048277855,0.028251755982637405,0.05087292939424515,0.04972437024116516,0.010332254692912102,-0.011358414776623249,-0.03767181187868118,0.013728360645473003,-0.005495586898177862,0.007850789465010166,-0.017697902396321297,0.019098348915576935,0.028578467667102814,0.03987972065806389,0.07853402197360992,0.051943011581897736,0.05980296805500984,0.01089483592659235,-0.12056762725114822,-0.010332207195460796,0.002414754359051585,0.03282613679766655,0.07232136279344559,0.0428629033267498,0.010862287133932114,0.04517984017729759,0.05225878581404686,0.04075629636645317,0.011737603694200516,-0.03239871561527252,-0.019747531041502953,0.018147893249988556,-0.03255464881658554,-0.022335460409522057,0.0018208903493359685,0.05615638568997383,0.03758032247424126,0.06533418595790863,0.11439604312181473,0.041245538741350174,0.06984025985002518,-0.03834715858101845,-0.06525405496358871,-0.033695295453071594,0.03531458601355553,0.04569059982895851,0.05529343709349632,0.042867034673690796,0.054337602108716965,0.04524178430438042,0.06076226010918617,0.04896075278520584,0.058541733771562576,-0.018884610384702682,-0.008728030137717724,-0.040533289313316345,-0.03276105597615242,0.027339821681380272,0.10007067024707794,0.06724980473518372,0.03113984875380993,0.07291946560144424,0.07032918184995651,0.04282509535551071,0.12588071823120117,-0.042551394551992416,-0.13571420311927795,-0.009502982720732689,0.014251966960728168,0.04579021781682968,0.07627074420452118,0.04173741489648819,0.04908299446105957,0.03475288674235344,0.060179587453603745,0.054207999259233475,0.06542031466960907,-0.007234479766339064,0.011657128110527992,-0.06239998713135719,-0.031047800555825233,0.05747805908322334,0.09572438895702362,0.03376486897468567,0.011716704815626144,0.07736987620592117,0.03133159503340721,0.08238698542118073,0.04656699299812317,-0.07098893821239471,-0.130977600812912,0.01300247572362423,0.04065167158842087,0.059722237288951874,0.04580501839518547,0.04540269821882248,0.03269773721694946,0.04635052755475044,0.07188421487808228,0.035678498446941376,0.018004653975367546,0.01982157491147518,-0.02160191722214222,-0.0641184002161026,-0.011112451553344727,0.06773726642131805,0.05697168782353401,0.02219037152826786,0.03570281341671944,0.08731637895107269,0.03966386988759041,0.09607039391994476,0.035550281405448914,-0.09629978239536285,-0.10975893586874008,0.0010568324942141771,0.03353738412261009,0.03375997394323349,0.05823129042983055,0.03146751970052719,0.03737126290798187,0.008724248968064785,0.03763899952173233,0.024436239153146744,0.03538653627038002,0.02618533931672573,-0.02780594304203987,-0.012187197804450989,0.04593832418322563,0.03235139697790146,0.02149854227900505,0.05302361026406288,0.10374336689710617,0.050648387521505356,0.03683822602033615,0.1274939477443695,0.0025250643957406282,-0.060197968035936356,-0.04224995896220207,0.008077200502157211,0.034023549407720566,0.03002498485147953,0.025716854259371758,0.026842141523957253,0.007570408750325441,0.00014556222595274448,0.01669749990105629,0.00679804477840662,0.03682056814432144,0.06231560558080673,-0.008213882334530354,0.02824758179485798,0.04219134524464607,0.05710005760192871,0.038041383028030396,0.07158971577882767,0.06722918897867203,0.013599254190921783,0.032349370419979095,0.10370378196239471,-0.0002541547000873834,-0.03839549422264099,-0.0341041274368763,0.042340122163295746,0.05026794224977493,0.038829367607831955,0.03130485489964485,0.017104681581258774,0.009662270545959473,-0.01710328459739685,-0.0032528522424399853,0.01856607012450695,0.04650676250457764,0.012733429670333862,0.0015564773930236697,0.013365204446017742,0.04109451547265053,0.025384342297911644,0.04489108547568321,0.05802420899271965,0.0011581593425944448,0.0369245670735836,0.06752854585647583,0.036903660744428635,-0.008137852884829044,-0.020728353410959244,0.07144484668970108,0.008842096664011478,0.03744080662727356,0.0363035649061203,0.010520197451114655,0.022122083231806755,0.0015931056113913655,0.002776429522782564,0.02285538986325264,0.0025068428367376328,0.011620203964412212,0.008337813429534435,0.011926932260394096,-0.0034438546281307936,0.005372862797230482,0.0038254891987890005,0.04715568944811821,-0.027258314192295074,-0.03609493002295494,0.03700753301382065,0.056796468794345856,-0.00790412724018097,-0.059108998626470566,-0.0066854869946837425,-0.01411496102809906,-0.006263391114771366,0.04183119535446167,0.04608412832021713,-0.001999156316742301,0.022582557052373886,-0.004134487360715866,-0.009565073065459728,-0.017392875626683235,-0.0033990470692515373,0.004880102816969156,-0.04110290855169296,-0.056400854140520096,-0.02651159092783928,-0.05039892718195915,-1.3843744454788975e-05,-0.034803181886672974,-0.08764982223510742,-0.05363266170024872,0.024710578843951225,-0.009157346561551094,-0.054812341928482056,-0.11046525835990906,0.010750828310847282,-0.05460447072982788,-0.026614880189299583,0.05005940794944763,0.04814460873603821,0.025756601244211197,0.054772984236478806,-0.012792382389307022,-0.044106435030698776,-0.0020410700235515833,-0.016786903142929077,-0.028326211497187614,-0.0887167826294899,-0.12362705171108246,-0.10926692187786102,-0.09482777863740921,-0.1266758143901825,-0.11531523615121841,-0.14625221490859985,-0.12310437113046646,-0.05060466006398201,-0.07511349767446518,-0.10847044736146927,-0.12567205727100372,-0.02292230911552906,0.02496308460831642,0.006184332072734833,-0.01882660575211048,0.02223242074251175,0.031213464215397835,-0.0059548052959144115,-0.06074647977948189,-0.03138907626271248,-0.06676144152879715,-0.04195043072104454,-0.09149400144815445,-0.15616737306118011,-0.21594685316085815,-0.22656749188899994,-0.24557775259017944,-0.27137038111686707,-0.2175784558057785,-0.2166849821805954,-0.23494316637516022,-0.17125558853149414,-0.20602290332317352,-0.15231221914291382,-0.1179293841123581,-0.033110179007053375,-0.005965997464954853,-0.06747040152549744,-0.02233770303428173,0.006321589928120375,0.0405222624540329,-0.026958715170621872,-0.05967475101351738,-0.11887139827013016,-0.19592814147472382,-0.15424372255802155,-0.14018750190734863,-0.13467343151569366,-0.20558404922485352,-0.28365427255630493,-0.33616870641708374,-0.2809659242630005,-0.23636843264102936,-0.29674050211906433,-0.25776466727256775,-0.21615467965602875,-0.21624867618083954,-0.13626329600811005,-0.09336575865745544,-0.039429083466529846,-0.060048703104257584,-0.10368777066469193,-0.06964050233364105,0.02805490233004093,0.022503942251205444,-0.07524794340133667,-0.11202936619520187,-0.02736026421189308,-0.07706804573535919,-0.17019683122634888,-0.1407627910375595,-0.10066214948892593,-0.22223754227161407,-0.24237410724163055,-0.31605008244514465,-0.23523373901844025,-0.2373960018157959,-0.23182737827301025,-0.2210645079612732,-0.19044648110866547,-0.16059830784797668,-0.11768188327550888,-0.10464752465486526,-0.06225534901022911,-0.03173884004354477,0.02308564819395542,0.024891357868909836,0.011705838143825531,-0.01158211287111044,-0.028952598571777344,-0.04092524200677872,-0.017293723300099373,-0.03528895974159241,-0.009494386613368988,-0.02391972206532955,-0.013551240786910057,0.017221299931406975,-0.01752231828868389,-0.01880381442606449,-0.0131634920835495,-0.019588125869631767,-0.008918560110032558,0.0018596722511574626,0.00542442686855793,-0.017624638974666595,-0.008891374804079533,-0.017018325626850128,0.004644807428121567,-0.01767355017364025,0.014430715702474117,0.022977890446782112,-0.011272463016211987,-0.007610332686454058,-0.0031180651858448982,-0.026599964126944542,-0.0470941923558712,-0.0197663065046072,-0.017562201246619225,-0.035097550600767136,-0.022937819361686707,-0.02262689173221588,-0.014734079129993916,0.03679722547531128,0.01754760555922985,-0.006217706948518753,0.017797278240323067,0.020731603726744652,0.01380384061485529,0.017019901424646378,0.030645456165075302,-0.009795842692255974,0.025129443034529686,-0.02346538007259369,0.009066947735846043,0.008050191216170788,-0.0007774615660309792,0.010062715969979763,0.01737115904688835,-0.010579113848507404,-0.02998155541718006,-0.043476276099681854,-0.018343567848205566,-0.026733994483947754,-0.041629236191511154,-0.008845408447086811,0.011715213768184185,0.003430164186283946,-0.010517574846744537,0.0023899355437606573,0.014881324023008347,0.02202841080725193,0.010930479504168034,0.023304346948862076,0.037659306079149246,0.040822360664606094,0.022580288350582123,-0.029089197516441345,-0.003495530690997839,0.016418082639575005,-0.022478671744465828,-0.06658376753330231,-0.07071267813444138,-0.029322728514671326,-0.028625397011637688,-0.03315793350338936,0.011506221257150173,-0.02884761616587639,-0.006452989298850298,-0.0397605299949646,-0.028703799471259117,-0.008642849512398243,0.019447682425379753,0.0012994117569178343,0.016096297651529312,0.027254199609160423,0.017819073051214218,0.012848228216171265,0.029557406902313232,0.036799848079681396,0.0544918067753315,0.011034530587494373,0.029266376048326492,-0.0026416778564453125,-0.0371522530913353,-0.04826229065656662,-0.04460397735238075,-0.026832357048988342,-0.01301563810557127,-0.007914640009403229,-0.03597758710384369,-0.0698598101735115,-0.04876372218132019,-0.07727254927158356,-0.020938921719789505,0.03674528747797012,0.03612034395337105,0.05763930082321167,0.024807721376419067,-0.003463190281763673,-0.0028409473598003387,-0.013889231719076633,0.02787940762937069,0.03907487168908119,0.05037491023540497,0.02985389716923237,0.04426806792616844,0.029132723808288574,0.027902895584702492,-0.0006367538589984179,-0.03138713911175728,-0.0425550602376461,-0.006465411279350519,-0.011970109306275845,-0.018254298716783524,-0.03516601026058197,-0.011661219410598278,-0.021153395995497704,-0.0033047974575310946,-0.004983192775398493,0.028732340782880783,0.03652818128466606,0.041685957461595535,0.021510178223252296,0.018576908856630325,0.01932513527572155,0.005939316004514694,0.02743302658200264,0.03875720873475075,0.04636073112487793,0.03099224530160427,0.015591198578476906,0.011565199121832848,-0.03266582265496254,-0.013782803900539875,-0.024481074884533882,0.04821910709142685,0.057549044489860535,0.05963057279586792,0.03340955823659897,-0.005278197582811117,0.02386133372783661,0.03871821612119675,0.06711667031049728,0.08500596135854721,0.06085574999451637,0.05492744594812393,0.041478004306554794,0.03625299036502838,0.031814318150281906,0.012730876915156841,0.01956462487578392,0.026622558012604713,0.03529712185263634,0.02258455380797386,0.0011134076630696654,-0.008694583550095558,-0.034517135471105576,-0.01921805739402771,0.08207551389932632,0.034354742616415024,0.05486232042312622,0.03882922977209091,0.01999574527144432,0.034316614270210266,0.030261097475886345,0.04057485610246658,0.04248796030879021,0.01575508341193199,0.02712998539209366,0.033509720116853714,0.05718684196472168,0.04503554850816727,0.030109843239188194,0.026351433247327805,0.004541964270174503,-0.0017011581221595407,0.020266687497496605,0.020843883976340294,0.013545827940106392,-1.1290612746961415e-06,-0.0561242550611496,-0.044332269579172134,0.0061924816109240055,-0.022954583168029785,-0.024338658899068832,0.006040309090167284,0.017947258427739143,-0.0010473947040736675,-0.0846509337425232,-0.08912800997495651,-0.06820494681596756,-0.011395254172384739,0.017850492149591446,-0.0014803139492869377,0.03416455164551735,-0.004109247121959925,0.01090493518859148,-0.00079511379590258,0.024790622293949127,0.006785382051020861,0.03239014372229576,0.032131001353263855,-0.004037479870021343,0.0007577646756544709,-0.10486293584108353,-0.07127266377210617,-0.04304351657629013,0.026095416396856308,-0.007399197667837143,0.030044913291931152,0.005248888861387968,-0.02168189361691475,-0.1286579817533493,-0.07275570929050446,-0.05810713395476341,-0.025735238566994667,0.04933687299489975,0.01392002310603857,-0.024976132437586784,0.003856097348034382,-0.012384956702589989,-0.01154280174523592,0.02500876411795616,0.00641209352761507,0.03889808431267738,0.020573237910866737,-0.0032994684297591448,-0.0279377568513155,-0.06688152998685837,-0.09215670824050903,-0.06327781081199646,-0.016534743830561638,-0.02870585024356842,0.028780482709407806,0.04400089383125305,0.0008313856669701636,-0.009453779086470604,0.010925019159913063,-0.024194737896323204,-0.05368021875619888,-0.04244483634829521,-0.018754974007606506,0.006354880519211292,-0.006696857511997223,-0.013111373409628868,-0.00254179909825325,-0.020288662984967232,0.005821694619953632,0.033808037638664246,0.017329614609479904,-0.01283351518213749,-0.07143566012382507,-0.10927914828062057,-0.12117903679609299,-0.1133994460105896,-0.0986916795372963,-0.02792392671108246,-0.012215260416269302,0.038694288581609726,0.025398101657629013,0.006268518045544624,0.01708233170211315,-0.0010383034823462367,-0.02311011590063572,-0.09440707415342331,-0.07170622050762177,-0.009087261743843555,-0.007593186106532812,-0.05415774881839752,-0.02925817295908928,-0.036965448409318924,0.03333302214741707,0.01639050990343094,0.0064012836664915085,-0.036070890724658966,-0.056114666163921356,-0.1286914199590683,-0.1543152630329132,-0.10603498667478561,-0.08432280272245407,-0.0388563871383667,0.025628453120589256,0.01754217967391014,0.015250827185809612,0.012491214089095592,-0.022355765104293823,-0.07673902064561844,-0.053698375821113586,-0.07155879586935043,-0.07992309331893921,-0.028296906501054764,-0.012213088572025299,-0.07045473903417587,-0.06690172106027603,-0.02956799790263176,0.009471381083130836,0.0016498544719070196,-0.028265956789255142,-0.061850182712078094,-0.10698682069778442,-0.05853481590747833,-0.0785725936293602,-0.09320112317800522,-0.0751587301492691,-0.008432476781308651,-0.0002370117581449449,0.009438899345695972,0.019117148593068123,0.0021600881591439247,-0.003179786494001746,-0.07017531245946884,-0.09216617047786713,-0.07476355135440826,-0.05361276865005493,-0.06608673185110092,-0.05994728207588196,-0.08081827312707901,-0.06655675172805786,-0.041333526372909546,-0.0032614325173199177,0.026966413483023643,-0.0052139475010335445,-0.044395651668310165,-0.16248635947704315,-0.2217085361480713,-0.104669950902462,-0.060741323977708817,-0.04485459253191948,-0.026838824152946472,-0.012442313134670258,0.018935715779662132,0.01667926087975502,-0.014497952535748482,-0.02216147631406784,-0.056830231100320816,-0.04559197649359703,0.011410359293222427,-0.00803142599761486,-0.010280823335051537,-0.05251818150281906,-0.11213135719299316,-0.0783701166510582,-0.056888043880462646,-0.026094434782862663,0.010941057465970516,-0.024579588323831558,-0.035837527364492416,-0.10612064599990845,-0.19556181132793427,-0.1372906118631363,-0.0985713079571724,-0.041833847761154175,-0.037050727754831314,-0.042201120406389236,-0.016662878915667534,0.0004265171883162111,0.025211073458194733,0.008998844772577286,-0.02395004779100418,0.010806445963680744,0.039876990020275116,0.046600986272096634,0.002130366861820221,-0.056700434535741806,-0.059814803302288055,-0.06897413730621338,-0.06630454212427139,-0.03860911726951599,-0.06006903946399689,-0.0077698552049696445,-0.050016939640045166,-0.06554225087165833,-0.1091853678226471,-0.10790624469518661,-0.10740650445222855,-0.06155065819621086,0.02743350900709629,0.0186149924993515,0.022830510511994362,0.060351163148880005,0.04969502240419388,0.04873485863208771,0.031921159476041794,0.012825027108192444,0.043957218527793884,-0.006373168900609016,-0.08698995411396027,-0.0588153675198555,-0.08779167383909225,-0.08479026705026627,-0.0732913613319397,-0.08140994608402252,-0.08484732359647751,0.01693703979253769,0.0010947569971904159,-0.03989940509200096,-0.08276548236608505,-0.058653607964515686,-0.11128591746091843,-0.09792894870042801,-0.003121212124824524,0.01837816648185253,0.024473927915096283,-0.0008360922220163047,0.026064351201057434,0.0368514284491539,0.04870845377445221,0.013852730393409729,-0.005472103599458933,-0.012972372584044933,-0.08555877208709717,-0.07381810992956161,-0.07315676659345627,-0.11820826679468155,-0.08599911630153656,-0.08935458213090897,-0.0773581713438034,-0.0001088045391952619,0.006789052858948708,-0.015164462849497795,-0.05900656804442406,-0.02969689480960369,-0.05609849840402603,-0.06683334708213806,-0.050028786063194275,0.004168535582721233,0.01910538226366043,0.04347950965166092,0.03409604728221893,0.014368893578648567,0.03789188340306282,0.01401025801897049,0.01865207403898239,-0.010619954206049442,-0.06302907317876816,-0.06263882666826248,-0.10989362001419067,-0.13489003479480743,-0.0817677229642868,-0.054755646735429764,-0.08084765821695328,0.015076400712132454,-0.010744164697825909,0.024806056171655655,-0.0507323294878006,0.011045810766518116,0.036872588098049164,-0.002931741066277027,-0.05401279032230377,-0.02446151152253151,0.03519332781434059,0.03263748437166214,0.04458918794989586,0.0003534698626026511,-0.006391382310539484,0.018844231963157654,-0.0023684529587626457,-0.0214109867811203,-0.03597937151789665,-0.10262846946716309,-0.08397845923900604,-0.13648557662963867,-0.07889286428689957,-0.03300990164279938,-0.008881842717528343,-0.009621798992156982,0.011354830116033554,-0.0004762772878166288,-0.024390140548348427,-0.027058914303779602,0.05643865093588829,0.0721730962395668,0.05131801962852478,0.08206083625555038,0.0964229479432106,0.10061182081699371,0.11520219594240189,0.04693564400076866,-0.01987157203257084,-0.04354038089513779,0.004081180319190025,-0.03357603773474693,-0.09175778180360794,-0.12968628108501434,-0.11371435970067978,-0.10685417056083679,-0.05053786188364029,-0.004645659122616053,0.009673810563981533,0.019572144374251366,-0.05316561460494995,0.014797729440033436,0.02300412394106388,-0.053376439958810806,-0.0004519012582022697,0.07558884471654892,0.06445224583148956,0.04063396900892258,0.001432912889868021,0.036622438579797745,0.03581279516220093,0.08753049373626709,-0.010967557318508625,-0.1156969740986824,-0.12331271171569824,-0.03416359797120094,-0.08133452385663986,-0.057283107191324234,-0.061150532215833664,-0.08386676013469696,-0.06431236863136292,-0.02528190426528454,0.008265920914709568,0.025344448164105415,0.04902108758687973,-0.029705259948968887,0.017587950453162193,0.031051987782120705,0.04443515092134476,0.00950381439179182,0.09486281126737595,0.08209159225225449,0.14287512004375458,0.02230675518512726,0.021632013842463493,0.036077067255973816,0.0858105793595314,0.05333773046731949,0.0009226279798895121,0.03064601495862007,0.03302697464823723,-0.008243556134402752,0.027688005939126015,-0.022231603041291237,-0.00967824924737215,-0.0027618841268122196,0.016966229304671288,-0.003012318629771471,0.03381751477718353,0.050778839737176895,-0.013545648194849491,0.028494497761130333,0.0771988183259964,0.10740526765584946,0.048668187111616135,0.08039527386426926,0.03859458491206169,0.026347018778324127,0.012715226039290428,0.0924968272447586,0.07876042276620865,0.08491596579551697,0.07707066088914871,0.06169116124510765,0.041436195373535156,0.0032455248292535543,-0.0029482056852430105,0.015052353963255882,-0.001794115756638348,0.010499810799956322,0.03160560503602028,-0.020359817892313004,-0.01375738438218832,-0.01158596109598875,-0.022084752097725868,-0.023348866030573845,-0.0191080030053854,0.012939732521772385,-8.145615720422938e-05,0.029388930648565292,-0.006752676330506802,-0.00197931588627398,-0.017167676240205765,-0.022715551778674126,-0.014308816753327847,0.010668973438441753,0.02082725800573826,0.0663759633898735,0.06804166734218597,0.04869996756315231,0.03550275042653084,0.028200248256325722,0.03590976074337959,0.010715274140238762,-0.019600622355937958,-0.013936860486865044,-0.01184698287397623,-0.026536226272583008,-0.014436791650950909,-0.014970398508012295,-0.007966656237840652,0.0031580680515617132,0.00844631064683199,-0.01791340298950672,-0.05038176476955414,-0.02751060202717781,-0.03583750128746033,-0.007267117965966463,-0.002144505036994815,0.006792064756155014,0.004724861588329077,-0.009317816235125065,-0.0008599325665272772,0.01942225731909275,0.04236198216676712,0.00369533384218812,-0.005489802919328213,-0.005973274353891611,-0.02214289829134941,0.0033461349084973335,-0.021976234391331673,0.017601769417524338,0.017391003668308258,0.0190627072006464,0.04040883481502533,-0.04267602413892746,-0.021807953715324402,-0.06163245067000389,-0.025552405044436455,-0.028081262484192848,-0.02803018130362034,0.025709733366966248,-0.00043372847721911967,-0.023579472675919533,-0.014588052406907082,-0.04882349446415901,-0.09573228657245636,-0.076453298330307,-0.05301370844244957,-0.026046406477689743,0.014768158085644245,-0.024847516790032387,-0.04622291401028633,-0.013253184035420418,-0.01285052951425314,-0.004086988512426615,-0.008555328473448753,-0.024319961667060852,-0.03595097362995148,0.009746339172124863,-0.018528541550040245,-0.018782630562782288,-0.04777124896645546,-0.006949024274945259,-0.00668763043358922,-0.03881627321243286,-0.03293943032622337,-0.02337978594005108,-0.012350854463875294,-0.018510419875383377,-0.03784363344311714,-0.03196914494037628,-0.027091415598988533,-0.0691162645816803,-0.021208016201853752,0.03437231481075287,0.04112200438976288,-0.0010253171203657985,-0.01519212406128645,-0.006954879499971867,-0.0017808544216677547,-0.0022089541889727116,-0.021441088989377022,0.015819424763321877,-0.008001885376870632,-0.04750168323516846,-0.03365160524845123,-0.05777757242321968,-0.02565884031355381,-0.00783421192318201,0.013987713493406773,0.019063951447606087,0.0069544813595712185,-0.008685066364705563,0.0006464219186455011,0.0032400384079664946,-0.04592344909906387,-0.08342167735099792,-0.08136256784200668,0.017015008255839348,-0.015445699915289879,-0.0022359322756528854,-0.03602832928299904,-0.01606844551861286,0.01482332218438387,-0.0011626434279605746,0.013216566294431686,-0.035540755838155746,0.001390119199641049,-0.012697773054242134,-0.06168818101286888,-0.005963729694485664,-0.025238405913114548,-0.027834365144371986,-0.020790018141269684,-0.057363033294677734,-0.05612118914723396,-0.07011426985263824,-0.06495365500450134,-0.11607848107814789,-0.05808061361312866,-0.055903784930706024,-0.008005804382264614,-0.00373853649944067,-0.07225274294614792,-0.012032143771648407,-0.004819333087652922,0.0325704887509346,-0.006424945779144764,0.020509015768766403,-0.0008151954389177263,-0.005316130351275206,-0.049676261842250824,0.005227942485362291,-0.06667137891054153,-0.006589341908693314,-0.010141298174858093,0.00037692266050726175,-0.051144298166036606,-0.011254536919295788,-0.023891059681773186,-0.057599056512117386,-0.035687778145074844,-0.09413345903158188,-0.05958428606390953,-0.04237084090709686,-0.025072405114769936,0.008904358372092247,-0.05947382003068924,0.026813246309757233,-0.013280223123729229,-0.005103441420942545,0.005490364972501993,0.05160527303814888,-0.02645852044224739,-0.009339658543467522,-0.04422780126333237,-0.062776118516922,-0.0571834035217762,-0.04244429990649223,-0.040165022015571594,-0.06679258495569229,-0.025842824950814247,-0.06312999874353409,-0.03928514942526817,-0.04635848104953766,-0.018877560272812843,-0.08517538756132126,-0.12349115312099457,-0.09038805216550827,-0.056936245411634445,-0.033422037959098816,-0.0007493499433621764,-0.02825292944908142,-0.012582662515342236,-0.040235988795757294,0.029303250834345818,-0.018510377034544945,-0.02081494964659214,-0.032166484743356705,0.00053802301408723,-0.019069766625761986,0.01977851614356041,0.026070985943078995,-0.011844458058476448,-0.027311526238918304,-0.0018642476061359048,-0.07471106201410294,-0.05079658702015877,-0.06993381679058075,-0.10366740822792053,-0.08664490282535553,-0.12423424422740936,-0.11036072671413422,-0.08113671839237213,-0.06485119462013245,-0.024713782593607903,-0.009896981529891491,0.023045357316732407,0.011701815761625767,0.007307121064513922,-0.006839291658252478,0.06849083304405212,0.0595100037753582,0.03868035227060318,0.0368984155356884,0.07821912318468094,-0.020620327442884445,-0.05896109715104103,-0.034364402294158936,-0.10129173845052719,-0.06654523313045502,-0.09411793947219849,-0.13258026540279388,-0.11062195152044296,-0.14839915931224823,-0.13180717825889587,-0.13842475414276123,-0.1679099053144455,-0.07403156906366348,-0.034548643976449966,0.029176052659749985,-0.017375165596604347,-0.019293181598186493,-0.02648605965077877,0.06690642982721329,0.05662010237574577,-0.014688877388834953,0.0370723120868206,0.02506646141409874,-0.001032815664075315,-0.052741046994924545,-0.09723029285669327,-0.0702810138463974,-0.10413223505020142,-0.06041399762034416,-0.04934652894735336,-0.07735048234462738,-0.08700448274612427,-0.0859428271651268,-0.10649830847978592,-0.049900367856025696,-0.11928267031908035,-0.07951164245605469,-0.03461878001689911,0.02451961673796177,-0.016394179314374924,-0.013108670711517334,0.005871887318789959,0.04024580493569374,0.0015275259502232075,-0.009918728843331337,0.033706508576869965,0.008597196079790592,-0.05787283182144165,-0.03381506726145744,-0.04412498325109482,-0.13998544216156006,-0.08046741038560867,0.017685117200016975,-0.03551853448152542,-0.09609220176935196,-0.08195197582244873,-0.04136056452989578,-0.062065333127975464,-0.06783006340265274,-0.014164690859615803,-0.029171546921133995,-0.055369772017002106,-0.04084554314613342,0.015770472586154938,0.012322976253926754,-0.02908041514456272,-0.028562474995851517,0.027919340878725052,0.014153633266687393,0.010744529776275158,-0.015152772888541222,-0.02935815416276455,-0.04037914052605629,-0.045053623616695404,-0.0023840307258069515,-0.0009655457106418908,0.0007394615677185357,-0.0374729260802269,-0.001844437443651259,-0.09194137156009674,-0.01692441664636135,0.0356099009513855,0.018257537856698036,0.0030488690827041864,-0.06122715771198273,-0.001727027352899313,-0.040918268263339996,0.01997089944779873,-0.008055906742811203,-0.028744710609316826,0.0017167591722682118,-0.03570324927568436,-0.022367948666214943,-0.042432598769664764,-0.05795304849743843,-0.01574920490384102,0.00590727012604475,-0.006261193659156561,0.01754746213555336,-0.036815252155065536,-0.07101813703775406,-0.059436146169900894,0.027088221162557602,0.006717325653880835,-0.002034577541053295,-0.034310489892959595,0.04482154920697212,0.04921240732073784,0.04135465994477272,-0.008403090760111809,-0.016603685915470123,-0.005771533120423555,-0.010867619886994362,-0.03952058404684067,-0.10678484290838242,-0.11949016153812408,-0.061302389949560165,-0.04690342769026756,-0.019177034497261047,-0.003532834118232131,-0.02722865715622902,-0.018411649391055107,0.03691608086228371,0.030639568343758583,-0.019178161397576332,0.004815334919840097,-0.0002471225743647665,-0.047934792935848236,-0.01778595522046089,-0.019412333145737648,0.015635065734386444,0.03347954899072647,-0.005961497779935598,-0.02487104758620262,0.014072778634727001,-0.006552057806402445,-0.02173934318125248,-0.023340940475463867,-0.06607583165168762,-0.04522896930575371,0.0012049971846863627,-0.037927813827991486,-0.03379187360405922,-0.041066862642765045,0.009335950948297977,0.0408879779279232,0.07771626859903336,-0.00011790308053605258,0.0026626880280673504,-0.017281601205468178,-0.04017128422856331,-0.008568541146814823,-0.005365387536585331,0.03833163157105446,0.03188157081604004,0.030469221994280815,-0.0015230232384055853,-0.0018140556057915092,0.0170077346265316,-0.006662643514573574,-0.009689534083008766,-0.03937040641903877,-0.09731758385896683,-0.05347325652837753,-0.041287850588560104,-0.05766139551997185,-0.019466351717710495,0.023221872746944427,0.08059410750865936,0.06229144707322121,0.015252223238348961,-0.009394064545631409,0.035510510206222534,-0.0033266644459217787,-0.023689229041337967,0.00634073605760932,0.05030922219157219,0.039185602217912674,-0.007996192201972008,-0.0027202689088881016,-0.022305693477392197,0.020596545189619064,-0.010962339118123055,0.00372931151650846,-0.08318167179822922,-0.16401849687099457,-0.12834258377552032,-0.14795762300491333,-0.11789847910404205,-0.06792664527893066,-0.017584659159183502,-0.007899603806436062,-0.005745661444962025,-0.007924139499664307,0.0005861383979208767,0.05810966715216637,0.01469032559543848,0.01639110967516899,-0.005479930900037289,0.03997548669576645,0.04523848369717598,0.021276073530316353,0.020799236372113228,0.02918814681470394,0.034064166247844696,0.017729338258504868,0.01223567221313715,-0.0561913400888443,-0.14763149619102478,-0.10601832717657089,-0.1590437889099121,-0.11879879236221313,-0.012838578782975674,-0.018772020936012268,-0.007048382423818111,0.03719967231154442,0.037871960550546646,0.03770942986011505,0.041209980845451355,0.02315608225762844,0.0452038012444973,0.03740207478404045,0.08148550242185593,0.08605635166168213,0.022255919873714447,0.019708123058080673,0.059038661420345306,0.03145843371748924,0.01920134760439396,0.010237881913781166,-0.047500159591436386,-0.074460469186306,-0.03375018388032913,-0.11542576551437378,-0.16047173738479614,-0.15088053047657013,-0.09004727751016617,-0.0061809164471924305,0.07415856420993805,0.040697529911994934,0.03274575620889664,-0.020405247807502747,0.06515336036682129,0.09191381931304932,0.06970294564962387,0.04116690158843994,0.04687940329313278,0.07861945033073425,0.05064559727907181,0.050886400043964386,0.06194789335131645,0.004442252684384584,-0.014032884500920773,0.0006288629956543446,-0.04999034106731415,-0.02672707661986351,-0.015818815678358078,-0.0681610032916069,-0.12493367493152618,-0.22756946086883545,-0.09271696954965591,-0.011150585487484932,-0.04242922365665436,-0.0395217090845108,-0.021510975435376167,0.05318872258067131,0.06452382355928421,0.05426271632313728,-8.606264600530267e-05,0.035622499883174896,0.056764353066682816,0.012105614878237247,0.015019740909337997,0.023336106911301613,0.00980566069483757,-0.029278388246893883,-0.01359825674444437,0.021600302308797836,-0.020810503512620926,0.010258978232741356,-0.0449896901845932,-0.033073894679546356,-0.0696760043501854,-0.10261260718107224,-0.08324635773897171,-0.060999009758234024,-0.013207701034843922,-0.0037388282362371683,0.003916251007467508,0.03419351577758789,0.01575000211596489,0.006173036992549896,0.008906573988497257,0.007261919789016247,-0.00317645026370883,-0.045783594250679016,-0.0220639631152153,0.020417120307683945,-0.03034580498933792,-0.0036075240932404995,0.014098881743848324,-0.010294563136994839,-0.01961987465620041,-0.0069234129041433334,-0.03146924823522568,-0.03654563054442406,-0.06399840116500854,-0.027964645996689796,-0.060178834944963455,0.02047933079302311,0.09423136711120605,0.08879607915878296,0.07761145383119583,0.03560646250844002,0.0069715166464447975,0.0072080474346876144,0.028492748737335205,0.0010204189456999302,-0.02554255723953247,-0.009561184793710709,0.025308335199952126,0.015220274217426777,0.007891974411904812,0.04396667331457138,0.032881274819374084,-0.027745770290493965,-0.01424151100218296,0.003756252583116293,-0.032553624361753464,-0.006426285021007061,0.030378781259059906,-0.09127870202064514,-0.06590855121612549,0.01895945332944393,0.040328532457351685,0.060328200459480286,0.045276571065187454,0.0049430448561906815,-0.008902626112103462,-0.032631225883960724,-0.004924457054585218,-0.005897704977542162,0.019091099500656128,0.06279754638671875,0.0007181385881267488,-0.04265173524618149,-0.029025975614786148,-0.002925287466496229,-0.009248215705156326,-0.03961022198200226,-0.0007178923115134239,0.004947838839143515,0.011102191172540188,-0.04719008505344391,-0.08461248874664307,-0.13216984272003174,-0.1638808250427246,-0.1014513373374939,-0.10564026981592178,0.017500413581728935,-0.07198572158813477,-0.041624441742897034,0.0038187052123248577,0.02116226591169834,-0.040051866322755814,-0.14544768631458282,-0.01988741010427475,0.04923969507217407,0.009761840105056763,-0.06362384557723999,0.03477463871240616,0.05037536472082138,-0.01909966580569744,-0.055221494287252426,0.0006273360922932625,0.060009993612766266,-0.020750774070620537,-0.04168480634689331,-0.11934065073728561,-0.1395484209060669,-0.13384217023849487,-0.1311304271221161,-0.051319871097803116,-0.03367999196052551,-0.036897286772727966,-0.028911612927913666,-0.03653097152709961,0.050292178988456726,-0.0009168643737211823,-0.03480386734008789,-0.03974747657775879,-0.01098388060927391,-0.0350249819457531,-0.0459413155913353,0.007843397557735443,0.04234335198998451,-0.05165380612015724,-0.06706362962722778,0.01114176120609045,0.006669157650321722,-0.0372932069003582,-0.04940057173371315,-0.1761750727891922,-0.12855494022369385,-0.11167576164007187,-0.1292075365781784,-0.008554995059967041,-0.060842253267765045,-0.048571888357400894,-0.022001847624778748,-0.028848417103290558,-0.005524557549506426,-0.03385814651846886,-0.05431702733039856,-0.04804076626896858,-0.01449502632021904,-0.06248866766691208,-0.03130730241537094,0.04127516970038414,0.025248300284147263,-0.03257549926638603,-0.04935135319828987,0.0678272470831871,-0.029364334419369698,-0.054432325065135956,-0.06350460648536682,-0.07304992526769638,-0.1372479647397995,-0.11369861662387848,-0.0764453113079071,-0.027029424905776978,-0.03175180032849312,-0.006734684109687805,-0.01702193170785904,-0.01361818052828312,-0.041750844568014145,-0.02944817766547203,-0.021624865010380745,-0.022672245278954506,0.013600669801235199,-0.016238529235124588,0.012409333139657974,0.04011522978544235,0.01245653722435236,0.02313394285738468,0.03042285144329071,-0.009153795428574085,-0.0037035630084574223,-0.04930979385972023,-0.09086798876523972,-0.08986601233482361,-0.0820903480052948,-0.05357274040579796,-0.07102464884519577,0.005479954183101654,-0.017014959827065468,8.666385838296264e-05,-0.021995067596435547,-0.027418190613389015,-0.00852072611451149,-0.019804932177066803,0.024524733424186707,0.025765543803572655,-0.015753764659166336,-0.014064974151551723,0.004832439124584198,0.013719107024371624,0.046400927007198334,0.0885772630572319,0.022263232618570328,-0.025639651343226433,-0.02190972864627838,-0.05159299820661545,-0.0352490097284317,-0.04497256502509117,-0.031363990157842636,-0.048173606395721436,-0.034966956824064255,0.021319082006812096,0.024181753396987915,0.032015759497880936,0.047104544937610626,-0.009318303316831589,-0.02688904106616974,-0.015008781105279922,0.02608942985534668,-0.02627641148865223,-0.022112280130386353,0.004675932228565216,0.03319486230611801,0.030542125925421715,0.04378823563456535,0.07378435134887695,0.03290177881717682,-0.020786799490451813,0.0008686158107593656,-0.026377540081739426,0.0011355082970112562,0.015453864820301533,-0.037147074937820435,-0.04252615198493004,0.030558310449123383,0.02326146885752678,0.02542148157954216,0.021757986396551132,0.0006461410084739327,-0.0018010061467066407,0.004287315532565117,0.026641543954610825,0.009751974605023861,0.0026935692876577377,0.013014338910579681,0.018656840547919273,-0.0035466975532472134,0.02063019387423992,0.07372601330280304,0.0836721733212471,0.0077999308705329895,-0.017805013805627823,-0.0009149458492174745,0.010484142228960991,0.0398813933134079,0.021510185673832893,-0.01611495576798916,0.02184382826089859,0.04097934439778328,0.02435033954679966,0.03429539501667023,0.016843346878886223,-0.00563450763002038,0.025236701592803,0.018853727728128433,-0.015447473153471947,-0.011007861234247684,-0.011524954810738564,-0.005113750230520964,0.01995997130870819,0.012800090946257114,0.049439094960689545,0.04906430095434189,0.04074794426560402,-0.0002738184412010014,-0.028554735705256462,0.02117083966732025,-0.0003106452350039035,0.003934214822947979,-0.009015887044370174,0.027783511206507683,0.06949406117200851,0.018825726583600044,0.026253173127770424,0.006698410492390394,0.039169397205114365,0.0465531162917614,0.03169660270214081,-0.023642530664801598,-0.04834260791540146,-0.019914336502552032,-0.019536541774868965,-0.027550525963306427,0.0067541347816586494,0.02426079288125038,0.04496246203780174,0.024827979505062103,0.034516990184783936,0.05363133177161217,-0.0009613529546186328,-0.019976329058408737,-0.005809683818370104,-0.0006354820798151195,0.03557412698864937,0.08066503703594208,0.08152368664741516,0.014060269109904766,0.022241663187742233,0.019442617893218994,0.06212800741195679,0.027143361046910286,0.017660537734627724,-0.04689231514930725,-0.058281514793634415,-0.007236395962536335,-0.03388439863920212,-0.019339850172400475,0.009592141024768353,0.010663850232958794,0.05100694298744202,0.03235461190342903,0.021375013515353203,0.04926198348402977,-0.0003137323947157711,-0.03545036166906357,-0.022685425356030464,0.04783645272254944,0.04861372336745262,0.09383897483348846,0.041450269520282745,0.035122212022542953,0.02955835871398449,0.04561138525605202,0.06801300495862961,0.06897427886724472,-0.003953267354518175,-0.04377968981862068,-0.041822247207164764,-0.060282766819000244,-0.031906209886074066,-0.007451551500707865,0.017685331404209137,0.03191782534122467,0.04810235649347305,0.036637865006923676,0.02384665608406067,0.03966580703854561,-0.01759868860244751,-0.06776641309261322,0.023686394095420837,0.08259224891662598,0.06323059648275375,0.045583415776491165,0.05272006615996361,0.04426237568259239,0.05912546068429947,0.04531288519501686,0.038564182817935944,-0.0026536330115050077,-0.06069180369377136,-0.11489830166101456,-0.04435950517654419,-0.03919864818453789,-0.024358289316296577,0.028458990156650543,-0.01491408608853817,0.02769576571881771,0.02701534889638424,-0.0007450725533999503,0.04314696416258812,0.06899584829807281,-0.04898722469806671,-0.026293374598026276,0.07332174479961395,0.02876049280166626,0.06097378954291344,0.01964862085878849,0.09277550131082535,0.05846478044986725,0.04350627213716507,0.021510763093829155,0.04379035905003548,-0.02151491306722164,-0.08193840831518173,-0.10046837478876114,-0.0759253278374672,-0.016395337879657745,-0.046802688390016556,0.02393726259469986,-0.011402822099626064,0.03447902575135231,-0.00402914360165596,0.003625000361353159,0.03035661019384861,0.06352989375591278,-0.04124542698264122,-0.010642057284712791,0.04247504100203514,0.07532675564289093,0.040840890258550644,0.045915715396404266,0.06669553369283676,0.0424681231379509,0.007508627604693174,0.05032527819275856,0.07912622392177582,-0.022180384024977684,-0.09825195372104645,-0.08730476349592209,-0.03631759062409401,-0.03406704217195511,-0.040169473737478256,0.0023287709336727858,0.010567746125161648,0.02223460003733635,-0.007645878475159407,0.02965298667550087,0.03946605697274208,0.04447036609053612,-0.03228701278567314,-0.0048310598358511925,0.06289365887641907,0.05448983982205391,0.008512544445693493,0.04275210201740265,0.058504775166511536,0.02897685393691063,0.05163009837269783,0.07541829347610474,0.04238807410001755,-0.06171838566660881,-0.09674803912639618,-0.05616909638047218,-0.025320911779999733,-0.0403573140501976,-0.00743869598954916,-0.014638791792094707,0.009406542405486107,0.004049050156027079,0.0021848254837095737,0.03064521960914135,0.02760111354291439,0.009643703699111938,-0.02062867023050785,0.022945256903767586,-0.03252657875418663,0.009855457581579685,-0.027660416439175606,0.00958574004471302,0.06561489403247833,0.055154670029878616,0.07522953301668167,0.0655725747346878,-0.0044653890654444695,-0.0526360422372818,-0.038153067231178284,-0.03338198736310005,-0.024930646643042564,-0.01963249035179615,-0.0162357110530138,-0.02404896542429924,-0.017558611929416656,-0.017387842759490013,0.022957608103752136,0.004700188059359789,-0.016049349680542946,0.02689836174249649,0.04136854037642479,-0.04338543489575386,-0.02767512947320938,0.03345521166920662,0.01517949067056179,0.020465213805437088,0.029760757461190224,0.062967449426651,0.07175136357545853,0.0016903320793062449,-0.02280145138502121,-0.02671794779598713,-0.0176754929125309,-0.05141894146800041,-0.023600073531270027,-0.018685519695281982,-0.03381740674376488,0.004179142415523529,-0.030268356204032898,0.012368269264698029,0.007562147919088602,-0.021093938499689102,-0.015876689925789833,0.0638127252459526,-0.005518645513802767,-0.005101635120809078,-0.0194393377751112,0.04182204604148865,0.03194906935095787,0.014586779288947582,0.03284013643860817,0.019905222579836845,0.04722679778933525,0.006154780741780996,-0.015978647395968437,-0.0027804600540548563,-0.01319202035665512,-0.038083646446466446,-0.022393302991986275,-0.0239573884755373,-0.02058410458266735,-0.010676786303520203,-0.019735971465706825,-0.01658577471971512,-0.04242653399705887,0.018911825492978096,0.008308632299304008,-0.0012731398455798626,-0.04285430908203125,0.04004652798175812,0.015632126480340958,-0.012814808636903763,0.055271729826927185,0.030591048300266266,0.022067928686738014,-0.00796231348067522,0.02903442084789276,-0.004984062165021896,0.002859105123206973,-0.03677466884255409,-0.039255257695913315,-0.00573006272315979,-0.01029522530734539,-0.03020845353603363,-0.013751398772001266,-0.025626998394727707,0.003090038662776351,-0.03450015187263489,0.0057761273346841335,0.014896594919264317,0.008144871331751347,-0.06424948573112488,0.012054791674017906,0.0043993075378239155,0.02804766595363617,-0.028145384043455124,0.026009947061538696,0.005909313447773457,-0.014549318701028824,-0.01889609545469284,0.024287816137075424,-0.010137994773685932,-0.01147700846195221,-0.025815449655056,-0.001532787806354463,-0.021757327020168304,-0.04753774404525757,-0.00864640437066555,-0.016299623996019363,-0.010621215216815472,-0.046017665416002274,-0.045271825045347214,-0.017065050080418587,0.024363040924072266,-0.040918149054050446,-0.07896620035171509,0.014447895810008049,-0.04677032306790352,-0.0028873435221612453,0.006038047838956118,0.020376846194267273,-0.03495367243885994,0.007714520208537579,0.007069704122841358,0.017858345061540604,-0.016530081629753113,-0.028823254629969597,-0.03971896320581436,0.003190072253346443,0.005753311328589916,-0.03240778669714928,0.012301070615649223,0.0006365290028043091,-0.03836778923869133,-0.06619712710380554,-0.03153273090720177,-0.006832272745668888,-0.05846569687128067,-0.011935068294405937,-0.05472400039434433,0.01348164677619934,-0.008581195957958698,-0.015593969263136387,0.01754908263683319,0.013670044019818306,-0.04069029539823532,-0.00921692606061697,0.001845319988206029,0.0008240442839451134,-0.0348900631070137,-0.014460496604442596,-0.00863132905215025,-0.006315046921372414,-0.030041750520467758,0.00791818555444479,0.05344228819012642,-0.01413284707814455,-0.04198915511369705,-0.03215722367167473,-0.007920341566205025,-0.026546990498900414,-0.05955272540450096,0.05467453598976135,-0.009440761059522629,-0.027362769469618797,0.011868158355355263,0.09686455875635147,-0.026161855086684227,-0.028493501245975494,-0.0005494111683219671,0.029172280803322792,-0.0002698328753467649,-0.006832858547568321,0.001502704224549234,-0.013215136714279652,-0.026531334966421127,0.015209670178592205,0.012832521460950375,0.03532135859131813,0.05237436294555664,-0.05099691078066826,-0.026767907664179802,0.010694487020373344,-0.055026326328516006,-0.11507554352283478,-0.08703667670488358,0.0249776653945446,-0.01176008116453886,-0.025344843044877052,-0.03766573965549469,0.003942189738154411,0.03069079853594303,-0.06686151772737503,0.007777530699968338,0.014373265206813812,-0.0029268451035022736,-0.04132822901010513,-0.028895413503050804,-0.03811440244317055,-0.03508336842060089,0.003270555753260851,0.02756025269627571,-0.026690946891903877,-0.10500863194465637,-0.08472446352243423,-0.054849278181791306,-0.10114428400993347,-0.12757548689842224,-0.1847061961889267,-0.1027127355337143,-0.0668349340558052,-0.030460752546787262,0.014681682921946049,-0.003492895979434252,0.014322648756206036,0.020686401054263115,0.006074759643524885,0.005379934795200825,0.026897035539150238,0.016030048951506615,0.014909246005117893,0.014866231009364128,0.011645901016891003,0.004948006942868233,0.01788739487528801,0.0352286733686924,0.028120482340455055,0.012982920743525028,0.01010003499686718,-0.002071121707558632,-0.004810708574950695,0.025934763252735138,0.02319071628153324,-0.0006671791197732091,-0.009212401695549488,0.018665535375475883,0.017224961891770363,0.017101196572184563,0.011253069154918194,-0.0022945625241845846,0.01810501515865326,0.026190444827079773,0.016462810337543488,0.014382111839950085,0.0021954826079308987,0.004015602171421051,0.012949210591614246,0.047236815094947815,0.024691225960850716,-0.010469268076121807,0.006512102205306292,0.024279089644551277,0.023952968418598175,0.011065776459872723,-0.018122956156730652,-0.01304429117590189,0.003794795833528042,0.0075506241992115974,-0.002268044278025627,0.009094184264540672,-0.0051983315497636795,0.006414083763957024,0.004741834010928869,0.005675943102687597,0.01822654902935028,0.011210257187485695,-0.009822344407439232,0.014791570603847504,0.008437706157565117,0.014530891552567482,0.031217487528920174,-0.0027696306351572275,-0.04931388795375824,0.012960911728441715,-0.011109302751719952,-0.020925771445035934,-0.006166101433336735,0.011833115480840206,0.009590743109583855,0.009124386124312878,0.005419336725026369,-0.013785557821393013,-0.0007145277922973037,0.008085239678621292,0.0012003171723335981,0.0030604719650000334,-0.004717827774584293,0.004528018645942211,0.011051704175770283,0.028822408989071846,0.0459233857691288,0.015599002130329609,0.010934095829725266,0.01690337248146534,-0.014180120080709457,0.028183087706565857,0.014211433008313179,0.02682867832481861,0.0007920597563497722,-0.0025062281638383865,-0.04253756254911423,-0.061941616237163544,-0.019269367679953575,-0.004784253425896168,-0.016957595944404602,-0.03793570399284363,0.0016048367833718657,0.0009392830543220043,0.009159093722701073,0.012412771582603455,0.005263089202344418,0.0018722868990153074,0.007693194784224033,0.0340355783700943,0.024165259674191475,0.004765932913869619,-0.0012470624642446637,0.0413401797413826,-0.003999794367700815,0.01748068444430828,-0.034828271716833115,0.028420526534318924,-0.010462657548487186,-0.07246877253055573,-0.1341727375984192,-0.1058439388871193,-0.03604321554303169,-0.045291367918252945,-0.07554847002029419,-0.00705145625397563,0.0013850015820935369,-0.003490236820653081,-0.007085643708705902,0.019692949950695038,0.003876238130033016,0.009710529819130898,0.016563210636377335,0.01279831025749445,0.011587649583816528,0.04676417261362076,0.05025065690279007,-0.03302586078643799,0.013997368514537811,0.00936911627650261,-0.07428338378667831,-0.001387386699207127,-0.04614647850394249,-0.13382279872894287,-0.16179348528385162,-0.15585832297801971,-0.0817602351307869,-0.09641711413860321,-0.09450676292181015,-0.014751829206943512,0.015850698575377464,-0.017095888033509254,0.010879939422011375,-0.009682504460215569,0.005522697698324919,0.025935759767889977,0.030158743262290955,0.031120747327804565,0.03316018730401993,0.019777344539761543,0.007569663226604462,-0.014168662019073963,0.0537862665951252,0.0046234410256147385,-0.026129189878702164,-0.07416877150535583,-0.0774107277393341,-0.15407566726207733,-0.10817556083202362,-0.15286892652511597,-0.08705521374940872,-0.1283881962299347,-0.09076708555221558,-0.057744503021240234,-0.010781170800328255,-0.005886857397854328,-0.002431133994832635,0.02326960861682892,0.02700488641858101,0.029943080618977547,0.01395333930850029,0.0008738801698200405,0.029051706194877625,-0.025129660964012146,-0.011388232931494713,-0.011965945363044739,0.02930818684399128,-0.009255501441657543,-0.06215108186006546,-0.055886782705783844,-0.13457801938056946,-0.14423541724681854,-0.0819457396864891,-0.04849637672305107,-0.07630393654108047,-0.13785752654075623,-0.055711910128593445,-0.049430593848228455,-0.012178827077150345,0.025355704128742218,-0.00010909193952102214,0.011209039948880672,0.014390416443347931,0.026439502835273743,0.00952864345163107,0.013684088364243507,0.02472863346338272,-0.020417023450136185,-0.029323294758796692,0.022968685254454613,0.031128225848078728,-0.012469375506043434,0.018522189930081367,-0.005190620198845863,-0.06638259440660477,-0.04570937529206276,-0.046814125031232834,-0.014646882191300392,-0.05896991491317749,-0.09601517021656036,-0.03833641856908798,-0.04320044070482254,-0.03988427668809891,0.030461762100458145,0.004470403306186199,0.017229553312063217,-0.006809420417994261,-0.0035549080930650234,0.014081756584346294,0.040557265281677246,-0.024871032685041428,-0.014564856886863708,-0.041185103356838226,0.08104638755321503,0.04567597806453705,0.03446255624294281,0.023645617067813873,0.01437410805374384,0.008647093549370766,0.005990500096231699,-0.0637967512011528,-0.01432984508574009,-0.048392876982688904,-0.051440101116895676,-0.04641778767108917,-0.061993639916181564,-0.0071925632655620575,0.014403659850358963,0.01572628878057003,-0.0011938681127503514,0.01235421746969223,-0.00141749472822994,0.02087242715060711,0.014309676364064217,-0.040050070732831955,0.011349847540259361,0.008425095118582249,0.027923259884119034,0.003127526491880417,-0.022453028708696365,-0.002607346512377262,0.027576006948947906,0.05261031910777092,0.05251377075910568,-0.02543880231678486,-0.007213789504021406,-0.021426770836114883,-0.03157195821404457,-0.03782937303185463,-0.021509375423192978,-0.0014209900982677937,0.018264932557940483,0.020607931539416313,0.016830749809741974,-0.0039573488757014275,-0.012014641426503658,0.022920019924640656,0.007576194126158953,0.03172677382826805,0.019316308200359344,0.007286109030246735,0.028902439400553703,0.027266651391983032,0.010687361471354961,0.03225801885128021,0.0676368996500969,0.0813356339931488,0.06448306888341904,0.022956769913434982,0.013841093517839909,-0.0341755673289299,0.004131196066737175,-0.0014831863809376955,-0.006053689401596785,-0.020436255261301994,0.025663133710622787,0.01310836523771286,0.006166303530335426,-0.015349896624684334,-0.005440295673906803,0.009351832792162895,0.02593066170811653,0.006643795408308506,0.008672911673784256,0.01456757728010416,0.031223073601722717,0.039078641682863235,0.0496213436126709,0.06394949555397034,0.041417405009269714,0.019596384838223457,0.043272554874420166,-0.01157305110245943,0.005182772874832153,0.012407207861542702,-0.009622005745768547,0.0172309298068285,0.01792312227189541,0.032890334725379944,-0.0032111562322825193,-0.011595360934734344,-9.662446973379701e-05,-0.013653681613504887,-0.029141714796423912,0.031224319711327553,0.032568104565143585,0.020745467394590378,0.032451219856739044,0.027996668592095375,0.05934908986091614,0.06866297125816345,0.03738152235746384,0.04851663112640381,0.04516555741429329,0.06936308741569519,0.06416428834199905,-0.025443250313401222,0.0011588896159082651,0.02092350646853447,0.01994953118264675,-0.013358468189835548,0.04842205345630646,0.02709038183093071,-0.005046425387263298,0.017027897760272026,-0.020268931984901428,-0.02726004645228386,-0.010901330970227718,0.0028309274930506945,0.00421362416818738,0.021813690662384033,-0.020776672288775444,0.027659375220537186,0.02745252288877964,-0.006951335817575455,0.03334449976682663,0.10428598523139954,0.05427058786153793,0.02975541166961193,0.014509158208966255,-0.03842374309897423,0.012353189289569855,0.021124182268977165,0.035608526319265366,0.023863090202212334,0.06368398666381836,0.0034108327236026525,0.01522858440876007,0.00018882188305724412,-0.021086525171995163,-0.03627845644950867,-0.03037017025053501,-0.050522662699222565,0.0062117744237184525,-0.0470861978828907,-0.03440430387854576,-0.006781499367207289,0.029218260198831558,0.047412771731615067,0.07114242017269135,0.08991672843694687,0.011348685249686241,0.047556281089782715,-0.015730200335383415,0.001552930218167603,0.07619202136993408,0.04549672082066536,0.042328160256147385,0.05790703743696213,0.013950014486908913,-0.0018279609503224492,0.0314105860888958,0.004307562950998545,-0.012692516669631004,-0.016176432371139526,-0.03298564627766609,-0.03587616607546806,-0.02761397883296013,-0.11400704085826874,-0.0750514417886734,-0.016571009531617165,0.024759456515312195,0.07025417685508728,0.0599072203040123,0.03799257427453995,0.06019884720444679,0.012473913840949535,0.017837848514318466,0.06355229765176773,0.062215082347393036,0.07653231918811798,0.029756328091025352,0.0345693938434124,0.025854283943772316,0.025738107040524483,0.020385295152664185,0.0001927591220010072,-0.012440887279808521,-0.024884629994630814,-0.0016070648562163115,-0.05106107518076897,-0.08199632912874222,-0.10748978704214096,-0.08382262289524078,-0.08304793387651443,0.04161858186125755,0.06452658772468567,0.03515730798244476,-0.02607407048344612,-0.006596467923372984,0.019792964681982994,0.08350072801113129,0.11190693080425262,0.07651498913764954,0.05623471736907959,0.025700872763991356,0.043150387704372406,0.026847245171666145,0.03256620466709137,0.014574660919606686,-0.00876062922179699,-0.004475555848330259,-0.004546448588371277,-0.019186748191714287,-0.05617009103298187,-0.09705346822738647,-0.12484313547611237,-0.15294653177261353,-0.08321411907672882,-0.0026888842694461346,-0.0022479232866317034,-0.06791780889034271,-0.047131724655628204,0.05795912444591522,0.08247369527816772,0.10002238303422928,0.07185769081115723,0.06851893663406372,0.012511305510997772,0.05572686344385147,0.030640264973044395,0.039420198649168015,-0.00149724748916924,0.01527262944728136,-0.008001950569450855,-0.00943103525787592,-0.02446209080517292,-0.010801266878843307,-0.014492685906589031,-0.053132764995098114,-0.11978945881128311,-0.10009250044822693,-0.10922233760356903,-0.08137074112892151,-0.1338672935962677,-0.052327271550893784,0.037630073726177216,0.10843782126903534,0.054275743663311005,0.05409796163439751,0.054558780044317245,0.012766505591571331,0.040118277072906494,0.030302029103040695,0.03428904712200165,0.003018896793946624,-0.004136668052524328,-0.0058386605232954025,-0.018420657142996788,-0.005837846547365189,-0.010808836668729782,-0.0065961796790361404,-0.01906369999051094,-0.031230712309479713,-0.10900811105966568,-0.11228208243846893,-0.15049760043621063,-0.09596595168113708,-0.031301602721214294,0.048044122755527496,0.0720503106713295,0.050130169838666916,-0.00711909681558609,0.05359905958175659,0.029168324545025826,0.009220302104949951,0.02684563584625721,0.01638125814497471,0.00028673652559518814,-0.014316004700958729,0.01788702979683876,0.01057564839720726,-0.0149361127987504,0.0012247489066794515,-0.002215848071500659,-0.01811358891427517,-0.0009005474857985973,0.0238188449293375,-0.00752074271440506,-0.06032497063279152,-0.060604482889175415,-0.013797714374959469,0.02571212686598301,0.023170914500951767,0.04609806835651398,0.022999905049800873,0.044503845274448395,0.021173961460590363,-0.002737063216045499,0.007925695739686489,0.010808932594954967,0.025848617777228355,-0.023759910836815834,0.014370029792189598,0.01446670200675726,0.010061655193567276,0.024952542036771774,0.008256148546934128,-0.0033185516949743032,-0.018028104677796364,-0.000931461458094418,-0.03104737028479576,-0.004225884564220905,-0.02326195128262043,-0.015113568864762783,0.02009037882089615,0.033136915415525436,0.01842019148170948,0.025577573105692863,-0.0065511972643435,-0.0028789127245545387,0.0093954773619771,-0.026377923786640167,0.010423780418932438,-0.0007512866286560893,-0.007944587618112564,-0.0014493063790723681,0.02984866499900818,0.02488161250948906,0.0022995187900960445,0.007172201294451952,0.010132621973752975,-0.009219057857990265,-0.002183805452659726,0.02286079153418541,0.00012583339412230998,-0.050135936588048935,0.00041784916538745165,0.010579440742731094,0.0010489003034308553,0.018623435869812965,0.032501257956027985,-0.018746940419077873,-0.02648213878273964,-0.008998852223157883,-0.0030464348383247852,0.011216826736927032,0.032964061945676804,-0.005076264496892691,-0.031358446925878525,-0.01782764308154583,0.007972047664225101,0.009621950797736645,-0.005166437942534685,0.01930484175682068,0.010316102765500546,0.0006229132413864136,-0.027850916609168053,-0.014750699512660503,-0.05237971246242523,0.008899512700736523,0.021877452731132507,-0.05299334228038788,0.01643988862633705,0.023023834452033043,-0.04084184393286705,-0.030638057738542557,0.02267315238714218,-0.03773632273077965,-0.04216349497437477,-0.009855987504124641,-0.0007217084057629108,0.020749635994434357,0.03146333619952202,0.014228790998458862,0.00722931046038866,0.024303536862134933,0.022245150059461594,0.028684193268418312,0.007392171770334244,-0.008654503151774406,0.015655068680644035,0.019168276339769363,0.04087001085281372,0.01776335947215557,-0.03372995927929878,0.01681140996515751,0.015425343066453934,0.0021551409736275673,0.058353520929813385,0.13338930904865265,0.04337088763713837,0.03977755829691887,0.09652803838253021,-0.002200594637542963,0.008658690378069878,0.003125600516796112,-0.026608914136886597,-0.017521237954497337,0.008663234300911427,0.02077614888548851,0.0006182953948155046,0.015037725679576397,0.01692543923854828,0.041922517120838165,0.009476070292294025,0.0014157239347696304,-0.009015263989567757,-0.0331200510263443,0.00319938687607646,-0.05060819536447525,-0.08418217301368713,0.06441659480333328,0.09977982938289642,-0.04929491505026817,0.003801556769758463,0.05435945466160774,0.05736631155014038,-0.013972177170217037,-0.035763680934906006,0.05243504419922829,0.02400071546435356,-0.013260205276310444,0.027426108717918396,0.031727682799100876,0.00950214359909296,0.01307566650211811,0.026455344632267952,0.002448965096846223,-0.022550076246261597,-0.009084503166377544,-0.13018716871738434,-0.035153068602085114,-0.06453286111354828,-0.07338027656078339,-0.0141852842643857,-0.027683408930897713,-0.06206434592604637,-0.0011359057389199734,0.002331475028768182,-0.029870761558413506,0.014269288629293442,0.021080752834677696,0.04109450802206993,0.04438027739524841,-0.05744750052690506,-0.03339727595448494,0.012660305947065353,-0.001725818612612784,-0.00038160645635798573,0.01561012864112854,-0.036449555307626724,-0.06399405002593994,-0.018836064264178276,-0.03215420991182327,-0.028017302975058556,-0.06277383863925934,-0.015022287145256996,-0.08011280745267868,-0.091555655002594,-0.04751966521143913,-0.0216708704829216,0.01145137194544077,0.03129330649971962,-0.0005482492852024734,0.013808679766952991,0.06889357417821884,0.014716126956045628,0.03337034583091736,-0.022750694304704666,0.037762559950351715,0.020087257027626038,-0.0028825795743614435,-0.014976752921938896,-0.021534429863095284,0.001801202422939241,-0.005923829972743988,0.008891570381820202,0.02378770522773266,-0.03663485497236252,-0.06717368215322495,-0.047942887991666794,-0.05420367047190666,-0.12466523051261902,-0.0630117878317833,-0.029050108045339584,0.006766437087208033,-0.018661942332983017,0.006538001354783773,0.027919244021177292,0.0673040822148323,0.053945500403642654,0.028014395385980606,0.03499611094594002,0.0921180471777916,0.023932883515954018,-0.0343296192586422,-0.03897366300225258,0.00468577491119504,0.034432340413331985,0.015943003818392754,-0.01984117366373539,0.009340833872556686,-0.05450176075100899,-0.04697570577263832,-0.02579370141029358,-0.04338901862502098,-0.07463092356920242,-0.036071036010980606,-0.06451296806335449,-0.013959718868136406,0.05082806572318077,0.019337797537446022,0.015414990484714508,0.0757608711719513,0.07028895616531372,0.032131850719451904,0.0314917266368866,0.1092224046587944,0.0652213916182518,0.02212688699364662,0.004847722128033638,0.018042022362351418,0.0018446986796334386,-0.09364932030439377,-0.012707862071692944,0.0008195217815227807,-0.027188988402485847,-0.06417063623666763,-0.03263917192816734,-0.009524433873593807,-0.006071432027965784,-0.034266937524080276,0.009110338054597378,0.03981802240014076,0.008156790398061275,0.011486118659377098,0.06827010214328766,0.0343640074133873,0.07433556765317917,0.10906527936458588,0.035629987716674805,0.035946570336818695,0.03819889575242996,-0.032158687710762024,-0.004746829625219107,-0.019031789153814316,-0.003733820980414748,0.008779109455645084,0.026571325957775116,-0.011476540938019753,-0.04361523315310478,-0.05520419031381607,-0.026363976299762726,0.011644038371741772,0.025007538497447968,-0.011996613815426826,-0.02761661820113659,-0.0040391539223492146,0.01048609334975481,0.02471184730529785,0.025659071281552315,0.01651705801486969,0.025452984496951103,0.07300641387701035,0.03463049605488777,0.0028672823682427406,0.02638191543519497,0.047892361879348755,-0.03133634850382805,0.029501402750611305,0.024284474551677704,-0.0071170758455991745,0.01649484783411026,0.0272622462362051,-0.028889458626508713,-0.04376951977610588,0.005943137686699629,0.036293692886829376,0.021509040147066116,-0.005761723965406418,-0.03608044981956482,0.028134319931268692,0.00748684536665678,0.03424786031246185,0.05109001323580742,0.02759607881307602,0.014538846909999847,-0.0035458863712847233,0.07375257462263107,0.034550633281469345,0.045884113758802414,0.02611532248556614,-0.030030492693185806,0.06722873449325562,0.01012984849512577,-0.027858592569828033,0.012705572880804539,0.03588113188743591,0.015592280775308609,-0.02056509256362915,-0.0064131272956728935,-0.0017063127597793937,-0.012387046590447426,0.018720107153058052,-0.029824325814843178,0.022616570815443993,0.019043559208512306,0.05708511918783188,0.0666162297129631,0.023763928562402725,-0.006021583918482065,0.03301366791129112,0.04613723233342171,0.06385732442140579,0.03772880136966705,0.02472752146422863,-0.04585598409175873,-0.053671304136514664,0.03347630798816681,0.011553259566426277,0.009968054480850697,0.027879444882273674,0.04300937056541443,-0.012937881052494049,-0.032432544976472855,0.03184226155281067,-0.009775958023965359,-0.0040744091384112835,-0.04802440479397774,-0.05495215952396393,-0.011759813874959946,0.013392860069870949,0.03413107618689537,0.03595421463251114,0.010962574742734432,0.03376727178692818,2.337686237297021e-05,0.06615626811981201,0.03352510929107666,0.004075848963111639,-0.044186051934957504,-0.03927971422672272,0.016212625429034233,-0.019378868862986565,0.027043575420975685,0.04823412373661995,0.026993686333298683,-0.021143916994333267,-0.027860403060913086,0.0076639303006231785,-0.009084230288863182,0.004097301978617907,-0.05327969044446945,0.0033382715191692114,-0.03125690668821335,-0.04486943036317825,-0.014330059289932251,0.06571543216705322,0.0005749172414653003,0.034729763865470886,0.039268508553504944,0.046334195882081985,0.06557150185108185,0.0008644748595543206,-0.03759683296084404,0.009575246833264828,0.00700391037389636,-0.005583885591477156,0.02302449569106102,0.06200162321329117,-0.01358149852603674,-0.011768760159611702,-0.029334068298339844,0.008121922612190247,-0.02954097092151642,-0.0193703044205904,-0.03892020881175995,-0.04253702610731125,-0.0177728533744812,-0.05235130712389946,-0.04660988971590996,0.018481077626347542,0.016170423477888107,0.025069670751690865,0.035841941833496094,0.029817188158631325,0.04415884613990784,0.02000442147254944,-0.03273602947592735,0.028972141444683075,-0.01144492719322443,-0.015218048356473446,0.03709927573800087,0.0460740327835083,0.01936706341803074,0.03651507571339607,0.012348845601081848,0.0033433171920478344,-0.03814159706234932,0.04058161750435829,-0.03299115598201752,-0.030998818576335907,-0.02980671636760235,-0.04076511412858963,-0.04148619994521141,-0.01232430711388588,0.005764689762145281,0.03305545076727867,0.04209994524717331,-0.020946167409420013,0.04368269443511963,0.029427194967865944,-0.00034716128720901906,0.016520747914910316,-0.02357824333012104,-0.01070818305015564,0.026805957779288292,0.023016005754470825,0.014311897568404675,0.032713383436203,0.02050335519015789,-0.012130596674978733,-0.020399298518896103,0.03864014893770218,-0.017778072506189346,-0.05741887912154198,-0.062347687780857086,-0.0346364751458168,-0.007219528779387474,-0.02504820004105568,0.011585625819861889,0.04103389009833336,0.007842641323804855,-0.006837423890829086,0.002674440387636423,0.025345321744680405,-0.046599265187978745,0.026485439389944077,0.030126845464110374,0.035015664994716644,-0.013269900344312191,0.005695913452655077,-0.005440172739326954,0.002784083364531398,0.01844184845685959,0.04614352807402611,0.0326412208378315,-0.007436040788888931,-0.03584681451320648,-0.049339037388563156,0.019787419587373734,-0.0022089420817792416,-0.007221605163067579,-0.0052365646697580814,-0.0025516811292618513,-0.010338390246033669,0.002857592422515154,0.009556172415614128,-0.01069606002420187,0.0159619003534317,-0.051356714218854904,0.07368694990873337,0.009619494900107384,-0.0029002856463193893,0.009156251326203346,-0.008516157045960426,0.03267907723784447,0.01447257585823536,0.034739430993795395,0.09135659039020538,0.06943568587303162,0.0653989240527153,-0.006474220659583807,0.005913346540182829,0.043187301605939865,0.010466651059687138,-0.0270135086029768,-0.019895168021321297,-0.015033779665827751,-0.004840888548642397,0.00472614262253046,0.02531895600259304,-0.00547747453674674,-0.0011145806638523936,-0.01355364266782999,-0.016611285507678986,-0.0521169975399971,0.010965127497911453,0.005632116924971342,0.00019480889022815973,0.0019793007522821426,0.03598155453801155,0.030319374054670334,0.0681505799293518,0.09703885018825531,0.07585497200489044,-0.0046691992320120335,0.02413811907172203,0.003275786992162466,-0.02971242554485798,-0.04541844129562378,0.0026830267161130905,-0.02827722765505314,-0.02874276414513588,0.023481085896492004,-0.008291434496641159,-0.06348089873790741,-0.004336194135248661,0.0003108767559751868,-0.0454440638422966,-0.01817641220986843,0.05962306633591652,0.03994489833712578,0.015056824311614037,0.031321171671152115,0.01821945235133171,0.015617054887115955,0.020855801180005074,0.06609899550676346,0.08733025938272476,0.06357379257678986,-0.013055476360023022,-0.05934358015656471,-0.031489938497543335,-0.043896425515413284,-0.028280029073357582,-0.030264828354120255,-0.034223493188619614,0.005354420281946659,0.0004547787830233574,-0.08078353852033615,-0.07624957710504532,-0.02581056021153927,-0.0030565906781703234,0.0014597175177186728,0.03315950185060501,0.0373428612947464,0.008789213374257088,0.012387220747768879,0.022964240983128548,0.03323078528046608,0.02516106143593788,0.027711311355233192,0.06242845579981804,0.03980282321572304,-0.007435382343828678,-0.025593889877200127,-0.0375850573182106,-0.027187423780560493,-0.04685111343860626,-0.03493456915020943,-0.043756671249866486,-0.034636758267879486,-0.0057125757448375225,-0.030830714851617813,-0.08863844722509384,0.012418125756084919,0.010302423499524593,0.002929827431216836,-0.002824797062203288,-0.0033149246592074633,0.03640099987387657,0.027118349447846413,0.008792586624622345,0.011572415940463543,0.006398938130587339,0.028457578271627426,0.033362846821546555,0.020680543035268784,0.018063228577375412,-0.00813342072069645,-0.04031459614634514,-0.03611858934164047,-0.018272126093506813,-0.05195034295320511,-0.03923730179667473,-0.028151215985417366,0.019636567682027817,-0.002430937485769391,-0.0817619115114212,-0.03961968049407005,-0.004998266696929932,0.010344304144382477,-0.016949640586972237,-0.005288766697049141,0.02775544486939907,0.01572430692613125,-0.012860356830060482,0.014407405629754066,0.012380826286971569,0.007377715781331062,-0.011753290891647339,0.02845999039709568,0.010437056422233582,-0.00037822657031938434,-0.008436635136604309,-0.010316748172044754,0.017065485939383507,-0.03680126741528511,-0.05424999073147774,0.007689964026212692,0.04247420281171799,-0.000680288823787123,-0.05601627752184868,-0.051433175802230835,0.009619984775781631,-0.031864553689956665,0.0024594413116574287,0.016393980011343956,-0.0045080650597810745,0.007643692195415497,0.021261630579829216,0.025556951761245728,0.006097649224102497,-0.017242956906557083,0.005184699781239033,0.025069795548915863,-0.0030908260960131884,0.004038784187287092,0.0059167686849832535,0.009461559355258942,-0.027681594714522362,-0.057305704802274704,-0.06496937572956085,-0.03739391639828682,0.0033510702196508646,-0.013017662800848484,-0.04550858587026596,-0.00899698119610548,0.016233086585998535,0.01498403213918209,0.005060225259512663,0.021511787548661232,0.03065640851855278,0.010269224643707275,0.018880845978856087,0.0007254094234667718,0.0015793967759236693,0.021736424416303635,0.01942300982773304,0.01794380322098732,0.036400601267814636,0.018386393785476685,0.00948827899992466,0.026849161833524704,0.03287752717733383,0.005904234014451504,-0.007631846237927675,-0.0008821115479804575,0.009775549173355103,0.011920939199626446,0.004222073592245579,0.011753113009035587,0.011347268708050251,-0.0049339840188622475,0.010615572333335876,0.03496306389570236,0.006589521188288927,0.0005585636245086789,-0.03020394966006279,-0.02678854577243328,-0.015177767723798752,-0.005356054753065109,-0.0027692655567079782,-0.005641274619847536,0.010674860328435898,-0.03061090223491192,0.02024306356906891,0.014188935980200768,0.04445716738700867,0.016801867634058,0.009538674727082253,0.008393079973757267,0.007958188652992249,0.049677327275276184,0.0021354753989726305,0.019032344222068787,0.0074767800979316235,-0.0012224169913679361,-0.017978955060243607,-0.0363980270922184,-0.024902794510126114,-0.04994523525238037,-0.054555099457502365,-0.07000244408845901,-0.025993408635258675,-0.02586132101714611,0.021283313632011414,0.011008886620402336,0.0012621530331671238,-0.02293204702436924,-0.005887600127607584,-0.025477562099695206,-0.014125780202448368,-0.043597545474767685,-0.02002684772014618,0.006485529709607363,-0.05904311686754227,0.01940784975886345,0.02802593819797039,0.022165929898619652,0.027153048664331436,-0.026061132550239563,-0.01875218190252781,-0.061971623450517654,-0.09082741290330887,-0.09153992682695389,-0.10445375740528107,-0.07652179896831512,-0.07521788030862808,-0.06056900694966316,-0.02857009507715702,-0.019690414890646935,-0.0027656122110784054,-0.019402308389544487,0.013693546876311302,0.0028753180522471666,-0.03876793012022972,-0.06103544309735298,-0.06824402511119843,-0.056080449372529984,-0.08515109121799469,-0.04609433934092522,-0.01944609172642231,-0.01431988924741745,-0.008535333909094334,0.010851342231035233,-0.01687115617096424,-0.02846444956958294,-0.06328587234020233,-0.05694811791181564,-0.05968685820698738,-0.08394315093755722,-0.07618056237697601,-0.09346354752779007,-0.040395259857177734,-0.01953974924981594,-0.002308419905602932,0.045685503631830215,-0.020992891862988472,0.006048665847629309,-0.060308344662189484,-0.019877178594470024,-0.02777837961912155,-0.025001563131809235,-0.05733039602637291,0.02137628197669983,0.0579838789999485,-0.03072933293879032,-0.011255755089223385,-0.01747266575694084,-0.0007594332564622164,-0.00849840696901083,-0.05738091841340065,-0.03474704548716545,-0.031022200360894203,-0.025871936231851578,-0.02126777358353138,-0.0323164127767086,-0.02640369161963463,0.029582997784018517,0.038458533585071564,0.029260752722620964,0.03153306990861893,0.021002663299441338,0.0026534833014011383,0.010764704085886478,0.004110947251319885,0.011697296984493732,-0.08796720951795578,-0.03680914640426636,-0.053393591195344925,-0.0004427821550052613,-0.05101534351706505,-0.035444408655166626,0.007327007595449686,-0.011368009261786938,-0.010850039310753345,0.0071284351870417595,0.036414239555597305,0.019510013982653618,0.014427203685045242,0.02345126122236252,0.05045023187994957,0.03235900029540062,0.013168388046324253,0.027502786368131638,0.059846434742212296,0.028871946036815643,0.029380226507782936,0.020236732438206673,-0.005444291513413191,-0.021466337144374847,-0.03671463206410408,0.03164513781666756,-0.016184570267796516,-0.09025297313928604,-0.015732966363430023,-0.03320854902267456,-0.00986512191593647,-0.018056338652968407,-0.03226393088698387,-0.007593568880110979,0.02009972557425499,0.03135154768824577,0.019903765991330147,0.042549461126327515,0.0019764152821153402,-0.013812106102705002,0.014499016106128693,-0.010571729391813278,-0.0016724943416193128,0.0010256720706820488,0.03293323516845703,0.01576765440404415,-0.0057100290432572365,0.025957392528653145,-0.08334042876958847,-0.0505087673664093,-0.038290124386548996,-0.03373609855771065,0.022448541596531868,-0.008334944024682045,-0.01895161159336567,-0.036538977175951004,-0.040165092796087265,-0.03176054731011391,-0.011006500571966171,-0.01426277682185173,-0.0023173531517386436,-0.0066608344204723835,-0.021597592160105705,-0.05406440794467926,-0.025207385420799255,0.007413512095808983,0.041211873292922974,0.026631226763129234,0.008098676800727844,0.01064465381205082,-0.006061860825866461,-0.04368717223405838,-0.07782041281461716,-0.0665661171078682,-0.05554734542965889,-0.0019166204147040844,-0.004240786656737328,0.017893528565764427,-0.014817017130553722,-0.042003367096185684,-0.055625855922698975,-0.05121924728155136,-0.012454060837626457,0.004554771352559328,0.00309769413433969,-0.0016817109426483512,-0.02609601803123951,-0.029985500499606133,-0.007244547363370657,0.017410334199666977,0.020892750471830368,0.0003157226019538939,0.0036051704082638025,-0.009862408973276615,-0.0072376420721411705,-0.014096412807703018,-0.01923186704516411,-0.12097276002168655,-0.05752220004796982,-0.00493272440508008,-0.05160263925790787,-0.00810476765036583,-0.005443714093416929,-0.051369279623031616,-0.03936506435275078,-0.06693035364151001,-0.04130134359002113,-0.0064438339322805405,-0.01380075328052044,-0.030386725440621376,-0.05596614256501198,-0.03743784874677658,0.012128871865570545,0.016157373785972595,0.045121580362319946,0.021192701533436775,0.0025843128096312284,0.018647726625204086,0.012474317103624344,-0.022968031466007233,-0.016562286764383316,-0.06610143184661865,-0.04392899200320244,-0.01675615832209587,-0.030448434874415398,-0.012565072625875473,0.012082254514098167,-0.016543371602892876,-0.06518860906362534,-0.07599955797195435,-0.043927256017923355,-0.06962800770998001,-0.048716627061367035,-0.055514514446258545,-0.06518246233463287,-0.05374874547123909,-0.06849503517150879,-0.04741719737648964,-0.0027850675396621227,0.008620215579867363,0.022825978696346283,0.03734230622649193,0.0028853791300207376,0.0236436128616333,-0.017000319436192513,-0.047348976135253906,-0.015224666334688663,0.014675629325211048,-0.027744745835661888,0.03294965252280235,0.01375133078545332,-0.002410332439467311,-0.05993449315428734,-0.09435812383890152,-0.051120415329933167,-0.07984407991170883,-0.02455298602581024,-0.03743895888328552,-0.04909179359674454,-0.05570653825998306,-0.09603358805179596,-0.08149115741252899,-0.011286631226539612,-0.0512087307870388,-0.001259400276467204,0.005477952770888805,0.005772121250629425,0.04624233767390251,0.01982799358665943,0.020580006763339043,0.02312474139034748,0.018816795200109482,-0.01030555460602045,0.016214530915021896,0.02274566888809204,0.03286116197705269,-0.019014369696378708,-0.0574868842959404,-0.0510043129324913,-0.06147795915603638,-0.057665079832077026,-0.052930187433958054,-0.0821632668375969,-0.09248460084199905,-0.0777135044336319,-0.08759679645299911,-0.03712938725948334,-0.07109630107879639,-0.03508521616458893,-0.017754914239048958,-0.0045724292285740376,0.010050324723124504,0.0051269750110805035,0.01839844509959221,0.007911952212452888,0.03809380903840065,0.0017488214652985334,0.021095218136906624,0.023469004780054092,0.024542348459362984,-0.0012541143223643303,-0.008935871534049511,-0.046061135828495026,-0.07435347139835358,-0.08670762926340103,-0.07572317123413086,-0.09578737616539001,-0.07634971290826797,-0.06215696409344673,-0.06632517278194427,-0.061153240501880646,-0.060069482773542404,-0.033494602888822556,0.009688330814242363,0.02295689657330513,0.01465363148599863,0.03882072865962982,0.04764961451292038,0.004887972492724657,0.004965169820934534,0.0068582817912101746,0.0417979471385479,0.013652314431965351,0.009877586737275124,0.008105461485683918,0.018505314365029335,-0.01837172918021679,-0.007653313688933849,-0.08170758932828903,-0.087730772793293,-0.09449935704469681,-0.06333206593990326,-0.03758515790104866,-0.06014004349708557,-0.031088421121239662,0.0018655967433005571,0.012857683002948761,0.04560975357890129,0.0374610498547554,0.05954870954155922,0.030573111027479172,0.035417232662439346,0.0084619065746665,0.024633051827549934,0.007111922837793827,0.04185808077454567,0.0021420263219624758,-0.014681915752589703,-0.009358770214021206,0.0005381373921409249,0.003705935785546899,0.04785147309303284,-0.016390904784202576,-0.04139615595340729,-0.06176910549402237,-0.04711861163377762,-0.03635723516345024,-0.01435561291873455,0.023541590198874474,0.0053745657205581665,0.028643352910876274,-0.0015264461981132627,0.026707803830504417,0.04268761724233627,0.030912991613149643,0.034831833094358444,0.004236366134136915,0.032072730362415314,0.003377837361767888,0.009839733131229877,0.007926886901259422,0.000769655394833535,-0.012754549272358418,0.018687330186367035,0.019312499091029167,0.03834233805537224,0.05601492151618004,0.020047558471560478,-0.0034386019688099623,-0.0019164234399795532,-0.006382711231708527,-0.002897616708651185,0.028369691222906113,-0.004883355926722288,0.016396401450037956,0.00581160606816411,0.024278707802295685,0.028847113251686096,0.018334269523620605,0.03813566267490387,-0.001237204996868968,0.019150733947753906,0.03745337575674057,0.017230667173862457,-0.004013568162918091,0.0032485697884112597,-0.009162996895611286,-0.00609361007809639,0.007602606434375048,0.01431263331323862,0.02344690077006817,0.01696847192943096,0.007773879449814558,-0.0006405796157196164,-0.01600665971636772,-0.01870095543563366,0.007074402645230293,-0.012014053761959076,-0.0018535826820880175,0.023112790659070015,0.0017807803815230727,0.018100790679454803,-0.008286289870738983,0.022165466099977493,-0.004829949699342251,0.023713255301117897,0.029901260510087013,0.052946459501981735,0.008248637430369854,0.018530957400798798,-0.0006571277044713497,-0.004760445095598698,-0.00964728556573391,0.009990451857447624,0.005314103327691555,0.02025778405368328,0.010336900129914284,0.017933376133441925,0.00383243546821177,-0.042076729238033295,-0.028240127488970757,-0.02412385493516922,-0.010428538545966148,-0.030429329723119736,-0.00832477305084467,-0.02516455575823784,-0.03153305500745773,-0.0028616455383598804,-0.02156330831348896,-0.010575632564723492,-0.03250180184841156,0.04169583320617676,0.01647820509970188,0.012323166243731976,0.015501858666539192,0.02265295386314392,0.01462802104651928,0.016837043687701225,0.03698841854929924,0.02465236745774746,0.0161133985966444,0.01861393079161644,0.012468655593693256,0.010442541912198067,0.007881531491875648,0.0010528565617278218,-0.009108388796448708,-0.012303125113248825,0.02339869737625122,0.02783568575978279,-0.028324225917458534,-0.014116321690380573,-0.00440510269254446,-0.037263356149196625,-0.04186980426311493,-0.005682053044438362,0.03570476174354553,0.03031393699347973,0.034901782870292664,0.03308943659067154,0.014283438213169575,0.019459404051303864,0.019871002063155174,0.022145692259073257,0.03822552040219307,0.046699147671461105,0.03036339394748211,0.0051285517401993275,0.018354663625359535,-0.0015187276294454932,-0.008381027728319168,-0.010778665542602539,0.010640143416821957,0.0016548612620681524,-0.04274563863873482,-0.021972153335809708,-0.0017907163128256798,-0.041980259120464325,-0.02066696248948574,-0.025045543909072876,-0.0014633787795901299,0.04895836487412453,0.02170395292341709,0.048842303454875946,0.03672332689166069,0.017154160887002945,0.028470290824770927,0.020331058651208878,-0.0018234499730169773,0.010910808108747005,0.01675974763929844,0.033703457564115524,0.03529489040374756,0.006625798065215349,-0.005189327988773584,-0.008527267724275589,-0.013606598600745201,-0.034749068319797516,-0.021544693037867546,-0.0064635793678462505,0.0014881218085065484,-0.04566076770424843,0.011051813140511513,0.002385926665738225,-0.033988106995821,-0.00011258909944444895,-0.004999794531613588,-0.007778195198625326,0.002319179242476821,-0.02802221290767193,-0.02863895706832409,-0.011224129237234592,-0.02346639148890972,-0.02246258594095707,-0.02423817664384842,-0.03263375908136368,-0.01774737983942032,-0.02953658252954483,-0.0746530145406723,-0.07191238552331924,-0.08651254326105118,-0.09295140951871872,-0.05185891315340996,-0.03273313492536545,-0.020024865865707397,-0.04216768592596054,0.006903152447193861,-0.043849024921655655,-0.031049709767103195,-0.03582632169127464,-0.03898382931947708,-0.02729097753763199,-0.018804188817739487,-0.02511250041425228,-0.010843167081475258,0.009912321344017982,0.02002379298210144,0.017642460763454437,-0.00833257008343935,0.026781242340803146,0.00986536219716072,0.007858812808990479,-0.017844540998339653,-0.021807117387652397,0.010393616743385792,0.01981927827000618,-0.017090076580643654,-0.04158831760287285,0.02341148629784584,-0.01079043373465538,-0.024509470909833908,-0.013167979195713997,-0.008978581987321377,-0.007557624951004982,-0.004912917036563158,0.010901275090873241,0.009401194751262665,-0.009654211811721325,-0.021254224702715874,-0.026815874502062798,-0.0031543949153274298,0.016821200028061867,0.02429787814617157,0.016130613163113594,0.03433242067694664,0.037408310920000076,0.05452543869614601,0.03844289109110832,0.041089579463005066,0.036724887788295746,0.0022567943669855595,0.0051786815747618675,0.018376126885414124,-0.023062625899910927,-0.0061536189168691635,0.002675267867743969,0.02796648070216179,0.025967588648200035,0.011945093981921673,-0.02469554729759693,-0.014320635236799717,-0.011255343444645405,-0.007712654769420624,-0.011866438202559948,-0.01517902035266161,-0.009981546550989151,0.020127754658460617,0.030413541942834854,-0.0035466966219246387,0.00792803056538105,-0.006024723872542381,0.024621590971946716,0.03768976032733917,0.023679813370108604,0.000726943660993129,-0.0016558804782107472,0.03470811992883682,-0.0022845000494271517,-0.02606641687452793,-0.027830366045236588,-0.019399600103497505,-0.029126977548003197,-0.030497077852487564,-0.011937906965613365,-0.036600761115550995,-0.0015573956770822406,-0.01883474364876747,-0.002380768768489361,0.0038598477840423584,-0.023258110508322716,0.021915705874562263,0.011413783766329288,0.007324615493416786,-0.0030736338812857866,-0.03623637557029724,-0.04150909185409546,-0.016929101198911667,0.01145333144813776,0.025080149993300438,0.02531488426029682,0.027196340262889862,0.030213607475161552,-0.018366685137152672,-0.055905215442180634,-0.002008050447329879,-0.01454943884164095,-0.03251982107758522,-0.03371870517730713,-0.013485844247043133,-0.039317481219768524,-0.016245177015662193,-0.018774233758449554,-0.04410114139318466,-0.025245698168873787,0.014010627754032612,-0.023767678067088127,-0.0016205626307055354,-0.010012106038630009,0.003544303821399808,-0.024836312979459763,-0.04625358805060387,-0.040869053453207016,0.001177474157884717,0.0337039940059185,0.05232154577970505,0.07697442173957825,-0.0027420753613114357,0.0161184910684824,0.008365360088646412,0.009855414740741253,-0.012613878585398197,-0.020263293758034706,0.010958782397210598,-0.014887193217873573,-0.04831942543387413,-0.05135953798890114,-0.03864043951034546,0.002397719072178006,-0.01148216612637043,0.007422879803925753,-0.024357134476304054,-0.030718879774212837,-0.03700156509876251,-0.030793320387601852,-0.055772773921489716,-0.036060355603694916,-0.01784614473581314,-0.023680513724684715,-0.0482872910797596,0.041360579431056976,0.018810788169503212,0.025259435176849365,-0.006955981254577637,0.011996591463685036,0.01093507744371891,-0.018107373267412186,-0.02454119361937046,0.0003951520484406501,-0.010415188036859035,0.013489586301147938,-0.00874892808496952,-0.0655532255768776,-0.0793941393494606,-0.05364858731627464,-0.06927753239870071,-0.06307294964790344,-0.08575013279914856,-0.0881635993719101,-0.035879284143447876,-0.043299995362758636,-0.02805120125412941,-0.0482063926756382,-0.04711474850773811,0.01688373275101185,-0.04620063677430153,-0.013128072023391724,-0.0011389501160010695,0.022533588111400604,0.005154801532626152,-0.012429693713784218,-0.0016979086212813854,0.008919592946767807,-0.010025270283222198,-0.008579902350902557,-0.04548286274075508,-0.0879533439874649,-0.09159772098064423,-0.06012241914868355,-0.07597555220127106,-0.09868009388446808,-0.07346463948488235,-0.07291433215141296,-0.0787462368607521,-0.062493689358234406,-0.03744356706738472,0.029151149094104767,0.04357663914561272,0.0469757579267025,-0.007403501309454441,-0.013489498756825924,0.0247010737657547,-0.013781352899968624,-0.010392471216619015,-0.01630694419145584,-0.018446234986186028,-0.019598813727498055,0.002102608559653163,-0.05353500321507454,-0.027387484908103943,-0.08393299579620361,-0.11146983504295349,-0.09982424974441528,-0.06010553985834122,-0.10090906918048859,-0.10617552697658539,-0.07997070997953415,-0.028705835342407227,-0.020904021337628365,-0.014200206845998764,-0.04801127314567566,-0.016024164855480194,0.039474889636039734,0.029130399227142334,0.01938607543706894,-0.0014462292892858386,-0.016107220202684402,0.030847975984215736,0.022773047909140587,-0.008927515707910061,0.0011399686336517334,-0.013432676903903484,-0.056081727147102356,-0.06467173993587494,-0.08251292258501053,-0.1452229768037796,-0.1837797462940216,-0.1887674480676651,-0.12270830571651459,-0.10693778842687607,-0.09401726722717285,-0.10374725610017776,-0.11426807940006256,-0.04796738177537918,-0.027425184845924377,-0.001846096245571971,-0.008965034037828445,-0.021948685869574547,0.03271224722266197,0.023289069533348083,0.012204009108245373,0.02781672589480877,-0.0031073428690433502,0.0041456082835793495,-0.022680705413222313,-0.05140159651637077,-0.08332382887601852,-0.10242025554180145,-0.07751134037971497,-0.11278397589921951,-0.1635170429944992,-0.1632130891084671,-0.1465861052274704,-0.07565484195947647,-0.06710759550333023,-0.06376734375953674,-0.07818375527858734,-0.09195045381784439,-0.07117602974176407,-0.07788129150867462,-0.02483692206442356,-0.06957240402698517,-0.004461237229406834,-0.02208869345486164,-0.06327805668115616,-0.03165871277451515,-0.09791252762079239,-0.09093598276376724,-0.11749561131000519,-0.11121103912591934,-0.08865848928689957,-0.04403749108314514,-0.06760614365339279,-0.11236070096492767,-0.11905466765165329,-0.12448505312204361,-0.08627094328403473,-0.0860385075211525,-0.05179527774453163,0.010447012260556221,-0.038234643638134,-0.0540909543633461,-0.1053789034485817,-0.07185697555541992,-0.006336092948913574,-0.010551262646913528,-0.004119084216654301,-0.003197284182533622,-0.06455717980861664,-0.08168858289718628,-0.119980588555336,-0.12444689869880676,-0.06121045723557472,-0.09572149813175201,-0.0943312719464302,-0.09794307500123978,-0.0790148451924324,-0.05451113358139992,-0.05774126574397087,-0.08413340151309967,-0.04625631868839264,-0.029541155323386192,-0.06529877334833145,-0.08955873548984528,-0.05332986265420914,-0.07257530838251114,-0.1189761832356453,-0.07442740350961685,-0.019741831347346306,-0.02676442451775074,-0.008236627094447613,-0.016136769205331802,-0.06877043843269348,-0.050337858498096466,-0.11699559539556503,-0.11410249769687653,-0.12588146328926086,-0.10305137187242508,-0.09758736938238144,-0.07737772166728973,-0.07763687521219254,-0.019713416695594788,0.007278175558894873,-0.0253036767244339,-0.038859907537698746,-0.031718842685222626,-0.01190744899213314,0.006391139235347509,-0.08040428161621094,-0.12485284358263016,-0.12769117951393127,-0.09464998543262482,-0.031821515411138535,0.012623867951333523,-0.009909183718264103,-0.056776996701955795,-0.07975266873836517,-0.10663925856351852,-0.11824452877044678,-0.09927112609148026,-0.07276015728712082,-0.05721762031316757,-0.05991080775856972,-0.07479505985975266,-0.03468916937708855,-0.05122809112071991,-0.02407061494886875,-0.006719617173075676,0.020973337814211845,0.002101896796375513,-0.011873859912157059,0.023579329252243042,-0.02873186767101288,-0.04381880164146423,-0.045382946729660034,-0.0918174684047699,-0.06727807968854904,-0.04018272086977959,0.018518196418881416,-0.009396335110068321,-0.06883174926042557,-0.11806873232126236,-0.08231689780950546,-0.0750645250082016,-0.08753690868616104,-0.056801434606313705,-0.056436408311128616,-0.05184143781661987,-0.04457397386431694,-0.009604169055819511,0.006734004244208336,0.008977174758911133,0.00925245601683855,-0.03869518265128136,-0.009987342171370983,0.008890492841601372,-0.057639941573143005,-0.09501594305038452,-0.09663592278957367,-0.1021205484867096,-0.08968564122915268,0.0072874645702540874,-0.0029035559855401516,-0.024326128885149956,-0.05846058577299118,-0.10102969408035278,-0.13535693287849426,-0.08511148393154144,-0.056361205875873566,-0.06004341319203377,-0.02311585657298565,-0.05594442039728165,-0.019984209910035133,0.013356254436075687,0.041132308542728424,0.023014115169644356,0.009774014353752136,0.019185800105333328,0.043642282485961914,-0.020572297275066376,-0.05822360888123512,-0.03491149842739105,-0.05834275484085083,-0.04667174443602562,-0.08163753151893616,0.024231184273958206,0.005622611381113529,-0.017317775636911392,-0.054267629981040955,-0.09253739565610886,-0.056227199733257294,-0.06274669617414474,-0.04353204369544983,-0.017358042299747467,-0.0051314872689545155,-0.007403232157230377,-0.0023777680471539497,0.03555012494325638,0.03480294719338417,0.003946937620639801,-0.018027808517217636,-0.0006135076400823891,-0.024106670171022415,-0.03640579804778099,-0.025129960849881172,-0.08132000267505646,-0.08483186364173889,-0.07440947741270065,0.0053708660416305065,-0.08724475651979446,-0.10196221619844437,-0.1266850382089615,-0.06668933480978012,-0.11854632198810577,-0.08991347253322601,-0.08049631863832474,-0.09974218904972076,-0.07706214487552643,-0.04284068942070007,0.0019746541511267424,0.004928886890411377,0.02188655361533165,0.02773577906191349,0.010096848011016846,0.019032610580325127,0.006493701599538326,0.0030822865664958954,-0.014695912599563599,0.023872781544923782,0.002969171619042754,0.02245883084833622,0.009422913193702698,0.0186325516551733,-0.028478501364588737,-0.02889617159962654,-0.025697121396660805,-0.060184232890605927,-0.06214579939842224,-0.022374987602233887,-0.01829882524907589,-0.034195464104413986,-0.04129993915557861,-0.02559499256312847,0.02014790289103985,0.046868111938238144,0.06412381678819656,0.05332896113395691,0.041027821600437164,0.05325043573975563,0.05642891302704811,0.07469490170478821,0.033038411289453506,0.00998983345925808,-0.007069436367601156,-0.03358067572116852,-0.012994187884032726,-0.02615898661315441,-0.024278530851006508,-0.012547512538731098,-0.012872807681560516,-0.02301166020333767,-0.028131654486060143,0.03226463124155998,-0.013003936037421227,-0.02277153544127941,-0.04621017351746559,-0.041163187474012375,-0.026354443281888962,0.016538772732019424,0.007457167375832796,0.003104287199676037,0.03614015877246857,0.04846476763486862,0.05469876155257225,0.06958945095539093,0.028252119198441505,-0.004673258867114782,-0.06909629702568054,-0.09050614386796951,-0.042351122945547104,-0.034315455704927444,0.006069699302315712,-0.028275413438677788,-0.1102689728140831,-0.07553477585315704,-0.10742989182472229,-0.17475396394729614,-0.17707780003547668,-0.09657954424619675,-0.04804803058505058,0.0031050178222358227,-0.041118040680885315,-0.05314648151397705,-0.05031014233827591,-0.04576049745082855,-0.02306736260652542,-0.07182829082012177,-0.10103096812963486,-0.1312819868326187,-0.17718151211738586,-0.12362979352474213,-0.09063386172056198,-0.0779166966676712,-0.012918027117848396,0.00811537355184555,-0.033411893993616104,0.03742581233382225,0.010178301483392715,-0.0184674970805645,0.00933624617755413,0.0578639917075634,0.008161917328834534,-0.05306999757885933,-0.08351819962263107,-0.058126404881477356,-0.024979516863822937,0.010190985165536404,0.03926612064242363,0.019673176109790802,-0.009126054123044014,0.0025783595629036427,0.0007353879045695066,0.03707308694720268,0.002378524513915181,-0.013979700393974781,-0.026229172945022583,-0.033784765750169754,-0.013261895626783371,0.008299247361719608,-0.01879996806383133,-0.039539460092782974,-0.008170190267264843,0.02759862318634987,0.02850206010043621,-0.008599338121712208,0.029261689633131027,0.03362122178077698,0.035679299384355545,0.010749200358986855,0.00024308537831529975,0.015296414494514465,0.012017752043902874,0.02900073118507862,0.01541665568947792,0.014925523661077023,0.005597932264208794,0.04990368336439133,0.07486704736948013,0.07824508100748062,0.0057181608863174915,-0.029168644919991493,-0.04927084594964981,-0.025893136858940125,0.07068207859992981,0.01221082080155611,-0.08236920088529587,0.008181746117770672,-0.008955656550824642,-0.07856644690036774,-0.08759581297636032,-0.05279728025197983,-0.06239728257060051,0.02123548649251461,0.019200466573238373,0.02117553912103176,0.015444046817719936,0.029808875173330307,0.028908252716064453,0.019224636256694794,-0.037116050720214844,0.05301275476813316,0.03036709502339363,-0.05142245814204216,-0.02939869835972786,-0.013990290462970734,-0.11368173360824585,-0.13389542698860168,0.011159487068653107,-0.020818546414375305,0.031031407415866852,0.0257396399974823,0.033888522535562515,-0.05781247839331627,-0.05207829922437668,-0.03814438357949257,-0.014809558168053627,-0.00798810739070177,0.005117809399962425,0.026488827541470528,-0.007795949466526508,0.024290096014738083,0.03424809128046036,-0.011723654344677925,0.015345419757068157,0.05595037713646889,0.006119503173977137,-0.008160324767231941,0.03258290886878967,0.0044362773187458515,-0.043638356029987335,-0.034534819424152374,0.043677493929862976,0.03425134718418121,0.06067525967955589,0.057680681347846985,0.014354662969708443,-0.04652758315205574,-0.011126723140478134,-0.02416186034679413,-0.004801003262400627,0.028863508254289627,0.037987928837537766,0.03986193612217903,0.01648743264377117,0.04353775084018707,0.005926549434661865,0.019526371732354164,0.04465847462415695,0.04294198751449585,0.03528564050793648,0.056754473596811295,0.045466769486665726,0.03079996444284916,-0.04879457876086235,-0.06731148064136505,-0.0682930275797844,0.0804692953824997,0.04985775798559189,0.026789681985974312,-0.03133043646812439,-0.0638149306178093,-0.033482130616903305,-0.010154946707189083,0.007733052130788565,0.014204849489033222,0.03330424427986145,0.018738172948360443,0.025770965963602066,0.04258045554161072,0.031327761709690094,0.016154808923602104,0.037789661437273026,0.06493663787841797,0.05339910089969635,0.04297921434044838,0.07681835442781448,0.013663475401699543,-0.0363793708384037,-0.11794394999742508,-0.08957360684871674,-0.024730805307626724,0.05105328932404518,0.003849135944619775,-0.04700223729014397,-0.08972430974245071,-0.03511203080415726,0.005042457487434149,0.03464602306485176,0.023264437913894653,0.013844103552401066,0.004746140446513891,0.03970137611031532,0.05557722598314285,0.02824118174612522,0.05934520438313484,0.07929902523756027,0.07172855734825134,0.07136528939008713,0.0875154510140419,0.046429671347141266,-0.0003890779335051775,-0.12790754437446594,-0.052791111171245575,0.005179414059966803,0.011319877579808235,0.018262362107634544,-0.022218430414795876,-0.057394497096538544,-0.04843968525528908,-0.04589413106441498,-0.021023103967308998,0.023064421489834785,