{"shape": [8, 1, 5, 5]}
-0.006402786821126938,0.14856430888175964,0.17930859327316284,0.23071089386940002,-0.2372257262468338,-0.27982965111732483,-0.18801791965961456,0.21268348395824432,0.27726101875305176,0.022991981357336044,-0.3065408170223236,-0.09060757607221603,-0.10905873030424118,0.1751323789358139,-0.15161478519439697,-0.33121299743652344,0.07211434096097946,0.2162768691778183,0.25942450761795044,0.31336551904678345,0.07893529534339905,0.008037043735384941,-0.015554982237517834,-0.07462935894727707,-0.18254400789737701,-0.6256206631660461,-0.488424152135849,-0.4387451112270355,-0.482769250869751,-0.2878880500793457,-0.46858781576156616,-0.4214937388896942,-0.2577497661113739,-0.1301240622997284,-0.4754674434661865,0.11780429631471634,0.2243119180202484,-0.010166014544665813,0.055983852595090866,0.290246844291687,0.17362841963768005,0.334704726934433,0.33644261956214905,0.13331525027751923,0.09694287925958633,0.3130738437175751,0.02145642787218094,0.22828860580921173,0.15886780619621277,0.02120959199965,0.0878453180193901,-0.13925997912883759,0.10174314677715302,0.2228642702102661,-0.01828337460756302,-0.06422211974859238,-0.21251703798770905,0.23769813776016235,0.0687597468495369,-0.1358487904071808,-0.01681499183177948,0.059276700019836426,0.2510509788990021,0.17505845427513123,0.08645333349704742,0.20115511119365692,-0.10768143832683563,-0.16570885479450226,0.2726568579673767,0.2107439488172531,-0.03148440271615982,-0.3488970994949341,-0.1349479705095291,0.09606245905160904,0.3286891579627991,-0.1443013846874237,-0.4737062156200409,-0.42810994386672974,-0.039295267313718796,0.30019739270210266,0.12701748311519623,-0.15566614270210266,0.14564326405525208,0.032248664647340775,-0.05100545659661293,0.4072056710720062,0.3610136806964874,0.04323738440871239,-0.14836245775222778,-0.3461988866329193,0.16850101947784424,0.24730509519577026,0.03181881085038185,-0.05444781482219696,-0.13982369005680084,-0.37112125754356384,0.04790648818016052,0.0258819367736578,0.24612212181091309,0.08622006326913834,-0.33270832896232605,-0.18335136771202087,-0.17430849373340607,0.1924690455198288,0.23342379927635193,-0.4250848591327667,0.05907223001122475,0.06823308020830154,0.1391323357820511,0.08545084297657013,0.008730894885957241,0.3149733245372772,0.2255774289369583,0.15495865046977997,0.0972103476524353,0.3800837993621826,0.3578619956970215,0.08075825870037079,0.13240568339824677,-0.01759670488536358,0.032872628420591354,-0.271986186504364,-0.38451722264289856,-0.16546902060508728,0.18536172807216644,0.179396390914917,0.47241339087486267,0.1803804486989975,-0.3690167963504791,-0.38428008556365967,0.28487080335617065,0.40928688645362854,-0.25369134545326233,-0.22145052254199982,-0.3941601514816284,0.5343732237815857,-0.09380719810724258,-0.23030897974967957,-0.1923542320728302,-0.17597022652626038,0.1909846067428589,-0.14525693655014038,-0.33758535981178284,-0.20679770410060883,-0.29655781388282776,-0.1031155064702034,-0.2858003079891205,-0.26893350481987,-0.09820888936519623,-0.0741514042019844,-0.1308126002550125,0.308967649936676,0.3142038881778717,0.23131850361824036,0.15990091860294342,-0.36435261368751526,-0.05566518381237984,-0.07943152636289597,-0.21936434507369995,0.10129627585411072,-0.2543397545814514,-0.2330295294523239,-0.44739019870758057,-0.3689895272254944,-0.33213379979133606,0.2592919170856476,0.057075683027505875,0.043204788118600845,-0.07448180764913559,-0.3446280360221863,0.3201468884944916,0.21444307267665863,0.3922800123691559,0.18350841104984283,0.08840329200029373,-0.06588487327098846,0.19110007584095,0.09489341825246811,0.15091381967067719,-0.09209801256656647,0.04756684601306915,0.1750727742910385,0.09689955413341522,-0.07437615096569061,0.032556332647800446,0.1618732511997223,0.20101438462734222,0.1663593202829361,0.10867813229560852,-0.17922085523605347,0.07463783770799637,0.13779708743095398,-0.037907637655735016,0.19830305874347687,0.1808682084083557,0.26889511942863464,0.09638799726963043,-0.03654981032013893,0.12491022050380707,0.026860535144805908