{"shape": [8, 1, 5, 5]}
-0.1974816471338272,-0.10983213782310486,-0.11871080100536346,-0.1308884620666504,0.05789698660373688,0.03224407136440277,0.020794600248336792,0.17658646404743195,0.12274210155010223,0.09317794442176819,-0.11939948797225952,0.03976341709494591,0.10772649198770523,0.19154539704322815,0.2761974632740021,0.07478949427604675,0.2870670557022095,0.12272422760725021,0.2135722041130066,-0.20378796756267548,0.22205257415771484,0.07156938314437866,-0.07885561138391495,-0.2564398944377899,-0.14328239858150482,0.3250604271888733,0.13820260763168335,0.18324711918830872,-0.30847927927970886,-0.13084766268730164,0.337863951921463,0.2748289704322815,-0.33206048607826233,-0.49838587641716003,0.12961755692958832,0.21462169289588928,0.16833220422267914,-0.5397940874099731,-0.44533124566078186,0.2604369819164276,0.2777843177318573,-0.12836281955242157,-0.1706690639257431,-0.09240178018808365,0.05658657103776932,0.2608906924724579,-0.006362093146890402,-0.31420859694480896,-0.14138895273208618,0.07914434373378754,0.15982170403003693,0.18899306654930115,0.18721863627433777,0.20452472567558289,0.160005584359169,0.11903411895036697,-0.04737372323870659,-0.16458500921726227,-0.1350564807653427,-0.10067439079284668,0.12957578897476196,0.006031233351677656,0.018945295363664627,-0.1211911216378212,-0.12938393652439117,0.04895391687750816,0.030984576791524887,0.20270127058029175,0.27313798666000366,0.2952842712402344,-0.07990165054798126,0.025782791897654533,0.16554133594036102,-0.1469946801662445,0.13382211327552795,-0.27749496698379517,0.26824823021888733,0.22614873945713043,0.18209224939346313,-0.016531528905034065,-0.2571503818035126,-0.25153848528862,0.3266741633415222,0.1618291735649109,0.10739821195602417,-0.37006649374961853,-0.4056611955165863,-0.00424774968996644,0.19718687236309052,0.14922340214252472,-0.2187303751707077,-0.27393394708633423,0.08890140056610107,0.195537731051445,0.012514691799879074,-0.10522160679101944,-0.2137727588415146,-0.1056140661239624,0.21773822605609894,0.17812421917915344,0.3478691577911377,0.3152828812599182,0.3562045097351074,0.47830650210380554,0.20577682554721832,-0.2743033170700073,0.056553103029727936,-0.09494693577289581,-0.22483618557453156,-0.32036998867988586,-0.5061953067779541,-0.5649504065513611,-0.5317284464836121,-0.4090656340122223,-0.1870926320552826,-0.025984132662415504,-0.338201105594635,-0.18711301684379578,-0.0027570549864321947,-0.2185792326927185,0.23490063846111298,0.47241416573524475,0.17595860362052917,0.18862086534500122,0.2659378945827484,-0.21481546759605408,-0.08048181235790253,-0.06070500239729881,0.26348766684532166,0.08062316477298737,0.2255786508321762,0.12647418677806854,-0.08275237679481506,0.33989235758781433,0.36366134881973267,-0.007304308470338583,0.23649024963378906,-0.28048813343048096,-0.47046393156051636,-0.32529446482658386,0.03919462114572525,-0.25048866868019104,-0.20019365847110748,-0.4265570044517517,-0.3312956988811493,-0.20981000363826752,0.19928792119026184,0.2947833240032196,0.28467169404029846,0.3247710168361664,-0.012095586396753788,-0.09106180816888809,-0.29526326060295105,-0.36454591155052185,-0.5121585130691528,-0.06651005893945694,-0.18095457553863525,-0.2464589774608612,-0.33298927545547485,0.06913287192583084,-0.31118205189704895,-0.3494879901409149,-0.3088531792163849,-0.14944423735141754,0.28653231263160706,-0.17043650150299072,-0.22302690148353577,-0.12920141220092773,0.15877389907836914,0.3709266185760498,-0.4918470084667206,-0.26814281940460205,0.029436884447932243,0.16634343564510345,0.3598495423793793,-0.037932537496089935,0.22273747622966766,-0.0013597332872450352,-0.29556751251220703,-0.05498584732413292,0.18334880471229553,-0.07592465728521347,-0.08499754965305328,0.12833112478256226,0.161997452378273,-0.09905778616666794,-0.033520400524139404,-0.12260352820158005,0.17146942019462585,0.1960729956626892,0.00362772517837584,0.1887103170156479,0.2231929749250412,-0.0869409516453743,-0.09446591138839722,0.05350533127784729,0.04465574026107788,-0.18542659282684326,0.13933126628398895,0.0817766860127449