{"shape": [8, 1, 5, 5]}
0.130362406373024,-0.017727769911289215,-0.07233411818742752,-0.09429039061069489,-0.07909181714057922,-0.026571374386548996,0.38406726717948914,0.21547842025756836,0.26709315180778503,0.23356138169765472,-0.17126654088497162,0.22703920304775238,0.36382976174354553,0.43311500549316406,0.38981667160987854,-0.2869611382484436,-0.18234270811080933,-0.08161086589097977,-0.09329592436552048,-0.2014593929052353,-0.31201663613319397,-0.5000782608985901,-0.6491490602493286,-0.614551842212677,-0.38768863677978516,0.2000739872455597,0.07484918087720871,-0.028041495010256767,-0.1456296443939209,0.08918130397796631,0.15835289657115936,-0.21233145892620087,-0.15133607387542725,-0.11349242180585861,0.07364990562200546,-0.2715373635292053,-0.2329646348953247,-0.25181207060813904,0.10492795705795288,0.1951228380203247,-0.3026057183742523,-0.12410920858383179,0.23948636651039124,0.07869065552949905,0.15168364346027374,0.048466138541698456,0.29429006576538086,0.17200329899787903,-0.0648687481880188,0.111224465072155,-0.03644314780831337,-0.29850226640701294,-0.34593266248703003,0.12498239427804947,0.24828971922397614,-0.1987006664276123,-0.23625151813030243,-0.06749949604272842,0.4063361585140228,0.12415903806686401,-0.13144870102405548,-0.20004703104496002,0.3315102159976959,0.3462287187576294,-0.21340571343898773,-0.007377846632152796,0.12181385606527328,0.31441518664360046,0.13319902122020721,-0.3520005941390991,-0.05866668373346329,0.16669438779354095,0.05551361292600632,-0.16886968910694122,-0.4425816237926483,-0.021392090246081352,-0.08419773727655411,0.09086743742227554,0.16160039603710175,0.21086247265338898,-0.11577944457530975,0.05813511833548546,-0.10463535040616989,0.062042128294706345,0.2167588621377945,-0.05586184561252594,-0.03902449831366539,0.08955662697553635,0.055932871997356415,0.151145800948143,0.15128180384635925,0.19449542462825775,0.18766780197620392,0.004999022465199232,0.16855552792549133,0.24236173927783966,-0.09033158421516418,0.11201158910989761,0.061238229274749756,0.13224560022354126,-0.009176175110042095,0.1602313071489334,0.19707247614860535,-0.09210178256034851,0.07749791443347931,-0.1989123672246933,0.03920852765440941,0.08125956356525421,0.11969972401857376,-0.08616852015256882,-0.15298213064670563,-0.23098860681056976,0.11639005690813065,0.046982936561107635,0.1271963119506836,-0.04049474745988846,-0.18435487151145935,-0.04035764932632446,0.19956396520137787,0.19765114784240723,-0.27413874864578247,-0.21600133180618286,0.14321185648441315,0.279325395822525,-0.03441828489303589,-0.13102394342422485,0.1018841564655304,0.28417035937309265,0.2846062183380127,-0.1411130577325821,-0.33761066198349,-0.1365445852279663,0.19377824664115906,0.2804207503795624,0.23999883234500885,-0.4470425248146057,-0.12101371586322784,-0.05879003182053566,0.3931093215942383,0.19323138892650604,-0.3079441487789154,-0.4074954092502594,-0.15659406781196594,0.36141178011894226,0.13574166595935822,-0.12862470746040344,-0.40171298384666443,-0.3726208508014679,-0.11454682797193527,0.28646066784858704,0.20982258021831512,0.27610844373703003,0.24453161656856537,0.2775501608848572,0.23495061695575714,0.23000293970108032,0.34986552596092224,0.1012345403432846,0.2670118808746338,0.021951042115688324,-0.023162664845585823,-0.05327245220541954,-0.03205034136772156,-0.1612686663866043,0.13621646165847778,-0.3999733626842499,-0.39419040083885193,-0.21767404675483704,-0.1533728986978531,0.1653648316860199,-0.27711647748947144,0.0036643934436142445,0.002988619962707162,-0.14385606348514557,0.09115084260702133,0.4513011574745178,-0.12827520072460175,-0.12362730503082275,-0.2920483648777008,-0.306803822517395,-0.10451988875865936,-0.2787613868713379,-0.1134558916091919,-0.18941693007946014,-0.03785170987248421,-0.2597000002861023,-0.020051641389727592,-0.12039285898208618,-0.2502157986164093,-0.10792051255702972,-0.2976393699645996,-0.18563400208950043,0.008723285980522633,-0.23552919924259186,0.18084955215454102,-0.3700483441352844,-0.1520250290632248,-0.08741559833288193,-0.04754592850804329,0.11942025274038315