{"shape": [8, 1, 5, 5]}
0.2826703190803528,0.3094351589679718,0.01456800289452076,0.17829550802707672,0.16310864686965942,-0.2723652422428131,0.0875173956155777,0.17051193118095398,-0.062049586325883865,0.1406940370798111,-0.2922782599925995,-0.14045970141887665,0.18678094446659088,0.05809205025434494,0.06562395393848419,-0.04179045185446739,-0.05495602637529373,-0.0038491927552968264,0.19125594198703766,0.1694902628660202,0.11026498675346375,0.1479988396167755,0.20138046145439148,0.05436784029006958,0.30272313952445984,-0.2243688404560089,-0.005382038187235594,-0.22623386979103088,-0.15332908928394318,-0.3815101087093353,-0.11680710315704346,-0.20612050592899323,-0.29534274339675903,-0.35548022389411926,-0.11016368120908737,-0.23192544281482697,-0.28056028485298157,-0.24140402674674988,0.04783732816576958,0.1537092626094818,-0.39833715558052063,-0.16591784358024597,0.2230377197265625,0.2847084701061249,0.24892811477184296,-0.0624571330845356,0.0040265521965920925,0.29844292998313904,0.10600476711988449,0.0290004163980484,0.06398443132638931,0.005840975325554609,-0.1217442974448204,-0.06195665895938873,0.006082515232264996,0.29942235350608826,0.28317245841026306,0.018092596903443336,-0.4003782272338867,-0.256613552570343,-0.0395892858505249,0.05947888270020485,0.31496989727020264,-0.2566494047641754,-0.2933866083621979,-0.33724305033683777,0.1373550295829773,0.30777496099472046,-0.0811351090669632,-0.17442570626735687,-0.33737900853157043,0.20372964441776276,0.3181977868080139,0.23874306678771973,0.03378826007246971,0.11606089770793915,-0.1470777690410614,0.025819899514317513,-0.043671391904354095,0.23342092335224152,-0.2108028382062912,0.14545054733753204,0.009038263000547886,0.32541605830192566,0.16811738908290863,-0.1656363159418106,0.3373202979564667,0.1870369017124176,-0.09721896052360535,-0.1827966272830963,0.12211285531520844,0.26372021436691284,-0.13028767704963684,-0.14828859269618988,-0.3337803781032562,0.10539029538631439,-0.010197856463491917,-0.15963764488697052,-0.14984257519245148,-0.2281140238046646,-0.017205243930220604,-0.48172256350517273,-0.3418944478034973,-0.07419795542955399,0.2931312918663025,0.013443702831864357,0.1630522459745407,0.03886228799819946,0.02177152782678604,-0.1578943431377411,0.30870726704597473,0.2373112142086029,0.017882967367768288,-0.29858168959617615,-0.2585700750350952,0.10181604325771332,0.21590764820575714,0.11500994861125946,0.09166125953197479,-0.05248802900314331,-0.3666905164718628,-0.04722091183066368,0.12234113365411758,0.0937410220503807,0.1469164937734604,0.2244585156440735,0.13819682598114014,-0.09311442077159882,-0.014317823573946953,0.06850849092006683,-0.4716356098651886,-0.40125909447669983,-0.44822192192077637,-0.38595521450042725,-0.4737199544906616,-0.36938661336898804,-0.20367243885993958,-0.17456381022930145,-0.2125701606273651,-0.33955225348472595,-0.10157068073749542,0.19099321961402893,0.2257106602191925,0.3419142961502075,0.1147974282503128,0.545760989189148,0.2961483895778656,0.19477267563343048,0.2507595717906952,0.28004685044288635,0.09938395768404007,0.18412791192531586,-0.02756517007946968,-0.1535339653491974,0.11826536804437637,0.3124311566352844,-0.16078060865402222,-0.3120778799057007,-0.1595662236213684,0.20770558714866638,-0.03161342814564705,-0.3162132799625397,-0.23384696245193481,0.22407174110412598,0.28951993584632874,-0.29308435320854187,-0.05281485617160797,0.018624601885676384,0.24837447702884674,0.15941745042800903,0.15029871463775635,0.258312463760376,0.3076796233654022,0.14416301250457764,-0.025548387318849564,-0.18118035793304443,-0.3932318687438965,-0.4896485507488251,0.12467489391565323,0.18685433268547058,-0.3380421996116638,-0.30918067693710327,-0.12421436607837677,0.29795023798942566,0.2948998212814331,-0.2628365755081177,-0.3095654845237732,-0.019656604155898094,0.42037615180015564,0.12777195870876312,-0.44108957052230835,-0.03995482251048088,0.1117715910077095,0.26686495542526245,0.03759064897894859,-0.3729226887226105,0.001004011370241642,-0.049621015787124634,0.2538444697856903,0.08458428829908371