{"shape": [8, 1, 5, 5]}
0.032270338386297226,0.19142645597457886,-0.22010654211044312,-0.36994677782058716,-0.32737550139427185,0.26713743805885315,0.18356743454933167,0.010932293720543385,-0.32957351207733154,-0.35334017872810364,0.19567784667015076,0.25667503476142883,0.3271919786930084,-0.0917990505695343,-0.199210062623024,0.010234569199383259,-0.0670994371175766,0.33461761474609375,0.18566103279590607,-0.2644529938697815,-0.1627405732870102,0.09325651824474335,0.22146326303482056,0.15624845027923584,0.12422864884138107,0.22312569618225098,-0.05485767871141434,-0.001120092230848968,-0.18066628277301788,0.11866218596696854,-0.008745946921408176,0.2266221046447754,-0.16262595355510712,0.007734360639005899,-0.0034281332045793533,-0.1505424976348877,0.07243520766496658,-0.16762059926986694,-0.09824799746274948,0.22188153862953186,-0.18282127380371094,0.18418529629707336,-0.10830223560333252,0.0586790107190609,0.20694445073604584,0.090304434299469,0.07228582352399826,0.06678573787212372,0.10378988087177277,-0.18673519790172577,0.16279758512973785,-0.23798240721225739,-0.22703209519386292,-0.15968747437000275,-0.3415678143501282,-0.05705290660262108,-0.24795380234718323,-0.09604502469301224,-0.19362351298332214,0.09896872937679291,-0.22987961769104004,-0.10475033521652222,-0.06615658849477768,0.042343758046627045,-0.14035722613334656,-0.2368570864200592,-0.1273002028465271,-0.24439100921154022,-0.005512826610356569,-0.22437651455402374,0.06679816544055939,-0.2525137662887573,-0.09972963482141495,-0.18221019208431244,-0.09446020424365997,-0.05320136249065399,-0.2305174320936203,-0.35721808671951294,0.09189728647470474,0.43092283606529236,-0.3550032377243042,-0.33864402770996094,-0.2482364922761917,0.34545597434043884,0.3260767459869385,-0.212620809674263,-0.22043943405151367,-0.19258897006511688,0.43036776781082153,0.15098987519741058,-0.30091342329978943,-0.22590598464012146,0.12765230238437653,0.15552304685115814,0.21102629601955414,-0.2905005216598511,-0.04820265620946884,0.03725076839327812,0.0889953076839447,0.22909481823444366,-0.01811942830681801,-0.013200659304857254,0.3582354485988617,0.11529305577278137,0.19478130340576172,0.15894202888011932,0.07949452102184296,0.10002358257770538,0.3573123812675476,-0.04598388448357582,0.31556302309036255,0.30553722381591797,0.04390803351998329,-0.46414968371391296,-0.4345618486404419,-0.1559670865535736,-0.40311306715011597,-0.565298855304718,-0.5001596808433533,-0.11585376411676407,-0.17375057935714722,-0.21523310244083405,0.073592908680439,0.41062960028648376,0.3889750838279724,0.07173997163772583,0.16399648785591125,0.4128893315792084,0.4562581777572632,0.292154461145401,-0.27185726165771484,-0.033089473843574524,-0.11818831413984299,0.086947962641716,0.43839231133461,-0.2529115676879883,-0.4729158580303192,-0.2876051962375641,-0.20401158928871155,0.17553934454917908,-0.12598198652267456,-0.2785322070121765,-0.5054149627685547,-0.4214552342891693,-0.22782504558563232,0.4716743528842926,0.10068771243095398,-0.008148112334311008,0.07654807716608047,-0.09208282828330994,-0.29427605867385864,-0.43106809258461,-0.14894214272499084,-0.21569538116455078,-0.4572686553001404,0.08295799046754837,-0.29509609937667847,-0.2372424155473709,-0.010348468087613583,-0.19407957792282104,0.10389521718025208,0.0354556106030941,0.12109321355819702,-0.10314477980136871,0.19966353476047516,0.2325432449579239,0.3498227894306183,0.19247770309448242,0.1117180660367012,0.13757333159446716,0.02947181649506092,0.17333604395389557,0.10270735621452332,0.05936480686068535,0.24289391934871674,-0.08567637950181961,-0.107498399913311,-0.06127673760056496,0.001807965338230133,-0.005355492699891329,0.16912470757961273,0.17999698221683502,0.1261083483695984,0.10417402535676956,0.19576381146907806,0.17409208416938782,0.03845680132508278,-0.08849892765283585,-0.007898676209151745,0.0012149799149483442,0.0065527502447366714,0.17967265844345093,0.1368899643421173,-0.07186111062765121,0.17643988132476807,-0.10070642083883286,0.07669364660978317,0.08185968548059464,0.09077224135398865,0.22481302917003632