{"shape": [10, 1152]}
0.022260932251811028,-0.13008269667625427,-0.1456795334815979,-0.08532420545816422,-0.03650731220841408,-0.024587083607912064,-0.07403529435396194,-0.14318522810935974,-0.13945947587490082,-0.09440507739782333,-0.035676054656505585,-0.05571160465478897,-0.07334226369857788,-0.1218806803226471,0.026576882228255272,-0.032626304775476456,-0.022904010489583015,-0.01035054586827755,-0.03827783092856407,-0.04352911189198494,-0.052439335733652115,-0.07057289034128189,-0.05406469851732254,-0.0967327356338501,-0.06881309300661087,-0.06948070228099823,-0.026217326521873474,-0.011207561008632183,0.008246410638093948,0.02017207257449627,-0.010091962292790413,0.01450604572892189,-0.04027407616376877,-0.06280063837766647,-0.024086114019155502,-0.053991109132766724,-0.04888993501663208,-0.0003150621778331697,-0.03355204686522484,0.017961176112294197,0.047619737684726715,0.04924352839589119,0.0035565407015383244,0.010440708138048649,-0.047188106924295425,-0.06273075938224792,-0.012136725708842278,-0.036708611994981766,-0.009371315129101276,0.0017826464027166367,0.06903312355279922,0.03811680153012276,-0.010728866793215275,0.015702426433563232,-0.028236854821443558,-0.09732768684625626,-0.08063182234764099,0.019982514902949333,-0.043191730976104736,-0.012911675497889519,-0.045286789536476135,-0.005270876456052065,0.05377548187971115,0.049681805074214935,0.018442662432789803,-0.05087878927588463,-0.09233354032039642,-0.09167271107435226,-0.03465919941663742,0.021643953397870064,0.01704898104071617,0.027094833552837372,-0.10258956253528595,-0.017933903262019157,0.05146567523479462,0.0407867394387722,-0.0035163534339517355,-0.07672908157110214,-0.10098941624164581,-0.044867899268865585,-0.03706950694322586,0.029295535758137703,0.05200192332267761,0.08111870288848877,-0.11051368713378906,-0.00512353191152215,-0.021615197882056236,0.015878694131970406,-0.029001746326684952,-0.036361172795295715,-0.043952349573373795,-0.014862913638353348,0.05224914476275444,0.024471087381243706,0.016151612624526024,0.037685275077819824,-0.019443362951278687,-0.008998244069516659,0.008469609543681145,-0.009690964594483376,0.006262640934437513,0.008172767236828804,0.029490292072296143,0.04414420202374458,-0.011896554380655289,0.003997181076556444,0.0009403289295732975,-0.0322912335395813,-0.09045218676328659,-0.020635535940527916,-0.021778957918286324,-0.0151932742446661,0.024987079203128815,0.039085909724235535,0.02536098100244999,0.002485191449522972,-0.020581845194101334,-0.04736936092376709,0.007485230453312397,0.0031096411403268576,-0.0858168825507164,-0.03278253972530365,0.022119851782917976,0.009219505824148655,0.004181203432381153,-0.01384115219116211,0.03526033088564873,0.03935162350535393,-0.02620886079967022,-0.04930935427546501,-0.05258183553814888,-0.11095937341451645,0.07830342650413513,-0.09810701757669449,-0.12324179708957672,-0.15891556441783905,-0.11070842295885086,-0.07205916941165924,-0.07708568125963211,-0.1074170172214508,-0.17863525450229645,-0.12145759165287018,-0.13756591081619263,-0.03978131338953972,-0.0416000634431839,-0.02378116361796856,-0.08444681018590927,-0.11303601413965225,-0.12131817638874054,-0.043445125222206116,0.02132914960384369,0.02159896492958069,-0.03895694389939308,-0.018076375126838684,-0.07530232518911362,-0.028716322034597397,-0.05420311540365219,-0.06897781789302826,-0.07767672836780548,-0.10296033322811127,-0.16346052289009094,-0.0974913015961647,-0.06370042264461517,-0.05597996711730957,-0.046746786683797836,-0.05460604280233383,-0.0940336212515831,0.07139719277620316,0.0430392287671566,-0.09207775443792343,-0.12156415730714798,-0.1435474306344986,-0.15628688037395477,-0.07191935926675797,-0.07759325206279755,-0.06695009022951126,-0.08328577876091003,-0.03960643336176872,-0.004343204665929079,0.042464472353458405,0.04808497056365013,0.01572156324982643,-0.13533766567707062,-0.0914326086640358,0.028995197266340256,0.018860001116991043,-0.072393037378788,-0.11923495680093765,-0.009225048124790192,0.008483778685331345,0.04659592732787132,0.06009306386113167,0.030981024727225304,-0.015462934039533138,-0.033331796526908875,-0.010074854828417301,0.06383349746465683,0.05433418229222298,0.004395559895783663,-0.04513105750083923,-0.026965659111738205,0.05896700918674469,0.041129861027002335,0.08194304257631302,0.037134505808353424,-0.05362648516893387,0.006153698544949293,0.12319593876600266,0.07584657520055771,0.048374105244874954,0.09348519146442413,-0.03134310245513916,0.024079279974102974,0.05825619772076607,0.060160569846630096,0.05804261565208435,0.051378361880779266,-0.07762094587087631,0.12186748534440994,0.08318537473678589,0.0870676189661026,0.1296137273311615,0.14217408001422882,-0.10972920060157776,-0.00575863616541028,0.04664146900177002,0.0642823874950409,0.06937326490879059,-0.00713198771700263,0.05673768371343613,0.08552087098360062,0.06032750755548477,0.060389403253793716,0.1162298396229744,0.03520311787724495,-0.03307409584522247,0.014158238656818867,0.019927673041820526,0.0303668063133955,0.05661753937602043,0.03677085414528847,0.10211023688316345,0.010841857641935349,0.08419311791658401,0.061498235911130905,0.1109454482793808,-0.00401977077126503,-0.006937834434211254,0.011160527355968952,0.02650325372815132,0.002933501498773694,0.05885281413793564,0.04307054355740547,0.09403398633003235,-0.022416522726416588,0.10561583936214447,0.09574320167303085,-0.03581220656633377,-0.03384373337030411,-0.047999363392591476,-0.04829859733581543,-0.06438059359788895,-0.036234933882951736,-0.01235196553170681,-0.0788237527012825,-0.02620532177388668,-0.06828915327787399,-0.0309524517506361,-0.05013854429125786,-0.0652155727148056,-0.15463566780090332,-0.14186708629131317,-0.0574001781642437,-0.04202796146273613,-0.08248191326856613,-0.051387012004852295,0.04727642610669136,-0.2099473476409912,-0.13018257915973663,-0.06481629610061646,0.006081106141209602,-0.08314483612775803,-0.15344147384166718,-0.09891815483570099,-0.03412704914808273,-0.0636422336101532,-0.09503462165594101,-0.05340983346104622,-0.09682896733283997,-0.1138402670621872,0.048740021884441376,-0.028284044936299324,0.005085586104542017,-0.026541823521256447,-0.009139733389019966,-0.0029190960340201855,-0.0744580328464508,-0.04740068316459656,-0.06779125332832336,-0.09450539946556091,-0.011546670459210873,0.02194330096244812,-0.0183635912835598,-0.025080382823944092,-0.01200551725924015,0.02721412666141987,0.001419474370777607,-0.01970335654914379,-0.006307494360953569,-0.0026251343078911304,0.013472356833517551,-0.07818670570850372,-0.08149845898151398,-0.051161617040634155,0.06641913950443268,-0.005243832711130381,-0.029542971402406693,0.01816539466381073,0.04686860740184784,0.009787997230887413,0.004575274419039488,0.023335866630077362,0.00805866438895464,0.024263033643364906,-0.01307643298059702,-0.04016620293259621,0.03385286405682564,-0.013857073150575161,0.002420042874291539,0.035181015729904175,0.020874643698334694,0.0017760297050699592,0.04120130464434624,0.004737477749586105,0.02079015038907528,-0.005225880537182093,-0.05975417047739029,-0.009140389040112495,-0.022962694987654686,-0.051748208701610565,-0.015085965394973755,0.020243695005774498,0.01929781213402748,0.013193299993872643,0.050670936703681946,0.037002671509981155,0.0449642650783062,-0.02123049832880497,-0.020649628713726997,0.0045701866038143635,0.01793604902923107,0.044753510504961014,0.008801867254078388,-0.04144081100821495,-0.029379582032561302,-0.04907437041401863,-0.03478202596306801,-0.0021123464684933424,0.04677284136414528,0.06935764849185944,-0.0382106713950634,-0.009764138609170914,0.006077530328184366,0.03362719342112541,-0.006999119184911251,-0.029045790433883667,-0.013518749736249447,-0.07280969619750977,-0.0725264847278595,-0.019177023321390152,0.02187124453485012,0.041510820388793945,0.005921480245888233,-0.019221458584070206,0.04129216447472572,0.03208879008889198,0.018103811889886856,-0.012609930709004402,-0.036658670753240585,-0.0686253011226654,-0.0269332118332386,0.003703085007146001,-0.00706900330260396,0.02259157970547676,-0.008867114782333374,-0.022069502621889114,0.025221463292837143,0.03894982114434242,0.07541798055171967,0.018032805994153023,-0.01764855720102787,-0.018381154164671898,-0.042063549160957336,0.0025769316125661135,0.02843278832733631,0.07106912136077881,-0.03125491365790367,-0.025870144367218018,0.029721351340413094,0.005626173689961433,0.03350275382399559,-0.020089417695999146,-0.0006677259807474911,-0.038040295243263245,-0.010853010229766369,-0.03035927750170231,0.015097626484930515,0.04048009216785431,-0.06120043992996216,-0.00020785658853128552,0.0265794824808836,-0.009827378205955029,0.0005743727087974548,0.01888284645974636,0.038112375885248184,-0.0337078683078289,-0.02164183184504509,-0.019316475838422775,-0.024370409548282623,0.026696687564253807,-0.04319174215197563,0.004235970322042704,0.005734796170145273,-0.022950557991862297,-0.049459684640169144,-0.02152787335216999,0.011921800673007965,0.035486578941345215,0.04105615243315697,-0.017198454588651657,0.0029427483677864075,0.03328107297420502,-0.11281053721904755,-0.06740205734968185,-0.017752083018422127,-0.03160255774855614,-0.03763620927929878,0.020296944305300713,-0.04677761718630791,-0.001220803358592093,-0.05090850964188576,-0.043712031096220016,-0.07686314731836319,-0.07790833711624146,-0.09723548591136932,-0.014019591733813286,-0.005702146794646978,0.012180446647107601,-0.02871580421924591,-0.0027502896264195442,-0.06693565845489502,-0.03801016882061958,-0.07854847609996796,0.06764832139015198,-0.1542125791311264,-0.06484879553318024,-0.09647342562675476,0.03557911887764931,-0.03718669340014458,0.004575774073600769,-0.05714826658368111,-0.07583050429821014,-0.05129918456077576,0.01870199292898178,0.02428753860294819,0.06059630587697029,-0.07316315174102783,-0.06425365805625916,-0.06256594508886337,0.02120896428823471,0.009903027676045895,-0.024720489978790283,-0.01836276240646839,-0.014987937174737453,0.04199504107236862,0.056501273065805435,0.07578721642494202,0.09051524847745895,0.1060972660779953,0.10033430904150009,0.013955880887806416,0.06407676637172699,0.00017721632320899516,-0.020899318158626556,0.022052066400647163,-0.060294993221759796,-0.0027220938354730606,0.11250590533018112,0.10803385823965073,0.11696003377437592,0.10742778331041336,0.06828150898218155,0.020784810185432434,0.06829869002103806,0.06749186664819717,-0.018593499436974525,-0.0224571842700243,-0.07955583184957504,-0.01132969930768013,0.1578022986650467,0.12533050775527954,0.11273559927940369,0.17104946076869965,0.09068936109542847,0.013681808486580849,0.02092539146542549,0.027911987155675888,0.028696442022919655,0.017761655151844025,-0.09279049187898636,-0.04865046590566635,0.10799678415060043,0.07806903123855591,0.13696573674678802,0.15420518815517426,0.00017869024304673076,0.044124335050582886,0.06259969621896744,0.07988981157541275,0.043824631720781326,0.00449466472491622,-0.04390043392777443,-0.026840658858418465,0.01790127344429493,0.02256794646382332,0.12094126641750336,0.10844594240188599,-0.021111788228154182,0.03227950260043144,0.05442196503281593,0.07819025963544846,0.04675506800413132,0.08202860504388809,-0.038904331624507904,-0.06588397920131683,-0.06703203916549683,-0.0622093603014946,-0.02413608692586422,-0.09988408535718918,-0.10475919395685196,0.008398774079978466,0.05197933316230774,0.03656305745244026,0.0681668072938919,0.12441224604845047,0.0003157729224767536,-0.18935221433639526,-0.20318786799907684,-0.2150437831878662,-0.204531729221344,-0.2312929630279541,-0.12196645885705948,0.03497012332081795,0.03316428139805794,0.03334815427660942,-0.024278616532683372,0.0755082443356514,-0.0015277080237865448,-0.22040978074073792,-0.2897714376449585,-0.3097468316555023,-0.2678331732749939,-0.2521437108516693,-0.21540775895118713,-0.053355537354946136,-0.03077065385878086,0.009394025430083275,0.013886303640902042,-0.016267819330096245,0.0016159357037395239,-0.0316779762506485,-0.18577636778354645,-0.2002221941947937,-0.15366199612617493,-0.16689294576644897,-0.12698894739151,0.015370989218354225,-0.015477059409022331,-0.022447144612669945,0.004880333319306374,0.003996324725449085,0.026250533759593964,0.03944764658808708,-0.006814692635089159,0.00247908104211092,0.03308211639523506,-0.019836902618408203,0.0116832060739398,0.02167794294655323,-0.0031728381291031837,0.029039986431598663,0.008650665171444416,-0.05075984075665474,0.0011284432839602232,-0.015082919038832188,-0.02113334648311138,-0.0657055601477623,-0.04723597690463066,0.033329591155052185,0.03032519854605198,-0.007162932306528091,-0.013366430066525936,0.0177591722458601,0.034021276980638504,-0.06150808557868004,-0.08040034025907516,0.022679027169942856,-0.01716969534754753,-0.01143164373934269,-0.04394917190074921,-0.01776072382926941,-0.03974370285868645,0.03551436588168144,0.020018937066197395,0.0003201922227162868,-0.011275270022451878,-0.041985396295785904,-0.042818281799554825,-0.06538879871368408,-0.09292548149824142,-0.10871890932321548,-0.06858330219984055,0.011750491335988045,0.055510737001895905,0.025929374620318413,-0.020451799035072327,0.0017615673132240772,0.007636574096977711,-0.052959002554416656,-0.12056624889373779,-0.1545608788728714,-0.1502581536769867,-0.17391180992126465,-0.1631348878145218,-0.13936102390289307,-0.02387649193406105,0.03140829876065254,-0.03012153133749962,-0.03759217634797096,-0.10136823356151581,-0.08885156363248825,-0.10417397320270538,-0.02460271120071411,-0.048342347145080566,-0.15108264982700348,-0.1564401388168335,-0.12033706158399582,-0.10130031406879425,-0.013500331901013851,-0.06049546226859093,-0.12967011332511902,-0.11694998294115067,-0.1294192373752594,-0.10354090481996536,-0.05895863473415375,-0.065156489610672,-0.11438319087028503,-0.08554046601057053,-0.06823699921369553,-0.08488158136606216,0.04708738252520561,-0.08061548322439194,-0.10649722069501877,-0.15543924272060394,-0.08397836238145828,-0.08167532086372375,-0.07425027340650558,-0.09290847927331924,-0.06393389403820038,0.03104298561811447,-0.036892421543598175,0.003249857574701309,0.009996820241212845,-0.05074354261159897,-0.10046077519655228,-0.0848272368311882,-0.03997184336185455,-0.04073891043663025,-0.036517586559057236,0.011472800746560097,0.02316405437886715,-0.004162512719631195,0.03657347336411476,-0.000986528699286282,-0.009299890138208866,-0.012561138719320297,-0.02354581467807293,-0.03648773953318596,-0.04548235982656479,0.04809155315160751,0.10465440154075623,0.07861261069774628,0.05897852033376694,0.04680318012833595,0.04190085828304291,0.016437383368611336,0.011299854144454002,-0.019899306818842888,-0.008232208900153637,-0.06899075210094452,-0.07004476338624954,0.0041657849214971066,0.01470817718654871,-0.003077944740653038,0.006964894011616707,-0.004888568539172411,-0.0030473005026578903,-0.02383030578494072,0.004850359633564949,0.009447547607123852,0.06472182273864746,6.404545274563134e-06,0.03705032542347908,0.052441343665122986,0.05625491961836815,0.06087682768702507,0.050180692225694656,0.00568646052852273,-0.010467852465808392,-0.008643676526844501,-0.011828764341771603,0.015900110825896263,-0.0075797587633132935,-0.009837906807661057,0.009468616917729378,0.03731915354728699,0.03570297732949257,-0.02173616550862789,0.0035103331319987774,-0.0644594356417656,-0.03546807914972305,-0.07101299613714218,0.002326295943930745,-0.01205025427043438,-0.003323986195027828,-0.017897335812449455,-0.07955456525087357,-0.06748032569885254,-0.04765373468399048,-0.011169850826263428,-0.1383977085351944,-0.059806134551763535,-0.03720366582274437,-0.04842348024249077,-0.020997900515794754,-0.03818830847740173,-0.046652376651763916,-0.062396660447120667,-0.14955304563045502,-0.069178007543087,-0.08008904755115509,-0.010957908816635609,-0.013212978839874268,-0.033263690769672394,-0.06347140669822693,-0.030844824388623238,0.01764502003788948,-0.027263818308711052,-0.03765119984745979,0.012477791868150234,0.02168074995279312,-0.02869957871735096,-0.11019018292427063,-0.009559877216815948,-0.04716901853680611,0.07770519703626633,0.02193480357527733,0.01478973962366581,0.015933115035295486,-0.019785556942224503,0.06179831549525261,0.06562490016222,-0.0380789116024971,-0.057109229266643524,-0.07276516407728195,-0.042452458292245865,-0.0240697730332613,-0.01182196568697691,0.0028278289828449488,0.011724390089511871,-0.006179644260555506,-0.09331044554710388,-0.03975052013993263,-0.036269113421440125,-0.07854261249303818,0.009083941578865051,-0.02910125069320202,-0.08814901113510132,0.022697407752275467,-0.0005401901435106993,0.026977960020303726,0.04824276641011238,-0.00913497805595398,-0.05296492204070091,-0.10299699008464813,-0.05820808187127113,-0.06185248866677284,-0.01976281963288784,-0.035541996359825134,-0.009685070253908634,-0.10129620879888535,0.011739762499928474,0.023154467344284058,0.04536193609237671,0.00488258944824338,-0.05447973310947418,-0.10770020633935928,-0.10205725580453873,-0.009242982603609562,0.016111038625240326,-0.06736496835947037,-0.055026642978191376,0.03665342926979065,0.016168011352419853,0.019419902935624123,0.0244890283793211,0.008217448368668556,-0.05604387819766998,-0.08897003531455994,-0.004941488150507212,-0.019850414246320724,0.019383130595088005,-0.010976932011544704,-0.0031733291689306498,-0.02107318490743637,0.04444156587123871,-0.03066936694085598,0.021963560953736305,-0.04228757321834564,-0.0743432268500328,-0.026858165860176086,0.05050167068839073,0.08154014497995377,0.08148594945669174,0.04132365807890892,0.030606435611844063,-0.004533426836133003,-0.014566037803888321,-0.05751644819974899,-0.04601357504725456,-0.04201839491724968,-0.02402891218662262,-0.06933066248893738,0.01572025753557682,0.029082799330353737,0.016347471624612808,-0.06633555144071579,-0.02869381755590439,-0.04072031006217003,-0.033643364906311035,-0.055891525000333786,-0.009472829289734364,-0.021462304517626762,0.025653544813394547,0.012996560893952847,0.025019772350788116,0.020085103809833527,0.023504085838794708,0.005006083287298679,0.014669862575829029,-0.04496188461780548,-0.0072836182080209255,-0.07165789604187012,-0.003826756961643696,0.03507119417190552,0.008374734781682491,0.044345274567604065,-0.030818268656730652,-0.0030515380203723907,0.0390600748360157,-0.0037105726078152657,0.028902525082230568,0.020477330312132835,0.0004287230549380183,0.045492108911275864,0.025200245901942253,0.005130978766828775,0.01229315809905529,0.026139017194509506,-0.0010224265279248357,0.007952221669256687,0.02051580883562565,-0.0068622976541519165,-0.01327367965131998,0.011477028951048851,0.06313995271921158,0.017996609210968018,0.003538140095770359,0.04143041372299194,0.04013419896364212,0.01617942564189434,0.02490411326289177,-0.02053860016167164,0.03948628529906273,0.027630824595689774,-0.06411999464035034,-0.08548469096422195,-0.03325984627008438,-0.012732142582535744,-0.00450943736359477,-7.410842226818204e-05,0.009509123861789703,0.030093351379036903,0.014242333360016346,0.01999606564640999,0.035618606954813004,-0.02047344669699669,-0.16510362923145294,-0.2234352082014084,-0.1466825008392334,0.005581020377576351,0.015109777450561523,0.04042248800396919,0.026293903589248657,0.02558596059679985,0.09320539981126785,-0.002433673944324255,-0.010892688296735287,-0.08105763792991638,-0.028683479875326157,-0.05345651134848595,-0.0033684512600302696,0.0150011470541358,-0.006304513197392225,0.02111821249127388,0.07053311914205551,0.03605111315846443,0.05809612572193146,0.03993735462427139,-0.037516236305236816,-0.007002491503953934,0.03347545117139816,-0.006228249054402113,0.05031278356909752,0.0023812665604054928,-0.010044611059129238,0.08962836861610413,0.04134916141629219,0.03724072128534317,0.05943397805094719,0.010072869248688221,0.04393977299332619,0.035520728677511215,0.05144229531288147,0.048343002796173096,0.043547436594963074,0.021275386214256287,0.010904021561145782,0.042333465069532394,0.0006095103453844786,-0.032437894493341446,0.008486517705023289,0.08054518699645996,0.042210739105939865,0.03475072234869003,0.05499730631709099,0.07671593129634857,0.029740331694483757,0.03244957700371742,0.0185456033796072,-0.010120618157088757,-0.029711492359638214,-0.1266716867685318,-0.06555391848087311,-0.0043552471324801445,0.04291428625583649,0.06825816631317139,0.03271131590008736,-0.02555209957063198,0.03584181144833565,0.03466278687119484,0.005603466648608446,0.010897825472056866,-0.008356809616088867,-0.0405961237847805,-0.08845710754394531,-0.1323927491903305,-0.11015889048576355,-0.01898917555809021,-0.034076154232025146,0.07700172066688538,0.02630516327917576,0.03241121768951416,0.02311393991112709,-0.01642470248043537,-0.001609333441592753,-0.06414084881544113,-0.10259633511304855,-0.19778412580490112,-0.07528474181890488,-0.03224632516503334,0.029060471802949905,0.042875632643699646,0.09087445586919785,0.06337359547615051,0.049578361213207245,0.051023926585912704,0.03352564573287964,-0.00024562535691075027,-0.04014274477958679,-0.030233725905418396,0.0096556032076478,0.038433417677879333,0.02636917307972908,0.04770292341709137,0.04217184707522392,0.04489581659436226,0.025711243972182274,-0.0762081891298294,-0.02762642875313759,-0.021424636244773865,0.012463090941309929,-0.006213013082742691,0.0313512422144413,-0.0452621765434742,-0.041352834552526474,0.0032958718948066235,-0.025052841752767563,-0.07965406030416489,-0.08908291906118393,-0.13075245916843414,-0.006822916679084301,-0.033017925918102264,0.014788658358156681,-0.025183793157339096,0.006178474985063076,0.010637970641255379,0.002949350979179144,-0.05583130568265915,-0.018523093312978745,-0.03565292805433273,-0.05539340898394585,-0.0936826840043068,-0.013835161924362183,-0.026636695489287376,0.01150423102080822,0.029175901785492897,0.016547098755836487,0.01984335109591484,0.024692831560969353,0.047434642910957336,0.025093667209148407,-0.024741370230913162,0.020230544731020927,-0.05796933174133301,-0.012960773892700672,-0.012441870756447315,0.039068810641765594,0.04314088448882103,0.02841215953230858,0.07126658409833908,0.07321464270353317,0.052107494324445724,0.016876261681318283,0.02474968694150448,0.06343665719032288,0.00541645847260952,0.03143933415412903,0.03159554675221443,-0.0016249935142695904,-0.020392529666423798,0.009400122798979282,-0.051821254193782806,0.005751660093665123,0.033365361392498016,0.05897750332951546,0.042156070470809937,0.020860979333519936,0.009712494909763336,0.010281002148985863,0.018550613895058632,0.04090718552470207,-0.018535993993282318,-0.04655007645487785,-0.09238388389348984,-0.0679757222533226,-0.00047005253145471215,0.032784923911094666,0.07489020377397537,0.054600492119789124,0.018094776198267937,0.05389619246125221,0.08684753626585007,0.052269019186496735,-0.033590350300073624,-0.06326933205127716,-0.025032009929418564,-0.06618968397378922,0.014077073894441128,0.05778094381093979,0.05656568333506584,0.07426458597183228,0.05231805145740509,0.050920385867357254,0.05346968024969101,0.017521686851978302,-0.006479806732386351,-0.007826746441423893,-0.055971406400203705,-0.0632147416472435,0.0017739603063091636,0.008064987137913704,-0.009173676371574402,0.07381006330251694,0.039524614810943604,0.02611607313156128,0.009035720489919186,0.01614435948431492,0.009244859218597412,0.02530842460691929,-0.010075889527797699,0.011513741686940193,-0.01510723028331995,-0.009050163440406322,-0.015533306635916233,0.020288800820708275,-0.0008729622350074351,0.0016406727954745293,-0.015367677435278893,0.03597237914800644,0.042046524584293365,0.05439288914203644,0.004660347942262888,-0.021484410390257835,-0.018683800473809242,-0.004057725891470909,-0.029307957738637924,-0.014095911756157875,-0.06174209341406822,0.03291087597608566,0.003211996518075466,-0.04756591469049454,0.01726948469877243,0.00909582432359457,0.028487153351306915,-0.0027706061955541372,-0.00798875279724598,-0.008959576487541199,-0.09840338677167892,-0.02286343462765217,-0.02991553023457527,-0.09547759592533112,-0.09061011672019958,-0.15336725115776062,-0.08656857907772064,-0.003064617980271578,-0.08575329929590225,-0.043763916939496994,-0.0586664155125618,-0.09121875464916229,-0.09387584775686264,-0.033080097287893295,0.010816707275807858,-0.14956960082054138,-0.0756881982088089,-0.1330898404121399,-0.13743019104003906,-0.05726860463619232,0.02499755285680294,0.09979572892189026,0.032054461538791656,0.00221640570089221,-0.06835474818944931,-0.09256063401699066,0.028618887066841125,0.01275591365993023,-0.035477619618177414,-0.10844956338405609,-0.08784552663564682,-0.04013582691550255,0.019919997081160545,0.01670754700899124,0.03580775484442711,0.03194043040275574,0.018143190070986748,-0.08088932931423187,-0.0550810806453228,-0.029161114245653152,-0.11684252321720123,-0.023258185014128685,-0.02922828681766987,-0.045559562742710114,-0.03739218786358833,-0.032593272626399994,0.03662606701254845,0.03488941118121147,0.012277624569833279,-0.021998435258865356,-0.10357998311519623,0.005385326221585274,0.004230974707752466,0.02636774443089962,0.01500511635094881,0.04308449104428291,0.01610519178211689,0.04859352856874466,0.03198675066232681,0.05329121649265289,0.03991484269499779,-0.05580773949623108,-0.05804566666483879,-0.04196646064519882,0.015150914900004864,-0.007882802747189999,0.04837193340063095,0.04837207868695259,0.057427506893873215,0.020123256370425224,0.0007978329085744917,0.031917180866003036,-0.015595035627484322,-0.03312908485531807,0.008099065162241459,0.04119602218270302,-0.0006725841667503119,0.05080616846680641,0.04339165240526199,0.0018274582689628005,-0.0017183884046971798,0.02654152736067772,-0.044734034687280655,-0.032749243080616,-0.05104607716202736,-0.10751057416200638,-0.028388533741235733,-0.12237536162137985,-0.0157241839915514,-0.011630134657025337,-0.07893907278776169,-0.00866429042071104,-0.02098528854548931,-0.062830351293087,-0.11934800446033478,-0.06930345296859741,-0.1102568581700325,-0.10346406698226929,-0.08323170244693756,-0.1452646553516388,-0.06332600116729736,-0.08180059492588043,-0.08183134347200394,-0.021294917911291122,-0.02069786749780178,-0.07754303514957428,-0.06383221596479416,-0.021193986758589745,-0.020236609503626823,-0.01723337173461914,-0.09828369319438934,-0.03508664667606354,0.022637037560343742,-0.019612574949860573,-0.0054775443859398365,0.011816443875432014,-0.013943787664175034,-0.03294248878955841,0.05209288373589516,0.038629643619060516,0.020399751141667366,0.08547576516866684,0.060509029775857925,0.07401573657989502,0.08935309946537018,0.04610670730471611,0.024672847241163254,-0.008171847090125084,0.005524200387299061,0.01650504767894745,-0.016265835613012314,-0.01653611846268177,0.04525309056043625,0.029469847679138184,0.07858854532241821,0.04316749796271324,-0.002845404203981161,-0.002134096110239625,-0.02240648865699768,-0.02651953138411045,-0.0032176293898373842,-0.07693871855735779,0.007039808202534914,0.007018314674496651,-0.09929811209440231,-0.045213330537080765,-0.15511415898799896,-0.11219444125890732,-0.018418001011013985,-0.002512426348403096,-0.040887631475925446,-0.04475003108382225,-0.11770156770944595,-0.1106615662574768,0.005887911655008793,-0.07856310904026031,-0.08505167812108994,-0.09159606695175171,0.04540599137544632,0.02905617468059063,0.05419694632291794,0.14100906252861023,0.06560241430997849,0.05901835486292839,0.06772719323635101,0.10209392756223679,0.06790267676115036,0.027596764266490936,0.0007298155105672777,-0.037884969264268875,0.07405699044466019,-0.02125374972820282,0.07608942687511444,0.1320323497056961,0.05487019941210747,0.14822091162204742,0.11713281273841858,0.1159706711769104,0.05722998455166817,0.036601100116968155,0.011651943437755108,-0.02730650082230568,0.04900854453444481,0.016798200085759163,-0.009570665657520294,0.013146208599209785,-0.02561808004975319,0.03558887913823128,0.09693534672260284,0.0827862098813057,0.01793789677321911,0.026723235845565796,0.0023204453755170107,0.001180842868052423,-0.03287985920906067,0.02237863279879093,-0.013831684365868568,-0.24427999556064606,-0.17486891150474548,-0.13153177499771118,-0.034474682062864304,-0.01008059736341238,0.0026940046809613705,0.003650246188044548,-0.017051348462700844,-0.00425579771399498,-0.0031729426700621843,0.05947638675570488,-0.02901459112763405,-0.18117064237594604,-0.13928693532943726,-0.21376872062683105,-0.04363619536161423,-0.007022038102149963,-0.0071044242940843105,-0.001930499216541648,-0.004117692355066538,0.0730414018034935,0.024155419319868088,0.06096376106142998,-0.0026139707770198584,-0.05464101582765579,-0.11985209584236145,-0.09583642333745956,-0.017662549391388893,0.05071953311562538,0.019415711984038353,-0.01902615837752819,0.0160546712577343,-0.05894825980067253,0.00304688373580575,0.02067556232213974,0.037005629390478134,-0.09101788699626923,0.08271659910678864,-0.014499806798994541,0.0037083355709910393,0.051092516630887985,0.01997876912355423,-0.06298530101776123,-0.054396986961364746,-0.1006268560886383,-0.049461375921964645,-0.031789857894182205,-0.09844797849655151,-0.1334819197654724,0.018542464822530746,-0.0008006566786207259,0.043563373386859894,0.04069637879729271,-0.05962003022432327,-0.05691130459308624,-0.05609981343150139,-0.07134454697370529,-0.0845559611916542,0.050358906388282776,-0.06742220371961594,-0.1764325350522995,-0.14492124319076538,-0.04233049973845482,-0.014546431601047516,0.0023361979983747005,-0.10575027763843536,-0.007380991708487272,-0.0581415519118309,-0.03911302611231804,-0.1016249880194664,0.10007575899362564,0.006570184603333473,-0.06036590412259102,0.0023565429728478193,0.013101627118885517,-0.05192581191658974,-0.07084029167890549,-0.0874725878238678,0.026991508901119232,0.021811194717884064,-0.0017204760806635022,0.11737367510795593,0.08155100792646408,0.14763087034225464,0.07691305130720139,0.0765155777335167,-0.04663700982928276,-0.07373355329036713,-0.05280522629618645,-0.05811827629804611,0.04478795453906059,0.06600154936313629,-0.03935447707772255,-0.08353013545274734,0.09234174340963364,0.09621132910251617,-0.0038311623502522707,0.04110563173890114,-0.06915800273418427,0.02370470203459263,0.014724832959473133,-0.0837935134768486,0.022011589258909225,0.005419288761913776,-0.13793542981147766,0.00342332711443305,-0.022136975079774857,-0.05034882202744484,-0.0633443221449852,-0.08962047100067139,-0.08824998140335083,-0.023013455793261528,-0.0462740957736969,-0.04476487264037132,-0.06725253164768219,-0.13214124739170074,-0.06074830889701843,0.03352656587958336,-0.01039915718138218,-0.03962311893701553,-0.011774306185543537,-0.056335385888814926,-0.05833984911441803,-0.0625462606549263,-0.03622199222445488,-0.07664814591407776,-0.09976115822792053,-0.05723743513226509,-0.0870150551199913,-0.03570745885372162,-0.10411382466554642,0.03449457511305809,0.016659878194332123,0.016260335221886635,0.07223182171583176,0.015673711895942688,0.013117020949721336,-0.03820696100592613,0.04016517102718353,0.02379390224814415,-0.013032149523496628,-0.1261950135231018,-0.023252954706549644,0.042353905737400055,0.012787257321178913,0.039230357855558395,0.01722695678472519,0.04268914461135864,-0.011978196911513805,0.008662695065140724,0.03395269438624382,-0.002001470886170864,0.008538552559912205,-0.09706771373748779,-0.04803410917520523,-0.07262807339429855,0.006108338478952646,0.028895679861307144,0.017875485122203827,0.026455704122781754,0.044421594589948654,0.019711507484316826,0.0365137979388237,0.005296592600643635,0.007386928424239159,-0.034564778208732605,-0.10728045552968979,-0.052252691239118576,-0.009476328268647194,-0.06127904728055,-0.03649657964706421,0.03672729805111885,0.04668969660997391,-0.000686176645103842,0.0011271527037024498,-0.02741440385580063,-0.012098601087927818,-0.12416058033704758,-0.063590407371521,-0.07154574990272522,-0.05387080833315849,-0.0466165617108345,-0.05229691416025162,0.040457695722579956,0.03598407283425331,-0.015140709467232227,-0.04448101297020912,-0.05381360650062561,-0.06485169380903244,-0.045443691313266754,-0.11057145893573761,-0.04334678128361702,-0.02281862124800682,-0.07820700109004974,-0.05750352516770363,0.025015326216816902,0.0686282068490982,0.0067327250726521015,-0.01000375859439373,0.0075791971758008,-0.02111203782260418,-0.05369157716631889,-0.03320838883519173,0.02213320881128311,0.014609094709157944,-0.0049725789576768875,-0.007170260418206453,0.02914324216544628,0.10165496170520782,0.0060609811916947365,0.028311660513281822,0.005864541977643967,0.017829524353146553,0.09253348410129547,0.0901951938867569,-0.0054584383033216,-0.00854892935603857,-0.04822768643498421,0.00927628856152296,0.04590659961104393,0.03801277279853821,0.04835207387804985,0.023511402308940887,-0.014758870005607605,0.0345868282020092,-0.1226215735077858,-0.027847735211253166,0.10213161259889603,0.028374597430229187,0.06793732941150665,0.043538134545087814,0.045089174062013626,0.06428983062505722,0.052028264850378036,0.03784485161304474,0.00023603468434885144,0.039483875036239624,-0.06589612364768982,0.030432000756263733,0.018881237134337425,-0.013156029395759106,-0.021914977580308914,-0.00729579571634531,-0.007021546363830566,-0.03484220802783966,-0.04179341346025467,-0.02548808604478836,0.020555108785629272,-0.0664011687040329,0.09411676228046417,0.020515071228146553,-0.07191652059555054,-0.04415183141827583,0.07858102768659592,0.12377430498600006,0.05276750773191452,0.012297057546675205,0.07554832845926285,0.013226097449660301,0.016439342871308327,-0.05248809978365898,0.020591985434293747,-0.0268520787358284,-0.11201269179582596,0.035400934517383575,0.06897091120481491,0.1062593013048172,0.023549871519207954,0.04554763808846474,0.06634402275085449,0.05173102393746376,0.03282519429922104,-0.03654005378484726,0.032042935490608215,0.025946222245693207,0.0038347423542290926,0.018026499077677727,0.06564038246870041,0.03617245331406593,-0.002585131209343672,0.02959156408905983,0.03599001467227936,0.0639328882098198,-0.015370898880064487,-0.007043489720672369,-0.033196821808815,0.037758246064186096,-0.05377165600657463,-0.020383434370160103,0.021831003949046135,0.03966054692864418,0.017524808645248413,-0.006405635736882687,-0.11164610087871552,-0.11635514348745346,-0.1900644153356552,-0.09731347858905792,-0.000801381072960794,-0.0015567773953080177,0.0061989426612854,-0.04002216458320618,0.002615307690575719,0.002773843938484788,0.08879425376653671,0.004017911851406097,-0.07311120629310608,-0.11651395261287689,-0.18485137820243835,-0.1397056132555008,0.00798815581947565,-0.06563211232423782,-0.04937136173248291,-0.08801688253879547,0.028648093342781067,0.07744518667459488,0.01584554836153984,0.030718425288796425,0.05473572388291359,0.00912127923220396,-0.06300721317529678,0.03695283830165863,-0.025092225521802902,-0.0828782171010971,-0.07951616495847702,-0.04856176674365997,0.019874759018421173,0.043904438614845276,-0.0003978524764534086,0.038639433681964874,0.04401836171746254,-0.10941389203071594,-0.04542531445622444,0.006711915601044893,-0.17828071117401123,-0.06965537369251251,-0.060501210391521454,-0.06085217744112015,-0.027636269107460976,0.10352634638547897,0.05774597451090813,-0.01870756968855858,-0.14264939725399017,-0.28638955950737,0.023157194256782532,0.10674116760492325,-0.0507456436753273,-0.0716542899608612,-0.05948537588119507,-0.08080506324768066,-0.018191803246736526,0.0796714797616005,0.11373013257980347,-0.038269441574811935,-0.1779411882162094,-0.1874297857284546,0.05130099505186081,0.09762604534626007,-0.04132208228111267,-0.025327958166599274,-0.006754789035767317,-0.024004753679037094,0.007433547638356686,0.0009106837096624076,0.039917927235364914,-0.018273163586854935,0.04427564516663551,0.055218566209077835,0.0655527114868164,0.1853189915418625,0.046671923249959946,0.005166328977793455,0.007840086705982685,0.04813653603196144,0.039339758455753326,0.061398833990097046,0.009500399231910706,0.030543852597475052,0.17730511724948883,0.12713131308555603,0.1266707479953766,0.13158541917800903,-0.03537688031792641,0.01610124297440052,-0.03755567595362663,-0.0008675659773871303,-0.007534855976700783,0.012938530184328556,-0.0014605994801968336,-0.006517401896417141,0.04394623637199402,0.011895352974534035,-0.1831074208021164,0.01284724473953247,0.035055652260780334,0.008161194622516632,0.024232963100075722,-0.03637111559510231,-0.053940556943416595,-0.021907035261392593,-0.034910015761852264,-0.029971616342663765,0.008496429771184921,0.027500275522470474,0.035264089703559875,-0.0021578255109488964,0.013850001618266106,0.021426361054182053,0.007468708325177431,-0.04505414515733719,-0.07444990426301956,-0.07927050441503525,-0.06395029276609421,-0.059858616441488266,-0.08707056194543839,-0.04816679283976555,-0.0452091209590435,-0.010739604011178017,-0.002970997244119644,0.013094751164317131,-0.022305119782686234,-0.026064585894346237,-0.09422077983617783,-0.11032162606716156,-0.11836112290620804,-0.1870533674955368,-0.16709861159324646,-0.0945993959903717,-0.11471690982580185,-0.0497436448931694,0.016112415120005608,-0.041475098580121994,-0.007429927587509155,0.03308495879173279,-0.00844922848045826,-0.09416286647319794,-0.11891459673643112,-0.1467856764793396,-0.18412889540195465,-0.07599810510873795,-0.03188421204686165,-0.07605654001235962,-0.021382218226790428,-0.0013910179259255528,0.09106086194515228,0.06356881558895111,0.043745897710323334,-0.06204314902424812,-0.14098823070526123,-0.19556157290935516,-0.20351023972034454,-0.10844038426876068,-0.05291154980659485,9.202223736792803e-05,0.004742688499391079,-0.005426718853414059,0.001247142325155437,0.0731760710477829,0.0027365523856133223,-0.14594265818595886,-0.1922002136707306,-0.3257887065410614,-0.16282837092876434,-0.02152634784579277,-0.025724239647388458,-0.016591645777225494,0.007280196528881788,0.0014541760319843888,-0.01104662660509348,0.06488773971796036,-0.05362622067332268,-0.2245934009552002,-0.2699446976184845,-0.1491890698671341,-0.07977437227964401,-0.026523994281888008,0.021206863224506378,0.048450108617544174,0.008817899040877819,0.01519645657390356,0.08550918102264404,0.06178562715649605,-0.09129500389099121,-0.12677589058876038,-0.09336850047111511,-0.054848894476890564,0.007263460662215948,-0.0037266677245497704,0.06227083504199982,0.06271211057901382,0.03717390075325966,0.12737058103084564,0.14773692190647125,0.06167969852685928,0.037058454006910324,0.02801201120018959,-0.09953022748231888,0.009149756282567978,-0.024992283433675766,0.08557132631540298,0.03294442221522331,0.034935370087623596,-0.004938880912959576,0.022098587825894356,0.10727998614311218,0.06830102950334549,-0.05110207945108414,-0.140472874045372,-0.08743083477020264,-0.09736315160989761,-0.024010298773646355,0.08253532648086548,0.01704499125480652,-0.008458780124783516,0.007666999474167824,0.07403843849897385,0.06916137784719467,0.09683265537023544,-0.02286844328045845,-0.0666215568780899,-0.06357112526893616,-0.014335439540445805,0.06401161849498749,0.058751195669174194,0.05729212611913681,0.04077178239822388,0.05086619406938553,0.04174289479851723,-0.009473263286054134,-0.010269030928611755,-0.020913491025567055,-0.0657014474272728,-0.007854226976633072,0.008327901363372803,-0.013908430002629757,0.025387970730662346,-0.012716887518763542,-0.0017146983882412314,0.07501780241727829,0.03285261616110802,0.014936697669327259,-0.060583505779504776,-0.08655449002981186,-0.01112689170986414,0.04997310787439346,0.02043663151562214,-0.013247708790004253,0.03229778632521629,0.012140643782913685,-0.04270192235708237,0.005865359678864479,-0.05200756713747978,-0.02389611303806305,-0.07082950323820114,-0.060973476618528366,-0.12985269725322723,-0.15683504939079285,-0.14851748943328857,-0.06855466216802597,-0.05650551989674568,-0.09157933294773102,-0.1145336851477623,0.00873672217130661,0.02474759891629219,0.045482832938432693,-0.05614587292075157,-0.1485229879617691,-0.1532118171453476,-0.20422370731830597,-0.16929891705513,-0.1653272807598114,-0.08914957195520401,-0.03500426933169365,-0.0945376306772232,-0.05777854472398758,-0.04788931831717491,-0.0681670531630516,-0.008246231824159622,-0.0877806767821312,-0.13942144811153412,-0.22896957397460938,-0.18604496121406555,-0.14049990475177765,-0.10470275580883026,-0.08693492412567139,-0.045262858271598816,-0.12602856755256653,0.0738639235496521,0.08808796107769012,0.05343901738524437,-0.07057367265224457,-0.2122364491224289,-0.2182832807302475,-0.07713451236486435,-0.10955563932657242,-0.06347526609897614,-0.029756363481283188,-0.08458823710680008,-0.04034867882728577,-0.0689958781003952,-0.004641349893063307,0.0910981148481369,-0.09312527626752853,-0.2313154637813568,-0.27443650364875793,-0.13944198191165924,-0.04418349638581276,-0.043629370629787445,-0.022844132035970688,0.013391018845140934,0.002210422186180949,-0.017091387882828712,-0.00018685820396058261,-0.02568565309047699,-0.26027965545654297,-0.2995150089263916,-0.183283269405365,-0.06422325223684311,-0.014599901624023914,-0.039312127977609634,0.009290541522204876,0.01857372373342514,-0.11435618251562119,0.05339324474334717,0.05840519070625305,-0.03151277080178261,-0.1958322674036026,-0.19168035686016083,-0.07555003464221954,-0.0003644897951744497,-0.04845850542187691,0.05162862688302994,0.05715867877006531,0.028370382264256477,0.16429685056209564,0.09422658383846283,0.07881633192300797,-0.03455328568816185,-0.05922733247280121,-0.10440009832382202,-0.09133284538984299,-0.03797771409153938,0.01473353710025549,0.05168231204152107,-0.002715674228966236,-0.009818952530622482,0.025700896978378296,0.06415297836065292,0.11863348633050919,-0.04293028637766838,-0.075461745262146,-0.18049681186676025,-0.11099652200937271,-0.01883283071219921,0.07110142707824707,0.0739813894033432,0.042316731065511703,0.03594724461436272,0.08025097101926804,0.0046487171202898026,0.049550220370292664,-0.0652289167046547,-0.08997548371553421,-0.08924311399459839,-0.02122773788869381,0.0741320475935936,0.10450024157762527,0.018277106806635857,0.12006586790084839,-0.030453141778707504,0.0442420057952404,-0.006539726164191961,-0.029976099729537964,0.017393434420228004,0.01944485493004322,0.016207193955779076,-0.003369110869243741,0.016118478029966354,0.059851109981536865,0.006971844006329775,-0.01489446684718132,-0.06668661534786224,0.012991962023079395,-0.00819558184593916,-0.000991832697764039,-0.014611939899623394,0.02672111801803112,0.0493147075176239,0.0217948816716671,0.016623828560113907,0.042215701192617416,0.010674647986888885,0.03235412761569023,0.01913560926914215,0.030287913978099823,0.008633465506136417,-0.04330533370375633,0.01623412035405636,0.05547696352005005,0.04559057578444481,0.09170735627412796,0.10281235724687576,0.1404874473810196,0.08880917727947235,0.013331511057913303,0.04367474466562271,0.014037728309631348,0.01832631044089794,-0.040383510291576385,-0.02059035934507847,-0.0015851428033784032,0.08080308884382248,0.0857122614979744,0.17725083231925964,0.21536938846111298,0.05235697329044342,0.050835952162742615,0.03362221643328667,0.0029048300348222256,0.006403730716556311,-0.031508076936006546,-0.05923886597156525,-0.007775479461997747,0.044257815927267075,0.16376782953739166,0.18008284270763397,0.16228044033050537,0.06689693033695221,0.02173079177737236,0.003542625345289707,0.005525104235857725,-0.0007345351041294634,-0.015279714949429035,-0.006045471411198378,0.030708687379956245,0.06341420114040375,0.09809461236000061,0.0672721266746521,0.11177811771631241,0.02238471992313862,0.004981911741197109,0.010875158943235874,0.019763944670557976,0.007587320636957884,0.033621590584516525,0.0064819627441465855,0.03309940546751022,0.09741141647100449,0.06238740682601929,0.12946347892284393,0.023772329092025757,0.047730520367622375,-0.0023323826026171446,0.029971644282341003,-0.031366441398859024,-0.026944242417812347,0.0005859086522832513,0.03948843479156494,0.02727944776415825,0.11358323693275452,0.06823787838220596,0.2106301337480545,0.052941858768463135,0.041788361966609955,0.04862254112958908,0.014253075234591961,-0.03263567388057709,-0.018759852275252342,0.02577313780784607,0.022321689873933792,-0.05460985004901886,0.12468446791172028,0.098751001060009,0.15262852609157562,0.019476257264614105,0.002821879694238305,-0.0028191895689815283,0.01916881836950779,0.0032985955476760864,0.06965259462594986,0.08450882136821747,-0.006620204076170921,-0.022212987765669823,0.08795760571956635,0.06220417469739914,0.014401018619537354,-0.060884930193424225,-0.005702388472855091,0.022065022960305214,-0.002848592819646001,0.053520672023296356,0.023250261321663857,0.04208097234368324,0.021457524970173836,0.01145743578672409,0.05873451009392738,0.11531388759613037,0.0433560311794281,0.017152896150946617,-0.01403822936117649,-0.04176224023103714,-0.01835610158741474,0.03932451084256172,0.0035162968561053276,0.05565309524536133,0.05641542375087738,0.08454588800668716,0.03230060264468193,0.043059926480054855,-0.025346815586090088,-0.015028459951281548,-0.03889762982726097,0.021126052364706993,0.020241031423211098,0.03724865987896919,0.035139214247465134,0.0063119265250861645,-0.04075443744659424,0.00860576331615448,-0.021700359880924225,-0.01716061308979988,0.037022583186626434,-0.004401461221277714,0.019236275926232338,-0.0034225815907120705,0.03618061542510986,0.08799709379673004,0.03524305671453476,-0.08152386546134949,-0.037157535552978516,-0.050697047263383865,0.0394287109375,0.05886976793408394,0.012249150313436985,-0.03182912617921829,0.030995042994618416,-0.057740792632102966,-0.0885418951511383,0.08655445277690887,-0.0237572118639946,-0.052546579390764236,-0.01182476058602333,0.01686255633831024,0.02976412884891033,0.02281777746975422,0.014700252562761307,0.020081495866179466,-0.02240693010389805,-0.014346625655889511,-0.044287972152233124,0.055439017713069916,-0.00930920522660017,-0.06411808729171753,0.018077928572893143,-0.009439335204660892,0.04574011638760567,-0.012522226199507713,0.0034368543419986963,-0.010835187509655952,-0.017102321609854698,-0.04556816443800926,-0.037041570991277695,-0.034614503383636475,-0.03802187740802765,-0.04031577706336975,0.011828017421066761,-0.019124044105410576,0.06835656613111496,0.03895410895347595,-0.0041283792816102505,0.0033616346772760153,0.030081868171691895,0.021139690652489662,-0.047724492847919464,-0.026499807834625244,0.02374427206814289,-0.05748957768082619,-0.007972974330186844,0.029421642422676086,0.04041863977909088,0.028115978464484215,0.018435010686516762,0.014098616316914558,0.0020205017644912004,-0.0014397874474525452,0.05049430578947067,0.0409279502928257,-0.034896139055490494,-0.011436873115599155,-0.0398324616253376,-0.01960335485637188,0.02410956844687462,-0.052820783108472824,-0.021411774680018425,-0.009317444637417793,-0.024993475526571274,0.023334288969635963,-0.008124771527945995,-0.020710289478302002,-0.03611528128385544,-0.04269242286682129,-0.04342861846089363,-0.01763925515115261,0.004719599615782499,-0.06723329424858093,-0.06763755530118942,-0.07692020386457443,-0.03599267452955246,-0.0225411094725132,-0.05875534191727638,-0.05407906323671341,-0.045716542750597,-0.021752504631876945,0.004086162894964218,-0.008187562227249146,-0.026333320885896683,-0.04571321979165077,-0.0011909963795915246,-0.06285899132490158,-0.04262441396713257,0.011770477518439293,-0.01143353059887886,-0.05392643064260483,-0.0641193613409996,0.0048326365649700165,-0.0036801986861974,-0.021243343129754066,-0.029462531208992004,-0.026816604658961296,0.012523574754595757,0.026153378188610077,0.02370522916316986,0.016996586695313454,0.04054935649037361,-0.03732748329639435,0.046030085533857346,-0.025738032534718513,-0.006933951750397682,0.0025233628693968058,-0.020784728229045868,-0.02181657962501049,0.019079597666859627,0.040316324681043625,0.01172921247780323,0.06092376634478569,0.04206818714737892,0.06108022853732109,0.013832286931574345,0.043982941657304764,-0.05313084274530411,-0.09063850343227386,-0.041859790682792664,-0.051611848175525665,-0.012583241797983646,-0.005128050222992897,-0.04918881505727768,0.03579406067728996,-0.010106250643730164,-0.033695146441459656,-0.04823898896574974,0.0015074422117322683,-0.08129501342773438,-0.06115525960922241,-0.13005876541137695,-0.06495000422000885,-0.06657703220844269,-0.07348284125328064,-0.044286616146564484,-0.0657106563448906,-0.22168055176734924,0.02001042477786541,0.04022212699055672,0.03300686180591583,0.10000164061784744,0.055413126945495605,0.04475034773349762,-0.016251258552074432,-0.07911935448646545,-0.07322525978088379,-0.11758636683225632,-0.11352968961000443,-0.0450635701417923,0.04844224080443382,0.07397258281707764,0.022463830187916756,0.026905005797743797,0.02943258360028267,0.021413756534457207,-0.026147177442908287,0.010757619515061378,-0.030512196943163872,-0.09323049336671829,-0.034146666526794434,-0.12525132298469543,0.05599839612841606,0.09127648174762726,0.0344853512942791,0.004288237541913986,0.053875215351581573,0.010271066799759865,0.01799043081700802,-0.06122822314500809,-0.023120567202568054,-0.06397006660699844,-0.01052234135568142,-0.062815360724926,0.030601350590586662,-0.03464392200112343,0.008536173030734062,-0.0013949736021459103,-0.02876373566687107,-0.0192149318754673,-0.0581800602376461,-0.038446977734565735,-0.09178788214921951,-0.03916008770465851,-0.03027469851076603,-0.017332356423139572,-0.030692972242832184,0.02467522770166397,-0.023497257381677628,-0.051520269364118576,0.017261842265725136,-0.02775455079972744,-0.034224677830934525,-0.05453278124332428,-0.0046859970316290855,-0.023128783330321312,-0.015016427263617516,-0.02279960922896862,-0.03218459337949753,-0.009014861658215523,0.03279060870409012,0.0524766631424427,0.0674799233675003,0.0162297785282135,-0.05665795877575874,-0.04339773952960968,0.014711217023432255,0.025113895535469055,0.06633809953927994,0.07401023805141449,-0.035594817250967026,0.06902263313531876,0.08233492076396942,0.05163039639592171,0.09476637840270996,0.12186645716428757,0.08099129050970078,0.02457692101597786,0.06668496876955032,0.017410747706890106,0.08892498165369034,0.11435220390558243,0.06057671830058098,0.08306523412466049,0.05794192850589752,0.054538656026124954,0.05474454164505005,0.08799169957637787,0.08570793271064758,0.0497032105922699,0.049398064613342285,0.021592291072010994,0.020616382360458374,0.056134287267923355,0.1069767102599144,0.03422357514500618,0.00490574399009347,0.03264027461409569,0.0833117738366127,0.04072956368327141,0.02401377260684967,0.026094773784279823,-0.021472444757819176,-0.02374069206416607,-0.012540599331259727,-0.02142084203660488,0.13696078956127167,0.0266763586550951,0.0044214543886482716,0.012320725247263908,0.04003165662288666,0.012028663419187069,0.027455607429146767,0.01576283387839794,0.031281545758247375,-0.06844137609004974,-0.08114404231309891,-0.007185718044638634,0.03688599541783333,-0.01612934097647667,-0.03378310427069664,-0.0071696019731462,0.013150045648217201,-0.008404290303587914,-0.01600020006299019,0.02586800418794155,0.019116278737783432,-0.055621713399887085,-0.0029156089294701815,0.016317062079906464,-0.22923320531845093,-0.23297390341758728,-0.1413920521736145,-0.10919752717018127,-0.060546550899744034,-0.02349875308573246,-0.027927830815315247,0.015036878176033497,-0.03950153663754463,-0.09166443347930908,0.0017724547069519758,0.018185673281550407,-0.008191605098545551,0.03206350654363632,0.03954179584980011,-0.06640081852674484,0.05950424447655678,0.05597293749451637,0.020872177556157112,-0.0919635072350502,0.008601393550634384,-0.04866240918636322,-0.045773815363645554,-0.038401439785957336,-0.060636889189481735,0.07098133116960526,0.04409484192728996,-0.14873264729976654,-0.1484512984752655,-0.019878005608916283,-0.06170094385743141,-0.08481563627719879,-0.00572995375841856,-0.06593819707632065,-0.04180753231048584,0.008963690139353275,-0.11247461289167404,0.030324317514896393,-0.09088626503944397,-0.10066058486700058,-0.16212543845176697,-0.071693055331707,-0.05289703235030174,-0.052155084908008575,-0.006509621627628803,-0.07189059257507324,-0.002896857913583517,0.04590953141450882,0.0759236142039299,0.02419985644519329,0.019666096195578575,-0.027795523405075073,-0.06631811708211899,-0.030044512823224068,0.01341954804956913,0.0037038144655525684,0.02709030918776989,0.02864762395620346,0.036791812628507614,0.01661781035363674,0.11870599538087845,0.08722885698080063,-0.007646722719073296,-0.11835332214832306,-0.1390751600265503,-0.04887034371495247,-0.015793854370713234,0.018877293914556503,0.02849341183900833,0.06621158123016357,0.027439631521701813,0.024876199662685394,0.03560754656791687,-0.0888388529419899,-0.0796637311577797,-0.17299768328666687,-0.20330986380577087,-0.10530867427587509,-0.018714558333158493,-0.0115860840305686,0.04300132766366005,0.060076694935560226,0.034875527024269104,-0.055465321987867355,-0.12976142764091492,0.0631614699959755,-0.13310682773590088,-0.14090430736541748,-0.18427810072898865,-0.1374693363904953,0.02536817453801632,0.017054138705134392,0.027829596772789955,0.025165298953652382,-0.019438762217760086,-0.04237149655818939,-0.08636704832315445,0.06626887619495392,-0.06470369547605515,-0.038836974650621414,-0.023233387619256973,0.01866358518600464,0.04459012299776077,0.033383216708898544,-0.06923721730709076,-0.04207124561071396,-0.07941865921020508,-0.07087172567844391,-0.07691284269094467,-0.002747457940131426,0.03246818110346794,0.04785148426890373,0.11222212016582489,0.03830729052424431,0.03398948907852173,0.009023497812449932,-0.055089373141527176,-0.0649896115064621,-0.031814493238925934,-0.04375071078538895,-0.019078131765127182,0.003705737879499793,0.15954744815826416,0.1153438538312912,0.11933249980211258,-0.0286741703748703,-0.05107506364583969,-0.0615738183259964,-0.024234941229224205,-0.033837124705314636,-0.03388211503624916,-0.05731440335512161,-0.02315545454621315,0.1607818305492401,0.1232195720076561,0.06805010139942169,-0.0542299784719944,-0.058215346187353134,-0.1463320255279541,-0.1074753850698471,-0.06507009267807007,-0.0003811641363427043,-0.006090319249778986,-0.01666930690407753,-0.08661370724439621,-0.044757165014743805,-0.10706682503223419,-0.03867001831531525,-0.09698371589183807,-0.14757917821407318,-0.21458743512630463,-0.10546034574508667,-0.00012208968109916896,0.03631937876343727,-0.018509551882743835,-0.020833970978856087,-0.09502030909061432,0.061188023537397385,0.043051086366176605,0.07989618927240372,0.013623993843793869,0.05399942398071289,0.01992705464363098,0.06910403072834015,0.047205112874507904,-0.026158679276704788,-0.11925406754016876,-0.07696482539176941,0.047421034425497055,0.0029548087622970343,0.01142004132270813,0.020620500668883324,0.05343015119433403,0.034103456884622574,0.06775099039077759,0.03130681440234184,0.049229156225919724,0.0020261004101485014,0.04380205273628235,0.035272374749183655,-0.04637233167886734,0.031805090606212616,-0.04160671308636665,0.000994020840153098,0.02136845886707306,0.005209614057093859,-0.016660671681165695,0.022554222494363785,0.04203992709517479,0.044671881943941116,0.0035854079760611057,-0.014790712855756283,-0.038306545466184616,-0.005197005812078714,-0.05087120085954666,-0.029042845591902733,-0.03470474109053612,-0.005290656816214323,0.0037232497707009315,-0.015110034495592117,0.015149448998272419,0.015797538682818413,-0.03755854442715645,-0.03599555045366287,-0.02821187674999237,-0.05390002951025963,-0.06702078878879547,-0.028233075514435768,-0.055271659046411514,-0.03569193556904793,-0.07362598180770874,-0.05676955729722977,-0.01081751100718975,0.009348570369184017,-0.0080769844353199,-0.04462914168834686,-0.06651994585990906,-0.08196191489696503,-0.040574073791503906,-0.052935510873794556,-0.05005038529634476,-0.052268125116825104,-0.03714791685342789,-0.028005998581647873,-0.03705998882651329,-2.840626984834671e-05,0.03524159640073776,-0.020501213148236275,-0.08550354093313217,-0.04364091157913208,-0.05643448606133461,-0.03580433502793312,0.006117403972893953,0.028360936790704727,-0.002962780185043812,-0.05078796669840813,0.005849391687661409,0.01845882646739483,-0.014995169825851917,0.006872337777167559,0.05127599462866783,0.006520498543977737,-0.00558509211987257,0.0004897854523733258,0.05540379136800766,0.043308667838573456,0.02527109906077385,0.03878573328256607,0.02329217828810215,0.012905260547995567,-0.03044896200299263,-0.07004007697105408,0.04884890466928482,0.09223580360412598,0.03662596270442009,0.06881946325302124,0.02173827961087227,0.1078309416770935,0.07844982296228409,0.06218532845377922,0.009337518364191055,0.012347142212092876,0.01575147546827793,0.015125945210456848,0.05344988405704498,0.025151090696454048,-0.023819468915462494,0.05167330801486969,0.02752782590687275,0.05727674067020416,0.0353923998773098,0.0789952278137207,0.038510486483573914,-0.03462039306759834,-0.07481824606657028,-0.02363707311451435,0.030803220346570015,0.041314899921417236,0.03554398939013481,0.03264184296131134,0.018186599016189575,0.019956201314926147,0.007530376315116882,0.04087522253394127,0.026909731328487396,-0.02493860386312008,-0.01664091646671295,-0.06698902696371078,0.11077666282653809,0.06398225575685501,0.020717231556773186,-0.01931537128984928,0.01194341853260994,-0.0010932874865829945,0.0018720629159361124,-0.017171774059534073,-0.013457496650516987,-0.035494860261678696,-0.05213109403848648,-0.0317806601524353,-0.039200663566589355,-0.0015323343686759472,0.03014441765844822,0.08711520582437515,0.022367259487509727,-0.053527459502220154,-0.04517173394560814,-0.06255300343036652,-0.14333821833133698,-0.10690847784280777,-0.1371680200099945,0.011324320919811726,0.027099160477519035,-0.034723300486803055,-0.013626336120069027,0.014299404807388783,0.01735299825668335,-0.017072884365916252,0.013866637833416462,-0.05759626626968384,-0.15800142288208008,-0.27293530106544495,-0.23384585976600647,-0.013312187045812607,-0.02488204836845398,-0.058353669941425323,-0.05304056778550148,0.018473241478204727,0.025852343067526817,0.015058590099215508,0.01060083694756031,0.06922876834869385,0.07260343432426453,0.11296578496694565,-0.029023418202996254,-0.12673848867416382,-0.03431554138660431,-0.029438216239213943,-0.07486912608146667,0.002921709790825844,-0.015070036984980106,-0.03262166678905487,0.0759233608841896,0.09486544132232666,0.10426684468984604,0.11320730298757553,-0.007399142254143953,-0.005049956496804953,-0.09787337481975555,-0.06431883573532104,-0.08296789228916168,-0.0963093712925911,-0.07129107415676117,-0.07129181921482086,0.08082738518714905,0.1253831386566162,0.14329855144023895,0.10315336287021637,0.06668253242969513,0.14988097548484802,-0.0881158635020256,-0.01991131342947483,-0.07479054480791092,-0.11821135133504868,-0.14046037197113037,-0.10634644329547882,-0.023188592866063118,0.03924054279923439,0.04119179770350456,0.0012711248127743602,-0.0551103837788105,0.13853836059570312,-0.03491536155343056,-0.052672844380140305,-0.09599222987890244,-0.12075527012348175,-0.08582525700330734,-0.07846292108297348,-0.07263850420713425,-0.10057710856199265,-0.16276699304580688,-0.1914578229188919,-0.26801207661628723,0.05167462304234505,0.022225812077522278,-0.006693569011986256,-0.017095478251576424,-0.04665025323629379,0.019232800230383873,-0.05212965980172157,-0.043620627373456955,-0.14835967123508453,-0.20169346034526825,-0.1481447070837021,-0.18372398614883423,0.07728604227304459,0.0536007359623909,-0.009084045886993408,0.013258424587547779,0.021677115932106972,0.02582346647977829,-0.11635380238294601,-0.10024390369653702,-0.15435341000556946,-0.19616708159446716,-0.11871496587991714,-0.020898276939988136,0.183472141623497,0.0340811051428318,-0.0036696940660476685,0.03319074586033821,0.0318310409784317,0.020346812903881073,-0.0787075012922287,-0.09406941384077072,-0.0019536647014319897,0.03526173532009125,0.08684422075748444,0.21506965160369873,0.07713641226291656,0.015670323744416237,-0.016367727890610695,0.03223719820380211,0.010862797498703003,-0.00788272824138403,-0.08011844009160995,-0.11615575850009918,0.08374197036027908,0.19743388891220093,0.13238665461540222,0.12233622372150421,0.07779560983181,-0.0663822814822197,-0.06732747703790665,0.0054076355881989,-0.03834431618452072,-0.012650205753743649,-0.06163568049669266,-0.0509185828268528,-0.05299971252679825,0.04098106548190117,0.09096754342317581,0.11146733164787292,-0.02218012884259224,0.016089629381895065,-0.0212227962911129,0.02460578642785549,0.025150278583168983,-0.01369599811732769,0.014271773397922516,-0.007724136114120483,-0.0007161721587181091,0.023496096953749657,0.016343936324119568,0.02526903711259365,0.02611684240400791,0.02496161311864853,-0.026405761018395424,-0.028407679870724678,0.025721043348312378,-0.016594696789979935,0.03372856602072716,0.006977508310228586,0.016760120168328285,-0.022780826315283775,-0.07392454892396927,-0.03326130658388138,-0.047327034175395966,0.0021708374843001366,-0.011852066032588482,0.012398346327245235,0.03179347887635231,0.012052987702190876,-0.006917220540344715,-0.021365463733673096,-0.047795820981264114,-0.06316371262073517,-0.099114790558815,-0.13741624355316162,-0.0399792417883873,-0.008224490098655224,0.0831938236951828,0.10428747534751892,0.04470708221197128,0.014669046737253666,-0.014631247147917747,0.014160968363285065,-0.03342534229159355,-0.07032747566699982,-0.13539378345012665,-0.12992610037326813,-0.07435422390699387,-0.003513830481097102,0.10612989962100983,0.08219535648822784,0.10682851821184158,0.09478091448545456,0.09850932657718658,0.051778290420770645,-0.040208179503679276,-0.10120084881782532,-0.14263994991779327,-0.042890533804893494,0.03969689458608627,0.023414811119437218,0.11185836791992188,0.17353475093841553,0.15800966322422028,0.10465160012245178,0.08637768030166626,0.06570688635110855,0.0013866036897525191,-0.053209975361824036,-0.11320091038942337,0.012776019982993603,0.0626680850982666,0.04458855092525482,0.055095650255680084,0.13765640556812286,0.10800593346357346,0.03770289570093155,-0.010670957155525684,-0.03714854642748833,-0.06885703653097153,-0.027300439774990082,0.026301726698875427,0.09539060294628143,0.13536837697029114,0.019885918125510216,-0.02510790154337883,-0.007017638999968767,-0.010958867147564888,-0.07256937026977539,-0.05365927517414093,-0.08378013968467712,-0.03210316225886345,0.008164594881236553,0.04839163273572922,0.11575113981962204,0.1601451337337494,-0.010533198714256287,-0.057342853397130966,-0.14247830212116241,-0.12833479046821594,-0.045367591083049774,-0.015498262830078602,0.012055422179400921,0.006566900294274092,0.06845034658908844,0.15194900333881378,0.1861303299665451,0.14736413955688477,-0.02554967999458313,-0.0075293914414942265,-0.11407758295536041,-0.07940723747015,-0.025012902915477753,0.05476275831460953,0.011327667161822319,0.07284217327833176,0.11516992002725601,0.13042721152305603,0.1083708256483078,0.060952913016080856,0.016883699223399162,-0.04701172560453415,-0.08610145002603531,-0.03706889599561691,-0.0065015461295843124,0.004047338850796223,-0.010572846978902817,0.05619978904724121,0.09490509331226349,0.095140740275383,0.046264827251434326,0.022699501365423203,0.044278450310230255,0.03294102102518082,0.07212517410516739,0.02919703722000122,0.03568991646170616,-0.0024299637880176306,-0.007007518783211708,0.04408840462565422,0.09717338532209396,0.05287448316812515,0.0015449448255822062,0.01950215734541416,-0.04389877989888191,0.01143339928239584,0.02219368703663349,0.0380084328353405,-0.026222607120871544,0.008250640705227852,-0.013024291954934597,-0.05485611781477928,0.044243358075618744,0.05250966548919678,-0.0251042190939188,-0.07696337252855301,0.002710727509111166,0.029377011582255363,0.014336406253278255,0.03684531897306442,-0.01140711922198534,0.03178265690803528,0.016052555292844772,-0.06468694657087326,-0.06073480471968651,-0.1319650113582611,-0.15909652411937714,-0.16268165409564972,-0.04737468063831329,-0.009379947558045387,-0.004523660987615585,0.018323954194784164,-0.0210986640304327,-0.0446988120675087,-0.010228941217064857,-0.009042096324265003,0.041339267045259476,-0.09975186735391617,-0.0834473967552185,-0.11496089398860931,0.021891703829169273,0.07845273613929749,0.08055382966995239,-0.05400291457772255,-0.02463216707110405,-0.04346272721886635,-0.0892086774110794,0.004857821390032768,-0.025703195482492447,-0.09047926217317581,-0.1172655001282692,0.015680523589253426,0.057029709219932556,0.04842269420623779,0.054121099412441254,0.06969983875751495,0.06234823539853096,0.07078047841787338,0.004942023660987616,-0.043057143688201904,-0.02627575397491455,-0.006878015119582415,0.016992725431919098,0.047897059470415115,0.09994726628065109,0.20179149508476257,0.12465532124042511,0.08814875036478043,0.08698315173387527,-0.010347803123295307,0.010615281760692596,-0.10480821132659912,-0.026317313313484192,0.018313610926270485,0.08983616530895233,0.08172519505023956,-0.042159486562013626,0.023240339010953903,0.11766798794269562,0.04113082215189934,0.042008526623249054,0.011365999467670918,-0.0929371789097786,-0.022941604256629944,-0.00934510212391615,0.027344830334186554,0.13890071213245392,0.11520709842443466,-0.029463855549693108,-0.05013716593384743,-0.020849240943789482,-0.06438640505075455,-0.042765963822603226,0.010798448696732521,-0.0013243363937363029,-0.06310170888900757,0.006006838753819466,0.062157995998859406,0.19602541625499725,0.11514925211668015,0.03371957316994667,-0.033494092524051666,-0.13321229815483093,-0.055038176476955414,-0.027636373415589333,0.04726197570562363,0.060338351875543594,0.009619050659239292,0.06738097965717316,0.12911684811115265,0.09074515104293823,0.09502217918634415,-0.0007195448270067573,-0.10718116909265518,-0.08323246985673904,-0.07355266809463501,-0.037192974239587784,0.01568356342613697,0.06926990300416946,0.07057934254407883,0.0846390351653099,0.11866746842861176,0.08642670512199402,0.07333294302225113,0.042964618653059006,-0.051327820867300034,-0.05040520802140236,0.0015342088881880045,-0.006964320316910744,-0.01810629293322563,0.056325364857912064,0.05586256459355354,0.0957346111536026,0.07843921333551407,0.031657665967941284,0.07982376962900162,-0.050694093108177185,0.005272373091429472,0.0200726967304945,-0.0005643519689328969,-0.020786596462130547,0.021276893094182014,0.01694379560649395,0.05997883155941963,0.03479808568954468,0.03541972488164902,0.0075723216868937016,0.016552524641156197,-0.008188840933144093,-0.0016131172887980938,0.055033162236213684,0.0017029799055308104,0.0023937933146953583,-0.06944046169519424,-0.035866472870111465,-0.0689031332731247,-0.03343527019023895,0.030294574797153473,0.02759961038827896,0.036959391087293625,-0.022433480247855186,-0.01570989191532135,-0.010870666243135929,-0.029241042211651802,-0.08637883514165878,-0.09092667698860168,-0.0942770317196846,-0.10498759150505066,-0.055218927562236786,-0.04377332702279091,0.01653444766998291,-0.0004938266356475651,-0.021250814199447632,0.0006785544101148844,0.0010562993120402098,0.04285021126270294,0.005873639136552811,-0.05882517993450165,-0.1474480926990509,-0.21456363797187805,-0.16150657832622528,-0.027076976373791695,0.030057497322559357,0.04525088518857956,-0.0001936905027832836,-0.023451276123523712,0.03277740627527237,0.016682658344507217,-0.08905883878469467,-0.0455290712416172,-0.04503541812300682,0.009427032433450222,-0.04201066866517067,0.05014731362462044,0.05963542312383652,0.026402221992611885,0.009175604209303856,-0.005257527343928814,0.03545433655381203,0.0244915708899498,0.02810240164399147,0.009687998332083225,0.036147091537714005,0.062463149428367615,0.04505108669400215,0.03469584137201309,0.043912068009376526,0.046703580766916275,-0.0190079677850008,0.07845575362443924,0.09099572151899338,0.06445039063692093,0.03900288790464401,-0.019992491230368614,-0.007715753745287657,0.08553136885166168,0.10286343097686768,0.1085834875702858,0.06872249394655228,-0.008242468349635601,0.018861060962080956,0.034074679017066956,0.10799110680818558,0.1108948141336441,0.13584981858730316,0.004127223044633865,0.039195120334625244,0.05666172131896019,0.15283812582492828,0.06322506070137024,0.04152886942028999,-0.03757546842098236,0.0453542061150074,0.0711202546954155,0.04698345810174942,0.11470825225114822,0.10289324820041656,0.0989769920706749,0.10125360637903214,0.11929251253604889,0.10742773115634918,-0.034908048808574677,-0.05034871771931648,-0.03511827066540718,0.0001827739761210978,0.017368806526064873,0.0406828448176384,0.05825967714190483,0.10396470129489899,0.05636705458164215,0.06229931116104126,-0.07706078886985779,-0.09838856756687164,-0.038692258298397064,-0.008149477653205395,0.015660874545574188,0.0014659586595371366,0.008103065192699432,0.020067289471626282,0.015116170048713684,0.049767401069402695,-0.012772392481565475,-0.132179394364357,-0.23791588842868805,-0.19557121396064758,-0.12437545508146286,-0.058620885014534,0.009870681911706924,-0.05674220621585846,-0.06289312988519669,-0.06679406762123108,-0.06815599650144577,0.017445573583245277,-0.04146982729434967,-0.10190977901220322,-0.11642640084028244,-0.21124550700187683,-0.08098633587360382,0.0009999851463362575,-0.02222561463713646,-0.02392001636326313,-0.027228273451328278,-0.04979013651609421,-0.008130344562232494,0.025643305853009224,0.01252425741404295,-0.013603570871055126,-0.058677978813648224,-0.038134317845106125,0.025369416922330856,0.02010878175497055,0.029625926166772842,-0.021789126098155975,0.008736848831176758,0.041902460157871246,0.06917921453714371,0.03503015637397766,0.00648318137973547,0.010521253570914268,-0.03626687824726105,0.00022464887297246605,-0.03853556886315346,-0.12659843266010284,-0.11009300500154495,0.015963463112711906,-0.006830453872680664,-0.009283024817705154,0.009273014962673187,0.012333814054727554,-0.004845315124839544,-0.011805862188339233,-0.004631667863577604,-0.03045281022787094,0.007464543450623751,-0.030024202540516853,-0.07172750681638718,-0.005208778195083141,-0.01544951181858778,-0.007433133665472269,0.0064947521314024925,0.033175330609083176,0.03747205808758736,0.01425289548933506,0.011819863691926003,-0.012768184766173363,-0.0021026087924838066,-0.020442821085453033,-0.02880766987800598,-0.04491430148482323,-0.05483487620949745,-0.03369111195206642,-0.027018534019589424,-0.0329296700656414,-0.008248378522694111,-0.042493365705013275,-0.005108239594846964,0.013547868467867374,-0.04310012236237526,-0.03483233228325844,-0.007437945809215307,-0.03938458114862442,-0.05437389016151428,-0.060903001576662064,-0.07349241524934769,-0.04504096508026123,-0.03513653948903084,-0.08675313740968704,-0.035925161093473434,-0.02945362962782383,0.0010156042408198118,0.006866192910820246,-0.015815841034054756,-0.09620307385921478,-0.04774855822324753,-0.025201739743351936,-0.030104611068964005,-0.04138844832777977,-0.0241413451731205,-0.07103727757930756,-0.05184900388121605,-0.011246193200349808,0.009361793287098408,0.008674749173223972,0.05700233206152916,-0.01989891566336155,-0.010900933295488358,-0.0035203678999096155,0.02986171655356884,0.047367408871650696,0.035743746906518936,0.008562986738979816,0.041119784116744995,-0.019035207107663155,0.0245505478233099,0.07234439253807068,0.08297327160835266,0.04901055991649628,0.04669249802827835,0.07117712497711182,0.014326343312859535,0.07570194453001022,0.06626871973276138,0.06662364304065704,0.01675187051296234,0.02181042730808258,0.033152129501104355,0.05279308184981346,0.000683498801663518,0.051325637847185135,0.02681448869407177,0.049513790756464005,0.04246746748685837,0.04930203780531883,0.07117237150669098,0.0009939904557541013,0.018591802567243576,0.012060788460075855,-0.010669459588825703,0.017407244071364403,-0.027975771576166153,0.06430089473724365,0.03378866985440254,0.019550401717424393,0.04728453978896141,0.038609232753515244,0.042868420481681824,0.055711157619953156,0.009360799565911293,0.027860935777425766,0.033431924879550934,-0.0245700404047966,-0.05103826895356178,0.03965992480516434,0.010115697048604488,-0.016672283411026,-0.03381204605102539,-0.019045090302824974,0.002716295886784792,-0.02040642872452736,0.031693823635578156,0.04088558256626129,0.019395247101783752,0.006383022293448448,-0.05983508378267288,-0.17714111506938934,-0.10501016676425934,-0.1021910086274147,-0.09364345669746399,-0.04039369896054268,-0.03454386815428734,-0.0453888438642025,0.02785865217447281,-0.037991032004356384,-0.0047060661017894745,-0.02261180616915226,-0.05215263366699219,-0.01507664006203413,0.011210012249648571,0.026108024641871452,-0.012725167907774448,-0.021919334307312965,0.04653973877429962,-0.026542533189058304,0.003563100006431341,-0.06219903379678726,-0.027312645688652992,-0.08279024809598923,-0.07007306069135666,0.03194225952029228,0.08055517077445984,0.05570346489548683,0.029461774975061417,0.04318157210946083,-0.01298914197832346,-0.010391251184046268,-0.023123275488615036,0.02289004996418953,-0.005400015041232109,-0.04827170819044113,-0.013592042028903961,0.02734513208270073,0.005338451825082302,0.017626121640205383,0.029291434213519096,0.05007663741707802,-0.007272438146173954,0.028759360313415527,0.018894676119089127,0.025320155546069145,-0.0007771414238959551,-0.04153997451066971,-0.016703343018889427,0.0436176136136055,0.03528980910778046,0.02952154353260994,0.026734791696071625,0.05059617757797241,0.07196783274412155,0.07026423513889313,0.06156627833843231,0.021733183413743973,0.028365276753902435,0.03169097751379013,-0.04899026080965996,-0.009961740113794804,-0.002057892270386219,-0.014942365698516369,0.042457371950149536,0.11443481594324112,0.1217467188835144,0.09556317329406738,0.08906414359807968,0.06889694929122925,0.027122778818011284,-0.015677379444241524,-0.11380215734243393,-0.058930471539497375,-0.11730676889419556,-0.12302287667989731,-0.05819506198167801,0.03461846336722374,0.04187333211302757,0.10193610191345215,0.05958045646548271,-0.02138359099626541,-0.013270865194499493,-0.07715676724910736,-0.12296844273805618,-0.09634362161159515,-0.15929241478443146,-0.11988119035959244,-0.15252263844013214,-0.1046762689948082,-0.014637406915426254,0.0017350534908473492,-0.0005378457717597485,-0.02404593490064144,-0.021975791081786156,-0.0459236241877079,-0.026275502517819405,0.012980716302990913,-0.07811979949474335,-0.08604775369167328,-0.07005152851343155,-0.11250799894332886,-0.031041473150253296,-0.02085028402507305,-0.0005143132875673473,-0.010663793422281742,0.0287080779671669,0.03411950543522835,-0.019674625247716904,0.05760436877608299,0.01850260980427265,-0.04900018125772476,-0.004044497385621071,-0.034929268062114716,-0.010522587224841118,0.0009938759030774236,0.049425140023231506,0.049828220158815384,0.034601520746946335,0.03520377725362778,-0.0644354298710823,0.006537789944559336,-0.014928067103028297,-0.024812258780002594,-0.028249118477106094,0.018589317798614502,0.057202327996492386,0.030287018045783043,0.04567546769976616,0.05618172883987427,0.05496708303689957,0.01721283234655857,0.04635929688811302,-0.004927108529955149,0.021816089749336243,0.015610136091709137,0.03913279250264168,0.05946660786867142,0.05726321414113045,0.05342577025294304,0.034444864839315414,0.09456975013017654,0.0038057961501181126,0.056824930012226105,-0.010495463386178017,0.1414235234260559,0.1684556007385254,0.13110588490962982,0.0847693532705307,0.08762969076633453,0.10418747365474701,0.044334229081869125,0.03339327126741409,0.04976700618863106,0.05000147968530655,-0.03752375394105911,-0.05799949914216995,-0.11614110320806503,-0.08756934851408005,-0.05846787616610527,0.03746447339653969,-0.05898294225335121,0.0384582057595253,-0.007038695737719536,-0.06025378033518791,-0.06995189934968948,-0.0502019040286541,0.007038399111479521,-0.018697939813137054,-0.008430485613644123,0.07289762049913406,-0.012407482601702213,0.062122199684381485,-0.0197138711810112,0.054318055510520935,0.06702115386724472,0.019294897094368935,-0.02194795198738575,-0.03423810377717018,0.03680024668574333,-0.013374979607760906,0.022269723936915398,0.08006905019283295,-0.03915892913937569,-0.08955303579568863,-0.1627909392118454,-0.23298920691013336,-0.03257182240486145,0.008518192917108536,0.03453889489173889,0.0018406033050268888,-0.0014539293479174376,0.0636269673705101,-0.012251081876456738,0.09748895466327667,-0.016906311735510826,-0.12005347013473511,-0.17159931361675262,-0.18990135192871094,-0.04511624202132225,0.022524716332554817,0.05878031998872757,0.05837405472993851,0.034955598413944244,0.024289147928357124,-0.07518183439970016,0.09125988930463791,-0.02476915344595909,-0.041124213486909866,-0.14950914680957794,-0.0916251540184021,0.002832586644217372,0.029086561873555183,0.04211673140525818,0.03514578938484192,0.04920952394604683,0.004106411710381508,-0.026968566700816154,0.08557120710611343,0.0557265505194664,0.11042188107967377,0.0714244395494461,-0.05023457854986191,-0.059615060687065125,-0.08258924633264542,0.005853897891938686,0.011421190574765205,-0.03338012844324112,-0.036396969109773636,-0.03630482777953148,-0.03517564758658409,0.09758497029542923,0.10243005305528641,0.01631031185388565,-0.19007109105587006,-0.06969036906957626,-0.0803581103682518,-0.03059781715273857,-0.02269403263926506,-0.03333394601941109,-0.04862947016954422,0.0034831613302230835,-0.009815509431064129,-0.008444911800324917,-0.13679412007331848,-0.1530802994966507,-0.2164296954870224,-0.13581201434135437,-0.0949191078543663,-0.055721886456012726,0.019081415608525276,-0.013818723149597645,0.032031599432229996,-0.09265783429145813,-0.04544379562139511,-0.12677869200706482,-0.17726969718933105,-0.2450859397649765,-0.20195642113685608,-0.1839088499546051,-0.06630757451057434,0.02381875552237034,0.00989642832428217,-0.019055737182497978,0.05757985636591911,-0.02825305424630642,-0.03240928053855896,-0.12531299889087677,-0.20523609220981598,-0.24163691699504852,-0.24215778708457947,-0.13193276524543762,-0.009593174792826176,0.03617633506655693,0.01788260228931904,-0.0030896514654159546,0.02260313555598259,-0.017124231904745102,-0.12581826746463776,-0.2642039358615875,-0.18645751476287842,-0.2477644383907318,-0.2164982408285141,-0.043877918273210526,0.026931777596473694,0.024674920365214348,0.021315403282642365,0.01857846975326538,0.006811459083110094,0.11976774036884308,0.08293246477842331,-0.07872217893600464,-0.03174543380737305,0.038810547441244125,0.035153575241565704,0.09090685844421387,0.03659800812602043,0.028999323025345802,0.04675079882144928,0.024975690990686417,-0.0021021959837526083,0.11122903972864151,0.07296686619520187,0.0550096295773983,0.06509977579116821,0.07316247373819351,0.03603952005505562,0.027634190395474434,0.06113545596599579,0.04252272844314575,0.030411191284656525,-0.009633245877921581,-0.07877257466316223,0.017198706045746803,-0.004067901521921158,-0.0011663653422147036,0.033992111682891846,0.03257651999592781,0.03540518879890442,0.06155341863632202,0.0015898216515779495,0.0531342439353466,0.04166838154196739,0.06635358184576035,0.022679144516587257,0.06547146290540695,-0.0054976739920675755,0.002942556282505393,0.057836368680000305,0.07773396372795105,0.0844561830163002,0.06438400596380234,0.009233256801962852,0.037209413945674896,0.058521661907434464,0.04602329805493355,0.015500478446483612,-0.022414078935980797,0.023458141833543777,-0.02797665260732174,0.020861750468611717,0.03620238974690437,0.01785595528781414,0.03306242451071739,0.04729602858424187,-0.0011908828746527433,0.01719151809811592,0.017572015523910522,0.03095787763595581,-0.10277821868658066,-0.023413551971316338,-0.10522438585758209,-0.0488845556974411,-0.008765695616602898,-0.007101244758814573,0.03718000277876854,0.05396474152803421,0.03795513138175011,-0.012853826396167278,-0.020158439874649048,0.03958512470126152,-0.08876816183328629,-0.07675191760063171,-0.10211115330457687,-0.08635123074054718,-0.03650535270571709,-0.004761542659252882,0.06729836016893387,0.05988035723567009,0.050988052040338516,0.009453489445149899,-0.024340035393834114,-0.02229434996843338,0.0019485917873680592,-0.058726515620946884,-0.1056428924202919,-0.022743746638298035,-0.06612221896648407,0.02647014707326889,0.025337353348731995,0.032081253826618195,0.029453163966536522,-0.0007333906251005828,-0.022339681163430214,-0.0599631629884243,0.00850730761885643,0.03346458822488785,0.0034087870735675097,-0.029390104115009308,-0.06569347530603409,-0.03947316110134125,0.03759489580988884,-0.02335662767291069,-0.03296985849738121,-0.02685651369392872,-0.014624165371060371,-0.03629273176193237,0.1063118726015091,0.05417482182383537,-0.016009408980607986,-0.018000807613134384,-0.06075087934732437,-0.044337522238492966,-0.043544407933950424,-0.06169643998146057,0.023362640291452408,0.027190664783120155,-0.02556328848004341,0.010911459103226662,0.07456555962562561,-0.00614016130566597,0.02676442265510559,-0.00993344932794571,0.005483941175043583,-0.04736434295773506,-0.03299712762236595,-0.013465998694300652,0.012739083729684353,0.004991443362087011,0.04760292172431946,-0.015773454681038857,0.07718253880739212,0.047115664929151535,0.016345826908946037,0.024911221116781235,-0.015304261818528175,-0.037064798176288605,0.01507280208170414,0.0023105002474039793,0.031997717916965485,0.029937852174043655,-0.0024040162097662687,0.095467209815979,-0.036255016922950745,0.02945757284760475,0.057122163474559784,0.03948387876152992,0.05009310320019722,0.030971623957157135,0.03236937150359154,0.018176842480897903,0.031638868153095245,0.028891965746879578,0.019896404817700386,0.030396148562431335,0.01866377517580986,0.03739095479249954,0.02797302044928074,-0.004150750115513802,0.006378068123012781,0.005988344084471464,0.03905590623617172,-0.08559830486774445,-0.19859416782855988,-0.16423442959785461,-0.24540717899799347,-0.0275877732783556,0.06073514372110367,0.030567921698093414,0.003434231271967292,-0.010594592429697514,-0.01786380261182785,-0.00042311506695114076,0.04029513895511627,0.06544198095798492,0.012142110615968704,-0.25091850757598877,-0.2055436670780182,-0.13592219352722168,0.03447460010647774,-0.008897005580365658,0.00567417498677969,-0.0015464231837540865,-0.04951028525829315,0.04806898161768913,0.04833563417196274,0.02932528592646122,0.0768304094672203,0.05561445653438568,0.056593723595142365,-0.09490952640771866,-0.04434002935886383,-0.04623022302985191,-0.0422646626830101,-0.08670449256896973,-0.06272589415311813,-0.012253113090991974,-0.051124513149261475,-0.03683960437774658,0.033713068813085556,0.007180025801062584,-0.046660181134939194,-0.0447511300444603,-0.09727618098258972,-0.11447104066610336,-0.10198606550693512,-0.07951889932155609,-0.1000792384147644,-0.03962547704577446,-0.11626815050840378,-0.11079353094100952,-0.11839807033538818,-0.13155704736709595,-0.46355557441711426,-0.13832899928092957,-0.12461616843938828,-0.19426290690898895,-0.13319170475006104,-0.06380415707826614,-0.06854677945375443,0.0253006424754858,-0.08450157940387726,-0.1279180645942688,-0.17168882489204407,-0.22726429998874664,-0.3521534502506256,-0.16834191977977753,-0.053363848477602005,-0.11073189228773117,-0.062423042953014374,-0.05239374563097954,-0.007848188281059265,0.0462634451687336,-0.02950993925333023,-0.10744170844554901,-0.003509532194584608,-0.03703785315155983,-0.04072560369968414,-0.14665426313877106,-0.003913227468729019,-0.04982411116361618,-0.0606658011674881,-0.04340502992272377,0.041983846575021744,0.02106407843530178,-0.02320004254579544,0.0390738919377327,0.06478141248226166,0.03634325787425041,-0.00129286153241992,-0.13279731571674347,0.04166650399565697,0.026442790403962135,-0.009355301968753338,-0.005544462241232395,0.015278888866305351,0.05254458263516426,-0.04676990211009979,0.01332821138203144,0.06000857800245285,0.02368568815290928,-0.030481968075037003,-0.24776899814605713,0.046111974865198135,0.018344776704907417,0.0132309440523386,-0.03472398221492767,-0.019729340448975563,-0.04530230537056923,-0.022685158997774124,0.054998334497213364,0.004393110517412424,-0.04064048454165459,-0.22075602412223816,-0.38848790526390076,0.02419319376349449,0.02346087619662285,0.030230481177568436,0.019575729966163635,-0.07855593413114548,-0.15503200888633728,-0.08320808410644531,-0.020030710846185684,-0.11374718695878983,-0.13906283676624298,-0.18407949805259705,-0.216195747256279,0.09364244341850281,0.0945977047085762,0.06599974632263184,0.01186754647642374,-0.016041859984397888,-0.08958017826080322,-0.17879308760166168,-0.08441264927387238,-0.10603447258472443,-0.10371416807174683,-0.1495247185230255,0.03169338405132294,0.013452869839966297,-0.009460859932005405,-0.010260115377604961,-0.011735438369214535,0.0015166210941970348,0.004021448083221912,0.008474324829876423,0.011597671546041965,0.008831054903566837,0.03388155996799469,0.024981698021292686,0.049642086029052734,0.012873789295554161,-0.005711872596293688,0.006158811505883932,0.056988880038261414,0.023190511390566826,0.05817950889468193,0.03158356621861458,0.030370501801371574,-0.025345798581838608,-0.05085645243525505,-0.08117630332708359,-0.04503297433257103,-0.021218907088041306,0.021308908239006996,0.028358235955238342,0.04187449812889099,0.0756780356168747,0.07099494338035583,0.046679429709911346,-0.045134853571653366,-0.09586719423532486,-0.13380055129528046,-0.08372630923986435,-0.07057853043079376,0.02132873423397541,0.07282611727714539,0.07994402945041656,0.13182124495506287,0.07929902523756027,0.048231884837150574,0.04777078703045845,-0.008372211828827858,-0.0681137815117836,-0.16532093286514282,-0.22170038521289825,-0.08966422080993652,0.024593345820903778,0.09818259626626968,0.13523942232131958,0.08280161023139954,0.12503081560134888,0.08894652873277664,0.026901639997959137,0.043116047978401184,0.02019883319735527,-0.07193688303232193,-0.12695659697055817,-0.07431892305612564,0.046863000839948654,0.09154413640499115,0.10400252789258957,0.12045210599899292,0.11100847274065018,0.08206093311309814,0.03585093468427658,0.11440610140562057,0.06962756812572479,0.0458625964820385,0.029696375131607056,-0.01437957864254713,0.04260947182774544,0.0015721055679023266,0.039159372448921204,0.060835495591163635,0.053714387118816376,0.07875929027795792,0.08253206312656403,0.10880491882562637,0.13347606360912323,0.03989288583397865,-0.06019110605120659,-0.041518278419971466,-0.02650841698050499,0.004072821699082851,0.056286755949258804,0.08110150694847107,0.03673388808965683,0.0497472770512104,0.062318991869688034,0.09564065933227539,0.017787065356969833,-0.10550140589475632,-0.167892187833786,-0.06083590164780617,0.022420866414904594,-0.014927330426871777,0.04127374663949013,0.06883180141448975,0.047873616218566895,0.055794257670640945,0.051636066287755966,0.004748927429318428,-0.04509975016117096,-0.12863685190677643,-0.14201854169368744,-0.03827713802456856,0.05073007568717003,0.024247754365205765,0.04756951704621315,0.06936676800251007,0.11158290505409241,0.06894057989120483,0.0789715126156807,0.0040210396982729435,-0.08845789730548859,-0.13712218403816223,-0.09452590346336365,-0.043736282736063004,0.018370790407061577,0.033103227615356445,0.08484900742769241,0.11344952136278152,0.13472218811511993,0.05853422358632088,0.04437878727912903,-0.020608846098184586,-0.03709099441766739,-0.07055963575839996,-0.05727926641702652,-0.06957242637872696,-0.03155864030122757,-0.034832507371902466,-0.04851936548948288,0.006962037645280361,0.012203176505863667,0.0412188395857811,0.018629014492034912,0.024686068296432495,0.004123548045754433,-0.002403505612164736,0.03400367125868797,-0.011042437516152859,0.004305724520236254,-0.017713302746415138,-0.03373730555176735,-0.009316826239228249,0.030472196638584137,0.044325899332761765,0.015199062414467335,-0.021266596391797066,-0.06431522965431213,-0.020497649908065796,0.0026329229585826397,0.003450649091973901,0.07042694836854935,0.0139310909435153,0.020070955157279968,0.06843219697475433,0.0979786291718483,0.09239799529314041,-0.0005132172955200076,-0.04966619610786438,-0.07638222724199295,-0.09789135307073593,-0.18690507113933563,-0.07910064607858658,0.06260953843593597,0.042529162019491196,0.04719048738479614,0.026507021859288216,0.0917125791311264,0.056224316358566284,0.003093460574746132,-0.034559231251478195,-0.08674199134111404,-0.03501412644982338,-0.11131371557712555,-0.06115855276584625,0.019590284675359726,0.005256927106529474,0.005791580770164728,0.08740384876728058,0.04761231690645218,0.07629003375768661,0.040338192135095596,0.0048046717420220375,-0.04442312568426132,-0.15544265508651733,-0.10298645496368408,-0.1037110909819603,0.06970338523387909,0.08848785609006882,0.08379247784614563,0.09892518073320389,0.1132061704993248,0.04025152325630188,0.06273052096366882,0.038379065692424774,0.03400851786136627,-0.06026788800954819,-0.019840678200125694,-0.07228197157382965,0.02306884340941906,0.010227247141301632,0.04478484019637108,-0.013654687441885471,-0.021882371976971626,0.06856192648410797,0.07843304425477982,0.07380665838718414,0.049101583659648895,0.02896406501531601,0.009938976727426052,-0.05561361834406853,-0.023960202932357788,-0.024141516536474228,0.06310397386550903,-0.01761982962489128,-0.0366525836288929,0.055197037756443024,0.04625784233212471,0.06020260229706764,0.029977353289723396,-0.0890829935669899,-0.11471967399120331,-0.11573780328035355,-0.013866711407899857,-0.014468231238424778,0.09266620129346848,0.03424281254410744,-0.03315173462033272,0.10315567255020142,0.09577449411153793,0.010609395802021027,-0.05733600631356239,-0.1214836984872818,-0.06403031945228577,-0.0020114239305257797,-0.07770101726055145,0.028793105855584145,0.06465958058834076,0.017675235867500305,0.07595094293355942,0.06301285326480865,0.0007980020018294454,-0.05628926679491997,-0.05685177445411682,-0.10332195460796356,-0.07007298618555069,-0.034305304288864136,0.06365987658500671,0.07950344681739807,0.06011427193880081,0.06426952034235,0.11105634272098541,0.04693259671330452,0.05133828893303871,-0.024869292974472046,0.012175575830042362,-0.05831069126725197,-0.05648304522037506,-0.05159430578351021,-0.0060996925458312035,0.006958454847335815,0.10418381541967392,0.11799353361129761,0.09122264385223389,0.09023526310920715,0.0011201918823644519,-0.04567717760801315,0.010918901301920414,-0.03128892928361893,-0.06352830678224564,-0.06843173503875732,-0.011398514732718468,0.030571214854717255,0.049903012812137604,0.04833204299211502,0.0015961603494361043,0.011523334309458733,0.025183459743857384,0.007238549180328846,0.007896116003394127,0.02631949819624424,0.04036768898367882,0.001595884095877409,-0.022250395268201828,-0.034414373338222504,-0.030193237587809563,-0.02461751364171505,-0.02679719217121601,-0.029554802924394608,-0.05100230127573013,-0.044567834585905075,-0.017061080783605576,-0.04748872295022011,-0.002912740455940366,-0.038493812084198,0.012512261047959328,-0.007414556108415127,-0.022208543494343758,-0.013009150512516499,-0.025498416274785995,-0.08283450454473495,-0.09974880516529083,-0.13568143546581268,-0.12949886918067932,-0.05692416802048683,-0.011112171225249767,0.00717277592048049,-0.037881653755903244,-0.019565235823392868,-0.01844148524105549,-0.07954002916812897,-0.14116081595420837,-0.18670549988746643,-0.313407838344574,-0.16582003235816956,-0.09211748838424683,-0.03433907404541969,-0.038673676550388336,-0.022939659655094147,-0.05560358613729477,-0.04689948633313179,-0.022210409864783287,0.037104297429323196,0.013285276480019093,-0.043262604624032974,-0.11319021135568619,-0.08738745748996735,-0.02736046351492405,0.048106320202350616,0.022827187553048134,0.006460485979914665,-0.01803894340991974,-0.060378119349479675,0.023910757154226303,0.11217640340328217,0.15060855448246002,0.16504694521427155,0.06083313375711441,-0.028611578047275543,-0.05707484111189842,0.06221906095743179,0.03163345530629158,-0.007519558537751436,-0.015309901908040047,0.013724898919463158,0.07237860560417175,0.08508554846048355,0.17622962594032288,0.19044052064418793,0.09749320894479752,-0.10736117511987686,-0.20563535392284393,-0.035684723407030106,-0.022493237629532814,0.014533896930515766,-0.034746203571558,-0.05966736376285553,-0.013058297336101532,-0.020137036219239235,0.05434276536107063,0.003502447158098221,-0.0625312402844429,-0.07625564932823181,-0.10349307209253311,-0.04431319236755371,-0.0014363660011440516,0.00227969023399055,-0.02439168281853199,-0.06803024560213089,-0.056403469294309616,-0.11255837976932526,-0.06689948588609695,-0.0771317183971405,-0.035320933908224106,-0.03590245172381401,-0.04539214447140694,0.04333674907684326,-0.0015095905400812626,9.750900062499568e-05,-0.03471926599740982,-0.01593104749917984,-0.06462228298187256,-0.0676841288805008,-0.05946490541100502,-0.021883677691221237,-0.03476713225245476,-0.0625714361667633,0.03676388040184975,0.08137403428554535,-0.000534839287865907,-0.009425322525203228,-0.03302599489688873,-0.03325818479061127,-0.06809618324041367,-0.002210919512435794,-0.02122066356241703,0.06652117520570755,0.04119427129626274,0.048636071383953094,0.03177853673696518,0.03913489729166031,0.030282702296972275,-0.002538109663873911,-0.009922401048243046,-0.003272442612797022,-0.0390157625079155,-0.00253675295971334,0.03731812909245491,0.10357245057821274,0.1257275491952896,0.08143077790737152,0.021017780527472496,-0.025340953841805458,0.020670490339398384,-0.00213110214099288,0.014612012542784214,-0.02840377949178219,-0.001699088141322136,-0.009998717345297337,-0.0019375958945602179,0.04934591054916382,0.019451024010777473,0.03819474205374718,-0.03288799151778221,-0.012248370796442032,0.01079042162746191,-0.01906602457165718,0.016812443733215332,0.053489718586206436,0.003055794397369027,0.015297221019864082,0.061190880835056305,0.02653239667415619,0.025706933811306953,0.00785275362432003,0.01028482522815466,0.00615500845015049,-0.012634474784135818,-0.12372634559869766,0.05044344440102577,0.017309973016381264,-0.011172781698405743,0.02248661406338215,0.03575000539422035,0.01814264804124832,-0.002808620920404792,0.029474694281816483,-0.01359248161315918,0.023704107850790024,0.014491929672658443,0.005061045289039612,0.0338936522603035,-0.018466297537088394,0.017514323815703392,-0.0018871454522013664,0.052900280803442,0.059769365936517715,-0.0008583535673096776,-0.017150389030575752,0.0030813640914857388,0.024661676958203316,0.009594516828656197,0.01761365868151188,0.004262170288711786,-0.030519798398017883,-0.03053826279938221,0.0038646450266242027,0.029118170961737633,0.04386287182569504,0.03545272722840309,0.011594043113291264,0.003869042731821537,0.038260407745838165,-0.014984745532274246,0.034572843462228775,-0.07536911964416504,-0.0622841976583004,-0.04541033133864403,-0.03563806414604187,0.009094534441828728,0.0651480183005333,0.08418520539999008,0.06715019047260284,0.023136308416724205,0.012770745903253555,-0.027359534054994583,-0.057496968656778336,-0.13109569251537323,-0.14205563068389893,-0.1109955832362175,-0.0787440687417984,-0.004622529726475477,0.03427863121032715,0.03549787402153015,0.05244658887386322,0.022660672664642334,-0.0039050919003784657,-0.04256870970129967,-0.0769515112042427,-0.07252440601587296,-0.11799222975969315,-0.07703818380832672,-0.12183336913585663,0.0023220551665872335,-0.06635941565036774,0.005002474412322044,0.012799658812582493,0.0018050491344183683,-0.03078160248696804,-0.06015923619270325,-0.02124248817563057,-0.013165897689759731,-0.04109269380569458,-0.08925533294677734,-0.05125141143798828,-0.026759084314107895,-0.03328675404191017,-0.015996241942048073,-0.009289377368986607,-0.0035103110130876303,0.025977347046136856,-0.006029926240444183,-0.03681475296616554,-0.03209171071648598,-0.013053599745035172,-0.037093229591846466,-0.04133374243974686,-0.009062319062650204,-0.025060923770070076,-0.0034107051324099302,-0.02448153682053089,-0.025756459683179855,0.03299259394407272,0.0032838142942637205,0.015413808636367321,0.025953082367777824,0.021642275154590607,0.00425642030313611,0.024764757603406906,-0.006430401932448149,0.011660176329314709,0.018557114526629448,-0.004820329137146473,0.038976721465587616,-0.0011068469611927867,0.013270670548081398,0.012065961956977844,0.006096093915402889,0.02422218769788742,0.03485358506441116,0.039899587631225586,0.026610039174556732,0.028994165360927582,0.04032198712229729,0.025989295914769173,0.016949214041233063,0.0648537203669548,-0.013162195682525635,0.07641946524381638,0.11118531227111816,0.10680335760116577,0.10551296174526215,0.08530214428901672,0.06953718513250351,0.12154430150985718,0.10216289758682251,0.03376796469092369,0.06969151645898819,0.013644945807754993,-0.04604392126202583,0.06096349656581879,0.0003512253169901669,-0.0975426509976387,-0.11687618494033813,-0.157775416970253,-0.21752385795116425,-0.2046111524105072,-0.06580118089914322,-0.04431835561990738,-0.08609052002429962,0.04212755709886551,0.03616970032453537,0.07406116276979446,-0.010179106146097183,-0.06289589405059814,-0.009012690745294094,-0.054869070649147034,-0.17157457768917084,-0.10965434461832047,-0.08560361713171005,-0.03473880887031555,0.017866985872387886,0.08731861412525177,0.0573316253721714,0.05415887013077736,-0.05898117646574974,-0.013060621917247772,-0.02918936498463154,-0.09395512193441391,-0.06913337856531143,-0.1089097261428833,-0.10776400566101074,-0.034003846347332,0.02584121935069561,0.029170148074626923,0.06103155016899109,0.05880262702703476,-0.004065546672791243,-0.05381269380450249,-0.05170171707868576,-0.07361466437578201,-0.018278345465660095,-0.03687857463955879,-0.062473904341459274,-0.06347694247961044,-0.010423176921904087,0.014459306374192238,0.017091654241085052,0.010263520292937756,-0.06962018460035324,-0.021269390359520912,0.03512641414999962,0.04348892718553543,0.03618864715099335,0.005146527662873268,-0.006234752479940653,-0.027827570214867592,0.03321864455938339,-0.03176671639084816,-0.016102900728583336,-0.12200085073709488,-0.06206889823079109,0.03485311195254326,0.07306225597858429,0.08431749045848846,0.06273113936185837,-0.0065689776092767715,-0.09937126189470291,0.004050504881888628,0.035208459943532944,-0.015846868976950645,-0.03396648168563843,-0.08278939872980118,0.17241743206977844,0.13036035001277924,0.03324318304657936,0.05704890936613083,0.03143051266670227,0.005959175527095795,0.005393794737756252,0.08289596438407898,0.06354410946369171,0.05791870504617691,0.0005794973694719374,-0.07444355636835098,0.10561438649892807,0.00411565275862813,0.04375912621617317,0.047006022185087204,-0.03222193568944931,0.004024331923574209,0.062085844576358795,0.04406081140041351,0.06738962978124619,0.04812617599964142,0.029365895316004753,-0.05605725944042206,-0.0013510467251762748,-0.0068201469257473946,0.01693098060786724,-0.03368370234966278,-0.009024220518767834,-0.02335396595299244,0.034887343645095825,0.0006282940739765763,0.01770247332751751,-0.011801593005657196,0.020047785714268684,-0.09068332612514496,-0.04436936229467392,-0.04347052425146103,-0.05975852161645889,-0.051985520869493484,-0.03555909916758537,-0.016396857798099518,-0.06300458312034607,-0.07104906439781189,-0.10082607716321945,-0.0299032311886549,-0.014195689931511879,-0.06855463236570358,-0.16378523409366608,-0.0817953422665596,-0.004403981380164623,-0.04693533852696419,-0.06570781022310257,-0.07316101342439651,-0.1186235249042511,-0.1146843433380127,-0.005657369736582041,-0.0004437488969415426,0.0027910303324460983,-0.004777789581567049,-0.06520704180002213,-0.05875257030129433,-0.07440586388111115,-0.06186102703213692,-0.07966551184654236,-0.12341427803039551,-0.10839254409074783,-0.08407534658908844,-0.04698878526687622,-0.11377215385437012,-0.013456733897328377,-0.015291151590645313,-0.030352933332324028,-0.11118736863136292,-0.10009463131427765,-0.08926387876272202,-0.006560932844877243,-0.08801919221878052,-0.024624457582831383,0.07491959631443024,0.004930264316499233,-0.01893499121069908,0.0024363563861697912,0.016499672085046768,-0.05547745153307915,-0.12070018798112869,-0.003051921958103776,0.043646860867738724,0.14803384244441986,0.1453842669725418,0.1397060602903366,0.11126818507909775,0.058063965290784836,0.033523473888635635,0.03568195551633835,-3.815781747107394e-05,0.023348819464445114,-0.050038594752550125,0.04630987346172333,0.19843195378780365,0.21956411004066467,0.1810762882232666,0.22542382776737213,0.1639832854270935,0.11102285981178284,0.06127433851361275,0.02215329185128212,-0.003350241342559457,